0.833932
-0.315042
-0.489852
0.583158
0.654914
-0.578395
-0.656328
2.813504
0.696725
-0.000680
0.916064
-0.062896
-0.170301
-3.866663
0.952016
0.041888
-0.965132
-0.910136
-0.174617
-0.028632
0.689877
0.119805
-0.957558
-0.661600
0.931310
0.486983
1.036592
0.761358
0.589510
-0.026129
0.429178
-0.906563
0.687092
-0.979282
-0.641529
-0.874305
0.275480
0.967566
-0.305665
0.218013
-0.320843
-0.232466
-0.576431
0.108438
-0.929742
-0.378303
-0.398813
-0.183085
-0.783554
0.998733
0.737986
-0.394848
-0.113437
0.346771
-0.850777
0.861207
0.931441
0.105607
-0.249218
0.062105
-0.501476
-0.894474
0.056504
0.643760
0.633074
-0.750444
-0.397199
0.321992
-0.708716
-0.444926
-0.031463
-0.808758
0.516114
-0.581271
0.665957
0.585162
-0.085272
-0.463521
0.446984
0.033651
-0.190940
-0.679328
-0.023084
-0.083073
-0.544424
-0.702886
-0.210506
0.588159
0.848748
0.903504
0.115746
0.545797
0.018233
-0.504604
-0.048882
-0.812258
0.160850
0.001012
-0.895823
-0.237441
-0.002953
-0.015221
0.006468
-0.038593
0.556363
-0.074067
-0.142512
0.609213
0.067061
-0.350338
0.260830
0.206363
0.511480
-0.129569
-0.910906
0.201193
0.885940
0.561825
0.134282
0.979582
0.008967
0.910252
0.144568
0.979707
-0.334785
-0.586199
0.765086
0.276982
-0.573998
0.045369
-0.705923
-0.124909
-0.205308
0.938806
-0.586700
-0.823193
0.740290
0.651052
0.374945
-1.187880
-0.942361
0.697870
-0.914911
-0.624610
-0.350211
0.586479
0.183820
0.621319
0.086246
-0.923969
-0.157970
-0.470890
-0.006202
-0.099120
-0.146071
0.142761
0.597796
-0.258031
0.406712
0.441318
0.551678
0.061323
-0.072248
0.914012
-0.106862
-0.379587
0.685538
0.454006
0.710471
-0.439947
0.637982
-0.265932
0.512552
0.385928
-0.537589
-0.797427
0.924390
0.372029
-0.671039
0.477523
-0.633248
-0.459916
0.035543
-0.878704
-0.479253
0.193724
-0.738444
-0.342637
0.041825
-0.027872
0.768763
-0.902017
0.597926
-0.134565
-0.297385
-0.083399
0.317264
0.717811
-0.719337
-0.716810
-0.761217
-0.521687
-0.353444
0.679743
0.505016
-0.414532
-0.020570
0.625438
-0.806884
-0.499562
0.509554
-0.266134
0.984641
0.173507
-0.772910
0.797543
-0.229660
0.682868
-0.841247
0.836693
0.089157
-0.735605
0.451763
0.706207
0.424944
-0.425253
0.137148
-0.221950
-0.280512
0.629929
0.465324
-0.699000
-0.805543
0.069003
0.085897
-0.747252
0.561559
-0.079820
-0.624455
-0.834853
-0.903619
0.065591
0.793789
-0.335864
0.533800
0.806746
0.032586
-0.393828
-0.221328
-0.112453
-0.495863
0.028523
-0.354448
0.414653
0.829295
0.617025
0.489684
0.765972
-0.331367
-0.025458
-0.359362
-0.880330
-0.081232
-0.776460
-0.571506
0.249616
0.219206
-0.178405
0.761504
0.863388
0.564818
-0.182057
-0.798212
-0.828986
0.876825
0.755234
0.082002
-0.440065
-1.109717
0.927141
-0.113901
-0.574585
-0.163781
-0.362364
0.028680
-0.387347
-0.950637
-0.425839
-0.942653
0.595697
-0.226484
-0.482601
-0.816090
0.635387
-0.717905
-0.261628
-0.036180
0.202937
-0.046269
0.464605
0.470096
0.163256
-0.596007
-0.267161
-0.403279
0.614006
0.336135
-0.174506
-0.012432
0.650346
0.480425
0.702414
0.971678
0.072343
-0.939757
-0.263966
0.718164
0.839727
-0.430226
0.895657
0.014299
0.096396
0.879009
-0.181657
0.854366
0.727322
-0.993389
-0.181196
0.596421
-0.559113
-0.569879
-0.429646
0.021034
-0.311879
0.566856
0.920988
0.371135
-0.345673
0.033295
0.582702
-0.455137
-0.539358
-0.726711
-0.599882
0.403760
-0.536259
0.780338
-0.563092
0.456148
0.689761
-0.801966
-0.217192
-0.128246
-0.485156
0.394123
0.361890
0.790179
0.418622
-0.133126
0.945238
8.776038
0.192811
0.131940
0.418855
0.653463
-0.715658
-0.040269
0.346569
0.743606
-0.824941
-0.118086
0.711742
0.640255
-0.333738
-0.267064
-0.585173
0.025704
0.072645
0.985102
-0.894877
0.928712
-0.456814
-0.681669
0.452618
-0.284820
0.598169
0.320073
-0.628409
-0.601703
-0.103977
0.495497
-0.219235
0.636324
-0.134061
0.957860
0.092162
0.324890
-0.536361
0.515749
-0.793022
-0.961084
-0.205386
0.400691
-0.779225
-0.839400
0.510550
-0.031431
0.513834
0.498235
0.234742
0.562517
0.310821
-0.629142
0.643346
-0.765679
0.081113
-0.323374
-0.501613
0.784752
-0.730323
0.197570
0.551137
-0.599516
-0.510900
0.092116
0.192633
-0.966487
-0.406970
-0.660806
-0.980550
-0.830940
0.079323
-0.110353
0.668306
-0.119431
-0.223008
0.349935
0.507852
-0.009290
-0.506414
0.979101
0.019474
-0.315739
0.931182
-0.002928
0.075401
0.239081
-0.979776
0.000520
0.698544
-0.082188
0.972526
0.055633
0.560796
0.021452
-0.661162
-0.537907
0.620249
-0.534316
0.361800
0.743253
-0.318826
-0.247845
-0.435659
-0.030278
-0.676970
0.058108
-0.344251
-0.148338
-0.545719
-0.448167
-0.673116
0.420624
0.573695
0.418626
0.629782
-0.300978
0.283130
0.342471
0.464158
-0.375856
-0.112281
0.241031
-7.465729
-0.715910
-0.016191
-0.852597
0.102554
-0.894715
-0.735656
-0.857146
0.861233
0.326844
-0.770523
0.678067
0.311934
0.916290
-0.316096
-0.980674
-0.231157
0.056509
0.917324
-0.278138
0.290376
0.718415
0.475998
0.195298
-0.746882
0.852644
-0.958170
-0.071985
-0.189307
-0.184432
-0.188713
0.632725
0.242968
-0.390297
0.106464
-0.079902
-0.503452
0.964407
-0.537998
-0.795543
0.699126
0.625743
0.531361
-0.072887
0.009548
-0.474292
0.927111
0.534101
-0.093167
-0.418751
-0.984110
0.989233
-0.825197
0.457247
0.280031
0.758861
-0.060592
0.614243
0.627262
0.697077
-0.312775
0.089802
-0.461046
0.098549
0.855953
-0.411202
-0.864062
0.263797
-0.877166
-0.595826
-0.127837
0.371693
0.710851
-0.273034
0.290365
-0.094357
0.008197
-0.271386
0.642086
-0.246507
-0.484828
0.448067
-0.869226
0.070895
0.208684
-0.616532
0.529295
-0.449725
-0.377375
-0.579385
-0.861139
-0.019434
0.003262
0.657396
-0.504916
0.835675
-0.812843
-0.342965
-0.558803
0.271852
0.444885
-0.826387
0.626763
-0.529594
-0.086113
0.986147
0.681746
0.456659
-0.840871
0.040811
0.671528
-0.068624
0.243228
-0.834363
0.152970
0.945045
-0.691988
-0.192573
-0.241977
0.115502
-0.280023
-0.211313
-0.276754
-0.660138
-0.386623
-0.172006
0.432831
-0.908737
0.429900
-0.399418
-0.237272
-0.239324
0.897051
0.488155
-0.017027
0.207610
-0.179394
-0.586864
-0.637197
0.163175
-0.296560
-0.209819
-0.090177
-0.297609
0.073501
0.764168
0.638541
0.718906
-0.188402
-0.541074
-0.846943
0.098260
0.918258
-0.075886
0.730614
0.433802
-0.187922
0.923698
-0.752062
-0.300836
-0.516667
-0.830754
0.515863
-0.122934
0.708422
0.699220
-0.868220
0.641776
-0.079150
-0.448251
-0.511716
-0.296450
-0.202616
-0.161514
0.921449
-0.637007
-0.310558
-0.312577
-0.228061
-0.787618
0.348238
-0.791813
0.237217
-0.539572
-0.474225
-0.293828
-0.980548
0.467208
0.570329
0.739301
-0.638231
-0.282522
-0.335113
0.496095
0.009931
-0.483572
-0.543623
0.317384
-0.603242
0.426690
0.883094
-0.206667
-0.801854
0.144292
0.375431
-0.636917
-0.571914
0.360541
0.553654
-0.722417
-0.468247
-0.536733
-0.675635
-0.289855
0.938845
0.997007
0.587697
-7.282866
-0.365902
-0.613880
-0.047491
-0.383702
-0.127282
-0.498604
-0.154304
0.654422
0.155164
-0.259262
0.672575
0.216477
-0.613304
0.489609
0.013601
-0.071755
0.067928
0.755769
0.734417
-0.225069
0.042022
0.999746
-0.711098
-0.166039
0.847356
0.397204
0.151595
0.238280
-4.145830
-0.091008
0.452929
-0.151412
-0.971330
0.106748
0.598805
-0.698403
0.531326
0.602622
-0.966502
-0.823583
0.129109
-0.863067
0.898466
-0.395875
-0.723056
-0.548540
0.910573
0.316348
-0.990361
0.241549
-0.883177
-0.819454
0.355160
-0.782283
0.573002
0.896759
-0.196576
-0.784583
0.799242
-0.969174
0.062200
-0.573812
-0.349761
0.451682
-0.385889
0.315885
-0.997124
0.274305
-0.134900
0.455254
0.617747
0.105121
-0.571829
0.414621
0.113462
0.165521
-0.450259
-0.451183
0.101104
0.450146
-0.678748
-0.507863
0.448095
0.860346
0.293331
-0.811986
-0.698942
-0.767848
0.087172
0.342555
-0.818471
-0.600319
-0.656957
0.643880
-0.646534
-0.044050
0.930286
-0.660266
0.264942
0.180025
-0.431522
-0.818708
0.794883
-0.499426
-0.637286
-0.261225
-0.087726
-0.835904
0.059879
0.218467
0.056996
0.012258
0.204760
-0.775483
-0.507219
0.513592
-0.862954
0.408736
-0.393913
0.849953
0.022331
0.222097
0.163651
-0.007617
-0.725797
0.770793
-0.578467
-0.964445
0.916077
0.280803
-0.582516
0.195866
-0.846062
-0.522109
-0.514393
-0.733176
-0.078042
-0.717393
-0.201354
0.249476
-0.661310
0.300744
-0.253331
-0.090333
0.953197
0.673700
0.313340
-0.213615
0.677093
0.433654
0.683434
0.364338
0.481198
0.253064
0.526112
0.650663
0.288256
-0.830977
-0.062914
0.115053
0.581922
-6.277744
0.750882
0.555074
0.121322
0.275925
-0.526189
0.899847
0.601951
0.385446
-0.711346
-0.384913
0.945807
0.054826
0.570330
-0.626910
-0.200992
0.526204
-0.545429
-0.954185
-0.726745
0.303585
-0.796298
-0.932710
-0.923866
0.059727
0.760110
-4.988479
-0.991933
0.175054
-0.493575
0.419517
0.462759
-0.965111
-0.913483
0.334939
-0.480938
0.808506
-0.955078
0.371527
0.217700
0.898971
-0.343303
-0.378236
-0.982891
-0.239373
-0.692852
-0.775809
0.777975
0.225330
-0.334675
-0.383184
0.936937
-0.986990
-0.062934
0.150299
0.327047
0.124649
-0.716624
0.561345
0.803910
-0.866193
-0.679951
-0.159640
0.628017
-0.873362
0.803402
0.479650
0.188468
0.650853
0.745805
0.225780
-0.290402
-0.560959
0.730138
-0.136664
0.868478
-0.396548
-0.152334
-0.980960
0.625216
0.548203
0.221308
0.114745
-0.845501
-0.806913
-0.698020
-0.021675
-0.369308
0.535370
-0.241641
0.658587
-0.165694
0.862078
0.237527
-0.725462
-0.065259
-0.118197
0.099748
0.995177
-0.864989
-0.863495
-0.460323
0.748910
0.040543
-0.639671
-0.483443
0.614668
-0.662156
-0.492097
0.070079
0.240975
-0.788424
-0.421222
-0.341985
0.429930
0.282670
0.289626
0.368073
-0.366181
-0.211763
-0.519551
0.373375
-0.700345
0.719903
-0.979497
0.956477
-0.303897
-0.250113
-1.216801
-0.803744
0.896158
0.138636
-0.568385
-0.709353
0.608549
-0.069269
-0.009693
-0.435255
0.146904
0.223148
0.444781
0.829799
0.747597
-0.614868
0.134604
0.767133
0.559061
-0.854591
-0.850941
0.337176
0.670431
0.787311
0.242209
0.743636
-0.816277
-0.099019
0.872888
-0.652189
0.335454
-0.884136
0.198104
0.908266
0.005145
0.736894
0.360646
-0.046799
0.206215
-0.409243
-0.703231
-0.309779
0.874622
0.926472
0.907788
-0.919491
0.715656
0.215388
0.051739
0.808115
-0.065712
-0.778478
-0.149013
0.165306
-0.078137
0.880586
0.990802
-0.135125
-0.269285
0.414923
-0.159862
0.312444
-0.512781
-0.815937
-0.994959
0.318955
-0.515912
0.731291
-0.930701
-0.902796
0.388145
0.854124
-0.711026
0.914425
0.637915
-0.464427
-0.315355
-0.676129
0.950908
-0.447606
-0.831577
0.218688
-0.969321
0.300099
-0.567956
0.529829
-0.681308
0.212529
0.056134
0.357740
-0.904792
0.876943
-0.584814
0.518505
0.001566
-0.192063
-0.439902
0.621185
-0.379117
-0.576146
-0.812045
0.159540
-0.950118
-0.482225
-0.004906
-0.619958
-0.558708
-0.824769
-0.833634
-0.943182
-0.329940
-0.948715
-0.921202
-0.098744
-0.086788
-0.293888
0.499381
-0.533132
-0.959006
-0.583695
0.135777
-9.687396
0.231160
-0.780458
-0.899536
-0.425987
0.450580
0.523497
0.781469
-0.513475
0.794558
-0.606588
-0.758531
0.895722
0.344427
0.766493
-0.461207
0.268741
-0.777055
0.120086
0.071011
0.846261
-0.242898
0.534457
-0.861362
0.601116
-0.894734
-0.760774
0.714832
-0.591705
0.190260
-0.604260
0.755960
-0.033677
-0.143702
-0.086881
0.271196
-0.473421
0.547842
0.794560
0.238198
-0.962578
-0.209676
0.519996
-0.192056
0.914652
0.590759
0.785880
0.857991
-0.651700
0.845910
-0.611652
-0.216062
-0.986442
0.901732
0.147793
0.188982
-0.846084
-0.657096
-0.173559
-0.502986
0.417672
0.703348
-0.263859
0.534500
-0.671703
0.765896
-0.431958
-0.887325
-0.380022
-0.402650
0.207671
0.438421
0.488282
0.142482
0.041692
-0.059657
-0.424337
-0.535758
-0.198365
0.252055
0.632985
0.151941
-0.024846
0.485010
-0.191519
0.748812
0.006252
-0.113336
-0.891015
0.942779
-0.876471
-0.269173
0.325914
0.559151
0.629095
0.528644
0.738064
0.341099
0.711328
0.724416
0.892646
-0.070415
0.170149
0.086129
-0.018836
0.139460
-0.499058
0.953599
-0.754045
-0.471826
-0.427772
0.527959
0.658916
0.876633
-0.337820
-0.751695
0.326272
-0.413118
0.480582
0.526597
0.522257
-0.965369
-0.374920
0.719062
-0.906089
-0.013761
0.688707
0.262928
-0.851984
0.511691
-0.143277
-0.362224
-0.961590
-2.473244
-0.917244
-0.547226
0.176606
-0.271423
0.857310
-0.094714
-0.158367
-0.242942
-0.470547
0.549517
-0.567696
-0.214967
0.420132
0.249250
-0.246297
-0.167034
-0.881114
-0.151852
0.402685
0.829603
0.790817
-0.562842
0.060632
0.478587
0.739538
-0.401776
-0.177271
-0.628788
-0.457903
-0.068147
-0.944636
-0.448615
-0.574751
-0.567946
-0.676999
0.443776
0.211117
0.131087
0.917343
-0.873500
0.243677
-0.720009
0.719030
0.971246
-0.761079
0.437304
0.330329
-0.845865
-0.393184
0.503010
-0.705330
-0.910763
0.852917
0.643122
-0.538300
-0.156305
-0.567064
0.072521
-0.271751
-0.154699
-0.868850
0.094036
0.632039
0.497072
0.283467
-0.389888
-0.185974
0.962419
0.372742
-6.890201
0.969422
0.374761
0.039946
0.390584
-0.517288
0.010951
-0.863288
0.050109
-0.152877
0.817705
0.685993
-0.518906
0.686405
-0.544052
-0.939604
0.758668
-0.763480
-0.054890
-0.836989
0.909876
0.809590
0.017571
-0.518785
0.777957
-0.292321
-0.128351
-0.314088
0.622698
0.179530
0.046040
0.530088
-0.807822
0.973146
0.538512
-0.011446
-0.669215
-0.134487
0.905897
0.029225
0.694572
0.497853
-0.396128
0.469272
0.579591
-5.734812
-0.447858
-0.810328
-0.943932
0.288965
-0.776738
-0.800926
0.333260
-0.778997
0.547440
-0.217473
0.268626
0.989110
-0.006187
0.938138
-0.132001
0.393327
-0.069424
0.776490
0.854091
-0.002440
-0.610213
-0.487641
0.253228
-0.304313
0.723099
-0.735259
0.630065
-0.084273
0.111665
-0.618517
-0.188051
0.304333
0.307065
0.285647
0.467888
0.447002
0.724202
0.039813
-0.113272
0.201070
0.610406
0.733493
-0.878260
-0.710878
-0.750989
0.244379
-0.119941
-0.431568
0.244618
-0.800187
-0.728919
0.494925
-0.829952
0.870457
-0.607972
0.187096
-0.341863
-0.950994
-0.975351
-0.725792
0.671698
0.644810
0.780224
-0.903876
0.605756
-0.496864
-0.218530
0.229515
0.812609
0.683614
-0.218351
-0.800622
-0.327343
-0.748070
5.246771
0.793497
-0.062313
-0.731180
0.871477
-0.921757
-0.553032
-0.119885
0.651695
0.098549
-0.358906
-0.109951
-0.941522
-0.308327
0.752092
-0.236933
0.425953
-0.461498
-0.223956
-0.523130
0.283016
0.317800
-0.582660
0.856392
-0.645851
0.344883
0.161465
-0.284096
0.825129
0.292707
0.177670
0.757152
0.895874
-0.419006
0.708617
-0.624094
0.718272
0.728529
0.380686
0.689671
-0.335910
0.968387
0.814418
0.608470
-0.496181
0.429111
-0.250513
9.632823
-0.185248
-0.881523
0.771567
-0.568395
-0.449883
0.604708
-0.488826
0.025661
-0.993679
0.057824
0.085242
0.868930
0.060050
-0.615094
0.762767
-0.855522
0.346724
0.827860
-0.802938
-0.441650
-0.738108
0.445792
-0.482251
-0.453728
0.317182
0.845857
0.006938
-0.949202
0.961315
0.310697
0.912285
-0.051946
0.604189
0.170167
-0.283794
0.921663
0.783061
-0.195444
-0.530986
0.297012
-0.835399
-0.225887
0.438423
0.500905
0.437788
0.124530
0.549842
0.039885
0.699857
0.141118
-0.727367
-0.452742
0.925916
-0.940626
0.327914
-0.485395
0.394922
-0.130163
-0.850575
-0.531893
0.478525
0.904646
-0.216847
0.179715
0.195449
0.179345
0.127421
-0.981962
-0.165764
0.528090
0.887382
0.938164
-0.751005
0.716002
-0.364223
-0.589102
-0.629204
0.171467
-0.849285
0.237114
-0.419872
0.028719
-0.205707
0.213609
0.597601
0.612279
0.106664
0.125303
0.246274
0.891743
0.810430
-0.355678
0.092873
-0.751794
-0.759617
-0.365473
-0.795330
0.389652
0.594435
-0.484638
-0.639756
-0.654640
-1.043970
0.753601
0.801561
-0.078484
-0.658176
-0.232323
-0.270654
0.883804
0.978376
-0.491043
-0.985986
0.750999
0.568277
-0.207658
0.596997
0.738273
-0.507183
0.822131
0.266899
-0.588677
0.656679
0.192556
-0.995903
-0.513633
0.057814
0.209722
-0.493972
0.014960
-0.951684
0.574687
-0.509479
0.511908
0.737433
-0.339514
0.531221
-0.097622
4.873495
-0.249817
-0.686477
-0.672047
-0.033632
0.254993
-0.205598
-0.734877
0.373415
-0.301969
-0.637605
0.369248
0.691613
0.432548
0.702507
-0.067999
0.726538
-0.221609
0.476174
-0.911653
-0.096238
0.104431
-0.397740
0.307352
0.729784
0.554730
0.977460
0.455017
0.310026
-0.701506
0.687357
0.618382
-0.579382
-0.305945
-0.590810
-0.201951
-0.920256
-5.740517
0.320165
0.214221
-0.679076
0.740565
-0.995086
-0.335109
0.180565
-0.894610
0.660611
-0.827612
-0.898694
0.116273
0.509697
-0.739310
0.216705
0.869974
0.784697
0.166031
-0.898461
-0.575037
0.830952
0.104262
-0.160640
0.090125
0.061159
0.766488
0.245332
0.890860
-0.873494
0.441212
0.597257
-0.711318
0.559175
-0.434011
0.905386
-0.565400
-0.132569
-0.281013
0.841159
0.296061
0.433808
0.092592
0.392206
-0.391863
0.018878
-0.449815
0.178199
-0.125827
0.090757
0.232601
-0.135079
0.112510
0.838992
0.756010
-0.659951
0.142642
0.748241
0.698730
0.960390
-0.400279
-0.386167
-0.932941
-1.132281
-0.684570
0.262232
0.810047
0.701343
0.914392
-1.053375
-0.866564
0.096899
-0.120410
0.649805
0.530882
0.212450
-0.552192
0.425856
0.572185
-0.478276
-0.749756
0.395661
-0.790411
-0.688239
-0.862940
-0.209770
-0.422991
-0.329359
-0.220600
-0.324379
-0.826954
0.236806
0.033287
0.262556
0.353124
-0.525938
-0.245553
0.566615
-0.268548
-0.147739
-0.851596
-0.530032
-0.796828
0.134866
-0.263462
-0.296321
-0.368945
0.508403
0.241513
-0.919246
0.826231
-0.398361
0.343605
0.650662
-0.095215
0.388224
0.613583
0.461018
0.822990
-0.208464
-0.664687
0.010766
-0.015854
-0.118178
-0.169042
-0.868584
0.626474
0.707032
0.648078
-0.547261
-0.922590
-0.963466
-0.349007
-0.017815
0.665625
-0.079412
-0.655388
0.482293
-0.183905
-0.629447
-0.342736
0.825826
-0.031468
-0.479493
0.417646
0.618133
-0.307703
-0.438867
0.629194
-0.079915
0.954995
-1.095337
-8.889983
0.313824
0.639967
-0.030206
0.303962
-0.704269
0.735005
0.893030
0.670477
-0.152158
0.371904
0.181964
0.774570
-0.994808
0.093691
-0.303959
0.577911
-0.376602
-0.625016
-0.979749
0.728530
0.834181
-0.835877
0.085243
0.298989
-0.890746
0.781084
0.337489
-0.362204
-0.744156
-0.635493
0.631799
-0.749217
0.877493
0.399416
0.296181
0.689784
0.163989
0.621477
0.088529
0.362874
-0.722482
-0.697175
0.410486
0.052114
-0.070595
0.414562
0.989584
0.776725
-0.762469
-0.597443
0.459795
0.557790
-0.434571
-0.346495
0.795628
0.969058
-0.483799
0.380518
0.834010
-0.537048
-0.541340
-0.423951
0.612025
0.323616
-0.066900
0.220373
0.474963
-0.787542
-0.909311
0.031053
-0.737112
0.028204
0.648135
-3.076687
0.183795
-0.714090
0.847851
-0.145188
0.646896
-0.291660
0.050757
0.254200
-0.184571
0.806505
-0.003235
0.050761
-0.483561
-0.478038
0.281192
0.104370
0.994689
0.010256
1.049680
-0.258344
0.576255
-0.627769
0.889779
-0.520442
-0.956548
-0.057275
0.302753
-0.277781
-0.095696
-0.795205
-0.964762
-0.218043
-0.186205
-0.328881
-0.250136
0.294032
-0.714418
0.846498
-0.497550
-0.394888
-0.895895
-0.753150
0.315136
-0.651866
0.131540
-0.348063
0.041048
-0.294102
-0.981640
0.317151
-0.474592
0.833211
0.340419
0.422630
-0.093250
-0.123186
0.311838
0.821291
-0.070304
-0.891659
0.448076
0.047322
-0.623464
0.136891
0.214164
-0.102427
-0.509851
0.720994
-0.552562
-0.206417
0.843494
-0.245720
-0.225555
-0.156952
0.617730
-0.197661
-0.594205
-0.611417
0.108708
0.149871
-0.686205
-0.868457
-0.918890
-0.783395
0.058216
-0.726157
0.820164
0.035030
0.595366
0.910089
-0.307538
0.597328
-0.581218
-0.177874
0.718335
-0.435078
0.165412
0.267080
-0.628032
0.544938
0.845023
0.211632
0.332837
-0.691678
-0.205136
-0.099158
-0.467590
0.564270
-0.043290
0.844696
0.849041
0.664816
0.281900
0.177806
0.668983
-0.373249
0.467673
0.539458
-1.099804
0.212375
0.070046
0.728536
0.594221
-0.980068
0.829540
0.408895
-0.921422
-0.588018
0.897655
-0.320969
0.304143
-0.337084
-0.768013
-0.962818
0.529224
0.145039
-0.212359
0.182319
0.237738
0.196326
0.422406
0.356666
-0.073453
0.488239
0.709394
0.134097
-0.308936
0.153872
-0.329583
-0.522369
-0.786186
0.253630
0.407899
0.261445
0.408601
-0.946567
-0.718398
-0.775180
-0.289116
0.671537
-0.730343
0.158675
-0.361548
-0.853060
-0.964273
0.456882
0.384222
-0.397661
0.285881
-0.566875
-0.481062
0.528504
0.789383
-0.481803
0.347428
0.463027
-0.271281
0.193508
0.085201
0.542841
0.007504
-0.784593
0.273417
-0.412965
0.989349
0.473411
-0.482944
-0.615686
0.341870
-0.084503
-0.211430
0.809590
-0.432857
0.499748
0.328329
-0.139621
0.053211
0.650747
-0.646736
0.403089
-0.555330
0.059055
-0.153317
0.804309
0.232087
-0.606440
0.313147
-0.950869
0.886976
-0.726692
0.151485
-0.433128
0.393868
-0.016091
0.279599
0.658387
0.636729
-0.498071
0.233372
-0.274418
-0.712275
-0.238807
0.320252
0.035138
0.523288
-0.074766
-0.967997
0.846700
-0.857645
-0.584127
-0.478158
0.652169
0.970017
-0.925550
-0.887289
-0.681319
-0.512330
-0.711853
-0.534054
0.665204
-0.155822
-0.124346
-0.098932
0.360148
-0.195053
0.980257
-0.131053
-0.479192
0.903967
-0.509046
0.292352
-0.845463
-0.699928
0.448988
-0.036670
0.527721
0.606828
-0.003623
-0.763185
0.431572
-0.127906
0.050688
0.642772
0.042673
-0.506592
-0.579003
-0.341414
-0.555415
0.859582
0.274575
-0.333047
0.822963
0.107011
-0.321959
0.752298
-0.035032
-0.995826
0.574077
-0.167283
-0.251142
-0.017914
-0.216803
0.156532
0.540886
-0.742401
0.952892
0.271828
-0.831531
0.221930
0.442438
0.765356
-0.316558
0.015370
0.583843
-0.221998
0.280075
0.430386
0.764362
0.335166
0.360586
-0.497191
0.150586
-0.837344
-0.099329
-0.292153
-0.593566
-0.868676
0.573915
-0.130323
0.392519
-0.268690
-0.289265
0.177625
-0.926106
0.333182
0.029382
-0.102651
-0.955018
0.324569
-0.526309
0.717349
0.906853
-0.041376
0.323360
-0.205942
-0.405127
-0.179805
0.474396
-0.517751
0.459072
0.405459
-0.744595
-0.067498
0.738748
0.861756
-0.481313
-0.697426
-0.059010
0.547605
-0.075314
-0.342275
-0.949917
-0.468927
0.503533
0.143906
-0.496531
0.967248
0.017410
0.202767
0.816622
-0.747994
0.808966
-0.402805
0.589237
0.823870
-0.848106
-0.473351
0.281581
-0.245177
-0.990834
0.038015
0.220384
-0.734392
-0.387659
0.217554
0.446573
0.015024
-0.471984
0.431464
-0.428202
0.511181
-0.036083
0.850646
0.877994
-0.884247
-0.204504
-0.159074
-0.096081
-0.876741
0.757507
8.026751
-0.551095
-0.737154
0.824330
6.825884
-0.038219
0.654918
0.796849
0.383073
-0.617247
0.404226
-0.610817
-0.497732
-0.244797
-0.695650
0.669063
-0.059502
0.302123
-0.228162
0.493615
0.127605
-0.482987
0.634059
-0.090010
-0.238693
0.311332
-0.414501
-0.725490
-0.803129
0.106391
-0.126202
0.230001
0.466040
0.632494
0.283448
-0.705403
-0.255749
0.250848
-0.283155
0.795571
0.377339
0.346194
-0.377571
-0.952248
0.937786
-0.758885
0.288686
-0.044602
-0.818953
-0.360280
-0.764830
-0.758655
-2.267625
-0.748340
-0.125386
-0.243730
-0.012650
-0.340981
0.325629
0.942828
-0.611737
-0.602828
0.203872
0.387685
0.711797
0.871915
0.861318
-0.803879
-0.840134
-0.093848
0.212376
-0.834375
-0.444411
-0.537582
0.965318
0.957560
-0.253840
0.680606
0.478953
-0.671467
-0.871795
0.054220
0.132448
0.374565
-0.480996
0.604296
-0.586215
-0.479053
0.309092
-0.037617
0.283372
-0.625670
-0.866554
0.090815
-0.452236
-0.363797
0.804156
-0.997264
0.536020
0.830725
0.296319
-0.033101
0.600854
0.089376
-0.953660
-0.514238
0.899465
0.870864
-0.813095
0.284893
0.132416
-0.326697
0.882303
-0.655521
0.540371
-0.823296
-0.361190
-0.078712
-0.182180
0.497350
-0.903015
0.937211
-0.359602
-0.498579
-0.594039
-0.143326
0.968006
0.527285
-0.403301
0.272818
0.700452
0.082324
-0.906157
-0.677176
-0.841767
0.520409
-0.093141
0.527359
0.440704
0.014744
-0.558989
-0.963826
0.731444
-0.744878
-0.042782
0.383503
-0.312484
-0.554470
-0.298088
0.047927
-0.859285
0.106397
0.125927
-0.298045
-0.488434
0.351621
-0.277610
-0.770263
-0.120532
-0.632213
-0.069265
0.338213
-0.069980
-0.846339
0.578982
0.544544
0.073835
-0.213807
-0.393592
-0.855568
-0.312142
0.492719
-0.245209
0.724469
0.565059
0.298279
-0.974094
-0.294041
-0.990631
0.428025
-0.471882
-0.254567
-0.883727
0.200416
-0.023827
0.372950
0.352305
0.474866
-0.885628
0.374595
-0.571060
-0.539804
-0.167058
-0.166137
-0.741767
0.931847
-0.221841
0.594646
-0.412053
0.280501
-0.833810
0.745403
0.911396
0.906180
-0.312473
0.448580
0.044962
-0.053732
-0.979522
-0.230499
-0.768151
-0.076612
-0.253765
0.966179
0.698230
-0.495852
-0.479188
0.551500
-0.437823
0.709430
-0.702312
-0.119687
-0.367950
-0.279849
-0.773167
-0.995745
-0.851048
0.835918
0.360334
-0.602536
-0.360697
0.854854
-0.500545
-0.989659
0.638332
-0.700056
-0.240999
-0.441958
0.995727
0.030080
0.216600
-0.584451
0.958270
-0.473001
0.608138
-0.990426
-0.943110
-0.903647
-0.157385
0.311491
-0.578267
-0.023969
0.831880
-0.376472
0.144023
0.729328
0.978837
0.782562
0.312177
0.168126
0.270824
0.693265
-0.889221
0.717765
0.856924
0.454095
0.761858
0.756576
0.181652
-0.150351
0.388810
0.188864
0.734214
-0.905040
0.637672
0.339851
0.391544
0.828543
-0.856724
0.477375
-0.832079
-0.588312
0.531519
-0.234564
-0.975959
-0.760635
-0.747080
9.003263
-0.221703
0.094149
-0.508168
8.073358
-0.407692
0.169058
0.931185
-0.568518
-0.413036
-0.837302
0.297735
-0.624233
0.603298
-0.843292
0.385409
-0.737038
-0.553984
0.574952
-0.295707
0.061929
0.518640
-0.242649
0.573063
0.960823
0.952420
-0.397161
0.334655
0.029837
0.157834
-0.160737
0.359419
-0.449211
-0.258012
-0.895155
-0.588847
-0.231071
-0.242345
0.212942
-0.641511
-0.041304
0.892859
-0.575832
-0.967036
-0.238444
-0.580557
-0.941914
0.743716
0.340917
-1.124963
-0.167271
0.673863
-0.561692
-0.837223
0.054432
-0.783680
0.484372
0.896611
-0.750817
-0.020499
-0.782859
0.365763
0.005247
-0.227836
0.219543
-0.707295
0.302071
0.206185
0.753046
-0.911698
-0.325091
-0.574912
-0.457734
-0.551760
-0.647625
-0.663544
-0.242712
0.842413
-0.903173
0.207460
-0.624139
0.485541
0.271021
-0.352791
0.623931
0.978006
0.143270
0.286228
0.784063
-0.391819
0.496224
-0.646732
0.965702
0.984983
0.453685
0.368127
0.051382
0.203429
0.172245
0.951334
-0.746817
-0.964518
-0.990020
-0.136746
0.625474
0.264769
0.668199
-0.450802
-0.235904
0.210263
0.378498
-0.673114
0.172670
-0.621171
0.174783
-0.517302
-0.388191
-0.559498
-0.298611
-0.372965
-0.997411
-0.695747
-0.705726
0.319354
-0.942042
0.495853
-0.348978
0.390248
-0.742539
-0.264075
0.803022
0.806989
-0.367830
0.424248
-0.459395
0.427868
0.887625
0.169997
0.721299
0.744098
0.301282
-0.941491
0.308599
-0.859689
0.930376
-0.957733
-0.789085
0.068797
0.479148
-0.301356
-0.168313
-0.480551
-0.717751
-0.354947
-0.322570
-0.849799
-0.966158
0.797578
0.078720
0.703129
0.042400
0.927743
0.230313
0.273952
-0.339669
0.250744
0.884651
0.941633
0.423031
0.322168
-0.696524
0.953511
-0.212411
-0.204775
0.883839
-0.171862
0.496799
0.079232
-0.925583
-0.879824
0.769993
0.920526
-0.214855
-0.592977
0.109176
-0.956131
0.567532
-0.591968
0.600805
-0.214929
-0.814004
0.075357
0.758282
0.968054
-0.093983
0.742018
-0.399988
-0.479635
-0.095963
-0.170893
-0.653589
-0.898787
-0.312470
0.268570
-0.726643
-0.401931
-0.968454
-0.024222
0.465764
-0.719368
-0.011408
0.587608
-0.676661
0.654963
-0.920518
-0.399591
0.111533
-0.548854
0.455956
0.082806
0.621633
-0.733269
-0.651006
0.923624
0.381431
-0.756579
-0.505625
-0.878295
0.303858
-0.804726
0.679719
0.849784
0.706518
0.113066
-0.597185
-0.068964
0.693775
-0.990070
0.679000
-0.803495
-0.623003
0.991438
-0.229498
-0.079019
-0.488600
0.232922
0.921629
-0.308297
0.053977
-0.257918
0.291812
0.358469
-0.978695
0.996788
0.717871
-0.119114
0.285198
-0.912045
-0.002098
0.491377
0.905976
-0.386121
0.913509
-0.391821
0.146074
-0.656455
0.423668
0.161326
-0.316184
0.225699
-0.487097
-0.387003
0.285351
-0.015079
0.215218
-0.413343
-0.259285
0.212922
-0.627011
-0.616828
-0.276982
-0.644496
0.291675
0.098193
0.626127
0.276809
0.943938
0.557548
0.735185
-0.673663
0.264739
0.998295
-0.924511
-0.688082
-0.939154
-0.458152
0.467289
-0.518940
-0.112031
-0.349405
-0.712383
-0.379284
0.160564
0.284337
0.783639
-5.073324
0.917301
-0.145269
0.557781
-0.329701
-0.182579
0.863055
-0.607473
0.253530
-0.180233
0.710682
-0.779226
-0.401169
0.835211
-0.128139
0.769902
-0.460010
-0.967033
0.441348
-0.917636
0.879204
0.346953
-0.712695
-0.299451
0.031792
0.173992
-0.252483
0.789562
-0.415030
-0.884172
0.372858
0.794977
0.916757
-0.625116
0.856626
0.345738
0.300256
-0.335286
0.762951
0.048523
0.280338
0.667823
-0.367734
-0.915685
-0.732221
0.149758
0.801600
-0.678682
0.224112
0.141529
-0.538346
-0.060604
-5.328037
0.726099
0.936921
-0.856551
-0.761222
0.645407
-0.076368
-0.403899
0.690157
0.455490
0.799941
0.265472
0.017183
-0.572144
0.510465
0.295592
0.185650
-0.544869
0.750765
-0.077360
-0.776579
0.422492
-0.148659
-0.391165
-0.128746
-0.218264
-0.376482
0.436847
0.704278
0.050103
-0.336636
-0.018820
-0.622065
-0.484529
0.648413
-0.631975
-0.802690
0.223479
0.609379
-0.309863
-0.779966
0.412237
0.226472
-0.442179
0.744327
0.349141
0.212127
0.620963
-0.274468
-0.307279
-0.171770
-0.863224
-0.299132
-0.875773
-0.434541
0.685616
-0.148429
0.727362
0.977071
0.041012
-0.015958
0.874848
-0.006865
-0.336663
-0.021988
-0.626643
-0.565649
-0.694492
0.614559
0.822118
0.423459
0.360774
-0.664128
-0.284287
-0.213752
-0.720818
-0.402441
-0.341399
0.097446
-0.577558
-0.454478
-0.766967
0.974197
-0.436912
-0.833771
0.497436
-0.675892
-0.863397
-0.328207
-0.453278
-0.387889
-0.689174
0.729551
-0.889699
-0.391219
0.558841
0.029852
0.403741
0.767834
-0.521968
-0.429538
8.930844
-0.999470
0.607978
-0.848861
0.386582
0.701864
0.140847
5.996309
-0.644951
-0.694325
-0.054475
0.331371
-0.847672
-0.083872
-0.596038
0.840977
0.918434
-0.190994
0.150128
-0.936160
-0.279968
-0.637696
0.499315
0.239887
0.885900
-0.067761
1.073699
0.842638
-0.796520
-0.695881
-0.789097
-0.586453
-0.768817
0.461807
0.747702
-0.735667
0.435100
0.898081
-0.198943
0.538035
-0.582135
0.442900
-0.454019
-0.912899
0.479438
0.872022
-0.084996
0.240161
0.303874
0.424168
0.091320
-0.565430
0.379057
-0.143102
-0.041108
0.817527
-0.244387
-0.633542
0.363353
-0.981343
0.938835
0.573379
-0.715967
0.652019
0.626289
0.205519
-0.389864
-0.467826
0.403177
0.736090
0.403430
7.714983
-0.149325
0.927337
-0.280383
-0.455873
-0.469744
0.543511
-0.873833
0.595108
-0.460957
-0.482369
-0.252771
0.792589
-0.044001
-0.191328
0.445552
-0.229358
-0.697931
-0.072298
0.428235
-0.899545
0.222310
0.798130
-0.637802
-0.510693
-0.916034
-0.295418
0.956769
0.386470
0.439843
-0.348970
-0.334343
-0.531724
-0.614911
0.845153
0.538205
-0.602421
0.925503
0.522782
0.733468
-0.838036
-0.715588
-0.087778
-0.972976
0.245042
-0.035935
0.621439
0.174997
-0.760525
-0.765064
0.167607
0.491315
0.525880
-0.017694
-0.894006
0.826743
-0.417693
-0.254818
-0.996988
0.153173
-0.227036
-0.949667
-0.257784
-0.817555
-0.345455
0.428258
0.841133
0.323121
0.546333
-0.696747
0.422714
-0.412608
-0.977332
0.322798
0.269826
0.885870
-0.988867
0.373395
-0.724887
-0.846905
-0.790306
0.262999
-0.100763
0.715648
-0.014630
-0.621017
2.081602
0.509797
-0.372797
6.357156
0.878736
0.263600
0.994794
-0.918108
0.187429
0.523771
-0.509871
-0.042679
-0.842556
0.595831
0.122971
0.239319
-0.413953
0.543258
-0.699310
0.191064
-0.235505
-0.717325
0.600679
0.121887
-0.643233
0.001189
-0.056476
-0.001434
-0.130789
0.863058
-0.265531
-0.022573
0.949640
0.402584
-0.943371
-0.835781
0.647222
0.500723
0.150171
0.073224
-0.002902
0.477170
0.375241
-0.147012
0.685246
-0.907777
-0.317239
-0.459349
0.797875
-0.902561
0.514534
-0.178138
0.519784
0.074352
-0.962034
-0.737181
-0.659534
-0.330254
0.006538
0.245807
-0.173350
-0.994301
0.001015
0.942586
-0.641365
0.105435
-0.931001
0.522130
-0.877144
-0.866739
0.928303
0.566176
-0.365037
0.997693
0.458697
0.008870
0.116053
0.845625
-0.683053
0.065279
-0.333758
0.328902
-0.732406
-0.559379
0.593555
0.727180
-0.074091
-0.452910
0.776798
0.813080
0.562000
0.734943
-0.842254
-0.466852
-0.974291
-0.994607
0.304983
-0.059730
0.406260
0.575344
0.303234
-0.673395
-0.532153
-0.493226
0.669032
0.150246
-0.799732
-0.914203
0.908163
-0.282180
-0.228638
-0.043837
0.231177
0.338786
-0.020540
0.025524
0.159470
0.536466
-0.718214
-0.289771
0.421378
0.501427
-0.516975
-0.392771
0.773605
-0.781078
0.149779
-0.411005
0.883552
0.051708
-0.371278
-0.996591
-0.513605
-0.431896
-0.348169
-0.845482
-0.823534
0.081454
-0.191331
-0.684088
0.687801
-0.881055
0.684561
-0.769544
-0.762630
0.543438
0.429417
0.846120
0.192864
-0.327276
0.974561
0.463523
-0.939999
0.454569
0.866792
-0.192237
0.439398
-0.778764
0.551559
-0.803376
0.734157
-0.842385
0.971541
-0.346842
0.486314
0.379099
0.582785
-0.604700
-0.278553
-0.986177
-0.104756
0.607138
0.944722
0.021183
-0.099685
-0.286720
0.142371
-0.867325
-0.048976
0.895066
0.145879
-0.162565
0.681410
0.968982
-0.481352
0.149117
-0.992636
0.747177
0.848084
-0.058834
0.848142
0.899466
0.965835
-0.875574
-0.828694
-0.757470
-0.616133
-0.327802
0.437553
0.145465
0.820815
0.189182
-0.707861
-0.576186
0.165876
0.599203
-0.732107
-0.309738
-0.699687
-0.808734
-0.460270
0.360967
-0.374941
0.979334
-0.741708
0.566855
-0.117315
-0.472095
-0.356185
-0.142271
-0.507366
0.544283
0.914995
-0.389392
0.721394
0.029479
-0.002812
0.276118
-0.125335
-0.160060
-0.423988
-0.243779
0.578761
0.226401
0.996450
-0.680311
0.713228
0.636852
-0.268091
0.032129
0.248059
0.537564
-0.406074
-0.264414
0.285609
0.332374
0.969577
0.814470
-0.605686
0.403591
0.976053
0.580757
-0.124849
0.782847
0.305596
-0.123269
0.960784
0.668927
0.350005
0.859233
-0.478400
0.004268
-0.015635
-0.143012
0.994002
0.007800
0.834334
-0.952691
0.333116
0.100657
-0.496610
0.290989
-0.112787
-0.122227
0.605860
-0.676077
0.927196
-0.437333
-0.400742
-0.986774
0.646913
0.320972
-0.815162
0.029371
0.682891
-0.695324
0.647794
0.848602
-0.588339
0.852814
-0.375427
-0.358590
-0.914269
-0.549349
-0.230104
0.288480
-0.417615
0.349547
-0.665544
0.058186
0.737870
-0.144507
0.721514
-0.004152
-0.343090
0.533805
0.895523
-0.054846
0.912949
0.398785
-0.053503
-0.497125
-0.361585
-0.034698
0.347669
0.792863
0.122599
-0.955767
0.594236
-0.858341
-0.885303
-0.149961
0.041685
0.477365
-0.341795
-0.807932
-0.918168
0.207595
-0.843667
0.500925
-0.847064
-0.342815
-0.479831
0.513854
-0.765404
0.666122
0.087351
-0.185436
-0.861515
-0.474420
0.742641
0.238862
0.441023
0.099990
-0.536158
0.333875
-5.651810
0.942391
-0.474732
0.264454
0.760757
0.061254
0.561500
-0.138024
0.049326
0.005812
-0.288679
-0.085752
0.922977
0.135879
0.219777
0.908330
0.801070
0.930842
0.206760
0.256756
0.631058
0.868831
0.287334
0.912994
0.236064
0.261142
0.717454
0.050491
-0.255105
0.199855
-0.007980
0.568318
4.048946
-0.833636
-0.833410
-0.771922
0.084176
-0.449445
0.501932
-0.631736
-0.340709
0.209028
-0.143619
-0.374272
0.067359
0.879184
-0.146260
0.966555
-0.827511
-0.191508
0.883621
-0.351254
-0.888134
-0.453182
-0.002289
0.270049
-0.472071
-0.726051
-0.953782
-0.972185
0.053051
-0.674878
-0.071984
0.394316
-0.026504
-0.102196
-0.583103
0.018338
-0.237508
0.243691
-0.889693
-0.658705
-0.952060
0.154162
0.849610
0.319645
0.252528
0.249307
-0.676883
-0.696279
-0.429171
0.143218
-0.965669
-0.776236
0.725451
0.098230
-0.679386
0.429192
0.836189
-0.790341
4.067987
-0.256252
0.177922
0.550588
-0.121764
-0.825026
0.643361
0.533925
-0.368061
-0.979112
-0.685154
0.949653
0.804897
0.427423
0.598592
7.286043
-0.712705
0.847822
0.816031
0.584664
-0.599259
-0.639093
0.391745
0.244972
0.772672
0.792815
-0.206738
-7.579232
-0.808299
-0.720922
0.551416
0.709037
0.050009
0.872346
-0.363186
-0.317108
-0.091921
-0.310746
-0.227175
-0.107323
-0.786946
-0.092552
-0.167461
-0.891301
0.522927
0.383067
7.425911
0.189538
-0.890374
-0.761377
-0.013894
0.862503
-0.902296
-0.007986
0.211120
-0.351992
0.246441
-0.286378
0.297057
-0.920077
0.892074
0.590862
0.593156
-0.635853
0.779905
-0.032331
0.168617
-0.139383
0.102356
0.527558
0.019741
-0.262623
0.691038
-0.769935
-0.049788
0.011136
0.638864
-0.383634
-0.445572
-0.389799
-0.050417
0.644186
-0.677788
0.009412
-0.683081
0.398115
0.044664
0.425757
0.312177
-0.498277
0.429952
-0.176141
0.405492
-0.331719
0.472544
0.210087
0.129587
0.519930
1.082029
0.706459
0.593761
0.234649
0.242794
0.221316
0.883504
0.040614
0.285959
-0.412283
-0.091705
-0.711096
0.129350
0.250180
0.514175
-0.949159
0.015307
-0.680184
-0.992278
-0.652871
0.912792
0.936294
-0.921320
0.712233
-0.203244
0.764261
0.786080
-0.951092
-0.686657
-0.439915
-0.163216
0.156489
0.208387
0.342138
0.023751
-0.130646
-0.787417
0.251349
0.165932
0.960446
0.107200
-0.607465
0.768189
0.857312
0.121758
-0.431756
-0.418144
-0.846857
-0.800911
-0.211207
-0.873900
-0.877047
-0.459823
0.073431
-0.184493
-0.003019
3.322076
-0.171106
0.229177
-0.931732
-0.551241
0.143643
0.095198
-0.476945
0.862094
0.582952
-0.401089
0.715805
0.788906
0.187752
-0.016179
0.727999
-0.692592
-0.274833
-0.917975
-0.380848
0.362166
-0.053925
-0.929974
0.188100
0.115760
-0.521484
-0.292537
0.243674
-0.571643
-0.475200
-0.972269
-0.367898
-0.721740
-0.794447
-0.768820
-0.315295
-0.918315
-0.490367
-0.196955
0.106296
-0.251556
-0.465912
0.917327
0.583239
-0.779004
-0.880061
-0.518515
-0.260072
0.427854
-0.524227
0.776348
-0.839821
-0.852523
0.022980
0.773828
0.340404
-0.842870
0.193350
-0.551653
-0.063968
0.525653
0.074319
-0.008035
-0.554254
0.275761
0.390226
-0.375435
-0.014904
-0.708772
0.368462
0.634948
0.727014
-0.916379
-0.680085
0.491458
-0.621104
-0.985307
0.375213
-0.386218
0.858606
0.147705
0.407878
-0.889059
-0.658696
-0.434070
0.383100
-0.158489
-0.496747
-0.383015
0.150350
0.118590
0.367024
0.567890
0.821479
-0.625243
0.920043
-0.420437
-0.163897
-0.367917
0.615994
-0.098491
0.291534
-0.531770
0.319898
0.200378
-0.284218
0.789095
-0.484318
0.325793
0.002761
0.069542
-0.107902
0.168960
-0.069153
0.518069
0.845885
0.423225
-0.180013
-0.846391
0.235432
-0.684391
-0.759202
-0.168033
0.882146
0.034765
0.977913
-0.774650
-0.011593
-0.292484
0.343145
0.942505
0.525236
-0.036499
-0.939680
-0.273710
0.286424
-0.696860
0.152232
-0.224377
0.568652
-0.454446
0.303518
0.501126
0.263609
0.091431
-0.516013
-0.280004
-0.473171
-0.470344
-0.315122
-0.187219
-0.631052
0.040210
0.741156
0.394152
0.843156
0.385560
-0.041661
0.157039
0.151095
0.455540
-0.783308
0.146119
-0.174899
0.997648
0.251480
0.630524
-0.566166
-0.269807
-0.111333
0.476802
-0.503165
0.966181
-0.602530
-0.336996
-0.367348
-0.346669
0.509358
-0.726049
-0.921275
-0.380085
-0.093705
-0.691335
-0.912007
0.082410
0.517682
0.005238
-0.373844
0.753514
0.113275
0.510315
0.982327
-0.683992
0.719526
0.930473
0.586362
0.666288
0.756949
0.880344
0.037083
3.282816
0.176711
0.390566
-0.042817
-0.958981
-0.608033
-0.027352
-0.709196
-0.375692
0.442719
0.285138
0.763521
-0.370290
-0.696829
0.504931
-0.872303
0.579833
-0.076313
0.604278
0.608857
-0.877867
-0.143738
0.120122
0.244862
-0.323090
0.093842
-0.693253
-0.702243
0.470807
0.623871
-0.192699
0.184330
-0.574602
-0.263373
0.338073
-0.798282
-0.956145
0.598689
-0.512855
0.697536
-0.079816
-0.930369
-0.485773
-0.305557
0.860887
-0.135845
-0.612488
0.336441
-0.741632
0.424558
-0.588631
-0.291092
-0.442855
-0.910930
-0.872037
-0.425711
0.534812
0.939767
-0.586443
0.180261
-0.170903
0.885268
-0.903993
0.300140
-0.530810
-0.078394
-0.355799
-0.849134
0.738957
0.298967
-0.289720
-0.824764
0.779185
-0.590161
0.199818
-0.636829
-0.600389
0.906114
0.041483
-0.197404
0.386403
-0.161819
0.576769
-0.647246
0.857959
-0.788096
-0.148207
0.958479
0.616093
-0.819941
0.041572
0.550715
-0.416332
0.334739
-0.910831
-0.169367
0.005640
-0.468520
-0.151345
0.182914
0.317298
0.465412
0.373043
-0.685669
-0.571945
-0.215000
0.588247
-0.101789
0.214667
-0.260416
-0.839291
0.586161
-0.778298
-0.890410
-0.998981
-0.769966
0.500237
0.660223
-0.199741
0.310109
-0.336569
0.770697
-0.808643
0.466057
0.632026
0.997467
-0.518222
-0.802220
0.396981
0.495074
0.184993
-0.746395
-0.006732
-0.555107
0.562943
-0.420380
-0.100446
-0.862836
-0.208911
0.672231
0.900999
0.757497
-0.770927
-0.757621
-0.584091
0.792150
0.518883
-0.213717
0.925115
-0.028796
-0.737709
0.375672
0.939765
-0.143214
0.317943
0.012843
0.280809
-0.543153
0.260685
-0.909495
-0.746343
0.614793
-0.989224
-0.344783
0.261622
-0.273256
0.928980
-0.685926
-0.190717
-0.307675
0.065843
-0.620392
-4.299230
0.151091
-0.787528
0.062238
-0.517896
0.045904
-0.400922
0.432948
0.440352
-0.654829
0.913377
0.410387
0.232895
0.673314
0.265416
0.649758
-1.148705
-0.824335
-0.547158
0.705605
-0.349885
-0.048123
-0.639592
-0.284379
0.092896
-0.836455
-0.087484
0.828220
0.673981
-0.527699
0.468802
-0.136993
0.756706
0.496395
0.905714
-0.133616
0.509769
-0.959663
0.200585
0.067963
0.227473
0.890796
-0.038161
0.952031
0.986065
-0.432848
0.278289
0.923761
0.725182
-0.483675
-0.218054
-0.602970
-0.260366
-0.294258
-0.155872
-0.118241
0.262073
-0.074666
-5.098844
0.720078
0.048630
0.973008
-0.867839
-0.690578
-0.492179
-0.519960
-0.495016
-0.416558
0.106334
-0.959873
0.451158
0.326087
0.067170
-0.838393
0.790243
-0.766415
-0.401333
0.616219
-0.788802
-0.674830
-0.546333
-0.096407
-0.380166
-0.108026
0.073941
0.164790
-0.058422
-0.420637
0.579012
-0.926714
0.091205
-0.489884
0.907568
0.419226
-0.018947
-0.567855
0.452474
-0.173979
0.470226
0.513310
0.911018
-0.841055
-0.243002
0.798251
0.629110
0.913594
-0.782671
0.827594
-0.426240
0.917265
0.136982
0.149093
0.041287
0.924464
0.172199
-0.279576
0.396478
-0.918348
-0.704069
0.362896
-0.541316
0.277954
0.210248
-0.158619
0.832445
-0.664024
0.136681
0.955672
0.360773
-0.983654
-0.483255
0.987109
0.645909
0.658129
-0.984460
0.465511
-1.057592
-0.508178
0.161555
0.235610
0.397384
-0.253464
-0.417067
0.827699
0.568156
-0.027941
-0.940624
0.743542
0.239338
0.335725
-0.499993
-0.356344
0.602962
0.799831
0.367211
0.506929
-0.764898
0.897589
-0.360844
0.304028
0.750428
-0.964085
0.927507
0.893205
-0.950844
-0.836448
0.941727
0.638436
0.301460
0.503402
0.055558
0.796039
0.912118
0.512620
-0.482634
0.535270
0.969086
-0.665966
-0.398891
0.443318
-0.142946
-0.014233
-0.216278
0.799626
-0.927398
-0.409726
0.262985
0.066448
0.004091
-0.036215
-0.324837
-0.069723
0.748663
-0.471528
-0.125919
-0.270973
-0.980558
0.522485
-0.074317
0.146410
0.797058
0.956729
0.607827
-0.243612
0.940046
-0.719839
0.185815
0.243522
0.964052
0.964225
-0.002601
-0.236033
0.838597
0.522869
-0.279002
-0.665158
0.877654
-0.094469
0.247362
-0.531942
0.353098
-0.735957
-0.818778
0.729507
0.795303
-0.338231
-0.596781
-0.036930
-0.655951
-0.509327
0.725288
-0.915003
0.909292
0.658210
0.279069
-0.488985
0.915630
0.000991
0.829293
0.915320
0.446439
0.874781
0.561748
0.313074
0.980496
-0.538140
0.481807
-0.368568
-0.862272
-0.775484
0.160304
0.376886
-0.134668
-0.747928
-0.337026
0.287021
-0.407199
0.631851
-1.057296
-0.940300
0.787875
-0.822466
-0.464284
0.945413
-0.262512
0.976247
-0.776675
-0.503006
0.188011
0.606791
-0.519850
-0.987146
0.779005
-0.438090
0.199584
-0.015747
0.409010
0.285115
-0.557593
-0.605304
-0.730085
4.406812
-0.774200
0.164588
-0.122310
0.298128
-0.815467
0.138017
0.040226
-0.638784
0.933148
-0.397523
0.566110
0.501644
-0.797946
-0.692681
-0.479067
-0.665112
0.520586
-0.655872
0.264495
0.415594
0.148476
-0.751137
-0.316531
-0.829198
-0.577335
0.447581
-0.803339
-0.393897
0.087345
0.778122
0.653464
0.886495
0.149093
0.979327
0.169558
-0.742711
-0.285565
0.548082
0.311194
-0.547872
0.392815
-0.262376
0.096538
0.729661
-0.297281
-0.541891
0.756835
-0.548394
0.498557
0.746893
-0.032084
-0.014313
-0.150009
-0.978260
-0.637202
-0.103236
0.090390
-0.108346
-0.504584
0.577623
0.115831
-0.247755
-0.124652
-0.550857
0.403304
-0.186884
0.614443
-0.375401
0.398521
0.006470
0.804955
-0.497717
0.709238
-0.656184
-0.879586
0.563675
0.125044
-0.427200
-0.807138
0.265963
-0.268009
0.815369
0.504797
0.702525
0.149628
0.090471
0.236476
0.326433
0.637734
0.626239
0.629778
-0.407619
-0.461023
0.172879
0.695039
0.104615
-0.013557
-0.710420
-0.179033
-0.425512
0.085007
0.012318
0.165081
0.965647
-0.787971
0.851716
0.203104
-0.628310
-0.468104
-0.251362
-0.572662
0.999755
0.801257
-0.649050
8.765818
-0.216308
0.608746
-0.462030
-0.218393
0.760747
0.638578
-0.426662
0.295367
0.896396
-0.748582
0.056701
-0.303993
-0.632855
-0.492426
-0.836733
0.338543
0.221392
0.455712
0.628606
0.221967
-0.124747
0.665139
-0.875191
-0.042524
-0.063174
-0.779850
-0.804041
0.231677
0.103757
0.082465
-0.463607
-0.796980
-0.282666
0.858613
-0.153374
-0.940404
-0.004541
0.250716
0.765179
-0.784781
0.191537
0.821040
-0.089215
0.260954
0.395080
0.771575
-0.566113
0.949164
0.732998
0.416550
-0.702108
0.424228
0.685941
0.055540
0.144252
0.414989
-0.548229
0.943969
0.291769
0.186876
0.345311
-0.243875
0.823996
-0.105580
0.383937
-0.701409
0.917607
0.466301
0.362752
-0.948143
-0.973089
0.373200
0.529624
0.962025
0.829327
0.181331
0.776361
0.295602
-0.958742
0.530528
-0.598810
-0.126027
-0.449204
-0.525760
-0.620710
0.978814
0.294945
-0.466492
-0.692696
0.269797
-0.670711
-0.076514
-0.487109
-0.931273
0.075753
0.876986
-0.988946
-0.962537
0.528205
-0.724569
0.663956
-0.874069
0.634054
0.559347
0.702763
0.762207
-0.237406
0.053498
-0.984772
0.377964
0.904559
0.055436
-0.863041
-0.309518
-0.983326
-0.494324
0.768175
-0.508682
-0.818633
0.752852
-0.935422
0.221243
-0.423029
0.299306
0.750330
-0.289821
-0.491288
0.681513
-0.679148
-0.490900
0.610845
-0.501217
-0.554127
0.306389
-4.561397
0.577757
0.766464
-0.873659
0.207808
0.708151
0.854016
-0.181089
0.213925
0.774022
-0.467002
-0.699867
-0.221875
-0.851823
1.896949
0.891253
-0.915902
0.890780
-1.063934
-0.332486
0.930176
-0.535293
-0.094229
0.085628
-0.717402
-0.058230
-0.963778
0.774339
-0.774178
-0.401168
0.195497
0.534572
-0.408971
0.614053
-0.604110
0.446866
-0.108196
0.239592
0.891517
-0.689586
-0.058819
0.667935
-0.294690
-0.022064
0.040026
-0.715763
0.257686
0.018192
-0.430499
0.223711
-0.782058
-0.811807
-0.041491
-0.766719
-0.019210
0.197810
0.948172
0.483031
0.636376
0.587651
0.913264
-0.999633
0.356172
-0.018975
0.067621
-0.392649
-0.578841
0.773031
0.229076
-0.088161
0.180730
0.085083
-0.827545
-0.164217
0.530865
0.927444
-0.388304
-0.690842
-0.768839
-0.946521
-0.913063
-0.085576
0.023244
-0.380662
-0.062872
-0.470506
-0.404440
-0.559152
-0.349569
-0.260831
0.418449
-0.127990
0.265627
-0.433176
0.903311
0.187587
-0.076423
0.045012
0.957050
0.567238
-0.800509
-0.524738
-0.418539
0.690621
0.442909
0.181036
0.538239
0.788333
-0.220598
0.391794
0.451039
0.743209
-0.210992
-0.346923
0.859725
0.302239
0.468854
-0.268870
0.779502
0.768305
0.452494
-0.379140
0.733203
0.580169
-0.635669
0.104912
-0.083903
0.000809
0.876240
-0.569459
-0.236772
0.473984
-0.867435
-0.489020
-0.753646
-0.792188
-0.708724
-0.288588
-0.379649
0.829574
0.945161
0.793964
0.922056
0.970760
-0.989090
-0.190234
-0.447874
-0.424128
0.217523
-0.320513
-0.403388
-0.920649
0.590374
0.113320
-0.058967
-0.508391
-0.380780
0.666683
-0.984797
0.860471
-0.397384
0.067848
0.785767
0.133984
-0.399201
-0.169948
-0.617659
0.873259
0.819591
-0.839137
-0.026333
0.935121
0.072743
-0.954954
0.575792
0.867623
0.450689
0.466353
0.528457
0.848350
-0.021897
0.890535
-0.979317
0.708774
-0.892730
0.972048
-0.477325
0.667559
-8.963988
-0.994531
0.593940
-0.101760
0.812162
-0.813782
0.453864
-0.726072
-0.100586
-0.288674
0.451085
0.205861
0.605785
0.361071
0.601454
-0.837612
-0.414932
-0.825336
-0.720800
0.213517
-0.283459
0.996259
0.220344
0.202954
0.776662
-0.949154
0.756255
0.562167
-0.890146
-0.427669
0.039649
-0.431071
0.451819
-0.314269
-0.162706
-0.675576
-0.028718
-0.036225
-0.677401
0.358983
0.490842
0.185661
-0.762123
-0.546124
-0.397316
-0.849399
-0.276715
0.612126
0.016240
-0.686017
-0.131059
0.620435
-0.764403
0.524101
-1.009394
0.236629
0.894851
0.224549
-0.598514
-0.446899
-0.275852
0.842399
-0.138120
0.015558
-0.199122
-0.346389
0.360905
0.158573
-0.507595
-0.304517
-0.761473
-0.334442
-0.641184
-0.869871
-0.873993
0.352781
-0.417343
-0.877733
-0.698358
-0.260841
0.854625
0.661530
0.280219
-0.123014
0.048656
-0.219608
-0.466329
-0.414476
-0.467844
0.934088
-0.001545
-0.960534
0.429971
-0.730800
-0.584798
-0.309178
-0.605063
-0.783744
0.105516
-0.819333
0.075979
-0.348541
-0.411416
0.760282
0.271468
-0.984616
0.199576
0.827358
0.143807
0.969899
0.335985
0.937262
0.767336
0.005092
-0.276650
0.206865
-0.309908
0.226290
-0.348645
0.567045
0.904102
-0.278518
0.718084
0.142729
0.361620
-0.133453
-0.233560
-0.267723
-0.030159
0.379181
0.468095
0.273213
0.898763
0.173972
0.990110
-0.211363
0.534752
-0.585268
0.422471
-0.134868
0.880782
0.593787
0.674297
-0.723716
7.811652
0.603726
0.754069
0.579398
0.494627
0.873329
-0.309531
0.025321
0.546776
-0.377863
-0.996588
-0.236476
0.741558
0.103013
0.301560
0.237955
-0.436974
-0.198030
0.906087
-0.585079
-0.653536
-0.838786
0.676268
-0.139588
0.165570
0.613913
0.521460
0.702739
0.179331
-0.698592
-0.464959
0.104873
-0.227142
0.583310
0.579477
0.843935
0.777979
0.723916
-0.017806
-0.046473
-0.269045
0.963238
0.761179
0.445222
0.789430
0.559196
-0.189717
0.925858
-0.128457
0.810421
0.646956
0.829126
-0.437862
0.005803
0.579346
-0.587888
0.143286
-0.511861
-0.919094
0.287232
0.399945
-0.317953
-0.387356
0.338057
0.753784
-0.887247
-0.470571
0.402769
0.459584
-0.142607
0.216251
0.336230
0.253258
-0.437837
-0.238799
-0.066479
0.695667
-0.088101
0.018935
-0.315277
-0.705073
-0.957204
-0.423879
-0.243177
-0.564586
0.105562
-0.490403
-0.272733
-0.423772
0.700530
0.996658
0.093835
-0.572558
0.539658
-0.997139
0.467224
0.337115
-0.071537
0.094579
-0.490016
-0.554013
0.972849
0.857413
-0.786126
0.359343
0.991693
0.264539
0.645208
0.266775
0.791475
0.550283
-0.887240
-0.924956
0.965081
-0.858202
-0.128667
0.423150
-0.420585
-0.183207
-0.533653
0.705879
-0.932093
0.193903
-0.404225
-0.210782
0.829999
-0.078879
0.255438
0.106422
-0.117365
0.324758
-0.035866
0.595437
0.376102
0.284031
0.577583
-0.446653
0.284908
0.837900
-0.379791
-0.973939
-0.066221
0.761685
-0.785230
0.213535
-0.534779
-0.296575
0.038887
0.166582
0.267479
0.921192
-0.437096
-0.461617
-0.191972
-0.126329
0.260205
0.684200
0.893288
-0.699352
-0.243672
0.963615
0.823785
-0.766704
-0.654304
0.180925
0.483943
0.023216
-0.429856
-0.908431
-0.250591
-0.226159
-0.850005
0.928936
-0.680342
0.847315
0.506068
0.482729
-0.770208
-0.450484
-0.951158
-0.354012
-0.899451
-0.840792
0.863202
-0.919298
-0.305315
0.279026
0.951478
0.450616
0.739397
0.581584
0.129830
-0.967859
-0.776720
-0.240974
0.315197
0.057689
-0.682917
-0.207433
0.994262
-0.096815
-0.435809
0.567498
0.288148
-0.677150
-0.787980
0.295664
-0.822177
0.663320
0.386489
0.675143
0.093958
-0.870141
-0.571075
0.906306
-0.477923
0.157392
-0.149011
-0.025514
-0.979237
-0.119050
-0.524681
-0.419178
0.584428
0.028590
-0.278309
0.520202
0.948338
-0.896879
0.409581
-0.128275
0.391691
0.831240
-0.479667
0.878102
-0.086359
-0.546480
0.376510
0.009654
0.174380
-0.739860
-0.264646
-0.511365
-0.588272
0.069206
-0.011217
-0.768644
-0.053414
0.442610
0.834295
-0.121242
0.933577
0.864316
-0.353592
-0.708548
0.377244
-0.279424
-0.729629
0.315545
-0.180956
0.660859
0.793488
-0.056866
-0.819067
0.563676
0.659469
0.155483
-0.706681
0.809135
-0.697105
-0.947891
-0.234997
-0.350917
-0.910387
0.293660
0.860591
-0.950057
-0.928715
-0.382794
-0.609513
0.250376
-0.301938
-0.802757
-0.969204
-0.141085
-0.078480
-0.084742
-0.796417
-0.763259
-0.108433
-0.896541
-0.038615
0.402288
-0.411666
0.673243
-0.528350
-0.778599
-0.871987
0.992049
0.203054
-0.315994
-0.774765
0.566981
-0.194265
0.747107
0.199476
0.130788
-0.399671
-0.021489
0.343410
0.585217
-0.980164
0.455778
0.508881
-0.274783
-0.082432
0.546167
-0.170020
-0.915418
-0.344678
0.498394
0.077265
-0.817637
0.253835
0.838948
0.233751
0.090231
-0.505570
0.349113
-0.391646
0.357274
-0.707314
-0.819791
0.375924
-0.867978
0.728069
0.995031
0.898377
-0.205103
0.069928
0.044515
0.585753
0.672572
0.707329
-0.564410
-0.630114
0.128192
0.819765
0.823681
-0.783240
0.160154
0.747119
-0.266746
0.629400
-0.245099
-0.855424
-0.956432
0.845004
0.280289
0.415186
0.061267
-0.936308
-0.525192
-0.628597
-0.885785
0.595323
-0.469506
-0.365563
0.292739
0.269182
0.822783
-0.014755
0.340440
-0.931481
-0.143281
-0.110674
0.939761
-0.251090
0.210652
-0.386722
-0.524456
0.106567
0.622526
0.881588
-0.083463
0.262134
0.769021
-0.312945
0.790804
0.199704
-0.665474
-0.826557
0.895314
0.887282
0.005165
0.922027
0.069687
0.986025
0.726177
0.942717
0.213729
0.638488
-0.637902
-0.158480
-0.068730
0.217293
0.672504
-0.920465
-0.839451
0.991576
-0.862435
0.535774
-0.943767
-0.613353
0.967177
0.407481
0.841285
0.216816
0.790795
-0.030385
-0.407224
-0.021474
0.612586
-0.060017
-0.475363
-0.885476
0.927348
-0.624251
-0.518645
-0.978009
-0.397364
0.916122
0.752256
0.653692
0.383587
0.389020
-0.723601
0.293217
-0.471993
-0.915989
-0.929886
0.607168
0.242310
0.130302
-0.450476
0.043912
0.711972
0.103192
0.317158
0.362555
-0.911692
0.464629
0.243750
-0.981272
-0.444014
-0.778159
0.638551
0.729627
0.083984
-0.524762
0.638680
0.713218
-0.313564
-0.532322
0.415128
0.857139
0.798552
0.659600
-0.795746
0.283955
-0.712579
0.254395
-0.524327
-0.949874
0.090470
0.707675
0.144680
-0.419529
-0.356728
-0.652267
-0.244120
0.102279
0.096909
-0.788003
0.458722
0.397583
-0.118281
0.048484
-0.019526
-0.465336
0.506559
-1.084863
0.394970
-0.291316
0.390288
-0.506968
-0.567816
0.447905
-0.005456
0.377410
-0.906264
-0.587908
-0.380053
0.625839
-0.834128
0.595714
0.197128
-0.233271
0.448436
0.345671
-0.973750
-0.631794
0.033701
0.558201
-0.922924
0.478771
-0.518068
-0.467330
-0.305757
0.638284
-0.799171
0.764660
0.445016
-0.967636
0.470011
-0.479734
-0.114099
0.088131
-0.559038
-0.367066
-0.674128
0.878458
0.930856
0.165552
-0.957489
0.933195
0.832859
0.653469
-0.012533
-0.360577
-0.770519
-0.333577
0.839909
-0.902731
-0.774261
-0.393036
0.040861
0.114602
-0.289412
-0.490204
0.116430
0.914662
0.292839
0.479689
0.704781
0.647911
-0.100638
-0.786352
0.269964
-0.845815
-0.485789
0.647617
0.175263
0.264553
0.414265
0.994812
0.582821
-0.813067
0.296307
0.114873
-0.839524
-0.660201
0.669080
0.038757
0.546448
0.629391
0.155368
0.618625
0.573848
0.788441
-0.402972
0.360983
0.383767
-0.936286
0.551857
0.015997
-0.234895
-0.777104
0.112948
0.219235
-0.017818
-0.381946
0.381262
0.903826
0.882889
0.014225
-0.933958
-0.232015
-0.000320
0.979316
0.289969
-0.651274
0.128204
-0.657000
-0.303013
-0.645488
0.610903
-0.760117
-0.683762
0.569086
-0.700149
-0.761077
0.463827
-0.861871
0.568841
0.868264
-0.379492
-0.239876
0.231460
0.795090
0.262005
0.770660
-0.109835
-0.113524
0.975784
-0.496850
0.743057
-1.122785
-0.219986
-0.646984
-0.779490
-0.621714
-0.874189
0.878304
-0.731678
-0.014369
-0.968781
-0.442282
0.422763
-0.860924
-0.748038
-0.941903
0.189090
0.345633
0.329154
-0.197987
0.795838
-0.543867
0.671694
0.983806
0.103885
-0.219009
-0.269050
-0.232701
0.138844
-0.147487
-0.445013
-0.414583
0.857115
0.956209
0.119169
-0.875602
0.254948
-0.321822
0.716227
0.088695
-0.273909
0.380618
-0.534978
-0.038921
0.501716
0.243720
-0.532247
0.210382
0.646121
0.712072
0.465044
-0.251426
0.913389
-0.083656
-0.263946
0.924509
0.062969
0.305441
0.802905
-0.825931
0.016558
-0.021176
0.195377
-0.450921
0.293178
-0.098335
-0.783282
-0.780444
0.764731
-0.354690
1.076452
-0.368412
0.652182
-0.340534
-0.382646
0.391621
0.533960
0.624286
0.289652
-0.909303
0.590414
0.955303
0.802746
0.653044
-0.891559
-0.742181
0.316111
-0.008907
0.975287
0.798369
-0.064534
-0.012174
0.373963
0.345411
0.041120
-0.814544
0.123834
-0.721453
-0.362089
-0.559512
0.459570
-0.355138
0.775541
-0.330051
0.590862
-0.836594
0.406424
0.185885
0.660591
-0.589099
0.412397
0.254008
0.283261
-0.260547
0.015642
0.315475
-0.339940
-0.940121
0.080169
-0.646014
-0.279129
-0.096247
-0.845754
0.860504
-0.512757
-0.387682
-0.624504
0.316461
0.575721
-0.875741
0.444979
-0.737508
0.652127
-0.233668
0.725611
0.217496
-0.431981
-0.953703
-0.247534
-0.942576
-0.013959
-0.902026
-1.039799
-0.523009
0.727440
-0.558918
-0.349082
-0.480241
-0.592951
-0.048165
0.089866
0.916157
0.429828
0.347793
0.372396
-0.699150
-0.847842
-0.200110
0.172613
-0.735770
-0.072534
-0.516029
0.209453
0.377221
-0.556791
0.741104
-0.914033
-0.653195
-0.480133
0.673602
0.312723
-0.400225
-0.391977
0.212851
0.212700
0.127295
-0.362813
-0.266459
0.593516
-0.760456
0.144130
0.477927
-0.638848
-0.963335
-0.045807
-0.284504
0.110048
0.074788
0.207499
0.175176
-0.065259
-0.584373
0.277999
-0.758159
-0.736090
0.300483
-0.131990
0.021882
0.698799
-0.719017
-0.326766
-0.966904
-0.433300
0.846905
-0.962030
-0.593346
-0.224489
0.498658
-0.857282
-0.042224
-0.764988
0.696359
-0.480276
-0.558832
-0.947852
0.687452
0.963410
-0.742105
0.774375
0.424873
0.966997
0.513644
0.847708
-0.670241
0.757991
-0.759179
-0.905325
-0.288579
-0.597029
0.067962
-0.983175
0.321084
-0.916168
-0.722939
-0.853037
-0.571299
0.591870
-0.579754
0.299149
-0.710456
0.741205
-0.960833
0.406405
-0.972858
0.603626
-0.394195
0.756082
-0.056791
0.855769
-0.299626
0.089133
0.701135
0.861838
-0.908799
0.950670
-0.669024
0.372426
-0.452104
0.846459
0.252553
0.764197
0.253185
0.315860
0.535746
0.604238
0.820034
-0.894419
0.056943
-0.506534
0.799997
0.247398
0.426840
0.607720
0.396421
0.620662
0.108455
-0.897728
-0.579430
0.566367
-0.104646
0.797739
-0.652096
-0.584858
0.463730
-1.013407
0.415342
-0.796601
0.269311
-0.034624
-0.711070
-0.617645
-0.764263
0.792261
-0.545913
0.268392
0.039060
-0.667350
-0.536329
-0.141349
-0.645572
0.501349
0.342869
0.805218
0.164099
-0.161337
0.818186
0.108472
0.919038
-0.171545
-0.341254
0.786080
0.317503
-0.824448
0.146839
0.583352
0.491775
-0.317725
0.485900
-0.569340
-0.281841
-0.463194
0.911083
-0.798908
0.003950
0.235403
-0.825703
-0.900924
-0.834360
-0.299316
-0.580374
0.297058
-0.567330
-0.632813
0.668527
0.473520
-0.415758
-0.291281
-0.304012
0.664511
0.089015
-0.996113
0.374135
-0.402671
0.137760
0.043553
0.699559
-0.108566
0.647176
-0.781621
-0.677165
0.904295
0.670263
0.303535
0.592132
0.147884
-0.952306
0.136082
0.714613
0.851388
-0.905499
0.100803
-0.004743
-0.124403
-0.002323
0.647927
-0.441859
-0.797132
-0.378825
0.990519
0.848211
0.459025
-0.367899
0.352026
0.227094
-0.653662
-0.095871
0.800901
-0.744339
0.326505
-0.226108
0.751956
0.567247
-0.560523
-0.079016
0.560611
0.953779
-0.118347
-0.085498
-0.064143
0.940044
-0.112008
0.777440
-0.827330
-0.084002
0.221496
-0.280316
-0.553821
-0.685552
-0.325826
0.021727
0.130610
0.742734
-0.406341
-0.836483
-0.147103
0.218516
-0.049525
0.927268
0.321962
-0.813496
-0.053809
-0.176386
-0.721684
0.701305
-0.202994
0.956221
0.032306
0.968078
-0.985343
-0.887034
-0.076859
0.479109
0.668197
-0.067451
-0.154125
-0.973627
0.759811
-0.817484
0.726430
-0.591986
-0.883458
-0.586954
0.354300
0.118324
-0.673060
-0.387693
0.293053
0.165340
-0.617086
-0.210013
-0.512120
-0.500632
-0.656370
0.955794
0.121297
-0.814465
-0.265501
0.502760
-0.975498
0.503684
0.456638
-0.478452
0.343371
0.381534
0.010010
-0.252747
-0.682053
0.059958
-0.332031
0.659245
-1.153271
-0.813714
-0.182777
0.091341
-0.173044
-0.314985
0.297686
0.515207
-0.999056
-0.557531
0.586089
-0.078171
-0.160704
0.078996
0.164690
-0.496290
-0.111995
0.475192
-0.151850
0.801104
-0.935361
0.610111
0.389582
-0.454649
0.877659
0.826938
-0.685068
-0.402339
0.950713
-0.819084
-0.725595
-0.918567
-0.693841
-0.660529
0.722909
-0.810566
0.701565
0.192766
-0.221853
0.031940
0.059097
-0.566067
-0.120150
-0.112868
-0.171320
-0.753422
0.848174
0.519674
0.122889
-0.710524
-0.073086
-0.690005
-0.815346
0.300840
0.061469
-0.270902
0.160960
-0.717657
-0.641030
0.256702
-0.039169
-0.083633
0.706486
0.700210
0.077676
0.971387
-0.209652
0.625847
0.726089
-0.391536
-0.990952
0.090439
0.367216
-0.327840
-0.668952
-0.161383
0.440811
0.311453
-0.122289
0.795223
-0.875324
0.095935
-0.354373
0.337169
0.731040
-0.243348
-0.629445
-0.239493
0.901673
-0.675587
0.663833
-0.434374
-0.892900
-0.310797
0.423553
-0.739506
0.876652
0.013848
0.724289
-0.616066
-0.678672
-0.610402
0.995690
-0.641641
0.483956
-0.503424
-0.532784
-0.773421
0.173180
-0.211891
-0.292328
-0.333447
0.471125
-0.653830
-0.562819
0.659409
-0.468771
-0.847106
0.744441
-0.815228
-0.870479
0.772782
-0.776181
0.305507
0.609294
-0.275493
-0.624010
-0.109078
-0.713277
-0.553845
-0.780974
-0.955184
-0.927714
-0.698919
0.471523
0.455810
0.622298
0.668172
0.815897
-0.401888
0.887336
0.323247
0.701122
-0.433102
0.681319
0.970310
-0.654524
-0.558240
0.359254
-0.956859
0.189170
-0.637037
0.687736
0.337994
0.680609
-0.042116
0.134740
0.454270
0.415849
0.290186
-0.047036
0.604566
-0.283232
0.590550
0.510925
0.733071
0.733858
0.518185
0.188882
-0.592378
0.311371
-0.671415
0.950310
0.060148
-0.336333
-0.268527
-0.822416
0.036740
-0.542889
0.698719
0.732136
-0.407954
-0.855689
0.027063
-0.485661
0.568922
0.745173
-0.243852
-0.123141
0.544162
0.444275
-0.841832
-0.790528
-0.079630
0.060272
-0.554354
-0.211654
0.353023
-0.757804
-0.829422
-0.223908
0.104197
-0.931173
-0.817123
0.612492
-0.363619
0.623972
-0.205741
0.164042
-0.487310
0.249843
-0.288815
0.600065
-0.145921
-0.857639
-0.270326
-0.022525
0.599184
0.614453
-0.672150
-0.142376
0.320986
0.632558
0.918622
0.932573
-0.507116
0.546950
0.389476
-0.945188
-0.897972
0.244989
0.392519
0.281328
-0.907270
-0.584135
0.922582
-0.547818
0.578152
-0.070869
0.921733
-0.410637
0.106007
0.981744
0.714596
-0.675743
0.427852
-0.396970
-0.187324
-0.393177
0.879225
-0.388534
0.813857
0.445745
-0.097330
0.800082
-0.188687
-0.449527
0.072460
-0.806314
0.109832
0.589933
0.087169
-0.504468
-0.112295
0.791821
-0.998865
-0.079329
-0.706945
0.069957
0.510510
-0.501091
0.146501
0.417942
0.375676
0.895791
-0.285016
-5.143403
-0.904706
-0.487491
0.923249
-0.711693
0.269478
0.117630
0.082844
0.284272
0.761152
-0.137126
0.847759
-0.447026
-0.855204
0.018205
0.072083
0.935777
0.968113
-0.773649
-0.033374
-0.103351
-0.150648
0.638715
0.102700
0.999641
-0.437160
0.655351
0.121009
-0.993229
-0.172720
0.480839
-0.573233
-0.487933
0.631514
-0.403245
-0.707229
0.750333
-0.572561
0.554741
-0.391318
-0.146956
-0.483285
0.410232
0.283415
0.463092
-0.209082
0.490973
-0.502308
0.957280
-0.813062
-0.641136
0.883053
-0.689196
-0.011978
-0.762667
-0.301868
-0.640275
-0.228074
-0.528114
0.927908
0.482073
0.879410
-0.509328
-0.088175
-7.544807
0.877683
0.039211
-0.140429
0.240931
0.317223
-0.448875
-0.950055
-0.303005
-0.213889
0.918690
0.295646
-0.295031
-0.566906
0.816682
-0.470303
0.511089
-0.386980
0.791494
-0.728338
-0.077039
-0.845467
0.643124
0.825343
-0.570879
-0.315747
0.170368
-0.367667
-0.900609
-0.075630
0.673530
-0.724008
0.012588
0.720444
-0.224514
0.484134
-0.835084
-0.998720
-0.548904
-0.811919
-0.517762
-0.004313
-0.363528
-0.292215
-0.218897
0.541188
-0.906856
0.851868
-0.598127
-0.930042
-0.668254
-0.857615
-0.425176
0.114716
0.929740
-0.390536
-0.780067
0.591304
-0.293299
-0.030093
0.017694
-0.508059
-0.480237
0.582712
-0.395208
-0.800040
0.605878
-0.112213
-0.569408
-0.651184
-0.934995
-0.437163
0.326068
0.353858
0.681837
-0.313063
-0.464563
-0.258607
0.383138
0.307640
-0.679009
0.882042
-0.934407
-0.497173
0.893055
-0.385840
-0.295767
-0.376608
-0.405859
-0.387392
0.509097
0.815085
0.081972
0.315977
0.535022
1.042793
-0.605052
0.823089
0.144158
-0.257803
0.142376
0.475604
0.343947
-0.863650
0.891246
-0.769538
-0.348831
0.197376
0.915811
-0.427326
0.866746
0.740006
-0.226871
0.177581
-0.384264
-0.835015
0.818521
0.997253
0.772245
-0.693567
0.865487
-0.139136
-0.294205
-0.041806
-0.641914
-0.787854
-0.815555
-0.271481
-0.444362
-0.963043
-0.437462
0.287144
0.775031
0.814804
-0.078614
0.466197
0.229432
0.997405
8.128667
-0.491724
0.852972
0.933387
0.531347
0.206524
0.728333
0.973131
-0.317555
-0.570679
-0.188570
0.669527
-0.035175
-0.969939
-0.323312
0.003037
0.382158
0.104771
-0.711464
-0.006567
0.676195
0.695052
0.431309
-0.734969
-0.118023
0.207771
0.215038
0.625543
-0.058658
0.538427
-0.226819
-0.698047
-1.034434
0.134137
-0.630822
-0.540929
-0.961029
-0.507452
0.708584
0.804999
-0.724181
-0.284249
0.437156
0.666968
-1.111313
-0.119326
0.245173
0.869233
-0.855154
-0.321981
0.612521
-0.356254
-0.983369
0.648686
-0.770567
0.653392
0.324099
-0.032137
-0.744202
0.513831
0.301815
-0.819353
0.131912
0.645225
-0.260093
-0.108822
-0.494061
0.373315
0.815859
1.039344
0.791206
0.690654
-0.198706
-0.825124
0.684159
-0.705980
-0.854581
-0.661773
0.270490
-0.307355
-0.718338
0.805955
-0.151303
0.870223
-0.709694
-0.129940
-0.691962
-0.349667
0.737786
-0.974584
-0.684143
0.396160
-0.922956
-0.006599
-0.014827
0.388367
0.684393
-0.850964
-0.263241
-0.754127
-0.885117
0.559635
0.674943
-0.455142
-0.025246
0.428332
-0.838265
-0.457914
-0.328418
-0.613672
-0.011804
0.017616
0.894187
0.092449
0.084711
-0.879346
0.450076
0.433236
-0.995495
0.522506
-0.170554
0.483309
-0.332677
0.088780
-0.569384
-0.971403
-0.190700
0.795744
-0.632460
-0.949895
-0.375166
-0.719942
0.386208
-0.911053
0.257173
-0.384849
0.882542
-0.543320
0.020154
0.844715
-0.803893
-0.429807
0.970046
0.254232
-0.233431
0.934533
0.891057
0.467033
-0.846011
0.165847
0.588629
0.317856
-0.362618
-0.122461
0.339159
-0.661126
-0.987673
-0.846622
0.705330
0.767666
-0.428264
-0.288606
-0.774503
0.901930
0.577250
0.133388
-0.977556
-0.087814
-0.990002
0.170654
0.787444
-0.358629
0.699523
0.346945
0.464653
-0.657511
-0.836182
0.521728
-0.763113
-0.968484
-0.628988
-0.904324
-0.359085
-0.076823
-0.461225
0.404447
0.691711
-0.511002
0.207546
-0.526796
-0.351834
-0.037915
6.592787
-0.859417
-0.969940
0.483016
0.460723
-0.094923
0.087500
-0.480141
-0.518237
0.826437
0.448399
4.362255
-0.501286
0.243060
0.328768
0.371366
-0.299691
-0.818376
0.210187
-0.235732
0.966838
0.406356
-0.553689
0.937982
0.243395
0.505125
-0.767360
0.563090
-0.466157
0.469362
-0.295985
-0.850676
-0.076789
0.835849
-0.263508
0.594330
-0.560997
0.179459
-0.632904
-0.881867
0.462512
-0.251475
0.025562
0.886032
-0.849362
0.414683
0.055562
-0.621304
-0.670238
0.855354
-0.577878
0.667263
-0.277627
-0.118955
-0.609291
0.219114
-0.719394
-0.840611
-0.195368
-0.999661
0.819957
-0.269913
-0.735860
0.533677
-0.805910
0.979008
0.607599
0.992693
-0.734049
-0.609652
-0.722944
-0.701410
0.060524
-0.636067
0.603710
0.925267
-0.252224
-0.114692
0.542605
-0.173621
0.447363
-0.965427
0.447615
-0.192375
0.428173
0.143447
-0.464310
-0.846145
0.446742
0.393035
0.489957
-0.319643
-0.644523
-0.557638
-0.339924
0.246062
-0.889391
0.763142
0.283286
-0.646420
0.991020
-0.971770
-0.198499
0.157866
-0.589834
0.628319
-0.684657
-0.771185
0.527103
-0.414850
-0.565579
-0.736100
0.971354
0.335543
-0.816627
-0.789276
-0.509821
-0.058442
0.576308
-0.121995
0.179721
-0.829902
0.066356
0.657613
0.315605
0.390778
0.534804
0.321866
0.696416
0.281710
0.357795
0.477236
0.831370
-0.848032
-0.898825
-0.896244
-0.467632
-0.418883
0.636234
0.639708
0.051212
-0.767935
-0.951856
-0.568305
-0.201299
-0.613091
-0.637302
-0.639360
-0.707247
-0.353635
-0.754609
-0.847598
-0.135543
0.046298
-0.783256
-0.233514
0.732245
0.442349
0.245646
-0.996470
-0.125694
0.772449
0.617632
0.285077
0.462569
-0.827889
0.203050
0.189001
5.303946
-0.608688
-0.815083
0.851811
-1.054042
0.694276
-0.330474
-0.983820
-0.422392
-0.679871
1.047955
0.504497
-0.598343
0.087790
0.115431
0.562315
0.255443
-0.362360
0.422820
0.662332
0.899774
-0.676776
-0.387586
-0.956581
0.865671
-0.170864
0.614773
-0.338850
0.287100
0.096022
0.273163
0.590996
-0.788731
-0.354769
-0.858362
0.818232
-0.703135
-0.796373
-0.290242
0.079625
-0.989852
0.183086
-0.241833
-0.937678
-0.732864
0.027285
-0.330514
-0.744313
0.339511
0.438511
-0.717740
-0.276996
0.637543
-0.206300
0.111648
0.081976
0.678087
0.273907
-0.900569
0.769617
0.900294
0.309697
-0.395657
0.975342
-0.854880
0.109964
-0.813438
-0.922432
-0.477502
0.230882
0.197331
-0.622427
-0.105081
0.315798
0.296261
-0.577737
-0.841746
0.340285
0.900345
0.970850
-0.834139
-0.000037
-0.734479
0.522564
0.668117
0.123047
0.816350
0.186471
0.512216
-0.357868
0.871481
-0.547240
0.511159
-0.698471
0.670389
-0.169402
0.150126
-0.697408
0.011474
0.286565
-0.406119
0.147751
0.262199
-0.774109
0.417024
0.026566
0.149291
0.256012
-0.108090
-0.563289
0.034816
0.359346
5.334407
0.516424
-0.772014
-0.558653
0.205170
-0.674274
0.669570
0.946985
-0.826301
-0.433934
0.731681
-0.922397
0.497124
-0.869437
0.683901
0.113410
0.752704
-0.550218
0.482678
-0.998468
-0.919917
-1.006618
-0.896204
-0.533587
0.431671
-0.448399
0.115509
-5.795308
0.128101
0.469656
-0.331757
-0.511695
0.030472
-0.635895
0.254135
-0.681059
0.241205
-0.043934
0.121486
0.155871
-0.771876
-0.663983
0.466898
-0.363792
-0.233188
-0.897415
-0.455454
-0.316486
0.997969
0.258110
0.946116
-0.429305
-0.446102
0.956910
-0.554372
-0.590556
0.439495
-0.460293
-0.888825
0.215787
-0.304345
0.813014
0.311539
-0.855083
-0.254396
-0.413907
0.283657
-0.979050
0.344506
0.435544
-0.728922
0.786669
-0.324977
-0.850313
0.086539
0.812695
-0.011842
0.733263
0.765644
0.405433
0.993940
-0.383263
0.389179
0.559613
-0.672644
-0.090498
0.423805
0.928477
-0.218994
0.336890
-0.005390
0.404358
-0.951937
0.676400
0.389633
-0.606685
-0.800385
0.281132
-0.451632
-0.851256
-0.346888
0.929367
-0.837434
0.379717
-0.211045
-0.169005
-0.167478
0.062781
0.013593
0.811830
-0.412997
0.952385
-0.276767
0.789753
0.981119
0.918192
0.848922
0.854394
0.859789
-0.558854
-0.856294
-0.413001
0.797663
-0.090220
0.917745
-0.529898
0.117374
-0.919106
-0.222845
0.796874
0.958516
-0.433788
-0.380415
-0.841826
-0.700016
0.134596
-0.698692
0.382987
-0.801701
0.732779
0.149139
-0.054537
0.919230
-0.304599
-0.998710
0.497193
0.788981
0.097794
0.023863
0.825842
-0.875269
-0.708393
-0.838356
-0.345095
-0.418275
-0.904134
0.119136
0.670457
0.791855
0.210215
-0.172967
-0.833246
-0.022858
-0.718653
-0.768697
-0.297346
0.490851
0.961299
-0.924886
-0.847569
0.640912
0.260494
0.964924
0.906209
0.940311
-0.807412
-0.167316
-0.876864
0.860461
-0.911917
-8.532430
-0.543844
0.956002
0.563074
0.131458
-0.660132
-0.448349
-0.988568
-8.455472
0.435179
0.137890
0.016424
0.840930
-0.194924
0.301481
0.618073
0.794923
-0.495911
0.286618
0.535762
0.522397
-0.168804
-0.079929
-0.279088
0.719806
-0.111180
-0.602870
-0.717527
0.035435
0.484177
0.346505
0.582165
-0.368343
-0.113039
0.277114
-0.736433
-0.795884
-0.500373
-0.225361
-0.115518
0.273952
-0.056798
-0.956132
-0.934784
-0.663183
-0.384390
0.159540
0.682870
0.667802
0.499283
-0.674311
0.779787
0.255705
0.923198
0.305884
0.132899
-0.577201
0.642929
0.511353
0.061198
0.883532
0.408903
-0.063865
0.959155
0.173350
-0.670606
-0.860112
-0.876871
-0.734553
-0.019732
0.987737
-0.921068
0.159306
0.756290
-0.508082
-0.198966
0.573796
-0.636112
0.547061
-0.185737
0.673384
0.717931
0.316082
-0.966479
-0.303410
0.445588
0.352406
0.331583
0.430639
-0.504213
0.765594
-0.124887
0.551567
-0.499993
0.970157
0.546403
0.985203
0.902341
-0.963560
0.770767
0.406545
-0.196783
0.870447
-0.902225
0.699513
0.105557
-0.094131
-0.396700
0.534910
0.772890
-0.637885
-0.698594
0.743104
-0.055342
0.713732
0.925631
0.520498
0.282950
-0.041726
-0.416838
0.439394
0.868506
0.251823
0.652986
-0.943772
-0.224607
-0.446261
-0.288179
0.070129
0.720967
0.030971
0.747463
0.833022
-0.606590
0.148694
-0.274520
-0.949624
-0.368365
0.552320
0.285708
0.849293
-0.799628
0.780648
0.502372
0.551355
-0.839071
-0.551094
0.664782
-0.273432
-0.736375
0.590096
0.145813
-0.183873
0.251558
-0.624295
-0.677218
-1.124273
-0.502750
0.343482
-0.946091
0.831168
0.643283
-0.310332
-0.587456
0.281950
0.563222
-0.101595
0.225814
0.786956
-0.671513
-0.324831
-0.783419
-0.776510
-0.254978
0.054814
-0.887548
0.358117
0.778812
0.625831
-0.420619
-0.898620
-0.238417
-0.982609
-0.408357
0.941331
-0.619002
0.099192
0.473456
-0.083442
-0.782341
-0.185165
0.184156
-0.068997
-0.664997
-0.077634
-0.439772
0.995600
0.525596
-0.753807
0.122750
-0.208195
-0.069355
-0.043791
-0.678743
-0.209854
0.710725
0.143546
0.360976
-0.381463
-0.852737
-0.207757
-0.934710
0.588384
-0.274747
-0.212883
0.962077
0.274727
-0.140296
0.849177
0.071063
0.807634
0.048923
-0.017872
-0.670222
0.393839
-0.944677
-0.994202
0.406247
-0.628951
-0.712949
-0.068160
-0.659346
-0.198662
-0.571201
0.439079
-0.675059
-0.771546
-0.238955
-0.203576
0.418558
0.767448
-0.841245
0.113291
0.788866
-0.069169
0.641949
0.441912
-0.953059
0.940192
-0.203768
0.733233
0.307271
0.087702
0.040983
0.408624
0.949591
-0.536359
0.625352
-0.403529
0.168255
-0.294471
-0.875335
-0.822817
0.184797
-0.425831
-0.006891
0.338768
0.867593
-0.444500
0.848962
0.036064
0.689694
0.717356
-0.279366
-0.262039
0.205206
0.949587
0.568346
0.363817
0.303525
0.360594
-0.722317
-0.489753
0.075385
0.375546
0.520189
0.330867
-0.659645
0.459954
-0.915764
0.019460
0.904252
-0.458108
-0.747616
0.840359
-0.077486
0.853251
-0.978973
-0.557389
-0.639643
0.409405
0.802299
0.347818
0.816495
-1.015851
0.025604
-0.177786
-0.561946
-0.224317
0.586896
0.467107
0.825430
-0.571899
-0.585901
-0.018462
0.927596
0.246202
0.236726
-0.615143
0.815283
-0.333438
-0.507095
-0.371295
0.883340
0.171838
0.816752
0.274627
0.069971
0.965735
0.807628
0.149412
0.343120
-0.453009
0.174574
-0.173609
0.305499
-0.541520
-0.124093
-0.380862
0.323263
-0.391795
0.512436
0.199255
-0.570884
0.358676
-0.240124
0.396424
-0.043480
0.845263
-0.786954
0.829868
-0.404771
0.056857
0.957981
-0.356875
-0.152605
-0.916351
-0.850822
0.266506
-0.294778
0.908041
-0.509863
-0.879227
0.644021
0.749854
-0.646901
-0.073016
0.315280
0.883516
-0.715829
-0.992743
-0.496512
0.023687
-0.656578
-0.595398
0.259648
-0.081293
0.665029
-0.892180
0.441489
0.697109
-0.054908
-0.000133
0.628966
0.201807
-0.761047
-0.619072
-0.372156
-0.007487
-0.363916
-0.665815
0.193202
0.050543
0.986398
0.725353
0.117370
-0.458319
-0.735849
-0.467680
0.752999
0.152747
0.883933
0.712697
0.773175
-0.778514
-0.920091
0.670211
0.250202
0.953949
-0.402447
-2.547420
0.107151
0.073463
0.519142
-0.402684
-0.193444
-0.495974
-0.431013
-0.853996
0.200065
0.858588
0.836487
0.037519
-0.410789
0.021906
-0.766145
0.095177
-0.188211
0.699215
0.904008
-0.807560
0.646794
0.393802
0.884789
-1.036641
0.308391
0.566561
0.750029
0.531124
0.405896
0.569419
-0.152896
-0.981249
-0.738469
0.685218
-0.370734
-0.220070
0.616058
0.915849
0.796995
0.978841
-0.055723
0.207668
-0.579201
-0.801355
0.856716
-0.426420
0.769377
-0.281681
0.391505
-0.898064
-0.210057
-0.238018
-0.895577
-0.629273
0.571770
0.466747
-0.070872
0.158952
-0.032801
0.828265
-0.681866
0.657922
0.032543
0.503652
-0.425100
-0.438899
-0.798493
0.379996
-0.732986
0.594280
0.614012
0.216117
-0.729477
0.930365
-0.264216
0.754295
0.715580
-0.251999
0.507888
0.211743
-0.210232
-0.113591
0.717232
0.828556
0.356602
-0.931712
0.195042
0.716596
0.759920
-0.537506
0.505869
-0.123597
-0.682549
-0.234761
-0.633522
0.275025
-0.965030
0.078038
-0.838086
0.590269
-0.862828
0.263791
-0.213287
-0.387460
0.411304
-0.043800
-0.683557
-0.706949
-0.781647
0.250368
-0.185336
0.049883
0.333225
0.118414
-0.172278
0.491670
-0.441478
0.267924
-0.261003
-0.650747
-0.759637
0.768104
0.952301
-0.682268
0.832836
0.971373
-0.147784
0.220442
0.464543
0.134524
0.571367
-0.583234
-0.938554
0.981994
-0.376432
-0.378725
-0.194239
0.611556
0.977881
-0.445466
0.824404
-0.727398
0.714821
0.187289
-0.261971
0.896082
0.322950
0.852434
0.518423
0.276397
0.730282
0.807773
-0.507154
0.672765
-0.523389
-0.594302
0.850708
0.416065
0.130385
0.463754
-0.941367
0.803418
0.629622
-0.270143
-0.061993
0.835418
-0.191474
0.759509
-0.169803
0.347885
-0.206244
0.958571
-0.995810
-0.463732
0.301209
0.410942
0.353529
0.622549
-0.959239
-0.303197
-0.489978
0.677666
-2.350886
-0.557474
-0.641469
0.352728
0.499941
0.464156
0.740744
0.416437
0.899254
0.450643
0.113122
-0.371082
-9.459840
-0.278715
0.301815
-0.706782
-0.367488
-0.596123
0.369708
-0.361925
0.867921
-0.492888
0.662818
0.456769
0.190587
0.205219
0.297904
0.022374
-0.481748
-0.148345
0.853484
0.527247
0.753689
-0.992698
-0.506136
-0.574352
0.278499
0.226571
0.824603
0.576507
-0.887870
0.713565
0.611666
0.239690
0.847580
-0.798186
0.637085
0.066459
-0.304651
0.180471
0.818183
0.760286
-0.383838
-0.270753
-0.768358
0.434325
-0.488346
-0.984237
-0.554619
0.261053
-0.081024
0.018389
0.513863
-0.234951
0.447976
-0.951572
0.820979
-0.766072
0.381573
0.345883
-0.750244
0.199395
3.214939
-0.746162
-0.610254
0.820195
0.792286
0.005401
0.641458
-0.002983
-0.541272
0.785413
-0.624961
0.104634
0.338414
-0.462677
0.328540
-0.879691
0.924518
-0.485805
-0.793093
0.770479
0.617474
0.699041
-0.021204
0.654755
-0.832380
0.277791
0.362606
0.660465
0.469918
-0.734004
-0.312455
-0.819038
-0.761173
-0.670674
-0.199602
-0.657946
-0.240285
0.909807
-0.732691
0.006364
-0.979824
0.699995
-0.455772
0.683356
0.508960
0.307225
-0.722403
-0.123861
-0.903507
0.541878
0.070856
-0.795353
0.599011
0.275172
0.888784
-0.935666
0.744559
-0.990002
-0.413627
0.862419
-0.201032
-0.461523
0.507205
-0.024899
-0.589351
-0.459142
0.220148
0.168169
-0.202817
0.591623
-0.234908
0.284368
-0.579278
0.881832
0.235330
-0.117852
0.252035
-0.770678
0.362943
-0.510133
0.485770
0.100423
0.462672
-0.694207
-0.311436
-0.452285
-0.333088
-0.304088
0.258397
-0.622345
-0.874108
-0.003635
0.799946
0.829336
-0.565814
-0.393376
-0.394350
-0.018091
0.193377
0.060612
0.260625
0.883120
-0.267424
-0.513596
-0.026498
-0.777089
0.567045
0.721853
-0.394091
0.146931
0.210666
-0.336730
-0.228325
0.031370
-0.122359
0.470877
-0.399591
0.107137
0.636210
0.477209
-0.288308
0.204839
-0.398405
0.741701
0.155203
0.121216
0.664126
-0.212467
0.343315
-0.168497
0.862805
0.419893
-0.474277
-0.376358
0.070260
0.080786
0.956386
-0.511891
-0.351912
-0.353433
-0.192768
-0.916874
0.609216
-0.683732
0.417151
0.081397
0.012812
0.499795
0.813129
0.399976
0.665211
0.080576
-0.812316
-0.287557
0.339429
1.007512
-9.096276
0.329252
0.209216
0.512431
-0.556775
-0.592148
-0.495246
-0.418608
-0.228719
0.863284
-0.466002
-0.037462
-0.249074
-0.363832
0.163525
0.732585
0.169275
0.737391
-0.893349
0.039032
0.144151
0.866249
0.821579
0.617803
0.388517
-0.875912
0.810951
0.767226
0.657803
0.809458
0.180929
-0.770986
-0.187921
-0.469885
-0.567362
-0.500946
-0.252089
0.436807
0.928376
0.967944
0.491336
0.628038
-0.123644
0.204865
0.070843
-0.414034
0.666067
-0.600809
-0.379938
0.449773
0.192107
0.566734
0.914092
-0.759123
-0.680476
0.165743
0.551598
0.498566
0.231904
0.782469
0.336946
0.551225
-0.622591
-0.990929
0.529484
0.190021
0.325849
-0.460652
0.857012
-0.408910
-0.651191
-0.564949
-0.384624
-0.829502
0.478476
-0.607386
-0.221736
-2.505538
-0.181925
0.591356
0.466776
0.142220
-0.073756
-0.892537
0.834525
0.672564
0.921207
0.768470
0.388931
-0.235639
-0.314369
-0.262290
0.767617
-0.972229
0.124732
-5.856776
0.800464
0.723465
-0.873362
-0.087212
-0.542612
0.125330
1.018272
-0.158744
0.575057
0.888081
-0.665903
-0.169680
0.494716
0.831689
-0.401565
0.916531
0.218794
0.729910
0.137449
0.409175
-0.006851
-0.905172
0.450138
-0.282833
0.646829
-0.338021
-0.222209
-0.095462
0.459342
0.783711
0.564278
-0.637748
0.694733
-0.120243
-0.091594
0.323387
0.571787
0.136175
0.106036
0.855578
0.079968
0.887724
0.077569
-0.770998
-0.676251
-0.233768
0.445926
0.249266
0.375836
0.142307
-0.496507
-0.648197
0.136516
0.751985
-0.604649
-0.187620
0.064533
-0.449964
0.891648
-0.250737
0.384327
0.001215
0.454960
0.225943
-0.010111
-0.786987
-0.705641
-0.282879
-0.078518
-0.296656
0.029019
-0.310906
-0.197762
-0.121684
-0.993361
0.639000
0.242880
-0.193279
-0.008685
-0.403261
0.992026
-0.950596
-0.545910
-0.527839
0.083693
0.714020
0.661915
-0.705474
-0.630761
-0.184842
0.444704
-0.118832
-0.204589
0.743702
-0.677087
-0.643920
-0.290145
0.413042
0.367836
0.386159
-0.540587
0.168411
0.775396
0.110439
-0.169810
0.661880
-0.004482
-0.654004
0.165397
0.223763
-0.409486
0.185070
0.386833
0.990770
0.729872
-0.961060
-0.717433
-4.035555
0.445047
-0.073834
0.406839
0.670271
-0.086591
0.697249
0.836294
0.038377
-0.670693
-1.056290
0.869925
0.631253
0.421158
-0.164932
-0.841866
-0.992649
0.379882
-0.709330
0.924772
0.050528
-0.897804
0.362274
-0.863510
0.209696
-0.122693
0.290262
-0.550879
-0.884379
-0.433280
0.272143
0.441491
-0.841789
0.915694
0.721052
0.953092
-0.341206
0.619348
-0.334786
0.845620
0.409115
-0.539896
0.110016
0.558084
-0.900897
-0.347564
0.471787
0.028163
-0.139258
0.187629
-0.977619
0.907224
-0.362495
0.623008
-0.094078
-0.981820
0.538869
-0.699828
0.094772
1.072755
-0.212077
-0.537711
-0.510010
0.911518
-0.731498
-0.116407
-0.207726
0.733851
0.649609
0.418589
-0.022398
0.064397
0.245683
0.660764
0.099786
-0.921857
-0.434810
0.945063
0.204107
-0.203912
0.764739
-0.974885
-0.398669
0.563316
-0.364867
0.977270
0.955407
-0.731984
0.637520
-0.329585
0.951641
-0.501179
-0.243386
0.576584
0.979735
-0.626132
-0.433013
-0.818770
-0.045455
-0.643593
-0.955862
0.434734
0.200240
0.147087
0.853093
0.680859
-0.398435
-0.899303
0.108344
-0.523191
-0.185009
0.069972
0.143650
0.877787
-0.544640
-0.268357
-0.089012
0.526134
-0.789395
-0.354697
0.242267
-0.493050
-0.678359
-0.152865
-0.835211
-0.338456
-0.610196
-0.865561
0.840824
0.489273
0.096521
-0.558818
-0.629901
0.270880
0.257022
-0.674596
-0.673608
0.266961
-0.988981
0.997287
-0.533106
0.094827
-0.590464
0.490678
0.257047
-0.550787
0.689614
0.169980
-0.075132
-0.816256
-0.765686
-0.628769
-0.722430
-0.631610
-0.501925
-0.040230
-0.444761
-0.354989
0.965153
-0.723558
0.122780
-0.819103
-0.473985
0.350605
-0.973405
0.951134
0.499725
0.634578
0.627913
-0.078954
0.040151
0.700212
0.977346
0.622027
-0.245264
0.494889
-0.712278
0.206543
-0.697686
0.562818
-0.575659
-0.838577
0.246911
0.712979
0.471364
0.708240
0.988721
0.674762
-0.492231
-0.103316
-0.334581
0.611084
-0.997806
0.205298
0.324961
0.132549
0.687545
-0.740109
0.299401
-0.801749
0.882879
0.349201
-0.446068
-0.349808
0.805460
0.962988
0.498496
-0.634280
-0.893506
0.459859
0.131729
-0.795761
4.032798
-0.647246
0.117110
-0.998097
0.634803
-0.644679
-0.713984
0.490266
-0.967099
-0.689530
0.061643
0.028649
-0.285855
-0.790925
-0.109844
0.313180
-0.205797
-0.770618
-0.835547
0.875085
0.623304
-0.577838
0.150115
0.193914
0.546465
0.411272
-0.275736
-0.218059
0.165259
0.307320
0.585956
0.473785
0.401383
0.159796
-0.919004
0.743225
-0.074956
-0.649810
0.026064
0.757142
-0.835035
-6.113760
-0.891525
0.363497
-0.385737
0.023744
0.939036
0.687885
-0.799212
0.619038
-0.077995
0.424909
0.670567
0.891499
0.185586
0.939322
-0.280402
-0.519087
-0.581192
-0.874441
0.656422
0.391239
-0.862399
-0.289015
0.492684
0.592673
0.811629
0.417587
-0.867849
0.300698
0.061915
0.691857
-0.771862
-0.839184
0.678651
0.033559
-0.706209
-0.380859
-0.387748
-0.380466
-0.171422
0.963504
0.341230
-0.805206
0.028919
0.239613
0.962973
0.191974
0.099154
-0.137201
-0.564040
0.205247
-0.997577
-0.712822
-0.092974
-0.036696
-0.943051
0.313071
0.379228
-0.277821
0.074326
-0.607663
0.390549
0.374868
0.262761
0.830560
0.078041
-0.604208
0.100214
0.411126
0.519279
0.858641
0.861750
-0.253869
-0.459878
0.510225
-0.898468
0.232144
-0.549881
0.713313
-0.796744
-0.026669
1.055649
-0.462741
0.345961
0.808622
0.585395
-0.884342
-0.355419
-0.721019
0.552327
-0.162347
-0.110628
-0.904780
-0.019280
0.409815
-0.782586
0.152958
0.703146
-0.358114
0.446478
0.631601
-0.428266
0.785980
0.809361
0.393256
0.098493
-5.053656
-0.798505
0.096527
-0.566845
-0.768995
0.436576
-0.707033
0.374922
-0.417279
-0.502932
-0.603642
0.382954
0.681518
0.511703
0.363811
-0.761497
-0.099354
0.634727
-0.937924
-0.351211
-0.665644
-0.458697
-0.421601
-0.580607
0.387227
0.387191
-0.635445
-0.960865
-0.946666
0.603592
-0.293195
-0.264667
-0.592610
-0.048552
-0.380683
-0.779491
0.276120
-0.636924
-0.876654
0.439560
-0.822875
0.172752
0.535239
-0.141496
0.838020
0.448256
0.319949
-0.773218
-0.546998
0.407371
-0.249886
0.097827
-0.733699
-0.568928
0.215176
0.761168
-0.277017
0.508059
0.587588
0.584618
0.912961
0.562021
0.987860
-0.455534
-0.039314
-0.842267
0.497772
-0.863188
-0.428066
-0.720049
-0.893494
0.309264
-0.555433
-0.321449
-0.915149
0.573858
-0.229266
-0.523002
-0.776584
-0.010521
-0.952474
-0.777551
-0.645526
0.162038
-0.717545
0.349058
0.030830
-0.169812
-0.171513
0.611081
0.409310
-0.877207
-0.527570
0.644243
-0.402245
-0.629388
-0.258566
-0.869606
0.957508
-0.481534
-0.529534
0.733859
0.095647
0.151881
0.507648
0.957315
-0.134292
0.187245
0.851952
0.271963
0.681375
0.291443
0.229360
-0.991534
-0.394410
-0.416840
0.183051
-0.986209
-0.372240
-0.679363
-0.045009
-0.731826
-0.297725
-0.291494
0.226158
-0.230179
0.104836
-0.016414
-0.566984
-0.473901
0.822230
0.290354
-0.224060
0.801092
0.680756
-0.577963
0.506520
-0.353813
-0.536383
0.697937
-0.117040
-0.354511
-0.806902
-0.728110
0.693485
-0.573593
-0.100755
0.015108
0.548025
0.449085
-0.602611
0.526187
0.137213
0.468518
0.938971
0.926279
0.030854
-0.384500
0.192731
0.693633
-0.064532
-0.275061
-0.611908
1.071865
0.796316
0.377298
-0.651893
-0.184958
0.243609
-0.112733
0.443235
-0.542708
-0.848606
-0.183591
0.255386
2.943900
0.740254
-0.827960
-0.992738
0.700593
0.771199
0.587253
0.516065
0.351556
-0.734223
0.359914
0.276258
-0.790340
-0.138920
-0.988414
0.154512
-0.729921
0.270039
-0.820594
-0.062933
0.595289
0.508398
0.733301
-0.334730
0.032407
-0.984726
-0.244833
0.594605
0.067276
0.914158
-0.598607
-0.610738
0.217479
0.739724
-0.426677
-0.770812
0.851958
0.733561
-0.089757
-0.601175
-0.231278
-0.345984
-0.724137
0.031150
-0.323381
-0.818777
0.092114
0.683474
-0.897558
0.079480
-0.201479
0.135237
0.051057
0.222302
-0.401262
-0.583046
0.430305
0.640832
-0.088078
-0.858930
-0.872949
-0.086987
0.920981
0.240430
-0.510281
-0.880396
-0.095793
0.450614
-0.607886
-0.573576
-0.292801
0.410281
-0.584922
0.252266
-0.816842
0.779769
-0.496887
-0.081743
0.153884
0.356928
0.095271
0.051527
0.059040
-0.210038
-0.333949
0.721658
-0.324738
-0.752691
0.313340
-0.457221
4.914711
-0.413522
0.921249
0.184643
0.042268
0.702625
0.723830
-0.369472
-0.388461
0.436854
-0.391580
-0.159752
-0.738452
-0.243807
0.076400
-0.666477
-0.514086
-0.513175
0.041253
0.260119
-0.023037
-0.247282
0.670000
-0.059754
0.927461
0.451470
0.088641
0.337725
-0.139236
-0.067662
0.848130
-0.516804
-0.609886
0.901831
-0.808339
0.346536
0.999230
0.361158
0.061364
0.250457
-0.828191
-0.788529
-0.345650
0.329346
0.232602
-0.368497
0.157883
0.646143
-0.484650
0.677693
-0.029692
0.695435
-0.517302
0.998773
-0.418057
0.423257
0.319653
-0.526185
-0.961680
-0.908987
0.895397
0.630068
-0.750383
-0.620776
-0.634073
-0.448330
0.732537
0.193073
0.507311
-0.965785
0.381588
0.192964
0.858714
-0.674353
0.055811
-0.078132
0.935242
0.353973
-0.120805
0.731126
0.462538
-0.702413
0.564814
0.517518
-0.764753
0.739692
-0.577229
0.026651
0.008475
-0.500664
0.542132
-0.917954
-0.648634
-0.712740
0.519221
0.782919
0.444542
-0.989679
-0.836886
-0.730450
0.665975
0.464417
-0.835965
0.777508
-0.398684
0.744273
0.073805
0.265772
-0.458307
-0.498706
-0.671227
0.728103
5.678090
-0.546447
0.111011
-0.588005
-0.479003
-0.563708
-0.068415
0.084285
-0.319913
-0.139842
-0.925359
-0.132629
-0.421445
-0.501009
0.942039
0.906852
0.989490
-0.396565
0.232713
-0.604096
0.855386
0.070687
0.939712
-0.842505
-0.174338
-0.606462
-0.289665
0.203018
0.422103
0.864716
-0.172794
0.378898
-0.860234
0.657937
0.562803
-0.179267
0.309558
-0.351450
-0.093104
0.232196
-0.065627
-0.500500
-0.814441
0.252813
0.866486
-0.687884
0.297094
0.732543
-0.577374
-0.464528
0.438189
0.144219
-0.272315
-0.742955
0.246961
0.958507
-0.571374
0.050020
0.951382
0.217304
-0.727080
0.296199
0.649486
0.404279
-0.911485
0.437156
-0.401566
0.479174
0.891182
0.564446
0.507837
0.264816
0.919239
0.462068
-0.569366
0.477231
0.560325
0.718520
0.971001
0.433182
0.691071
0.075648
-0.943230
0.054298
0.082222
-0.098530
0.863298
0.779415
-0.632322
0.507272
-0.422981
-0.981956
-0.320808
-0.915912
0.299229
0.283454
-0.735191
0.787222
-0.157352
-0.753970
1.100564
-0.849377
0.891056
-0.147193
0.253034
-0.259278
0.861297
-0.108747
-0.397643
-0.943410
0.839328
-0.404289
0.365034
-0.343701
-0.093699
-0.295723
-0.895613
-0.862855
-0.584869
-0.491585
-0.284416
-0.386155
0.223647
0.804649
0.805784
0.480343
-0.382123
0.708156
0.291589
-0.007951
0.553341
-0.218192
-0.854131
-0.928912
-0.703859
0.389820
0.710539
0.401398
0.869449
0.192412
0.821289
-0.124096
0.339289
0.653151
0.575537
0.618073
0.246047
-0.745566
0.712962
-0.786183
0.520297
-0.256362
-0.890534
-0.506541
-0.096972
-0.592270
0.169790
-0.920799
0.371292
-0.448434
0.483122
-0.899142
-0.354779
0.874466
-0.662079
0.140202
-0.638772
-0.313849
0.851695
-0.860394
-0.370991
1.114528
0.114400
-0.807078
-0.691506
-0.635246
-0.976357
-0.407281
-0.787361
0.049565
0.721498
0.969269
-0.973565
-0.304999
-0.593504
0.649268
0.697867
-0.816844
0.830896
-0.462400
-0.138308
0.987656
0.866988
-0.129702
-0.463146
-0.671944
0.335933
-0.773847
-0.381739
-0.341646
-0.760200
-0.842525
0.535696
-0.482097
-0.838846
0.309795
0.899538
-0.314204
-0.173734
-0.176491
-0.483332
-0.037791
-0.135453
0.985334
-0.733122
0.308585
-0.366890
0.809009
0.328953
0.366107
0.993028
0.385367
-0.215468
-0.045107
0.592918
-0.570910
-0.627102
0.925935
-0.920283
0.029592
-0.479123
-0.646544
-0.866632
-0.494883
-0.251301
-0.952650
1.096664
0.729765
0.327325
-0.017058
-0.118999
0.767838
0.701807
-0.602383
0.214853
0.358658
0.914743
-0.650465
0.386256
0.638798
0.560832
-0.196044
0.596425
0.604130
-0.347611
-0.607606
0.783172
-0.737798
0.052330
0.611711
-0.161558
-0.026176
0.779302
0.535712
-0.507951
0.400276
-0.128824
0.636327
0.679545
-0.174384
-0.341752
0.407407
-8.061715
0.262888
-0.219034
-0.599106
-0.451166
0.573733
0.853226
0.159376
0.713510
-0.989032
-0.319700
-0.729005
-0.681717
-0.769885
0.167549
0.003922
-0.272704
-0.530925
0.715370
0.799411
-0.763996
-0.988833
0.122228
0.771947
0.871221
-0.357113
0.333342
-0.643771
-0.208096
0.539460
-0.249904
-0.850905
-0.933026
-0.904179
0.122641
-0.027716
0.006167
-0.350109
0.578120
-0.576481
-0.674353
-0.143314
0.635179
0.587295
-0.081617
-0.519256
0.013668
0.194942
-0.634324
-0.262153
-0.061415
0.393339
-0.046360
6.291820
0.001109
-0.462256
-0.268390
-0.546249
0.961766
-0.584040
0.618532
0.130327
0.470637
-0.238923
0.597487
0.760731
-0.019022
-0.301995
-0.743725
-0.876561
0.984530
-0.788288
0.198730
0.378057
0.161271
0.856339
-0.671648
0.979830
0.347076
0.470893
-0.715205
0.676133
0.911170
0.221214
-0.089091
-0.946603
-0.382625
-0.126173
0.838791
0.151847
0.862872
0.476337
-0.542979
0.615972
0.471258
-0.346782
0.940249
-0.734643
-0.626780
-0.282463
0.158639
-0.502570
0.684450
0.049625
0.201263
-0.120075
-0.915099
0.194086
-0.063696
0.701722
-0.985839
-0.830097
0.793430
-0.975701
0.539396
0.042341
0.859643
0.591521
-0.240686
0.950724
0.044711
-0.785470
-5.319178
0.300999
0.575398
0.385770
0.560229
-0.425152
0.619188
0.188060
-0.710730
-0.373542
-0.844676
-0.170304
0.745854
0.386732
0.551704
0.976972
-0.927394
-0.558361
0.547472
0.677268
0.504598
0.710384
-0.775329
-0.955031
0.126542
0.554410
-0.887807
-0.804978
0.669145
0.524851
0.389909
-0.383578
-0.694517
-0.647880
0.552806
0.179972
-0.772382
0.298720
-0.850096
-0.104388
-0.150128
-0.840204
0.059517
-0.611539
-0.114424
-0.506727
-0.853533
-0.924809
-0.054550
-0.497746
-0.376222
-0.410506
0.358459
-1.011603
0.802322
0.070547
-0.935227
-0.678818
-0.269458
-0.102533
0.182841
0.082991
-0.336889
-0.410953
-0.601270
-0.876465
0.835403
0.465209
-0.041017
-0.876661
0.166957
-0.969086
0.787389
0.168000
0.523813
0.862934
0.271510
-0.376342
0.096749
0.650376
-0.286563
-0.469180
0.797588
0.662835
0.489221
0.935129
0.646967
0.080765
0.456015
0.539308
0.246878
0.067216
0.630726
0.649043
-0.962412
0.892496
0.576011
-0.249731
0.056846
-0.164246
0.598592
0.438786
0.643559
-0.614253
0.597514
-0.560025
-0.164878
0.932454
0.965250
0.253976
0.369340
-0.656610
-0.792264
-0.264113
-0.734921
0.252269
-0.819282
0.089804
-0.528518
9.149757
-0.194245
-0.523549
0.163602
0.848523
-0.046504
-0.513108
-0.360836
0.832193
-0.038313
0.192343
0.603655
-0.208265
-0.463118
0.678214
0.575563
-0.306805
-0.224346
-0.411726
-0.946265
0.540482
0.029850
0.825624
-0.418760
-0.605161
-0.768647
-0.360912
0.483992
0.733594
-0.999296
-0.286811
-9.134029
0.695620
0.863672
0.847371
-0.723975
-0.188790
0.463764
0.175961
0.151329
-0.402455
0.475537
-0.711339
-0.760840
-0.869811
0.322463
0.956209
0.456212
-0.319595
-0.144541
0.477864
0.415156
0.724415
-0.836053
-0.863425
0.824202
-8.255585
-0.242447
0.883847
0.040098
-0.213489
0.005573
0.685719
0.212032
0.101593
0.573305
-0.225972
-0.199723
0.114298
-0.172163
-0.730434
0.411117
0.259351
-0.726573
0.860437
0.332133
0.106707
0.619812
0.575289
0.913009
0.353089
0.142253
0.421444
-0.876641
-0.545238
0.910542
-0.947989
0.666282
-0.591150
-0.175785
0.397575
0.187940
0.033303
-0.424719
0.589731
-0.142618
-0.000498
-0.831658
-0.439986
0.617923
-0.646931
-0.429686
0.217872
-0.316288
0.108402
-0.019461
0.104390
0.379175
-0.659236
-0.914707
-0.381899
-0.435445
0.775267
0.540816
-0.013514
-0.070429
-0.043928
-0.231280
-0.828095
0.174429
0.091792
0.540927
0.780132
-0.185884
0.738934
-0.054199
0.313121
0.272056
-0.880556
-0.902760
-0.766543
-0.344543
-0.617984
-0.077570
0.769416
0.762491
0.377123
0.122667
-0.238719
0.052015
-0.367075
0.244257
-0.005960
-0.643936
-0.647182
-0.975205
-0.002191
0.167172
-0.956946
-0.544456
0.966372
0.759965
0.131819
0.146658
-0.001185
0.120297
-0.596421
-0.616783
0.572317
-0.225159
0.509547
-0.509564
-0.408141
0.232817
-0.089967
-0.832155
0.959927
-0.634860
-1.090677
-0.319828
-0.988594
-0.254774
0.564389
-0.239271
0.993622
0.479027
-0.791414
-0.383875
-0.374530
0.082250
-0.322008
-0.582055
0.447575
0.041945
-0.722993
-0.251620
-0.823486
0.247288
0.735798
-0.630920
-0.125654
0.538899
-0.905488
0.831520
0.127099
0.108873
0.428348
-0.721184
0.134609
-0.759883
-0.336157
0.246475
-0.718381
-0.210253
-0.254899
-0.208432
-0.182339
0.466077
0.283809
-0.391343
0.670879
-0.011807
0.592360
0.564492
-0.863247
0.065600
0.762076
0.784979
-0.091005
-0.470629
0.752126
0.454627
0.703404
-0.257163
0.937013
0.538538
0.415391
0.092851
0.606713
-0.098360
-1.110906
-0.578747
0.566466
-0.739338
-1.508907
0.855100
0.355356
-0.026627
-0.679875
-0.723185
0.628688
0.480718
0.170734
-0.179136
-0.041752
-0.011797
0.928759
0.310478
0.308954
0.363405
-0.167283
-0.015296
-0.589331
0.610278
0.467397
0.862350
0.921948
0.918951
-0.183835
-0.258554
-0.096057
-0.374924
0.021227
-0.404433
0.552591
0.857772
0.182373
-0.333501
0.617260
0.385620
-0.877773
0.165490
0.878655
0.108207
-0.764688
-0.110467
0.434099
0.924393
0.583140
-0.759423
0.732576
0.196074
-0.194071
-0.296746
0.787610
-0.153228
0.778619
0.993935
0.067456
0.218274
0.793682
0.020830
-0.691760
-0.305223
-0.219898
0.817419
-0.833818
0.963643
-0.150821
-0.800360
-0.220329
-0.635796
0.257897
0.206716
-0.442285
-0.103408
0.860871
-0.121625
-0.426651
0.807644
0.845725
0.053837
-0.113863
-0.821083
-0.809632
-0.260814
0.779762
0.974227
-0.060468
-0.182316
-0.954336
-0.528027
-0.548350
0.166269
0.180559
0.866487
0.415366
0.009402
0.158316
-0.342462
0.235573
0.782461
-0.352099
-0.427319
-0.785435
0.632570
0.289908
-0.056160
-0.904950
-0.280886
-0.873411
-0.217632
0.543520
-0.565454
-0.257135
0.791350
-0.015800
-0.497748
0.618563
0.933930
0.010327
-0.233689
0.216715
-0.225781
-0.566848
-0.316368
0.921425
-0.164988
-0.852955
-0.247056
-0.791910
-0.505062
1.178840
0.048852
0.819855
-0.236227
0.468752
-0.604536
0.957142
-0.981267
0.106828
0.525438
-0.270084
5.277942
-0.234634
0.646308
0.206912
-0.439241
-0.452114
-0.065052
-0.974372
0.587987
-0.383909
0.680253
0.882494
-0.614789
0.132167
0.176746
0.216691
0.394116
-0.170529
0.346557
-0.874283
-0.082082
0.028924
-0.495192
0.018616
-0.808336
0.926947
-0.187373
-0.949650
-0.554847
-0.395754
-0.002982
-0.227199
-0.812586
-0.068274
-0.489197
-0.637114
0.043368
0.542090
-0.255634
0.052812
-0.486459
-0.350737
0.689551
0.090723
0.230136
-0.603805
-0.393035
-0.957204
0.233624
0.002432
0.307169
0.821565
-0.126623
0.961241
-0.050253
0.583455
0.392734
-0.939014
0.402883
0.269924
0.091532
0.130091
0.354329
-0.363610
0.212967
-0.774849
0.590326
0.621851
0.538839
0.820718
-0.683868
-0.124666
0.542248
-0.468462
0.250544
0.155886
0.374059
0.374264
0.210321
0.205217
0.261811
9.980839
-0.020563
-0.384947
-0.698877
0.942410
-0.947058
-0.141848
0.648126
0.560155
0.215652
0.277908
0.532634
0.876627
-0.938764
-0.500913
0.209765
-0.263409
-0.645104
0.518201
0.326454
0.364012
0.110412
0.275450
0.020858
-0.902778
0.268920
-0.770339
-0.351269
0.678228
0.454325
0.821153
-0.177914
0.536678
-0.540047
-0.573985
-0.958317
-0.545617
-0.392405
0.307523
0.240273
-0.215138
0.710224
-0.489271
-0.426829
-0.247220
-0.254460
-0.787916
-0.150910
-0.074652
0.094812
-0.527051
0.953675
0.840891
0.164161
0.929699
-0.007948
0.021906
-0.876875
0.147400
-0.582143
-0.163827
-0.340136
-0.590116
0.238395
-0.177527
0.591511
-0.301515
0.113901
0.511104
-0.810534
-0.927362
-0.443693
9.304598
-0.860644
-0.480204
-0.518464
-0.556817
0.071694
-0.335883
-0.510901
-0.920596
0.147725
-0.219150
-0.406016
-0.795504
-0.165660
0.175379
0.851725
0.269819
0.168889
0.745730
-0.292677
-0.506127
-0.204751
0.642757
-0.812227
-0.831724
-0.063462
0.223083
-0.740621
0.823540
-0.597465
0.849948
0.873361
-0.980405
0.103133
0.532198
-0.940771
-0.752774
-0.840381
-0.087541
-0.361630
-0.763008
-0.101569
0.618647
-0.733970
-0.785838
0.912941
-0.271651
-0.400466
0.007626
0.166443
0.969243
-0.642152
0.047479
0.702738
0.700721
-0.766386
-0.547666
-0.824938
-0.753180
0.715668
0.922140
0.327341
-0.767335
-0.029381
0.795328
0.903506
0.945886
0.860918
-0.356576
-0.851956
0.764493
0.097545
-0.783603
-0.487459
-0.991482
0.670490
-0.272669
0.025465
0.192883
0.809163
0.515414
0.336933
-0.877979
-0.291170
0.442437
0.497335
-0.239516
-0.078433
0.756020
0.785461
0.332096
-0.650257
-0.893280
0.398369
0.244392
0.584564
-0.429019
0.728313
0.051972
0.043058
-0.001284
0.738068
0.776118
-0.982305
0.179241
0.531413
0.701625
-0.671620
0.867292
0.188083
0.943570
-0.088499
-0.760218
-0.459013
0.889661
-0.414979
0.398458
-0.732790
-0.863304
-0.845667
0.947817
-0.313992
-0.801413
-0.967108
0.338383
0.049742
0.879976
0.600762
-0.288814
0.555420
-0.645584
-0.855102
0.529033
0.862505
-0.252999
-0.611817
0.367942
-0.727089
-0.690338
-0.223073
0.742628
-0.970828
0.978336
-0.818969
-0.330731
-0.091209
-0.336041
-0.481852
-0.147150
-0.199809
-0.712656
0.835547
-0.054528
-0.967127
0.715776
0.504934
-0.718767
0.902172
0.388564
-0.224351
-0.447288
-0.011491
0.267095
0.601869
0.011121
-0.711999
-0.524666
0.685371
-0.382935
-1.537029
0.561917
-0.322370
-0.866576
0.884455
0.881126
0.163303
0.116596
0.689424
-0.879337
-0.829367
-0.303781
-0.672281
-0.275148
0.950342
0.183228
-0.317136
-0.224410
-0.936413
-0.073669
-0.124033
0.541258
-0.923061
-0.926888
-0.758384
0.403588
-0.952323
-0.107832
0.296951
0.537208
0.719785
0.475980
0.206774
0.573283
-0.218220
-0.969281
0.334823
-0.874231
0.459250
0.818655
0.223234
-0.404634
-0.545637
-0.114282
-0.420661
0.337115
0.632690
2.807132
0.876391
0.930639
-0.110424
-0.259186
0.059312
-0.646341
-0.839795
0.864596
-0.175333
-0.174386
0.362976
-0.977012
-0.724316
0.726009
0.754903
-0.374941
-0.500546
0.947394
-0.394451
0.065833
0.790802
-0.866537
0.965112
-0.273249
0.193920
7.325912
0.016930
0.083848
-0.124732
-0.723606
-0.596123
-0.406396
0.337210
0.013503
0.198508
-0.521889
-0.162099
-0.940533
0.143376
0.398724
-0.734636
0.556499
6.684115
0.985853
0.490155
0.551528
0.403243
0.000420
-0.756224
-0.901061
-0.139187
-0.517947
0.824027
-0.538954
-0.129668
-0.046012
-0.377083
0.043415
0.027647
0.071877
-0.597206
0.886799
-0.190767
0.525715
-0.088832
-0.319538
0.260675
-0.400802
0.023037
-0.125497
0.815903
-0.755451
0.683259
-0.513097
-0.464481
0.531884
-0.185060
-0.315390
0.413808
0.708870
-0.114177
0.476982
-0.971264
-0.122027
0.364059
-0.199270
-0.157965
0.841373
-0.435882
0.894096
0.150813
-0.063493
0.172380
0.108967
0.723975
0.831620
-0.985644
-0.112169
0.785218
-0.635276
-0.761886
-0.945636
0.167298
-0.112409
0.365277
-0.607660
-0.221391
0.695134
-0.191294
-0.693402
0.028287
-0.751871
0.484587
0.957103
-0.704600
0.290510
0.310845
-0.242641
-0.278582
0.907428
-2.453397
0.241848
0.479041
0.099950
-0.118956
-0.389638
-0.474361
-0.739072
0.135727
0.521933
0.999060
-0.124075
-0.510212
-0.746403
0.873779
0.431062
-0.033844
-0.588902
-0.848250
-0.664531
0.257254
-0.406538
-0.002972
0.866863
0.238209
-0.359676
-0.041870
0.682837
0.465831
-0.095443
-0.010700
-0.272292
0.830117
0.465549
0.263058
0.004641
0.136464
-0.291029
-0.141868
0.988120
0.621437
0.046265
1.995411
0.311249
0.792037
-0.562560
0.924797
-0.761612
0.429256
0.325126
-0.637499
0.506784
-0.218806
-0.989109
-0.523375
-0.266938
-0.657045
0.241405
-0.982005
-0.288763
-0.334828
0.757558
-0.662433
0.259502
0.949119
0.646599
-0.502378
-0.658900
0.647479
-0.400833
-0.559171
-0.418547
0.529319
-0.604081
0.139398
0.243897
-0.088421
-0.276512
-0.587403
-0.981679
0.705621
-0.091624
-0.608966
0.355728
-0.990941
0.178090
-0.727270
-0.605573
0.470451
0.513352
-0.992654
-0.320244
-0.950513
-0.506621
0.683408
-0.324886
-0.605365
0.246316
0.213835
-0.519736
-0.588168
-0.469958
0.700640
0.509992
0.909197
0.760045
-0.336411
-0.900952
0.402630
-0.725786
-0.485070
0.222891
-0.541727
-0.036225
0.071987
-0.545776
0.769314
0.051330
-0.580445
-0.329061
0.570687
0.822454
-0.489048
-0.440000
-0.219473
0.384079
0.983926
0.978554
0.018857
0.158197
-0.327544
-0.389624
-0.222997
-0.458246
-0.581532
-0.816623
-0.527254
0.417880
-0.151231
0.636596
-0.802555
-0.792149
0.326650
0.356875
0.156090
-0.479804
-0.144952
0.624117
0.496628
0.618362
0.441996
-0.032084
-0.666994
0.894960
-0.963779
0.320399
-0.274816
-2.111923
0.661180
-0.012067
-0.848792
-0.677059
0.055000
0.814882
-0.674508
0.026830
0.546330
-0.633679
