0.495342
0.726971
-0.490726
-0.017587
0.234113
0.624201
0.859522
0.126360
-0.737297
-0.500384
-0.962220
-0.244097
-0.872282
-0.452858
-0.656461
0.307925
-0.721003
0.889524
-0.762227
0.270619
0.792225
-0.832875
-0.803099
-0.202080
-0.462020
0.308493
-0.895779
-0.519864
0.923963
0.026829
0.104025
0.468391
0.179740
-0.252238
0.236034
-0.070285
0.138368
0.103627
-0.534785
-0.939097
0.354905
0.473181
0.882365
-0.961784
0.331454
0.003198
0.259274
0.750420
0.450865
-0.332469
0.594426
0.118171
0.224725
0.059596
-0.281553
0.393640
0.080862
-0.688986
-0.461339
-0.111541
-0.467895
-0.917806
0.664717
-0.064974
-0.389346
0.046943
-0.449636
-0.277596
-0.196278
-0.684281
0.420608
0.391016
-0.435737
-0.433505
-0.059460
0.833963
-0.671648
0.529808
0.931402
0.423105
0.766111
-0.304613
-0.773227
0.423248
0.537854
0.676163
0.506519
0.083474
-0.839233
-0.937995
-0.927582
-0.172281
-0.095672
-0.984119
-0.481166
-0.608361
-0.890161
-0.281012
-0.410551
0.881710
0.674792
0.355253
-0.014138
0.936418
0.326976
0.432947
0.681781
-0.520178
0.813823
0.353820
1.921789
0.665072
0.746291
0.603811
-0.192475
0.390495
-0.661406
0.800541
-0.604939
-0.841339
0.627369
-0.971304
0.516221
-0.488584
-0.574818
-0.588062
0.081245
0.896685
0.058691
-0.040298
0.649342
0.947692
0.044474
0.623919
0.338546
0.955033
0.301455
0.596570
-0.635859
-0.505404
-0.165149
0.473574
-0.823887
0.195046
0.036650
-0.038492
0.043417
0.750178
-0.367048
-0.102907
0.220366
0.044133
0.207356
-0.432020
-0.041838
0.683118
-0.076050
-0.587725
-0.830128
-0.623807
0.293792
0.408634
0.180237
0.380929
0.288059
-0.264331
-0.287455
0.761237
-0.576444
-0.733693
-0.604946
-0.018869
-0.887546
-0.297644
-4.925499
-0.670095
0.981579
-0.333077
0.288076
0.463919
-0.049888
0.351664
-0.825694
0.578738
-0.167283
0.010332
0.700598
-0.629414
-0.859031
-0.843380
-0.461613
-0.046255
0.353989
-0.512850
0.033368
0.097792
0.149425
-0.402965
0.154836
0.428494
0.797036
-0.223767
-0.764777
0.533793
0.574955
0.253383
0.038867
-0.581454
-0.589508
0.452620
0.578875
-0.719752
0.485379
0.655128
-0.337968
-0.606764
0.491519
-0.569272
-0.055348
0.446299
0.640697
0.867352
-0.023287
-0.859643
-0.954689
-0.514353
-0.640101
-0.251234
0.010829
0.912560
0.728448
-0.625752
-0.178038
0.673995
-0.717230
-0.679606
-0.308921
-0.155294
0.492337
0.299468
0.114643
0.803516
0.156779
0.333073
-0.486479
-0.174692
-0.361909
0.549359
-2.278236
-0.853934
-0.721148
0.778302
0.111521
-0.318139
-0.148301
-0.065493
-0.340807
-0.117048
0.549307
0.001488
0.495442
0.250328
-0.104238
0.403057
-0.224317
-0.786051
-0.123196
-0.669655
-0.143822
0.710717
0.125629
-0.334582
-0.564797
-3.082144
-0.286302
0.219113
0.713099
-0.334292
-0.900119
-0.949031
0.015917
0.158135
-0.744284
-0.213735
0.398415
-0.792930
0.242914
-0.257678
-0.874502
-0.973273
-0.155326
0.414026
-0.539814
-0.764386
0.834063
0.082755
0.369950
-0.072402
0.563604
0.975186
-0.255471
0.777963
-0.374788
-0.321452
0.954944
-0.432526
0.714944
0.737228
-0.702253
0.446760
-0.599576
0.792144
-0.264112
0.034214
0.513845
-0.969482
0.510080
0.600086
-0.239454
-0.253350
0.762254
-0.635525
-0.294933
0.909907
0.183456
0.882427
-0.271508
0.294407
-0.372887
0.808262
0.824748
-0.855101
0.254841
0.484700
0.087921
0.791043
-0.872475
0.687669
-0.168497
-0.484671
0.301154
-0.959493
0.207854
-0.201832
0.749351
0.310673
0.427108
-0.597768
0.716240
0.593390
0.723035
0.266735
0.784869
-0.238629
0.364046
-0.669521
-0.545450
0.217309
0.047258
-0.283825
0.854879
0.805859
0.872796
0.697320
-0.954421
-0.952179
0.998814
0.174727
0.011171
0.803842
-0.899674
-0.266767
-0.212553
-1.035016
0.229450
-0.178085
0.994752
0.908051
-0.380701
0.529657
0.329466
-0.274812
-0.718320
-0.762653
0.453869
0.904640
-0.771943
-0.062198
0.527730
-0.038030
0.289573
0.913781
-0.516027
-0.550311
0.258740
-0.001636
0.116256
-0.910155
0.115671
-0.397454
0.918043
-0.844051
-0.465028
-0.783998
-0.354802
-0.374512
-0.258416
0.505107
-0.918892
0.529595
0.352653
-0.543955
-0.691448
-0.759018
-0.862938
-0.085500
0.388812
-0.290426
-0.068098
-0.397607
0.228998
-0.966770
-0.448108
0.685190
0.546906
-0.112451
0.265443
-0.805933
0.115751
0.446986
-0.414292
-0.257943
0.500318
0.737743
-0.997650
0.098522
-0.358283
0.048511
-0.088866
0.497198
-0.419727
0.231608
-4.433497
0.689192
-0.754718
-0.829690
-0.512008
0.573951
0.005832
0.886302
-0.365524
-0.463798
0.771119
0.615080
-0.704125
0.021996
-0.670353
0.736442
-0.178376
-0.911130
-0.493644
-0.342269
-0.765745
-0.691694
0.300882
-0.728941
0.896356
0.486124
6.046584
-0.984630
-0.246435
0.860145
0.527037
0.098785
0.967424
0.687275
0.782292
0.897700
-0.736140
0.728861
0.404068
-0.758140
0.226299
0.103811
0.053197
0.048154
0.607881
0.293142
-0.895420
-0.359046
-0.677041
-0.013255
0.527640
-0.833948
-0.646594
0.652196
0.454288
-0.171501
0.831804
-0.514490
-0.469295
-0.671344
0.717935
0.907954
8.285272
-0.527055
0.241680
-0.293166
0.114931
-0.650724
0.991844
-0.847682
-0.025081
-0.881479
0.258813
-0.866504
-0.804558
-0.206344
-0.262662
0.583355
-0.588178
-0.099395
-0.088698
4.185865
0.751419
-0.711867
-0.496489
0.543322
0.738915
-0.147637
0.928872
0.620425
-0.904941
-0.193815
-0.024942
0.559293
-0.106567
0.555587
0.705258
-0.535373
-0.241412
-0.655571
-0.180390
0.527394
-0.515171
-0.494845
-0.098294
0.658882
-0.071499
0.018914
-0.018608
0.087707
-0.258146
-0.624902
0.436588
0.091267
-0.619622
-0.611451
0.527697
-0.853045
0.600251
-0.480708
0.622755
-0.620642
-0.740164
-0.793465
-0.799695
-0.779300
-0.810379
0.051222
0.069150
0.205677
-0.683751
0.801405
-0.357822
0.289113
0.048804
-0.963699
0.194657
-0.454175
-0.808128
0.075373
-0.360344
0.248999
-0.568713
0.655456
0.786164
0.863942
0.061594
0.413279
-0.662434
-0.707936
0.261156
0.290085
-0.982545
0.929399
0.475010
-0.145580
0.033970
-0.434438
0.937224
0.947605
8.385775
0.769995
-0.692648
0.858498
-0.048135
-0.575091
-0.068160
-0.767288
-0.658835
0.312038
0.395860
-0.495424
-0.405696
-0.323329
-0.392413
0.890200
0.689762
0.965294
-0.153001
-0.675537
-0.512001
-0.117584
0.535843
-0.842164
0.522366
0.031215
0.641196
-0.007474
0.717102
-0.355542
0.172042
0.806877
0.293763
-0.567113
-0.000097
-0.538633
0.105542
-0.634519
-0.578182
0.988387
-0.976400
0.325900
-0.472678
0.945506
0.210758
-0.313589
-0.356054
0.237921
-0.232100
0.887768
0.040823
0.162091
-0.959494
0.028131
-0.482180
-0.808062
-0.095356
-0.226634
0.740541
0.808993
-0.240622
0.591363
0.886135
-0.224414
-0.627238
-0.152486
-0.904079
0.329165
-0.171398
0.269161
0.050657
-0.650026
0.381585
-0.385258
0.947090
-0.392922
-0.568471
0.894328
-0.107449
0.963211
-0.520970
-0.276470
0.647658
0.623447
-0.704898
-0.757696
-0.704701
0.548985
-0.521268
0.503626
-0.861472
0.586038
-0.727228
-0.810328
-0.599375
-0.308083
0.311837
-0.932097
0.816142
0.690006
0.436204
0.195835
0.158344
-0.837338
-0.714274
-0.479525
0.845190
-0.461394
-0.239839
-0.576816
-0.362424
-0.511313
0.918590
0.501745
0.064445
-0.606147
0.359730
-0.693343
-0.595374
-0.628788
-0.308189
0.488469
-0.535202
0.764384
0.583952
-0.979530
-0.641771
-0.164235
-0.676428
-0.153808
0.909501
0.710466
0.723522
0.779787
-0.509391
-0.012537
-0.361143
-0.761295
0.348536
0.167341
0.625665
-0.665973
-0.557561
0.447255
0.070979
0.384361
0.959195
0.660186
0.090542
-0.079169
-0.432713
-0.545796
0.809184
-0.316698
0.770982
-0.943099
0.093945
0.125217
0.348198
0.790435
-0.963020
-0.294297
-0.137833
-0.403298
0.201974
0.055306
-6.088289
0.021274
-0.611816
0.906007
-0.185377
0.592039
0.089051
0.701736
-0.249835
0.725437
-0.068586
-0.694018
-0.491834
0.107804
-0.719219
0.906168
0.498785
-0.558536
0.726766
-0.174257
0.901004
-0.167114
0.797667
0.333314
0.369525
0.980887
-0.175132
-0.741655
-0.323084
-0.053944
-0.625496
-0.397061
7.442293
2.723649
2.374379
4.420042
5.026337
-6.307600
-3.812324
-8.249010
-8.293638
0.427652
2.241567
1.442091
-5.449838
4.880998
-8.074591
12.653106
-1.367197
5.593184
-20.114214
6.858265
-6.088915
3.975161
0.225891
-1.049938
-5.381375
8.031142
6.483682
-1.738946
0.632617
-1.499591
-4.459016
1.726662
10.313556
4.200531
10.008766
6.521259
0.576885
-2.811930
-9.300580
-2.299701
-1.333146
0.119930
0.080787
7.058521
-1.576518
1.664895
-2.530007
5.302147
-2.087068
4.093403
0.994694
4.443360
1.449758
-2.151004
1.297213
5.562739
6.408531
-7.096551
-3.483586
-9.829078
6.914397
6.044873
2.026040
3.729909
-3.706500
-6.305108
6.133251
8.457069
-0.627445
7.218903
-3.462729
-0.849551
7.112314
3.128337
3.071286
-4.717118
6.958891
-11.731947
2.199935
-7.279964
-3.621070
-2.914377
7.409226
-1.955789
0.972244
0.014836
2.456062
4.241624
1.646678
3.904749
-0.389918
-1.690340
-2.422283
17.441020
-2.014329
8.103533
5.864923
5.076057
4.109522
1.154996
-10.089039
-8.199860
-2.975028
6.692447
-2.703971
6.806396
-8.147218
11.581856
7.634767
-10.302328
-20.590847
0.895086
7.139742
4.030410
-8.398806
-1.960006
-1.922416
7.335264
5.420082
3.068856
3.569462
4.347517
7.096046
3.290987
-1.064180
1.434551
-6.653180
-10.216487
-2.134051
14.542616
-6.268983
4.500274
2.765032
-3.482460
2.694543
3.120337
-2.351482
-2.730042
8.957456
-10.070455
-0.404738
-0.962182
-5.998655
-7.911203
5.477591
-9.062136
1.434405
2.441652
-7.413170
-2.586376
4.794075
3.249299
-0.113255
-9.238429
1.258240
5.460636
3.883820
-5.499072
-9.748434
3.904356
-4.776904
-6.581423
-2.226036
-12.269169
-3.676326
-0.822709
3.384879
-6.500179
9.234818
6.363654
-8.823164
8.751318
-1.671398
-10.528667
1.023558
8.983769
5.507388
-0.057928
-7.423349
-10.324117
-0.789525
-8.556645
1.866032
-0.264247
0.128064
-2.595413
5.449258
4.438714
-6.944954
0.060920
-2.192849
-4.976348
-3.505945
-1.452694
-4.099883
-2.206943
4.334565
-1.782903
-7.966310
1.645301
-9.292558
3.194289
-8.442997
2.199600
18.070994
-4.070197
3.673240
10.251832
5.649704
-7.079902
4.870904
8.025755
4.416802
2.682027
-3.720315
-12.075596
0.244838
-8.145860
3.988452
-3.435078
-4.472623
4.693881
-10.208245
-5.500575
4.355227
-2.821480
-12.476750
10.226090
-8.261497
-10.886177
-8.084940
-6.103082
3.630913
2.035649
-7.132671
3.289632
-4.103088
-5.210606
-3.311499
-7.098786
2.271879
-0.358310
-9.178737
0.351420
-7.186861
-1.875398
4.531921
5.033817
-4.299903
8.161917
-0.462198
-6.728651
-8.346794
-9.387124
-5.046427
7.316556
-4.137219
0.820547
-11.781282
-4.143401
1.987425
21.487228
7.246026
7.253880
1.745669
-1.986150
3.342244
-1.629615
-4.063362
6.723526
-6.903938
-4.779593
7.218900
7.174277
-3.464843
-3.451770
5.960954
-4.166685
-6.497991
1.128127
1.447128
-8.017703
-4.126639
-2.649016
5.940462
8.637449
0.886533
-1.910342
-1.188363
5.068171
4.601450
4.587259
11.022818
-8.026704
-3.683944
7.082675
0.050244
-2.408758
-7.728040
-3.786850
-8.887720
1.277809
2.631103
4.518410
9.108036
-10.037360
-10.406143
3.993051
8.705712
2.470231
-1.811147
-4.077552
1.112469
-10.413083
10.172225
3.369143
-11.541432
8.261920
0.021562
-4.705254
-3.103577
12.674458
5.266308
-1.135866
5.083782
10.566476
4.397520
6.177898
-0.457294
2.151666
10.888978
4.040250
3.986667
11.596675
-0.781518
7.325349
-8.699116
3.935462
-0.512351
9.331216
1.241854
-5.906316
-3.717463
-17.404109
-2.363190
7.621688
-1.908367
-0.217842
6.307782
-0.282792
-4.661326
8.631997
-0.911616
-0.113969
-0.327881
-0.957899
-0.055509
6.528390
2.000028
9.730693
1.705928
7.708308
-0.385255
8.598101
-2.465821
3.284993
-6.071116
-2.308178
2.906389
2.724183
4.550932
3.292827
-3.469150
8.941491
7.950782
4.174272
-7.749083
-6.611416
-1.661881
6.097081
-3.773340
-1.324963
4.632145
9.666202
3.934255
-6.523017
3.093499
-0.457211
5.687203
6.287731
-0.624111
3.077824
6.245357
-1.910070
-5.132038
-1.895084
-0.896328
2.547667
5.606678
-1.775950
-1.236992
1.694653
-5.010426
-6.693484
-1.687398
2.429018
8.465230
-5.922913
-7.878150
12.684199
3.284278
9.006916
-3.732490
0.816765
0.204536
4.084152
-2.332541
-9.644417
12.125125
-2.721114
1.671515
-3.386401
-5.661515
7.484343
-6.605236
6.156364
7.565576
0.671250
-8.824397
-0.449298
-0.249432
7.094495
-9.802693
1.033244
3.761985
12.180344
-0.088068
2.821157
-3.611652
-7.470453
-3.342059
0.819936
4.215325
-4.690195
2.016841
-6.747407
-6.567891
7.620656
-7.001043
-11.234078
-0.312338
-8.082012
3.589284
8.525907
2.655080
-3.223061
-3.997441
0.275182
4.797016
-42.369139
-8.433944
-0.344440
-2.111648
-9.350593
-5.299857
-12.103106
11.197182
-20.112611
-1.955969
-6.750612
-2.156542
-8.260675
-5.523847
2.336386
-4.897958
3.962526
0.661276
0.457698
0.453854
-4.174271
-9.542552
-11.962633
-3.407340
8.416054
9.614778
6.351341
4.590360
7.166530
7.032161
4.715627
-12.361166
5.358702
-17.004783
3.343726
7.225915
-0.840136
3.325663
3.083479
-7.498087
-13.841663
-4.204114
8.529483
-3.792428
-2.733979
-7.127177
2.699431
-3.939421
6.936768
6.178177
7.975063
-11.170283
11.872606
1.418759
-4.577332
11.682709
-1.860665
-4.589740
-5.776089
-1.590372
-4.502096
2.409755
1.903008
-2.253675
-10.189459
5.141257
-8.212881
-5.778461
6.606167
-6.149438
-3.750234
-1.360531
0.225702
13.080385
-12.981566
1.730782
-4.218413
6.587990
-3.850954
6.723831
-1.788028
1.807983
-3.796319
5.060212
-5.393701
5.016770
8.184685
5.154142
1.206139
-0.604687
-0.552946
6.300780
6.971999
-9.571154
2.392180
2.136818
3.763096
-7.328597
-10.793420
1.813202
7.278133
6.616601
2.469805
-1.023478
-3.781739
7.826570
-4.428762
4.218621
6.868885
-8.539177
-0.213901
2.390872
-7.614264
4.052369
3.410767
8.081093
-2.519544
-1.473788
5.493197
13.562272
8.967201
2.262756
-1.206208
8.014191
-5.783748
4.272064
2.329593
-5.715855
4.711794
6.125545
-8.468313
2.829291
2.765583
-6.009328
9.904350
-4.451102
4.548583
-0.882543
-0.653803
3.964188
1.487080
3.451481
0.276483
-1.921651
-0.388185
-1.381274
-6.153953
-0.236222
-0.426786
-0.372565
-2.973011
0.645833
-8.137199
2.464872
-5.397239
-3.286951
3.102988
-7.987335
-5.758102
-6.961535
2.543786
-2.360438
5.300367
2.172288
4.116502
-8.447459
7.191991
7.215867
1.538028
-9.383277
5.332777
6.568890
4.046218
-2.989799
4.709300
0.557056
-0.739126
0.081737
1.197471
1.810457
4.135021
5.759015
1.701322
-1.681278
4.745541
5.081707
-4.981833
-10.821821
-0.917644
-2.059850
-0.928917
2.087345
-7.775153
0.998149
0.824310
-3.592907
-3.339410
4.119294
-1.353231
-6.039700
-11.457490
-0.406671
1.521194
-7.656071
4.024904
4.581442
-7.611006
-1.262082
-3.166580
8.902149
0.455406
-13.677729
-5.642564
9.440900
2.180507
6.579231
1.074230
-0.977657
4.116428
-4.426523
7.086099
-1.513647
-9.959191
-0.053209
1.477971
2.907640
0.590245
6.998554
1.627215
6.751934
14.644264
8.764397
-9.334434
3.233976
8.918364
2.829565
-8.012964
4.909579
7.921126
3.707397
5.963518
-2.279434
-6.610685
1.522839
2.248295
-3.911645
7.654968
4.452681
-4.431243
4.162580
6.621130
-4.678886
-4.158494
10.506353
10.434055
10.534369
-11.014515
3.093580
1.510600
0.062365
5.933721
21.358411
-8.210985
4.429356
-3.337452
-2.692618
-1.543280
9.279579
0.487312
-7.556384
-7.122796
-6.592095
4.609466
-6.381656
11.890686
-0.983332
6.220669
-0.115136
-0.679923
10.682974
9.700780
-5.576298
-4.453655
-6.804338
9.804555
4.966754
-0.034970
1.875056
-10.202888
-8.975049
-7.861154
6.770132
2.567390
-4.093843
11.078155
4.749778
-0.073651
7.110364
-8.482391
7.891559
1.478586
-0.758827
-11.409425
-0.479545
-1.287572
7.778311
-0.461918
3.450708
7.888252
1.996825
-4.012692
-2.783318
5.738394
-2.380101
-1.309539
7.397854
-3.762983
-7.667438
-5.123121
-5.791847
0.739321
1.879555
-7.741978
-5.624607
7.194471
10.335412
3.531730
7.680130
8.181637
-3.023090
-3.497130
17.596465
-1.710029
4.987186
2.151367
3.682276
-3.493614
3.117837
-0.762007
-5.646793
-6.843919
-8.999923
12.245202
-2.046529
-1.318478
5.807379
9.272193
5.460080
-0.992501
9.838750
-5.127901
-2.902534
6.114332
-3.220087
-11.419338
0.401447
-3.635336
-2.447779
0.220452
0.922262
-10.252816
10.708844
-3.304460
9.058543
-0.780421
-7.134627
-7.198583
-12.763776
1.437928
-16.403711
-8.683985
-0.854468
5.546835
8.816988
-2.296783
-3.562725
1.762230
-1.737997
-5.216360
11.291747
0.040413
-6.309028
1.400018
-0.062946
-12.371084
-5.468149
7.569252
-5.024312
0.197611
-5.332608
-1.554833
-0.797308
10.359493
4.460709
-5.400028
0.675930
-1.485493
-2.126440
-0.000954
3.949350
-2.794444
6.141305
2.301413
-4.613212
3.057262
7.917202
1.392395
11.705122
-1.514064
9.133377
-4.877868
1.926822
4.737131
1.638332
6.226746
7.186890
2.102281
-0.303900
-4.015877
-4.155761
1.290366
-5.583749
8.538566
11.684670
2.964593
0.714686
-10.878320
3.952222
1.731298
-0.307754
-0.162854
7.631772
-0.409267
5.817086
-3.783036
2.304636
-2.771845
1.782868
2.457904
10.938438
3.853652
4.827239
-6.594355
7.057113
4.736755
-0.516718
-2.907424
2.401668
4.976269
-9.590280
4.046076
15.655995
0.328825
5.248591
0.610141
5.124898
-1.507461
-2.823896
-3.726772
-1.689305
-5.124539
-3.443122
15.231081
2.739975
4.165841
-7.352531
-6.190334
-6.110912
-4.152171
-4.370500
-11.955738
-2.529717
4.804953
-7.028309
10.218488
4.023938
0.805110
-4.231007
2.275380
10.816785
3.462134
7.471866
3.028999
-6.840148
7.484663
-9.402828
-10.276565
-2.054844
6.278279
-5.898253
-6.481267
2.918532
-3.676692
5.105459
4.576435
-2.358531
-3.787540
-3.308266
8.588156
-7.709539
-6.172383
11.025007
-7.302111
-3.855279
17.416094
-1.271809
-4.830710
-3.270224
2.296332
4.590100
-6.277446
-15.156141
-11.392696
-3.578579
0.500291
-6.213826
1.588782
3.028119
3.285167
-5.070594
-9.627948
5.130549
-3.264483
-5.176263
6.932701
4.262526
-5.188338
8.396354
-3.158818
-2.378535
-7.177376
-7.028486
2.759195
-2.970255
4.287879
-3.904478
-5.211278
1.240530
-2.882116
-3.459793
6.613904
0.838066
-1.180339
6.008527
-12.642296
-9.105385
7.552471
2.738313
-5.416196
5.066249
-3.534856
3.177164
-3.220721
1.836913
9.476473
-4.107097
5.819864
-6.256096
4.208881
-2.972431
1.085140
-1.817228
2.788242
-0.610598
2.349317
1.354568
2.670409
-11.275561
-7.447562
0.327743
1.097722
2.067552
-8.252767
-8.247226
-1.904226
13.296785
5.199752
-7.812518
-3.878959
-4.263889
0.265317
-1.265978
1.273283
-1.756837
1.225413
0.328935
6.206768
4.434211
9.725242
-1.506162
4.066682
9.665201
6.311804
5.862626
-7.144888
9.296167
-10.920001
1.163500
-3.344129
-3.721648
4.971761
-2.751114
3.151219
-6.004301
3.592405
1.499991
2.500123
-8.184058
-16.873963
3.875387
5.406689
10.344891
2.939676
9.645726
-0.041895
-0.627465
-5.606168
-5.423492
-6.497164
7.532592
8.786738
-1.519114
-0.895841
-2.983770
5.965419
3.743614
-10.984474
13.864129
-5.242561
-7.520077
1.160346
-2.133538
-2.347299
-3.717748
7.638594
2.771231
3.171684
-2.456819
-3.012498
-8.771678
-9.699384
2.944837
2.591454
2.455054
3.999862
-3.921257
2.066420
1.023616
10.990628
11.711988
-8.369204
-74.464237
-3.476937
-3.446073
-8.451969
-1.809246
-4.186938
-1.513831
8.907707
4.326141
-10.609786
-0.416284
-4.993074
0.978582
-10.601167
-6.438532
14.574017
6.137736
0.427032
1.648446
-6.062083
1.932692
4.820552
-0.657044
7.796180
-3.266653
10.514681
-6.801881
9.855454
7.307174
-2.698209
10.455110
-1.248341
1.431057
-9.800697
-5.441782
-1.465087
5.589044
-1.218282
-3.368146
7.964363
1.526405
-4.380899
-0.786485
2.349858
-8.769138
-1.440638
4.493020
-1.934907
-6.317940
-4.249527
-2.972372
-9.843713
4.002789
4.056036
6.735076
0.724579
2.353848
2.482386
-19.845898
-1.510755
-3.584713
8.730624
1.959171
-1.585660
-4.070808
-0.011950
-0.268478
9.221868
-1.213822
8.111457
3.325500
-2.680040
-7.279840
4.709551
4.585258
-0.141081
7.017057
9.826273
-3.554071
-5.405429
0.836669
-4.922966
7.048970
-5.060666
8.370571
5.791791
-4.081120
-9.603028
7.779576
-2.396592
-2.397604
-6.038383
6.405190
-5.027865
3.720403
2.281678
4.979800
-4.034946
1.261478
-0.565833
10.427351
6.015208
-13.093224
3.091781
0.172259
0.343878
4.322751
8.989202
7.375309
-0.650449
-2.814195
7.965288
-3.397583
-7.691611
-7.208900
3.727193
7.740633
3.590333
9.013337
-0.444026
-5.501214
-5.871529
-6.368231
-2.941889
2.215825
-2.329713
10.550042
11.059914
0.536338
2.242047
7.235073
-2.277610
-6.894264
7.968297
-1.908310
-2.572353
9.274005
-3.283345
5.710498
4.052654
-6.603925
-2.936546
-2.902178
3.068232
-5.879872
-9.089358
5.205285
5.821432
3.113987
-8.057526
-3.630375
5.375359
-10.655844
8.574516
-9.320083
5.760843
5.651019
-6.206911
18.113804
-4.089779
-2.087850
-4.139780
-9.857132
-4.722458
3.416843
-5.304960
-4.176935
7.354297
-3.391674
-7.522533
1.734950
7.318599
4.184390
-1.759852
-8.007764
-1.442956
-0.304186
-1.389794
-4.281440
-2.356413
4.682480
0.929584
19.040144
6.929600
-1.285064
9.358875
-0.353026
1.300332
1.077584
-4.009624
-6.016195
8.772314
4.564072
3.196496
-6.148890
3.863037
1.591335
0.008804
6.361546
-3.832741
0.452662
5.209574
-0.261403
11.147876
11.741961
1.909539
-7.574296
3.131627
10.820323
7.731142
-1.308203
-9.255043
-9.554995
-6.701922
-10.152123
11.605297
-2.280943
2.280111
-10.006275
-9.216952
-7.648008
3.369723
-3.553735
-6.579308
-3.092710
3.552035
13.117604
-6.468114
10.380812
-7.659067
-3.188298
1.515742
-13.096760
4.458069
-5.571042
4.625927
-0.654427
5.652458
-3.901479
-6.629970
2.587129
0.915307
7.899705
-3.019777
-13.834546
3.343231
11.731284
2.775488
8.312422
3.849121
-6.436177
3.324700
-8.390957
1.938045
-3.489214
1.493174
-7.937642
2.097055
-5.317197
-0.753610
-2.435238
-5.148169
-16.812952
9.533208
-6.286668
-13.477574
2.515785
-7.141837
-1.828727
-2.523278
-1.908704
-1.872542
-9.242245
2.035443
-3.645072
5.643271
4.762814
2.710608
-1.356570
4.386350
7.011402
3.817500
-5.693161
11.532077
2.710799
-1.046710
-3.627636
0.220111
-2.938089
-6.576146
5.479676
5.721963
2.984210
-5.276267
8.327698
-0.597363
1.574033
2.237499
-1.597169
6.020296
-1.229553
-5.076762
10.527866
4.299648
-0.001381
-0.801281
8.253681
-11.124394
-1.991687
1.401803
-2.132217
-8.507660
-4.688492
-3.809374
1.969859
1.756251
-5.447933
-3.159698
3.959395
1.200860
0.132952
1.274439
8.319656
-0.298567
-5.186128
-8.936569
-2.619329
15.429746
-1.926667
-3.179973
-5.543353
-1.273301
-4.997945
-5.035123
6.523459
-5.592277
-9.082035
1.384833
8.542789
10.144672
-1.224005
-2.273835
-2.845737
8.796442
7.262330
-4.683925
6.789758
-2.505968
-7.819889
-4.581017
-3.558771
-3.360635
-7.051191
2.483283
7.334056
-6.576088
-2.599520
2.698637
10.159926
6.856070
-4.222376
5.699636
3.577348
3.679179
10.242142
-9.788505
1.346461
4.186485
1.855673
-9.701509
13.296469
10.333567
3.075442
7.994451
2.882932
-2.104531
-0.262123
-7.962112
-5.768486
6.282705
1.933631
-3.174878
-4.330598
3.600900
-1.778688
0.439139
-5.450509
2.230452
5.029444
-1.659557
7.911029
5.650085
-5.199112
-3.378490
-2.813902
-7.332756
4.053930
0.773604
-11.495326
4.263137
1.189405
1.651746
-9.757031
-2.845093
-3.213122
-2.632682
-5.750526
-6.037714
7.512949
-2.312366
-0.932572
-6.183596
-3.037906
8.661328
2.111454
4.904637
5.335640
-2.245215
-6.439306
-1.803705
8.962441
-1.672690
7.572293
4.434744
-1.601538
-4.908885
-3.111793
-8.300724
-1.393360
-5.906907
1.206762
9.887309
-9.260926
1.955261
-8.449244
1.793847
-5.896032
-10.671571
8.132567
15.287425
6.831962
3.899187
-8.544635
0.671049
-8.930083
-13.784075
7.472592
4.063452
1.081772
-3.398929
3.234957
1.639737
-5.897159
4.542557
-3.132908
4.860513
-0.705556
8.259108
-5.820501
5.792722
9.090345
-6.329101
4.812407
-6.318265
12.770154
3.804667
-7.376584
2.602735
7.352844
-6.420284
-7.223406
2.547291
0.256948
-0.429787
-2.300527
-11.130006
5.848575
-4.245506
-2.799033
-5.155482
-4.567721
6.003299
-2.148323
1.927694
6.653521
-6.621910
7.931727
-5.313321
-1.600819
-10.588439
0.630611
0.744529
-0.763803
-0.298928
-0.017720
-0.771009
-0.061988
0.077763
0.693731
0.188049
0.259637
0.400560
-0.840932
0.218691
0.419062
-0.151962
-0.078039
-0.923992
0.570545
-0.655895
-0.870483
0.695612
-0.199879
0.596309
0.582750
-0.949828
0.491736
-0.885381
0.513691
0.041514
-0.395223
-0.873487
-0.093734
0.472753
-0.174760
-0.451350
0.830472
-0.010382
0.630890
3.703328
0.955267
-0.292981
0.312683
-0.788598
0.919433
0.931080
0.060664
0.314962
0.350841
-0.811296
0.994740
-0.324222
-0.010024
0.075591
0.613248
0.738378
0.132634
0.456291
0.359078
0.183174
-0.849695
0.742605
0.447268
-2.576591
0.895460
-0.533930
-0.456678
0.952141
0.078533
0.362308
0.747753
0.730629
0.124645
-0.255234
-0.416068
-0.103194
0.542003
-0.617140
0.011584
-0.212171
-0.205602
-0.601925
0.329074
-0.767238
0.771126
0.366819
-0.749248
-0.555152
0.997902
-0.602099
0.156999
0.547962
-0.716220
0.558217
0.035399
0.705091
0.790908
-0.334954
0.502569
-0.587300
-0.698501
0.787732
0.614981
0.026641
-0.079855
0.879589
0.328113
0.254751
-0.010142
0.591831
0.519939
0.940587
0.538465
-0.057093
0.568140
0.441925
0.103060
-0.634126
0.488273
0.070762
0.564747
0.526523
-0.309979
-0.277789
0.138481
0.948849
0.618434
-0.223451
-0.438076
-0.757736
-0.754565
-0.934126
-0.909506
0.675189
-0.244560
0.922393
-0.561887
0.386465
-0.361640
-0.685765
-0.038539
0.423457
-0.244547
-0.302287
0.640121
0.552493
-0.405157
-0.774226
-0.213654
0.021013
-0.397433
-0.183366
0.527097
-0.385878
0.866124
-0.555090
0.087601
0.458806
0.313290
-0.386527
-1.111939
0.336418
-0.087318
0.310874
0.122891
-0.071128
0.207640
-0.553951
-0.066093
0.220231
-0.559859
0.954860
0.533514
0.047730
-0.315492
0.387332
0.675299
0.047203
0.534941
-0.385895
-0.139210
-0.557807
0.473884
-0.732702
-0.316787
0.461928
0.798494
-0.997401
0.446564
-0.269102
0.734691
-0.823710
0.242128
0.844697
-0.516693
0.984791
0.241102
-0.294131
0.941357
0.571453
-0.102981
0.892919
-0.789084
-0.822944
-0.325144
-0.641028
-0.866288
-0.879866
0.221766
0.154620
0.603876
0.609069
0.593801
-0.519204
0.519802
-0.975319
0.486435
-0.036744
0.891038
-0.523706
0.121056
-0.314716
0.566702
-0.689879
0.659200
-0.032904
0.753643
-0.738525
-0.745683
-0.178722
-0.688439
0.052796
-0.875532
0.266706
0.553470
-0.460999
-0.768195
-0.269676
-0.243094
0.927511
-0.245615
0.947066
-0.091059
0.830093
0.671962
-0.549202
0.791868
0.741085
-0.951896
0.254820
-0.903730
0.539277
0.812496
-0.783747
0.537868
0.585957
0.524232
-0.051409
0.462538
-0.743093
0.635579
0.390395
0.703615
0.748790
0.075121
-0.099306
-0.926613
0.595747
0.539156
0.101962
-0.355488
0.492671
0.345999
-0.487850
-0.893626
-0.127407
-0.412876
0.076566
0.618990
0.992192
-0.680698
-0.964959
-0.978964
-0.633088
0.670234
-0.743114
0.089122
0.497026
0.799863
-0.920365
0.785227
0.865520
0.037132
0.897912
0.371738
0.270066
0.958639
-0.645541
-0.212301
0.048386
-0.022204
0.910058
0.448432
-0.938245
-0.228778
-0.017420
-0.165688
0.859040
-0.675893
-0.440414
0.293417
-0.979601
-0.579710
-0.114122
-0.700696
-0.281874
0.586259
0.319828
-0.653952
-0.759863
-0.769926
0.057759
-0.161752
0.541201
-0.118677
0.872572
0.831314
0.207184
-0.483558
-0.675252
0.687907
-0.192187
0.099125
-0.020164
0.482842
-0.759184
-0.430331
0.348869
-0.178644
-0.180665
0.262195
0.479420
-0.889794
-0.492876
0.452234
-0.323877
0.234118
-0.492188
0.567292
0.433113
-0.563728
0.389179
0.195485
-0.317500
0.316194
0.875496
0.819269
0.404557
-0.234228
-0.813190
0.065914
-0.683819
0.576745
-0.112270
-0.761132
-0.696069
0.722754
-0.090847
0.988110
0.987967
-0.349808
-0.223308
-0.793919
-0.279927
0.514864
-0.817624
0.274248
0.479413
-0.084846
0.313504
-0.316398
-0.365372
0.537437
-0.883301
-0.174308
0.598814
-0.362034
0.819357
-0.161423
0.340783
-0.197300
0.999928
-0.790199
-0.142830
0.110562
0.052449
0.012097
-0.467378
0.014996
0.794426
-0.386828
0.406102
-0.658780
8.975298
-0.677019
-0.786624
0.297127
-0.451841
-0.678222
-0.596745
-0.966540
-0.202807
0.959853
0.542988
0.807759
0.749582
0.321723
0.805310
-0.954114
0.962935
0.565526
0.735616
0.032469
0.532402
0.937452
-0.273330
0.682326
-0.478287
0.775352
-0.910518
-0.997767
-0.734406
0.621137
0.085363
-0.413371
0.489157
-0.970287
0.681527
0.453965
-0.648921
-0.892170
-0.416085
-0.709574
-0.169606
0.325493
-0.290965
0.676906
-0.476348
0.301428
0.839181
0.473759
-0.857320
0.701017
-0.054754
0.023775
-0.634732
0.306646
0.807827
-0.835295
0.085651
-0.849667
-0.502430
0.174880
0.080674
0.517903
-0.819051
0.204594
-0.897515
0.663406
0.525105
0.418556
-0.656506
0.284705
0.535128
0.200121
-0.584136
-0.363203
-0.741212
-0.114109
0.866238
-0.047701
0.375238
0.694877
-0.898201
0.538718
0.205197
-0.636043
0.242893
-0.181815
0.582995
0.297856
0.593400
0.131927
0.656186
-0.288872
-0.480192
0.957366
-0.379156
-0.929475
-0.227823
-0.144580
0.673002
-0.629641
-0.548088
-0.252579
-0.342124
-0.767746
-0.012221
-0.116718
-0.560058
-0.015046
0.591612
0.841011
-0.679026
-0.052748
0.433013
0.792597
0.618077
0.925260
0.432251
-0.089055
0.773777
-0.679163
-0.669011
-0.594045
0.047522
0.134752
1.056386
0.245310
0.483860
0.382727
-0.420350
-0.840722
0.921233
-0.373649
-0.910305
0.582197
-0.347334
-0.602767
-0.144391
-0.962257
0.750846
0.064604
-0.643008
0.789137
-0.161623
0.825826
0.838505
0.349962
-0.760121
0.460305
-0.243230
0.980787
-0.607786
0.163596
0.386797
0.776740
-7.632839
0.782540
0.057048
-0.125427
-0.594745
0.419976
0.508823
-0.713401
-0.496625
0.975382
-0.425777
-0.028039
0.643326
-0.615225
-0.699570
0.877749
-0.859649
0.489859
0.756298
0.323667
0.540239
-0.673615
0.800860
-0.198338
-0.332260
-0.519224
0.575938
-0.912967
-0.466879
0.345376
-0.742729
-0.672616
0.142396
0.909411
-0.286211
-0.406282
0.508219
0.181987
0.597775
-0.082360
-0.358000
-0.870249
-0.723511
-0.665413
-0.768531
-0.891861
-2.587901
-0.286231
-0.140822
-0.354163
-0.055945
0.758491
0.984507
-0.466863
0.151244
0.762658
-0.496774
-0.487052
-0.175038
-0.033605
-0.237280
-0.134421
-0.827178
0.742493
-2.513445
0.168948
0.058033
-0.866064
0.433364
0.797407
-0.071412
-0.712247
0.624996
-0.903624
-0.330674
0.258626
-0.881744
-0.697338
0.966743
0.065802
0.682601
0.437695
0.018097
-0.178217
0.902812
0.824668
0.633664
-0.171801
0.911261
-0.585192
0.088007
0.237312
-0.309109
0.922324
-0.616404
-0.279147
0.747306
0.880057
-0.176889
-0.489495
0.945430
-0.235766
0.834484
0.212565
0.548085
0.301902
-0.558520
-0.685202
-0.551691
0.689075
-0.205741
-0.273239
0.371876
-0.107103
0.618662
-0.758532
0.527099
0.206584
0.679841
0.094090
-0.042673
0.050109
0.863919
0.194375
-0.338007
-0.314590
-0.556441
-0.931023
-0.676629
-0.254531
0.396593
0.919850
-0.595278
-0.202283
0.443228
-0.355639
-0.813523
0.428051
0.677779
0.168811
-0.432512
0.438654
-0.696434
0.670134
0.183975
0.265810
0.939805
0.518749
-5.958718
0.292485
-0.311564
-0.033154
-0.437958
-0.820865
-0.897923
0.300916
0.018690
-0.591459
0.951569
0.681732
0.160601
0.448047
-0.342924
0.309469
0.064560
-0.571554
-0.000194
0.356574
0.684492
-0.053526
0.230593
-0.763190
-0.685904
0.899320
0.607322
-0.418730
-0.829834
-0.232109
0.840686
0.579238
0.811558
-0.977775
-0.074457
-0.510436
-0.480836
-0.739243
0.752875
-0.545384
0.270752
-0.056217
-0.135369
0.724570
0.888643
0.331795
0.402760
-0.124369
0.945183
0.848523
-0.332180
0.208071
0.242979
-0.741278
-0.424745
0.297625
0.133391
0.554611
0.639007
-0.203365
-0.437880
0.113496
0.997327
-0.356617
-0.619795
0.331440
0.225881
-0.673506
-0.613787
0.381820
-0.781797
0.184792
0.792253
0.365137
0.237475
-0.857193
0.955697
-0.810718
1.150611
0.198602
-0.746359
0.471395
0.540117
0.087757
-0.521513
0.552463
0.493538
-0.980114
0.676550
-0.885939
0.368177
-0.112682
0.556093
-0.162356
0.416999
0.891367
-0.208494
-0.690354
0.365116
-0.674223
-0.689003
-0.803695
5.399328
-0.694831
-0.600545
0.083628
0.760794
0.878652
0.909585
-0.940347
-0.233835
0.695263
-0.125954
-0.088240
-0.572964
0.103133
0.558388
-0.679548
-0.209921
0.781858
0.849740
0.383955
0.463701
-0.115154
0.405749
0.112335
-0.586620
0.650691
0.556825
0.069184
0.116746
-0.229307
0.768520
0.106698
0.626074
-0.859808
0.064815
-0.236745
0.057695
0.844541
0.355789
0.182096
0.455101
0.087585
0.195392
-0.848970
0.691347
0.900834
-0.675076
0.598046
0.522282
0.561051
0.645681
0.136021
0.981888
-0.361631
-0.495019
-0.290950
0.834947
-0.466787
0.941169
0.371614
-0.706745
-0.937713
-0.758067
-0.067455
-0.142259
0.087352
-0.188803
-0.099651
-0.639963
-0.540837
0.069100
0.322464
-0.179369
0.699805
1.144582
-0.132783
0.249287
0.825039
-0.646143
0.411279
-0.168968
0.143489
-0.795146
0.819771
0.866337
0.620133
-3.296101
0.246515
0.934657
-0.859251
-0.813176
0.107886
0.074354
-0.280377
-0.642832
-0.216927
-0.772691
0.882699
-0.213775
0.155251
0.351725
0.357223
0.730939
-0.277075
0.902991
-0.216898
0.602499
-0.779244
0.225047
-0.211385
-0.136099
0.972927
-1.361138
0.724570
0.192424
0.910430
0.603843
-0.611317
0.735299
0.925579
0.438618
-0.312636
-0.997084
-0.411385
0.406061
0.492705
0.500247
-0.271786
-0.094420
0.691400
-0.152557
-0.530427
0.553849
0.924360
0.926726
0.667679
-0.353248
-0.962751
0.023137
-0.567487
-0.432820
-0.018954
0.591409
0.583848
-0.680500
0.111235
-0.142578
0.663147
0.140486
-0.712263
0.249132
0.704726
-0.416645
-0.106888
0.222634
-0.022245
0.035616
0.761328
-0.305274
0.457088
0.611238
-0.650225
-0.425788
0.476809
0.430877
0.070636
-0.722447
0.469535
-0.470314
0.088691
0.417748
0.359442
0.379356
-0.657110
0.661997
-0.775332
0.457272
0.464150
0.931169
-0.564142
-0.726955
-0.660293
0.973806
0.132735
-0.722285
-0.673346
0.838211
-0.169398
0.644324
0.972879
-0.565036
0.851031
-0.015877
-0.278962
-0.421335
0.795167
0.047174
-0.996087
0.851316
0.979697
0.632375
0.412155
-0.748542
-0.951593
0.535166
0.257280
0.973751
0.621548
0.368061
-0.508455
0.499244
0.687418
-0.793955
-0.303353
-0.078120
0.711420
-0.799718
0.985361
0.609643
-0.566770
0.035259
0.355361
0.943668
-0.457694
-0.440993
0.848721
-0.968030
0.177142
-0.582259
0.591449
0.869277
0.132308
0.553901
-0.885999
0.123784
-0.177819
-0.002115
0.361793
-0.949464
0.265851
0.440542
0.589994
-0.161840
0.909575
0.433900
-0.058160
0.198026
0.335049
0.855007
0.441034
0.717785
-0.288008
0.782263
-0.528475
0.538617
-0.286476
-0.112929
0.206534
-0.314337
0.812399
0.444171
0.883359
0.310419
0.110010
-0.173528
-0.362864
0.913877
0.886420
-0.584552
0.608253
0.356819
0.126821
0.381586
-0.855906
0.727832
-0.882663
-0.860492
0.468863
-0.685562
0.979688
0.917895
-0.695092
-0.957301
0.628266
0.373929
-0.801812
0.665636
0.776943
-0.334729
0.309894
0.973831
-0.403428
-0.945401
-0.717342
-0.021772
-0.498420
0.050188
-0.417907
-0.347688
0.120223
-0.263063
-0.991225
-0.544531
-0.101431
0.319339
0.505638
-0.284899
0.480387
0.296737
0.661292
0.261354
-0.384603
-0.353169
-0.068242
0.165686
0.604864
0.266266
-0.255008
0.661371
-0.041189
-0.866609
-0.407456
-0.746133
0.346746
-0.540451
-0.859840
-0.513922
-0.015492
-0.187682
0.046023
0.519024
0.240229
-0.202725
0.368680
0.662254
0.737206
0.570465
0.415559
-0.126964
0.006524
0.067799
0.657855
0.611312
0.128618
0.024824
-0.978541
-0.979235
-0.746446
0.243269
0.847210
-0.100501
0.857682
0.941600
-0.861318
-0.302456
0.880647
-0.932996
-0.585430
0.696263
0.619576
0.375081
0.822432
0.743762
0.603787
3.361986
-0.578559
0.333587
0.812557
0.598648
0.445345
-0.205967
-0.135177
0.798506
-0.146206
0.577434
-0.447705
0.342559
0.047541
0.200503
0.470001
0.732382
-0.430553
-0.473593
0.005906
-0.497879
-0.689689
-0.899652
-0.577465
-0.511989
-0.688254
-0.338461
-0.960202
0.946287
0.570133
-0.618486
0.949545
0.870377
0.258734
0.017965
0.398612
0.504411
-0.936473
0.508187
-0.127265
1.722507
0.745519
-0.088982
-0.060206
0.984272
0.605842
0.901008
0.771553
-0.696434
0.583316
-0.260223
-0.343424
-0.363387
0.280556
0.226617
-0.230818
-0.555388
-0.538718
0.193052
-0.792617
0.350887
0.069465
0.180454
-0.443706
0.291629
-0.535411
0.093052
-0.483659
0.088131
-0.325064
0.871810
-0.180686
0.646280
-0.997029
-0.253688
0.360007
0.327452
-0.386248
0.128398
0.698108
-0.175139
-0.529137
-0.378729
-0.983934
-0.250559
-0.831422
0.708985
0.392278
-0.330471
-0.628479
0.212068
0.571410
0.285668
0.945042
-0.687969
-0.702099
-0.175036
-0.134428
-0.011577
0.446057
-0.329274
-0.057306
-0.819596
0.044938
-0.267291
-0.277283
-0.979683
0.967241
0.080178
0.473002
0.796026
-0.982615
-2.106291
0.249037
-0.717431
-0.318813
-0.674380
0.778710
0.303801
0.532972
0.549402
-0.770114
0.106961
0.952054
-0.179472
0.332121
-0.970666
0.586952
-0.238176
-0.768869
0.723649
-0.755611
0.788571
-0.358515
0.441785
-0.091761
0.442528
-0.846583
-0.134398
-0.898817
0.586762
0.505715
-0.911272
-0.306797
-0.834680
0.535073
0.871387
-0.515136
0.974457
-0.580185
0.162254
0.029808
-0.340568
-0.887673
-0.998269
0.863800
0.694057
2.647725
0.622601
0.044959
-0.639880
0.321992
0.200510
-0.866139
0.075921
0.976494
0.283529
0.347385
-0.256906
-0.863698
0.018325
-1.023773
0.298417
0.593116
-0.205733
0.177590
0.111534
-0.437590
0.725257
0.597128
0.384162
0.160006
0.448403
-0.471998
0.170237
-0.813483
0.189360
-0.208182
0.219146
0.635602
0.350700
0.840497
-0.320733
-0.877030
-0.300364
0.519392
0.054421
-0.924491
-0.539755
0.272386
-0.281149
-0.192614
0.270920
-0.372012
-0.122527
-0.285799
-0.491167
0.908676
0.361400
-0.098530
0.480018
-0.471178
0.577451
-0.655097
0.596010
-0.780158
-0.258429
-0.541710
-0.758456
0.120451
0.948691
-0.765104
0.973155
0.368091
-0.507634
-0.656139
-0.231122
-0.890612
0.306349
-0.185258
-0.286292
0.544438
-0.096960
-0.607785
-0.224387
0.428748
-0.613689
-0.223534
0.768281
-0.013107
0.880575
0.314228
0.727558
-0.736493
0.630805
0.275203
-0.250262
0.198263
0.641643
0.340813
0.069046
-0.128839
0.522084
0.064902
0.976454
0.088162
-0.387713
-0.904593
0.879603
-0.389465
0.114169
-0.555518
0.817213
0.785324
-0.307769
-0.569612
0.746738
0.592883
-0.703464
-0.807824
-0.350141
-0.388331
-0.738515
0.919693
0.484512
-0.187293
-0.995223
-0.090917
-0.619439
-0.643463
0.328531
0.857284
-0.909007
-0.033311
0.435198
-0.026661
0.845733
0.421080
-0.906661
-0.891942
0.669465
-0.254581
-0.664162
-0.576260
-0.673950
0.876748
-0.926708
0.119379
0.104427
-0.851079
-0.904378
-0.304266
0.090571
0.696423
-0.292249
0.311372
0.883259
0.787116
0.765444
0.924409
-0.826105
-0.055875
0.021248
0.039735
0.735464
-0.388050
-0.585210
-0.914431
-0.233321
-0.133554
0.406646
-0.072410
0.283895
0.217012
-0.678270
-0.428944
-0.438586
-0.007177
-0.560704
-0.309100
0.957324
0.217640
-0.754692
-0.098541
-2.475609
0.344983
-2.254570
-0.449225
0.607001
-0.883487
-0.140335
0.765768
0.994977
6.126623
0.778500
-0.335162
0.305529
0.622976
0.541614
0.647807
0.957892
0.002945
-0.083520
0.450369
0.983397
0.593827
0.988539
-0.349718
-0.647947
0.096268
0.463556
0.923383
0.746951
6.720963
-0.409274
0.853741
0.960064
0.400403
0.973155
0.395262
0.222606
0.792686
0.221625
-0.130957
-0.823369
0.567963
0.031137
0.378024
0.250074
0.003692
0.581987
-0.270470
-0.451169
-0.914884
-0.271326
0.010236
-0.425995
0.771744
0.072276
-0.004031
0.669369
-0.925525
-0.583769
-0.563462
-0.723546
0.012954
0.135076
0.141059
-0.857066
0.380468
0.675877
0.362996
0.540175
0.931503
-0.341511
0.603433
0.945128
-0.332543
0.078271
0.082718
-0.270220
0.880787
-0.907035
0.236263
0.533690
-0.722303
0.729788
-0.902620
-0.610112
0.993839
-0.387545
0.962334
-0.238837
0.900089
0.475615
0.207557
0.389560
-0.405600
-0.199031
0.196598
0.124392
0.418955
0.082260
0.287099
-0.007879
-0.434558
-0.565510
-0.800685
0.881267
-0.187719
0.777194
-0.597045
-0.293276
-0.117553
-0.314199
0.314887
-0.751462
0.063541
-0.751339
-0.963518
-0.544626
0.150748
0.346907
0.121592
-0.352649
-0.448509
-0.713101
-0.621516
-0.092529
0.825457
0.495141
-0.879231
-0.642601
0.298448
-0.832093
0.953016
0.849164
0.835380
-0.767221
0.926281
0.270383
0.982332
0.502436
-0.156848
-0.115076
-0.199629
0.234279
0.732001
-2.901891
0.353919
-0.087823
-0.745085
0.961350
0.433402
-0.789140
-0.256205
-0.727410
0.562426
0.816646
8.435663
-0.743546
0.640956
0.749951
-0.978626
-0.566918
0.657806
-0.404078
-0.845679
0.882623
0.559366
-0.945509
0.690029
0.041537
0.399507
-0.120922
-0.389748
-0.705704
-0.126758
0.257208
0.941192
0.412048
0.522047
0.839495
0.124704
-0.584051
-0.767417
0.493211
0.750930
0.242610
0.135576
0.242964
0.509065
0.197063
-0.354789
-0.223493
-0.630424
0.201994
-0.834669
-0.516878
0.176232
0.597576
-0.466547
-0.238701
0.933848
-0.717494
0.658158
0.204955
-0.899288
0.770565
-0.973550
0.840392
0.040981
0.275230
0.027074
-0.863082
0.191994
-0.575639
-0.658271
1.051336
-0.545699
0.460465
-0.217215
-0.642390
0.203475
-0.125497
0.682294
0.416925
0.373032
0.767956
-0.029954
0.989145
0.976661
-0.405626
-0.723267
0.175848
-0.891052
0.550245
0.247028
0.533074
-0.216486
0.177378
-0.079330
0.973670
-0.253912
-0.746480
-0.100126
0.974689
-0.352560
0.771446
-0.910728
0.532738
-0.051097
-0.929544
0.914417
-0.410947
0.834681
0.756622
-0.639722
-0.898079
0.504093
-0.361764
0.319573
-0.013574
-0.183627
-0.733788
0.706525
-0.934284
0.171519
0.226201
-0.682859
0.542083
0.184006
-0.937237
-0.265032
0.154116
-0.204257
-0.554959
0.535671
-0.735927
0.158732
0.027523
0.388249
-0.155221
0.018865
-0.130278
-0.011324
0.025723
0.270723
-0.542076
0.989028
0.103868
-0.760048
0.137873
0.584103
0.244058
-0.837701
6.052604
0.681505
-0.102261
-0.654385
0.151703
-0.498365
0.756463
0.542256
0.510565
-8.975189
-0.623851
0.581969
-0.577174
0.938958
-0.649834
-0.109749
-0.257368
0.659303
0.472211
-0.135096
-0.329296
-0.980040
0.172300
-0.567338
0.446909
-0.269189
0.214245
-0.060414
-0.231542
-0.159227
0.002821
0.113417
-0.566961
-0.313672
-0.455110
0.011264
-0.396177
-0.664326
0.423884
-0.151073
-0.665988
0.287786
0.433266
0.337716
0.588571
-0.083697
-0.506794
0.319626
0.490784
0.020087
-0.426850
-0.299996
-0.906211
0.409680
-0.737489
-0.255536
-0.240943
-0.158022
0.914042
-0.423799
-0.658988
0.525474
0.108575
0.292536
-0.858356
0.631200
-0.028433
0.441873
-0.650220
-0.140512
0.055893
-0.752174
-0.011004
0.213077
-0.926533
-5.857966
0.286008
0.744116
0.705200
-0.591825
0.698648
-0.557907
0.497780
-0.490099
-0.597651
0.505723
0.933568
0.086377
0.513065
0.975445
-0.718668
-0.897161
0.876847
-0.537176
0.742069
-0.154779
0.285410
-0.004913
0.211555
0.377151
0.998315
-0.890658
0.091293
-0.741046
-0.161655
-0.200455
0.102617
0.821845
0.191248
-0.885509
-0.250651
0.037855
0.653831
0.982269
0.511035
-0.045870
0.511009
0.357231
0.002800
0.532199
-0.217089
0.010334
0.343217
-0.842786
0.037715
0.573888
0.645076
0.899711
-0.452239
-0.967780
-0.413056
0.639176
0.001043
0.537723
0.582897
-0.000388
0.604494
0.402292
-0.985695
-0.871497
-0.006211
-0.382586
0.665274
0.702905
0.020605
0.528545
0.044622
0.011452
0.076429
-0.603646
-0.399114
-0.575332
0.895344
-0.541747
-0.343665
0.090607
-0.794205
-0.290961
-0.385307
0.552993
0.224156
0.559722
-0.375480
-0.247835
-0.068995
0.712616
-0.845524
0.923548
-0.590490
0.504108
-0.868587
-0.529422
0.514302
-0.684891
0.317157
-0.204374
-0.513183
-0.210398
0.677533
-0.313163
0.424648
-0.165221
-0.272706
0.485941
0.029738
-0.933017
0.062081
-0.059955
0.836849
-0.750491
-0.790788
0.068782
0.807769
-0.781754
0.213262
-0.401087
-0.099805
-0.544178
-0.124641
0.069946
0.381813
0.902600
-0.701502
-0.598517
0.717744
0.765773
-0.978003
0.614664
-0.258102
8.590034
-0.899137
-0.808784
0.924109
-0.924676
0.728066
0.982148
-0.742628
0.134991
-0.135407
0.597788
0.676658
0.007667
-0.996374
-0.935937
-0.610696
-0.202177
-0.056618
-0.761295
0.270713
-0.859255
0.767674
0.008707
-0.769865
0.951412
-0.453446
-0.201275
-0.777044
-0.983735
0.581830
-0.320503
0.222240
-0.776162
-0.129302
0.632788
-0.106107
0.225969
0.647904
0.254657
0.644408
-0.183240
0.335860
0.582665
-0.111677
-0.900832
0.077250
-0.515371
0.747276
0.162526
-0.082188
0.182059
0.636261
-0.344502
-0.581884
-0.734824
-0.389689
-0.561575
-0.500346
-0.780254
-0.711473
0.839345
-0.625851
0.537830
-0.160732
-0.510511
-0.403248
0.738046
-0.121448
-0.494498
0.119845
-0.649522
-0.617612
-0.227630
0.156657
0.150844
-0.229581
-0.776075
-0.840324
-0.640865
0.151686
-0.354915
0.848445
-0.751610
-0.243562
-0.946222
0.626856
-0.435300
0.263784
-0.728826
0.343337
0.329022
-0.826061
-0.951811
-0.429682
0.498186
-0.975022
-0.229354
-0.800877
0.557566
-0.902595
0.490389
0.858164
-0.463176
-0.884415
-0.125662
-0.491932
0.828245
-0.413918
0.350767
0.494985
-0.753514
-0.050715
-0.058538
9.429418
0.100947
0.767757
0.630056
-0.739686
0.150508
0.728325
-0.649402
0.096674
0.253030
-0.536899
0.822024
-0.363379
0.823854
-0.873335
0.244006
0.735712
-0.558472
0.383199
-0.222158
0.877854
-0.654477
0.931496
0.427251
0.111643
0.927746
0.451435
-0.357079
0.164180
0.581808
0.600542
-0.751522
-0.836471
0.222166
0.600928
0.333215
-0.244690
0.086854
-0.469444
0.813243
0.177073
0.310586
-0.216602
-0.877238
-0.593294
0.349426
0.840673
0.463859
-0.806638
0.169040
-0.587902
0.055326
-0.897929
-0.109212
-0.405005
-0.081101
-0.292744
-0.373321
0.589149
-0.931121
0.821968
-0.808023
0.631176
-0.356855
0.153116
0.192979
-0.683105
0.264197
-0.270313
-0.898008
-0.220374
0.484977
0.490564
-0.106106
-0.315469
0.602747
0.887503
0.023190
0.825556
0.297976
-0.984548
0.220127
0.923010
-0.124132
0.008710
0.566796
0.312122
0.257182
-0.097625
-0.140810
0.936388
0.886527
-0.713384
0.463376
0.311891
0.120228
-0.764405
-0.141526
-0.240205
0.037235
0.921504
-0.481374
0.659512
0.774344
0.348577
0.155083
-0.145154
-0.868295
0.469881
0.504471
0.498944
-0.236227
0.800319
0.811022
0.428670
-0.335921
-0.409034
-0.187000
-0.594522
0.333771
0.939647
0.519752
0.175185
-0.842163
0.069599
-0.489091
0.576392
0.596572
-0.582932
-0.526525
0.024351
-0.783253
0.352260
-0.267530
0.307289
0.148081
0.526668
0.743737
0.850231
0.400089
0.291052
-0.480001
0.299215
0.662317
-0.005208
0.116828
0.568955
0.443759
0.358552
0.264203
0.791456
-0.211773
-0.114260
-0.413726
0.066974
0.745159
0.460796
-0.102421
-0.596991
-0.951340
0.302037
-0.710663
0.982127
-0.081640
-0.761946
0.007891
0.577074
0.894741
0.208188
-0.224841
-0.764056
0.429996
-0.919647
0.680349
0.474867
-0.091928
-0.159031
0.053226
-0.605300
-0.779644
0.366765
-0.382305
-0.238155
0.052825
0.411132
-0.500149
-0.695135
0.021024
-0.696123
0.131264
0.117355
-0.421196
0.539559
0.028549
0.365448
-0.691034
0.781826
-0.734574
0.688219
0.525647
0.825828
0.128244
2.226006
0.096744
-0.890740
-0.506129
-0.381577
-0.434022
0.480444
-0.337847
-0.236880
-0.892039
0.988788
0.710268
0.375693
0.855781
0.468926
0.557339
-0.397419
-0.552181
-0.288945
0.227435
0.231409
0.268136
0.078898
0.534415
-0.238249
-0.220292
0.023372
0.224958
0.704075
-0.066109
-0.915862
-0.659813
0.324505
-0.260600
-0.445566
0.511386
0.410858
-0.413673
-0.053889
-0.733734
-0.138180
0.018491
0.909272
0.831616
0.685751
-0.091517
0.264652
-0.663461
0.116160
-0.508122
0.100504
-0.800797
0.403558
0.726127
-0.885286
-0.019752
-0.523334
0.685614
-0.484294
0.534257
-0.255512
0.504301
-0.418160
0.597350
-0.608519
-0.968775
0.131550
0.838045
-0.364947
-0.302063
0.109149
-0.418003
-0.882699
-0.155198
-0.796195
0.444004
-0.617567
-0.139878
0.925678
0.824849
-0.560543
0.749556
0.466938
-0.359522
0.591078
0.581085
0.324974
0.923292
0.016069
-0.083205
0.473016
0.946609
-0.891958
0.029998
0.909786
-0.045388
-0.746628
0.910973
0.020807
-0.356239
0.645176
-0.800033
-0.978065
-0.649995
-0.885237
-0.869655
-0.715239
-0.863973
0.419533
-0.328256
-0.128540
-0.467767
-0.438679
0.403807
-0.146315
-0.384474
0.523322
0.292965
0.075895
0.497762
-0.238344
0.731551
0.748183
0.987687
0.473596
-0.379807
0.892140
0.495282
0.180068
-0.479306
0.920355
-0.212426
-0.701187
-0.383573
-0.830556
0.073943
0.779898
-0.216489
0.313574
-0.647752
0.125526
-0.548918
0.561153
0.806800
0.509461
0.827953
0.712066
0.183486
-0.947666
-0.208433
0.425833
0.265383
-0.072364
-0.946333
-0.656289
0.594288
0.374107
-0.554321
0.578212
-0.178123
0.777091
0.140854
-0.983871
0.397880
-0.585127
-0.939903
-0.196348
0.951371
-0.217167
-0.869068
-0.740998
-0.331196
-0.066236
0.435527
-0.347908
-0.134476
-0.441907
-0.083403
-0.470392
0.750170
0.430753
0.056823
-0.235299
0.373546
0.146294
0.039947
0.023551
0.295899
0.151937
0.493205
0.636630
-0.799474
-0.760492
-0.885414
-0.931918
-0.787950
-0.725606
0.143272
0.791035
0.245099
0.780166
-0.359451
0.782710
-0.992493
0.416703
-0.695855
0.385538
0.734088
0.149182
-0.562417
0.369685
-0.983528
-0.489945
0.145980
0.688789
-0.718866
-0.013331
0.708053
-0.896914
0.505172
-0.664298
-0.863166
0.089872
-0.191352
0.293212
-0.650875
-0.162968
-0.857645
0.103934
-0.388700
-0.154768
-0.306575
-0.529490
0.820893
0.883669
-0.532290
-0.656175
5.153536
0.528914
-0.230298
0.108693
0.650114
0.638712
-0.899916
0.875644
0.694660
0.357135
0.656399
-0.782567
-0.102072
0.178665
-0.128810
-0.019982
0.013478
0.499394
0.396911
0.729218
-0.644423
0.437243
0.306417
-0.819456
0.865297
-0.576865
-0.612143
-0.823716
-0.487287
0.890001
0.719026
-0.674470
-0.878397
0.697383
-0.908223
-0.463321
0.465062
-0.222944
0.405251
-0.733960
-0.756900
-0.079843
0.647238
0.766347
-0.310270
-0.066519
-0.741221
-0.269467
-0.421732
-0.838304
-0.898564
-0.069179
0.053165
0.395787
-0.114983
0.244179
-0.506697
-0.713052
0.515407
-0.070390
-0.174338
-0.619663
-0.711633
-0.957561
-0.395095
-0.120523
-1.142405
-0.099792
0.728780
0.262058
0.369348
-0.213132
0.338049
0.750883
0.657402
0.685216
-0.747933
-0.711507
0.429402
0.468955
-0.434705
-0.480902
-0.859864
-0.328444
0.481687
0.016680
-0.727539
0.559016
-0.446759
0.096579
0.895914
-0.561532
0.862363
0.093031
0.055103
-7.869036
0.661949
0.659776
-0.264399
-0.915242
0.672489
-0.317214
0.762211
-0.097705
-0.469282
0.121336
0.965720
0.321407
-0.561587
0.153199
0.700368
0.460509
-0.877089
0.802350
-0.129521
0.629744
-0.518125
-0.250465
0.415329
-0.494174
-0.537418
0.929145
0.233551
-0.336225
-0.746974
0.652319
0.394525
-0.983663
-0.651744
-0.968666
-0.337560
0.921526
0.872590
-0.825992
-0.192948
0.674513
-0.572502
-0.579178
0.673946
-0.926718
0.468498
-0.590532
0.807646
0.622718
-0.035300
0.884230
0.839550
-0.656937
0.344966
-0.357595
0.782750
0.786483
-0.968317
-0.051022
0.614764
0.631362
0.737664
-0.654199
0.748844
-0.328260
0.604732
0.503107
0.684717
-0.329501
0.731553
-0.869962
-0.466328
-0.270686
0.310750
-0.843287
-5.712621
-0.247257
-0.342228
0.098574
-0.717809
-0.558028
0.490811
0.628446
-0.671580
0.209884
0.786858
0.610599
-0.338594
0.802187
-0.079497
-0.948623
0.605197
-0.879490
-0.777207
-0.620601
0.945726
-0.138873
-0.922018
-0.653483
0.334907
-0.611451
-0.952413
0.017784
0.812479
-0.907988
-0.848431
-0.662967
0.140375
0.006637
0.099534
0.331614
0.001436
-0.291999
-0.678950
-0.919880
0.398225
0.185727
-0.801438
0.016770
0.402650
0.270289
-0.334283
-0.506527
-0.397191
0.203155
0.351678
0.130768
-0.847598
0.639422
-0.240556
0.302728
-0.282243
-0.128252
0.149313
-0.334255
0.175969
-0.113230
0.054774
-0.939505
-0.761867
0.377526
0.807685
-0.806503
0.036294
-0.661886
-0.107765
0.140459
-0.737834
0.474677
0.559028
-0.012058
0.436730
-0.190521
-0.366273
0.654168
-0.811478
0.779389
0.050139
-0.573835
-0.958683
-0.692513
-0.725303
0.133212
-0.037716
-0.439168
0.020017
-0.678209
0.576888
0.470887
-0.977980
-0.254800
-0.894071
0.504533
0.769858
0.909084
-0.864114
-0.126020
0.433697
0.049085
0.914969
-0.701362
0.945896
-0.812982
0.814868
-0.417305
-0.015047
-0.979698
-0.570815
-0.280089
-0.172301
0.115769
0.860626
0.436534
-0.957360
0.034561
-0.801611
-0.728007
-0.897567
-0.961279
0.017798
-0.169101
0.135414
0.872824
-0.015740
0.571519
0.211040
0.051434
-0.738900
-0.439739
-0.767500
-0.825596
0.894192
-0.991739
0.089295
0.742153
0.120228
0.169614
-0.424571
-0.277001
0.481366
-0.962912
-0.966264
0.252018
-0.471937
0.788052
0.234477
-0.836447
0.485959
0.170020
0.845422
0.901879
-0.440332
0.973132
-0.565595
-0.518331
-0.272076
-0.788891
-0.457833
0.284810
-0.399545
0.045692
0.430984
-0.653024
0.303859
0.855274
0.876157
0.443848
-0.283933
-0.220189
-0.347068
0.383424
0.766312
0.894406
0.120037
0.734566
-0.340832
0.972898
-0.328510
0.516671
0.001637
0.405256
1.077846
-0.207622
0.124904
0.295799
0.549490
-0.368700
-0.268845
0.678779
-0.519871
-0.747776
-0.616996
0.087634
0.982906
0.919440
-0.334672
0.340762
-0.751583
0.442987
-0.571517
0.954143
-0.374434
-0.971055
0.241695
0.317372
-0.914875
0.167530
-0.168529
0.090875
0.624679
-0.090371
-0.367071
0.636231
-0.866952
0.060313
0.626825
0.909733
0.570289
0.876157
-0.296461
0.585482
-0.027930
0.469295
-0.585704
-0.465358
0.674672
-0.880505
0.134956
-0.687552
0.243912
0.555501
-0.637950
0.924259
-0.712985
-0.991742
0.888619
-0.740222
0.214845
-0.503701
0.344073
0.457557
0.567904
-0.962172
0.858864
-0.017061
-0.408597
0.850155
0.467481
0.370418
0.196109
0.372567
-0.617780
0.188341
-0.986582
-0.803825
0.218650
-0.838993
-0.086389
0.902158
-0.532584
0.073698
0.058324
0.345764
-0.564486
0.388517
-0.266774
-0.113621
0.871596
0.543717
-0.351748
-0.395135
0.728899
0.139756
-0.290283
-0.784609
-0.805720
0.144051
0.063957
0.967555
-0.229037
0.372226
-0.218120
-0.952807
0.653578
0.514436
-0.821637
0.668620
-0.507848
-0.972150
-0.642697
0.894124
0.019721
0.256602
-0.892581
0.880274
-0.058327
0.189243
0.749456
0.406856
-0.016120
0.377304
-0.212705
-0.129653
-0.808795
-0.465533
0.306430
-0.285240
0.589595
0.576396
0.183981
-0.672586
0.826884
0.202381
-0.657901
0.534888
0.462956
-0.471378
-0.317877
0.210768
0.694308
-0.693984
-0.599419
-0.955689
0.979604
0.459204
0.779014
0.497606
0.928997
0.971587
-0.606345
0.235095
0.736064
0.247759
-0.231206
-0.594837
-0.999280
0.143180
-0.542164
0.376594
0.307604
0.279834
0.512280
0.323494
0.829021
0.773370
0.959864
0.448962
-0.400728
-0.594978
0.647594
-0.504340
-0.459838
1.205288
0.355714
-0.395683
0.443590
0.035161
-0.227098
-0.895362
-0.930620
0.811402
-0.021420
-0.852356
0.273101
0.822770
-0.469154
-0.684503
-0.282345
-1.094692
0.608015
-0.948387
0.196934
0.586694
0.915841
0.765706
0.229688
0.934291
-0.814261
-0.857902
-0.251613
-0.282574
-0.445005
-0.954357
-0.127446
0.138285
-0.928783
-0.821713
0.215028
0.656880
-0.194064
0.373321
0.236976
-0.924699
0.287361
-0.187250
-0.957043
0.760924
0.209342
0.997779
0.285947
-0.975132
0.688766
-0.942306
0.005748
-0.059882
0.553682
0.337301
0.996719
0.818755
0.426943
0.873113
0.015490
0.245538
-0.531676
0.953441
0.260447
0.222463
0.176599
0.706997
0.314939
-0.339258
-0.048332
-0.235076
0.994352
-0.229454
-0.908246
-0.536634
-0.604341
-0.902615
-0.020569
-0.141335
-0.406738
0.182853
0.590982
-0.110679
-0.026703
-0.191314
0.760037
-0.867640
0.409158
-0.693971
0.278491
0.529278
-0.606967
0.832605
-0.500433
0.178324
0.655659
-0.119450
-0.288723
-0.813245
-0.765670
0.782347
0.367438
-0.241020
-0.899349
-0.693440
-0.336443
0.641621
-0.664752
-0.803211
0.577229
0.272068
-0.800135
-0.027790
-0.507655
0.973135
-0.403083
-0.113718
0.391860
0.504299
0.860740
-0.617688
0.977023
0.909359
0.223651
-0.949195
6.061183
0.466125
-0.598462
-0.773176
0.471094
-0.053291
-0.253653
0.964206
-0.883169
-0.647680
0.034523
-0.564445
-0.962305
0.068091
0.489951
0.647304
-0.319521
-0.169859
0.789895
0.877662
0.013005
0.076735
0.600151
-0.786299
0.069938
-0.236560
-0.247597
0.159281
-0.270761
-0.461985
0.692752
-0.046112
0.406526
-0.426434
0.191914
-0.558899
-0.671248
-0.732837
0.981978
0.621384
0.822967
-0.002841
-0.298507
-0.686485
-0.079116
-0.481546
0.459776
-0.460972
-0.019409
-0.716185
-0.474851
0.121730
0.329873
-0.199584
0.325739
0.120949
-0.513377
0.825493
0.564429
-0.577917
-0.154538
-0.135125
-0.445050
-0.382146
-0.864701
0.699423
0.833711
-0.814232
0.366318
-0.878078
-0.364904
-0.362952
0.687699
0.659193
0.364144
-0.830446
-0.335428
0.288905
0.910630
-0.054807
0.864902
0.079368
-0.902089
0.287930
0.024818
-0.803163
-0.852365
0.279951
-0.468672
-0.641382
0.366418
-0.119075
-0.016911
0.551808
-0.620243
-0.737271
0.493277
-0.646869
0.453347
0.064651
-0.972588
-0.262069
0.755980
0.751882
-0.276565
-0.473700
-0.714498
0.607707
-1.175813
-0.107720
0.255223
0.738885
-0.388679
0.955913
0.370306
-0.063225
0.004563
0.231379
0.267061
0.999608
-0.896569
-0.580896
-0.460808
0.445303
0.397017
-0.192278
-0.033749
0.921834
-0.143729
0.789928
-0.684990
-0.258387
-0.237972
-0.631447
0.629421
0.347077
0.810746
-0.934397
0.940217
0.475863
0.759776
-0.718482
-0.556924
-0.478575
0.276074
0.835146
0.366024
-0.530970
0.902449
-0.067190
0.601659
-0.292164
0.903657
0.725663
0.497296
0.607100
-0.319070
0.041054
-0.741144
-0.507461
-0.965639
0.322644
0.250628
-0.486306
-0.703593
0.317768
0.942895
0.796404
0.129949
-0.188630
-0.272599
0.982853
0.425506
0.432678
0.446003
0.472417
0.110538
0.464382
-0.117163
-0.285673
-0.496292
-0.510612
6.119407
0.650095
-0.226081
-0.956574
-0.114375
-0.651345
-0.160151
-0.505533
-0.657406
-0.338896
0.618906
-0.116680
0.354865
-0.407667
0.675418
-0.759470
0.402171
0.238784
-0.021511
-0.663705
0.994176
-0.115710
0.120691
-0.248148
5.283914
-0.461463
-0.126063
-0.616092
-0.177606
-0.046496
0.196717
-0.699822
-0.430333
0.902073
0.992623
0.144624
-0.213971
-0.341617
-0.381199
0.884977
0.649214
0.761918
-0.193002
0.156600
0.235912
-0.385809
0.226838
-0.838736
-0.600478
-0.409240
0.875891
-0.931781
-0.157387
0.138910
0.765555
-0.191377
0.396186
0.138991
-0.584066
-0.176959
0.821720
-0.101872
0.395809
0.305980
-0.557040
-0.394004
0.042051
-0.757044
0.384769
-0.036313
-0.555469
0.323043
-0.467138
0.820037
-0.149820
0.346709
-0.679167
0.289343
-0.192873
-0.195827
0.420575
-0.348052
0.984682
0.883771
-0.173423
-0.835614
-0.518551
-0.775291
0.150211
0.509553
0.748438
0.256836
0.421042
-0.319816
0.369623
0.856401
0.176741
0.932247
0.871571
-0.017552
0.730411
0.306899
-0.092648
-0.774168
-0.175726
-0.111644
-0.231017
-0.273119
-0.470421
-0.524231
-0.959174
-0.290269
-0.716694
-0.214905
0.289268
-0.510000
-0.549766
0.398107
0.953197
0.011095
0.928132
0.377355
0.578853
0.879733
-0.724573
0.629425
0.378593
-0.034200
0.524754
-0.842019
-0.777945
0.712829
0.260861
0.809319
-0.979637
0.345487
0.690954
-0.061099
0.907092
0.174683
0.412513
-0.738037
0.238167
-0.648152
-0.127567
-0.992928
0.829879
0.620913
0.000783
-0.466354
0.949040
0.314326
0.109632
0.600562
0.147942
-0.889808
0.122664
0.183382
0.957424
-0.483403
-0.916956
0.754180
0.571919
0.439753
-0.629027
-0.080585
-0.860905
0.742339
0.034705
-0.127474
0.694644
0.065561
0.837749
0.962464
-0.686149
0.127173
0.828620
0.607436
0.981768
-0.343056
0.020115
-0.323143
0.040469
-0.260510
0.564092
-0.217878
-0.527859
-0.049667
-0.831790
0.653496
0.653289
-0.148608
0.011266
0.494810
-0.770859
0.796959
-0.169237
-0.605494
-0.625449
-0.869982
-0.372338
-0.622915
-0.414489
-0.258385
-0.386857
-0.373172
-0.730611
0.862010
0.645785
0.337131
0.756293
-0.310400
-0.871341
-0.536044
-0.763763
-0.678472
-0.112234
0.224114
0.495140
-0.851589
0.868345
-0.846197
-0.256014
-0.990984
-0.588293
0.631792
0.827443
0.078263
-0.693846
0.152492
-0.899263
-0.055712
0.148613
-0.948072
-0.607504
0.745757
-0.636494
0.222695
0.191802
0.533149
0.619342
-0.771985
-0.503338
0.880804
-0.803258
-0.423393
0.862483
-0.253429
0.800038
0.411274
0.968063
-0.514026
0.170522
-0.445414
0.710625
0.293186
0.358657
-0.846157
-0.373410
-0.345562
0.165019
0.195621
0.564332
-0.382418
0.658207
-0.563362
0.529908
0.231798
0.225977
-0.061727
-0.073688
0.661832
0.662415
-0.496798
-0.179491
0.588734
-0.402826
-0.362970
0.102170
0.522305
-0.350680
-0.271028
0.755037
0.657864
0.458268
0.269903
0.959515
-0.037205
0.392682
-0.008636
0.049536
0.861582
-0.217150
-0.537048
0.356201
-0.116822
0.666286
0.228177
0.722134
0.262089
0.456997
0.023861
-0.668035
0.923395
0.562684
-0.260067
-0.813862
-0.792307
-0.395533
0.091376
-2.285151
0.321869
0.368325
-0.150031
0.283340
-0.274384
-0.369566
0.365122
0.614548
0.718125
0.793907
-0.519565
-0.354215
0.714125
-0.140158
-0.931692
-0.875670
0.700416
-0.422753
0.758209
0.762159
0.081092
-0.489485
0.652594
-0.865192
-0.040144
0.926448
0.764839
-0.774114
-0.349252
0.830652
0.271863
-0.473379
0.587026
0.210229
-0.269527
0.130073
-0.699269
0.565373
-0.273580
-0.995186
-0.029437
-0.367564
0.507869
-0.857683
-0.777699
0.423656
-0.771734
0.885261
0.718820
0.817943
-0.438836
-0.432576
-0.003450
0.957237
-0.669787
-0.856633
0.045095
0.895522
-0.906716
0.565996
-0.376011
-0.241341
0.599767
-0.713666
-0.401895
-0.806941
0.258582
-0.243410
0.445236
0.606341
0.726134
-0.658458
-0.890329
-0.721828
-0.391170
0.654347
-0.110015
-0.339874
-0.014771
-5.031723
-0.122377
-0.608196
0.090891
0.720298
0.311095
0.198827
0.943522
-0.466484
0.329202
-0.032062
0.658426
0.282475
0.945478
0.990180
0.450750
-0.995517
-0.733300
0.386634
0.840215
0.377546
-0.696940
-0.257929
-0.782048
-0.380733
0.620070
0.654676
0.710583
-0.415818
-0.195699
0.575286
-0.013295
-0.023482
-0.935412
0.104532
-0.927237
-0.878746
0.496113
-0.281744
-0.790648
-0.810743
-0.757080
0.248963
0.216765
0.650466
0.018316
-0.948212
0.095030
0.058823
-0.926567
-0.163086
-4.549182
0.823128
0.015147
0.101835
0.849184
-0.280600
0.648200
-0.182553
0.569087
-0.325607
-0.078205
-0.806924
0.615590
0.119182
0.302943
0.956968
0.638312
0.369213
0.300736
-0.172843
0.256802
0.067115
-0.710025
-0.627919
-0.700595
0.005322
-0.585680
0.466938
0.175862
0.490618
0.350607
-0.850582
0.571831
0.065726
0.503207
0.551645
-0.074158
0.923668
0.552075
0.081580
0.745589
-0.380383
-0.738386
0.049129
-0.531389
-0.488034
0.328788
-0.303700
0.054304
0.491908
0.351140
-0.597534
-0.675846
-0.607132
-0.366938
-0.273795
0.524791
-0.856327
0.784402
0.891530
-0.934672
-0.185866
0.632192
-0.259786
-0.879254
0.370195
-0.410687
0.330096
-0.699378
0.668897
0.214918
0.221371
0.483318
1.581780
-0.784856
0.061258
0.967222
0.771751
-0.792372
-0.484931
0.834219
-0.233282
-0.802043
1.100794
-0.480841
-0.421109
-0.395866
0.094832
-0.398646
0.416071
0.108892
-0.850815
0.179094
0.244120
-0.721643
0.971007
-0.995124
-0.751949
0.309008
5.420991
-0.748872
0.159849
0.238343
-0.689526
-0.149135
0.002906
0.191955
0.330063
-0.502099
-0.917073
-0.734039
-0.117175
0.178284
0.444945
-0.614030
0.115289
-0.377947
-0.785114
-0.997565
-0.502752
0.982027
-0.325399
-0.944788
0.456409
0.481251
0.291293
-0.194817
0.352603
0.531725
-0.760816
-0.087609
0.548654
0.187367
-0.046329
-0.914335
-0.257542
0.027672
-0.210404
-0.353135
0.924389
-0.567254
-0.293742
0.619749
-0.174977
0.093352
-0.125529
0.950609
0.044152
-0.695881
-0.440936
-0.155906
0.644420
0.067273
-0.186687
0.505550
0.082148
0.031423
0.151831
-0.427683
0.965488
0.451542
0.414079
0.027212
0.800633
-0.035575
-0.091997
-0.817389
0.732813
-0.554727
0.788198
-0.719895
0.932417
-0.277871
0.451412
-0.896867
-0.589168
-0.485513
-0.098151
-0.686477
0.844072
-0.452748
-0.213852
-0.907942
0.704408
0.783767
-0.561490
-0.661273
-0.909864
0.816596
0.724129
0.031873
-0.086484
-0.018212
-0.826538
0.027537
0.354937
0.335365
0.776654
-0.542919
-0.181424
0.989055
-0.793879
-0.036742
-0.317464
0.142126
-0.279696
0.279423
0.927131
0.322676
-0.721594
0.207583
-0.437132
-0.836046
0.853425
0.160089
-0.526694
0.957289
-0.284507
-0.817671
-0.397509
0.595514
-0.866604
0.134925
-0.790483
-0.137373
0.723652
0.983188
0.273035
0.573587
0.208315
-0.494958
0.966533
-0.773199
-0.714102
-0.102471
0.999693
0.052196
-0.565982
0.637454
0.979879
-0.659523
0.790681
-0.434195
-0.338655
-0.289479
-0.309752
-0.837823
0.842978
0.986776
-0.634752
0.981336
-0.859317
-0.586426
-0.033754
0.428096
0.958148
0.430672
0.881326
0.404787
-0.180543
0.051884
-0.258597
-0.966729
-0.708894
-0.467448
-0.833312
0.740639
-0.734706
0.935696
-0.797739
0.381112
-0.696481
0.333887
0.886355
0.903603
-0.549682
-0.800664
0.511287
0.813251
0.656065
-0.716290
0.256766
-0.365127
-0.140412
0.499506
-0.431009
-4.236175
0.119582
0.586042
0.546042
0.505133
0.836028
0.076184
0.078406
-0.750398
0.225932
-0.201144
0.804043
-0.201571
-0.960382
0.100753
-0.242670
0.672348
-0.642866
0.142688
-0.599698
-0.896230
0.554444
0.955460
-0.216272
-0.456491
0.071634
0.380195
0.190232
-0.925110
-0.531898
-0.908227
-0.916530
-0.129734
-0.615478
0.181295
-4.215948
0.552243
0.166592
0.045432
-0.092821
0.243722
-0.973301
-0.924156
-0.296610
0.019435
-0.809417
0.590385
0.929398
0.665149
-0.391894
-0.986879
0.158579
0.398532
-0.428493
0.196466
-0.910453
-0.166786
0.834227
-0.232426
0.765398
0.117115
-0.312412
0.155055
0.127487
-0.551555
0.869593
-0.732539
3.606022
0.288816
-0.751190
0.077916
2.732244
-0.331856
-0.376844
0.843939
-0.843300
-0.687324
-0.405730
0.992405
0.828770
0.937412
0.457258
-0.046230
-0.665989
-0.282593
0.129123
0.936484
-0.467693
-0.191125
0.785943
-0.539446
0.697054
-0.959733
-0.181267
-0.726828
0.022147
-0.301934
-0.916617
-0.181851
0.586431
0.969293
-0.760476
-0.458285
-0.899716
0.640382
0.988522
-0.992029
-0.146424
-0.369575
-0.302258
-0.335934
0.446813
-3.265179
-0.134560
-0.228060
-0.522778
0.376381
0.453352
-0.686472
0.819571
0.497038
0.450837
0.965973
-0.616604
0.882051
-0.753739
0.285693
-0.387499
-0.994243
0.998482
0.554217
-0.935227
-0.689679
0.304553
0.568599
0.105098
0.446510
0.579301
-0.962182
0.117745
-0.649316
0.798935
0.005095
-0.308183
-0.398571
-0.711635
-0.523624
0.866316
-0.825715
-0.298585
-0.077889
0.631586
0.495892
0.195996
0.988176
0.481710
0.635954
0.201793
0.927197
0.123070
0.253261
0.088294
-0.116709
-0.290202
-0.225909
-0.517695
0.543381
1.885748
-0.300509
-0.202345
-0.755230
-0.093153
-0.957881
-0.488448
0.212192
0.461454
0.119971
0.888771
-0.971924
0.255484
0.305879
-0.348071
-0.776599
0.940272
-0.245462
0.678457
0.420369
-0.742349
-0.367054
0.073581
-0.555022
-0.780924
0.343314
-0.876612
0.259763
-0.708201
-0.200042
-0.858005
0.123260
0.578625
-0.782845
0.731141
0.611546
-0.410393
0.277682
0.600116
-0.484856
2.498237
-0.881639
0.189876
-0.478477
-0.257954
0.060267
-0.984773
-0.036858
-0.516835
0.031442
0.880282
0.443474
0.564141
0.096342
0.977890
-0.456512
0.801230
0.631822
0.763909
0.202241
0.394662
-0.636628
0.301321
-0.301847
-0.663765
0.730411
0.660202
0.971737
-0.778713
-0.992734
-0.507707
-0.875478
-0.115531
0.364690
0.184300
-0.536684
-0.796867
0.825065
0.917995
0.306390
-0.348554
-0.993191
-0.269409
0.774096
0.285755
0.237146
0.020732
0.714868
-0.645032
0.430012
-0.836541
0.709298
-0.777615
-0.187344
0.005056
-0.729676
0.329985
0.198026
0.955255
-0.235703
-0.912307
-0.744179
0.529402
-0.891400
0.233846
-0.739494
0.357688
0.985898
-0.885331
0.103284
0.975140
-0.043538
-0.028792
0.308619
-0.429566
0.128030
0.953800
0.501690
-0.690371
-0.995746
-0.971750
-0.974493
-0.351060
0.484437
-0.586885
0.225004
-0.050995
-0.626887
-0.807519
-0.602051
-0.232779
-0.899071
0.400003
-0.822090
0.076170
-0.937011
0.730443
-0.172835
0.370253
0.361670
-0.616170
0.361355
-0.805733
0.219905
-0.237902
-0.352455
-0.202361
-0.843713
-0.816575
0.272367
0.039958
-0.189528
-0.132037
0.186207
0.130734
0.155912
-0.510742
0.592506
0.436797
-0.943024
0.245674
-0.667963
-0.087179
-0.093320
0.809281
0.756803
0.402602
-0.346801
-0.712150
-0.743812
0.440834
-0.936047
-0.832807
0.819713
-0.493175
-0.320510
0.014778
-0.097991
0.373631
0.811113
0.575355
0.602086
-0.522977
0.263285
0.945799
0.723507
-0.187785
0.861848
0.452945
0.288226
-0.713744
-0.782107
0.115037
0.481042
0.323798
-0.203036
0.414543
0.579773
-0.387671
-0.188560
-0.887776
0.068276
-0.161149
-0.348090
-0.924187
-0.384151
0.288366
0.014872
-0.670121
-0.408879
-0.962863
0.953305
-0.574184
-0.596926
0.221093
-0.246464
-0.880640
-0.191997
-0.722540
0.990188
-0.781763
0.291382
-0.544890
-0.477724
-0.106739
0.645706
0.149707
-0.582528
0.299282
-0.616723
0.474233
0.480228
-0.350361
0.800544
-0.271339
-0.692644
0.115037
0.520504
-0.847594
-0.675551
-0.072116
-0.607704
0.187182
0.404564
0.673939
0.038743
-0.144243
0.286231
0.462488
0.179394
0.282906
0.692281
-0.899750
-0.184964
0.303477
-0.650027
0.428822
0.539325
-0.387639
-0.812556
-0.419702
-0.651421
0.260575
-0.487864
-0.389416
0.340895
-0.686238
0.222538
0.355751
0.357662
0.513468
0.129136
-0.864465
0.125221
-0.487496
-0.748485
-0.649236
0.921298
-0.427683
-0.089065
0.746968
-0.109274
0.294852
0.371118
-0.693311
-0.455538
0.660763
-0.472731
-0.703565
-0.091280
0.387470
0.109716
-0.857679
-0.812144
-0.356946
-0.704882
0.898477
-0.660421
-0.003728
-0.233637
-0.073455
0.532868
0.928073
-0.783646
0.405668
0.826641
-0.247945
-0.016672
0.252994
0.006489
-0.163368
0.595442
-8.914840
-0.888972
0.788811
0.341876
-0.817868
0.540132
-0.482180
0.335205
0.855537
-0.657478
-0.132617
0.443154
0.942997
-0.183635
0.170747
0.088210
0.250951
-0.787552
-0.013294
-0.906970
-0.304528
0.810102
0.618905
0.093685
0.114084
0.362589
0.860460
0.018862
0.412770
-0.470439
-0.962660
0.475079
-0.145622
-0.861781
-0.589144
-0.187876
-0.917638
-0.687941
0.756978
-0.305766
-0.906456
-0.065651
-0.512120
0.110471
0.913807
-0.202921
-0.760715
-0.987528
0.846903
0.075941
-0.576014
-0.025477
0.246847
-0.517237
0.115469
0.541984
0.869168
0.791491
-0.008052
0.407497
0.583695
-0.548093
0.349437
0.254849
0.789596
0.238004
-0.793595
0.350328
-0.763098
-0.814722
-0.465295
-0.068068
-0.351248
-0.496468
-0.748584
0.583844
-0.938687
0.076332
-0.230568
0.238070
-0.863909
-0.781102
0.914741
0.880702
0.898787
-0.611058
-0.789905
0.972505
0.242328
-0.203256
0.312183
-0.593159
-0.610209
0.714413
-0.674114
-0.863909
-0.749696
-0.060371
0.294740
-0.158607
-0.331733
-0.376208
-0.694086
-0.676770
0.107471
0.860300
-0.676458
0.548382
-0.531258
0.000878
-0.187803
0.727797
0.340717
0.509486
0.964900
0.998834
0.466779
-0.642979
0.014277
0.003532
0.923311
-0.614139
0.946123
0.458459
-0.308525
-0.211848
-0.468375
-0.791740
-0.803641
-0.608355
-0.658243
-0.654350
0.678226
0.549641
-0.766428
-0.098981
-0.674064
0.168573
0.412744
0.553347
0.575103
0.011349
0.196508
0.153619
0.545026
0.949589
-0.209289
-0.633586
0.820656
0.742637
-0.975013
0.201968
0.559895
-0.492759
0.886306
0.857838
0.647113
-0.671762
-0.203951
0.810300
0.911927
-0.640126
-0.195429
0.894467
-0.148588
-0.014254
0.950983
-0.039998
-0.845219
-0.644036
0.963626
0.429931
-0.297183
0.028398
0.488913
0.378570
0.515400
0.357178
0.786718
-0.366614
0.437403
0.816454
0.373206
-0.808617
0.414965
-0.883441
-0.295049
-0.774665
0.216762
-2.685068
-0.781201
-0.045437
-0.061892
-0.496545
0.916269
0.758733
-0.311360
-0.699141
0.788213
0.025529
0.959182
0.476345
0.871530
0.884893
-0.025302
0.683403
-0.240985
-0.788883
0.365066
-0.381485
0.616622
-0.239018
-0.888947
-0.152769
0.975897
-0.741808
-0.567822
-0.971300
-0.908043
-0.471362
0.516053
-0.678498
0.306623
0.925729
0.862134
-0.935385
-0.844149
-0.105320
-0.781392
0.625848
0.060740
0.876573
-0.746887
0.338785
-0.332624
-0.739949
0.481531
-0.274127
-0.747676
-0.529869
-0.285759
0.378957
0.776072
0.317315
-0.391127
-0.047141
0.598426
-0.736213
-0.811655
-0.053869
-0.503522
0.163018
-0.380187
0.940381
-0.225478
-0.649185
0.286791
0.673279
0.957343
0.538816
0.305287
-0.773394
0.365717
-0.542248
0.592046
0.056204
-0.337875
0.655470
-0.465809
-0.319754
0.535282
0.168844
0.723013
-0.187973
-0.534550
-0.481285
-0.727456
-0.105175
-0.745126
0.790670
-0.904935
0.944182
-0.426733
-0.853830
-0.103003
0.973036
0.008454
-0.423559
-0.564758
0.281635
-0.272817
0.112680
0.939642
-0.036672
0.297277
0.433029
-0.884791
0.044181
0.329555
0.964687
0.834586
0.540636
-0.748997
-0.433825
-0.027729
-0.827674
-0.816400
-0.547625
0.560151
-0.910876
-0.064067
0.697285
0.802623
0.989163
-0.479436
0.649305
-0.309512
0.674508
-0.482106
0.485564
0.794379
-0.048172
-0.512338
-0.937739
0.534933
0.445649
0.159044
0.882305
-0.930792
-0.052088
0.826804
0.957518
0.746181
0.826427
0.678222
-0.027156
-0.477764
-0.232183
-0.717050
-0.338059
0.096553
-0.600774
-0.146348
0.128073
0.343617
-0.767063
0.312328
-0.011463
0.529441
0.211720
0.550621
0.625697
-0.034762
0.114078
0.658389
-0.004434
-0.233727
-0.909744
-0.464877
-0.548218
-0.701182
-0.611655
-0.511882
-0.919381
0.689284
0.553543
-0.407100
-0.939915
-0.724166
-0.464958
0.263274
0.470883
0.554359
0.597764
-0.516784
-0.008800
0.436397
0.116787
0.633065
0.327400
-0.112421
0.910670
0.461858
-0.419664
-0.173603
-0.494036
-0.033857
0.187901
0.426909
0.736240
0.006663
0.590154
-0.120825
0.886119
-0.388581
0.835001
0.570471
0.608034
-0.462362
0.386786
0.146082
0.668775
0.316943
0.091778
-0.397678
-0.482919
0.959619
0.323435
-0.414381
-0.836948
-1.172974
0.109011
0.512211
-0.739821
0.469246
0.557792
-0.713434
-0.811286
0.156387
0.107656
0.921782
-0.037651
-0.635125
-0.231396
-0.798580
-0.068558
-0.607767
-0.705379
-0.588481
-0.525603
0.529027
-0.223212
0.140015
-0.974705
0.487936
-0.137621
0.869584
-8.747053
0.179282
-0.171572
0.520019
-0.776552
-0.106422
0.165371
0.380342
-0.372737
-0.725223
-0.919065
0.778582
0.458926
0.001148
-0.063022
-0.192554
-0.301118
0.587794
0.480575
0.991060
0.404068
-0.849691
-0.944186
0.982224
-0.231763
-0.576856
0.057056
0.693491
-0.973885
-0.835523
0.077854
-0.429645
0.325156
-0.033338
0.472714
-0.712596
0.730199
-0.541186
0.631691
-0.842342
0.649514
0.603744
-0.778979
0.661785
0.688491
-0.006746
-0.673085
0.724635
0.477473
0.723917
-0.726761
0.361755
-0.090184
0.844143
0.783235
-0.565810
0.391263
0.101297
-0.148853
0.530245
-0.610324
-0.838053
0.798093
0.294052
-0.199995
-0.582556
-0.002544
0.421588
0.529243
-0.955100
-0.824264
0.701414
0.653072
0.614438
0.724628
-0.158390
0.666221
-0.555231
-0.644847
-1.461978
-0.307898
0.941992
0.370521
-0.238044
0.315094
-0.178195
0.455946
0.337591
-0.215276
0.227678
0.902028
0.157938
-0.295418
-0.194576
-0.659693
-0.471286
0.918574
0.348043
0.948265
0.410895
0.239205
0.710821
-0.186024
-0.974097
0.609741
-0.599850
0.557834
-0.024337
-0.377340
-0.579105
0.299333
0.978969
0.099373
0.508402
-0.165507
0.104425
-0.740643
0.798353
0.970332
-0.970922
0.351015
0.874416
-0.132242
-0.849680
0.905700
0.611675
0.656279
0.542747
-0.004810
0.911853
0.486980
-0.897714
0.674328
-0.250388
-0.531361
0.933827
0.614011
5.145238
-0.678267
-0.484650
0.649294
0.798543
-0.397834
-0.966265
0.780008
-0.949680
0.394000
0.063338
0.909171
0.864552
-0.191202
0.666081
-0.065185
0.680623
-0.278399
0.555839
0.666134
0.994642
-0.337914
-0.316540
0.447382
-0.738290
0.431863
-0.832526
0.450426
-0.940257
0.562139
0.186992
-0.571164
-0.530381
-0.267838
-0.981981
0.167827
0.169237
-0.952123
-0.126002
0.916379
0.411894
-0.054635
0.458234
0.734042
-0.908243
-0.180411
-0.508291
-0.470276
-0.630854
0.118281
-0.331910
-0.134145
-0.492593
-0.712200
-0.256826
0.749928
-0.533562
0.516247
-0.126629
-0.853424
0.662294
-0.502645
-0.395737
-0.363138
-0.438455
0.730086
-0.429706
0.676608
-0.028594
-0.978514
0.742182
0.232014
-0.316892
0.927724
0.848369
-0.010321
-0.438121
-0.817955
0.137244
-0.740417
-0.863815
-0.715027
-0.032254
0.334848
0.576792
-0.413129
0.210878
0.370784
-0.719968
0.272983
-0.062703
-0.379183
-0.710158
-0.523074
-0.243245
-0.077707
-0.724201
-0.005768
0.191128
-0.792641
-0.569533
-0.310552
0.484683
-0.037633
-0.560867
0.742819
0.851583
0.695679
-0.956622
0.535194
-0.396162
0.452864
0.180666
-0.977976
0.317660
-0.167418
-0.665722
0.645156
0.358615
0.086666
-0.425353
-0.057163
-0.798739
0.292814
-0.397212
-0.684602
-0.817275
-0.079443
-0.884736
0.728228
0.911259
0.056036
0.956946
0.119779
0.625420
-0.574495
0.294767
0.049381
0.562499
0.923185
0.723477
0.711479
-1.216230
-0.335622
-0.758080
-0.276274
0.678741
-0.808351
-0.210169
0.911735
0.418025
-0.471256
0.666750
-0.283541
-0.298460
-0.730668
-0.847792
0.920011
-0.285823
-0.567230
0.801314
-0.242946
0.547801
0.524438
0.277541
-0.852668
-0.317391
-1.047723
-0.880101
-0.127748
-0.748278
0.350061
0.465372
-0.857953
-0.075342
0.537517
0.084950
-0.058981
-0.345630
0.895620
-0.452049
0.555227
-0.488677
-0.540011
-0.387372
0.851763
0.991240
-0.119645
-0.490542
0.777125
0.079689
-0.628967
9.005946
-0.144401
-0.068977
0.339842
-0.711263
-0.904722
-0.165194
0.779144
0.110376
0.912870
0.762972
0.641651
-0.651044
0.016708
-0.635080
0.435608
0.385574
0.956845
-0.633249
0.158594
0.611623
0.747971
-0.561951
0.263139
-0.614599
-0.882410
7.472859
0.415072
-0.261601
0.978368
0.733680
-0.037067
0.579579
0.984214
-0.715056
0.711287
0.967974
0.197773
0.277132
0.634068
0.526784
0.953900
-0.408930
-0.572742
0.492025
0.293445
-0.588040
0.975590
0.576326
-0.450288
0.721671
-0.790357
-0.611512
0.118728
-0.864420
0.811415
-0.607808
0.905867
-0.223205
-0.540338
0.119408
-0.468052
-0.339124
0.305367
0.051440
-0.800652
-0.565196
-0.164021
0.740433
0.900732
0.998026
0.182596
-0.595129
0.750830
-0.906348
-0.742643
0.381491
-0.810424
-0.275098
-0.612118
0.835514
-0.040056
-0.749700
0.947047
0.687343
0.148523
-0.486950
-0.256425
0.383175
0.351295
-0.187895
0.437560
-0.625047
0.545329
0.917285
0.038821
0.125005
0.149777
-0.281111
-0.004824
0.209451
0.160207
-0.451762
-0.262923
0.871376
-0.592627
-0.655968
0.966753
-0.759615
-0.491763
0.031508
0.656224
-0.576473
-0.731301
0.796588
0.106487
0.299497
0.928569
-0.404651
-0.943702
-0.989122
-0.404740
0.704330
-0.202221
0.327557
-0.834075
-1.737143
-0.725058
0.750205
-0.028292
-0.485729
0.528928
0.707070
0.465295
-0.106108
-0.791497
0.956264
0.558536
-0.288796
-0.270745
0.823854
-0.096467
0.861084
-0.028505
0.059685
-0.572912
-0.427448
-0.196619
0.677385
0.826007
0.193443
-0.193334
0.704830
-0.768520
-0.475237
0.844720
1.318712
0.480786
-0.770156
0.109974
0.045914
0.089169
-0.720856
0.334391
-0.038837
-0.445289
0.711805
-0.087062
-0.653552
-0.749476
-0.204952
-0.187022
-0.084990
-0.374139
0.126181
0.399850
0.296607
0.813424
0.126856
-0.550674
-0.659673
0.590754
-0.816699
0.823614
-0.801932
-0.815145
-0.762454
0.277707
-9.435181
0.811173
0.219577
-0.896478
0.488639
0.813658
-0.283989
-0.717705
0.513695
-0.739706
-0.956319
-0.275990
-0.411805
0.241896
-0.733828
0.327491
-0.574154
0.754666
-0.983694
-0.975439
-0.533587
0.330068
0.270542
-0.802246
0.268328
0.678605
0.297798
-0.977504
0.432974
-0.766498
-0.694330
0.576600
0.448378
-0.755620
-0.752345
0.725595
-0.026221
0.496545
-0.594306
0.158564
-0.255070
-0.380194
0.551783
0.490860
-0.835415
0.105642
-0.912103
0.278237
-0.236844
0.049419
0.371192
0.048117
0.013936
1.046326
-0.484353
-0.665172
0.524739
0.281028
0.384975
-0.954505
0.744699
-0.466717
0.127457
0.499232
0.565171
0.598595
-0.060922
0.439936
-0.290777
0.779161
-0.431213
-0.866928
-0.433806
-0.122256
-0.600663
0.109900
-0.901273
-0.546183
-0.728089
0.733004
-0.144752
-0.456521
-0.570396
0.587980
0.373793
-0.218323
0.070344
0.122478
0.640173
0.961045
-0.464186
0.232043
0.689921
0.406892
-0.277151
-0.741816
-0.892196
0.977570
0.708995
0.858613
0.061218
-0.904807
-0.448659
0.997803
0.653330
-0.692312
-0.182531
-0.277225
-0.249362
-0.876205
-0.850897
-0.590593
0.679650
0.406951
-0.976600
0.846588
-0.898113
0.357248
-0.382952
-0.133836
0.992755
0.304525
-0.983623
0.388858
0.689844
0.154933
-0.605906
0.684583
0.456886
0.703075
-0.071779
-0.923499
0.590545
0.217545
-0.574682
-0.058680
0.680828
0.054494
0.690122
0.342762
-0.852493
0.084233
0.486265
-0.847275
0.518954
-0.589319
-0.003077
0.419519
-0.333530
-0.958945
0.936453
-0.999853
-0.695460
0.093253
-0.044233
0.585243
0.012779
0.706379
0.503388
0.617094
0.185084
-0.845050
-0.578188
0.458078
0.832664
-0.133125
-1.070015
-0.672648
0.862921
-0.409511
0.308710
0.473304
0.208709
-0.772996
-0.358391
0.961068
0.764320
-0.551679
0.406704
-0.342427
0.055793
-0.244628
0.851294
0.339258
0.187939
-0.029018
0.137825
0.293125
0.660722
-0.749680
-0.559467
0.152002
-0.389895
-0.817429
-0.512662
0.247790
0.821231
-0.731490
-0.380343
0.343119
0.769851
-0.829223
0.611259
0.935774
-0.709061
-0.026878
0.744349
-0.204798
0.005129
-0.181046
0.528287
-0.157491
-0.532135
0.451441
0.074211
-0.507946
-0.932171
-0.797292
0.464261
-0.937438
-0.056221
-0.520699
-0.483269
0.088970
0.657848
0.615347
0.040649
0.782489
0.107090
0.200697
-0.032552
-0.770003
-0.638370
0.648119
-0.887323
-0.857635
-0.126448
0.297518
0.914784
-0.011628
-0.909843
0.662437
0.256715
-0.744819
-0.500978
0.409984
-0.020611
0.707296
-0.148667
0.478066
0.820342
-0.142286
-0.510183
0.906497
0.514624
0.068529
-0.353049
-0.277805
0.542972
-0.636621
-0.725790
-0.193451
0.246243
0.673024
0.064853
-0.900820
-0.371601
-0.726666
0.167899
-0.224340
-0.822634
-0.565520
-0.732689
-0.210094
0.026842
-0.437101
0.117590
0.742655
0.543105
0.105417
0.200324
0.214134
-0.523312
0.734842
0.785241
0.822634
-0.877828
0.392964
-0.934293
-0.257174
0.407998
-0.903048
0.647514
0.880971
-0.780634
0.286897
-0.666168
-0.294520
-0.113884
-0.917418
-0.564661
-0.540105
0.476170
0.093757
0.399370
0.826901
0.230193
-0.842348
-0.281213
0.093781
-0.845745
-0.717826
-0.405387
0.328297
0.561323
-0.069363
0.610051
-0.317326
-0.068770
-6.222276
0.809889
-0.422895
-0.091128
0.344838
-0.631246
-0.582627
-0.604203
0.158872
0.926310
0.878676
-0.730791
0.370357
0.435902
-0.535628
0.652044
-0.009909
-0.746416
-0.991124
-0.687575
0.597787
-0.916134
-0.022014
-0.786520
-0.789277
0.031607
-0.244609
0.289841
-0.392104
-0.811510
-0.100439
-0.549998
-0.817728
0.679684
-0.985891
0.322802
-0.767081
-0.697973
-0.942705
-0.065654
0.751482
0.479347
-0.214819
-0.340772
-0.743774
-0.157548
-0.303161
-0.127833
-0.578002
0.265672
0.501266
-0.472700
-0.544999
0.785909
0.741502
0.753620
0.249032
-0.186578
0.143183
0.384379
-0.589752
-0.004423
-0.542244
-0.438281
0.796554
0.241669
0.278513
0.036603
0.921496
-0.414765
-0.057578
-0.314827
0.486168
-0.214191
0.166884
0.938657
-0.418426
-0.890759
0.327684
0.548374
-0.356005
0.840817
0.399418
-0.023783
-0.946828
-0.379415
0.130073
-0.652576
-0.549741
-0.297663
0.104402
-0.506511
0.727604
-0.843671
0.853560
-0.382468
0.397652
-0.584831
0.741007
0.029214
0.159537
0.243066
0.583358
0.012402
0.564066
0.681588
0.526790
0.290518
-0.090805
0.337837
-0.099809
0.176634
0.674664
0.144768
0.393375
0.886651
0.439106
-0.228968
0.598491
0.344226
0.763126
0.740368
-0.026028
-0.206151
0.807315
0.535899
0.113821
-0.456500
-0.315111
0.581574
-0.862463
0.083631
0.542398
0.738899
0.732014
-0.018780
-0.650612
0.115121
-0.459311
0.428666
0.677131
0.984780
0.318843
0.260214
-0.545909
-0.097321
-0.975708
0.663165
-0.002334
0.821368
-0.839839
-0.524770
-0.790928
-0.721930
-0.815628
0.369526
0.839399
-0.595802
0.006605
0.624562
-0.052538
-0.055350
-0.798109
-0.783564
0.944937
-0.545280
-0.200958
0.648001
0.644776
0.020771
-0.164944
-0.091229
-0.987078
-0.800706
0.714929
-0.403439
0.320315
-0.747012
-0.156811
0.040099
-0.839321
-0.203477
0.797630
-0.030507
0.698514
0.767829
0.223020
0.806964
0.438120
-0.332925
0.174403
0.071178
-0.785911
0.007587
-0.087997
-0.222652
-0.594343
0.718091
-0.402509
-0.122589
0.972141
-0.152460
-0.643012
0.747272
-0.330369
0.786166
0.670570
0.568826
-0.486985
0.458392
-0.608760
0.880730
-0.796578
-0.658268
0.755520
0.254009
0.196464
0.364239
-0.102463
0.589302
0.909548
0.708389
0.521653
-0.199635
0.923997
-0.535409
0.742740
-0.411174
-0.848574
-0.555008
0.294504
-0.067103
0.907772
-0.480204
0.424597
-0.615921
-0.241292
0.535029
0.639062
-0.345179
0.046758
0.070951
0.809723
0.390997
-0.105417
-0.517310
0.841475
0.711160
-0.934576
0.433341
0.461163
-0.645982
0.550703
0.504589
0.196782
0.214455
-0.593451
-0.035533
-0.314135
0.981675
0.455534
0.944768
-0.286673
-0.793870
-0.268655
0.905437
0.189575
-0.967430
-0.408733
-0.900412
-0.463703
0.923991
0.369108
0.027120
0.155168
0.264632
-0.074801
-1.100790
0.918629
-0.553648
-0.476963
-0.508567
0.759119
-0.212614
0.568364
-0.920878
0.009141
-0.197429
-0.753037
-0.172008
-0.458673
0.426913
-0.817449
0.193971
0.374106
-0.315398
-0.382357
-0.463824
0.548055
-0.596140
-0.395130
0.736963
0.742997
0.869427
0.537318
-0.288506
0.233135
-0.312548
-0.158336
0.826153
0.486049
-0.541820
0.430430
0.664852
0.154546
0.289111
0.118166
-0.367733
0.649424
0.194874
-0.470212
0.083634
-0.867785
-0.099131
0.920301
0.740732
-0.012739
-0.559098
0.094677
-0.374989
0.527714
-0.575973
-0.180745
0.228361
-0.671914
0.178757
-0.842597
-0.339948
0.416627
-0.631649
0.508273
-0.217127
0.549539
0.824217
0.020184
0.418678
-0.331211
-0.240033
-0.680949
0.165705
-0.946271
0.295960
-0.218611
0.511284
-0.065809
-0.887634
-0.996682
-0.402581
0.599952
0.009430
-0.655764
-0.316688
0.924382
0.959385
7.370979
-0.359648
0.369608
0.658042
0.250650
-0.378724
-0.730632
0.193639
0.727302
-0.738795
0.725076
0.805188
-0.709598
0.587527
-0.205977
0.358557
0.985525
-0.121808
0.384714
-0.107107
0.947540
0.454896
-0.568965
-0.353174
-0.981293
0.664283
-0.887204
-0.698388
-0.197784
-0.085253
-0.884120
0.703313
-0.213784
-0.289532
0.853813
-0.856799
0.355741
0.359309
-6.279218
0.411513
0.745432
-0.361582
-0.286553
0.344398
-0.366444
-0.061490
0.529478
-0.490379
-0.995941
0.814682
0.841168
0.708063
0.950474
0.815394
-0.527372
-0.095064
0.361446
-0.554651
-0.411540
0.163961
0.119647
-0.728224
-0.658598
-0.784665
0.101728
-0.295855
-0.330399
-0.931341
0.870425
0.659307
0.552190
-0.030673
-0.226884
-0.781531
-0.326635
-0.056682
-0.339838
-0.615006
-0.027326
-0.212905
0.208456
-0.315317
-0.826316
-0.701642
-0.548725
0.779618
0.149759
-0.626667
-0.826475
0.610849
-0.514095
-0.404673
0.357666
-0.540179
0.487095
0.783178
-0.309392
-0.489569
0.032640
-0.460510
0.000794
0.387360
0.148511
0.428427
-0.339827
0.115734
-0.435878
0.715340
0.929541
0.775480
0.672829
0.422312
0.013941
-0.662315
0.984848
-0.433660
0.540970
0.715591
0.460646
-0.891241
-0.668808
0.903318
0.381006
-0.509313
0.464481
-0.855215
0.619188
0.612650
0.051483
0.260008
-0.803956
-0.830139
0.168347
-0.124006
0.831858
-0.852474
0.410735
0.379026
0.725750
0.408121
0.352862
-0.052958
-0.610815
-0.595195
-0.143901
-0.546351
-0.204445
0.715630
-0.628082
0.221516
-0.593734
-0.154484
-0.516735
-0.008312
0.508717
0.989600
-0.330446
0.468210
0.386483
0.167714
0.131498
-0.304204
-8.046962
0.190753
-2.672236
0.925327
0.595573
0.783676
-0.219438
-0.835342
0.416163
-0.013568
0.506878
-0.331036
-0.141003
0.395928
-0.355015
-0.718267
-0.729150
-0.932987
-0.998097
0.516153
-0.440831
-0.144740
-0.530438
-0.636079
0.782862
0.289735
0.099808
0.509027
0.035333
0.988902
-0.332384
0.143388
0.814272
-0.048250
-0.333900
0.201074
0.764103
-0.069651
0.526370
0.595441
0.658854
-0.435934
0.376225
-0.412279
-0.988324
-0.584589
-0.666788
-0.684473
0.169865
0.322801
-0.691918
-0.209648
-0.435631
0.951737
-0.310516
-0.887467
-0.788758
-0.193577
0.977526
0.171517
-0.096392
-0.815729
0.694830
0.854053
0.473773
0.829633
-0.839880
-0.496665
-0.068321
-0.247930
-0.161609
0.014494
0.599198
-0.378365
-0.816507
-0.240508
0.260206
-0.348013
0.675345
-0.635379
0.347786
0.693209
0.198580
-0.518021
0.700013
0.549768
-0.633625
-0.857727
0.061289
-0.323043
-0.879102
0.659729
0.457168
-0.031457
0.326670
0.973832
-0.014671
0.517481
0.644492
0.003558
-0.429819
-0.976337
0.942790
0.761133
0.601866
0.456097
0.010698
0.849298
-0.667106
-0.298501
0.956274
0.907158
0.289152
0.538477
0.404582
-0.560927
0.449018
-0.518458
-0.108070
0.207989
0.125658
8.822672
-0.318274
0.472002
0.902959
-0.650358
-0.994092
0.077574
0.642148
0.539977
-0.409516
0.566438
0.209357
-0.778406
0.705376
0.537070
0.151061
0.728610
-0.122347
-0.860614
0.257369
0.253533
-0.495683
-0.811873
0.500577
0.559990
-0.822367
-0.966229
0.499842
-0.741676
-0.418527
0.970480
-0.567217
-0.444150
-0.468193
0.570284
-0.534302
0.992192
-0.650655
0.999814
0.581112
-0.171882
-0.716271
0.966568
0.829106
0.515613
0.331387
-0.705845
-0.028046
-0.424392
-0.981859
0.536324
-0.524056
0.762833
-0.190723
-0.260854
0.644175
-0.210987
-0.869350
-0.881612
-0.217344
-0.298300
0.630293
0.836128
-0.640633
0.995835
-0.084063
0.263999
-0.287881
0.387382
0.974309
-0.144499
0.921417
0.198984
-0.097041
0.589936
-0.655842
-0.831392
0.624413
0.208046
-0.218922
-0.782141
0.534085
-0.358253
-0.589924
-4.780341
-0.610382
0.101484
-0.029943
0.955630
-0.055149
-0.932858
-0.256711
0.561116
0.832979
-0.736950
0.752811
0.228793
0.138553
0.513332
-0.914629
0.261604
0.558568
0.648241
-0.668957
-0.751250
-0.821973
-0.896856
0.737928
-0.045204
-0.422482
0.237840
0.104038
-0.878338
-0.418903
-0.753006
-0.169203
-0.398388
-0.700253
-0.255235
0.049655
-0.815182
-0.523560
0.673107
-0.217155
-0.540711
0.068669
0.260223
-0.814355
-0.788700
0.309659
-0.032035
-0.624884
0.478430
-0.925524
-0.098064
-0.223735
0.958208
0.169069
-0.999913
0.080490
-0.654235
-0.982225
-0.582441
-0.321642
-0.477696
-0.164582
7.210933
-0.143913
-0.047130
-0.039616
0.737701
0.249156
-0.515388
0.442968
-0.308121
0.572213
0.046246
-0.585894
0.605054
-0.906962
-0.910253
0.668090
0.948006
0.852907
-0.663627
-0.777610
-0.550030
-0.378591
0.444458
-0.642610
0.480549
0.632945
-0.675630
0.734008
0.910213
-0.886418
-0.603878
0.688016
-0.951961
0.180779
0.257920
-0.645224
0.727121
0.578466
-0.324914
-0.324841
-0.221401
0.707097
-0.573530
-0.015433
-0.342024
0.667093
0.989621
0.936920
-0.686937
-0.924272
0.826177
-0.843087
0.117221
0.008538
0.311576
-0.598325
-0.752172
0.132610
-0.878549
-0.134018
-0.562431
-0.384735
0.162422
0.815454
-0.282668
0.711610
-0.309975
-0.732055
-0.960564
-0.392215
-0.062618
-0.424308
-0.086380
-0.282978
-0.363216
0.698397
-0.750874
0.935074
0.520927
0.116594
0.789446
0.946715
-0.241117
-0.586229
0.177693
0.800330
0.614671
-0.561991
-0.975980
0.313153
0.750919
-0.998636
0.279787
-0.232111
-0.605712
-0.351447
-0.664033
-0.718310
-0.068580
0.778934
0.301559
-0.831773
-0.755620
-0.145524
-0.078372
0.190666
0.928015
0.876636
-0.832356
-0.836814
0.469738
-0.009510
0.034162
0.527152
-0.800609
0.326720
-0.811261
0.500474
0.005276
0.772683
0.062267
-0.845921
0.638482
0.209840
-0.879130
0.540615
-0.757675
0.049278
0.402073
0.356817
-0.814729
-0.080863
0.092254
-0.895473
0.147026
0.450392
0.791566
-0.704251
-0.920341
0.570936
0.255262
0.693438
-0.813872
-0.257587
0.801128
-0.513771
0.166791
0.069726
-0.363541
-0.818093
-0.561555
-0.594990
0.496235
0.885673
0.481304
0.611710
-0.886890
-0.442988
-0.964884
-0.174724
-0.211559
-0.352245
-0.731099
-0.244821
0.366121
-0.732428
-0.285980
0.176226
-0.366805
0.762369
-0.470461
0.620178
-0.564793
-0.582765
0.666933
-0.774411
0.423354
-0.258108
-0.079695
-0.476578
-0.424498
-0.532651
-0.045236
0.649277
0.032995
-0.721243
0.297313
-0.456854
-0.046816
-0.468616
0.128259
-0.666434
-0.927287
0.506452
0.297151
0.875037
-0.721030
-0.321743
0.081715
0.962667
-0.263137
-0.751119
0.869118
0.490610
-0.177664
0.993013
-0.950261
0.833539
0.729529
-0.683969
0.963007
0.921136
0.850074
0.133773
0.685640
0.178912
-0.480319
-0.370202
0.403775
-0.275809
-0.621106
-0.311665
-0.284821
-0.062003
0.016138
-0.313779
0.575048
-0.812160
-0.787873
-0.507876
0.711435
0.267642
0.250330
0.355468
-0.683295
0.814148
0.275313
-0.682478
-0.607227
-0.633665
0.228963
0.324888
0.985326
0.468946
0.072950
6.742403
-0.030989
0.529149
-0.354430
0.654522
0.137372
-0.405438
-0.823783
0.362313
-0.785157
0.637702
0.458325
0.428257
0.614991
-0.283212
-0.272600
-0.637724
-0.106268
-0.436633
0.206257
0.615635
-0.152060
0.043338
-0.796420
-0.609933
0.706358
-0.806129
-0.310162
0.109104
0.743145
0.027567
0.293198
0.789494
0.970477
0.293189
-0.723034
-0.907294
0.952003
-0.504109
0.467650
-0.611572
0.751084
-0.908242
0.092595
0.164052
0.987752
-0.370056
0.656269
-0.867968
0.993849
-0.033167
0.513460
-0.481355
0.713938
-0.630736
-0.797397
0.780564
-0.284464
-0.270624
-0.660145
-0.063842
-0.854536
0.811374
-0.695222
-0.871743
0.195454
-0.376813
-0.758148
0.729542
-0.073532
-0.201828
0.011426
-0.341327
-0.249374
0.845132
0.642834
-0.916923
0.545383
-0.735983
0.141034
0.295737
0.401249
0.740022
0.312653
0.067680
-0.368597
-0.572050
-0.637249
-0.254401
0.648627
-0.015787
-0.937685
0.483323
0.995652
0.849479
-0.819962
0.954587
0.029212
-0.263396
0.024237
-0.221086
0.021939
0.950703
-0.527177
-0.088489
-0.081777
-0.142359
-0.593575
-0.548452
0.817236
0.554774
0.946344
0.440587
-0.743372
0.504981
0.237386
-0.599555
0.816708
0.774977
-0.179003
0.664800
-0.603482
0.354982
-0.230968
0.251285
-0.878629
0.692898
-0.339511
-0.120273
-0.834111
-0.260634
-0.642646
0.789622
-0.939269
0.709568
-0.159356
-0.416597
-0.938651
-0.093541
0.868803
-0.554154
0.814486
-0.207822
0.309214
0.985391
-0.631146
0.397910
0.219657
-0.684873
0.775077
0.674863
0.126786
-9.580768
-0.938422
-0.034696
0.841450
0.373217
-0.162204
-0.231407
-0.130056
0.924737
-0.205717
-0.474286
0.362158
-0.484397
0.959366
0.844888
-0.993547
0.706298
0.696727
-0.587253
-0.001926
-0.290187
-0.276955
0.455830
0.639819
-0.717003
0.775568
0.668783
-0.888790
-0.062226
0.509543
-0.975449
0.431116
0.241504
0.235776
0.276699
-0.016367
1.017643
0.572861
0.779663
-0.506518
-0.069781
0.967507
0.623037
0.978744
0.603331
0.537835
-0.203887
0.360713
0.328024
0.633874
-0.242449
0.220923
0.263085
0.550711
-0.950727
-0.301794
-0.285485
-0.531376
0.662907
0.662268
-0.365771
-0.640215
0.547120
-0.953009
0.839504
8.749731
-0.108853
-0.448148
-0.344353
0.556915
-0.928810
0.310144
0.015077
0.654597
-0.670526
0.065062
0.783583
0.217310
-0.841338
-0.539820
0.198221
-0.377076
0.098674
-0.203325
-0.919726
-0.004327
-0.716898
-0.864375
-0.496034
-0.420185
-0.185951
0.610399
-1.220002
-0.853134
-0.099893
-0.149203
-0.399281
0.230612
0.406832
-0.311190
-0.435603
-0.121686
0.052418
-0.609107
0.394721
-0.375238
-0.487111
0.411649
0.152097
-0.560793
0.529335
0.969772
0.616795
-0.033536
0.350499
-0.149957
0.535275
-0.364329
-0.515557
0.999506
0.823871
-0.590698
-0.705286
-0.951426
-0.410622
0.075988
-0.383985
-0.443404
0.595806
-0.486791
0.432436
0.658089
-0.598030
0.771310
-0.789707
0.031181
0.805800
-0.658090
0.853397
0.197406
0.037657
0.046850
0.683361
0.788180
-0.494699
0.022058
0.098199
-0.243786
-0.933078
-0.258266
0.529019
0.012904
-0.661753
-0.941871
0.580960
-0.165350
-0.088338
0.360338
0.555301
-0.802051
-0.597107
-0.372582
-0.462298
0.156415
-0.425897
0.603877
0.366450
-0.091269
-0.530945
-0.858850
0.228105
-0.198330
0.616571
-0.541175
-0.714625
-0.113892
0.076070
-0.908324
0.113824
0.649484
0.917744
0.535692
-0.288426
-0.020900
0.601516
0.391563
-0.792951
0.867385
0.714406
-0.320105
-0.344026
0.579862
0.609707
-0.603621
0.837478
0.913628
0.484279
-0.315866
-0.152415
0.260021
-0.171676
0.216646
-0.620017
-0.925904
-0.061633
-0.410000
-1.082357
0.260531
-0.634836
0.896252
-0.483759
0.049117
-0.729278
-0.681684
0.132562
0.115338
-0.216808
0.664383
-0.466062
-0.950311
0.512535
0.914243
0.026110
0.482131
-0.756116
0.910829
0.217455
0.966266
0.172626
0.151271
-0.433885
-0.328271
0.353827
-0.964315
0.377033
0.513551
0.571134
0.972075
0.447821
0.425379
0.637477
-0.290663
-0.268388
0.938050
-0.708014
-0.568573
0.064099
-0.758761
0.216987
0.812227
-0.132766
-0.732634
0.691684
-0.994562
0.218892
0.002650
-0.716465
-0.299147
0.731050
-0.046190
-0.079799
-0.895134
0.046388
0.478665
-0.873612
0.300931
-0.740983
0.143343
-0.709387
0.397215
0.215264
0.134434
0.621809
-0.443625
0.494629
-0.859916
0.208108
0.785772
-0.110594
0.133270
0.935552
-0.282066
-0.010799
0.065095
-0.491949
-0.817001
0.476873
0.919245
-0.386614
0.987526
0.755329
0.996810
0.803783
-0.116804
-0.018887
0.313091
-0.531751
-0.652240
0.591794
0.704028
-0.295842
-0.096912
0.866154
0.589259
-0.580755
0.851121
0.597665
-0.786778
0.367412
0.916994
0.762044
0.002259
0.226089
-0.370857
-0.286776
-0.459992
0.349644
-0.671042
-0.670045
-0.722790
-0.884481
-0.183477
0.744970
-0.925246
-0.259187
0.267914
0.704090
-0.315021
0.326059
0.172272
0.687113
-0.294355
0.598023
-0.244579
0.085287
-0.468213
0.064907
0.604528
0.108657
0.049836
-0.483115
0.220194
0.901014
0.080957
-0.836920
-0.759564
-0.726694
-0.013709
0.537204
-0.527024
0.147362
0.727528
-0.126388
0.594691
-0.080688
-0.370291
-0.464054
0.710590
-0.112391
0.812163
-0.667586
0.819813
0.653669
0.595779
-0.976716
0.005953
0.077044
-0.804536
0.934209
0.819517
0.506480
0.429297
-0.591862
0.314070
0.220282
0.267989
-0.258697
0.311569
-0.359642
-0.659927
-0.960622
-0.827975
-0.236854
-0.899139
0.539988
-0.342726
-0.355596
0.313572
0.768449
-0.058804
0.728578
-0.870136
-0.184553
0.760419
0.205394
-0.719360
0.037961
0.244895
-0.521686
0.918371
0.003586
-0.066279
-8.564173
-0.543286
0.656802
-0.960124
0.258287
-0.341573
0.188223
0.036300
-0.347523
0.573728
-0.864845
-0.927332
0.296107
-0.593483
-0.055727
0.887665
-0.461433
-0.169558
-0.716502
-0.056417
-0.499445
0.420932
0.278928
-0.835180
0.277815
0.423561
-0.807480
-0.144416
0.901285
0.085977
0.121119
0.772560
0.630577
-0.833259
-0.202876
0.742917
-0.817824
0.698218
-0.379049
0.807377
0.949686
-0.267919
-0.446569
-0.377737
-0.926230
0.515364
0.350113
0.296326
-0.114915
0.055777
-0.518372
-0.039377
-0.773933
-0.632299
0.411311
0.500123
0.495991
0.425456
1.075608
0.308114
0.888945
0.080147
-0.872808
0.411025
-0.691686
0.889005
-0.697812
0.678058
0.104319
-0.335778
-0.290288
0.256947
0.660288
-0.132507
-0.267091
0.531168
-0.357907
0.963731
-0.632559
-0.726980
0.699108
-0.145256
-0.552726
-0.109028
-0.716653
0.056253
-0.462642
-0.067818
-0.256334
0.530726
0.106657
-0.459788
-0.527328
0.402826
0.848063
-0.789876
0.152337
-0.895545
-0.529059
0.985958
-0.989627
0.581889
0.374520
0.741949
-0.324506
0.853291
-0.093426
0.790657
-0.580434
0.538852
0.908654
0.608651
0.688088
-0.248230
-0.574740
0.545332
-0.877162
0.902551
-0.238476
-0.722862
0.222308
-0.381762
-0.206414
0.416656
-0.204763
-0.128225
0.404171
-0.590727
0.877083
0.699276
-0.326865
0.647523
0.541187
-0.240393
0.662244
0.698793
-0.422082
-0.276694
-0.373017
-0.221183
0.735118
-0.706217
-0.402948
0.314818
-0.396832
0.021366
0.130837
-0.479665
0.038355
0.636624
-0.666211
-0.909050
-0.739645
0.548465
0.241395
0.740620
-0.212218
-0.016525
-0.721371
-0.856956
0.039063
-0.246207
0.228422
0.563117
-0.888525
-0.352732
0.824651
-0.021885
0.058724
-0.448736
-0.845246
0.482507
0.296237
-0.580676
0.869278
0.753519
0.449003
0.972655
0.856197
-0.659882
0.313405
0.652534
-0.038838
0.676096
-0.328787
0.266638
0.352532
-0.999795
0.102559
0.675461
-0.468795
0.708318
0.248838
0.167265
-0.472332
-0.438117
0.608668
0.746340
-0.670143
0.858143
-0.940339
-0.730442
0.107946
0.854017
0.843066
-0.655355
-0.719745
0.447274
-0.396075
-0.318721
-0.081248
0.658453
0.938196
0.376643
-0.345675
0.805871
-0.971234
0.706856
0.526645
-0.039226
-0.800459
-0.802971
-0.472325
0.718565
-0.298328
0.392663
0.064578
0.540460
0.681097
-0.074957
-0.809131
-0.534866
-0.527310
-0.292784
-0.350984
0.859933
0.012106
-0.885707
0.186021
0.117448
-0.096337
0.738932
-0.098420
9.912018
0.037573
0.619633
-0.977031
0.174611
0.374630
-0.188547
0.455137
0.162851
-0.478640
0.037742
-0.521022
0.279411
0.325566
-0.148218
0.119048
-0.613767
-0.086559
-0.178804
0.543599
-0.425831
0.538272
0.044555
0.902658
-0.320388
0.060635
0.568838
-0.093842
0.357778
0.112530
0.733665
0.867406
0.207868
-0.306993
-0.645726
-0.740602
0.419431
-0.093064
0.575214
-0.870343
-0.902090
-0.130034
-0.906604
0.532188
0.207389
-0.599894
0.937156
0.864597
-0.726519
-0.201246
-0.828821
0.255724
-0.344981
0.927542
-0.886431
0.214687
0.618750
-0.927128
0.040537
0.785417
0.519439
-0.757757
-0.775310
0.818228
0.437494
0.348233
0.345825
0.042212
-0.984376
-0.554411
0.678334
0.345254
0.996703
-0.016999
0.493709
-0.366569
0.498045
0.293224
0.515988
-0.896996
-0.820387
0.761292
0.040382
-0.130296
-0.186740
-0.014491
-0.583202
0.508726
0.033036
-0.372371
-0.978917
-0.113844
-0.673662
0.797505
-0.414569
-0.579114
0.621516
0.838706
0.201086
0.878413
0.087083
-0.591532
0.053233
-0.424560
-0.688501
-0.679718
-0.563014
-0.831628
0.076715
0.503774
-0.272678
0.419307
0.653876
0.816355
-0.675553
-0.426311
0.794549
0.100058
0.118352
-0.229223
0.967459
-0.369043
0.493632
0.066031
-0.664177
-0.240091
-0.403547
-0.493693
0.884786
-0.381673
-0.682906
-0.418858
0.440243
0.631461
-0.234984
0.029866
-0.940499
0.798348
0.307639
-0.550049
-0.240815
-0.844497
0.147846
0.967211
0.689694
-0.779774
0.675810
0.495544
0.331894
-0.700694
0.782340
-0.583261
0.444972
0.456331
-0.861367
-0.629596
-0.365021
0.114046
-0.833623
0.387003
-0.492653
0.836619
-0.242858
-0.528192
0.451872
-0.297658
-0.423155
0.824085
0.378290
0.080780
0.977242
0.121426
0.331235
-0.744018
0.353308
0.782725
0.029096
0.240663
-0.787475
-0.131389
-0.900814
0.308339
-0.579271
-0.661096
-0.621175
-0.068668
0.490243
-0.912003
0.591039
-0.286839
0.196815
-0.827680
-0.277644
0.192625
-0.679254
0.509793
-0.909568
0.391799
-0.364803
-0.191258
0.516747
-0.751000
-0.997584
-0.531882
0.239758
0.124379
-0.096802
0.662907
0.689578
0.618256
-0.290351
0.487970
0.091430
-0.687236
-0.798593
-0.246615
-0.654216
0.799722
-0.318936
0.165838
0.486660
-0.032192
0.365097
-0.106818
0.830486
0.052473
0.038091
0.977779
-0.447706
-0.275442
0.968214
0.140671
0.209031
-0.129184
0.025746
0.868356
-0.498739
-0.238721
-0.227631
0.023133
0.634967
-0.802452
-0.262821
0.877986
0.232190
0.244526
-0.389453
0.676036
0.546426
0.275506
0.599099
0.282145
-0.273337
0.015076
-0.619907
-0.117623
-0.290288
0.687902
0.257141
-0.000802
-0.324148
0.361305
0.209379
-0.339657
-0.897448
-0.404959
-0.410907
-0.188528
-0.287284
-0.241896
-0.067998
-0.247626
-0.145214
-0.534556
0.831918
-0.515449
-0.065456
0.045727
-0.177383
-0.998624
0.343991
-0.932539
-0.750861
0.273924
-0.417531
0.657357
0.530815
-0.102712
0.150497
-0.553738
-0.987387
-0.372472
0.267931
0.842183
-0.589049
0.519601
0.385997
0.829263
0.818442
0.819730
-0.106011
0.512105
-1.082674
-0.316770
0.624862
0.590545
-0.706117
0.782507
0.496359
-0.972538
0.089206
-0.638200
-0.331326
0.066838
0.037162
0.549948
-0.266509
-0.404823
-0.894072
0.328453
-0.283508
0.826206
-0.203356
0.941867
0.520233
0.316927
0.203577
0.700090
-0.421752
-0.778118
0.518423
-0.010900
-0.427724
-0.037108
-0.533704
-0.585997
0.713600
-0.136822
0.221529
0.606963
0.159712
0.494254
0.746036
0.030737
-0.828899
-0.716077
0.237159
0.198095
-0.087486
-0.350095
-0.631087
0.327047
-0.881933
-0.281417
0.518502
0.695082
0.836814
0.704308
-0.731772
-0.462889
0.740287
-0.911307
0.029641
-0.169422
-0.897660
0.222914
-0.923038
0.210996
0.674038
0.274437
0.775617
-0.094414
0.678396
-0.410124
0.038675
0.108988
0.450966
0.673571
0.483308
-0.715522
0.609976
0.153434
-0.586694
-0.555613
0.134909
0.905482
0.599306
-0.970139
-0.149203
-0.674432
-0.888500
-0.571322
0.645758
-0.185367
-0.061475
0.835406
-0.101171
-0.568399
-0.133989
-0.353680
0.987826
-0.901557
-0.782897
-0.380193
-0.783563
-0.862536
0.848223
0.216653
-0.720816
-0.138716
0.021769
