-0.704450
0.773183
-0.053982
0.710481
-0.094865
-0.536315
0.067910
-0.030595
0.248533
-0.004472
0.171928
-0.897484
-0.045301
0.075877
-0.313237
0.192380
0.939656
-0.210437
-0.432466
0.154013
0.216630
0.153575
-0.549574
-0.090022
-0.015377
0.014334
-0.321319
-0.803016
0.972526
-0.516610
0.003755
-0.090426
-0.378709
-0.255921
-0.985534
-0.513449
0.664925
0.177165
0.298313
0.371604
0.895233
-0.591483
-0.543221
0.479049
0.574042
0.706122
-0.303252
-0.347870
0.244751
-1.256432
-0.032061
0.650158
-0.963091
0.043902
0.332701
-0.778030
0.120170
0.320277
-0.265487
-0.324330
0.292053
-0.111728
-0.636794
0.747594
-0.001626
-0.374969
0.131459
-0.329807
-0.252759
-0.116347
0.736688
0.755780
0.988245
0.425445
0.851200
-0.828083
-0.421368
0.516984
-0.024435
-0.539720
0.182672
-0.386063
0.141895
0.393962
-0.261885
0.662704
0.914506
-0.233339
0.832002
0.592209
-0.082723
-0.557512
0.030690
0.301070
-0.844449
0.410564
0.652573
-0.399141
0.540889
0.149889
-0.585878
-0.278824
0.222249
-0.190509
0.069226
-0.966417
0.485864
-0.940225
-0.374297
0.251057
-0.205191
0.308715
-0.676968
0.045121
0.320461
0.664197
0.469239
-0.308799
0.581531
-0.523667
0.166564
-0.266525
0.799769
-0.033006
-0.696164
-0.931009
-0.522074
0.709390
-0.830444
-0.665747
-0.735160
-0.950614
0.558547
-0.871251
0.029659
-0.582478
0.372104
0.500230
-0.198430
0.741433
0.126890
0.533969
-0.660415
-0.132798
-0.042918
0.826183
0.260091
0.332640
0.089674
-0.355139
-0.219642
-0.337224
-0.449352
-0.702293
0.766981
-0.568613
0.614297
-0.169041
-0.253310
-0.850481
0.925084
0.455737
-0.397166
-0.562124
-0.155035
0.868619
0.726464
-0.898495
0.475260
-0.586224
-0.357847
-0.551611
0.979827
0.785170
0.979657
0.597303
-0.555876
0.256893
0.651142
-0.705391
0.265473
0.804289
-0.241867
-0.265872
0.593293
-0.564143
0.104545
0.378616
-0.090117
0.232312
0.163264
-0.205396
0.596095
-0.437112
-0.495328
-0.175294
0.845370
-0.578996
-0.388103
-0.480805
0.758137
0.269671
0.538994
-0.903959
-0.317608
0.062799
0.731148
-0.083627
-0.126308
-0.892391
-0.217691
0.849785
-0.031811
-0.589265
0.149704
-0.691254
-0.551517
0.763861
-0.512113
0.317940
-0.446529
0.755390
-0.467968
0.657219
0.307062
0.740367
0.825466
0.747662
-0.970725
-0.896982
0.717702
-0.040961
-0.868517
-0.887551
0.628532
-0.194754
-0.429325
0.716845
-0.024798
0.367727
0.647164
0.768487
-0.378192
0.211464
-0.477719
0.123848
-0.590964
-0.170940
-0.672156
0.546393
-0.314759
0.508718
-0.606612
-0.065763
-0.347535
0.600496
-0.572960
0.320700
0.787232
0.397668
0.891141
0.853661
0.437736
-0.914646
-0.922656
-0.539441
0.570075
0.661978
-0.849402
-0.452147
-0.307444
-0.735519
0.680711
0.613501
0.516729
-0.145217
-0.706357
0.935262
-0.446796
-0.568988
0.474722
-0.308327
0.263782
-0.597832
0.030201
-0.857655
0.195443
-0.284357
-0.467016
0.347267
-0.598700
0.686408
-0.857150
-0.767819
0.897538
-0.838586
0.395430
-0.854084
1.014867
-0.964605
0.471320
-0.082659
1.040683
0.916370
-0.732886
0.953183
0.013675
0.772981
-0.714725
0.827851
-0.403157
-0.722423
-0.892217
0.202077
0.794691
-0.929153
0.889757
6.743234
0.021326
0.928770
0.651613
-0.678352
-0.130049
-0.736090
-0.433472
-0.919790
0.885017
0.845341
-0.764678
-0.114506
-0.193617
0.987497
-0.913932
0.872682
-0.265592
0.753616
-0.847960
-0.632002
0.264787
-0.270305
-0.505373
-0.365973
0.156839
0.223864
-0.255392
-0.814909
-0.139006
-0.735312
0.772189
0.718916
0.095723
-0.740426
-0.488501
0.704701
-0.730548
0.431739
-0.274130
0.142539
-0.013216
0.955103
0.716468
0.137335
0.904039
-0.641253
0.950357
0.367670
-0.814755
-0.984190
0.189557
0.486453
0.034891
0.058960
0.419537
0.223525
0.005712
-0.965912
0.253308
0.951926
0.648263
0.923944
0.138005
0.609730
-0.492429
0.613334
-0.814967
-0.216774
0.828769
0.749527
-3.733616
0.660351
-0.082563
0.680793
0.589127
0.318371
-0.125319
-0.855546
0.308486
0.424108
-0.077012
0.442763
0.962329
-0.971238
0.808643
0.902248
0.917911
-0.939203
0.385616
0.663012
0.864781
0.066706
0.671351
-0.488806
0.212686
-0.647960
0.582826
-0.709973
-0.145481
0.992680
0.408621
0.658526
-0.542245
-0.644408
-0.865363
-0.816644
0.083152
-0.894576
0.276613
-0.592807
-0.657753
-0.827979
0.217381
0.022303
0.256822
0.267995
-0.190571
-0.104441
-0.335205
-0.300373
0.459103
-0.522861
-0.336941
0.171919
0.132745
0.345796
0.781631
-0.807030
-0.574221
-0.243171
0.857636
-0.788746
-0.519833
0.848691
-0.190487
0.607914
-0.329154
0.404972
-0.700440
-0.900545
-0.496285
-0.972161
0.955751
-0.872424
-0.989675
-0.855241
0.108913
0.550310
0.364586
-0.580425
-0.850672
0.055421
-0.348136
0.013437
0.703332
0.678460
-0.519993
-0.503439
0.106741
0.047359
-0.402259
0.674128
0.633836
0.527596
0.419526
0.068408
0.573236
0.639999
0.427239
-0.957539
-0.837881
0.259036
-0.197466
-0.360333
-0.549067
-0.632801
-0.851477
0.842322
-0.165559
0.149010
0.896243
-0.152455
-0.724510
0.641606
0.285453
-0.874873
0.185544
-0.381824
0.925231
-0.616904
-0.929265
0.522763
0.450299
0.424392
-0.859497
0.814841
0.469435
0.536045
0.539221
0.971834
0.895434
-0.182324
0.498525
-0.074843
0.814263
0.016802
0.118199
-0.851427
0.155052
-0.692070
-0.995213
0.647464
-0.118154
-0.642622
-0.314490
0.168231
-0.027718
-0.809661
0.170637
-0.855876
0.552645
0.945487
-0.409702
0.218520
-0.423870
0.402026
-0.040167
-0.828683
0.492419
-0.447422
0.338374
-0.769615
0.829842
-0.465063
0.577829
-0.686681
0.510193
-0.444870
0.003951
-0.598752
-0.075084
0.719934
0.804949
0.301652
0.545683
-0.144727
0.743271
0.140778
-0.727650
-0.303197
-0.746580
-0.615988
0.464925
0.873204
-0.241499
-0.003496
0.571272
-0.728536
0.084832
0.960087
-0.099717
-0.795406
-0.439501
0.785998
0.996012
-0.747553
-0.943568
0.078310
-0.890200
0.471548
0.329824
0.867061
0.832867
0.800975
-0.334572
-0.838811
-0.759555
0.104605
-0.920505
0.473446
-0.571197
-0.007206
0.430396
0.529053
-0.601246
-0.544812
-0.758768
-0.895149
0.158921
-0.970702
0.349260
0.973680
0.014947
-0.798554
0.173751
-0.710012
0.208970
0.371817
-0.277834
0.341400
0.536530
0.263624
0.705952
-0.588635
0.776964
0.536849
-0.674796
-0.191793
0.424981
-0.875936
0.161517
-0.947087
-0.651327
0.358541
-0.693895
-0.673620
-0.981310
-0.561474
0.469996
-0.377160
-0.059203
0.444269
-0.619154
0.898057
-4.592917
0.357943
-0.845467
-0.770817
-0.970643
-0.538088
-0.770454
-0.342928
-0.445385
0.365736
0.743266
0.380655
0.118984
0.823372
-0.216447
0.565741
-0.078203
-0.804925
0.426329
0.805304
0.770643
-0.991516
0.804711
-0.318694
0.376477
-0.542499
-0.197765
0.881977
-0.831656
-0.672982
0.035805
-0.341630
0.111778
0.397541
-0.220358
0.831303
-0.539969
0.273877
0.276463
-0.416288
-0.227970
-0.118699
0.110117
-0.965271
-0.528483
0.739260
-0.618214
-0.541252
0.080927
0.726264
0.088622
-0.041165
-0.519513
-0.981957
-0.821592
0.870496
-0.431542
0.683938
-0.136998
0.702928
-0.645986
0.424429
-1.125766
-0.363139
-0.410797
-0.718593
0.061345
0.073707
0.687147
0.626115
0.511006
-0.767849
-0.671344
0.017438
-0.154451
0.040402
-0.180349
0.912747
-0.433966
0.992494
0.259720
0.370381
0.240961
0.167837
-0.987638
-0.432997
-0.816508
0.436817
0.273664
-0.499125
0.139425
-0.652133
-0.913224
-0.146068
0.979027
0.803280
0.422447
-0.211294
-0.540655
0.876344
-0.057613
-0.778154
0.096922
0.996450
0.205576
-0.032933
-0.008562
0.625950
-0.515444
0.076724
1.173737
-0.333192
-0.456699
-0.513136
-0.965882
-0.240919
-0.650453
0.184298
0.891431
0.915511
-0.265862
0.228600
0.942524
-0.949608
0.853003
-0.331248
0.386333
0.406887
-0.506330
-0.443856
0.456331
-0.105211
0.112036
-0.681881
0.921121
-0.766872
0.926471
-0.410937
-0.710217
0.578954
0.553089
0.106690
-0.762584
0.825920
0.694483
-0.584557
0.987067
-0.998908
-0.860044
0.423128
0.783209
0.150109
0.409636
0.569365
-0.190467
0.159269
-0.880371
0.277904
0.884630
1.924247
-4.721950
7.686848
2.674997
-1.992011
0.169189
5.835492
9.885011
-5.379020
-7.747392
-5.560344
6.450038
-0.572019
3.131379
-0.787731
-2.649382
-2.766760
0.333485
-10.019529
2.903365
-0.318783
-4.799185
-4.551176
6.506131
2.255148
-2.706116
-5.399622
2.260213
-3.429085
3.752943
-4.885827
-2.314618
4.629850
2.986024
1.402870
5.115028
-6.326147
0.495123
7.092365
6.683898
-1.847047
0.744850
-13.614182
6.792856
-4.626710
2.075322
0.121679
-3.158516
-2.757201
6.799567
-0.713228
1.091508
3.257535
-10.828306
-10.525698
-6.939995
-4.316241
-1.972483
-0.943589
2.092069
2.715240
-3.499775
-5.659105
4.128446
0.565222
-0.235962
1.430981
7.440552
6.808210
7.059340
6.000573
-9.392009
3.398320
1.340708
-6.410979
8.005567
0.404754
-7.247227
7.448052
4.424655
3.604551
5.566380
4.572511
9.532063
7.993009
2.689852
1.325131
3.387109
9.446848
2.315000
13.564015
-4.138141
5.748754
4.791526
-1.693381
-14.570533
-3.749126
1.599202
-8.846732
-1.209165
6.795236
-2.175474
-9.804650
5.662900
-3.511905
9.139284
-6.410824
5.626416
3.856466
0.882192
0.406449
-7.657954
-9.677029
1.634908
10.389331
-6.246812
9.056421
-9.624231
-6.292973
5.462178
6.964836
8.591152
-5.748637
-5.028469
2.621058
2.686967
7.861680
-8.035144
-9.170327
-0.755866
4.529243
-2.608293
2.237398
-7.014377
8.945065
-5.493314
3.031096
6.890019
-8.200385
8.066138
-0.543641
3.860449
1.792388
2.208667
3.460940
-18.944535
2.060547
7.501358
-6.644584
4.357299
8.327308
4.437058
-4.480709
-6.338284
-3.453977
-1.919064
3.436695
-4.060380
0.652316
3.164782
-2.604874
7.025843
-3.604142
-3.864867
6.553126
3.483315
-3.655685
-9.551243
-9.374490
4.876275
-1.740126
2.709241
6.009444
-5.570145
1.446027
1.357570
-1.698589
1.077645
-2.393689
4.824920
2.383390
-12.939862
-2.355873
-0.268135
5.048867
-3.513048
-7.899087
-2.364052
-6.955611
-4.383562
-6.793493
1.068512
2.451715
13.981718
-7.275881
-6.426453
6.802402
-5.582046
-8.629649
-5.687364
5.629222
-4.000584
-5.892746
4.638363
-5.583739
7.259092
5.432511
-5.131667
-2.636243
-3.892383
-4.660740
-5.928318
-7.450159
1.036742
-4.055462
-5.243495
-3.841127
-0.375646
2.311450
-1.570875
1.696076
11.358309
-7.762342
5.299978
-3.930711
-2.198560
-2.019199
6.778944
4.979973
0.657318
-2.336599
-7.532294
2.554876
0.520866
6.344469
1.084027
-0.766527
-2.223712
-0.740505
6.680793
4.613987
-0.219047
4.389610
0.211244
-0.877671
-2.318208
2.922335
7.650573
12.738543
-5.038027
9.639903
-9.297180
5.772866
6.673209
8.286083
5.406826
-3.589048
-9.616812
-1.004957
2.917627
-1.132262
-1.567894
2.876561
2.435872
-3.601915
-9.934869
-0.385228
-7.221184
1.492196
5.095040
8.949696
-11.609167
5.229791
-13.640551
8.472268
-1.712574
10.666316
-4.290114
9.914283
2.120893
-1.947093
-3.626769
-9.708787
-0.135896
-5.291823
-1.617031
11.402769
0.120810
7.131970
-1.308036
12.185433
-1.537306
-7.175566
1.876310
-0.940342
2.318031
-1.881641
8.781215
-15.961476
-5.996026
2.337426
-6.030908
13.476955
0.324608
0.199982
3.270336
4.491832
-8.195699
-8.468783
-1.758060
-3.227266
-4.942284
7.649603
3.533473
1.604455
6.304177
-4.120935
9.771813
2.720927
-10.003083
3.633525
5.129762
6.782446
-11.805280
-6.832474
13.132700
4.725029
-3.962934
-2.863746
6.096750
0.342515
7.753586
6.090093
9.536544
-8.112240
-8.434570
4.548020
5.342876
2.215553
3.942607
-4.721961
-1.595024
2.796015
-2.990167
2.102300
7.794870
-0.727157
-7.338978
9.062981
-1.448564
-9.291753
4.062038
-9.915318
-1.320979
-5.621699
-6.138538
1.815180
4.983248
-3.458057
12.922499
1.520447
7.048147
0.848572
-2.233365
-10.108630
-2.777169
5.863692
6.121121
3.599441
4.357716
4.180341
3.459074
-4.170229
14.439390
-6.439068
5.461650
5.705332
-6.084568
-3.708800
1.608071
1.343092
-2.571174
7.793305
-4.010639
-6.475390
-5.331394
6.777907
1.037646
1.004476
9.566874
-2.969513
5.701678
-7.260303
5.549859
0.659443
0.920681
-0.936491
-1.592874
-1.623385
3.513122
4.552604
-1.978659
5.150871
2.841807
3.313899
-2.415458
-1.030409
0.227667
-0.923955
-6.021873
1.214062
-3.483541
0.757638
-5.719577
0.162496
4.559493
-3.069587
0.920585
-4.065836
-2.735544
-2.863806
-3.252231
5.162158
-1.285611
10.150548
3.167251
7.017505
7.725354
-1.657824
14.957790
-7.082446
2.765280
0.178085
-3.521813
-10.740428
-1.047816
10.601035
-4.814546
9.614236
-4.524607
7.986184
1.114614
-3.410557
6.084185
1.929063
-6.187338
-5.936937
2.430728
3.248268
-8.785627
9.184994
-4.192614
9.943438
0.591968
2.781088
-10.406069
4.323423
-5.301413
-4.212542
-0.865601
-6.773283
-13.253777
0.098639
-5.603115
-0.318671
-6.860044
2.290816
3.036203
-3.975423
-6.550447
-2.646447
-7.298567
0.225883
-8.017557
-2.054500
-1.174751
1.349367
7.231819
-1.947839
-4.424464
-3.144251
-7.299602
7.884014
-2.283173
-4.942734
3.322501
-7.866360
-4.647568
-0.794472
8.270106
11.324430
6.782279
-9.916341
7.453436
2.113241
-7.788719
-2.037603
3.951919
2.478612
3.167851
-4.578269
1.642281
1.831285
-0.652119
-6.724941
-11.142448
-10.834091
-3.459553
3.940896
5.346869
19.228482
-0.483626
0.990575
1.195473
-8.734425
5.426189
-2.675210
-2.169960
-0.640337
-1.906284
14.589923
-7.636546
-4.758376
-6.589344
-10.432680
0.524319
-2.235669
10.943941
1.341169
-6.914341
7.179893
-1.907880
-1.782144
1.614963
-4.490510
-8.997995
6.692749
-3.663497
-5.144218
9.718279
-5.998115
-10.345587
0.210932
8.203977
-8.257785
-0.496093
4.092982
-1.309980
3.203324
-3.740994
-0.293644
8.050098
4.634478
2.779981
-0.703845
2.015778
8.498775
-6.246180
-3.305702
-7.836559
-7.289084
-0.016426
4.867978
4.389990
3.611454
9.601983
7.177451
2.740423
15.280665
7.796561
-11.904628
-5.610328
1.832038
-3.498805
1.092546
-1.167527
3.423298
-6.862183
0.871195
7.105670
0.828145
-2.188832
9.751190
-3.183897
-0.146412
2.923074
1.174109
0.191931
-0.721080
-1.584079
-10.464656
-10.861598
-0.203559
-2.892305
-4.305965
-0.802613
3.417995
-8.626184
-9.109813
8.791774
5.247748
-4.667677
-6.459574
-3.075051
-1.497477
-2.112273
-7.436464
-2.676973
-3.110229
7.303977
-11.769673
2.010375
-2.910328
6.186823
-1.211946
-0.744725
6.665069
-6.042675
2.474061
-6.888475
-4.109947
-2.454562
-4.636892
4.337425
-2.098945
1.497230
-0.532343
-6.106251
-14.756366
-9.850184
6.059511
-0.230764
1.296504
-8.434714
-6.495565
-9.464481
-4.966235
-3.417963
-0.361734
6.068731
-0.081377
-3.801898
6.995430
-5.891222
-1.724866
0.850750
-3.886369
-4.126771
3.989039
-6.440606
-9.589315
0.842707
6.779228
7.625294
6.712302
-0.200576
-10.119691
3.376543
-2.209802
-7.933557
-10.609041
5.724341
-2.458402
2.087127
10.156861
-6.819314
1.195526
-6.848005
1.477364
4.226125
-3.083763
-3.619202
6.869399
2.902846
9.988251
1.445860
2.697008
0.068324
5.070709
5.390041
-12.768839
10.011776
8.939832
-1.101891
-9.453604
-11.701289
-5.502314
-0.602611
0.430781
0.322616
8.589182
6.832741
4.509583
-3.543133
-0.434871
-8.194890
-5.378211
-2.389338
-5.740033
-2.474059
-1.746728
-5.836020
-4.175019
6.867972
2.479726
-2.853164
-10.949721
-8.784331
5.544863
3.315030
-3.175522
2.768273
-10.986126
-7.023892
-5.204994
-10.281979
4.948903
1.121010
4.868379
1.963811
4.299082
5.296833
-0.321032
1.609009
-3.628360
-2.444595
12.794648
3.342292
-3.178629
2.795357
3.298327
-3.654972
-5.243490
-8.523432
10.051324
-5.329769
-5.390698
-0.710799
7.543142
12.955093
2.952968
15.780422
-3.392338
4.502851
-11.915838
-0.413996
3.863671
-0.078390
-3.451859
4.539055
-3.141963
0.052037
-4.185656
-15.362282
8.210382
0.816136
6.077048
4.431101
4.193592
10.000650
-4.196710
4.024520
0.966018
-0.538793
-5.720491
8.120395
6.804743
3.019340
-2.027212
0.847358
-3.360891
9.072921
-0.169041
0.380237
-0.544708
-2.494817
8.226797
10.139792
-4.603928
4.023101
0.844499
-4.707072
4.804084
5.610888
5.407163
-8.459771
-3.091343
2.663154
-2.343506
7.625819
-6.829292
7.167140
-0.058510
5.006232
5.716546
-9.919140
-5.130746
-10.368560
4.009341
-1.778537
-1.740158
-5.986129
1.838904
-14.119264
-1.072861
1.194610
-5.905214
5.795318
-10.072762
-6.206645
-9.923459
-7.445474
2.073227
-0.720845
-0.244259
-7.816588
5.433961
-3.841490
6.828302
-1.468639
0.572221
-3.407798
-7.151699
1.493983
2.042175
4.839156
4.023280
-1.782029
-5.555164
-3.288293
-3.640188
10.267676
-9.807169
4.894055
-1.768157
8.690572
-2.672720
-0.277603
2.147959
5.737600
1.725078
-7.727584
7.043489
7.717832
3.903781
-9.622471
-2.543506
5.972679
1.326477
-0.190054
2.102817
1.767964
0.022386
-4.996403
-14.280042
-5.450676
-4.988418
-5.402818
-4.040262
-13.104619
-3.084365
-0.548877
1.562317
-12.937392
6.567718
4.722058
5.532355
-4.014218
-0.331094
1.877689
-5.848487
-6.997941
-1.470027
2.310709
-2.925632
-4.565101
8.867712
-6.628429
0.729865
-6.901626
1.001791
-5.972446
2.225105
2.254926
2.505872
-1.957095
-9.136241
0.921317
6.614122
-1.912409
-4.286505
2.648252
1.824049
2.490275
-1.102030
5.138700
-0.422522
2.487023
1.531206
2.919118
4.495811
-0.856123
-1.369334
7.093067
-3.561921
-1.990987
3.304888
4.216450
-3.597434
-8.643247
-6.830092
3.764659
2.459894
-1.741488
6.588525
3.314020
-4.007232
5.600637
-0.843811
-9.021242
-2.253731
1.568007
7.706480
9.525282
1.792255
-2.416789
0.997725
-3.569226
-0.302685
0.447673
-0.788816
-6.997711
-5.079209
2.011089
2.059150
-10.659119
9.319937
-4.508311
-8.433504
6.264327
5.865093
-4.704462
-4.267706
-3.384741
0.529013
-7.475848
3.744831
-2.096467
0.365931
7.136800
-1.617307
-6.896554
1.811081
4.422026
-2.833693
-5.376536
-4.813268
2.572295
4.441456
-7.150803
0.764467
9.023447
-10.776438
-7.418600
-8.612084
0.953097
1.141027
4.084833
-2.968676
-8.273502
6.154624
-0.662794
-2.497873
-0.805358
-5.106597
20.985847
2.005773
-7.747631
6.515795
-13.010712
-2.288293
4.915133
-2.840442
3.165686
-5.286366
9.555647
10.125071
1.974638
2.279684
-4.639928
3.514938
-1.021504
13.020344
2.171428
4.640161
5.152254
-0.513236
-3.433069
-5.871180
3.364846
12.538039
7.681458
-3.191409
-2.320662
7.665897
4.346203
9.944668
2.781980
-0.295570
1.603670
8.933043
-2.560126
9.032077
-4.581988
-5.151026
4.111904
6.191319
7.049928
-0.617332
-1.696502
-1.732232
9.374300
7.696738
14.653577
-3.949185
-1.000353
1.893260
-7.754964
-9.496947
-2.757258
-5.370654
10.827610
4.202306
-0.461742
3.487443
-12.225735
-8.086003
-1.542627
-9.711580
7.107575
-4.541548
8.095235
2.349242
1.249087
3.734288
1.628897
16.954783
-0.899138
3.599250
3.352107
-2.911818
-5.928543
-4.499590
-7.222025
-2.796657
-2.439362
4.285491
-2.099033
-8.155578
-4.202930
5.134674
1.914002
-4.327578
11.437420
-8.376655
3.250865
-5.919788
14.696364
3.233475
3.810325
7.465866
-3.395434
6.750854
-1.751684
6.222691
4.946457
-3.546860
-1.933771
9.554480
1.234116
-1.640940
3.608857
-6.385187
3.889755
7.146131
-3.158793
7.665114
4.938984
13.070978
-11.414772
6.616635
-9.791035
3.876092
2.262110
-7.331542
-5.665009
1.039499
-4.843706
18.134044
1.489004
15.897553
2.811212
-5.887077
4.124170
-4.578592
-1.076094
-0.897278
2.167846
-1.308405
-6.751096
1.680174
-4.301053
-2.094900
5.276731
7.640792
-0.520456
4.988463
5.687212
-5.789919
5.359079
-11.069992
-2.777666
-6.948973
2.468041
9.138099
-3.043892
-1.348843
-9.332807
-2.469717
4.704298
-2.342573
-9.670374
-5.759816
5.735937
-6.172345
1.609944
2.652340
4.543466
-7.128447
-3.281341
5.713547
-3.118160
-0.195182
-7.548012
-5.038786
0.968471
7.540827
-8.524419
5.411499
-1.248484
2.521040
7.547799
7.883395
-7.415274
14.952546
3.888675
6.523527
-5.355961
0.528981
-7.588194
6.557144
-7.965531
-17.670607
-6.736990
7.167823
5.199161
2.937200
-1.172474
2.244554
1.401639
-12.039939
-2.230027
-14.153754
-1.148331
-7.579063
-5.328387
-6.040737
6.808741
-1.793839
-4.878328
0.998797
9.567769
-3.026509
-7.398930
8.964609
-6.404946
3.059831
-4.131871
2.164222
4.974048
-4.269698
3.584634
-9.352517
-4.460873
-0.848570
8.741061
-8.330242
-1.319757
4.905288
-10.640172
7.664305
-5.345099
-2.439915
-0.412383
-7.702485
-5.409231
5.861413
-4.573263
2.850558
2.616166
-7.368296
0.213904
-4.367220
-7.536021
-8.741793
5.307992
-9.176797
-6.196185
-3.019335
5.210498
2.617913
-5.037490
1.126622
10.352410
8.413547
-4.500971
-1.222567
0.600719
2.705214
4.748504
5.689806
-6.666996
3.940104
-1.962910
-0.080170
1.014068
-3.226108
1.899382
7.008540
-0.750370
0.085813
1.589418
-5.883625
0.744067
5.632820
1.966030
-3.379587
-9.181136
-4.122297
-2.560928
11.049587
9.650335
-1.007701
-3.640178
2.575489
-7.510147
-6.286577
16.356128
-3.865468
-2.880827
-8.053457
0.203323
4.734799
0.328120
3.733710
-6.081638
-10.451998
-9.135145
-8.503887
5.660422
11.427532
-3.490691
8.874597
-6.894048
0.628400
5.869232
-6.402167
7.966532
2.203436
-0.875724
-4.577841
6.364352
5.845438
-2.007060
4.311318
9.757813
1.023867
8.271824
-4.261144
-2.411804
-17.617965
6.338996
-6.661775
-4.111007
2.382286
7.431381
7.459265
6.103189
-0.692804
6.621795
11.254182
1.406395
-4.629355
5.688710
8.017021
9.440650
6.989624
-2.799138
-9.961698
3.821298
-3.936009
7.990365
0.393083
-0.261758
-1.116488
-6.101923
4.237263
0.931077
6.800379
4.558784
21.984389
0.067862
-3.507724
-5.454360
-8.575758
14.353176
0.989108
-1.065434
2.918924
-9.983391
-2.128840
4.133213
1.830205
0.746104
2.164323
-3.987908
-4.392662
-0.157560
-2.408306
2.773659
7.102057
-1.231619
6.108180
-1.345060
-6.985748
-3.599690
-3.117349
-0.011644
2.035027
-9.680601
-1.645251
5.175460
4.589003
10.176829
-3.668351
-1.868413
0.890592
5.344280
-9.328085
5.920618
8.382115
0.989126
8.425907
-10.439134
-2.447640
4.981780
4.052001
5.138602
-4.663024
-1.633330
-9.567871
3.265884
2.893624
2.142786
1.951593
4.200380
-0.504615
-4.183147
-5.969112
10.742260
-7.405889
5.892153
7.159499
-0.240692
-1.101349
9.778996
-7.290893
-8.190989
4.610642
-7.953816
8.199625
4.078664
0.321506
0.645240
6.666230
-4.365126
6.225683
0.411226
-8.462979
-2.891520
-3.648689
-2.604633
3.313122
-1.048891
4.392545
-2.482455
3.755791
-3.773896
-0.978024
0.291710
2.306891
-0.586757
-6.503343
-13.875947
-4.756233
-6.470262
-9.440796
8.842347
3.774541
1.966320
-7.188250
1.873791
-3.815919
-0.988301
-1.910122
-0.057986
-1.424279
2.174687
3.383842
7.819961
-6.559201
5.415953
-3.453857
1.431962
5.129565
6.895219
-6.556411
-4.390315
-2.970968
5.522287
-1.561830
2.937178
5.637780
-6.980470
-4.670264
-2.150023
8.127578
1.813824
-11.001513
4.296619
-1.338150
9.907657
4.293629
0.572144
7.849894
11.757459
-1.191740
8.890819
-27.424823
-2.112976
-7.188039
2.817788
3.016630
5.459004
1.294785
13.012026
0.874151
-0.404848
-0.824023
-10.357160
-0.862331
2.742220
6.595402
3.792540
-0.559021
-20.913435
-3.561425
4.232412
-1.600892
-2.203523
9.961735
8.095816
3.743992
8.041231
-5.336209
-0.493470
-4.469468
2.919191
3.133956
6.984309
2.111796
-7.353599
-7.499458
-9.226413
1.389374
-2.412740
1.425245
-2.220032
-8.443950
17.588023
-7.683777
-6.783003
10.598525
7.544462
-4.234365
17.461471
-1.604154
-2.971768
-3.539455
-0.406966
7.144923
-0.557423
5.177946
1.632835
3.983333
-6.239829
-0.949677
-4.076553
-0.928476
-6.688470
0.607367
-7.609607
-13.806616
6.213747
-11.544037
-4.768426
9.310900
-0.356443
0.898546
2.231031
6.055567
-6.156441
-7.630069
0.565199
-0.151983
-1.394526
-2.805860
4.406437
6.600724
4.805245
-0.683078
-6.293548
11.140749
-4.419585
1.010418
-18.906426
8.119309
4.176226
-4.799381
5.080235
-6.174860
-4.831855
4.978131
10.246300
8.505458
-6.200524
-3.011772
-0.845226
2.117862
8.782312
2.155817
-1.389709
9.876770
1.590819
9.498841
-8.751053
-8.222391
-1.694990
-7.032645
3.575401
-7.439194
14.628685
6.005068
1.535547
3.384408
1.850576
0.786000
-3.067655
3.342490
-6.430973
7.189871
-4.624235
0.694894
0.814395
6.470188
-0.999766
7.175233
-3.481036
-9.468302
1.787228
-4.775746
-4.148598
7.396670
-3.180002
-4.201128
0.530233
-4.887377
7.369559
2.130826
-0.958660
-0.755350
-0.914383
-0.507222
-0.659344
0.396889
0.772290
0.837916
-0.656067
-0.465786
0.417082
0.199148
0.356667
0.214044
-0.129093
-0.415315
0.620748
0.834418
-0.426691
0.914023
-0.379577
0.921047
-0.168233
-0.763509
0.607269
-0.255949
-0.907817
-0.977547
0.607964
-0.882004
0.011790
-0.816182
0.974371
0.005438
0.636993
0.678867
-0.673087
0.012056
-0.723810
0.192890
-0.510872
-0.936585
-0.270518
0.894931
0.236355
0.530156
0.584553
-0.128909
-0.863140
-0.555127
-0.458806
-0.929690
-0.924045
-0.035165
0.340734
0.209250
0.503520
-0.997986
0.968949
0.907044
0.569105
-0.410929
0.270238
-0.321165
-0.484986
0.690527
-0.271337
0.144800
-0.823635
0.054683
-0.341273
0.590048
0.037450
0.970220
0.262486
-0.627454
-0.104303
0.496846
0.764183
0.549798
-0.491665
-6.744246
-0.090867
-0.675665
0.195665
-0.988297
0.247565
-6.481388
0.046147
-0.654102
-0.612859
0.667613
0.049253
0.712209
6.066856
0.394553
0.314897
-0.950544
-0.977883
-0.089958
0.051451
-0.874914
-0.715371
0.307810
0.909597
-0.401791
-0.021062
0.055336
-0.691623
-0.605346
-0.245223
0.823334
0.822847
-0.649502
0.250163
-0.622301
-0.761346
-0.642750
0.161470
0.147565
0.116215
0.887853
0.177983
-0.547490
-0.801280
-0.848581
0.092377
-0.211152
0.879190
-0.526791
-0.432352
-0.943252
0.737191
-0.941419
-0.174819
-0.778639
-0.235366
-0.568284
-0.460316
0.115073
-8.670484
-0.815513
-0.676114
0.526167
0.876279
-0.262752
0.242969
0.114335
-0.037084
-0.628828
0.307291
0.660210
-0.391187
0.031856
0.863140
-0.323938
0.002354
-0.869698
-0.949235
0.664758
0.429497
-0.933263
-0.683162
0.345491
0.513003
0.216757
-0.377168
0.087706
0.065818
0.452518
0.556419
0.914728
-0.475550
-0.096134
0.506989
0.927796
-0.822421
0.797427
0.518151
-0.706488
0.915872
0.536091
-0.453261
-0.619744
0.154070
-0.035830
-0.603760
-0.052165
0.336223
-0.243565
-0.276550
0.348742
-0.033163
0.253402
-0.113339
-0.384032
-0.266265
0.504917
0.644111
0.541624
0.437537
0.479331
-0.634913
-0.431829
-0.809093
-0.282040
0.161055
-0.190607
-0.423755
0.692832
0.111541
-0.443325
-0.933346
0.911627
-0.677834
0.979651
0.947688
-0.947542
0.657652
0.710634
-0.842431
-0.256567
-0.446616
0.485809
0.765277
-0.911037
0.008927
0.682272
0.527343
-0.564756
0.616542
0.591160
-0.761474
0.142504
-0.720868
-0.805721
-0.582575
-0.322993
0.155085
-0.995535
-0.268036
-0.730929
-0.994395
-0.477543
-0.415742
0.146584
0.965332
0.504215
-0.443105
-0.968040
-0.757623
-0.675028
0.060736
-0.720438
0.043106
0.049852
-0.174546
-0.293560
-0.150819
0.736286
0.695081
0.165357
-0.517620
0.821772
-0.454819
-0.881621
-0.091136
-0.867427
-0.175552
0.808950
-0.099829
0.295223
0.632714
0.904770
0.222299
-0.102130
-0.672870
-0.383694
0.734605
-0.110010
0.592704
0.915696
0.741042
0.268494
-0.975059
-0.482656
0.311967
0.576495
0.229181
0.871660
0.915752
0.549731
-0.749844
0.540075
0.031749
0.144041
0.537656
-0.705109
0.585806
0.256870
-0.087187
0.737712
-0.649743
0.157373
-0.463680
0.826637
0.232720
-0.313329
0.420068
-0.603481
0.167984
0.120520
-0.125208
-0.634204
-0.719462
0.849419
0.115783
0.649173
0.327811
0.431512
0.742946
0.619940
-0.140844
0.016937
-0.568090
0.702586
-0.712965
0.149031
0.079017
0.212819
-0.081799
0.198963
0.006345
0.138511
0.309787
0.340904
0.597855
0.564641
0.038895
-0.673246
-0.106980
-0.371588
-0.450440
-0.264711
0.561365
-0.596854
-0.992524
0.918908
0.703933
-0.808666
-0.452697
0.188793
-0.867350
-0.202495
0.705200
-0.552697
-0.445838
0.040988
0.547265
-0.947438
-0.545446
-0.666847
-0.545388
-0.024550
0.307104
-0.177523
-0.277050
0.262609
-0.667332
0.128204
-0.492943
0.007520
0.915800
-0.055653
-7.263348
0.753775
-0.180113
0.969657
-0.268904
-0.262679
-0.847962
-0.503916
0.165529
-0.218112
-0.497039
0.977570
-0.446797
0.971454
-0.024712
-0.469139
-0.123551
-0.089801
0.205991
0.219829
0.501698
0.931749
0.261210
-0.420436
0.712199
-0.981027
0.453811
0.004375
0.859219
-0.124344
0.072644
0.991713
-0.096325
-0.099459
0.781814
0.807485
0.386088
-0.651596
-0.414133
0.325967
0.647423
-0.354553
0.183018
0.523510
0.111249
-0.130808
0.824778
0.807289
0.501488
0.977298
-0.723924
1.030643
0.584644
0.856843
-0.450635
-0.641721
-0.793198
-0.442308
-0.657157
-0.339423
-0.676102
0.782748
-0.155938
-0.597820
0.035506
-0.230919
-0.761312
-0.838115
0.754325
-0.266958
-0.144792
0.744609
0.761294
-0.087764
0.496949
-0.617017
-0.864646
-0.934786
0.368024
-0.837809
-0.671641
0.760578
-0.050224
-0.763962
-0.211851
-0.591385
0.287883
0.378514
0.593015
-0.294181
-0.088264
-0.165940
0.913041
-0.653480
-0.852771
-0.031260
-0.862360
0.759662
0.933898
-0.627714
0.681945
-0.696224
0.741466
-0.426940
-0.864489
-0.699261
-0.075132
0.107198
-0.839577
0.030605
-0.395340
0.228651
-0.103143
0.365159
-0.545128
-0.114441
-0.266407
-0.076323
0.470723
0.817740
0.267740
-0.987212
-0.976031
0.926793
-0.319236
-0.283490
0.406881
-0.255842
-0.537388
-0.054248
0.371386
-0.688635
-0.835144
-0.616969
0.669496
0.662500
-0.991241
-0.178454
0.851676
-0.115158
-0.061740
0.519691
-0.632414
-0.939071
-0.915461
-0.512283
-0.215066
0.620563
-0.705473
3.197754
-0.145099
0.469271
0.035268
-0.102493
0.615694
-0.711731
0.152556
0.179864
0.122348
-0.678213
0.819918
-0.827120
-0.532788
0.619630
-0.317385
0.267285
0.918339
0.936070
0.982360
-0.006098
-0.143848
-0.898186
0.159599
-0.319632
0.674589
-0.718026
-0.337890
0.605862
0.242013
0.408396
-0.926167
-0.320383
-0.761653
0.283831
0.160052
-0.118600
-0.382518
0.961327
0.266367
-0.930207
-0.737016
0.482976
-0.543745
0.319815
0.375175
-0.962341
0.685717
0.554966
0.051869
-0.291953
-0.989116
0.834606
0.714660
0.797208
-0.081384
-0.933781
0.928307
0.433467
0.385761
0.843965
-0.456215
-0.552893
-0.372457
0.945289
0.911600
-0.069468
-0.013699
0.434089
0.720660
-0.974635
-0.507145
0.715163
0.118243
0.674030
-0.189115
0.509372
-0.043861
0.222205
-0.658755
0.740711
-0.563737
0.000717
0.285704
0.097507
0.090257
-0.705085
-0.253040
-0.077144
0.010654
0.799103
-0.559677
-0.700271
0.251097
0.258400
-0.838559
-0.954170
0.095346
-0.358812
-0.734924
-0.779448
0.527105
0.037942
0.524035
-0.773212
-0.194346
-0.518416
0.296933
0.332318
-0.208836
0.017809
0.868947
0.982399
-0.950267
0.883466
0.004339
0.925209
0.581476
-0.051349
0.435985
0.378454
-0.302683
-0.233418
-0.637221
-1.197491
-0.325515
-0.684440
0.055700
0.481872
-0.193476
-0.649599
-0.200267
-0.890492
-0.017509
0.252363
0.173211
-0.691249
0.664261
0.634395
0.602004
-0.480301
0.973812
-0.039286
0.906284
0.848633
-0.711353
0.702793
-0.232797
-0.898870
0.133222
0.324595
-0.081039
-0.307667
-0.830216
-0.935658
-0.042783
-0.670972
-0.308780
-0.648618
-0.063036
-0.083594
-0.362819
0.811102
-0.592740
0.126540
0.191871
0.432420
-0.444044
-0.664884
0.659011
0.023067
-0.543262
0.265247
0.194497
-0.925255
-0.171314
0.908035
-0.173844
-0.503557
-0.868062
0.307199
-0.740463
0.415355
0.582794
-0.243874
-0.675986
-0.436884
0.946382
-0.043666
-0.097904
-0.152174
0.107929
0.651750
-0.899031
0.428233
0.455928
-0.026176
0.054520
-0.492767
-0.129429
-0.355865
0.808002
0.535096
0.665088
-0.400675
0.368502
-0.627407
-0.074457
0.397812
-0.064373
0.701401
0.095721
0.288453
-0.393357
-0.342342
0.980386
-0.440716
0.158452
-0.182039
-0.392898
0.595786
0.228690
-0.099360
0.835894
-0.928641
-0.626798
0.393361
0.228761
-0.466448
0.228989
0.789471
-0.909187
0.646234
-0.941118
0.840823
0.848150
0.443016
-0.437881
0.822222
-0.183357
0.870283
-0.771531
-0.769075
0.649327
-0.487694
0.443418
-0.642785
0.587852
0.071632
0.553740
0.487466
-0.044658
-0.342134
0.515493
0.962974
0.735363
-0.300225
-0.344427
0.306921
0.350989
0.927739
0.665952
-0.352122
0.190935
-0.428632
0.213314
0.465299
-0.808425
0.492186
-0.627470
0.502878
0.606242
-0.641798
-0.199174
-0.776473
0.409894
-0.532352
0.602096
-0.813453
-0.145154
0.155180
0.580926
0.546529
-0.519184
-0.958028
0.658278
0.358503
-0.514671
-0.995056
-0.337383
-0.472165
0.364337
0.186222
0.800015
0.111357
0.900190
-0.338102
-0.815883
-0.259873
0.403963
0.948807
0.983459
0.797719
0.796409
-0.451178
0.769441
0.473130
0.433849
-0.381634
-0.311196
0.073350
0.291100
-0.579393
-0.966652
-0.027249
0.718011
-0.265456
0.779630
-0.131864
-0.077634
-0.824555
0.621542
-0.867758
-0.830937
0.600087
0.269335
-0.964741
0.343544
-0.162659
-0.859156
-0.097846
-0.210969
-0.694038
-0.074297
0.676380
0.482965
-0.699468
-0.566210
-0.096420
-0.290325
-0.939895
-0.825836
-0.329730
-0.802232
0.909141
0.086123
0.308448
-0.230819
-0.911838
0.165662
-0.782943
-0.840551
0.537999
0.243171
-0.679897
0.373218
-0.353151
-0.640811
0.080648
0.031788
0.218581
0.732963
-0.827322
0.605422
0.634994
0.849056
0.034211
0.609045
-0.805929
-0.907919
0.503591
-0.779638
-0.914008
0.471827
-0.621340
0.930229
0.317617
-0.881798
0.501978
-0.797698
0.730893
0.331980
0.915092
0.927677
0.549074
-0.707685
-0.254462
-0.963548
0.547246
0.875360
-0.273367
-0.291528
-0.294216
0.590196
-0.074903
-0.809257
-0.182245
-0.336472
-0.412114
0.423837
0.694843
0.299058
-0.776982
0.848855
-0.708743
-0.873851
-0.006884
-0.812477
0.052079
-0.516574
-7.610035
-0.027781
0.318777
0.049746
-0.865553
0.032476
0.204759
0.755454
-0.885741
0.875508
0.634331
-0.025234
-0.746275
0.384803
0.087698
0.678977
0.365135
-0.578169
0.055950
-0.396122
-0.443497
0.855295
0.109846
-0.177495
0.029529
-0.447604
-0.294114
-0.351993
-0.871460
-0.351203
-0.928796
-0.873889
0.380262
-0.460108
0.109544
-0.262490
-0.969347
0.573910
0.298576
0.743948
0.545045
-0.118768
0.323536
-0.710829
-0.353584
0.555514
-0.552494
0.555169
-0.307762
-0.267535
-0.135724
-0.331717
-0.407914
-0.001506
-0.870046
0.737785
-0.286409
0.918135
-0.669614
-0.269171
0.154958
0.410973
0.704669
-0.422389
0.315520
0.714433
-0.676472
0.142773
0.446538
0.398412
0.929573
-7.462700
0.435250
0.593099
-0.579986
-0.585377
0.532080
-0.129657
0.362020
0.600312
0.835189
0.372564
0.166599
0.259428
-0.877766
0.020311
-0.747593
0.246210
0.903650
-0.076107
-0.719127
0.337498
0.127159
-0.635653
0.073751
0.847142
-0.663318
-0.381290
-0.518929
-0.751430
-0.209787
0.810943
-0.500408
0.551147
0.076357
0.470645
0.819337
0.868497
-0.159913
-0.205617
-0.590273
0.662330
-0.238283
0.147877
0.987842
-0.323532
-0.207184
-0.619257
0.469139
0.219449
-0.046397
0.296394
-0.114448
0.174639
0.612733
0.469470
-0.488900
-0.362031
-0.890992
-0.547252
-0.004928
0.746431
0.413221
-0.904166
0.376653
-0.625212
-0.228497
0.993846
-0.593641
0.414928
-0.091641
0.993554
-0.115177
-0.631910
0.033973
-5.795754
-0.185518
-0.207058
0.936800
0.007082
-0.329596
-0.900858
-0.815107
-0.311162
0.366498
-0.197648
-0.160950
0.289522
-0.172341
0.842871
-0.880047
-0.071893
-0.404324
-0.669300
-0.954295
0.911617
-0.336332
0.809288
0.281285
0.338632
0.540568
0.415210
-0.808385
0.191938
0.399498
0.094326
0.199037
0.915993
-0.072333
-0.704728
-0.485165
0.319814
-0.326171
0.508337
-0.055656
0.471306
-0.499328
0.467697
-0.170241
-0.378594
0.455802
0.759331
0.431686
0.961471
-0.849193
0.280003
0.186232
0.939183
0.240641
0.799088
-0.159693
-0.244461
-0.947391
-0.820285
0.804298
0.384215
-0.845934
0.895113
0.765595
0.541817
-0.813024
-0.968356
0.398657
0.768117
-0.433146
-0.225720
0.011940
0.908995
-0.848262
0.224232
0.333418
-0.982312
-0.682741
-0.471751
0.394364
0.861882
0.893776
-0.254214
-0.508167
0.902418
0.144870
-0.905989
0.562919
0.492849
-0.261862
-0.182560
-0.997147
0.110535
0.154734
-0.003022
0.416050
0.520429
0.674832
-0.129634
-0.370312
-0.939948
-0.490364
0.623864
-0.736122
-0.802132
-0.574517
0.894339
-0.019710
8.699525
-0.807788
0.943244
-0.682262
0.071767
-0.222889
0.181702
-0.233152
0.446374
0.883786
-0.451867
-0.837613
0.403531
0.857163
0.186116
0.596358
-0.140267
-0.296512
0.705812
-0.235908
0.423212
-3.021370
-0.087330
0.587892
-0.355145
-0.625640
-0.735884
-0.298092
-0.473746
0.288411
-0.555009
-0.746120
1.099056
0.300652
0.302559
0.634937
0.051836
-0.467558
-0.575078
-0.920652
-0.959163
0.263359
0.819342
0.500420
0.826465
-0.328627
-0.469334
-0.672764
0.391372
0.538949
-0.491805
0.147928
-0.093105
0.441597
0.869078
0.816144
-0.721188
0.799399
-0.271425
0.885905
0.864067
0.522349
-0.561013
-0.727164
0.129532
0.885712
0.364585
-0.162390
0.421661
-0.470302
-0.618832
0.888485
0.756295
0.121741
0.718804
0.943328
0.758593
-0.760067
0.449227
-0.816845
0.214487
0.268527
0.410630
-0.197747
-0.479783
0.232990
0.466318
-0.065809
0.080230
-0.942965
-0.792322
9.637559
-0.070427
0.623206
-0.723318
0.091194
0.558334
0.420712
0.841811
0.627023
0.545708
-0.494365
0.956435
-0.325958
-0.906379
-0.438278
-0.086523
0.300891
0.357655
0.799176
0.856963
-0.979597
-0.497887
-0.758593
0.247632
-0.595608
0.814483
-0.237298
0.216406
-0.971161
-0.025863
-0.322519
0.856784
-0.094155
-0.061969
-0.393855
-0.979563
0.004428
0.369984
-0.207161
-0.601942
0.766192
0.502858
0.082046
-0.482135
-0.670860
-0.694425
-0.684194
-0.948803
-0.781315
0.953659
-0.584642
0.584400
0.004151
-0.757156
0.071412
0.770055
-0.263547
0.103646
-0.563700
0.371215
0.461066
-0.693005
-0.334684
-0.386235
0.917171
0.135273
0.284730
0.702619
-0.502656
-0.020479
-0.482478
0.442136
-0.510572
0.520683
-0.071993
0.516718
-0.640326
0.111537
0.632982
-0.709467
-0.315385
0.293190
-0.868058
-0.071994
0.690248
0.232876
0.184681
-0.217371
0.865886
0.057601
-0.404266
-0.052935
0.061605
-0.919410
0.996524
0.845909
0.941496
0.303695
0.358577
-0.015349
-0.924591
-0.793165
0.134949
-0.037024
0.712135
-0.445350
-0.579259
0.775317
0.521358
-0.067502
-0.213703
-0.346448
-0.635008
0.498744
0.193087
-0.310868
-0.524860
-0.055732
-0.852031
-0.261927
0.177055
-0.800631
0.905445
0.573619
0.420176
-0.406393
-0.192540
-0.263799
-0.370245
0.273718
0.183782
0.322547
-0.727377
0.534116
-0.991517
-0.786657
0.350276
-0.021399
-0.708325
-0.963275
0.278317
0.834614
-0.257852
-0.168345
-0.321926
0.963604
-0.318049
0.097651
0.695689
0.107922
-0.134349
0.467028
-0.945231
0.592935
-0.643029
0.887580
-0.451629
0.294070
0.634492
-0.660691
-0.401347
0.561223
0.702322
-0.995993
0.391775
0.242994
-0.779634
-0.104668
0.610812
0.667439
-0.699154
0.977714
0.515156
0.241076
0.174349
-0.841713
-0.444117
0.388438
0.668743
-0.934050
0.940963
0.208180
-0.311941
0.020850
-0.148213
0.568562
-0.319399
0.673493
-0.853466
0.701269
-0.849231
0.980453
0.955143
-0.245356
0.506911
0.418169
-0.892546
0.885060
0.311702
0.817782
-0.964743
-0.830034
0.128181
0.708782
-0.185801
0.191427
0.746367
-0.143610
-0.642714
0.278573
-0.500525
-0.766882
0.038599
0.225949
-0.870966
0.309701
0.102712
-0.769188
0.203042
0.520528
-0.264240
-0.665003
-0.655007
-0.283788
0.515695
0.203719
0.859793
0.889733
-0.880524
-0.935476
0.884263
-0.827515
0.814824
0.842832
-0.431895
0.232286
0.412571
0.522304
-0.304221
0.571372
-0.564889
-0.699735
0.660074
-0.895111
-0.022397
-0.501782
0.748573
0.413691
-0.035728
0.905222
0.054387
0.989472
0.886053
0.534625
0.627501
-0.018491
0.764270
0.884410
0.151580
0.212800
0.827981
0.305669
0.480194
-0.636078
-0.203983
0.582486
-0.042862
0.399146
-0.812277
0.672029
0.199513
9.667246
-0.065511
-0.947895
0.889814
-0.136468
0.262123
-0.099347
0.695309
0.681532
0.855561
-0.496310
0.249853
-0.378119
-0.321777
0.075146
0.282155
0.270418
-0.725208
0.022271
-0.726935
-0.948373
0.052512
-0.153049
-0.080552
0.724373
0.643288
0.264701
0.525863
0.703410
0.121758
-0.695898
0.292709
-0.822555
0.490969
0.247730
-0.623135
0.969713
0.963019
0.826565
0.137171
-0.156965
0.656068
-0.503627
-0.892870
0.759004
-0.654711
0.279549
0.324532
-0.454230
-0.008191
0.233398
-2.357055
0.329799
0.236609
0.383368
0.258511
-0.475738
-0.214617
0.186064
-0.693848
-0.135283
-0.365183
-0.653991
0.522539
0.996544
-0.613804
0.677739
0.216024
0.704422
0.615317
0.235610
0.730033
0.162186
0.106645
-0.691044
-0.230836
-0.349109
-0.767358
-0.359785
-0.040415
-0.242847
-0.939524
0.580279
0.252121
0.553414
0.229347
0.684225
-0.034334
-0.911688
-0.318505
0.031020
0.542474
-0.745821
0.504258
-0.578190
-0.070520
0.586399
0.591240
0.744152
0.330744
-0.700351
-0.184511
-0.597442
-0.182994
-0.214136
0.845034
0.828116
0.669469
-0.783446
-0.746210
0.547131
-0.966009
-0.174072
0.832290
-5.808214
0.660140
-0.958356
-0.244278
-0.182078
-0.257339
0.681640
-0.303194
-0.589864
-0.123638
-0.468574
0.262441
-0.508013
0.125131
-0.531440
-0.426778
0.001792
0.970980
0.201154
-0.400460
0.997475
-0.747231
0.393849
-0.113905
-0.531722
-0.579711
0.774336
0.268242
0.111572
0.280680
0.109920
-0.452598
0.100476
-0.877657
0.028162
-0.653392
0.477969
0.703453
0.838732
-0.961995
0.145873
-0.570246
0.282818
-0.711859
-0.282759
0.607340
-0.171265
0.971835
0.003554
9.530657
0.754555
-0.414792
-0.946505
-0.578793
-0.815283
-0.201425
-0.340989
-0.549846
0.978529
-0.565870
-8.541706
-1.931705
0.828992
-0.322746
-0.542290
0.148899
-0.301646
-0.903560
0.493317
-0.779078
0.811173
0.592422
0.496380
0.251533
0.458596
-0.210466
-0.995795
-0.524130
-0.453279
-1.031024
0.099475
0.690141
3.310484
-0.368352
0.404428
0.941547
-0.473673
0.939963
0.364035
-0.520315
0.589724
-0.688018
0.032830
0.747661
-0.433117
0.092580
0.367131
-0.409662
-0.096748
-0.934245
-0.845130
0.440769
-0.477406
0.094451
0.084561
0.785291
0.670624
0.508679
0.329707
-0.951491
0.052178
-0.820119
0.563937
-0.317596
-0.085163
0.675298
0.643272
-0.319769
-0.732252
0.796976
-0.511575
0.689324
0.256003
-0.963938
0.695346
0.633494
0.890473
0.106478
-0.112617
-0.351106
-0.555003
0.580503
-0.816686
0.964008
-0.564089
0.193022
0.074362
0.295099
0.189227
0.774229
-0.737248
-0.225228
-0.142787
0.783020
0.568338
-0.892430
0.045311
0.059587
0.448166
0.594401
-0.788768
-0.675055
-0.580648
-0.406884
-0.888115
-0.886039
0.780401
-0.748030
0.928881
0.114980
0.786385
0.359221
0.369994
-0.667454
-0.157990
-0.845227
-0.385357
-0.281088
0.951879
0.306413
0.280586
-0.571591
-0.427909
-0.591176
0.894786
-0.455686
0.726932
0.725109
-0.278539
0.255396
-0.337040
0.586472
0.378162
0.880747
-0.487996
-0.230402
0.090859
-0.515109
-0.960922
-0.021827
0.340886
-0.847473
-0.248466
0.329339
0.284790
0.776320
-0.556647
-0.238495
-0.521205
-0.449187
-0.692768
0.094052
-0.727741
-0.733487
0.514016
-0.363555
-0.987640
-0.612321
-0.393213
0.852744
0.497012
-0.154556
-0.241711
-0.520242
0.522970
-0.560284
-0.495336
0.888007
0.846100
0.275722
0.695791
-0.580589
-0.905098
-0.919411
0.833950
0.550453
-0.163741
0.313153
-0.547705
0.648441
-0.909479
-0.297153
-0.911095
-0.705897
-0.933910
0.784122
0.610436
-0.082471
0.567542
-0.201540
0.188138
0.399859
0.256164
-0.132731
0.841152
-0.654082
-0.904275
0.305145
0.137604
-0.808369
-0.905613
-0.611190
-0.063495
0.676610
-0.815264
0.020136
0.980036
0.908834
0.106654
-0.150158
0.515878
-0.904879
0.701455
-0.316764
-0.543449
-0.522996
-0.084277
0.507888
-4.778773
-0.211151
0.655654
0.036826
0.529407
-0.726819
-0.935902
0.431874
0.836142
0.635825
-0.220808
-0.250737
0.375322
-0.381773
-0.192397
0.107324
0.958619
-0.512652
-0.713486
-0.747592
0.782443
-0.982714
0.651230
-0.041804
0.236935
-0.907917
-0.515686
-0.711995
0.654578
-0.209907
-0.369131
0.896304
0.768954
-0.164595
0.345256
-0.270406
-0.493665
-0.973000
0.700709
0.537086
0.105938
-0.605599
0.708931
0.731825
-0.797777
-0.458918
2.179650
0.444828
-0.681049
-0.667805
0.336613
0.609111
0.908077
-0.636390
-0.284049
-6.545820
-0.132351
-0.391467
-0.320052
-0.225823
-0.674431
-0.451801
0.361849
0.620574
-0.622455
-0.537075
-0.800288
-0.014099
-0.093097
0.020805
0.031158
-0.022956
-0.927269
-0.724472
-0.839217
-0.503132
-0.162840
0.544087
0.966168
0.463317
-0.125761
0.512628
-0.026388
-0.100044
0.626201
0.461282
-0.343948
0.340092
0.820660
-0.609805
0.597725
0.723475
-0.870183
-0.954591
0.507974
-0.088595
0.998440
-0.997392
0.115161
-0.523390
-0.671976
-0.709209
-0.470964
-0.731428
-0.320133
0.414789
0.989441
0.464885
0.344242
-0.255407
-0.416129
0.352458
-0.368981
0.218683
0.057345
-0.556099
0.387990
0.914782
-0.824386
0.113064
0.785414
0.209016
0.312562
0.972615
-0.690298
-0.324445
-0.760508
-0.745267
0.684692
-0.300316
-0.931116
0.769032
-0.896733
-0.818159
-0.869910
-0.138063
0.508208
-0.665015
-0.823336
-0.165312
0.909599
-0.287580
0.593743
-0.703785
-0.763536
0.358646
0.919242
0.054027
-0.667024
0.061133
-0.176290
0.711503
0.763618
-0.274798
-0.607116
0.027913
-0.627182
0.009444
-0.321913
0.133553
-0.785803
0.930284
0.118609
0.795332
-0.163372
-0.801739
-0.905046
1.012774
0.168887
0.127130
-0.141657
0.399750
-0.418632
0.143771
-0.354786
0.342942
-0.511416
-0.569161
-0.805589
-0.716274
-0.777316
0.642202
-0.013423
-0.510718
-0.764852
0.767576
0.417844
-0.261562
0.326830
0.292876
0.514332
0.197325
-0.581481
-0.381235
-0.440624
-0.044426
-0.052864
-0.449086
0.080215
0.280522
0.078963
-0.238321
0.608349
0.126909
-0.411236
0.967996
0.630862
0.089173
-0.325177
0.768975
-0.830921
-0.889893
-0.728202
-0.223254
-0.489113
-0.013387
0.534126
-0.174032
0.744789
0.457192
-0.009539
0.009073
-0.611295
0.735163
-0.161657
-0.533305
-0.437141
0.011139
0.334352
0.715369
0.136256
-0.324600
-0.319320
0.247484
-0.937111
0.625506
1.153417
-0.910399
-0.828345
-0.117854
0.719073
0.201131
-0.785747
-0.020654
0.876137
0.195390
-0.393525
-0.202484
0.256660
-0.420033
0.320108
-0.262348
0.309244
-0.459176
0.214154
-0.303174
0.702198
-0.622711
-0.137987
-0.922208
-0.070100
-0.701539
0.865662
-0.465969
-0.405550
0.132141
-0.277114
0.179068
0.706308
-0.680676
-0.039957
0.612263
0.086039
-0.119131
-0.374399
0.166191
0.994854
-0.085298
-0.366274
-0.152790
-0.954547
0.651414
-0.530796
-0.856995
-0.702371
0.245541
0.403689
-0.342419
-0.675465
0.700932
0.894633
0.343969
0.210788
-0.379850
-0.130160
0.669101
-0.216218
0.670025
0.950102
-0.166838
-0.464504
0.470320
-0.268967
0.407261
0.139961
-0.163195
0.855248
-0.419796
0.327339
0.855109
0.538973
-0.894383
-0.260572
0.443503
-0.106821
-0.169939
0.012044
-0.446705
0.418147
-0.414745
0.658065
-0.372536
0.635998
-0.884449
0.893675
0.552223
-0.969815
0.527465
0.479392
0.221106
-0.003140
-0.824193
0.869985
-0.621823
0.666915
-0.734776
-0.379087
0.511091
0.049995
0.377321
0.251791
-0.929984
0.882583
0.252186
0.075978
0.203123
0.060143
-0.794750
0.051479
-0.965021
-0.430356
0.314328
0.393650
-0.802921
0.918303
0.678564
0.595139
0.673324
-0.034948
-0.505435
0.672975
-0.206911
0.064427
-0.363505
0.989170
-0.433311
0.662921
-0.178367
-0.391975
-0.148100
0.316119
-0.861613
0.889032
0.755889
-0.517881
0.028024
-0.789255
0.759265
0.011486
-0.328996
-0.004816
0.535834
0.988831
0.913493
-0.302062
0.355355
-0.662804
0.861500
-0.520401
0.942763
-0.152108
-0.268063
-0.505648
-0.245031
-0.601888
-0.440741
-0.351749
-0.917948
0.045508
1.031401
0.822076
-0.460604
0.062426
0.231531
0.311102
0.402735
0.126775
-0.184087
-0.817297
0.993280
0.148560
0.469681
0.588731
-0.546056
0.781694
-0.766037
-0.716727
-0.725393
0.165272
0.395933
0.862879
-0.666903
-0.963582
0.004872
0.124761
-0.593524
0.505902
0.848111
-0.856959
-0.366399
-0.397694
0.284523
0.405688
-0.667411
-0.445496
-0.069268
-0.875471
0.135703
0.067137
-0.520472
0.188727
-0.198102
0.614917
-0.918849
-0.274948
0.021870
0.865847
0.914579
0.003084
0.534266
-0.086904
0.900572
-0.345582
0.340707
0.908332
-0.487576
0.552396
0.649830
0.423459
0.266954
0.209606
-0.205398
-0.603814
0.013978
-0.183086
0.600979
-0.199197
0.777978
-0.619057
0.206875
-0.020553
0.572888
0.495139
0.741263
0.381263
-0.593377
-0.173349
0.763577
0.622837
0.133623
0.518668
0.216611
-0.394948
0.191969
0.812278
-0.303336
0.777424
0.266743
0.678582
0.033330
0.661916
0.528762
0.596037
-0.023103
0.591076
0.194256
-0.581422
0.166246
0.611695
0.379820
0.879351
-0.257766
-0.271793
0.332282
-0.868585
0.911948
-0.525208
0.060891
0.153629
-0.990398
0.754231
0.333895
-0.642022
-0.679205
0.402900
0.876355
-0.921495
0.609732
-0.569864
0.189483
0.608501
0.570128
0.916231
-0.627252
0.426332
0.639282
0.398588
-0.152703
-0.615271
0.885676
-0.936994
0.514719
0.732049
0.336638
0.331804
-0.983623
0.596484
-0.247901
-0.948956
-0.701476
0.668980
-0.987733
0.869193
0.759073
0.196157
0.606461
-0.411007
0.959890
0.567344
0.761217
0.331790
-0.831369
-0.112346
-0.682799
-0.274788
-0.400124
-0.113414
0.051566
-0.576261
0.161061
-0.087583
0.362692
-7.710297
0.766899
0.330187
-0.324650
-0.380841
-0.826853
-0.770128
0.087796
-0.139612
0.838694
-0.358671
-0.650823
-0.823063
-0.968017
-0.647844
-0.527879
-0.110985
-0.932035
0.816370
0.906248
0.707661
-0.219680
-0.804731
-0.834998
-0.802717
-0.534563
0.718936
-0.543443
-0.483916
-0.137045
-0.709528
0.198460
-0.751260
-0.749864
-0.159448
0.152298
0.915300
0.350858
0.116566
-0.463633
-0.870178
-0.394023
0.483057
0.743202
-0.597858
-0.030402
-0.499188
0.289071
0.593672
0.132737
0.751571
-7.700133
0.625429
0.619307
-0.887582
-0.889636
-0.488655
-0.144588
-0.253593
0.269745
0.165893
0.491647
0.710619
-0.205441
-0.586149
-0.694228
0.288907
0.082309
-0.219654
-0.310778
-0.480971
0.824984
-0.987778
-0.068657
-0.635683
-0.605514
-0.555133
0.647202
-0.838213
0.048565
0.184253
0.678578
0.962880
0.277869
-0.582204
0.022947
-0.721141
-0.480844
0.588783
0.399673
0.848998
0.820036
-0.405424
-0.419604
0.339570
0.359575
-0.010800
0.032507
-0.301204
0.316450
0.314097
-0.693251
-0.647777
0.171974
-0.616548
-0.008383
0.432941
-0.024841
0.077423
0.071058
-0.230528
-0.360621
-0.281056
-0.241485
-0.083188
0.456846
-0.794284
0.376880
0.646721
-0.310999
-0.718403
0.652679
0.647812
0.001439
0.207792
-0.499490
0.325954
-0.450426
0.711317
0.150921
-0.785916
0.542970
-0.867688
0.296926
-0.762624
0.092436
0.856575
-0.008214
0.145221
-0.847882
-0.292516
0.032451
-0.437723
0.807270
-0.953765
0.572791
-0.200223
-0.318759
-0.137290
0.440370
-0.488932
0.949947
0.326022
-0.896368
-0.219293
-0.394460
-0.944363
0.545184
0.214205
-0.583068
-0.258334
-0.295332
-0.489544
-0.677585
0.536586
0.368675
0.637027
-0.949395
0.003340
-0.228958
-0.475824
-0.364687
0.166371
-0.754335
0.659056
-0.669071
0.531247
-0.821472
-0.179081
0.862990
0.543061
-0.344333
9.128730
-0.812082
0.038356
-0.674280
-1.444197
-0.375173
0.327409
0.662924
0.524015
0.179838
-0.295552
-0.475741
0.258992
0.711795
0.280850
-9.754417
0.215832
-0.794394
0.374606
-0.596687
0.231179
0.875361
-0.660366
0.189045
-0.908649
-0.834702
-0.676418
0.644295
0.443460
0.440416
0.761783
0.013228
-0.095668
-0.670869
-0.671566
-0.667211
0.423237
-0.858124
0.266170
0.182232
0.622643
-0.716980
-0.966467
0.080082
0.111445
-0.258061
-0.711281
-0.102581
-0.208156
0.524436
-0.619277
-0.447664
-0.102437
0.629549
-0.820321
0.252153
-0.603668
0.737907
0.519697
0.238927
0.171452
0.877610
-0.079455
0.429737
-0.529714
0.687142
-0.679723
-0.540538
-0.958666
0.517665
-0.388791
-0.243838
0.448156
-0.237247
-0.505582
-1.077065
-0.082270
-0.527626
-0.730808
0.190226
0.674113
-0.100107
-0.921405
0.142352
0.567837
0.036328
-0.489068
0.132103
0.282614
-0.221798
0.293317
0.282414
-0.147115
0.710739
0.491197
-0.589276
0.189018
-0.340532
-0.542028
-0.304882
0.699374
-0.501131
0.762753
0.564112
0.349048
0.113612
0.974025
-0.345956
0.573309
0.554246
-0.710524
0.952241
0.294766
0.607288
0.268789
-0.596700
0.090707
0.690695
0.959643
-0.860502
0.021934
-0.726316
-0.141908
0.308771
-0.330391
0.176564
0.895775
-0.992308
0.997224
-0.838506
-0.835110
0.886041
-0.837539
0.431930
0.066994
0.435189
0.341298
-0.001585
0.811481
-0.231847
-0.463915
-0.996199
-0.523475
0.404380
0.863647
-0.511016
0.692063
0.902582
-0.020074
-0.407338
-0.588160
-0.912563
-0.578239
0.448392
-0.668632
-0.487135
0.572113
-0.283820
-0.075706
0.828564
0.046036
0.646299
-0.517483
-0.768521
0.846244
-0.264396
0.896761
-0.120328
0.698042
-0.022971
0.424181
-0.445959
0.203233
-0.665430
-0.055596
0.539080
-0.338593
0.485536
0.704536
0.494398
0.843832
-0.395907
-0.377766
0.382450
0.464553
0.402473
0.014680
-0.426989
0.278150
0.897059
-0.654725
0.867342
0.528851
-0.116031
-0.604935
0.022542
0.931956
-0.706312
-0.860681
-0.436646
0.310065
0.645157
-0.293071
0.695065
0.430250
-0.796525
0.849331
-0.434719
-0.093844
-0.331377
0.747950
-0.295859
-0.016053
-0.989011
-0.947325
-0.236354
-0.761371
-0.517571
0.540002
-0.970429
0.448090
0.623824
-0.147723
0.326001
-0.254243
-0.700304
-0.481230
-0.609804
0.319052
0.742808
0.329152
0.430459
-0.961602
-0.071179
0.375668
-0.198601
0.016113
-0.669038
-0.206998
-0.521452
-0.034155
-0.420593
0.448750
0.794025
-0.986203
-0.157513
0.998609
0.502385
-0.937960
-0.674610
-0.100819
-0.341107
0.751592
-0.758518
0.369173
-0.288938
-0.062170
-0.582710
0.056950
0.845849
0.967242
0.506940
0.852727
0.675038
0.274355
-0.386178
-0.089786
0.362684
-0.689143
0.571521
0.168543
0.982978
0.110688
0.836858
-0.245130
-0.067745
-0.459819
-0.918332
-0.185685
-0.675448
-0.158987
0.204360
-0.579755
-0.097504
-0.008858
-0.007306
-0.652085
0.486766
-0.964438
0.216041
0.024006
0.633808
0.204803
0.196474
0.719361
-0.999462
0.412058
0.433102
-0.952376
0.178522
-0.152150
-0.084035
-0.511415
-0.721933
-0.691515
0.330156
0.961364
0.147554
0.648765
0.809779
0.945247
0.080038
-0.336845
-0.535520
0.668881
0.981141
0.900155
-0.914118
0.531868
-0.416806
0.062490
0.935941
0.392290
-0.967463
-0.067214
0.482861
-0.667914
-0.036738
0.516768
-0.351598
-0.877639
-0.286600
-0.255199
-0.109369
-0.945634
-0.272020
-0.033890
0.976749
-0.882223
0.541763
-0.584143
-0.961271
-0.633535
-0.801445
0.687121
-0.872428
0.294176
0.334828
-0.626161
-0.741243
-0.523546
0.742737
0.207408
-0.891554
-0.888732
0.284081
0.969201
0.752952
0.691990
-0.434694
-0.025668
-0.378496
-0.916866
-0.472493
0.481976
-0.832543
-0.041274
-0.218337
0.888833
0.334344
0.901224
0.372517
0.007815
0.393718
-0.699746
0.476409
0.607520
0.779801
9.453810
-7.432737
-0.658383
0.700678
0.372148
0.445958
0.954509
0.147343
-0.233845
0.520087
0.583400
0.462988
-0.701403
-0.822437
0.705081
0.848118
-0.549916
-0.528527
0.744704
-0.863863
-0.149719
-0.247601
-0.129770
-0.998076
-0.774665
0.626489
0.905852
-0.369399
0.414116
-0.671657
0.055731
0.289058
0.435958
0.041747
-0.457078
0.192626
0.228746
0.281029
-0.064838
0.069945
-0.950586
-0.342904
0.866714
-0.446544
0.566803
0.665895
-0.977042
-0.750982
-0.958966
0.047700
0.225442
-0.053326
0.916916
-0.392956
0.852334
-0.782354
0.461037
0.937724
0.879843
-0.270002
0.066153
-0.428221
-0.861828
0.775236
0.942522
-0.168092
-0.326332
0.573590
-0.892570
0.188327
0.628311
-0.269334
-0.584996
0.255189
-0.856688
-0.131725
-0.978552
0.732705
-0.101414
0.263942
0.346182
-0.758312
0.063002
0.369017
-0.307282
-0.705131
-0.409696
-0.001637
-0.302052
0.407586
-0.207932
-0.980584
0.531688
0.359287
-0.654257
-0.711836
-0.328322
-0.830126
-0.133249
-0.842624
-0.063504
-0.405893
-0.749254
-0.578777
-0.229680
-0.565625
0.619132
-0.039662
0.834988
0.759678
-0.949257
0.382187
-0.922785
-0.547684
0.005558
0.813687
0.508728
0.539528
0.353500
0.526664
-0.361148
-0.550966
-0.024343
0.166760
0.075724
0.300911
-0.221975
-0.398206
0.961912
-0.435231
-0.446031
-0.396840
-0.329216
0.464889
0.447084
-0.786526
0.192807
0.891277
-0.875492
-0.981714
-0.268589
0.972930
0.862024
-0.106367
-0.156667
0.182564
-0.850091
-0.653055
0.299424
-0.497386
-0.466413
-0.409398
0.299437
0.275216
-0.638793
0.683157
0.065409
-0.700818
0.608192
0.822511
-0.198259
0.490121
0.571049
-0.152125
0.778624
0.211385
-0.402905
-0.409661
0.495430
-0.547299
0.234703
-0.004191
0.222916
-0.019148
0.295965
0.149753
0.069752
-0.710568
-0.813740
0.910641
-0.510673
0.556412
-0.979105
0.840751
-0.021140
-0.696222
-0.886471
0.477328
-0.672919
0.215066
0.251031
-0.250549
-0.151707
0.129610
-0.006378
0.630303
-0.757870
-0.994206
0.699917
-0.877466
-0.024147
-0.629829
0.958239
0.230684
-0.945357
-0.634470
-0.569878
-0.007727
0.019665
-0.460780
-0.950588
0.962796
-0.872517
0.346297
0.375999
0.398814
0.505022
0.235361
-0.181086
5.017763
-0.189972
0.717077
-0.855856
-0.964732
-0.842028
-0.352497
-0.509920
-0.681138
0.105675
0.397414
-0.204479
0.485190
0.521972
-0.488128
-0.588594
0.773136
0.834545
0.810960
0.829337
-0.910803
-0.786142
-0.419216
0.241754
0.123465
-0.807036
0.549482
0.773524
0.030618
0.816515
-0.266302
0.972178
-0.196582
-0.719186
-0.532699
0.437579
-0.091089
0.351921
0.816554
-0.791131
-0.567631
0.844156
-0.942396
0.559722
0.263698
0.053927
-0.698145
0.505537
-0.201657
-0.754972
0.600402
-0.768629
-0.309731
0.858620
-0.383159
0.364739
0.656206
-0.776539
-0.333171
-0.145514
-0.024141
0.637234
-0.590529
-0.029627
-0.796313
0.882462
0.512059
0.518700
0.202225
-0.046593
-0.418203
0.257722
-0.831049
0.170624
-0.206636
-0.954912
0.191984
0.385632
0.346890
-0.828220
0.397013
0.580919
0.177203
0.547697
0.547794
0.107310
-0.857196
0.975295
-0.881325
-0.830363
0.083655
0.360328
-0.535440
0.874956
0.157596
-0.987385
0.660927
0.974985
-0.486693
-0.733310
0.869098
-0.067606
0.231205
0.725447
0.065605
0.707848
-0.353297
-0.791500
-0.627197
0.411371
0.649935
-0.611957
0.851190
-0.487449
0.116545
-0.027341
-0.442538
0.632695
0.483004
0.394060
0.987095
0.999684
0.234096
-0.289725
-0.985638
0.671255
-0.734867
0.821758
0.203168
0.574801
-0.983550
0.620449
-0.542952
0.268949
0.730718
0.619296
0.446397
-0.257048
-0.044022
-0.046821
-0.545799
0.590773
0.429870
0.675572
0.545333
0.000711
0.516642
-0.288756
-0.388208
0.364851
0.818934
-0.060050
-0.288528
0.791425
-0.845590
-0.800058
-0.945028
0.043129
0.853249
-0.836105
0.389189
-0.437688
0.339095
0.631920
-0.968302
-0.086816
-0.685387
-0.875464
-0.846064
0.912904
-0.340807
-0.515976
0.959437
-0.957340
0.604645
-0.026604
-0.423855
-0.115742
0.562136
0.529267
-0.759758
-0.241929
0.850520
-0.590817
0.281597
-0.030139
0.817944
-0.045237
-0.654608
-0.525144
0.667946
0.313358
-0.982985
-0.514079
-0.008453
0.090059
0.605655
0.716342
0.380397
0.766871
0.021179
-0.769533
-0.450619
-0.694900
-0.046667
-0.147633
0.159844
0.568224
-0.277101
0.544041
-0.797269
-0.311095
0.761853
0.876249
0.589880
-0.637887
-0.973387
0.655613
0.251869
0.861593
0.599309
-0.219603
0.994295
-0.316140
-0.068003
0.752862
-0.242484
0.084832
0.938245
0.276416
-0.905651
0.006613
0.277896
1.163293
0.089943
-0.630581
-0.982433
0.917648
0.371795
-0.711054
-0.708636
0.027821
-0.959653
0.210946
-0.294204
0.473068
-0.369965
0.119486
-0.946351
-0.872445
-0.431429
-0.686031
0.078024
-0.236358
0.926412
-0.476933
-0.319541
-0.071963
0.151507
-0.886835
-0.290163
0.942932
-0.771926
0.782091
-0.117467
0.419693
-0.260314
-0.535264
0.272149
0.435451
0.233476
-0.172583
0.738886
0.492753
-0.897194
-0.859848
-0.877316
0.726823
-0.880915
-0.547279
0.961280
0.922920
0.239954
0.508148
-0.949526
0.992736
0.072065
-0.254777
0.837417
-0.496232
0.004908
-0.814071
0.148017
0.934200
0.164521
-0.953728
0.985748
-0.464549
0.590336
-0.338950
1.075715
-0.589035
-0.994448
-0.485872
0.155420
0.230396
0.276924
-0.319657
0.768058
0.564047
0.707527
0.007027
0.874832
-0.156516
-0.516074
-0.241891
0.175422
-0.305035
-0.750313
-0.268169
-0.948801
0.776823
-0.621027
0.525974
0.717724
-0.090325
0.170602
-0.478830
0.366507
-0.308737
0.897396
0.766671
-0.173979
0.059682
-0.819113
0.523958
0.700604
0.890648
-0.939188
-0.347399
0.034287
-0.518818
0.733449
-0.925495
0.459238
-0.348142
0.816694
-0.259484
1.646920
-0.147410
-0.802181
0.203162
-0.215686
-0.422603
0.050506
0.052913
0.314111
-0.583465
-0.986763
-0.981273
0.780400
-0.019847
0.019078
-0.208804
-0.509625
0.318169
0.829828
-0.176442
-0.979450
0.521389
0.340081
0.105469
0.416202
-0.524096
-0.152644
0.741817
0.210911
0.095352
0.042128
-7.477509
0.464395
-0.854975
-0.365519
0.503394
0.630997
0.469303
-0.242960
-0.200532
0.765545
-0.814050
-0.182041
0.706706
-0.586202
0.712801
0.567426
0.193402
-0.169406
0.648048
-0.286266
-0.526449
0.766712
-0.534550
0.070092
-0.409984
0.953734
-0.483353
-0.736932
-0.211917
-0.742529
-0.222044
-0.178707
-0.682959
-0.807893
-0.952756
0.948859
-0.968085
-0.655690
0.929365
-0.907886
-0.746910
-0.475969
-0.027745
0.697322
0.309308
0.631461
0.962654
-0.437645
0.519051
0.958524
-0.288717
-0.698578
-0.064843
-0.927506
0.085558
-0.606411
-0.085872
-0.708152
0.513919
-0.716850
0.229408
-0.918226
0.304948
-0.989460
-0.306659
-0.370947
-0.741463
-0.713600
-0.287554
0.779157
0.494224
-0.975397
0.892639
0.546422
-0.187347
-0.432901
0.109491
0.304342
-0.844594
-0.465451
-0.059545
0.551113
0.868708
-0.897045
-0.497528
0.682274
0.107682
0.603657
0.100226
0.793879
0.229813
-0.647184
-0.921928
-0.385279
0.696772
0.412921
-0.731598
-8.568682
0.570962
0.546237
0.073358
0.337998
-0.053253
0.188116
-0.526377
-0.126850
-0.174030
0.771640
0.135528
-0.913868
0.765517
-0.138399
0.471519
-0.110128
0.028782
0.991449
-0.280023
0.441597
0.137017
0.485565
0.454122
-0.796316
0.622137
-0.434021
0.563313
0.510924
-0.807758
0.872084
-0.876125
0.173157
-0.872413
-0.411150
0.966455
0.438653
-0.518431
-0.999250
0.530882
0.718195
0.271254
0.414411
-0.760857
0.772169
-0.823815
0.051566
-0.186410
0.169379
-0.693585
-0.914403
-0.138117
0.459294
0.884272
-0.948672
0.658331
-0.770781
0.239270
-0.495547
0.165081
-0.350181
-0.613394
-0.492408
-0.131956
0.788493
0.641972
0.890913
-0.413984
-0.347193
-0.413259
-0.449843
0.429603
0.209121
0.663295
-0.163881
0.363628
-0.519160
-0.079444
0.990483
0.367664
0.730714
-0.761813
0.707429
-0.603076
0.270750
-0.420586
0.152950
-0.163433
0.651268
-0.787768
0.867729
-0.221086
0.250693
-0.981281
-0.132438
0.510277
-0.640729
0.198887
-0.437902
-0.856907
0.532125
0.310072
0.050992
-0.009982
-0.398963
0.560426
-0.620026
0.749441
-0.555153
-0.564724
-0.802833
-0.498231
0.755617
0.577877
0.966738
-0.000389
0.792713
0.472556
0.205592
-0.689403
0.660161
0.107519
-0.217866
-0.310020
0.319369
-0.145858
-0.805770
0.777455
0.855788
0.249161
-0.143361
0.391069
0.697590
-0.092407
-0.834378
-0.448706
0.282629
0.997019
0.041857
-0.528721
0.575148
-0.146173
0.493521
-1.578881
0.177729
-0.691626
-0.686165
0.977420
0.474393
0.175004
-0.751195
-0.721253
0.306939
-0.610119
-0.658582
0.905095
0.688377
-0.565662
0.050931
0.192142
-0.710394
0.946709
-0.136247
-0.434481
0.782095
-0.430330
-0.393661
-0.708954
0.074366
-0.729831
0.406429
-0.728395
-0.360968
-0.209292
-0.052912
0.337401
0.186165
0.504496
-0.692345
0.396223
0.638080
-0.103494
0.029665
-0.495661
0.859448
0.785100
0.559709
0.654620
-0.622195
0.166642
0.557963
-0.977223
0.071795
0.700804
-0.111917
0.807262
0.149409
0.016002
0.010862
-0.603433
-0.243681
-0.767988
0.703446
0.519098
0.295522
0.023450
0.354253
-0.561998
-0.554589
0.997101
-0.810607
0.642709
-0.999279
-0.984284
0.156144
0.243632
0.908004
-0.809338
0.850972
0.269260
-0.304399
0.308963
-0.097333
-0.585149
-0.738656
-0.623908
-0.896016
0.269134
0.458515
-0.302891
-7.730147
-0.427470
-0.931244
-0.048223
-0.996159
0.518307
-0.696038
-0.103051
-0.428771
-0.767566
0.049288
0.504563
-0.857236
-0.610650
0.756824
0.383043
0.006100
-0.729027
-0.164947
0.474521
0.197437
-0.891012
-0.052660
0.178853
0.193920
-0.238629
-0.704110
-0.901868
-0.973651
0.456770
-0.223935
0.299041
0.839013
-0.148148
0.221174
-0.700124
-0.774843
-0.441926
-0.956746
0.779435
0.266894
0.278183
0.114096
-0.571140
-0.374544
0.288342
-0.119512
-0.684919
0.576026
0.698855
0.447493
0.161936
0.280425
0.135765
-0.291943
0.108894
-0.571389
-0.562550
-0.398399
-0.704645
-0.566297
-0.092423
-0.411254
-0.837612
0.908208
-0.697168
-0.951079
0.030001
0.677740
-0.771973
0.911644
0.577549
0.610708
-0.749299
-0.744362
-0.061712
-0.371357
0.106725
-0.063207
-0.074054
0.109311
0.183832
-0.727389
-0.371880
-0.984118
-0.038775
-0.040399
0.756212
-0.843685
0.152583
0.309806
0.161668
-0.085604
-0.627194
0.866379
-0.601973
0.484503
-0.790586
0.749769
-0.954509
-0.211977
-0.363119
0.835543
-0.239315
0.481432
-0.428277
0.714765
-0.826145
0.147550
-0.563691
-0.326389
0.174653
-0.684981
-0.563494
-0.027672
0.511680
-0.926689
-0.412254
-0.889507
0.221537
0.904102
0.739773
0.462043
0.919961
0.119996
0.839328
-0.129474
-0.608853
0.365024
0.089469
0.092194
0.053291
0.445154
0.706566
0.953110
0.985903
-0.157937
-0.429075
0.531311
0.736313
0.333538
0.152834
-0.675906
-0.026577
-0.786435
0.622450
-0.561522
0.238903
0.794157
-0.689865
0.587894
0.219548
0.983092
0.225396
-0.071054
-0.285646
0.840128
-0.213991
0.287622
-7.806123
-0.328377
0.691789
-0.272319
-0.773659
-0.259021
0.230811
0.569524
-0.990807
0.397818
-0.133158
0.285356
0.387472
0.444734
0.350856
-0.436849
0.950033
0.239569
0.929199
-0.714277
0.728112
-0.358815
0.006334
-0.708695
-0.387798
0.962085
0.100133
0.998855
0.981115
-0.552738
0.614873
0.001474
0.691330
-0.431554
-0.770290
-0.984893
-0.015655
-0.313682
0.756756
-0.218998
0.729583
-0.651144
-0.370462
-0.729716
-0.572822
0.566902
-0.386782
0.372402
-0.646844
0.398901
0.318817
-0.940839
0.676326
0.013224
0.929041
-0.957338
0.163061
-0.464175
-0.996842
0.335966
-0.891100
0.538630
-0.912650
-0.295322
-0.655492
0.535916
-0.093033
-0.332573
-0.899100
-0.188352
-0.523475
0.646003
-0.729020
-0.308875
-0.178073
0.851378
0.385987
-0.202278
0.994666
-0.089752
0.607664
0.398217
-0.957269
0.982972
-0.908516
-0.167452
-0.971635
-0.058899
-0.087059
-0.292814
-0.056788
0.563891
0.933865
-0.829269
-0.389354
0.870629
-0.195378
-0.107185
-0.413979
0.172383
0.543858
0.689137
-0.035604
0.897657
-0.505709
-0.216471
-0.282874
-0.844775
-0.212571
-0.380748
0.683813
0.699075
0.971303
0.645731
0.483280
0.804203
0.471210
0.095549
0.355583
-0.198934
-0.449758
0.348549
-0.774859
0.205285
-0.772483
0.183927
-0.890293
0.671142
0.586399
-0.209614
-0.523024
0.769424
-0.509107
0.776435
-0.225171
-0.229551
0.251426
-0.112172
0.455880
0.822348
-0.035004
0.559358
-0.122178
0.479447
0.076722
0.553399
0.232248
0.003129
0.372158
0.282228
0.535920
-0.881838
0.709781
0.472843
-0.358474
0.913422
-0.795057
-0.408695
-0.244278
0.968366
0.054784
-0.808709
-0.564113
-0.493217
0.156623
-0.587510
-0.192486
0.105307
0.184671
0.109612
-0.401731
-0.065484
0.995119
0.696440
-0.035665
0.587118
-0.386762
-0.270798
0.260393
-0.116783
-0.368692
0.495704
0.041201
0.346409
-0.150924
0.864074
-0.773604
-0.563388
-0.015128
-0.798599
0.776877
-0.517056
-0.084054
0.912515
-0.692285
-0.480581
0.456127
1.152626
0.080112
0.461298
0.470432
-0.577225
-0.694135
0.179227
0.618056
-0.629002
-0.474094
-0.846989
-0.850383
-0.952140
0.494905
0.680213
0.943864
-0.794825
-0.935954
-0.805115
0.960723
0.131980
0.788872
0.937641
-0.963678
0.689304
-0.693098
-0.971883
-0.725913
-0.381617
-0.036460
-0.222738
-0.293353
0.383371
0.810888
-0.857150
0.978835
-0.693393
-0.361255
0.409617
0.058768
-0.292378
0.600898
-0.803167
0.490291
-9.379192
0.841833
-0.845740
0.794402
0.150440
0.262248
0.974825
-0.361843
-0.724775
-0.260554
0.460458
-0.120765
0.914251
-0.366522
0.154412
-0.935438
-0.970171
0.273021
0.426159
0.911755
-2.316024
-0.880860
0.049194
-0.385869
0.614408
-0.404311
-0.849902
0.688590
-0.674864
-0.263939
-0.449614
-0.598526
-0.345526
-0.136418
-0.690463
-0.762349
-0.522458
0.707784
-0.528839
-0.740339
-0.504814
-0.326349
0.557663
0.827277
-0.252490
0.669935
0.925513
-0.143507
0.642105
0.870732
-0.725437
-0.989601
-0.002552
-0.274423
-0.949841
-0.452512
-0.823692
-0.239899
-0.246043
-0.844016
-0.800050
-0.032232
-0.405292
0.890284
-0.869300
0.084494
-0.000941
0.666272
0.176896
-0.460114
-0.675349
-0.331513
-0.390396
0.464359
-0.121038
-0.761520
-0.332283
-0.577429
-0.447814
0.152009
-0.860898
-0.734190
0.593955
0.964268
0.707941
0.685837
0.778309
-0.522812
-0.330687
0.752370
-9.929096
0.963658
-0.057542
0.884579
0.173367
0.505999
-0.946834
-0.587835
-0.664092
-0.212056
0.091474
0.780732
0.416894
-0.186913
0.649751
0.398231
0.887011
0.179677
0.705086
-0.095535
-0.553706
-0.186756
-0.622851
-0.267699
0.838893
0.046551
-0.778228
-0.124526
0.999240
0.730304
-0.875955
0.479040
0.275539
-0.148253
0.105749
0.742264
0.337634
0.826175
-0.501858
0.838929
-0.616632
-0.021177
0.804940
-0.459656
0.596643
0.749242
0.301266
-0.225304
0.460304
-0.429476
0.001211
-0.280797
0.642873
0.960972
0.260015
0.601863
-0.853915
0.685499
0.126802
0.958382
-0.301498
-0.224879
0.113719
-0.841001
0.257755
-0.875247
0.349510
-0.884208
-0.590332
-0.580323
-0.301900
-0.757388
-0.750719
-0.682562
-0.248010
0.703958
-0.265540
-0.041981
0.749165
-0.611266
-0.690778
-0.228011
-0.320439
-0.856284
0.727832
-0.836078
-0.559570
-0.770056
-0.343316
-0.622024
-0.245892
-0.361048
-0.497442
0.924698
-0.861113
-0.452579
0.980543
-0.329071
0.905318
0.041974
0.608670
-0.226465
0.612721
0.400095
0.821272
0.125044
0.255460
-0.048894
-0.129634
-0.322186
0.763240
-0.837307
-0.258646
-0.378069
0.131509
0.566774
-0.822008
-0.255781
0.446361
-0.737942
0.934120
0.695904
0.840702
-0.509714
0.036759
0.704575
0.358982
-0.278849
-0.754125
-0.617490
-0.606183
-0.289996
0.415837
-0.128707
-0.707758
0.764080
-0.639944
0.449773
-0.734591
-0.792763
-0.894722
-0.047355
-0.240643
-0.225217
0.632581
-0.329034
-0.482584
-0.830834
0.999262
-0.124680
0.485290
0.966938
-0.671925
0.580483
-0.864174
0.986223
0.864283
0.333739
-0.542298
-0.191603
-0.929980
0.416889
0.897642
-0.365636
-0.185571
-0.542260
0.871067
0.956922
0.182266
0.144788
0.994869
0.383827
-0.668746
-0.612946
-0.501572
-0.953890
-0.738739
0.783824
0.171487
-0.270514
-0.189734
-0.778848
0.783757
-0.270649
0.309980
-1.048324
0.376278
-0.100336
-0.862535
0.924704
0.521872
0.765768
0.353251
-0.428707
0.892068
-0.098171
0.583481
0.092860
0.067597
-0.590495
-0.599712
-0.287723
-0.027696
0.174201
0.768837
0.556488
0.787030
-0.295994
0.931183
-0.227818
0.063425
0.960860
0.341299
0.679081
0.321162
-0.347460
-0.755708
-0.961790
-0.637781
0.694425
0.397609
-0.257491
0.581304
0.700641
-0.708039
-0.877207
-0.783739
-0.851524
0.457122
-0.456833
0.737135
-0.282383
0.975551
0.528655
-0.275883
-0.103493
-0.829735
0.784980
-0.828256
-0.686886
0.818438
-0.131266
-0.996138
-0.804211
0.306377
0.351722
-0.575056
-0.913256
-0.102593
0.484435
0.070712
0.047658
0.116495
-0.614579
0.695844
0.066172
-0.331036
-0.951752
-0.978226
-0.450594
0.941558
0.535182
-0.751801
-0.415268
-0.845851
0.001634
-0.055745
0.833825
-0.624622
0.917850
-0.077586
-0.298047
-0.013393
0.428145
-0.140443
0.748351
0.788329
-0.826736
-0.907755
0.170616
0.391782
-0.898910
0.509089
-0.279258
0.581214
0.847602
0.017572
0.307043
-0.687090
0.392413
0.992004
0.163051
-0.202805
0.248338
-0.092292
-0.059840
-0.753531
0.305689
-0.450769
0.387521
-0.574869
-0.647963
-0.488786
0.479820
0.708259
-0.433996
-0.326348
0.050496
-0.376800
0.389616
-0.676764
-0.436466
-0.304648
0.461793
-0.998898
-0.777225
-0.091108
-0.923454
0.914818
-0.424852
-0.910954
-0.249840
0.103365
0.485806
0.497588
-0.074681
-0.433017
-0.573812
-0.198610
0.049968
0.230296
-0.990409
0.314406
-0.184168
0.271742
-0.883401
0.564474
-0.032577
-0.619612
-0.708107
0.818386
-0.675448
0.314787
-0.797172
-0.316836
0.527795
0.623129
-0.725910
0.861947
-0.033752
-0.119358
-0.053454
0.189417
-0.602642
0.685224
-0.513728
0.038407
-0.694976
0.488581
0.695576
0.584938
0.310865
0.505670
0.704965
0.898682
-0.938313
-0.405471
-0.886968
0.764336
-0.383474
0.377706
-0.348533
0.707371
-0.103746
-0.771651
-0.226932
0.346127
-0.814710
0.760165
-0.427220
0.222628
0.303537
-0.320712
-0.908992
-0.499342
0.003767
-0.363740
0.328119
-0.160594
0.172743
0.959806
0.301622
0.347501
0.608885
0.206167
-0.964146
0.118601
0.798443
0.726228
-0.685504
-0.394184
0.750678
0.016092
-0.497182
0.997269
0.565429
-0.890570
-0.452070
0.096217
-0.537252
-0.765613
0.962330
-0.961570
0.754050
-0.171220
0.116194
0.103125
-0.598929
0.044141
-0.923202
0.709095
-0.604339
-0.839967
-0.641810
-0.188488
0.656248
-0.939106
-0.894234
-0.584504
-0.897568
-0.894854
0.686606
-0.371809
0.892971
0.384862
-0.331127
-0.986519
0.583344
0.238427
0.591151
0.551016
-0.845528
0.489553
0.796091
-0.941971
-0.442030
0.770013
0.765785
0.668263
0.406411
0.464673
-0.126472
-0.139896
-0.826529
0.996916
0.406645
-0.264968
-0.877966
0.778116
0.995184
-0.404463
-0.920876
0.720112
0.633619
-0.324016
-0.752436
-0.110156
0.103112
0.470028
-0.071315
-0.521473
0.186209
-0.008803
0.698143
-0.917219
-0.807078
0.627442
0.738204
0.191077
-0.022372
-0.397107
0.897322
-0.756689
-0.590264
0.707066
0.142509
-0.935729
0.266887
0.293789
0.291352
0.867372
0.739596
-0.524631
-0.566119
0.346245
0.301933
-0.247479
0.858576
0.687855
0.683359
-0.810359
0.208912
-0.219760
0.453776
0.020755
-0.047473
0.073443
-0.111543
-0.575209
-0.448135
0.395006
0.602561
-0.299881
-0.377203
-0.286080
-0.665793
-0.983319
0.600688
-0.821915
0.176996
0.532149
0.343323
0.075348
-0.022739
-0.200462
0.410777
0.279914
0.451946
-0.145185
0.530078
0.061132
-0.705482
0.544739
-0.028390
-0.192187
0.215076
0.912001
0.846048
0.151088
0.654455
-0.700706
-0.339458
-0.918181
-0.011732
-0.190253
0.214154
-0.300363
0.679387
0.812467
0.603584
-0.152128
-0.264683
-0.397692
-0.762887
-0.238193
-0.927439
0.052132
0.669490
0.390723
0.067691
0.986016
-0.510085
-0.503109
0.950753
0.056875
0.320054
0.133357
0.722127
-0.984923
0.794665
0.865046
0.776302
0.823385
-0.865273
0.981890
0.248114
-0.720616
0.476549
0.278420
-0.546901
-0.482732
0.439289
0.838591
0.324198
0.993653
0.675606
0.752883
-0.256996
-0.161084
0.492014
0.490645
-0.080947
-0.537873
0.148708
-0.138579
0.175119
0.876910
-0.700381
0.161346
0.726130
-0.214992
-0.637427
-0.914768
0.389473
-0.602829
-9.734016
-0.805291
0.633677
0.379728
-0.664150
0.487222
-0.969879
-0.898153
-0.720006
-0.910145
0.905848
-0.561980
-0.366590
0.940470
0.381793
0.122019
-0.370429
-0.397957
0.362957
0.371790
-0.928928
-0.780313
-0.023980
0.030963
0.173479
-1.108664
-0.154316
0.134589
0.686246
0.727566
0.149082
0.133870
-0.578531
0.094031
-0.295805
-0.711399
0.786802
0.708227
0.927925
0.196227
-0.522376
0.902723
-0.207544
0.509209
0.831836
0.542614
0.132975
0.353921
0.328738
-0.871419
0.829848
-0.762183
0.923612
-0.287154
0.628934
-0.431209
-0.509745
-0.298065
-0.342837
-0.973583
0.824190
0.526594
0.723026
-0.318682
-0.247792
-0.400573
-0.172962
0.857135
0.830638
-0.354897
0.662547
0.904268
0.647662
-0.518787
0.043412
-0.577702
0.782154
-0.023533
-0.138728
0.201428
-0.200633
-0.758212
-0.205694
-0.636874
0.976456
0.167431
-0.624111
-0.339172
-0.970172
-0.012403
-0.649562
0.310669
-0.963635
0.904467
-0.477436
-0.000905
0.832455
-0.295079
0.756802
0.315972
-0.651897
0.134406
0.639853
0.736133
-0.088687
-0.321778
0.056495
0.462899
0.302147
-0.163959
-0.076058
-0.997500
0.432377
-0.855742
0.285888
-1.170605
0.189133
0.479211
-0.742420
-0.064241
-0.718456
-0.394029
-0.486185
0.457779
0.933829
-0.866323
-0.476837
0.327275
0.578871
0.967013
0.287707
0.153487
-0.833889
-0.934686
0.576051
-0.998887
-0.697802
-0.878773
0.569722
0.833298
-0.631373
0.799620
0.272996
0.866179
0.289130
0.479273
0.953433
-0.209483
-0.006991
0.590447
0.423438
-0.112960
-0.814427
0.333123
0.550796
0.879779
0.018200
0.099860
-0.580537
0.587734
0.609057
0.277343
0.700736
-0.843654
-0.338808
-0.386031
-0.628817
0.289410
-0.135101
-0.943586
0.838696
-0.297552
0.806581
0.365239
-0.882641
-0.280920
0.533980
-0.191107
-0.322989
0.611273
-0.442422
0.091237
0.741219
0.949317
-0.465164
-0.916721
-0.730000
-0.260935
-0.952887
0.235853
-0.400308
0.077147
-0.799619
-0.292955
0.716756
0.703753
-0.429628
0.719224
0.224803
0.169324
-0.683498
-0.201752
-0.228071
0.983006
0.718194
0.664828
0.847351
0.138060
-0.403192
0.677638
-0.009802
-0.267732
0.435644
0.851658
0.085645
-0.054791
0.673599
0.058140
0.751959
0.199173
-0.694790
0.075748
-0.132635
0.607463
0.879892
0.085167
0.542421
-0.055812
0.850061
0.435794
0.953110
-0.588680
-0.691544
-0.861647
-0.880578
0.047976
0.429703
-0.225199
-0.103013
-0.947332
0.859491
-0.858838
-0.877647
-0.425705
0.173564
0.831750
0.843223
0.933649
0.510050
-0.593046
0.554077
-0.068501
0.552895
-0.105517
0.286703
0.866896
-0.631404
-0.633860
-0.972855
0.314412
-0.316658
0.227588
-0.221384
0.169431
-3.040943
-0.768831
0.417846
0.547144
-0.918096
-0.864788
-0.749964
-0.130596
-0.723714
0.722530
-0.833044
0.228662
-0.388531
0.573785
-0.095927
0.344208
-0.485086
0.460862
-0.940456
0.364417
-0.498457
-0.040086
-0.701376
-0.171738
-0.337076
-0.246171
-0.946885
0.168915
-0.918527
0.929998
0.648252
-0.930732
-0.831501
-0.452461
-0.018560
0.341565
-0.432907
0.333786
0.031362
0.450072
-0.726583
0.517146
-0.118726
-0.091346
0.101948
-0.527620
0.646242
0.376326
7.354090
-0.876214
0.465941
-0.809774
-0.439909
0.979562
0.669673
-0.545558
0.113138
-0.651180
0.955230
-0.648306
0.308723
0.530779
-0.920169
-0.598212
0.206101
-0.872575
-0.876176
0.469738
-0.551072
0.028103
0.129270
0.860064
-0.912351
0.252338
0.048812
-0.802126
-0.475920
-0.448099
0.850593
0.972503
-0.808853
-0.741190
0.116277
-0.880426
0.874534
-0.672274
-0.574396
-0.839309
-9.981063
0.586387
-0.544734
0.386523
-0.438369
0.172078
0.474932
0.365630
-0.713005
-0.137858
0.482281
-0.162269
0.134755
0.761067
0.835602
-0.269709
0.724427
-0.102390
-0.785197
0.751694
-0.935571
0.678118
0.546333
0.039698
-0.697660
0.804409
-0.382279
0.060232
-0.949891
-0.505047
-0.294391
0.622197
0.071460
-0.409805
0.491529
0.591495
0.598377
0.685591
-0.028431
0.559556
-0.497857
0.125359
-0.992296
-0.504914
-0.344782
0.218553
-0.895086
0.236255
-0.282086
0.554457
0.996453
-0.647145
0.223269
0.232470
0.839060
0.560352
0.297082
0.471570
-0.303163
0.333216
-1.416723
-0.481430
0.830873
-0.596946
-0.581791
-0.035439
0.242941
-0.434751
-0.770167
-0.631886
0.703578
-0.428482
0.465268
-0.334143
0.371654
0.226418
-0.290301
0.631753
-0.865171
-0.085675
-0.119676
0.117989
0.389881
-0.353461
0.736498
0.620075
0.489401
-0.581113
0.383831
-0.790623
-0.124353
0.397847
-0.177420
-0.136104
-1.096140
-0.494911
0.116755
-0.549906
0.739668
0.907788
0.671222
-0.694039
-0.805878
0.577426
0.915405
0.226151
0.427115
0.305412
0.759064
-0.297991
-0.708907
0.196175
0.295530
0.643586
-0.594738
0.595644
-0.477398
0.152719
0.476740
-0.460375
-0.555610
-0.325684
0.866155
3.671536
-0.881881
-0.062331
0.560117
0.091414
0.785054
-0.420715
0.259822
0.101482
0.553263
0.720441
0.684441
-0.449764
-0.958735
0.198912
-0.750520
0.770480
0.204896
1.154978
-0.243006
-0.029394
0.758417
0.505439
0.826462
-0.047238
-0.656736
-0.891280
0.910315
0.245460
-0.945878
0.510760
-0.026770
0.898311
-0.997544
0.596917
0.375299
-0.044096
-0.327213
-0.762910
-0.292068
0.788229
0.467969
0.992128
-0.195601
-0.360593
-0.512301
-0.979065
-0.512845
-0.557789
-1.022569
-0.362773
-0.303554
-0.270012
0.622313
0.694192
0.704800
0.729300
-0.691487
-0.102734
0.470431
0.589003
-0.604431
-0.877530
-0.758254
-0.251453
0.686955
0.565157
0.520000
0.255201
0.380031
0.048114
-0.240869
-0.636932
-0.081172
-0.621721
-0.990260
-0.287653
0.091449
-0.005178
-0.423558
0.179423
0.964577
0.254998
0.464511
0.958753
0.464042
0.712077
0.624380
0.723172
-0.236128
0.023035
0.764188
-0.156805
-0.390155
-0.457212
-0.565945
-0.948212
0.284842
-0.744464
-0.394221
0.907517
0.218909
-0.772189
-0.849246
-0.159915
0.489995
-0.150552
-0.469000
0.827279
7.131575
-0.724006
0.398382
0.070147
0.369529
0.783954
-0.372317
-0.717173
0.448694
0.731936
-0.549743
0.964055
-1.610792
-0.704415
0.114279
-0.621251
0.762355
0.678358
-0.029465
-0.511632
-0.964738
0.767766
0.163507
9.441426
-0.613410
-0.629719
0.199185
0.140165
-0.690076
-0.824352
0.264456
-0.160645
-0.372834
-0.758183
-0.890685
0.934292
0.707880
-3.242905
0.082616
-0.072916
0.445887
0.795463
-0.290906
0.659184
0.132292
0.368218
-0.542729
0.209756
0.282108
-0.141920
-0.679941
-0.938434
0.592177
-0.279089
-0.570779
0.538089
0.525520
0.687234
0.603428
-0.255183
0.632215
0.302647
0.244828
-0.749417
0.528478
-0.848139
-0.424475
0.346347
0.773127
-0.564087
0.042347
0.725965
-0.541505
0.119947
-0.232666
0.239697
0.296282
0.903095
0.509917
0.247044
0.260423
-0.187370
-0.270065
0.023329
0.735480
0.204570
0.240863
0.778602
-0.341736
0.322234
0.131529
-0.409001
0.910321
0.393548
0.595808
-0.280835
0.722514
-0.651474
0.309141
-0.327399
-0.710633
-0.246673
0.723003
0.106661
-0.612192
-0.401068
-0.238493
0.429710
0.446959
0.496155
-0.146060
-0.902461
-0.241632
-0.026398
0.548833
-0.516070
-0.833364
-0.807189
0.561995
-0.110528
-0.710430
0.261198
0.156970
-0.194873
0.180296
-0.013194
0.169253
-0.581224
-0.364755
-0.366054
-0.026228
-0.798903
0.540788
-0.527859
0.025375
-0.610791
-0.187131
0.580145
-0.684533
-0.037137
0.443693
-0.252081
-0.073777
0.766407
-0.828256
-0.313039
-0.034217
-0.416847
-0.715915
-0.936191
0.169815
-0.983294
0.191521
0.482847
-0.373005
-0.664914
0.272171
-0.099011
-0.202195
-0.105376
-0.744073
0.036542
-0.560975
0.439003
-0.538228
-0.952143
-0.494322
-0.432032
0.709641
-0.617073
-0.200921
-0.617514
-0.013072
0.850297
-0.448036
0.434966
0.325255
0.855109
-0.097248
0.104823
0.596454
-0.362506
0.118305
0.369407
0.122092
0.524427
-0.452288
-0.698646
-0.413229
0.738503
0.910976
-0.623176
0.080324
0.369425
0.260129
0.048946
-0.023833
0.319322
0.400159
-0.092686
0.623199
-0.554930
-0.475243
0.468175
-0.332139
-0.355396
0.389518
0.369390
0.192678
-0.619078
0.262651
0.656541
0.674079
0.868691
0.370656
-0.277021
1.078419
-0.204203
0.672219
0.588027
-0.678625
0.384972
0.218356
-0.656581
-0.476416
-0.795225
0.855282
0.332640
0.703143
-0.903825
0.478623
-0.275193
-0.153254
0.491238
-0.803656
-0.713154
-0.619233
0.274938
-0.384729
0.666145
0.519369
0.549904
0.703957
-0.592151
0.287651
0.401186
-0.413600
-0.877045
-0.821870
-0.361662
-0.110740
0.420786
-0.634847
-0.930159
0.565995
0.355360
-0.806462
-0.148757
-0.889196
9.790861
0.011856
0.617283
0.063664
-0.325335
0.900794
0.106475
-0.870099
-0.505157
0.465491
0.400821
-0.486792
0.088868
-0.970204
0.310987
0.408470
0.982093
0.213953
0.085071
0.097487
0.077853
-0.762428
0.127626
-0.234362
-0.705047
0.430578
-0.640183
-0.748955
0.513877
-0.411527
0.133138
0.573089
-0.122069
0.703318
0.272676
-0.113861
0.221505
-0.001845
1.040952
-0.020839
-0.404004
-0.321834
0.227295
0.549622
-0.861874
0.033975
0.490510
-0.980190
-0.872230
-0.279104
0.793205
0.169320
-0.362808
0.717893
0.864911
-0.346506
0.809890
0.101153
-0.010944
0.296057
-0.663569
-0.650703
0.553616
-0.700040
0.733296
0.934517
-0.639059
-0.067151
0.339453
-0.446647
-0.640208
1.397962
0.426139
0.149505
-0.445611
-0.566195
-0.131284
-0.808085
-0.814999
0.532041
0.875646
-0.063939
-0.446161
0.438574
-0.525736
-0.449588
-0.201572
-0.321270
0.569411
0.302364
0.795617
0.127764
-0.116116
0.297570
-0.215277
0.830295
-0.291068
0.005524
-0.689693
-0.056310
0.741352
0.608910
-0.273624
0.004187
-0.591671
-9.335456
0.908048
-0.346510
-0.510438
-0.865474
0.188180
-0.506127
-0.676937
-0.648761
-0.400658
-0.586436
-0.555286
0.293293
0.215324
0.073056
-0.967105
0.342263
0.713300
0.941278
0.693711
-0.065042
0.046466
-1.076723
-0.059250
0.469611
0.012431
-0.646494
0.404738
0.511146
-0.201146
-0.937948
-0.185902
-0.237032
-0.287689
-0.060248
-0.871400
-0.986580
5.360119
0.980859
0.918482
-0.118569
0.810121
-0.066570
0.721369
-0.386982
-0.473884
0.894953
0.454467
0.917186
0.670673
-0.004815
-0.245475
-0.681212
-0.257518
0.865595
-0.695736
-0.862250
-0.970509
-0.310861
0.640902
0.267959
-0.077826
0.057098
-0.795706
0.962686
-0.947018
0.531054
-0.312433
0.392082
0.394696
0.502466
0.253805
-0.752856
-0.651285
0.320569
-0.811644
0.819276
0.023177
-0.851399
0.012483
0.017605
0.800215
0.426354
0.655389
-0.608988
-0.236154
0.546533
0.163029
0.631576
-0.831933
-0.242282
-5.097048
-0.375808
-0.999323
-0.236250
0.051749
-0.011817
-0.566620
-0.246019
-0.887871
0.306928
-0.238238
-0.957083
0.907656
-0.116402
0.624200
-0.440456
0.297925
0.699850
-0.401704
-0.531908
0.652979
0.486725
0.641904
-0.791065
-0.007597
0.360516
0.075177
0.843555
0.985236
0.173311
-0.354648
-0.462691
-0.291381
-0.652947
0.774618
-0.196725
0.285609
-0.579729
-0.091971
0.824151
-0.840616
-0.970542
-0.840438
0.833586
0.142717
-0.437000
-0.820197
0.830589
-0.307584
0.178001
0.204663
-0.203531
-0.399163
0.375919
0.714856
0.711415
-0.815105
-0.578235
0.510840
0.245233
-0.496095
0.875487
0.065538
0.786666
-0.382767
-0.484204
-0.282974
0.554748
-0.443597
-0.008090
0.335246
0.742437
-0.596367
-0.230522
9.587164
-0.150847
-0.581461
0.423281
0.770937
-0.079570
-0.731839
-0.117782
0.472418
-0.855003
0.009771
-0.763825
0.745244
-0.186675
0.652552
-0.678555
0.798532
-0.486310
0.805753
-0.329781
0.876624
0.007423
-0.731965
0.806073
-0.601618
0.012422
0.780076
-0.165529
0.696600
-0.334591
0.563460
0.564420
0.340060
0.188580
0.560387
-0.560137
0.820592
-0.237454
-0.820322
0.603024
-0.497203
0.126034
-0.785729
0.958428
0.553819
-0.797162
-0.609057
-0.149727
-0.382757
0.677982
0.731624
0.115315
-0.434128
0.475541
0.720515
0.235651
-4.047471
-0.000560
-0.675133
0.866713
0.540415
0.582340
-0.135308
0.235343
0.431213
0.848908
0.753646
0.604973
-0.253248
-0.369493
-0.781393
0.961941
0.882669
-0.451111
-0.568298
0.473906
0.030507
0.689632
0.847918
-0.720429
0.397715
-0.414130
0.844629
-0.666396
0.178699
0.640284
0.550850
0.499713
-0.855414
0.525031
0.554393
0.316008
-0.867065
0.481087
-0.292010
0.386850
-0.495929
0.762001
0.201113
-0.667751
-0.989597
-0.541986
0.598484
-0.990779
-0.098946
0.595472
5.329997
-0.370789
-9.951355
0.233530
0.326929
-0.675817
-0.219578
0.627026
-0.804477
0.062270
-0.040087
0.506265
0.176929
0.808216
0.766096
0.793056
-0.784040
-0.316452
0.867206
0.344766
0.542501
-0.068032
-0.739571
0.663649
0.477383
0.110671
-0.093203
-0.286558
0.888975
-0.621624
-0.132052
-0.457189
0.151102
0.624255
-0.179859
-0.778921
-0.574850
0.959143
-0.913742
-0.770083
-0.622924
0.064241
0.424640
0.539217
-0.726919
0.392880
-0.929656
-0.311844
0.852602
-0.547968
0.040508
-0.564976
-0.577301
-0.648609
-0.152354
-0.833608
0.441632
-0.137893
0.264906
0.894259
-0.853289
0.346241
-0.197549
0.635273
-0.011425
-0.507551
-0.660809
-0.975612
-0.781652
0.752722
0.476546
0.215322
-0.419107
0.154937
-0.638563
0.176254
-0.545564
0.648520
0.453859
-0.377719
0.469024
-0.809631
-0.843100
-0.943745
-0.077705
0.998366
-0.442548
0.780937
0.141121
-0.331967
0.893942
0.184122
0.108651
-0.033230
0.359116
0.896166
-0.733367
0.704698
0.421348
0.868163
-0.164891
0.122050
0.192448
0.342481
0.173152
0.320633
0.336462
0.704431
-0.915567
-0.647470
-0.973573
0.702324
-0.459786
0.297388
-0.937795
-0.483495
-0.756368
0.699583
-0.412113
0.034194
0.358424
-0.606091
0.277205
0.999382
-5.062278
0.857531
0.535975
0.778397
0.696235
-0.736554
-0.065868
-0.254070
-0.905818
-0.195632
-0.794031
-0.687881
0.675110
-0.137855
-0.451411
0.353702
-0.887512
0.118372
-0.830488
-0.813061
0.727657
0.834617
-0.535532
-0.611682
-0.514026
-1.027825
-0.628250
0.417690
0.346758
-8.373672
-0.496568
0.902927
0.352009
0.481605
-0.049192
0.789556
0.289285
-0.319726
-0.013522
0.625623
-0.062051
0.285876
-0.078957
0.628630
-0.631203
0.655554
0.029352
0.566959
0.905079
0.881977
0.090063
0.997616
-0.586419
-0.472129
0.935739
0.186259
-0.754750
0.146412
-0.433241
0.845920
0.276657
0.455501
-0.703458
-0.581510
-4.660350
0.812971
-0.110731
-0.055647
0.640334
-0.640536
-0.680884
-0.806584
-0.010503
0.274259
-0.207248
-0.569660
-0.660437
0.275416
-0.618806
0.838981
-0.236578
-0.101573
-0.709629
-0.894374
-0.556406
0.480409
-0.847037
0.284086
0.327484
-0.515749
-0.272501
-0.293755
0.318849
0.337928
0.303544
0.886218
0.781201
0.277029
-0.683893
-0.176886
0.511258
0.415392
0.382390
0.736556
-0.767912
-0.843910
0.961093
0.424346
0.970118
0.728958
0.597283
-0.605218
-0.534964
-0.076855
-0.763130
0.447763
-0.983102
0.159608
0.571635
0.226984
-0.760674
0.115658
0.932526
-0.809403
-0.673581
0.345067
-0.764373
-0.601476
-0.769401
0.337263
-0.956710
-0.523730
0.410010
0.526510
-0.920274
-0.992692
-0.187109
-0.737877
0.101256
0.937754
0.048628
0.636383
0.043794
-0.916071
-0.680624
-0.160416
-0.754544
0.157933
0.464620
-0.448630
0.735612
0.581437
0.518295
0.490486
-0.813467
0.499271
0.288661
0.725005
0.954616
0.369343
-0.629268
-0.301116
-0.210524
0.113399
-0.207581
0.603075
0.932349
-0.163787
-0.701930
0.573168
-0.960119
0.888572
0.522872
-0.754294
-0.051286
-0.051014
0.559141
0.074585
0.015994
-0.429116
0.469091
-0.665817
-0.585493
-0.513489
0.367796
0.497212
0.740788
0.738290
0.376604
-0.630755
0.063799
-0.635339
0.567488
-0.023714
0.442837
0.522473
-0.398592
0.380534
0.000787
-0.590890
0.727471
-0.905931
-0.368103
-0.066952
-0.436893
-0.736715
0.012243
-0.458160
-0.176138
-0.832310
0.192611
-0.893208
-0.377286
-0.193893
0.871666
-3.369876
-0.844822
-0.167374
-0.696605
-0.927067
-0.178060
-0.594482
0.957779
0.307935
0.565511
-0.958896
-0.042718
0.370912
0.382692
0.852540
0.255126
0.436956
0.569669
0.322645
0.855008
0.561713
0.606874
-0.561139
0.732348
-0.889111
0.019581
0.256346
0.929596
-0.465250
-0.298014
0.047246
-0.539763
0.949480
0.449038
0.717289
0.289702
-0.764950
0.970608
-0.151373
0.877491
0.440223
0.589360
-0.767021
-0.427549
0.154213
-0.541888
0.813827
-0.194356
-0.499001
-1.045660
0.390120
0.463903
0.633252
0.452266
0.565149
-0.568611
-0.345954
0.912591
0.273484
-0.766204
0.414516
0.052335
0.336144
0.225841
0.959574
-0.811455
-0.989505
0.537043
-0.068052
0.832442
0.785953
0.033025
0.391166
-0.340541
0.515971
-0.633516
0.870296
-0.616073
0.861433
-0.260264
0.462097
0.758215
-0.679657
-0.941131
-0.077022
-0.428273
-0.483571
-0.217693
9.233687
-0.556927
-0.126191
-0.006698
8.909238
0.697304
-0.571979
-0.531379
-0.481793
0.485397
-0.580703
-0.477800
-0.521413
-0.288114
-0.413270
0.783513
0.494777
-0.238406
-0.802407
-0.021331
0.478549
-0.704849
0.496522
-0.070800
-0.332877
-0.076579
0.239034
0.673582
-0.399968
0.069063
-0.757804
0.385842
0.677193
-0.088348
0.909490
-0.176615
-0.166559
-0.321065
0.470579
0.224175
0.375682
-0.888629
-0.653316
0.099462
0.889925
0.329441
0.377576
0.181198
-0.193443
0.499816
-0.600261
0.537491
-0.101734
-0.144567
0.552557
-0.238356
0.682476
0.876350
0.040219
-0.789709
-0.914888
-0.528638
0.776781
0.652488
0.724075
0.032774
0.873101
0.178709
0.229545
0.705408
0.779980
0.974688
-0.167671
0.773810
-0.996577
-0.889587
0.596963
0.611849
0.069215
0.492089
-0.738746
0.704372
-0.982298
-0.391827
0.760829
-0.558289
0.985742
-0.335939
0.432451
0.325473
0.012036
-0.582007
0.889858
-0.477778
-0.338423
-0.348236
0.416732
0.305405
0.415085
-0.203643
-0.640410
-0.766259
0.787148
0.645554
-0.821725
0.315104
0.968757
0.965200
0.063866
-0.164735
-0.276249
0.522302
-0.420250
-0.900707
-0.033424
-0.496607
0.415475
-0.642393
-0.750868
-0.555548
-0.969487
-0.632492
0.845293
0.117707
-0.492262
-0.671923
-0.009282
-0.032861
-0.764924
-0.203167
0.824327
-0.404263
0.121589
0.861270
0.352915
-0.647982
-0.879833
-1.072411
0.994874
-0.576127
0.669827
0.236083
-0.476797
-0.947616
0.708673
0.001993
-0.849079
0.064752
0.130218
0.967110
0.837177
0.271601
0.144793
-0.417546
-0.224697
-0.609703
-0.744826
-0.188680
-0.585452
-0.891408
0.614412
-0.230455
0.673357
-0.939136
0.741233
-0.213052
-0.274755
-0.330612
0.567807
-0.012650
-0.173848
0.932149
-0.286689
-0.748434
0.026235
0.063228
0.846410
0.682587
-0.743209
-0.469639
0.314129
-0.368516
-0.724980
-0.903257
0.954392
-0.489005
0.047377
-0.614787
0.541995
-0.799948
-0.691674
0.945766
-0.863295
-0.935832
-0.001994
-0.962920
0.689487
-0.567921
0.500131
0.581897
-0.471605
-0.350156
-0.772733
-0.952068
-0.654015
0.621118
0.203890
-0.128576
-0.162868
-0.678830
0.796261
-0.164692
-0.484341
0.433845
-0.740887
-0.983279
-0.673213
-0.300089
-0.138859
-0.277922
-0.823687
-0.148139
0.585487
-0.527652
-0.141076
-0.715358
0.446326
0.537548
-0.049939
-0.904364
-0.729320
-0.140545
-0.838482
-0.217710
0.468681
-0.312571
0.465405
-0.902488
0.141087
-5.897253
-0.349714
0.020171
0.914272
-0.896522
-0.708596
0.551158
-0.150303
-0.124012
-0.433548
0.078105
0.751217
0.293400
0.688190
-0.647363
-0.225484
0.685574
0.931816
-0.034170
-0.940095
0.814109
-0.470494
-0.901988
-0.384216
-0.948603
0.168413
0.039625
-0.650226
-0.501820
0.961149
0.428488
0.371409
0.183015
-0.490056
0.571567
-0.170958
-0.687809
0.795465
0.252434
-0.239180
0.473451
-0.497141
0.555159
0.850086
0.804978
0.413190
-0.599354
0.438043
0.680398
-0.430119
0.590082
0.064853
-6.271734
0.998710
0.473752
0.241007
0.449138
-0.630370
-0.484669
-0.813884
0.176353
0.519724
-0.820925
-0.324019
0.531724
0.208877
-0.668660
0.779455
-0.131594
-0.713933
-0.874064
-0.082532
-0.349555
0.449298
-0.500577
-0.102072
-0.666611
0.509910
0.286837
-0.979970
0.273378
-0.704610
-0.715998
-0.163253
0.123903
-0.379426
-0.545735
-0.444384
0.517572
0.751476
0.213976
0.255335
0.008234
0.180126
0.233028
-7.198928
-0.469504
-0.226701
0.254503
0.752829
-0.569525
-0.085821
-0.202214
0.108177
-0.335391
-0.301268
0.162664
0.074906
0.020090
-0.995903
-0.864865
0.303070
0.645779
0.698341
0.845556
0.695047
-0.223933
-0.001010
-0.933259
-0.642603
-1.202331
-0.812985
0.270000
-0.841688
-0.066888
-0.761761
-0.185618
0.559852
0.924771
-0.249291
-0.574129
-0.027191
-0.364529
-0.628701
-0.895181
-0.686657
-0.383283
0.458239
-0.170552
0.580078
-0.215996
-0.344709
-0.166425
0.731322
0.689915
-0.090362
0.853657
0.610116
-0.911460
-0.915233
4.991737
0.475524
0.711240
-0.956807
0.916258
0.882724
-0.246969
-0.385793
-0.614374
-0.351245
-0.673180
0.942111
0.377050
-0.713188
-0.956985
-0.078847
-0.624921
0.536367
-0.642394
-0.889912
0.728307
0.143099
-7.386265
0.039884
-0.481208
0.397940
0.568565
0.382850
-0.889081
0.004375
-0.439998
-0.078920
0.205471
0.204665
-0.191730
0.203649
0.533262
-0.747155
-0.736534
-0.111720
0.748906
0.679892
-0.597346
-0.202950
0.709404
-0.343288
-0.093313
0.088602
0.297330
-0.334279
-0.239244
0.850250
0.136219
0.857720
0.641993
2.765445
0.643786
0.760520
0.039137
0.964142
-0.111389
0.795141
0.726667
0.475646
-0.441498
0.349468
0.242155
-0.278290
0.319806
-0.102960
-0.657028
0.325947
-0.367979
0.226619
0.598228
-0.986786
-0.452588
0.632810
-0.309287
-0.282490
-0.992146
0.938205
-0.776617
-0.444315
-0.998639
-0.584568
-0.693019
0.077805
-0.755239
0.164743
-0.426679
0.534279
-0.660636
0.243017
0.907628
-0.678306
-0.775769
-0.793614
-0.548786
-0.817920
0.002420
-0.151188
-0.388348
0.423913
0.296618
0.334845
-0.049024
-0.868487
-0.147391
-0.542383
0.451323
0.685008
-0.897906
-0.511741
-0.997059
0.882672
0.403038
0.797266
-0.687325
-0.762376
0.394014
0.549863
0.574406
-0.539074
0.935309
-0.505927
0.053130
0.171446
0.238133
0.751019
-0.542646
-0.867737
0.490091
-0.546289
-0.970136
-0.725640
0.263705
0.138595
-0.261163
-0.881653
0.605968
-0.885804
-0.341542
0.250790
-0.408860
-0.288326
-0.245532
0.330916
0.088129
0.367577
0.963020
-0.577932
0.017888
0.048168
-0.167907
-0.911964
-0.407886
-0.049868
0.258468
-0.422244
-0.719175
0.564727
0.441187
-0.825365
0.286482
-0.156560
0.141564
-0.628615
0.493307
0.596859
-0.425061
-0.300079
-0.642048
-0.866742
-0.225951
-0.142126
0.428625
-0.766260
-0.425571
-0.690274
-0.015745
0.425917
-0.395957
-0.188143
0.090314
-0.440403
-0.826307
-0.835369
-0.324182
-0.239965
-0.952361
0.813602
-0.942857
-0.881174
0.885790
0.137271
-0.251840
0.719794
0.124410
0.352700
-0.539293
0.486327
-0.386498
0.289753
-0.484619
-0.650977
0.033643
-0.820126
-0.591736
-0.180611
0.620767
0.200341
-0.352332
-0.695881
0.366755
0.601315
0.647336
0.916803
-0.114658
0.561598
0.825947
-0.781420
-0.948350
0.841406
-0.164224
-0.052837
0.198684
0.742340
-0.287268
0.343061
0.435140
-0.546983
0.108760
-0.757616
0.905200
0.656493
-0.821034
0.052420
-0.299403
-0.487065
-0.469662
-0.107731
-0.284617
-0.221045
0.963045
-0.548560
-0.162781
0.069481
0.234041
0.749742
-0.781810
-0.132707
-0.372575
0.023732
-0.275342
0.027029
0.900215
-0.486687
0.733072
0.582872
-0.311006
0.588065
-0.751239
0.462766
-0.720012
0.417214
-0.568390
7.147258
-0.894247
0.361601
0.692643
0.545784
-0.499419
-0.995970
0.904209
0.701910
-0.321209
0.720356
-0.586089
-0.206177
-0.077967
1.057761
0.818354
-0.961733
0.817959
0.035316
-0.691168
-0.470369
-0.166335
-0.818251
8.002421
0.188403
0.356176
-0.173283
-0.659064
0.123583
-0.489979
0.338336
-0.049246
-0.396693
-0.683805
0.148669
0.086968
0.698556
-0.265731
0.992701
0.609797
-0.058456
-0.799960
0.418042
-0.024738
0.433792
0.940414
-0.117626
-0.834521
0.454966
0.206127
0.505534
-0.384512
-0.898173
-0.585376
-0.114245
0.920335
-0.527081
-0.310523
0.469302
-0.615271
-0.696893
-0.882562
-0.252842
0.708798
0.967473
-0.626656
0.108672
-0.868661
-0.117473
-0.644191
0.897129
-0.047246
-0.577841
-0.285001
0.359415
0.064509
-0.768691
-0.615202
-0.401245
0.086381
0.273892
0.526961
0.273077
0.580238
-0.871116
0.773890
0.394326
0.136333
0.951591
0.644351
0.237700
0.173192
0.208559
0.377708
-0.729248
-0.909909
-0.090920
0.100152
-0.932641
0.568553
0.480592
0.571291
0.642342
0.662668
0.548674
0.856847
-0.551118
0.160701
-0.745320
-0.823389
0.192803
-0.954653
-0.464681
-0.741159
0.587954
0.859774
0.085511
0.335409
-0.981316
0.809715
0.971071
0.105400
0.059314
0.906526
-0.181350
-0.823457
-0.042514
-0.326558
-0.327673
0.950737
0.947058
0.210825
0.778190
0.287170
-0.028079
0.327159
0.215528
-0.853387
0.359939
0.481432
-0.277836
-0.011749
0.049975
0.953218
-0.893507
0.744118
0.192582
-0.320709
-0.807643
-0.768358
-0.881414
0.761887
-0.409113
0.345293
0.539341
-0.337923
0.244403
-0.308851
-0.538536
-0.786825
0.550801
-0.744602
-0.371980
0.596061
-0.571786
-0.234493
-0.431948
-0.719297
0.412232
-0.558272
0.141019
-0.691195
0.960598
-0.503962
0.229956
-0.915771
0.298088
0.797133
0.303924
-0.672218
-0.211926
0.782959
0.013579
0.924476
0.470657
-0.868461
0.555318
0.889571
0.142231
-0.651336
-0.959742
-0.530267
-0.325030
-0.100192
0.205278
-0.953225
-0.900987
0.358703
-0.511107
-0.400394
-0.493535
-0.692482
-0.280598
-0.443313
-0.557484
0.471190
0.658852
3.862078
0.097810
-0.300505
-0.933158
0.292141
-0.970429
0.549309
-0.663495
-0.630169
0.509472
0.265959
-0.433118
0.114927
-0.536018
0.679356
0.852286
-0.395077
0.604293
0.720405
1.033162
-0.321030
-0.065966
-0.281447
-0.503886
-0.245957
-0.973526
0.693624
-0.987750
-0.797756
-0.854080
-0.737722
-0.346800
-0.395170
0.761480
0.969256
0.517632
0.372835
-0.000228
-0.011012
-0.064163
-0.437909
0.058904
0.580930
0.568185
-0.079702
-0.671867
-1.096875
0.979905
-0.491426
0.628366
-0.748820
-0.175120
-0.342837
-0.372004
-0.089826
0.643553
-0.993930
-0.945426
-0.394916
0.728187
-0.174464
0.952760
-0.019493
0.393413
0.230977
0.253235
-0.007679
0.564182
0.808262
-0.211431
0.262335
-0.216036
-0.376604
-0.949256
-0.267498
-0.984164
0.403560
-0.965573
0.726936
-0.534811
-0.424543
0.857883
0.297330
0.945973
0.342780
-0.530094
-0.872118
-0.666320
-0.002228
-0.705543
-0.953694
-0.818777
0.870344
-0.451461
-0.939615
0.302792
-0.373059
0.666674
0.380620
-0.995854
0.868532
0.689300
-0.944287
0.280926
0.505842
0.650964
-0.775788
-0.821282
0.501028
0.710559
0.983910
-0.659267
-0.035471
-0.996951
-0.166706
0.973574
0.628354
-0.111021
0.134365
-0.547857
0.702915
0.448199
-0.816395
-0.468222
0.919842
0.435938
0.418847
-0.552030
-0.397591
-0.765519
1.118393
0.293899
0.017141
0.221519
-0.776348
-0.285152
-0.983200
0.845355
0.312584
-0.651593
-0.470118
0.770098
-0.124085
-0.046052
-0.199724
-0.757770
-0.700151
-0.757705
0.949480
0.448895
0.080685
0.428581
0.803677
-0.687607
-0.833321
7.661151
0.204979
0.918285
0.362157
-0.863274
0.181096
0.067199
0.755105
-0.439426
-0.725509
-0.459539
0.476452
-0.832342
0.850426
0.867537
-0.671510
-0.074800
-0.141495
0.495560
-0.764043
-0.467266
0.714710
-0.424850
-0.521856
0.153837
-0.229811
0.774240
-0.732300
0.775780
0.638975
0.831159
-0.476190
-0.280039
-0.101314
-0.863179
0.495911
-0.666836
0.804478
-0.568544
0.635152
0.272006
-0.841551
-0.614423
0.385941
0.099855
0.445064
0.228993
-0.731339
-0.490947
0.309428
0.109579
-0.939167
0.814120
-0.417141
-0.208218
0.191616
0.360477
-0.494754
-0.359651
-0.327310
-0.721746
0.824503
-0.458597
0.041580
0.876235
0.517372
0.260246
0.153364
-0.579030
-0.768905
-0.412514
0.397347
-0.532294
0.202935
0.521870
0.410792
-6.869486
0.231614
-0.969864
0.336507
-0.554183
-0.277548
0.572887
0.217621
-0.896050
-0.975772
0.547227
0.353613
-0.569090
0.105242
0.317172
0.690271
-0.465086
-0.704567
-0.037315
-0.254330
-0.694270
-0.327055
0.243437
-0.568525
0.576893
-0.323248
-0.731801
0.981175
-0.480838
-0.985649
0.147502
-0.240509
-0.589451
-0.752026
0.798272
-0.694834
0.439171
0.486453
-0.127086
0.650249
0.538240
0.973703
0.697439
-0.952496
-0.426739
0.660302
-0.871529
0.518823
-0.301132
0.715647
0.117243
-0.440009
0.773890
-0.181254
-0.597553
0.926424
0.068426
0.842939
-0.411455
0.956273
0.511317
0.814850
0.134539
0.537727
0.905283
0.469080
-0.203283
-0.738420
0.957147
-0.032577
-0.031660
0.418334
0.440844
0.814043
0.581602
0.488313
0.508227
-0.133756
0.182791
-0.668074
-0.562254
0.020026
0.272931
0.487028
-0.145024
0.477919
0.634783
0.339913
0.537051
0.887845
-0.698459
-0.850177
0.423962
-0.722745
-0.957149
-0.377825
0.199076
0.525570
-0.393385
0.858940
-0.364800
-0.020170
0.854758
-0.920789
-0.570034
-0.448228
-0.703111
-0.620183
-0.040935
-0.914847
-0.447883
0.742436
-0.557198
-0.428925
0.227431
0.449650
-0.439166
0.101347
0.096787
0.988680
0.140907
-0.891022
-0.145663
-2.723650
0.885543
-0.379873
-0.768205
-0.059315
-0.657703
0.036788
0.797613
0.575384
0.792980
0.360851
0.561139
0.177274
0.441350
-0.969849
0.507054
0.069099
0.903438
-0.365257
0.185978
0.484773
0.389574
0.403306
-0.428529
0.766279
0.368084
-0.298022
0.291839
-0.455402
-0.420903
0.464291
0.661604
0.590620
0.672194
0.703463
-0.861627
-0.585715
-0.598549
0.880895
-0.531685
0.607671
1.839830
0.184257
-0.462255
-0.511328
-0.300236
-0.887185
0.360766
0.489341
0.321876
0.627700
-0.996130
-0.720616
-0.665751
0.673636
-0.120639
0.187096
0.209166
-0.924279
0.942067
-0.999339
0.460330
-0.036966
-0.389452
-0.958477
-0.985040
0.600857
0.915442
-0.081014
-0.160122
-0.524469
-0.512489
0.762205
-0.165938
-0.076687
-0.373489
-0.105627
-0.780360
0.405279
-0.220618
-0.169835
-0.897010
0.895618
0.038138
-0.188546
-0.103320
-0.702101
0.499118
0.489988
-0.368428
-0.224930
-0.865705
0.009073
-0.438694
-0.542538
0.311208
-0.381318
0.244426
-0.463270
0.003438
-0.104901
-0.762905
0.436010
-0.785218
0.142606
0.231664
0.850134
-0.219281
-0.326016
0.764814
-0.221143
0.584412
-0.694786
-0.226213
0.401195
0.983092
-0.360835
0.891520
-0.689752
-6.008957
-0.364015
0.308138
-0.551352
0.359640
0.445637
-0.353844
0.616075
-0.513512
-0.463759
0.587965
0.921230
0.811003
0.807836
-0.893182
0.996189
-0.165024
0.830800
0.198942
0.952458
-0.042250
-0.138748
0.345234
-0.045707
0.073597
0.113153
0.938824
-0.667097
-0.928655
-0.519996
0.806950
0.893779
-0.730564
-0.114274
0.734812
0.601648
0.292973
0.097223
0.314001
-0.221822
0.089571
-0.195982
-0.216048
-0.730821
-0.633539
0.647023
-0.385563
-0.912117
0.588321
-0.789563
0.364918
0.103784
0.243452
-0.576512
