0.945579
0.623947
0.209252
-0.786049
0.370509
-0.071915
0.385677
0.683117
0.939779
0.954771
0.671004
-0.788226
0.013607
0.443425
-0.353878
0.346080
0.366245
0.628221
0.802003
-0.839821
-0.197009
-0.011756
-0.541022
0.615925
0.215576
-0.485487
0.992684
-0.924889
0.554901
-0.224316
0.904453
0.175630
-0.885574
0.497840
-0.285626
-0.397906
0.846090
-0.343699
0.831437
-0.999132
0.055283
-0.266371
-0.589291
-0.962670
-0.938562
0.153531
-0.949772
-0.833719
-0.228082
0.849504
-0.298100
-0.503008
0.470621
0.542989
-0.291111
-0.429235
-0.091469
0.604730
-0.213620
-0.649065
0.023461
0.573376
-0.526313
0.178686
0.282997
0.116983
0.568248
-0.474728
0.903665
0.651012
-0.563898
-0.297564
0.474500
0.493140
0.872986
0.083879
0.126872
-0.430466
-0.910183
0.441478
-0.083344
0.610676
0.647987
0.067226
0.361952
-0.454605
-0.261396
0.216996
-0.342541
0.279808
0.477886
-0.999981
0.168054
0.999563
-0.639933
-0.214030
0.652653
-0.838611
0.815802
0.815157
-0.104313
0.043774
0.124899
0.894498
0.387348
0.493419
0.643733
-0.633936
-0.849832
-0.043488
-0.261276
-0.968553
0.785309
-0.931819
-0.131877
0.704113
-0.080489
0.973753
-0.634998
-0.520837
0.057705
-0.967249
-0.028244
-0.683860
0.277344
0.187118
-0.725306
0.211286
0.539876
-0.433128
0.421897
-0.378965
0.458940
-0.563198
-0.044664
0.144129
0.456104
0.681943
0.733989
-0.772202
0.238743
-0.177300
0.329674
0.642943
0.231901
0.543923
-0.910679
-0.741753
0.633328
-0.443793
-0.003061
0.068308
0.090340
0.919759
6.935275
-0.834692
0.039195
-0.859741
-0.316053
-0.386332
-0.510002
-0.395641
-0.886371
0.128168
-0.935058
-0.431073
-0.124101
0.371224
0.022731
0.395727
0.943231
0.923796
0.998965
-0.777213
0.099938
-0.266099
-0.868309
-0.153992
0.582084
0.625685
-0.475466
-0.731275
-0.855272
-0.922009
-0.249641
0.714509
-0.839708
-0.027518
0.551960
0.973937
0.594213
0.904714
0.008413
0.520397
-0.788081
-0.286550
-0.060989
-0.126942
-0.405358
-0.298271
0.608525
0.665719
0.836742
0.612940
0.726029
0.196160
-0.509950
0.412537
0.277977
-0.056916
0.675847
0.579025
-0.421669
-0.380907
-0.213905
0.643060
-0.533481
0.612690
-0.748006
-0.127107
-0.603307
-0.269756
0.834580
0.311492
-0.555654
-0.943728
0.817682
0.672913
-0.226412
-0.569670
-0.541950
0.124727
0.857422
0.683501
-0.992296
0.652421
-0.738403
-0.433807
-0.905000
-0.952008
-0.849235
-0.637540
0.969579
0.689662
0.426822
-0.966250
-0.556788
-0.701551
0.236627
-1.015328
1.056802
-0.320213
-0.986256
-0.488413
-0.760576
0.565437
0.262428
-0.113107
-0.045347
0.867469
-0.006993
0.751249
0.809963
0.725057
-0.382905
0.257950
-0.967591
-0.167053
0.517835
-0.313083
-0.478986
-0.365002
0.309645
0.415180
0.835596
-0.705986
0.921102
0.255872
0.230241
-0.746312
0.603840
0.003933
-0.319029
-0.101895
0.191112
-0.788578
-0.039629
0.612508
-0.323166
-0.285793
-0.178988
-0.027417
-0.260764
-0.642466
-0.724750
-0.680695
0.809915
-0.689345
-0.535049
-0.558993
-0.931734
-0.406230
-0.269432
0.923457
0.600043
-0.551176
-0.895663
-0.437770
-0.184915
-0.625406
0.464547
-0.322612
-0.254202
0.782112
0.171415
-0.667881
-1.064199
-0.924083
0.679541
0.024471
-0.449292
-0.442023
-0.978162
0.333830
0.025142
0.106039
-0.949486
0.495199
0.401422
-0.482072
-0.376834
0.307745
0.141256
0.668325
0.337622
-0.236933
-0.002859
0.433963
0.769333
-0.392642
-0.909637
0.857243
0.948801
-0.294928
0.240549
0.043199
-0.795639
-0.748355
0.110279
0.729536
-0.876501
-0.011516
0.101089
-0.464154
0.880105
0.356558
0.236048
-0.569643
0.124828
-0.833133
0.945729
-0.170551
-0.666584
0.008652
0.871766
-0.570875
-0.470270
0.131094
0.713339
-0.795294
0.024379
-0.393864
0.208436
-0.094262
0.981793
-0.192850
0.778774
0.972530
-0.193806
-0.764370
0.383419
-0.263001
0.533479
-0.266294
-0.524387
-0.560501
0.321980
0.182371
-0.896173
-0.557387
-0.261991
-0.496021
-0.599594
-0.226524
0.022472
0.768490
-0.742784
0.375509
0.544705
0.685959
-0.464307
0.097858
0.492612
0.055747
-0.615202
0.306404
-0.501818
-0.119362
-0.615283
-0.155575
0.428508
-0.100997
-0.852368
-0.278194
0.901113
0.189577
0.825674
0.954239
-0.839545
-0.629928
0.602900
-0.845027
-0.556204
0.771196
0.992390
0.491512
0.811279
0.932681
-0.469947
-0.249787
-0.551194
0.087633
-0.552629
0.377816
0.644049
0.685926
-0.671681
0.414589
-0.451214
-0.680733
-0.119510
0.592922
0.298010
-0.588162
0.740247
-0.165230
0.183206
-0.694681
-0.594006
0.534982
-0.996565
-0.091732
0.138312
0.309756
-0.515468
-0.985968
0.637782
-0.203145
0.201548
0.078107
-0.124329
0.105523
-0.016946
0.972768
0.275588
0.414580
0.497406
0.285352
0.072664
-0.122010
-0.977823
-0.720937
0.852768
0.141364
-0.922173
0.033639
-0.309045
0.408053
-0.154486
-0.950573
-0.963120
0.699731
0.589282
0.384303
0.319731
0.182115
0.660685
0.475051
0.393428
-0.567449
0.742624
-0.937299
-0.998565
0.694187
-0.236546
-0.765334
-0.281881
-0.100256
0.757397
-0.295323
-0.092457
-0.235274
-0.064312
-0.556140
-0.814926
0.553875
-0.353791
-0.745333
-0.096933
0.146113
-0.860631
0.817190
-0.332228
0.160411
0.739150
-0.444930
0.679539
0.961281
-0.449833
0.991914
0.325773
-0.304152
-0.029847
0.199563
-0.495512
-0.349341
0.893732
-0.063392
0.286033
0.365649
-0.774233
-0.319771
0.310431
0.672653
-0.317128
-0.605194
0.989602
-0.468638
-0.059445
0.019487
-0.162698
0.526321
0.230546
0.387359
-0.444899
0.715321
0.641154
0.664052
-0.662116
0.692647
-0.629327
-0.986407
-0.751173
-0.654617
-0.849534
0.395392
-0.473855
-0.179001
0.503741
-0.943111
0.332625
0.155756
0.086090
0.755596
0.983140
0.615364
-0.152003
-0.806643
-0.083343
0.443546
0.584468
-0.640336
-0.587956
-0.145664
0.418890
-0.371018
-0.426265
-0.927872
0.774406
0.906298
-0.248810
0.557529
0.704948
-0.046920
0.174642
-0.754845
-0.594017
0.044934
-0.140919
-0.815339
0.449106
1.164439
0.676419
0.453587
0.007671
-0.015089
-0.368328
-0.950164
0.701353
-0.364410
0.671813
-0.836608
-0.207940
-0.886907
-0.174988
0.796367
-0.635916
-0.967427
0.749939
-0.257649
-0.369465
-0.367915
-0.455893
-0.768792
-0.091450
-0.427310
0.343655
-0.345995
0.188427
0.635653
0.018109
0.810812
-0.812191
-0.736032
0.691111
-0.057771
-0.392783
0.617496
0.796281
-0.067513
0.932752
-0.993892
0.413811
-0.640041
0.561804
0.544520
-0.521934
0.506012
-0.000118
0.977800
0.995627
0.168324
-0.665957
0.337747
-0.240735
-0.575092
-0.007802
-0.748602
0.485989
-0.280754
-0.694545
-0.923987
0.640932
0.823566
-0.450627
-0.670688
0.156529
-0.647237
-0.289254
-0.856504
1.159132
0.752921
-0.857020
0.901948
-0.007526
-0.738479
-0.712156
0.887063
-9.304313
-0.041868
-0.662951
0.375946
0.959883
0.942913
0.269099
0.992319
0.183687
0.349583
0.706983
-0.208680
-0.417111
0.016619
0.620106
-0.526265
-0.845735
-0.930491
0.151465
-0.959824
-0.058371
-0.998763
-0.927622
0.391104
0.425120
0.221416
0.857277
0.682439
0.249080
-0.536235
0.628927
-0.876675
-0.832582
-0.309142
0.989924
-0.857279
0.323239
0.302459
0.651996
0.833026
-0.462506
0.661717
0.212026
-0.016627
-0.762898
-0.369410
0.955406
-0.729078
-0.985913
-0.739990
0.727211
0.443006
-0.592958
0.541532
0.413861
0.636317
0.543755
-0.072816
0.926928
0.165617
-0.826380
0.084406
-0.477780
-0.483003
-0.421802
-0.841125
-0.713215
-0.118875
-0.905991
-0.952983
-0.783945
0.057244
-0.677354
0.346681
0.562700
0.783524
0.909372
0.927211
0.930716
-0.753798
0.327933
0.732237
-0.498609
0.237055
0.787420
-0.233853
0.752999
-0.898769
0.877544
-0.209367
0.732867
-0.352248
0.755569
-0.047022
0.381680
-0.012543
0.870997
-0.333107
0.003818
0.321374
-0.635623
-0.147072
-0.027745
0.901627
0.518230
0.083869
0.419575
8.790632
-0.807160
-0.233767
-0.365056
0.076990
0.212791
-0.667308
-0.190236
-0.407521
-0.615097
-0.057102
0.905309
0.424090
0.028991
0.146172
-0.518885
0.104184
-0.052669
0.474185
0.954066
0.660508
0.316834
0.002694
0.927084
0.047324
-5.602410
2.320657
-3.046091
4.064557
-1.149681
-0.697848
-4.230980
-8.002159
-11.772649
2.985634
1.845339
5.033658
-9.167320
-10.560161
-6.065941
-5.613074
-1.330430
6.442366
1.882114
6.187991
-4.085775
8.484248
1.589508
4.267094
-4.672227
7.542006
2.795055
6.565309
-2.543510
-9.270298
-12.499355
1.191599
1.966446
2.871918
9.279961
0.530233
1.005718
-2.387523
-10.668657
-0.392915
-3.242491
0.085876
-1.911006
4.301391
-5.584087
1.824915
5.921902
-8.825851
0.877111
7.596827
-5.059718
3.736680
1.035903
-1.130003
2.641749
0.864757
6.369364
1.795690
-4.673190
0.835947
1.373388
-3.046577
2.943571
4.440464
0.798372
10.535691
-2.312215
-6.425751
-0.482597
-9.566855
-1.202336
-0.508455
4.449857
4.694754
1.614711
4.254743
-3.017864
-0.652146
-3.163194
-3.386666
-3.941740
-2.663001
-1.188825
-1.497123
7.400377
0.015322
-3.553535
-8.717360
-9.047813
1.786043
-6.866101
-1.987352
-3.642684
-0.766094
-0.752264
0.336444
2.690408
3.551110
3.258073
-4.991511
8.571582
-2.833918
-0.421168
-8.910111
5.856779
2.216977
-5.293351
-5.985008
8.095401
-12.052082
6.189835
4.115414
6.843065
-5.750367
6.110141
-0.179114
-2.237081
4.337268
-0.196838
2.781030
3.721947
4.403444
9.369330
4.067015
-2.994307
3.078106
-0.005229
-8.272139
9.363133
17.403154
3.636889
4.634332
4.737023
5.564219
8.615071
8.585263
-2.295089
-4.832389
6.132076
-2.161386
1.385243
-0.837000
-5.784163
5.478804
-2.262176
-11.511526
9.900653
5.628993
-5.722636
-1.684174
5.634249
3.929820
-7.715718
2.522159
6.053093
-0.988174
9.698565
9.587702
-6.924915
9.396577
-4.321709
7.209612
-3.174137
-7.912663
3.474553
-1.355919
1.083922
-16.843026
9.846162
4.089576
4.329056
5.469544
-2.403923
-5.651620
8.643364
-6.549089
-5.695214
-0.040350
-4.768000
-8.617213
-7.698382
-3.178311
8.074928
-0.156672
-4.342259
-3.774279
-10.089379
0.933970
-2.559937
-4.766110
-1.781852
4.034883
-10.717024
-1.707590
10.381710
-0.216601
2.497097
5.176293
2.038578
-5.119904
-2.352820
2.605781
7.429547
0.071802
4.889226
-6.578389
1.165973
4.805349
0.637655
-8.368598
6.256585
6.292135
-3.835186
5.660880
1.596432
-20.030645
0.338734
-6.021896
-6.102027
0.849080
3.523902
-4.953297
8.924287
5.630315
7.538348
-3.607773
1.460311
-7.695470
-6.998762
-8.688922
-20.719938
0.976702
1.634491
-9.417952
9.308335
10.617557
0.090802
-4.796935
3.746033
-5.741645
2.428386
2.345263
-9.720119
-4.450794
-8.906868
-5.819601
2.892159
9.317078
8.791809
4.055856
-7.962785
-0.427821
-2.134998
2.292010
-6.375869
9.579997
-7.470420
-6.798584
-6.087035
6.146489
9.947552
15.162574
4.659489
2.866859
4.865615
4.156711
-3.065265
0.746714
0.636099
4.107141
-5.070371
2.095333
-0.325041
8.965700
-3.573649
18.199363
-3.889101
2.965362
-7.673870
1.192399
2.130560
2.874606
-5.928035
12.235155
-1.191241
4.158344
0.666471
-2.020887
12.055806
6.143237
-9.625088
-4.246625
11.615660
7.297678
-2.381321
6.777297
-1.266389
-2.931124
-12.390942
7.211014
-6.263768
8.973465
2.323046
-5.093958
8.064992
9.585882
10.310496
8.188233
-7.394465
-0.455175
-1.398661
-0.361344
3.547646
-1.414201
6.762393
-0.931145
-3.084619
-5.286299
8.744858
1.947827
1.623136
4.555790
-0.962634
-1.099596
1.645715
-1.918364
6.055621
6.178949
-0.448100
2.074891
11.685816
4.593473
-5.327998
-3.213500
-9.691222
12.072533
-2.685234
3.956782
-9.231497
-4.763914
3.133457
-5.023564
-3.333014
8.357832
-3.937318
4.474301
-3.624912
8.596633
4.802115
-0.355370
3.789391
4.264244
3.572586
-5.442575
-5.913934
-3.141002
-9.830858
1.953077
1.028367
6.382908
0.500198
3.184977
-7.202254
2.535397
-2.784860
5.109926
-1.396260
6.912366
4.040167
3.844260
-4.026781
3.598015
-7.727088
-6.813371
8.433263
-6.429487
-6.623097
-3.306407
8.981906
6.060005
4.322719
4.568731
7.289318
-5.354943
-0.441297
1.416053
1.953720
3.279115
-1.759839
-8.617623
-0.831312
3.946798
10.657583
5.671458
-6.806133
3.285759
-0.876277
-9.547366
6.853691
-11.342803
-2.686924
1.688278
-10.956345
-11.032889
-1.294666
4.426185
2.974156
-3.467334
-4.209549
15.260651
4.249600
4.303874
0.061423
0.603789
8.814818
2.895226
1.280055
-17.233102
11.177758
-2.725953
2.409527
-4.224138
-1.025582
0.146133
-7.636266
-3.843251
7.017909
1.622470
-5.908248
-1.270105
-0.302216
7.806445
3.914965
8.032458
1.049428
11.486643
-7.845333
1.836125
3.868114
-4.706592
-3.520700
9.267674
0.651781
6.513361
3.626806
6.099049
-2.905129
8.221657
1.483877
-2.563582
0.232699
0.077233
-0.790181
3.075834
4.420468
1.709517
5.473066
0.332705
-7.954865
-23.487911
-17.522842
-0.479185
-1.516805
4.849735
-7.996316
4.510607
5.910188
-3.386282
-3.186585
-7.848374
1.833975
8.407746
-3.249572
5.007255
-5.153615
2.873074
0.708280
-7.341712
5.463467
-6.301670
-1.425227
-20.128837
5.009596
10.232143
8.255756
7.227866
-7.676318
-3.994481
-7.343741
4.492454
-11.070561
6.782552
-15.801958
-7.349904
2.714621
4.961327
1.978156
2.719271
-4.294069
1.688211
2.597478
5.175625
-5.656517
7.792993
6.366421
3.577410
-4.943947
-6.617925
9.197996
1.313770
6.593932
-14.405178
1.759485
-8.344995
-1.790637
-4.614653
-5.406222
-8.860527
-2.334995
-3.782134
1.905396
3.395076
-2.426152
-1.896323
-0.040269
1.805737
-1.492774
1.739845
-1.235857
3.320704
-4.501142
3.402509
-2.867208
-16.286268
18.053696
7.569285
-7.462340
-0.651811
4.583115
-7.087786
-7.143623
4.456082
-3.998807
-7.217583
10.785485
8.040835
7.769714
-6.268095
6.104403
-14.004162
7.757219
-0.393741
10.764616
1.816239
2.960184
4.973160
2.798816
-9.557355
3.936811
14.589250
-9.868348
5.410461
-0.840354
-6.057730
-1.822336
5.511881
5.109625
7.793929
-7.686289
9.838697
4.667689
-6.972973
-3.392587
3.597765
-6.842390
-4.174808
7.902753
4.944771
-4.832425
5.207068
2.804123
1.664382
7.529272
-5.280695
2.242673
-2.701340
-1.667216
6.451465
18.065741
4.269365
3.911361
2.171943
6.026176
7.458427
-4.703950
3.552815
-4.766759
-0.394719
4.387336
1.817692
4.407517
0.261345
-1.176604
-2.913512
-1.085245
-4.227117
-0.390815
-6.508040
4.513704
-2.121717
7.373200
-5.244943
4.930784
-0.290213
1.686340
0.336857
-5.592593
-1.223747
-8.275135
-14.770078
9.823258
4.733586
1.847192
3.980756
8.165662
3.183762
9.061399
0.430840
3.045008
-3.210704
4.657487
-3.300473
2.216095
2.409792
0.261985
7.630477
0.050014
-3.873967
7.007450
-5.510756
6.485678
8.003485
-1.431314
3.301023
3.754235
-4.532768
0.257980
-4.106854
-7.038656
6.501272
0.950013
0.415739
1.182334
0.663247
1.083833
-5.187291
2.791097
-10.744738
2.754961
-5.141716
-12.469628
9.789941
-7.572060
3.061041
3.199788
-9.595572
0.581369
3.358153
-4.087690
0.154485
-35.074068
-7.023726
6.450835
8.481002
8.565350
0.716283
5.649746
-9.380364
1.163724
9.185408
-0.952340
-8.929168
-0.071533
2.535379
2.256190
0.354861
6.022523
-0.530446
-2.308081
-8.473252
6.358469
3.171204
-2.365662
-4.421803
-2.490892
-1.325197
5.059947
-6.929512
7.107186
5.990775
-2.274625
-3.966736
-4.557043
6.676411
0.048702
12.096810
-0.561781
-2.005937
-5.470104
8.441215
4.806272
-3.776161
4.022102
-7.611384
5.050510
9.491891
3.561659
2.735717
0.059453
6.987859
21.679736
-0.218344
5.630606
-2.967557
-2.903536
-6.179327
4.362909
3.364040
-4.958080
-0.064314
-5.625250
-6.455128
-5.596038
16.347122
-10.469203
7.232833
-0.130000
-8.864266
0.731892
6.762123
6.905530
-9.221330
-10.084588
9.203574
-5.791756
-0.046700
2.129508
-12.940087
5.775974
-7.625369
5.207021
3.431788
-3.026539
12.929571
2.464090
8.529847
10.648221
3.999533
5.105012
1.752162
8.254212
-10.742241
6.421190
6.540269
7.267394
-1.377635
-4.447953
9.658074
3.105066
-0.381769
-2.802258
1.402519
3.585342
-1.272255
2.955208
3.508629
-8.569866
-4.091427
-1.515129
-2.597030
-2.249148
-10.301878
3.705078
8.628296
3.448792
3.935005
2.172578
5.156370
-9.120144
-5.225665
15.195846
-3.176292
8.368978
9.634249
-2.251557
-3.274005
1.450830
4.414487
-3.257947
-10.000935
-3.683690
17.143126
11.737985
6.438707
-4.065813
-0.490189
-9.631303
-0.907709
9.810924
-3.909432
-0.349155
-5.860936
-12.559544
7.459164
-2.117565
8.297141
4.237444
-1.766916
1.458863
-8.579135
1.214514
-0.368264
6.408043
-0.473176
-5.032755
-5.395986
2.949304
7.502769
2.548594
-1.510960
1.883937
7.251031
-10.457680
-8.697662
-7.235561
0.799319
-7.706305
9.030940
-3.984280
-0.609538
5.724381
-0.308866
-0.052234
11.075269
4.482794
-4.242733
1.634323
0.188645
2.068110
7.552905
-4.700122
5.450548
-6.645139
-3.166535
0.714594
-3.365102
-5.088446
3.483991
6.331196
0.228655
2.959574
1.196148
-5.142110
5.816258
-6.105583
1.601277
1.183939
-11.859340
8.636429
-3.279249
-0.198869
-3.468280
1.776426
4.755636
11.245629
6.737069
0.811218
-3.152671
-5.120466
0.805778
3.341242
-3.094434
1.107651
1.800171
-3.951755
-6.603648
1.623498
9.477231
-0.278673
-0.092080
10.162863
2.699645
2.188930
-3.076347
1.432306
-10.253588
0.824527
4.490840
13.268146
5.831959
3.178561
-9.028865
-11.388576
-2.431747
0.889264
-7.505712
-4.092991
-1.045035
-0.903201
-1.997125
5.123407
0.427361
-6.193985
8.745176
3.944862
-0.190002
-3.693052
2.000475
-3.482153
6.771406
-4.381061
2.998149
14.208315
-1.775866
1.269716
9.096170
3.331341
-7.301751
-4.196471
-16.769206
-2.988584
9.876425
-9.022324
12.802952
-11.558132
0.722064
4.095570
-7.507144
9.055256
1.466373
6.550547
4.291181
-8.163016
7.398500
-6.544416
-6.771841
-2.131793
-7.980707
-1.914257
0.511594
0.244433
-2.038976
-2.134722
6.147562
-1.339355
-12.169303
-2.564085
7.994051
-3.338485
-8.175920
12.510901
-11.483872
0.842061
-1.443898
-2.553630
-7.636138
1.529095
-5.568648
-0.721417
-4.060242
-1.929256
-15.217211
4.553519
0.377364
6.057865
1.536292
1.317493
3.537273
-4.758736
-0.192238
-1.300408
-0.957525
-4.652021
-4.768204
-6.647214
-7.038412
8.105602
-4.303885
-7.743727
3.140399
5.601070
1.794491
-4.522692
5.649277
-4.292185
-2.522563
0.882276
-4.880198
-4.622431
3.733931
0.401134
-3.404406
3.768175
9.435452
-6.502794
0.025986
-0.648539
-4.070506
5.798260
-1.758264
2.599750
-2.709891
2.777832
15.675146
-3.559513
4.650587
-6.230207
2.537188
-1.525596
-0.971278
-2.175983
-6.691270
-0.509646
6.583340
1.724399
-1.693680
1.504730
4.691817
2.714831
6.741607
4.158829
-6.466666
-6.422877
2.756404
5.817100
-0.688453
-7.496623
1.565937
-2.262867
0.232653
-1.517516
0.546608
-1.680435
-8.594749
-0.949707
8.907764
1.849155
-1.790624
-14.467652
-2.438300
-4.243975
-4.890499
7.457364
-8.635851
-11.500361
-9.370232
-6.676738
2.518543
-12.960399
7.459057
3.042476
-1.442442
-8.160875
0.324029
5.576670
1.438974
-4.073997
12.918247
4.423538
9.193064
8.169993
1.976405
10.540928
1.828805
4.476677
0.296002
8.730885
7.243456
-13.784148
5.481092
-2.337204
-0.705460
-2.385342
3.802743
-0.000445
5.265685
13.602871
-5.531870
-7.033547
1.424368
-3.088947
-2.562617
-10.811443
3.262810
1.538583
3.474278
8.189618
0.026154
3.745024
-15.381171
-4.242958
-7.821864
3.149695
-10.324199
-4.634547
2.463185
0.745109
-4.445879
14.148608
0.719281
-69.540724
-0.672826
-9.152770
3.056372
-2.356677
2.572191
-1.661351
6.895836
3.502064
1.751539
-1.003122
-2.989086
0.242581
-8.892684
-0.073769
5.450434
1.927820
5.448399
-4.618731
-7.790605
3.820658
-1.660865
5.468019
5.553353
4.584310
-1.791180
-6.137415
9.713959
6.614009
-0.634011
4.206629
12.793932
0.372622
-9.723953
-2.673545
-7.364424
-7.200597
-0.965987
7.731973
10.686114
2.064201
7.939839
-6.236951
6.213042
-8.983026
-2.266053
0.344659
-4.442749
6.807367
3.136713
1.918811
-9.483080
2.234590
0.180264
1.797850
-5.445336
-9.251099
0.338412
-3.074407
-1.970575
-7.369280
5.934909
-6.645100
6.457059
-5.892476
7.642583
-5.304925
8.836502
-3.046757
6.967742
-8.709841
-6.105204
4.585703
9.937647
4.890467
-0.146982
-12.437291
6.942363
-10.854995
-7.109880
8.145511
7.731702
-7.457747
-1.756730
8.472525
5.818649
-4.477158
4.272384
5.282548
-3.000849
-1.285405
-3.584743
13.142571
-5.832723
0.085276
1.915983
-0.132694
-4.110993
1.788148
-0.504721
12.039844
3.181842
1.988081
3.512868
-6.181546
0.346231
0.927266
10.824822
-3.894974
-0.590646
-0.463096
4.129244
-5.044858
-4.577174
-2.370049
2.583180
-8.733291
3.506641
7.068226
11.926753
-2.607885
-5.178226
8.602474
-1.496503
1.808419
-6.014009
7.479591
9.560100
0.424420
1.493712
7.080564
-2.188530
-3.779393
9.445619
-1.875924
-6.347014
-0.060670
-3.107713
5.085296
3.345138
-8.072207
-3.559039
-3.307241
2.250698
1.438427
-3.710100
7.109694
10.830400
-1.922231
3.577615
2.899597
4.123019
-11.489235
-8.050501
-6.199833
-1.039063
1.191621
-2.171644
-1.492645
6.649581
-1.053918
-1.517332
-11.384325
-0.336027
5.976390
5.239743
-4.167043
-2.064346
9.517076
-7.133725
-1.857890
2.641142
6.934796
-1.387954
-8.110375
-1.590814
-7.091643
0.514514
-6.716426
-2.065864
-6.600387
0.671254
33.084106
9.560455
8.945110
3.832324
3.730993
6.210894
-8.274850
7.750103
-7.262953
-0.102814
-5.829404
0.890024
5.744767
6.646857
2.446181
5.056313
6.361546
-2.249928
0.495511
-1.801264
-0.195441
-4.132890
11.086428
-3.529415
3.009138
-0.441304
10.298303
6.897906
-1.233101
-6.289894
-9.771434
-6.435779
7.118464
10.696708
-9.413581
1.304278
-2.418820
-5.457922
-5.908835
-0.176281
-3.380147
4.129035
8.480920
-5.171517
15.752340
-2.139317
0.727406
3.532358
1.385779
3.498307
-3.155005
5.089636
-3.744091
4.733038
9.433291
5.423256
-5.065774
-9.998503
-3.354403
0.993578
5.660581
10.023804
-5.661312
3.185339
9.232820
4.965771
4.746256
-3.774185
9.259834
-5.503289
-5.674177
2.168822
2.575750
11.306957
-0.743276
6.698918
-4.101501
-2.551278
0.618710
-3.798415
-11.189919
1.361680
5.781503
2.454245
-5.951552
-2.993621
3.391271
-5.437752
-1.471719
-2.219628
-4.494146
-3.279518
-3.272421
-3.456073
-7.137417
11.538384
10.374769
4.244966
4.942181
4.147539
9.461962
-6.017487
4.542445
-1.313900
5.551762
-1.307330
2.083189
-3.268982
-1.143738
3.475365
-6.359166
2.519671
-1.717607
-2.319775
-3.183164
3.268558
-1.077986
2.062479
-6.445633
-8.206237
4.734319
0.697800
0.679356
-6.793107
10.595695
1.892335
-1.344920
-5.292871
-2.918855
3.207741
5.178002
-1.097961
-13.173954
1.116714
-2.966734
5.461864
0.812594
-7.604890
4.897647
1.004646
5.298419
-0.223837
-2.171585
-11.020684
-1.987741
-0.362948
2.158563
-6.660224
-1.597803
5.324175
-9.889362
-6.712600
-2.330066
-3.265513
-5.051751
-2.068735
7.935849
10.030948
-2.082496
-9.876095
-9.296276
10.926942
9.048028
-7.012654
7.307269
-2.496968
-6.581716
5.723242
-1.320802
-3.383446
-8.434544
2.851628
-2.942902
-7.351967
-3.020120
-3.103909
-3.031633
9.672300
-2.942366
-6.842797
3.758296
-4.232684
3.877622
-6.047373
-2.728110
4.909915
-6.184289
-8.040558
14.010217
8.150451
2.764465
0.223338
7.106118
-2.964681
-0.269618
-10.460521
-2.947785
8.849167
1.424315
-2.002062
5.403618
6.000472
5.274924
4.516123
-3.740557
1.874601
-0.019369
-1.135861
0.312824
4.363753
-7.710801
-2.952540
1.226770
-5.035830
2.213899
0.875252
-6.474085
5.372322
3.629849
-5.579991
-2.246252
-2.702447
-8.968910
-6.863775
3.758992
-4.229526
-2.694305
-2.665247
-5.213463
4.677891
5.981752
-2.350441
3.478621
4.832874
-5.864667
3.139947
-7.381876
-2.210045
-7.662307
-1.342318
13.100551
4.225601
0.177011
-10.770568
7.462823
-9.008136
-2.927769
-4.397699
-6.068158
10.472005
7.762304
3.920535
-4.412693
1.496871
10.412642
9.205933
8.551297
14.199317
-1.258524
-1.083463
3.747232
0.461964
-2.891117
-6.163131
4.024381
-7.715305
9.924094
-1.461642
-5.413944
2.987770
-3.882437
3.301107
-0.450461
2.640376
-1.234138
1.189119
-6.882256
-9.241264
9.372872
-2.670162
1.947849
1.762672
6.833126
5.556262
-5.866104
0.191853
5.432635
4.632758
-3.995194
-3.210268
-8.717982
-1.760130
3.638060
-12.973042
4.154662
-1.416174
9.996206
-8.569215
5.128059
-6.756939
-1.720455
9.192592
6.689002
-3.373938
7.415874
-2.796354
5.731004
9.283699
-0.663383
-0.605717
0.751409
-0.699255
0.613818
-0.854274
-0.617648
-0.198231
-0.292722
0.172928
-0.098097
0.443824
0.569682
-0.113347
-0.463156
-0.286999
-0.260628
-0.563765
0.231877
-0.774307
0.298632
-0.475501
0.762655
0.521955
-0.309336
0.494435
-0.769835
0.168139
-0.530280
-0.980655
0.692664
-0.612891
0.725686
0.930035
0.034218
0.696181
0.914079
-0.006226
0.391828
-0.615024
-0.448990
0.251924
-0.453122
-0.167610
0.495134
-0.695287
-0.243437
0.709086
0.168431
-0.783260
-0.276952
-0.407275
-0.089199
-0.034219
0.371739
-0.137629
-0.563333
0.452568
0.441677
-0.137372
-0.643236
0.501018
0.008301
0.583611
0.351489
0.904219
0.907252
0.580982
-0.546840
0.956592
0.646093
-0.277930
-0.948558
-0.756148
-0.508095
-0.891453
0.337511
-0.826025
-0.703031
-0.525910
0.164393
-0.864808
-0.963637
-0.681997
0.235503
1.116698
-0.251604
-0.998867
-0.429858
-0.022201
0.955966
0.170365
-0.850316
0.314244
-0.790830
-0.471640
-0.699836
-0.893361
0.885428
0.644362
0.620431
0.451679
0.258288
-0.764932
0.634125
-0.620617
-0.014625
-0.540453
-0.484383
-0.717884
0.689679
0.150278
0.369952
-0.150060
-0.858976
0.357466
-0.326492
0.432157
0.140781
0.821810
0.729338
0.991744
0.903561
0.043883
-0.323824
-0.715797
0.519906
0.523022
0.175297
0.978280
-0.776347
0.952410
0.141801
-0.519318
-0.453076
0.449776
0.060171
0.647932
-0.363293
0.466312
-0.561929
0.699336
-0.768405
-0.082917
-0.508538
-0.593813
-0.867635
-0.154079
-0.569750
-0.731028
-0.767377
0.199396
0.371875
0.149749
-0.330366
-0.853750
-0.587424
-0.203174
0.001193
0.320991
-0.773888
-0.311752
-0.950549
-0.334383
3.132379
-0.115807
0.208645
-0.826955
-0.869591
0.359628
-0.396949
0.986058
-0.167363
-0.024613
0.708286
0.084793
-0.826429
0.049375
0.048171
-0.723052
-1.254219
0.402743
-0.638310
0.110107
0.996073
-0.944560
-0.790032
0.165809
0.238377
-0.320257
0.926286
0.602628
-0.930837
0.138444
-0.050570
-0.339410
0.217212
-0.246775
-0.673914
0.552244
0.268560
0.720641
-0.920397
-0.389138
0.958913
0.158137
0.972501
-0.412786
0.601452
0.915226
-0.124314
-0.742919
-0.048748
-0.906758
0.507596
-0.294383
0.781351
-0.224472
0.928872
0.550992
0.116401
-0.800077
-0.484778
-0.322503
0.883760
-0.413603
-0.864237
0.167409
0.748838
0.263547
-0.084660
0.560581
0.041708
0.306949
0.243474
-0.851628
-0.643355
-0.824823
0.414181
0.508910
-0.834018
0.464412
-0.637572
-0.631319
-0.148727
-0.694527
0.551643
0.830793
-0.235966
0.338107
-0.336183
-0.367540
0.439555
-0.996355
0.380181
0.855377
-0.467757
0.268752
0.458400
-0.841042
0.044261
-0.002110
-0.887061
0.178837
-0.220025
-0.719443
0.282411
0.998505
0.409026
-0.658667
-0.394489
-0.230094
0.889265
0.564343
-0.494398
0.340334
0.069189
0.152333
-0.601325
0.916163
-0.015602
0.252066
-0.059957
0.350739
0.702057
0.257840
-0.324687
0.660257
0.239904
-0.664683
-0.506986
-0.214636
-0.584606
-0.521252
-0.591517
-0.257045
-0.328629
-0.493957
0.837379
0.019548
-0.586660
0.529805
-0.082136
-0.616926
-0.801001
0.118962
-0.084511
-0.334459
-0.257272
-0.991199
-0.135202
5.366156
0.733168
0.755400
-0.047071
-0.281705
-0.099040
-0.022978
0.500609
-0.043334
0.589134
0.323339
-0.843551
0.107413
-0.375540
-0.467039
-0.347244
-0.144397
0.609246
-0.028715
-0.545963
-0.742251
-0.404980
-0.241645
-0.334159
0.316580
-0.437975
-0.103478
7.996098
0.257065
-0.029811
0.345183
0.517499
-0.359048
-0.238566
-0.926248
-0.182566
-0.093113
0.962887
0.164069
-0.798452
-0.446452
0.035558
0.218003
-0.807427
-0.446209
-0.583056
0.228836
-0.749504
-0.683870
-0.338043
0.978538
-0.840797
-0.296649
-8.940716
-0.624851
-0.975740
0.828004
-0.418477
-0.935098
0.592414
-0.409411
-0.976686
0.692900
-0.424943
1.159769
-0.092605
0.819132
-0.836528
0.508972
-0.696705
0.003480
0.279693
0.523545
0.053947
0.964928
0.551326
1.149024
0.621775
-0.109520
-0.475505
0.674000
-0.576525
-0.027970
-0.656169
-0.595845
0.776971
0.554737
0.286749
-0.420956
-0.841313
-0.663546
-0.646170
-0.497965
0.517739
-0.471311
0.379067
0.463545
-0.010936
-0.248457
-0.634297
0.324350
-0.482796
-0.619810
-0.716122
-0.820925
0.229514
-0.615171
0.172094
0.941876
0.205090
-0.817413
0.702512
0.231369
0.330837
-0.221340
-0.907455
0.652630
-0.522442
0.516266
0.714181
0.766894
-0.085653
-0.640724
0.925308
-0.652950
0.251253
0.246889
-0.182642
-0.696114
0.577130
0.203153
-0.402523
0.625287
-0.995601
-0.130457
-0.684708
0.191295
-0.432746
-0.448775
-0.730366
-0.466569
0.934526
0.509875
-0.742692
-0.581465
0.198814
0.425852
-0.441642
-0.654088
0.186668
-0.929756
-0.809457
0.172968
-0.859227
0.618153
0.821508
-0.854193
-0.890191
0.471655
-0.577350
-0.213967
-0.788988
-0.514937
0.749440
-0.999605
0.647562
-0.595170
0.367154
-0.000653
-0.123059
0.185782
-0.595958
0.720619
0.690290
-0.288884
0.477881
0.932747
-0.625781
-0.561384
0.764888
-0.326897
-0.000158
0.239259
-0.722807
-0.346099
-0.920730
0.236791
0.082829
0.711803
0.798470
0.067085
-0.811790
0.813141
0.138174
0.236340
-0.106869
-0.013758
0.859778
-0.653683
0.981677
0.350254
-0.599315
-0.332041
-0.287831
0.447421
0.749725
0.765299
-0.182278
-0.395035
0.636752
0.001274
-0.197474
-0.764600
2.131035
-0.647375
0.767001
0.484858
0.400721
-0.526556
-4.508708
-0.594937
0.221109
0.746419
0.819589
0.623280
0.370287
-0.992372
-0.307734
-0.026583
-0.856094
-0.285235
-0.363505
0.128929
-0.325315
0.953790
0.797340
-0.711043
0.007189
-1.608850
0.610794
0.409177
-0.435768
-0.748175
0.119405
0.625605
-0.273230
-0.323645
0.976175
0.689539
0.241028
0.304737
-0.248222
-0.712626
0.102877
0.860408
-0.708576
-0.401648
-0.133010
0.948635
0.529694
0.828299
-0.409307
-0.743294
-0.008073
-0.722877
-0.929838
-0.471212
-0.349574
0.593522
0.639864
0.888979
-0.585853
-0.187769
0.370986
-0.249923
-0.198732
0.364995
0.552618
-0.380794
-0.888418
-0.806327
-0.280862
0.768567
0.035818
0.986414
-0.757428
-0.093892
0.134269
0.234372
-0.227044
0.921419
0.652805
-0.630502
0.873910
0.802166
0.610082
-0.306894
-0.780397
0.746492
0.680882
0.257441
-0.496718
-0.217814
-0.696627
0.577887
7.610909
-0.324212
-0.045899
-0.072047
-0.461392
0.674531
0.216966
0.504311
0.184331
-0.844451
-0.405436
0.903497
0.278618
-0.327952
0.627925
0.156451
-0.097437
-0.088315
-0.851004
-0.078792
-0.283678
-0.089209
0.795468
0.007583
0.646974
0.564611
0.659515
0.553821
0.396038
0.968898
-0.086409
0.236151
-0.344600
-0.541775
-0.719779
-0.172410
0.238173
-0.994677
-0.280885
0.462990
0.403427
-0.054490
0.095231
-0.904919
-0.159027
-0.150542
0.675588
-0.764010
-0.026078
0.223360
-0.784072
0.608467
-0.233981
-0.628483
-0.471402
0.112572
0.262286
0.283223
0.792347
0.561070
-0.341119
-0.162848
-0.957602
-0.915044
0.440490
0.205391
0.773461
-0.078562
-0.286234
-0.440509
-0.752474
-0.716799
0.253784
0.686009
0.482183
0.195394
-0.252748
0.963927
0.015060
0.536719
-0.327923
-0.298090
-0.469901
-1.045114
0.885895
-0.134902
-0.022392
-0.968604
-0.292638
0.973468
-0.453794
0.091845
0.614557
-0.805422
0.766867
0.441236
-0.780331
0.604488
-0.172348
0.038062
0.001304
0.700738
-0.731138
-0.933467
0.765177
0.710747
-0.534828
-0.933552
-0.299961
-0.962352
0.247585
0.990962
-0.317636
-0.459801
-0.398966
-0.831033
0.655302
-0.045768
-0.024836
-2.065421
0.000520
-0.910987
-0.245580
-0.048018
0.098434
-0.050642
-0.438372
0.267801
0.482408
-0.399707
-0.820380
-0.713621
-0.887673
0.529461
-0.475647
0.663321
-0.244857
-0.834593
-0.068913
-0.720494
0.103731
-0.074381
1.020083
0.065587
0.683393
0.062743
-0.695914
-0.114226
-0.820762
-0.201736
-0.383639
0.282170
-0.271063
0.608737
0.427334
0.483176
-0.106842
-0.430750
0.056453
-0.416587
0.586776
-0.682575
0.385633
-0.937393
0.375172
0.098691
0.529763
0.453527
0.427629
0.124758
0.883367
0.894215
-0.733703
0.757677
0.615846
-0.177270
-0.845338
-0.503152
-0.461362
0.946764
-0.059792
-0.276498
-0.329510
0.852261
-0.387610
0.103060
0.185721
0.718254
0.919753
0.559248
0.273878
-0.765486
-0.961851
0.630162
-0.918778
-0.674337
-0.413516
0.543851
0.532434
0.565687
0.720076
0.722466
-0.927489
0.118573
-0.020426
0.459609
0.248740
-0.186818
-0.424896
-8.041759
-0.144748
-0.630955
-0.838246
0.494314
0.816885
-0.066290
-0.119568
0.900886
0.415666
0.646316
0.155991
-0.987114
0.477943
0.625525
0.927871
0.174088
0.964374
0.348344
0.063363
-0.821075
-0.849276
0.625638
0.909369
0.872243
-0.097622
0.687196
-0.030846
-0.642094
-0.664074
-0.680679
-0.455538
0.510392
-0.393738
-0.742386
0.802457
-0.468903
0.949216
-0.560561
0.796251
0.903477
0.468445
0.599248
0.195885
-0.215718
-0.631707
0.183289
0.013049
-0.718172
-0.914903
-0.210001
0.609458
0.616066
-0.249015
0.436679
-0.823078
-0.646894
-0.016133
0.588524
-0.375052
0.822013
-0.807662
0.708722
0.534680
0.464446
0.249277
0.455871
-0.646017
0.828426
0.489201
-0.735819
-0.691409
0.624734
0.840129
0.024384
-0.406391
-0.222157
0.403656
-0.624562
0.030489
0.451460
-0.579480
-0.269239
-0.036863
-0.974400
0.023143
-0.896616
0.983336
-0.996849
-0.994070
-0.375256
0.222727
0.314506
-0.522031
-0.187105
0.004822
0.764502
0.219065
-0.530994
-0.442365
0.763683
0.609537
-0.404399
0.019863
0.677164
0.569311
0.515199
0.632045
-0.029977
0.595237
-0.030762
0.214771
-0.034724
0.495679
-0.501578
0.002502
-0.433607
-0.896582
-0.483210
-0.261676
0.677019
-0.361394
0.750597
0.365815
0.270081
-0.822082
-0.111875
0.744790
0.467085
-0.883411
-0.840037
0.141715
0.049342
-0.220869
0.483351
0.538164
-0.746937
-0.038640
-0.276554
7.789311
-0.159835
0.262178
-0.739290
0.194474
-0.085272
-0.788991
-0.085258
-0.654377
-0.144514
0.558780
-0.355623
0.726312
-0.844961
0.843392
0.989294
0.714426
0.545539
-6.681394
0.930624
-0.033650
0.477958
0.339905
-0.996529
0.133042
-0.609165
-0.480643
-0.711050
0.089371
0.747217
-0.758129
-0.728785
-0.319823
-0.648234
0.788854
-0.386391
0.007397
-0.802528
0.112480
0.651240
0.720929
0.113048
0.808395
0.901513
0.654596
-0.681111
0.388925
0.227046
-0.438298
0.201967
-0.728025
-0.914910
0.610108
0.672528
0.230379
-0.045681
0.734326
0.783407
-0.238602
-0.123830
0.054571
-0.501271
0.247624
0.598808
0.435565
0.075247
0.186962
-0.238473
-0.326039
-0.332649
-0.162244
0.039347
0.395108
-0.736223
-9.702691
0.750982
1.013571
-0.607059
-0.351483
-0.462065
0.945839
0.840099
0.761669
-0.978421
0.223653
-0.102044
-0.871670
-0.301339
0.019590
-0.393608
0.969735
0.927785
-0.712533
0.248608
-0.881158
-0.464535
0.072647
-0.534387
-0.213419
0.988734
-0.637964
0.635312
0.814749
-0.155371
-0.360375
0.310160
0.485881
0.303112
-0.414119
-0.133645
0.643748
0.251606
0.196674
0.506756
-0.545394
-0.783118
0.618886
-0.184993
-0.340930
-0.032987
0.219007
0.074824
0.780109
-0.186275
-0.012369
0.895201
-0.261843
-0.726121
-0.846799
-0.371349
0.990471
-0.130035
-0.289582
0.520154
-0.270442
0.390969
-0.591357
0.326779
0.123931
-0.367153
-0.585638
0.915009
-0.779351
-0.154271
0.994890
0.721298
0.565698
0.444747
-0.529183
-0.219297
-0.183743
-0.490770
-0.209805
0.033749
0.701164
-0.135659
0.051701
-0.204857
-0.231574
0.748691
0.548054
0.942271
-0.735888
-0.916196
0.162832
-0.851068
0.347069
-0.835084
-0.668340
-0.880985
0.655761
0.010313
-0.305873
0.080476
0.701607
-0.175081
0.360697
-0.764706
0.069135
-0.687136
-0.111346
-0.421995
-0.260726
-0.191277
-0.101375
-0.102258
0.319158
-0.671609
-0.129407
0.186452
0.851861
-0.070029
-0.961781
0.197295
-0.146452
0.544530
0.604612
0.254031
0.724490
7.256976
0.454120
0.511133
0.655945
0.266401
0.005807
-0.183416
-0.511771
-0.304602
0.037645
-0.879815
0.145236
-0.938017
0.610348
0.818215
0.389711
0.367858
-0.420775
0.129889
0.312866
0.604104
-0.791350
-0.412282
-0.275322
-0.299303
-0.397786
0.100561
-0.059934
-0.934461
-0.587404
-0.427048
-0.399655
0.388356
-0.329082
0.350539
-0.768883
0.342416
-0.361814
0.423029
-0.741667
-0.464162
-0.298118
-0.122528
0.153334
-0.696546
0.184032
-0.981999
0.340809
0.271907
-0.727607
0.063638
-0.896203
0.416135
0.403154
0.058458
-0.503924
-0.324711
0.665203
0.281929
-0.513234
-0.818951
0.346345
-0.653883
-0.548385
-0.258960
-0.403630
-0.623474
-0.389384
-0.719157
-0.087496
-0.454521
-0.618566
-0.497642
0.174408
0.357627
-0.032214
0.768931
-0.559372
-0.063160
-0.481894
0.776523
0.327775
0.066168
0.956509
-0.461599
0.953686
0.679495
-0.870218
-0.069911
-0.103235
-0.100351
-0.273257
0.799472
0.828755
0.853242
-0.410119
-0.461717
-0.823875
0.045520
-0.322146
0.635420
0.386192
0.570472
-0.441747
0.082087
0.652975
0.835315
-0.671741
0.974138
-0.737840
0.859199
-0.224652
-0.546775
0.187241
0.751315
0.360958
0.419785
-0.617373
-0.902213
-0.259950
-0.723658
0.859829
-0.080840
-0.927911
-0.197559
-0.693215
-0.410590
0.514184
-0.263205
0.136881
0.068487
0.533312
0.375328
0.035605
0.909780
6.534294
0.651384
0.631901
-0.195106
-0.160779
-0.581685
0.165664
-0.960396
0.020518
0.879932
0.221506
-0.932568
0.176949
0.172589
-0.155634
0.618829
-0.507331
-0.418544
0.909561
0.028772
-0.858071
0.325343
-0.531834
-0.102640
0.180125
0.559744
0.046333
-0.480029
0.602475
0.327660
0.140374
-0.570256
-0.321833
-0.975506
-0.700658
-0.211316
0.635032
-0.739764
0.182871
-0.128130
0.468575
0.664870
0.267596
-0.913663
1.021187
-0.343017
0.226006
-0.046809
-0.616367
-0.340009
0.728163
-0.192408
0.282088
-0.397486
-0.265045
0.583844
0.667107
-0.691475
-0.211528
0.332442
0.738155
-0.054885
0.985282
-0.088306
0.422159
0.100167
-0.828015
-0.929285
-0.636328
-0.030392
-0.459288
-0.537271
0.864901
-0.645253
-0.815109
-0.074299
0.054756
0.971938
0.091646
0.364650
-0.628377
-0.705334
-0.613593
-0.972173
-2.451927
0.211706
0.887561
0.168358
-0.932662
-0.795613
0.981767
-0.635885
0.258676
-0.858679
0.167443
-0.285559
0.295154
-0.859625
0.421613
0.480784
0.177306
0.234842
0.843552
-0.102750
0.627938
-0.046396
0.733137
0.253411
0.860516
-0.759174
-0.501411
0.941746
-0.572486
-0.824707
-0.135440
-0.874482
0.550456
-0.428745
-0.145996
-0.682952
-0.958688
0.400236
-0.448087
0.072762
-0.634083
0.190291
0.918248
-0.100179
0.484029
0.837575
0.736291
0.567017
-0.889998
0.878310
-0.900891
-0.893583
0.660001
0.556830
0.506174
5.731848
-0.776832
0.940817
0.773078
0.991692
-0.066977
0.571945
0.405665
-0.213557
0.620535
0.407364
0.442158
-0.754098
0.886238
0.561710
-0.018702
0.887874
0.932719
-0.484369
0.738992
-0.974507
0.885432
-0.784214
-0.157405
-0.105412
0.505324
-0.577831
-0.043938
-0.386998
-0.042763
0.665546
-0.484966
-0.773196
0.709626
0.425331
-0.566590
-0.574850
-0.422148
0.322377
0.518053
-0.803559
-0.239346
-0.073776
0.381308
-0.191553
-0.576139
0.975772
0.818936
-0.843717
-0.081433
-0.391515
0.241173
-0.562029
0.400261
0.431906
0.895712
-0.246224
-0.092007
-0.375644
0.899709
0.938539
-0.327208
-0.406469
-0.304899
0.564245
0.179924
-0.431446
0.329474
0.607599
-0.723021
-0.724743
-0.988220
0.536340
0.340317
-0.585357
-0.351809
-0.650783
-0.051517
0.501910
-0.029155
0.868823
0.825082
0.074689
-0.207825
-0.922399
5.358416
-0.898000
-0.480850
-0.570277
-0.118060
0.794845
0.400114
0.694372
-0.420630
0.262562
0.504115
0.462314
-0.978119
-0.463260
0.495434
0.477058
0.565085
0.969915
0.958767
-0.889205
0.000328
-0.990174
-0.708729
-0.788556
-0.693300
0.564597
0.606659
0.557783
0.303281
-0.764461
0.639839
-0.699041
-0.186468
0.012193
0.936002
0.583436
-0.581458
-0.296390
0.422168
0.972101
0.641116
0.989659
-0.349966
-0.893716
-0.144020
-0.498451
-0.429663
0.913084
-0.334187
0.971300
-0.199868
-0.810414
0.126128
0.393940
-0.107632
0.378427
-0.019220
0.055940
-0.497294
-0.464460
0.109412
-0.163461
0.978389
-0.492788
0.842684
0.986654
0.607446
-0.000483
0.429723
-0.197698
0.384030
0.966707
-0.814331
0.250799
0.608756
0.272256
0.577932
-0.521405
-0.551437
-0.968470
0.847796
-0.685183
0.621851
0.217220
0.552720
-0.654175
-0.427957
0.482796
-0.018483
-0.192500
7.050420
-0.230061
0.960231
-0.905716
-0.433298
0.935853
-0.287779
0.513079
0.072365
0.107064
-0.791644
0.607375
0.216762
0.882514
0.072318
-0.343191
0.621877
-0.515661
-0.042569
-0.884113
-0.160387
-0.048166
0.161081
0.201458
0.165727
-0.694651
0.258696
0.279358
0.031124
-0.681490
-0.283376
-0.663791
-0.511380
-0.355910
0.634054
-0.216150
0.371501
-0.294568
-0.527614
0.341297
0.010032
0.999138
-0.134250
-0.829267
0.271912
0.108233
-0.778643
0.391127
-0.086547
0.809947
0.799685
0.963358
0.053138
0.252846
0.032835
-0.156844
0.262867
0.411565
-0.664607
-0.378557
-0.503301
0.724172
0.371415
-0.845833
0.455394
0.910970
0.232969
-0.302526
-0.819638
-0.281500
-0.941784
0.486526
-0.093193
-0.036239
0.613369
0.638146
-0.264640
0.021572
-0.870409
-0.354602
0.964604
-0.568482
-0.558433
0.924430
-0.205902
-0.492099
0.031545
0.997893
0.679903
0.760109
-0.312533
0.200731
-0.424418
-0.186136
0.779420
-0.008110
0.396079
-0.841749
1.166353
-0.017930
0.592731
-0.639955
-0.220694
0.837055
0.061511
-0.663940
0.847479
-0.655326
0.235537
-0.981551
-0.466996
0.475407
0.272397
0.204235
-0.713894
-0.914245
-0.979976
-0.636232
0.276129
0.864621
0.426445
0.879293
0.661268
0.655992
-0.421482
-0.196982
0.879050
0.434756
-0.122245
-0.979410
0.836399
-0.319692
-0.007395
-0.031856
-0.967415
-0.314672
-0.628960
-0.125591
-0.136590
0.213684
-0.442043
-0.074863
0.212106
-0.361772
-0.839293
0.061649
0.023450
-0.449556
0.949325
-1.095456
0.684440
0.011865
-0.615119
-0.749052
0.474113
-0.741794
0.412070
-0.282060
0.370256
0.495874
0.262224
-0.783640
-0.717667
-0.293406
0.068810
0.743982
0.961462
0.688786
0.447082
-0.406517
-0.563469
0.622612
-0.288009
-0.158654
-0.144722
-0.529495
-0.108372
0.596170
-0.135627
-0.123685
0.152405
0.801379
0.235098
-0.310877
-0.139758
-0.674342
0.051267
0.135048
0.848624
-0.344446
-0.249654
0.116547
0.685173
0.667718
-0.001379
-0.859693
-0.160096
-0.798230
0.667496
-1.101771
-0.178008
0.795478
0.780395
-0.036740
-0.125671
0.173431
-0.009308
-0.591895
-0.101261
-0.221801
0.098745
0.972197
-0.417026
-0.326885
0.807516
0.594668
-0.635823
0.413358
0.845526
0.709755
-0.889028
0.158295
0.266438
-0.584872
0.155209
-0.821481
0.636253
0.813013
-0.449645
-0.536171
-0.691534
0.454362
0.693417
0.656884
-0.625154
-0.917385
0.589118
-0.440102
-0.737537
0.343850
-0.908394
0.316126
0.435299
-0.401202
0.168285
0.471842
-0.455508
0.958488
-0.966116
-0.160183
-0.938254
0.016871
0.243491
-0.813104
-0.237623
-0.226435
0.877875
0.925847
-0.517519
0.679332
-0.107771
-0.029066
-0.739287
0.906268
-0.384881
0.627957
-0.927647
0.294558
0.332596
-0.724207
0.279617
0.581343
0.700065
0.908148
0.794009
0.059387
0.330958
-0.008728
0.252189
0.362974
-0.558851
0.432257
-0.657665
-0.918024
-0.744970
-0.491912
0.810647
0.557886
0.152832
-0.330007
-0.978838
0.587802
0.191609
-0.211392
-0.462497
-0.305725
0.651964
-0.994017
-1.160727
0.084421
0.383189
-0.208356
0.944714
-0.615382
-0.412245
-0.045939
-0.883183
-0.979715
-0.018040
-0.171553
-0.703963
0.213986
-0.608148
0.807985
0.514783
-0.944683
0.579816
0.170679
-0.475987
0.116082
0.376015
-0.837608
0.255685
-0.328024
-0.244539
0.930790
0.333733
0.874222
-0.083259
-0.312869
0.316546
0.771269
-0.508821
-0.770160
-0.093388
0.039043
0.964630
0.227752
0.635206
-0.327301
-0.720579
-0.995438
-0.410914
0.989129
0.541802
0.016962
0.026218
-0.981309
-0.332073
-0.862156
0.313256
0.082475
-0.418524
0.717757
-0.198514
0.795660
0.839760
0.062764
-0.473271
0.007702
0.444335
0.844532
0.331886
-0.265935
0.130342
0.277861
0.018176
0.247986
-0.267137
0.698009
0.857498
0.036698
0.111748
0.282037
0.148315
0.308231
-0.220045
0.009606
-0.590964
0.848974
-0.923359
-0.561623
0.190791
0.809889
-0.604908
0.170802
0.663515
-0.994537
0.857260
-0.369979
0.814752
-0.899761
0.200207
0.791679
0.701704
0.329465
0.873723
-0.270700
-0.540416
0.079600
-0.786664
0.351980
-0.966885
-0.535399
0.386394
-0.908569
0.403982
0.626747
-0.328513
-0.494761
0.126895
0.960513
-0.686142
-0.915959
-0.143197
-0.477608
0.471793
-0.342077
-0.892149
0.633719
-0.060166
-0.722121
0.563350
0.150807
-0.213702
-0.987038
0.810888
0.752630
-0.905229
-0.327190
-0.206815
0.254263
-0.158811
0.431747
-0.053538
-0.987926
0.095455
0.449822
-0.008120
0.557579
-0.923226
0.146661
-0.515459
-0.332199
0.713760
-0.718632
-0.355425
0.962365
0.714001
0.265618
0.910389
0.252671
-0.194956
0.189801
0.232900
-0.751396
-0.645247
-0.553109
-0.439903
-0.483960
0.683695
-0.110302
0.601387
-0.125100
0.816752
0.304256
-0.774507
0.354068
-0.750443
0.135940
0.727558
0.071222
-0.001547
0.619473
-0.690346
0.984831
-0.506945
-0.807804
-0.464096
0.932442
-0.192291
-0.608237
0.984131
-0.514500
-0.840856
0.649396
0.637621
-0.580760
0.257524
-0.625187
0.573537
0.667589
-0.544626
0.512778
-0.067341
-0.568411
-0.007410
0.541050
0.002355
0.341659
-0.554462
0.727476
0.562744
-0.793738
0.374491
0.532177
-0.686385
-0.310196
-0.667611
0.972916
-0.846601
-0.083282
0.186703
0.425366
-1.570119
0.617271
0.016678
0.662348
0.505906
-0.007451
-0.789605
-0.682635
0.056908
0.562974
0.033063
-0.407680
-0.985459
-0.388061
-0.207459
0.202655
0.683550
-0.508398
0.510801
0.981393
0.456180
0.949904
-0.018568
0.312567
-0.398706
-0.791867
-0.397469
-0.807978
0.809050
-0.119553
0.478432
-0.568517
-0.665061
0.483547
-0.192763
0.186315
-0.216293
0.230324
-0.323059
-0.636739
-0.914947
-0.654394
-0.345024
0.107960
-0.226730
-0.218301
-0.234413
-0.562611
0.104877
0.391415
-0.690172
0.761529
0.756556
0.088159
-0.648318
0.475128
0.170325
-0.104010
0.569412
0.983462
0.096048
-0.914852
0.249917
-0.583113
0.552651
-0.602846
-0.004650
0.890035
-0.185921
0.224680
0.800734
-0.592476
-0.854106
0.628456
0.203430
0.904822
-0.837713
0.467314
-0.910004
-0.100750
-0.461024
-0.671361
-0.165080
-0.848359
0.684926
-0.065835
-0.003052
0.976317
-0.704741
-0.224598
-0.596874
0.244420
-0.842269
-0.064506
0.286654
-0.014554
0.515565
-0.899565
-0.433338
0.810148
0.267900
0.820380
0.496057
-0.240614
0.505637
-0.102433
-0.353258
-0.389213
0.558617
0.332485
0.463289
0.659842
-0.758002
0.191568
0.152832
0.472783
0.131897
0.142153
-0.405759
-0.180284
-0.275912
-0.427217
0.263276
0.077322
-0.441538
0.381687
-0.676837
-0.404669
0.816708
-0.279556
0.591479
0.819671
-0.398056
0.351712
-0.388834
-0.659820
0.730605
0.948933
-0.902238
-0.820068
-0.426073
0.304070
0.243354
-0.315179
0.364552
-0.536330
0.197786
-0.152797
-0.599845
0.004181
0.806500
-0.005766
0.219866
0.780834
-0.492055
0.423372
0.284492
-0.287793
-0.299362
0.837922
-0.542389
0.786809
0.906513
-5.647068
-0.002424
0.364453
0.180271
0.205778
-0.533210
-0.025636
-0.835454
-0.434985
0.134003
0.716859
-0.000922
0.486606
-0.158508
0.934675
-0.533797
-0.780423
-0.838152
0.242280
0.397125
0.299353
-0.033279
-0.916532
-0.261490
0.924213
0.079391
0.840073
0.916728
0.862380
-0.050066
-0.379740
0.192942
-0.816080
-0.855999
-0.747054
0.434010
0.187285
-0.582771
-0.814679
-0.556467
-0.185020
-0.272820
0.856875
-0.628971
-0.059200
-0.003217
-0.245915
-0.655175
-0.873161
-0.366715
0.622191
0.537037
0.829719
0.330657
-0.202320
0.660730
-0.882460
-0.940895
-0.301780
0.433528
-0.706397
-0.984646
0.754841
0.029682
-0.401929
0.881877
-0.311151
-0.093802
0.183709
-0.278176
-0.475942
-0.666789
0.121258
0.139375
0.052887
-0.390945
0.137221
0.025825
0.452698
0.373200
-0.465932
0.881501
0.640205
-0.862455
0.432064
0.909221
-0.304975
-0.447908
0.614016
0.470214
-0.105136
-0.817179
0.180035
-0.984989
0.385361
-0.072502
0.165478
-0.841032
0.757058
-0.748844
0.822230
0.935319
0.991574
0.553962
0.331911
0.722849
0.268563
0.360025
-0.533628
-0.875006
-0.912023
-0.365615
-0.528703
0.055576
-0.723083
-0.368191
-0.268770
0.312413
0.862477
0.673652
-0.268091
0.145280
0.995814
0.462024
-0.604102
-0.205993
-0.054556
0.315919
0.751637
-0.797662
-0.909622
0.720015
-0.299199
-0.427715
-0.668389
0.421038
-0.118531
0.444702
0.550293
0.650018
-0.534687
-0.120678
0.720228
-0.907178
0.771181
-0.696103
-0.618910
0.639566
-0.062899
0.550807
0.322534
0.021506
0.934505
0.870361
0.694371
-0.805098
0.427515
0.888179
-0.423658
0.205562
0.046894
-0.617918
-0.174861
-0.669054
0.682520
0.241028
0.091585
-0.614653
-0.495050
0.455412
0.162565
0.852905
0.964481
0.080725
-0.130656
0.009951
0.921601
-0.722197
-0.809923
0.109537
-0.555586
-0.562501
0.256286
0.450506
0.283799
-0.947617
-0.735411
-0.794961
0.443395
-0.289692
-0.200005
-0.534033
0.875536
-0.479592
0.338831
0.464782
-0.445370
0.145579
-0.648482
0.858509
-0.317186
-0.247614
-0.252956
0.718222
-0.250715
0.585574
0.747918
0.949600
0.599438
-0.395188
0.513895
0.598286
-0.964214
-0.106471
0.127962
-0.494735
-0.180825
-0.962390
0.327036
-0.164384
0.801389
-0.550410
-0.999808
-0.837860
-0.841282
0.968727
-0.672820
-0.338338
0.251819
0.362485
-0.459107
-0.991811
-0.301512
0.631218
0.518697
0.841525
-0.097560
-0.354786
0.333271
-0.535398
-0.482525
0.742737
0.803553
-0.488279
-0.474956
-0.257602
-0.081713
0.151584
-0.378623
0.452742
-0.383392
-0.797444
-0.817508
0.910887
-4.599830
0.615984
0.838010
0.613659
-0.914003
-0.815601
0.978244
-0.691234
0.026832
0.694957
-0.233920
4.873800
0.534227
0.460531
0.456323
0.323753
0.064677
-0.544984
-0.598863
-0.062048
-0.578697
-0.029123
-0.751630
-0.751290
0.144963
0.559004
-0.485736
-0.311388
0.587539
-0.530778
0.061646
-0.144934
0.939331
-0.986563
-0.346984
-0.261883
-0.466460
0.921723
0.760876
-0.932269
-0.645389
0.692069
0.049843
0.103003
-0.147382
0.720907
-0.578860
-0.070508
-0.045870
0.894856
-0.811686
-0.632295
0.390075
0.429787
-0.962755
-0.509667
0.366436
-0.951081
0.672421
-0.339363
-0.786181
0.088387
0.791443
-0.047963
-0.811606
9.013458
0.087655
-0.008052
-0.266622
0.567174
0.068931
-0.848578
0.129089
-0.229970
-0.785031
0.284567
-0.374404
-0.444928
0.383433
-0.547997
0.129805
0.975283
0.496568
0.045725
-0.514537
-0.830030
0.117414
-0.320931
0.128193
0.842384
-0.803919
-0.913747
0.258716
-0.108261
-0.484798
0.629579
-0.809794
0.026481
-5.892947
0.477203
0.196936
0.826204
-0.694710
0.316575
0.156270
-0.907677
0.848159
0.711804
0.983838
0.020461
-0.335203
-0.922705
-0.782237
0.538093
0.923140
0.668269
0.728085
0.905163
0.524367
0.043412
0.607784
0.879837
0.385294
0.114103
0.819706
0.779741
-0.703690
-0.642519
0.449061
0.959655
0.345061
-0.115320
0.297817
0.898684
0.649260
0.741895
0.992090
0.763678
-0.961885
0.372260
-0.053291
0.562082
-0.424295
-0.353571
0.710470
0.637078
-0.680789
0.497331
-0.030013
-0.630331
-0.967418
-0.610349
0.249125
0.413930
0.420840
-0.726908
0.179938
0.577209
-0.104645
-0.123800
-0.432804
-0.556584
0.036018
0.671935
0.631248
-0.377654
0.516057
-0.791509
-0.799713
0.709390
-0.890300
-0.798437
0.974609
0.676446
-0.136802
-0.655822
-0.680482
-0.552391
0.954956
-0.580213
0.540361
-0.805192
0.993178
0.309758
0.112691
0.249212
0.251467
0.243477
0.159125
-0.538194
0.464967
0.851746
0.792864
0.798656
0.702223
0.218308
0.013425
-0.648985
-0.072530
-0.915955
0.791117
0.657478
-0.223808
0.212527
0.507120
-0.402389
0.599529
-0.482959
-0.551082
0.349205
0.608687
-0.586615
0.862057
-0.799696
0.347342
0.096761
-0.277517
0.247139
0.062510
1.071270
-0.727719
-0.115563
-0.800212
0.930819
-0.072605
-0.402681
0.259170
-0.894270
0.961385
-9.612835
-0.508967
0.493288
-0.142247
-0.308785
0.722984
0.084318
0.914187
0.238758
0.480400
0.303502
0.467524
-0.212054
-0.400377
-0.931601
-0.279715
0.641838
-0.821779
0.391331
0.169523
0.496355
0.430715
-0.989465
0.106683
0.658670
-0.124137
0.629585
0.013744
0.934439
-0.434313
0.867111
-0.316132
0.192888
-0.208572
0.195421
0.219033
0.831445
0.077401
0.162819
0.193622
0.752678
-0.745282
0.068088
0.116090
0.647085
-0.659441
0.553340
-0.635641
0.742325
-1.204361
-0.925153
0.472524
-0.861367
-0.413886
0.735178
0.386191
-0.358494
0.971270
0.019452
-0.857649
0.236300
-0.946825
0.385399
0.784375
0.800315
0.004663
0.161659
-0.766891
0.511847
-0.287901
0.956290
-0.999814
0.205878
0.844406
-0.212127
0.971204
0.500226
0.840190
0.581571
-0.367660
-0.294365
0.756469
-0.033227
-0.364410
-0.163579
0.370060
0.593960
-0.180250
0.069923
0.060099
-0.091094
-0.952967
-0.225489
-0.321337
-0.529322
-0.780623
0.267633
-0.603375
-0.053508
-0.377001
0.333395
0.336937
0.890472
0.640233
0.956911
-0.400138
0.527124
0.979539
-0.316303
0.237551
0.507582
-0.396799
-0.761558
0.090639
-0.148394
-0.429632
-0.742405
0.343722
-0.711624
0.692547
-0.363384
0.272173
0.050021
0.549989
0.268486
0.892832
0.818964
0.687924
0.107291
-0.112723
-0.188354
0.764849
-0.079825
-0.098273
0.511861
-0.333708
-0.887414
-0.225338
-0.638746
-0.263152
0.791059
-0.457645
0.313918
-0.530748
-0.516699
-0.195867
-0.678804
-0.267983
0.458724
0.212431
-0.761001
0.831443
-0.045181
-0.556840
0.418684
-0.160517
-0.246244
0.567099
-0.381129
-0.008885
0.862107
0.901331
0.189389
0.146330
-0.598674
-0.888645
-0.946162
-0.651819
-0.352147
-0.470533
3.103261
-0.641482
0.936842
-0.940621
0.942237
0.869813
-0.922029
-0.556032
0.521634
-0.775533
0.944037
-0.991973
0.756846
0.115771
0.139194
0.695813
0.810725
0.415741
0.983759
0.874444
-0.460106
-0.719939
-0.761855
-0.922535
-0.878187
-0.699450
0.462916
0.078312
0.113825
-0.668506
-0.693975
-0.639063
0.745582
0.181072
0.781371
0.512681
-0.566540
0.359410
-0.674799
-0.937313
0.258231
-0.449755
-0.326072
3.907946
0.887712
-0.473013
0.108637
0.289422
0.781399
0.401675
-0.528720
-0.113381
0.478724
-0.287515
0.603516
-0.746673
0.413043
-0.162326
0.709256
-0.689047
0.407664
-0.703030
-0.447339
-0.026269
0.382989
-0.181807
-0.307838
0.268127
0.782945
-0.178776
-0.340773
-0.605037
-0.262668
0.987886
-0.062592
0.062636
-0.836904
-0.648469
-0.303471
-0.134878
0.772297
-0.775701
0.992011
0.023042
-0.076442
-0.704160
0.704124
-0.106833
0.651091
0.975238
-0.729042
0.042723
0.690639
-0.293194
-0.073782
-0.258195
0.970887
-0.060869
0.545416
0.412923
-0.706214
-0.745349
0.360555
0.147792
-0.411286
0.266409
0.200777
0.265834
0.150439
-0.552113
-0.725253
-0.506352
-0.787707
0.667863
-0.468584
-0.505847
0.875087
0.094946
0.266449
-0.901087
-0.782424
0.410920
0.541422
-0.809437
-0.760038
0.105252
0.481538
-0.386866
-0.427723
0.330026
-0.254697
0.952563
0.647313
0.472448
-0.154030
0.911496
-0.716911
0.897503
0.162712
0.207506
-0.403409
0.070328
0.700431
0.339834
0.377834
0.109054
-0.440084
-0.523374
0.396448
0.195973
-0.678807
0.565389
-0.796426
0.658028
-0.944521
-0.004918
-0.702432
0.317619
0.771647
0.239142
-0.054425
0.059268
0.805123
-0.658969
0.316436
-0.744707
-0.875843
-0.653952
0.624761
0.797735
-0.095067
0.101640
0.082162
-0.965541
0.860061
0.659396
-0.741103
-0.892705
0.382026
-0.801073
-0.450455
0.898138
0.657843
0.737965
0.070848
0.638469
-0.464223
0.082744
-0.924009
0.735136
-0.023196
0.350229
0.832063
0.716549
-0.439024
0.993635
-0.693022
0.915465
-0.452539
-0.489463
-0.333109
0.512191
0.748324
-0.632879
0.388412
-0.803031
0.466165
0.679468
-0.681765
-0.542926
0.363006
-0.086527
-0.488363
-0.387014
0.104224
-0.912401
-0.314797
-0.212129
-0.835665
0.798883
0.783627
-0.408011
-0.436967
0.334005
-0.561520
0.307322
0.478266
-0.190003
0.092230
-0.627872
-0.063210
-0.631888
-0.041494
-6.577301
-0.622418
-0.118272
0.585809
0.950807
-0.642367
0.817671
-0.437860
0.857627
0.929041
0.833547
0.960867
0.916044
0.983801
-0.009130
-0.867269
-0.678608
-0.651770
0.311047
-0.038450
0.561396
-0.028578
-0.089054
0.483383
0.569047
0.941583
-0.546667
0.694553
0.252604
0.416027
-0.080993
0.237261
0.341444
-0.852349
-0.110352
0.568156
0.415723
0.239394
-0.354419
0.708043
-0.095083
0.054838
0.704732
0.444542
0.357115
0.820086
-0.243015
-0.814111
-0.604386
-0.837425
-0.638839
0.600340
0.365363
0.446442
0.190527
-0.111557
-0.520848
0.099687
-0.867890
0.125364
0.283958
-0.762777
0.035351
-0.581205
0.817833
-0.546861
-0.419946
-0.290269
0.173993
-0.207013
-0.980934
0.809510
-0.308164
-0.837776
-0.792748
0.507106
0.070583
-0.508005
0.209541
0.457711
0.373591
-0.599500
0.555246
0.912797
0.265433
-0.304069
0.892824
0.815324
-0.059855
-0.796733
-0.292250
0.638804
0.454898
0.995262
-0.268480
0.416154
0.096357
0.966601
-0.925319
-0.419941
0.652663
0.480449
0.763810
-0.187764
-0.197308
0.275227
-0.294962
-0.520283
0.311447
0.554797
-0.585326
-0.589494
-0.371770
-0.633427
0.057189
-0.009526
0.467980
-0.466342
-0.906623
-0.608779
0.239222
0.965944
0.477743
0.159529
-0.494613
-1.012631
-0.193324
-0.279129
0.240361
-0.614933
0.865014
0.929692
-0.303425
0.344452
-0.777472
-0.353584
-0.675684
0.044574
-0.830906
-0.979272
0.344230
-0.828033
0.186051
-0.239548
-0.077724
0.555386
-0.982293
-0.313785
0.804012
0.502116
-0.729777
-0.355954
0.731711
-0.652475
-0.282625
-0.703368
-0.354142
0.624674
0.961223
0.523555
0.791964
-0.588911
0.977939
0.809201
0.733730
0.752068
-0.672224
0.688655
-0.473579
-0.663180
0.443925
0.587680
-0.621956
-0.827280
0.344247
0.629482
0.291686
0.191914
-0.466601
0.418910
-0.809870
0.452915
0.690089
-0.343904
-0.202726
0.156991
0.563261
-0.246101
-0.541599
0.716173
-0.777784
0.224805
-0.173049
0.233020
0.449240
-0.395676
0.640946
0.878827
0.171761
0.510474
-0.468573
-1.056759
0.281132
-0.846228
-0.714122
0.141363
-0.988392
0.338211
0.914131
-0.594211
-0.835471
-0.709445
0.922923
-0.848759
0.310021
-0.426055
0.833202
0.312945
0.879981
0.582437
0.833247
0.850083
0.053612
-0.110276
-0.602361
-0.186229
-0.417505
-0.654518
-0.482483
-0.096122
-0.221971
0.821208
0.278656
0.851407
0.579995
-0.780773
-0.736766
0.219475
0.285269
0.611166
0.810436
-0.917496
-0.963232
0.321130
0.443788
-0.117970
0.460219
-0.525737
-0.541824
-0.341781
0.847160
-0.130481
-0.677025
-0.534367
-0.380864
-0.287430
-0.473986
0.881567
0.284018
-0.058001
0.955703
0.935932
-0.510615
0.443596
0.249345
-0.823813
-0.314259
0.603121
0.307966
-0.252992
0.018703
-0.748124
-0.586376
-0.871237
-0.315857
0.160051
-0.027737
0.236999
0.336630
-0.419031
0.667257
-0.444027
0.680149
-0.683821
-0.955994
0.080721
0.787753
0.171728
-0.137520
-0.167009
-0.383556
0.619482
-0.932445
-0.561456
-0.671210
0.339801
0.729691
-0.542366
-0.905483
0.187688
-0.360248
-0.773169
0.649886
-0.445959
0.113657
-0.708550
-0.203537
0.090763
0.973482
0.439492
-0.448239
0.079355
0.518459
0.407405
0.836659
0.727083
-0.357884
0.385004
-0.855985
-0.373849
0.853246
0.669193
-0.478781
0.371030
-0.090373
-0.346919
0.461693
-0.899188
-0.347013
0.973194
0.085434
0.406203
-0.432810
0.842691
0.138779
-0.656421
0.487449
0.719305
-0.955017
-0.771060
0.263376
0.820027
0.430358
0.414522
-0.298117
0.068565
-0.282624
0.934221
0.143041
-0.769383
0.354857
-0.495698
0.626060
-0.121105
0.849885
0.071535
-0.575352
-0.146257
-0.737960
0.571880
0.709505
0.836013
1.041649
-0.191248
-0.181661
0.516302
0.138416
-0.763913
-0.997567
-0.344035
-0.016084
0.163088
-0.967602
0.457804
0.768652
0.709559
-0.296731
0.495432
-0.375284
-0.890367
0.990537
0.311204
-0.056849
-0.040466
-0.778036
-0.868764
0.473955
-0.358373
0.090692
-0.577927
0.494474
-0.285167
-0.214825
0.553917
0.184623
-0.285474
0.516942
-0.395156
0.316405
0.062633
0.002612
0.428925
0.641476
0.328230
0.936029
0.153925
0.961611
0.347892
0.327097
0.975382
0.852074
0.986098
0.050014
-0.590056
-0.213365
-0.672173
0.475035
-0.621139
0.792076
-0.106209
0.136200
0.150141
-0.570178
-0.157925
0.593869
0.593570
-0.439478
-0.720100
-0.433955
0.340592
0.352330
0.627704
0.290897
-0.470237
-0.891463
0.671068
-0.403803
0.182510
0.378416
-0.571165
-0.959412
-0.621348
-0.891238
0.023230
0.265093
-0.800784
-0.607665
-0.458778
0.066615
-0.329324
-0.495808
-0.732418
-0.655143
0.987940
-0.950145
0.506989
-0.584118
-0.711210
-0.718291
0.153535
0.141951
0.570396
-0.217730
-0.808010
-0.004679
-0.189205
0.669943
0.237152
0.376640
0.949237
0.167900
-0.949463
0.189025
-0.735742
0.938956
-0.801294
-0.424799
0.918367
0.616264
-0.121531
-0.319520
-0.322686
0.443154
0.022415
-0.604149
-0.469164
-0.341105
0.393513
0.012867
0.453938
0.109128
0.620913
-0.544908
-0.873824
-0.633152
0.581348
0.210741
-0.132656
-0.119213
0.944954
-0.780633
0.347251
-0.228617
0.782395
-0.984916
0.909470
-0.545514
0.151844
0.650040
-0.242034
0.482226
0.480874
0.404773
-0.238565
-0.321470
-0.679400
0.096133
-0.064727
-0.307992
-0.530435
-0.649330
-0.564917
-6.177362
-0.516002
-0.851991
-0.821774
0.273748
-0.687076
0.082476
0.143746
-0.731329
-0.311233
0.475256
0.151455
0.103600
-0.565933
0.192780
-0.979634
-0.564050
-0.628903
-0.763328
0.734784
0.622787
-0.164051
-0.561524
-0.341274
0.877472
0.926553
8.568672
0.008950
-0.335214
0.674893
0.084503
-0.014289
0.313916
-0.247763
-0.621898
-0.038390
0.461165
0.770493
-0.151478
-0.753392
-0.748787
-0.204305
-0.999137
-0.154615
-0.713729
-0.730756
0.771482
0.458105
-0.354052
-0.621190
-0.137093
-0.554739
-0.343239
-0.059034
0.545462
0.704185
0.856212
-0.439251
0.741735
0.149414
0.066264
0.412776
0.973764
-0.144262
-0.970726
0.250944
0.317641
-0.200581
0.919926
-0.671256
-0.377806
-0.802748
0.612548
0.036273
0.353044
-0.302740
0.367537
-0.768302
0.446490
0.150231
0.761900
-0.385094
-0.437716
-0.003981
-0.331403
-0.238892
-0.220863
-0.925082
-0.546761
0.098874
0.702649
-0.449819
-0.212905
-0.694415
-0.571441
-0.749130
-0.613945
-1.059903
0.487622
0.285102
-0.698394
-0.436516
-0.299995
-0.738667
0.986464
-0.803864
0.421719
-0.910261
-0.411817
0.071371
0.607511
0.294730
0.380358
-0.434432
-0.099961
0.164147
0.201743
0.159768
0.971299
-0.141641
0.679598
0.354793
-0.356958
0.939883
-0.267378
-0.386058
-0.708554
0.939596
-0.085066
0.855040
0.965158
0.643709
-0.294152
-0.067582
0.262147
0.178570
0.648980
-0.763680
-0.079864
-0.456077
-0.357149
0.699641
-0.174358
0.321765
-0.626743
-0.751373
-0.957746
-0.207556
0.746222
0.892419
0.276521
0.295146
-0.853327
0.789926
-0.837564
-0.680864
0.257347
-0.443126
-0.040098
-0.276799
0.478079
0.042976
-0.179601
0.983622
0.432603
-0.395328
-0.421654
0.954760
0.364967
0.186394
-0.294874
0.597299
0.229499
-0.672742
-0.211027
0.580162
-0.555592
0.181847
0.291759
0.855865
0.946191
-0.121453
0.399970
-0.103660
0.197203
0.576087
0.498332
-0.758356
-0.047890
0.735395
-0.554547
0.345999
-0.704206
0.487596
-0.454316
-0.399847
0.403053
0.879677
-0.714127
0.701727
0.215859
-0.316980
0.957577
0.210786
-0.142228
0.641179
-0.596920
-0.618293
0.111536
-0.622180
0.826169
-0.396688
0.828506
-0.546859
-0.255657
-0.653747
-0.048306
0.016484
-0.878524
-0.678367
-0.233245
-0.625740
-0.816372
-0.074463
0.487871
0.822616
-0.602782
-0.262467
-0.099283
-0.481799
-0.135474
-0.457146
0.008890
-0.875688
0.049449
0.439417
-0.136516
0.966910
0.810014
-1.014353
-0.862856
-0.095260
0.759573
-0.982314
-0.901733
0.041168
-0.662897
0.224326
-0.645105
0.022206
-0.459472
0.098565
0.497180
-0.779955
-0.316894
0.542684
0.609388
-0.638919
-0.770323
0.415004
-0.036149
-0.901215
0.003751
0.870079
-0.731381
0.160898
-0.857768
0.933545
-0.503671
0.966258
-0.298443
-0.398116
0.758620
-0.196861
-0.377717
-0.551440
-0.757707
-0.762214
-0.388939
0.140295
0.434498
-0.123311
0.204902
-0.267783
-0.008918
-0.526947
0.897890
-0.918250
0.520942
0.691950
0.493387
0.447402
-0.689457
-0.780582
0.859418
0.335066
0.060560
-0.732438
0.372244
-0.029943
-0.191339
0.358734
0.128974
-0.359099
0.243357
0.550004
0.253603
-0.680605
-0.482376
-0.477442
0.271188
0.595009
0.149198
0.549170
-0.557111
0.201168
0.341214
0.927365
-0.850877
-0.901527
0.495365
-0.090540
-0.782112
0.249861
0.195272
0.107056
-0.244858
0.235044
-0.737142
-0.572038
-0.497980
0.492857
0.103961
0.580922
-0.902231
-0.255689
-0.269496
-0.155200
0.032093
-0.440890
0.911845
0.755113
-0.176890
0.829835
0.307838
0.231919
-0.257671
-0.608149
-0.237616
0.044613
-0.569786
0.150414
0.931329
0.852635
0.689174
-0.361426
-0.476396
-0.490604
0.139774
0.437436
-0.632022
-0.551516
-0.844610
0.629296
-0.777012
0.101166
-0.255521
0.964519
-0.274364
-0.099353
0.870085
-0.045469
0.737729
0.066553
-0.172910
-0.154140
-0.669540
-0.704543
-0.698209
0.997496
0.118608
0.007963
0.933083
0.783914
-0.207488
0.292422
0.505124
0.668646
0.673955
0.851396
0.675852
-0.344204
-0.936297
0.469669
-0.863521
0.013185
-0.298018
0.378787
0.183189
0.562185
0.454542
-0.408170
0.556617
0.646332
0.848350
0.183019
-0.704902
-0.345780
-0.464835
-0.883978
-0.471478
-0.039219
-0.819060
0.430329
0.163472
0.764059
-0.240658
-0.361355
-0.148616
0.135436
0.441641
0.024539
-0.368039
0.438941
0.668327
0.256925
0.751340
-0.320822
0.162479
-0.993782
0.073384
0.941536
-0.322247
0.806364
0.671241
0.394353
-0.178825
-0.169795
-0.126066
-0.524063
0.942607
0.184022
-0.323573
0.809146
-0.514012
0.173377
0.669878
-0.704926
0.131318
-0.757855
-0.000897
0.520337
0.202373
-0.289637
-0.519747
-0.203316
-0.617409
0.212402
0.054811
0.326336
-0.887400
0.859490
0.853885
-0.683678
-0.925880
-0.623368
-0.976859
0.821084
0.344509
-0.118518
0.241145
0.263430
0.424963
-0.666594
0.377903
-0.456849
-0.842164
0.673350
-0.110674
-0.443323
0.208447
0.610843
0.006279
0.480116
-0.468163
-0.773183
-0.835943
0.577343
-0.371215
0.217151
-0.609456
-0.006534
-0.169691
0.172119
0.576526
-0.844793
0.132481
-0.788605
-0.531840
0.802956
-0.920221
-0.054609
0.758967
0.844975
-0.513082
0.557194
-0.546474
-0.099549
-0.346673
-0.292688
-0.954292
-0.653232
0.503173
-0.660400
0.005469
-0.619278
-0.076186
0.347531
0.376406
-0.909319
0.331473
0.743341
0.449645
-0.373358
-0.162586
-0.021318
0.573386
0.068203
-0.542438
0.368763
0.344827
-0.441295
0.470325
0.043167
-0.811998
0.962544
-0.413299
0.744347
0.021476
0.316004
0.214927
-0.549866
0.716919
-0.641367
0.375609
0.438459
-0.426859
-0.225266
0.823811
-0.140185
-0.148469
-0.725633
0.091952
0.451545
0.625917
0.545184
0.085887
0.872536
0.979835
0.043584
-0.547856
0.078348
-0.958489
0.220409
-0.581225
-0.194120
0.491805
0.643543
-0.137094
-0.070631
0.312894
0.537400
-0.414846
0.779197
-0.562906
-0.477527
0.176950
0.978589
-0.587160
-0.326627
0.548804
0.255308
-0.993323
0.488383
0.327439
-0.756150
0.689557
-0.416251
0.177784
-0.809732
0.661946
0.308511
0.997951
0.154664
-0.775777
0.875015
-0.132877
-0.322023
-0.991919
-0.323190
-0.601336
0.491203
0.866811
0.606150
-0.274825
-0.625244
-0.912182
0.548078
0.907541
-0.736644
0.753230
0.826838
-0.170856
-0.330216
0.295367
0.445981
0.691415
0.219583
0.374648
-0.740560
-0.088079
-0.858068
0.198841
-0.706935
-0.327174
-0.282886
-0.319679
0.820837
0.151507
-0.782182
-0.041853
-0.938721
0.875675
0.903312
-0.098884
-0.696040
-0.020372
-0.369642
0.371016
0.885649
-0.645951
0.459831
-0.359442
0.580252
0.665434
-0.919660
0.092856
0.557808
0.747277
-0.731300
0.284833
-0.669192
0.366259
-0.003384
0.259487
-0.835140
-0.062246
-0.271950
0.441233
-0.162779
0.280602
-0.362729
0.305641
0.066655
-0.033479
0.874755
-0.167266
0.110179
-0.392408
-0.339147
0.272151
0.059616
-0.500023
0.567985
0.716052
-0.326824
-0.379436
-0.882994
-0.771243
-0.868778
-0.662570
-0.650529
-3.426938
0.691440
0.929994
0.294688
0.204723
0.872224
0.074980
0.050798
-0.709274
0.598744
-0.073068
0.334616
-0.283519
-0.278385
-0.248395
-0.121138
0.304534
-0.162915
0.584989
0.635010
-0.664403
-0.910459
-0.168474
-0.517538
0.717222
0.125568
0.251661
0.083250
-0.223162
0.756086
0.612505
0.225875
-0.440609
-0.749743
-0.461565
0.438300
-0.592781
-0.225296
0.231385
-0.628369
-0.731199
-0.589695
0.069582
0.016479
-0.289576
-0.178429
-0.269280
0.051672
-0.042779
-0.956872
-0.184336
0.542990
0.410756
-0.739563
0.294774
-0.208570
-0.948262
0.661273
-0.153379
-0.349266
-0.029513
-0.351813
-0.508472
-0.586792
0.379770
0.807246
-0.522337
-0.196044
0.295250
0.201607
-0.988057
-0.905607
-0.365192
0.668018
0.428686
-0.057101
-0.966661
0.229412
0.787390
-0.425747
0.647742
0.924914
-0.269516
0.849161
-0.410756
0.603158
0.874659
0.778089
-0.379224
-0.080115
0.211124
-0.954371
-0.211312
0.535469
-0.459847
-0.764045
-0.555744
0.041480
-0.850765
0.149768
-0.419423
0.866444
0.687327
-0.916346
0.442204
-0.787822
-0.473668
0.411610
-0.438894
0.711672
0.150531
0.519848
-0.544445
0.239174
-0.697176
0.793988
-0.556922
0.029561
-0.101665
-0.872974
-0.757796
-0.884829
-0.600522
-0.655019
-0.992896
0.337553
-0.060963
0.480275
-0.049707
0.811534
0.793977
0.226359
0.101624
0.398117
-0.325270
-0.497423
-0.711371
-0.662975
0.285812
0.801579
0.210501
0.621952
0.706734
-0.693711
-0.861993
0.710168
-0.684758
0.033032
0.845715
-0.492885
-0.601143
0.879875
-0.283554
-0.156046
-0.781045
0.084907
0.522379
-0.805147
-0.770434
-0.235889
0.157124
-0.063005
0.182258
0.311979
0.831833
0.717311
0.242575
-0.604632
-0.093271
0.521433
0.500629
-0.538189
-0.299924
-0.066920
0.817483
-0.456341
0.416111
-0.101707
-0.963463
-0.802814
-0.131048
-0.345269
0.843142
0.937208
-0.171324
-0.867476
0.030828
0.192814
-0.567596
0.592590
0.109445
0.459392
-0.412750
0.225660
0.828093
0.304517
-0.403009
0.292333
-0.931673
0.460980
0.451502
-0.124037
-0.823955
-0.587723
0.662419
0.292580
-0.730546
-0.478686
-0.925182
-0.438922
0.292081
-0.225804
0.228277
-0.845187
0.598330
-0.762456
0.719391
-0.023734
0.888186
-0.667396
-0.737306
0.731620
0.361149
-0.675406
-0.402976
-0.150886
-0.808934
-0.405056
-0.773491
0.707535
-0.587177
-0.737463
0.589470
-0.638164
-0.272570
-0.646852
-0.460867
0.720087
0.321295
-0.488237
0.849378
0.923304
-0.377042
-0.053212
0.330684
-0.320409
-0.507420
-0.548111
-0.756375
0.875463
-0.409853
0.760098
-0.237122
0.520613
0.374695
0.066062
0.063810
0.899708
-0.544543
0.712834
0.655937
-0.660706
-1.258628
0.061026
-0.351955
-0.492905
0.147905
-0.092964
-0.501885
0.603635
-0.899970
0.600646
-0.503261
0.097968
-0.121662
0.347681
-0.285473
-0.746800
0.893228
-0.796125
0.559053
0.619539
0.866709
-0.308050
-0.661354
-0.337981
-0.698282
0.832977
0.441208
0.938914
0.680122
0.688197
0.989718
-0.010458
0.431935
0.535754
-0.157600
-0.309947
-0.937165
0.429980
-0.337495
-0.732264
0.989080
-0.462019
-0.999723
0.561548
-0.455839
0.185566
0.169900
-0.444187
-0.661056
0.547452
0.589845
0.249842
0.499933
0.149454
0.309691
0.180473
0.333497
-0.541877
0.706440
-0.484725
0.435339
0.894143
-0.438269
0.446918
-0.681543
0.414388
0.991122
-0.576378
-0.432571
0.481698
0.369649
0.805462
0.843492
-0.166540
0.526430
0.031800
-0.175802
0.001738
0.597374
-0.657718
-0.206714
0.586989
0.423168
-0.219012
0.470133
0.248221
0.841001
0.750194
0.332808
0.797628
-0.831721
-0.569676
-0.444195
0.264130
0.741567
0.699355
0.641834
-0.503492
-0.048370
-0.135698
0.600053
-0.826926
0.959287
-0.101539
-0.990351
-0.452017
-0.972599
-0.574798
0.728561
-0.182132
-0.617271
-0.497103
0.295384
0.525443
-0.834972
-0.084932
0.017697
-0.168165
0.509673
0.105011
-0.853082
0.330367
0.146753
-0.736854
0.129895
-0.161853
-0.302959
0.494984
-0.630668
-0.660321
-0.205541
-0.406610
-0.798124
-0.719288
0.047904
0.867953
0.510851
-0.723812
0.776395
0.362973
0.201173
0.802897
0.806772
0.835548
0.141151
0.633348
-0.791660
-0.032587
0.956666
-0.988095
0.176583
0.956495
-0.478146
0.730662
-0.200523
0.773676
0.464076
-0.497709
0.150920
0.098307
-0.308042
-0.429958
-0.819763
-0.697039
0.889384
-0.535577
-0.811119
0.971060
0.503913
-0.594848
-0.025610
0.866021
-0.192152
-0.603941
0.026469
-0.243639
-0.627698
-0.733151
0.018091
-1.029359
-0.137623
0.678577
0.143488
0.956185
0.592581
-0.585148
-0.332156
-0.488797
0.188149
0.574428
-0.262122
-0.575192
0.412723
-0.750737
0.404290
-0.526997
0.148683
-0.955574
0.860047
0.231651
-0.518871
-0.031655
0.979933
0.380102
-0.826114
-0.397920
-0.303105
-0.796324
-0.735704
-0.890887
-0.740280
-0.936002
-0.689318
0.186175
0.611522
-0.173494
-0.208761
-0.055400
0.763716
-0.746624
-0.602072
-0.830576
-0.089309
-0.764894
-0.987114
0.544073
-0.188884
0.717540
0.190227
0.244950
-0.670622
-0.042392
-0.808698
-0.594416
-0.287494
-0.650441
0.929006
-0.746372
0.986671
-0.755422
0.143743
0.227104
-0.276538
-0.110898
0.432384
-0.896188
-0.384194
0.438093
0.631102
-0.234182
0.606178
0.581758
0.289381
0.022101
-0.643443
-0.784887
-0.568339
0.874020
-0.780604
0.075084
0.485191
0.083972
0.555680
0.520129
0.459876
-0.711579
-0.701677
-0.742809
-0.029698
-0.260869
-0.945555
-0.640176
-0.224544
-0.966260
0.959198
0.048229
0.177588
0.427368
-0.459189
-0.888176
0.534969
0.647209
0.339915
0.395999
-0.249915
-0.918660
-0.063827
0.831858
0.078335
-0.464840
0.218645
0.670927
0.759166
-0.775574
0.236980
0.763165
0.627630
0.598352
-0.299130
-0.888008
0.510137
-0.365281
0.168965
0.240168
-0.769949
-0.132102
-0.908262
0.161084
0.858945
1.224845
-0.079897
-0.085066
-0.087308
-0.713720
0.971321
-0.370010
0.136309
-0.349229
0.750174
0.104138
0.976826
0.099783
-0.884737
-0.478576
-0.651373
0.433891
0.909996
-0.398206
0.070867
0.968783
-0.485998
-0.598401
-0.197351
0.128870
-0.460727
0.458625
-0.689428
-0.122523
-0.730793
-0.634130
-0.322689
0.909682
0.725497
-0.565677
0.897937
-0.901644
0.015771
0.654973
0.932131
0.150970
-0.940503
-0.916984
0.006679
-0.921515
0.177242
-0.371530
-0.174024
0.568566
0.870523
-0.452064
-0.861500
0.998197
-1.019744
-0.203811
0.968447
-0.609954
0.327957
0.422106
0.848253
-0.334741
0.036742
0.372581
-0.057944
-0.260399
-0.611225
-0.795398
-0.150526
-0.229867
0.852369
0.057826
-0.779700
0.385345
-0.990352
-0.807407
-0.813035
0.385971
0.899907
-0.852708
0.780407
-0.356885
-0.213753
0.075106
-0.909454
-0.400705
-0.531018
-0.126675
0.109177
-0.926146
0.464225
0.256353
0.207089
0.756434
0.300981
0.323985
-0.433795
-0.116446
-0.651073
0.143690
0.395645
-0.413317
-0.413817
-0.696898
-0.373778
-0.464451
-0.129195
0.791825
0.475017
-0.938439
0.320005
-0.631897
-0.503947
-0.438916
0.734878
-0.766535
0.564191
0.837673
-0.107277
0.326556
-0.534890
0.253576
-0.138592
0.720915
-0.844778
-0.192740
0.214711
0.228715
-0.765770
-0.822968
-0.785823
-0.095421
0.718809
0.136134
0.012322
0.837776
-0.106073
-0.680508
0.359449
0.484035
-0.820683
0.457655
-0.201224
-0.828213
-0.414521
0.718327
0.002222
0.860336
-0.017963
-0.400500
0.390097
0.257270
0.190687
0.402159
-0.119111
-0.291860
0.191809
0.367876
-0.630856
-0.788210
-0.048958
0.026849
-0.091849
0.813668
0.080161
0.324830
-0.712079
0.942584
-0.588761
0.113786
-0.070213
0.906702
-0.112554
-0.303896
-0.743545
-0.394447
0.010413
-0.184661
0.616791
0.264257
0.177116
-0.901221
0.438551
-0.197946
-0.630823
0.021685
0.638872
-0.624916
0.372258
0.230714
-0.720190
-0.305418
-1.027484
0.170648
0.121881
0.449185
0.415281
0.170473
0.423915
0.526387
-0.487188
-0.916166
0.822750
0.055723
-0.447050
-0.310562
0.182523
-0.903986
-0.688232
-0.527555
-0.068170
0.044383
-0.583660
-0.506259
0.381075
0.455383
0.493283
-0.613104
0.564687
-0.844701
0.304607
0.420025
0.658998
0.516097
0.469910
0.384839
0.366889
-0.176009
-0.450169
0.336659
-0.309484
-0.561520
-0.657712
1.054210
-0.778424
-0.204935
-0.331445
0.408164
-0.930057
0.767468
0.807370
-0.110192
0.236369
-0.002334
0.785039
0.029941
-0.062956
-0.913690
-0.597611
-0.507286
0.984894
-0.061073
-0.801798
0.135349
-0.769425
0.535456
0.925812
0.034969
-0.987431
0.297559
-0.237476
1.074967
0.866273
0.081222
-0.817852
-0.217472
-0.782952
-0.816605
0.325356
0.800582
0.998984
0.842440
0.539401
-0.864415
-0.351928
0.500630
-0.139427
-0.570134
-0.154482
-0.104950
-0.326206
0.037886
0.898859
-0.949532
0.951203
-0.648655
-0.583380
0.114132
-0.524221
-0.459434
0.730289
0.332387
-0.406944
-0.072224
0.192595
0.575429
-0.306275
0.044497
-0.413337
0.400958
-0.743603
0.761285
-0.023766
-0.662543
-0.327617
0.837634
0.452480
0.969804
0.827371
-0.414479
0.263663
0.115248
-0.999690
0.090945
0.485858
-0.136231
-0.587466
-0.864547
-0.903920
0.885361
0.193258
0.284748
0.267074
-0.436296
0.520235
-0.309939
0.255966
0.739326
-0.467833
0.919438
-0.869556
0.297429
0.629208
-0.548763
0.484422
-0.141626
-0.020942
-0.761567
0.454062
0.880924
0.207657
-0.520401
0.668954
0.279348
0.786401
-0.037095
-0.290195
-0.098585
0.061037
-0.406330
-0.872255
-0.712116
-0.917168
0.725567
-0.498836
-0.935269
0.255996
-1.068160
-0.179991
0.517509
-0.213516
0.022293
0.864031
-0.556473
0.994510
-0.425572
0.666506
-0.279289
-0.772512
-0.665178
0.288923
-0.474718
0.257510
0.959959
-0.643840
0.399317
-0.850727
0.671998
-0.113558
-0.035641
-0.351328
-0.736628
0.506863
-0.128626
-0.671489
-0.189394
-0.018084
0.227731
0.715199
0.518371
0.223794
0.568426
0.518979
0.924500
0.209835
0.251307
-0.355912
-0.626282
0.438768
0.410596
0.460660
0.665377
0.065035
0.036588
-0.534801
-0.410227
-0.053193
0.450893
-0.079811
0.048710
-0.256936
0.299565
-0.307248
0.155014
-0.969081
-0.011507
-0.085046
-0.021438
0.881007
-0.782867
0.867273
0.278424
-0.109411
-0.067000
-0.856008
0.561504
0.392679
-0.430556
0.514578
0.088262
0.524255
0.131976
0.231775
0.254172
0.088904
-0.455838
0.433547
0.563092
-0.423237
-0.193223
0.106722
-0.678947
-0.712466
0.375371
-0.236355
-0.196118
0.085464
-0.198603
0.558170
-0.562698
-0.845143
0.448724
0.274945
-0.851838
-0.554775
-0.338781
-0.416577
-0.496634
-0.641888
-0.227461
0.178475
0.177944
-0.474091
-0.925220
-0.344938
0.214173
0.576862
-0.665725
0.161308
-0.099598
-0.812622
0.278690
-0.008381
1.082992
0.569375
0.363933
0.525777
0.444219
0.366841
-0.306520
0.001287
0.930337
0.102405
-0.605151
-0.217402
-0.221667
0.049545
0.231003
0.525362
-0.830203
0.082647
-5.822406
0.956144
0.968101
0.217201
0.032242
-0.510615
-0.100281
-0.238482
-0.466545
-0.839447
0.745361
0.375836
0.102175
-0.207650
0.542433
-0.219567
0.226283
-0.257502
0.109271
-0.287179
-0.062366
0.406455
-0.970387
0.089797
-0.665460
-0.005343
-0.258499
0.151626
-0.762621
-0.435771
0.605753
0.374504
-0.798510
-0.420862
0.809528
-0.454219
-0.581142
-0.482893
-0.353510
0.383646
-0.480060
-0.747548
0.615204
-0.141503
0.571916
-0.067241
-0.701846
-0.977211
1.004768
0.026126
0.367431
0.961151
0.613786
-0.219788
-0.293967
-0.597881
-0.771830
0.171977
-0.177914
0.497582
-0.773794
0.360701
0.374210
-0.339256
0.666861
0.948311
0.458984
0.567143
0.922400
0.110386
-0.470213
-2.626171
0.867755
0.906673
-0.855995
0.268877
0.732443
-0.708078
0.045776
0.988053
0.822205
-0.423932
0.041300
-0.385045
-0.439178
0.745771
-0.320324
-0.308583
-0.551472
0.989415
-0.117647
0.100252
0.279063
-0.002775
0.181746
0.141915
0.742433
-0.407781
0.528946
-0.750854
-0.832233
0.802181
-0.623057
-0.404829
0.016816
0.063107
0.428763
-0.476641
-0.227061
0.994902
-0.016447
-0.325976
0.142273
-0.116860
0.265448
0.417147
0.301728
-0.517462
0.237805
0.810702
0.094011
-0.455999
-0.302537
-0.373228
-0.838970
-0.130834
-0.090201
-0.858850
0.403746
0.905725
-0.597418
0.293154
0.132054
0.980651
-0.877967
-0.665963
0.457054
-0.750548
0.192858
-0.777361
0.578491
-0.257943
-0.844855
-0.915186
0.529283
0.442436
0.701131
-0.036869
-0.771854
0.782248
-0.106117
-0.045880
-0.096917
0.573243
-0.488256
0.941031
0.948039
0.374857
0.919519
0.149022
0.399301
0.363984
0.308190
0.580965
0.464912
0.140669
0.420594
0.867462
0.467465
-0.661285
0.624241
0.138134
0.876083
0.227326
0.508199
-0.869075
-0.047840
0.355294
-0.874540
0.314410
0.839659
0.307720
-0.003762
2.731314
-0.350956
-0.110065
0.897011
0.105329
-0.514358
0.950020
0.910984
-0.084360
0.522562
-0.823104
0.985108
-0.785882
0.745670
0.169039
0.231763
0.896700
0.182825
-0.219136
0.440523
0.917751
-0.620770
-0.562699
0.191423
0.844680
0.989360
0.050100
-0.851429
-0.056871
0.618193
0.366151
-0.133579
0.254845
-0.808829
-0.042561
0.499599
-0.054292
0.760746
0.555780
-0.865577
-0.981469
0.066812
0.258954
0.352039
0.513186
0.460355
0.236877
0.144543
-0.891007
0.075882
-0.798021
0.030260
-0.232472
-0.702201
0.912002
0.581866
0.230475
-0.548419
0.891995
-0.261196
-0.843771
0.197987
0.261622
0.906403
0.346086
-0.167175
0.861348
0.583482
-0.698401
0.713127
0.696261
0.286921
0.084310
0.010081
0.415049
-0.755571
-0.949566
0.085086
0.907209
0.956739
0.271816
-0.476869
0.924030
0.548644
0.129671
0.092428
-0.950218
-0.606189
-0.291115
0.129114
0.126505
0.737459
1.412005
0.930265
-0.947660
-0.566748
0.340164
0.227143
0.898853
0.436411
0.197397
0.708060
-0.871441
-0.166692
0.430785
-0.220175
-0.784631
-0.020645
-0.829330
0.867855
0.321948
-0.242581
-0.632025
0.707093
0.948742
-0.115148
-0.619552
-0.109393
-0.556825
-0.919707
-0.417336
0.075696
0.699427
-0.474774
-0.944879
0.735877
-0.243494
0.397803
-0.710950
-0.293107
-0.760264
0.815261
-0.293227
-0.950055
0.888562
0.243093
-0.512947
0.297042
-0.204960
-0.358848
0.109515
-0.870509
0.361383
-0.716302
0.056866
0.785675
0.900218
0.543421
-0.776389
-0.509867
0.103638
-0.110670
-0.319897
0.826102
-0.994235
0.755109
0.583053
0.192607
0.877387
-0.328553
0.039960
-0.100490
-0.220286
-0.781938
-0.857978
0.038852
0.540144
-0.610311
-0.452586
-0.150726
0.022409
-0.687299
0.713726
-0.373220
0.171703
0.534021
0.460274
-0.011676
0.810456
-0.837308
-0.639914
-0.892866
-0.212630
0.014959
-0.366855
-0.156582
0.643710
0.234161
0.058724
-0.615801
0.275197
-0.839879
-0.050473
-0.205497
-0.368031
0.740727
-0.404009
-0.112115
0.390401
0.815488
0.346976
-0.366835
-0.849657
0.235542
1.045836
0.619158
-0.581478
-0.237814
-0.466782
-0.548258
0.616159
0.032621
-0.910552
-0.500090
-0.079839
-0.705770
0.621726
-0.034943
-0.034956
0.190757
0.432927
-0.688228
-0.994654
-0.362239
-0.516971
0.919704
0.839376
-0.769170
0.942981
0.172110
0.325427
0.817577
0.334518
0.906070
-0.133116
0.683935
-0.622848
-0.784972
-0.599406
-0.378588
0.085197
0.432962
-0.788496
0.330864
-0.303990
0.050805
-0.490298
0.107771
0.632234
-8.585128
-0.939184
-0.870351
0.467481
-0.434061
-0.389327
0.249272
-0.988130
6.504646
0.190896
-0.020009
0.863625
-0.642371
0.328157
-0.724188
0.282970
0.374090
-0.160430
0.476741
-0.166058
-0.475254
0.654432
-0.664556
0.350698
0.794445
0.945284
-0.869205
-0.880928
-0.948160
-0.477672
0.109464
0.232561
-0.462319
0.643451
-0.287837
0.384844
-0.782136
-0.889768
-0.966615
0.043500
-0.231471
-0.764285
0.477655
-0.975777
0.139991
0.897647
-0.996309
-0.927933
-0.713855
-0.776355
-0.882447
0.187836
0.461694
-0.873062
0.892186
0.686213
-0.132086
0.216411
-0.583422
-6.551222
-0.440878
0.008608
-0.090367
-0.904245
0.730464
-0.282552
-0.527712
0.440174
-0.049061
0.442325
-0.153237
-0.176367
0.632315
0.924219
0.259183
0.254439
-0.561697
0.677600
-0.205784
-0.570517
-0.342838
0.482009
-0.518053
0.287314
0.820715
0.310374
0.833805
-0.466314
0.532554
0.211538
-0.008894
-0.685463
-0.653801
0.066862
-0.365336
-0.137763
-0.434579
-0.781289
0.724805
-0.772277
-0.938270
-0.051383
0.969652
-0.455843
-0.302963
-0.212570
-0.063121
-0.919776
0.828351
-0.222386
0.257256
0.460960
-0.746375
-0.060618
0.124991
0.447588
-0.161649
-0.472526
-0.996861
0.179384
0.672856
0.601549
-0.508508
-0.281663
0.760385
0.230417
0.604971
0.630369
0.450773
-0.859413
0.711055
-0.064342
0.091849
-0.713008
0.601797
0.978641
-0.276930
-0.101022
-0.906080
-0.277988
0.715243
-0.890680
-0.785973
0.870050
0.701200
-0.982273
-0.085224
0.169677
-0.619896
-0.294281
0.012768
0.163165
-0.133036
-0.376898
0.509128
-0.919438
0.559538
0.776274
-0.047739
0.874077
-0.521834
-0.951717
-0.901623
-0.342319
-0.949876
0.143949
0.099369
0.787077
-0.740282
0.186912
0.070771
-0.198781
-0.055557
0.021338
0.392298
0.111794
0.465921
0.448019
-0.018814
-0.964465
0.195786
-0.556769
-0.011660
0.183716
-0.512878
0.561460
0.624704
-0.494140
0.703121
0.665461
0.699988
-0.929956
0.365251
-0.244197
0.239165
-0.751523
0.136083
0.925784
-0.227568
0.885241
0.907361
-0.652375
-0.308137
-0.570422
0.981477
0.636626
0.601060
0.954712
-0.044290
-0.601206
0.354358
0.091555
-0.395660
-0.804211
-0.554315
0.805229
-0.159459
1.200555
-0.528761
-0.023652
-0.834610
-0.421591
0.299506
-0.366507
0.860304
0.481327
0.993097
-0.480582
-0.806843
0.110349
0.844082
0.974171
0.341872
0.699298
-0.712341
0.469530
-0.135493
-0.515979
0.670891
-0.444849
0.840930
0.525868
-0.848094
-0.532702
0.123500
0.631150
0.214987
-0.437765
-0.147367
0.725608
-0.393114
-0.572801
-0.646010
-0.177748
0.238704
-0.246383
0.787583
-0.198228
-0.664219
0.185224
-0.343254
0.465972
0.068522
0.470568
-0.904359
-0.560056
0.160398
0.165111
-0.260667
0.483666
-0.415446
0.646968
0.502862
-0.564126
0.658893
0.985318
-0.095854
-0.174893
-0.330907
0.016958
0.963535
-0.092378
-0.609055
-0.186444
-0.584425
-0.939598
-0.299149
-0.903711
-0.435759
-0.705373
-0.277281
-0.266607
-0.217810
-0.751011
-0.731383
0.793872
-0.433229
-0.693944
-0.326937
0.146724
-0.340553
-0.878520
-0.493477
0.103161
0.375145
0.037764
-0.050125
-0.109843
0.949801
0.886585
0.593920
-0.263099
-0.612987
0.880935
0.191758
-0.045226
-0.315084
0.063886
0.225598
0.036950
-0.683860
0.419530
0.013437
0.235056
0.992298
-0.041891
-0.565593
-0.300658
0.775006
0.902628
-0.120621
0.285073
-0.377183
0.099927
0.585603
0.503061
-0.895730
0.954939
0.167053
-0.913052
-0.345987
0.383814
0.451372
-0.211097
0.446548
0.706760
0.944744
0.549377
-0.405119
-0.821469
0.878123
-0.659121
8.443980
-0.005767
-0.341785
0.304148
-0.264101
0.623102
0.081448
0.926485
0.905717
0.982552
0.191280
0.635755
-0.742771
-0.146328
3.350362
-0.748697
0.773750
0.669859
-0.178666
0.235800
0.580090
0.695759
-0.120351
0.848369
-0.369533
0.811769
0.039929
0.655715
-0.787890
0.453140
0.300597
-0.844628
0.856084
-0.931873
0.078995
0.234778
-0.446598
-0.782140
0.068575
-0.591146
-0.182354
-0.364845
0.252388
-0.406246
0.078068
0.174085
-0.106190
-0.858528
-0.968819
-0.841161
-0.937792
0.342213
0.585378
0.839423
-0.930493
0.694226
0.679621
-0.527224
-0.993610
0.581695
0.635130
-0.559421
0.014512
0.429281
0.609833
0.298143
-0.385813
-0.745013
-0.196987
0.837596
-0.848895
0.391562
-0.703305
0.478426
-0.714678
-0.172756
0.073527
-0.467639
0.103823
-0.051565
-0.587431
0.634285
0.096278
-0.127402
0.511259
0.322261
-0.937311
-0.876664
-0.507068
-0.511459
-0.983956
-0.002801
-0.897546
0.077382
0.862049
-0.319398
0.675160
-0.020251
-0.409352
-0.599543
-0.739636
0.397371
0.211599
0.492667
-0.310777
-0.692445
-0.137057
0.559687
-0.524511
0.928872
-0.948766
0.371465
-0.473942
-0.140242
0.770774
-0.887432
0.310935
0.702353
0.500618
0.956573
0.510003
-0.095379
0.603161
-0.417046
4.374110
-0.986000
-0.088277
0.943055
0.293696
0.418121
-0.507929
0.287215
-0.278505
-0.253569
-0.193831
0.126472
0.926551
0.947489
0.299041
0.567394
-0.894993
0.497383
-0.219401
0.493300
-0.057553
0.498365
0.677075
-0.786651
-1.164859
0.886280
0.411115
-0.670302
0.249037
-0.045168
-0.773278
-0.223185
0.427769
-0.705812
-0.851803
-0.352851
-0.008166
0.036565
-0.965630
-0.469901
-0.580254
-0.630994
-0.816255
0.371457
-0.074087
-0.576267
0.541693
0.313496
0.099421
0.289161
0.454565
0.403310
-0.215346
-0.567205
-0.547347
0.756998
-0.243516
0.041358
-0.158827
-0.121789
0.475191
-0.352205
-0.137101
-0.179951
-0.039717
-0.380338
0.670011
-0.339774
-0.952169
-0.606533
-0.284622
-0.745506
-0.363631
0.611525
0.278180
-0.406506
-0.314527
1.065931
-0.504451
0.492636
0.586856
0.057760
0.344915
-0.015084
-0.296446
0.189741
0.003838
-0.340620
-0.993102
0.009087
-0.667409
0.058657
0.961208
-4.289881
-0.140107
-0.720863
0.271180
0.156268
-0.270460
0.670876
0.506092
0.304181
0.253065
0.893097
0.268772
0.552911
-0.655045
-0.289092
-0.152963
0.061065
-0.364386
0.082070
0.233206
0.562319
-0.524467
0.770214
0.436591
-0.047278
0.780370
0.251662
-0.781748
0.217023
0.815347
0.382886
0.092243
-0.349902
0.513780
-0.240596
0.586410
0.636559
0.094951
0.316774
-0.731209
0.498491
0.774964
-0.890974
-0.654176
-0.353894
-0.751435
-0.082281
0.494324
-0.584050
-0.575077
-0.870443
0.843961
0.162767
-0.036511
-0.965055
-0.698328
-0.790093
-0.303646
-0.889801
0.780722
0.606589
-0.077029
-0.686412
-0.670637
0.289998
-0.180983
-0.006746
0.294694
-0.252889
0.057277
-0.562849
0.074623
0.039998
0.156409
-0.318587
-0.938978
0.612002
-0.399131
-0.891086
-0.495694
-0.385904
0.692185
-0.013100
0.773711
-0.261896
-0.806624
-0.600880
0.987179
-0.453892
-0.962998
0.317879
-0.104639
0.357164
-0.401278
-0.014174
0.663244
-0.266390
0.954308
0.024776
0.057229
0.162824
0.784038
0.907432
0.672592
-0.981103
-0.529696
0.558193
-0.627383
0.328343
-0.151391
0.512805
0.230397
-0.980205
-0.772964
0.478279
-0.830537
-0.910431
0.738362
-0.335686
-0.780172
-0.253944
-0.614401
-0.268010
0.435208
-0.059798
0.025143
0.112706
-0.928317
0.241179
-0.615000
0.809315
-0.161159
0.606062
-0.128689
0.002630
-0.520540
0.297890
0.023989
-0.686392
0.004035
-0.199446
0.199505
-0.080756
0.284238
-0.405268
-0.586745
0.990121
0.181628
0.122803
-0.850500
0.735709
0.360282
-0.613105
0.353303
0.003575
0.344388
-0.120228
-0.308604
0.226383
0.168713
0.537133
-0.621655
-0.052647
-0.801150
0.883198
-0.572891
0.795630
-0.454928
0.654052
-0.291695
0.187809
0.585891
0.123096
0.980461
0.970544
0.969995
0.476418
-0.578123
-0.800800
0.174259
-0.813370
0.063842
0.659483
-0.524656
0.458174
0.865229
-0.927552
-0.104759
-0.690679
0.446723
-0.263446
0.457935
-0.674985
-0.814958
-0.789704
0.242928
0.494108
-0.401874
-0.498368
0.945928
-0.209243
0.732152
-0.145124
-0.032195
0.737352
0.340518
0.622416
-0.230345
-0.801971
0.241818
-0.584134
-0.200929
-0.373672
-0.067247
-0.284352
0.766626
-0.283545
0.666122
-0.882865
-0.377238
-0.898993
0.606992
0.358286
0.472677
0.125479
-0.833693
0.958136
0.222350
0.353537
-0.087533
-0.147790
0.544304
-0.530836
-0.815480
0.824420
0.444889
0.153883
0.604874
0.436759
0.657727
-0.589225
0.659856
-0.010878
-0.502603
0.119086
-0.396200
0.149199
0.220202
0.861947
-0.589863
0.456819
-0.434327
-0.997291
0.721879
0.944358
0.649509
0.294852
0.344073
0.409175
-0.187288
0.081795
-0.356256
-0.542236
0.338545
-0.446719
-0.695322
0.370953
-0.189574
-0.817234
0.909135
-0.399747
0.585888
0.386540
0.560586
-0.065695
-0.112356
0.826586
0.311224
0.174964
0.624965
0.006830
-0.755673
-0.485461
-0.860264
0.828326
0.599905
-0.312718
0.193490
0.098111
0.042455
-0.023916
-1.018168
-0.522791
0.227183
0.851301
0.917810
-0.529789
-0.287213
0.972819
0.351736
0.056754
-0.119260
-0.396331
0.674385
0.920575
-0.085010
0.907136
0.162047
-0.367033
0.230938
-0.763240
0.801537
0.691620
0.657760
-0.179132
-0.329299
0.249139
0.656844
0.543784
-0.704339
-0.552704
0.825436
0.169165
-0.331021
-0.749357
-0.535137
0.504547
-0.613810
-0.662137
0.026105
-0.444308
0.709276
0.385183
-0.433303
-0.734598
0.576844
-0.184334
-0.935512
-0.129457
0.172875
0.648078
-0.400778
-0.871575
0.697613
-0.250929
0.149634
-0.399498
0.370972
-0.064164
-0.619294
-0.177697
-0.091021
-0.085108
0.106563
-0.089094
-0.014886
-0.571151
0.503491
-0.316526
-0.813398
0.053475
0.101412
0.256349
0.912816
-0.644491
-0.403087
-0.640435
-0.975125
-0.520338
0.005805
0.233633
-0.027110
0.758934
0.219709
-0.325037
-0.757593
-0.044003
0.424256
0.254433
0.277409
0.016171
0.874104
-0.788878
-0.662789
0.124424
0.512490
0.812587
0.938035
0.197490
0.193600
0.224144
-0.291611
0.511986
-0.381458
-0.644996
0.535609
0.502308
0.805940
0.677635
0.075523
-0.834078
0.995821
0.097100
-0.186913
0.074105
-0.655856
0.403964
0.914799
0.801274
0.259466
0.746956
0.313737
0.129269
0.946216
0.880981
0.208731
0.922594
-0.769105
0.181234
-0.641401
0.198904
-0.600120
-0.776880
-0.610294
-0.688196
0.075462
0.246832
-0.261309
-0.875766
0.208584
0.233505
0.716633
-0.120065
0.164289
-0.936689
0.672696
-0.721811
-0.929397
0.730754
-0.026717
0.690307
0.745561
0.297958
-0.802188
0.337431
0.318801
0.537827
-0.861431
0.811656
0.396790
-0.949584
-0.853314
-0.882795
0.166703
0.589664
0.758599
-0.502047
-0.627699
-0.043181
-0.512908
0.645127
0.328309
0.677803
0.631000
-0.435462
0.918101
3.598326
-0.124635
0.184396
-0.042626
0.947604
-0.425721
-0.558330
-0.420994
0.651414
0.687066
0.932463
0.843130
0.761789
0.551526
-0.434818
0.886192
-0.254282
0.472021
-0.221759
-0.810756
0.451038
0.696498
0.281712
0.945752
-0.085880
0.658505
0.894083
-0.954938
0.917172
0.014282
0.944731
-0.262575
0.656370
-0.143443
0.649282
0.578317
0.516810
-0.403658
-0.454305
-0.474783
-0.965799
0.470657
-0.309227
0.631202
-0.643980
0.817174
0.607279
0.803568
0.665281
-0.104309
-0.991161
0.705472
0.497767
0.887290
0.844695
0.311715
-0.386159
0.217883
-0.658375
-0.638867
0.962336
-0.398311
-0.209144
-0.190755
0.050073
0.151162
-0.001047
-0.035610
-0.994045
0.875811
0.966196
-0.902659
0.749175
0.880289
-0.536329
-0.820841
0.672032
0.890719
-0.353471
-0.783040
-0.346937
-0.569885
-0.303177
-0.346899
-0.214901
-0.059913
-0.997221
-0.441784
-0.533573
-0.846942
-0.032782
0.475666
0.225779
-0.191765
0.984449
0.617147
-0.878527
0.196957
-0.209455
0.319747
-0.926279
0.622098
-0.883110
-0.933114
-0.779444
-0.781241
0.066391
-0.666891
-0.453256
-0.265560
0.434238
-0.124969
-0.722070
0.048012
0.068920
-0.748965
-0.670437
-0.431400
-0.329179
-0.352476
-0.826542
0.035522
0.155149
-0.333796
-0.722285
-0.894100
0.517732
-0.577986
-0.977923
0.275970
0.727982
0.346396
-0.030818
-0.838317
0.168024
-0.647380
0.699612
0.251362
0.256072
0.359663
-0.591518
0.202831
0.518942
-0.238909
-0.117213
-0.103752
-0.383830
-0.363079
0.888882
0.485204
-0.468140
0.570140
-0.750804
0.177770
0.795157
-0.257283
-0.671468
0.972653
-0.166746
-0.747299
-0.517748
0.525184
0.617079
0.575974
0.304900
-0.926048
0.528545
0.276595
0.880045
0.701178
0.217373
-0.387704
0.791312
-0.102863
-0.960588
0.251968
0.462742
-0.511498
-4.264921
-0.921013
0.651485
-0.454218
0.749397
0.259888
-0.486126
0.042429
0.122594
0.846189
-0.405156
-0.652677
-0.583674
0.680740
0.300487
-0.302070
-0.993811
0.466986
0.412560
0.143658
-0.486258
0.792492
-0.358681
0.836741
-0.633452
-0.661011
0.762746
-2.744247
-0.723206
0.393254
0.340629
-0.119665
-0.063551
-0.624493
-0.093258
-0.339919
0.039477
-0.565137
0.558644
0.677154
0.042970
0.388840
-0.928324
0.702870
0.551092
0.948423
0.677672
-0.283202
0.358145
0.584677
0.602526
-0.363645
0.618592
0.797468
0.370185
-0.373300
-0.993916
-0.787366
0.456379
0.992221
0.644495
0.439481
0.470277
-0.103510
-0.572870
0.070705
-0.228029
0.728819
-0.034355
0.828166
0.795953
-0.461017
-0.305598
0.040815
0.922874
-0.940564
0.116503
-0.576817
0.512425
0.715948
9.045974
-0.340297
7.986908
0.722975
0.887876
-0.389572
-0.496371
-0.361992
0.900504
0.428318
-0.775596
-0.739683
0.574077
0.824612
0.398491
-0.080673
-0.916867
0.019766
-0.128334
-0.059820
-0.131087
0.433697
0.319187
0.185311
-0.619053
0.506865
0.469045
0.832706
-0.031990
-0.452672
-0.721309
-0.877853
0.551894
0.212733
-0.810857
-0.578447
-0.726510
0.330364
0.837264
-0.621324
0.173028
0.795035
0.667876
-0.242865
0.803710
-0.065611
-0.898742
0.523717
0.707253
-0.109727
0.736682
0.416601
-0.996884
-0.453293
-0.257701
-0.549072
0.195153
-0.131298
-0.009562
-0.410119
0.576027
-0.489766
0.340956
-0.615112
0.100772
0.598476
0.394578
0.354897
-0.555185
-0.193385
-0.883381
0.671970
-0.834584
-0.536848
0.005053
0.197403
-0.551045
0.662997
-0.563880
-0.942553
-0.729210
-0.785986
0.981676
-0.908946
0.736358
-0.558505
0.628174
0.137114
0.731816
0.372512
0.080649
-0.520697
-0.041927
0.486315
0.312066
0.923620
-0.493979
0.034060
-0.592467
0.991874
-0.351132
-0.926244
0.113881
-0.428825
-0.366968
0.578802
-0.418776
-0.063092
-0.318413
0.632754
0.421602
0.055725
-0.037690
-0.586130
0.182763
0.608093
0.486172
0.159387
0.822092
-0.189557
0.485066
-0.575823
-0.333178
0.308755
-0.579897
-0.970611
0.177204
0.860179
-0.593737
-0.354301
0.185137
-0.874035
0.597393
-1.152225
0.471999
-0.530306
0.655181
0.065497
0.401962
-0.505544
-0.935900
-0.825434
0.506568
0.309623
-0.754979
-0.348373
-0.439663
0.043758
0.435392
0.150280
0.149986
0.269527
0.022903
-0.041864
0.721590
-0.217019
-0.486230
2.376698
-0.110242
0.808761
-0.958791
-0.617501
0.478943
-0.343699
-0.469248
-0.409104
0.474752
-0.412476
-0.621927
-0.717097
-0.442965
0.697814
0.546832
-0.949784
0.204064
-0.709113
0.882970
0.353278
-0.856373
0.947626
-0.979674
-0.857708
0.744342
-0.698125
0.611834
0.384164
0.585723
-0.755325
-0.813951
0.871027
-0.566252
0.840933
0.508431
-0.810024
-0.539437
-0.901040
0.079768
-0.301456
0.826104
0.367491
-0.391029
0.686284
0.020289
-0.511685
-0.790710
-0.720544
0.301695
-0.093104
0.484493
-0.242013
0.247451
0.002058
-0.438615
0.292710
0.771381
-0.863102
-0.808222
0.293909
-0.186829
0.647753
-0.957651
-0.513160
0.770085
-0.972359
-0.806490
-0.547565
-0.217339
0.165671
-0.678343
-0.989628
-0.869366
0.836308
0.138453
-0.014654
-0.185867
-0.187485
0.206389
0.810236
-0.491282
-0.075120
0.604931
0.827003
0.381332
-0.143288
0.456634
-0.234320
-0.545524
0.938741
-0.425624
-0.299533
-0.112117
0.593788
0.285269
0.379915
-0.215226
0.405417
0.539146
0.819095
-0.097446
-5.114792
-0.367122
-0.543569
-0.144899
-0.904956
-0.060294
0.185921
0.782207
0.604672
-0.028808
0.278630
0.311144
0.112895
0.978857
0.365836
0.708935
-0.252216
0.075545
0.212612
-0.871769
0.089517
0.781650
0.392350
0.826397
-0.647045
-0.464597
-0.567220
-0.409636
-0.908008
0.911824
-0.526253
0.578901
-0.642247
-0.709633
0.031094
0.194807
0.464088
0.371035
0.002602
0.664099
-0.143580
0.269619
0.367235
-0.131073
0.526482
0.306838
-0.175092
0.980240
-0.463924
0.476203
-0.610607
0.912457
0.810456
0.624615
-0.716963
-0.483240
-0.247757
-0.398166
-0.123933
0.156228
0.016921
0.031294
0.037652
0.146822
0.640250
-0.785842
-0.597991
0.821081
0.440376
-0.733898
-0.580871
-0.870861
-0.369160
0.672981
0.200587
-0.595927
0.981129
-0.833991
0.094987
0.709135
-0.023223
0.590067
0.577577
-0.788478
0.142335
-0.093761
-0.668184
-0.890353
-0.392235
0.224694
-0.299607
0.595428
0.574665
-0.098224
0.498551
0.709073
0.340203
-0.916442
-0.995873
-0.839517
-0.038192
-0.620951
0.718098
-0.350217
0.199753
0.033597
0.891643
0.838413
0.093394
-0.143719
0.128400
0.423940
-0.983460
0.399759
-0.738526
0.275304
0.774471
0.591777
0.568883
-0.893479
-0.943042
0.341528
-0.678769
-0.835800
-0.186187
0.574092
-0.622247
-0.592469
-0.583370
-0.940409
-0.291174
0.806763
-0.147030
-0.139388
-0.059709
0.654705
-0.489317
0.461533
0.365079
-0.114352
-0.248381
0.040058
0.721636
0.842113
0.931321
-0.136091
0.628009
0.310167
0.483877
0.164960
-0.658237
-0.024113
-0.927164
0.230577
-0.167993
0.320525
-0.161755
0.592297
0.287807
0.818125
0.303035
-0.268163
-0.011957
0.050322
-0.897190
0.881895
-0.152104
0.489523
-0.903177
0.340697
-0.388488
-0.846949
-0.365222
0.460100
0.012252
-0.501287
0.722635
0.153818
-0.456259
0.381262
0.090805
-0.966569
0.289265
0.735241
0.469818
-0.402579
0.477093
0.313546
0.328722
0.990046
0.941613
-0.141456
0.573074
-0.308702
-0.728603
-0.943785
-0.504267
0.445216
-0.340215
0.338567
-0.738989
0.400966
4.777431
0.465121
1.517787
-0.689109
-0.940863
-0.987628
-0.153048
-0.333425
0.530803
-0.736228
0.306044
0.176370
0.177433
-0.283345
-0.266180
-0.173390
-0.124392
0.833076
0.648027
0.291050
-0.639517
0.672435
0.950834
0.063466
-0.906071
0.512189
0.918232
-0.569422
6.922808
0.613497
-0.858595
0.079434
0.193233
0.030191
-0.478053
0.122621
-0.881565
0.502541
0.794324
-0.359940
0.738357
0.646464
-0.485462
0.295777
-0.822194
0.771096
0.034328
0.329547
0.168145
0.690805
-0.626225
-0.091951
-0.900749
0.130577
-0.043731
0.464027
-0.930297
0.030851
0.551066
0.506185
0.772601
-0.692708
-0.141428
0.791383
-0.396505
0.206637
0.154436
-0.700951
-0.917363
-0.606949
-0.901505
-0.012998
-0.954940
-0.703314
0.358585
-0.164554
-0.480933
-0.200817
-0.972627
0.334687
-0.359981
0.191454
-9.225522
-0.460999
-0.109335
0.234519
-0.605365
0.660060
-0.663396
-0.394268
-0.175094
-0.717931
0.517146
-0.103244
0.418515
0.683258
0.023420
0.917626
-0.017496
-0.133732
0.431939
0.399922
0.544161
-0.557363
-0.950722
0.009959
-0.383710
0.371223
-0.861522
-0.319734
0.857715
-0.535692
0.012425
-0.014270
-0.704925
-0.694548
-0.504317
-0.196364
-0.825670
0.637250
-0.363178
0.325938
0.742127
0.340161
-0.659295
0.352744
-0.259983
0.583510
-0.873848
-0.606216
-0.963394
0.646079
0.851193
-0.913985
0.560654
-0.685980
0.200491
0.642450
0.601846
5.373527
-0.143710
0.197246
0.526362
0.010188
-0.339941
-0.196428
0.131189
0.310034
-0.151146
-0.687220
0.736249
0.407698
-0.727933
-0.585163
0.221116
-0.380926
-0.468363
0.811111
0.231534
0.289377
-0.510735
-0.815616
-0.889559
0.979468
-0.806189
-0.286262
0.096634
0.257318
0.252863
-0.920908
0.829101
0.920283
0.843063
-0.182020
-0.104338
0.953651
-0.150212
0.646095
-0.888637
0.258965
-0.590191
0.115990
-0.523371
-0.076071
0.184125
0.590930
-0.326375
-0.624619
0.784167
0.518818
0.696063
-0.662232
0.938356
0.503764
-0.809589
0.834566
0.672166
0.589579
-0.394362
0.123259
0.503836
0.230354
-0.592853
0.380226
0.032942
0.927741
-0.111244
0.113493
0.353485
-0.822838
-0.233461
0.812000
0.326722
-0.842238
-0.383580
-0.763545
0.341552
-0.542286
0.068362
0.570139
-0.214164
0.609562
-0.675012
0.445664
-0.539444
0.386468
-0.550415
-0.027649
0.610694
0.325161
0.967483
-0.446519
0.573507
0.957747
-0.189947
-0.281578
0.395997
0.876898
0.341135
-0.281871
-0.716416
0.991673
-0.846569
0.596311
-0.284838
0.634475
0.302019
0.304821
0.362431
0.527533
0.936871
-0.333418
-0.901506
0.908637
0.215872
-0.561561
0.251844
-0.042648
-0.724946
0.538687
0.898953
0.102927
0.057753
-6.820956
0.099371
0.107007
-3.291754
-0.704050
-0.977217
0.584347
-0.035663
0.854472
-0.035116
-0.076540
0.326130
-0.864704
0.669324
-0.507223
-0.110890
-0.418629
-0.068106
-0.347303
-0.999594
-0.123646
-0.543823
-0.209940
-0.275540
0.432679
-0.777368
-0.414461
-0.155320
0.431096
0.582252
0.139214
0.718939
0.317815
-0.728193
-0.497960
-0.151949
-0.073590
-0.600183
0.453048
-0.982761
0.575248
0.539647
-0.452398
0.789808
0.905802
0.794746
-0.884788
-0.730024
-0.344868
0.787501
-0.128265
0.822060
0.648285
-0.493317
-0.948496
0.416153
0.895460
-0.628021
-0.109923
0.804849
-0.609262
-0.512277
-0.223858
-0.512120
-0.221154
0.809282
0.387215
0.830284
-0.099279
0.967283
0.612252
-0.467609
0.443539
0.769843
-0.313517
0.223116
0.975967
-0.432270
-0.447187
-0.428025
-0.884163
-0.076393
0.468244
0.465992
0.553249
-0.353902
0.249409
0.497472
0.692761
0.161840
-0.767622
0.210728
-5.167683
0.763303
-0.625023
0.934123
-0.416013
-0.392957
0.853908
0.555632
0.210980
-0.900156
0.947181
0.483824
0.792063
-0.579089
-0.651629
0.408016
0.112031
0.831168
0.015792
-0.585093
-0.887790
-0.182900
-0.717994
-0.397903
-0.935493
-0.602099
0.459808
0.955032
0.392199
-0.539402
0.130388
0.342342
-0.815427
0.474411
-0.961662
0.577463
-0.429583
0.825782
0.005407
-0.389592
0.385950
0.059120
-0.404589
0.312803
0.247254
0.266143
0.016562
-0.804617
-0.547631
-0.658390
-0.995440
-0.107546
-0.846002
0.337162
0.297934
-0.512218
0.813187
0.470827
0.030678
0.371130
0.858613
0.640882
0.965409
0.904700
-0.214792
-0.948356
0.478420
-0.335920
-0.932142
-0.519972
-0.869344
0.917031
-0.515113
-0.930933
-0.606558
0.519223
-0.163932
0.487293
1.121686
0.947592
0.362073
-0.561372
-0.256597
0.663482
-0.832635
-0.070131
0.028312
-0.350915
-0.408027
0.616525
-0.351406
-0.195454
-0.888537
0.470331
0.130982
0.683723
-0.657029
-0.040725
-0.876777
-0.238053
0.253280
0.830239
-0.886563
0.060755
0.153832
0.592396
0.167321
-0.713309
0.416266
-0.515222
0.074305
-0.464806
0.374082
0.492293
-0.322548
0.404257
0.946223
0.011563
-0.838123
-0.758580
0.088021
-0.843799
0.784276
-0.901442
-0.538069
0.752779
0.486166
-0.107188
0.673516
0.322306
0.667103
-0.323616
0.352438
-0.997395
0.287294
