0.201599
0.906317
-0.146738
-0.293896
0.646552
-0.072034
-0.481024
-0.610958
0.520862
-0.008714
-0.641129
0.229926
0.053358
-0.026730
-0.968917
-0.002571
0.020799
-0.328530
-0.455991
-0.515940
0.161004
-0.807640
-0.991819
-0.644750
-0.087836
0.044045
-0.319092
6.447018
-0.704281
0.199130
0.692037
0.738951
-0.881697
3.297594
-0.933928
-0.189207
-0.700329
-0.674797
0.833857
-0.527775
-0.246540
-0.934568
-0.328994
-0.471743
0.113402
0.223671
-0.664595
-0.144025
0.534146
0.270944
0.305040
-0.609503
-0.900594
0.072660
-7.808126
-0.750838
-0.051322
-0.226674
0.613988
-0.138779
-0.012455
0.986004
0.278105
-0.975623
0.433112
-0.574177
0.170371
0.658978
-0.705793
0.766493
0.100921
-0.100384
0.809050
0.508357
0.696702
0.241814
0.088079
0.976189
0.296664
-0.566445
-0.376702
0.007723
0.808213
0.984663
0.929622
0.936683
0.904251
0.206791
0.773556
-0.101889
0.829192
-0.225200
-0.047057
0.217442
0.660687
-0.354270
-0.650838
-0.357647
0.516910
0.868739
0.935938
0.234072
0.629006
0.745234
0.410564
-0.389858
-0.205206
-0.441194
0.996684
0.124858
0.019542
0.691733
-0.098585
0.924664
-0.601593
-0.655323
0.520114
-0.309400
0.182968
-0.133118
0.931674
0.852195
0.419276
0.949206
0.258372
0.955191
-0.574281
-0.172508
0.527895
0.936015
-0.646013
0.245617
-0.245662
0.498421
0.288390
-0.943009
0.895524
0.210503
0.429827
0.156902
0.413922
0.494732
-0.422788
0.622629
-0.189339
-0.822964
0.533007
-0.674864
-0.052864
0.267877
0.453377
0.168288
0.658173
0.605959
0.667112
-0.635504
0.637865
-0.427095
-0.174313
0.056666
-0.114370
-0.597694
-0.038623
0.165722
0.642142
0.698051
0.921897
0.371514
-0.472623
-0.529282
-0.987344
-0.976611
0.601021
-0.749496
0.794292
-0.267738
0.505066
0.478326
-0.315308
-0.780433
-0.776973
-0.934811
0.724732
-0.670926
0.788533
0.893163
-0.119954
0.307730
0.155080
0.691892
0.671409
0.167748
0.291653
-0.878717
-0.427145
-0.401164
-0.494224
0.935081
-0.823037
0.843755
0.621088
-0.350332
-0.694171
0.307008
0.728601
-0.580109
0.214564
-0.231352
0.835487
-0.036511
-0.806972
0.120017
0.000284
-0.733054
-0.898956
0.474571
0.700012
0.027989
-0.017492
-0.986322
0.987592
-0.399052
0.053927
0.656253
0.040414
0.769941
0.794816
0.788078
-0.595850
0.233297
0.064461
-0.910588
0.700120
-0.690285
-0.457986
-0.230012
-0.692522
0.627043
0.589036
0.724277
-0.915640
0.073964
-0.732704
-0.900373
-0.411432
-0.931877
0.364014
0.987589
-0.642280
0.855679
0.294247
-0.210877
-0.011135
-0.258012
0.054942
0.863431
0.535371
0.272224
-1.041824
0.796623
0.584697
-0.488583
0.422321
0.071070
-0.407622
0.437211
-0.807705
-0.880995
-0.040623
0.973537
0.636749
0.430480
0.607896
0.200605
-0.369840
-0.211530
0.842804
0.805013
0.126632
-0.272201
-0.081454
-0.719535
0.014735
0.873518
0.096249
0.757998
-0.853161
0.710279
-0.135025
0.257743
0.172955
-0.315173
-0.258995
0.210808
0.154574
-0.938835
0.227889
-0.657914
-0.060154
-0.257611
-0.796126
-0.637335
-0.665889
0.961539
0.765659
-0.336986
-0.052758
-0.979291
-0.633145
-0.089560
0.012412
0.057761
0.021372
-0.673536
-0.277107
-0.869518
-0.718570
-0.342105
0.703477
-0.191560
0.563569
0.798811
-0.531088
-0.947722
-0.798001
-0.924144
0.339142
-0.195658
-0.685677
-0.217668
0.964212
-0.864149
0.813356
0.111999
0.159566
0.314438
-0.422583
0.032863
-0.278559
0.768224
-0.476595
-0.292160
0.587575
0.841733
-0.189902
0.307701
-0.886134
0.023191
-0.013849
0.547774
-0.087221
-0.357529
0.172745
-0.305813
0.721584
-0.183863
-0.608463
-0.684068
0.898777
0.384215
-0.764672
-0.665005
0.802024
0.654647
-0.448742
-0.193880
-0.366287
0.949577
0.626059
0.571472
0.740462
-0.857279
-0.474030
0.129976
0.193487
0.679077
-0.502017
-0.122126
0.435173
-0.708188
-0.242052
0.604767
-0.521283
0.081568
-0.279959
0.533791
-0.486698
0.512820
-0.850187
-0.241323
0.627626
1.837558
-0.340679
0.658372
-0.729120
-0.170481
-0.486886
0.045143
0.260217
0.829497
0.107792
-0.281067
0.221674
-0.858925
0.310026
-0.992813
0.249139
0.684364
-0.197136
-0.433487
-0.605484
-0.749316
0.195549
-0.116511
0.157868
0.371865
-0.967747
-0.111794
0.780904
0.428929
-0.736017
0.849909
-0.495523
0.788364
0.929132
0.771622
0.157161
0.257093
-0.151128
0.650855
-0.807545
-0.084760
-0.361036
0.952086
0.568050
0.948547
0.137304
0.517564
0.558694
-0.265012
-0.147023
-0.840049
-0.043440
0.250215
-0.569848
0.094329
0.410359
0.206294
-0.105748
0.961081
0.451489
-4.941926
0.459781
0.920716
0.395253
-0.719263
0.810096
0.177754
-0.270507
0.846180
-0.199791
-0.394434
-0.743923
-2.526698
0.633603
-0.895595
0.034089
0.214662
0.098199
0.152257
0.775956
-0.096978
-0.714805
-0.913256
-0.425146
0.898258
0.056440
-0.699960
0.287714
-0.584249
0.225838
-0.319034
0.364916
-0.055612
0.223184
0.096868
0.298483
-0.479752
-0.394656
-0.624430
-0.783186
0.804050
0.655140
0.098923
-0.285019
-0.647121
0.205215
0.523016
-0.539752
-0.612012
-0.966703
-0.383117
0.111688
0.237058
-0.923976
-0.008740
-0.883764
-0.024926
-0.067826
0.868870
0.162949
0.283843
0.596893
-0.630427
0.258575
0.733568
0.007867
0.903640
-0.106892
0.881274
-0.187932
-0.981178
-0.432718
0.313908
-0.392784
0.817750
-0.698751
-0.928047
0.665936
0.365276
0.020580
0.493867
-0.924644
-0.942041
-0.868200
-0.250037
-0.675374
0.608007
-0.603571
-0.501222
-0.759881
0.403476
0.475400
0.283189
-0.238932
0.805350
-0.174957
-0.626374
0.746696
0.364206
-0.998979
-4.323988
0.996430
-0.154496
-0.506202
0.866573
-0.412461
-0.495609
-0.143832
0.635929
-0.793505
0.572809
-0.091566
-0.827188
-0.280422
0.185190
-0.742387
-0.273023
-0.379854
0.904492
-0.638307
-0.955213
-0.668797
-0.520593
0.183832
0.021868
-0.865652
0.883193
-0.303249
0.432614
-0.764364
-0.163971
-0.556602
-0.618563
-0.068319
-0.708184
0.171808
-0.785401
-0.454019
-0.677041
0.994017
0.721492
0.852050
0.994665
-0.660784
-0.336142
0.680195
-0.496141
-0.541641
0.041839
0.348058
-0.720422
0.925593
-0.982914
0.701673
-0.855888
0.869966
-0.122972
-0.851182
0.701875
-0.209873
0.510009
0.965830
0.959501
-0.058015
-0.755181
0.727907
0.810226
-0.535277
0.517674
-0.322998
-0.767907
-0.695810
0.525870
0.711651
0.651081
0.161903
0.352839
-0.293375
0.341290
-0.120507
0.738589
-0.423083
0.970538
0.952244
0.469750
0.425766
-0.584243
0.960064
0.619422
0.788904
-0.730131
-0.611301
-0.281505
-0.488672
-0.730037
-0.669189
0.170724
0.500030
-0.739157
0.499680
0.702848
0.450895
0.149478
0.294820
-0.358084
-0.164689
-0.906332
-0.857492
0.921956
-0.511547
0.254295
-0.228624
0.420863
0.296292
-0.205299
-0.292308
0.379515
-0.569935
-0.350471
0.074902
-0.857809
-0.197666
0.888126
-0.803789
0.321629
-0.617684
-0.644882
-0.674141
0.560183
-0.422202
0.196218
-0.806796
-0.964125
-0.257908
0.181073
-0.418201
0.374413
-0.292576
-0.176270
-0.279848
0.714370
-0.600336
0.609287
-0.244326
0.113057
-0.681864
0.542263
0.227279
0.728057
0.357257
-0.114182
0.420747
0.977460
-0.634759
0.631139
-0.460599
-0.026314
0.131604
-0.641650
-0.238091
-0.934502
0.598068
-0.794986
-0.544823
-0.922423
0.278879
-0.166608
-9.805309
-0.022954
0.136815
0.044723
0.586190
-0.641749
-0.486714
-0.403982
0.640413
-0.693395
-0.034598
0.610121
0.728573
0.527998
0.538063
0.892298
0.270491
-0.485639
-0.395091
-0.644259
-0.915471
0.172066
0.138554
0.881188
-0.192304
0.341444
-0.656478
0.142826
0.983965
-0.704322
0.307031
-0.171222
-0.113975
0.995269
0.220389
-0.510095
0.147003
-0.176116
-0.922993
0.994185
0.299322
-0.503976
-0.168716
-0.342046
0.785645
0.359970
-0.440567
2.360832
-0.934252
0.453453
0.123776
-0.203840
-0.057601
-0.531856
-0.009128
0.512210
0.283223
-0.507347
-0.554479
-0.749392
0.168599
-0.245290
-0.703393
-0.883061
0.722033
-0.948031
0.215876
-0.348285
0.098687
0.234716
-0.546491
0.478425
-0.483895
0.164423
0.799708
-0.254017
-0.817462
-0.997184
-0.947417
-0.772357
-0.740239
0.504629
-5.602410
2.762693
-3.315106
4.064557
-1.149681
-0.813160
-4.230980
-8.002159
-11.772649
2.985634
1.819181
5.033658
-9.167320
-10.560161
-6.065941
-5.613074
-1.330430
6.442366
1.882114
6.187991
-4.085775
8.484248
1.589508
4.267094
-11.311055
7.542006
3.696467
6.565309
-2.974532
-9.270298
-14.461638
1.191599
1.966446
2.871918
9.279961
0.625176
1.005718
-3.020921
-10.668657
-0.392915
-3.523396
0.066636
-1.911006
4.301391
-7.803460
1.824915
4.992741
7.718286
0.877111
7.596827
-5.059718
3.736680
1.035903
-1.130003
2.718445
0.864757
6.369364
1.795690
-5.643676
0.835947
-0.381825
-3.046577
2.943571
4.440464
0.798372
9.279866
-2.312215
-7.756956
-0.482597
-9.566855
-1.560429
-0.525921
4.449857
4.694754
1.799347
-10.080188
-3.593051
-0.652146
-3.163194
-3.386666
-3.304015
-2.663001
-1.188825
-1.497123
8.805227
0.015322
-3.072041
-8.717360
-9.047813
1.786043
-6.866101
-1.987352
-3.642684
-0.766094
-0.752264
0.336444
2.690408
2.859760
3.875165
-4.991511
8.340151
-2.833918
-0.421168
-8.910111
5.856779
2.216977
-8.629607
-5.985008
8.095401
-12.052082
6.189835
4.115414
6.843065
-5.750367
6.110141
-0.179114
-2.237081
4.337268
-0.168520
2.733803
3.721947
4.403444
9.369330
4.067015
-3.595227
2.881491
-0.005229
-8.272139
9.363133
17.403154
3.376744
4.634332
4.737023
5.564219
8.615071
7.968229
-2.395218
-4.832389
5.126797
-2.161386
1.379673
-0.710872
-5.784163
5.204458
-2.840091
-11.511526
8.097222
5.628993
-5.722636
-1.684174
6.676880
3.929820
-7.715718
3.250061
5.886878
-0.988174
9.698565
11.658905
-6.924915
9.396577
-4.321709
8.394307
-3.174137
-9.076256
3.474553
-1.312465
1.083922
-14.632543
9.846162
4.089576
4.329056
5.469544
-1.973057
-5.651620
8.643364
-6.549089
-5.695214
-0.040350
-5.019818
-8.617213
-8.275735
-3.659166
6.630044
-0.156672
-4.342259
-3.159231
-10.282882
0.933970
-2.559937
-4.766110
-1.781852
4.034883
-10.717024
-1.707590
9.358299
-0.255102
3.710264
5.176293
2.038578
-5.119904
-2.352820
2.879574
7.429547
0.071802
4.889226
-6.539987
1.389707
4.805349
0.649154
-8.368598
6.502289
6.292135
-3.909757
-1.468078
7.796577
-20.763757
0.338734
-6.021896
-6.102027
0.849080
3.200394
-4.953297
8.924287
5.630315
7.538348
-3.607773
1.460311
-7.695470
-6.998762
-8.688922
-19.693436
0.976702
1.634491
-9.417952
8.348359
9.694466
0.090802
-4.796935
3.746033
-5.741645
2.428386
1.894840
-9.313208
-3.902854
-8.906868
-5.819601
2.760377
7.500987
7.873438
4.055856
-8.592910
-0.458515
-2.134998
2.292010
-6.662002
9.579997
-7.470420
-6.798584
-6.087035
7.887386
9.947552
18.653000
4.969231
2.866859
6.220444
4.156711
-3.874550
0.746714
0.636099
4.107141
-5.070371
2.095333
-0.325041
8.965700
-4.579977
18.199363
-6.166480
2.965362
-7.673870
1.192399
2.130560
2.874606
-5.928035
11.134815
-1.191241
4.158344
0.785468
-2.020887
9.974549
6.143237
-9.750713
-5.134870
15.160197
7.623641
-2.381321
6.777297
2.198053
-2.646028
-12.390942
6.530521
-6.263768
8.973465
2.323046
-5.093958
7.012644
9.585882
11.150606
8.188233
-6.735604
-0.455175
-1.398661
-0.361344
3.547646
-1.681362
6.762393
-0.931145
-3.469772
-5.286299
7.211423
1.947827
1.623136
4.465630
-0.962634
-1.099596
2.085431
-2.061884
6.055621
6.178949
-0.448100
1.895077
11.685816
4.593473
-5.327998
-3.806510
-9.691222
12.072533
-4.277417
3.956782
-9.231497
7.047882
3.133457
-5.023564
-3.333014
8.357832
-3.937318
4.474301
-3.397590
8.596633
4.802115
-0.355370
3.417442
4.355283
3.572586
-5.442575
-0.411043
-3.141002
-8.576743
1.618539
1.028367
6.382908
0.568946
3.184977
-7.202254
2.535397
-2.784860
5.109926
-1.119346
6.912366
2.791411
3.082891
-4.026781
3.598015
-7.727088
-6.813371
8.433263
-6.429487
-6.623097
-4.262047
9.148413
6.060005
4.646616
5.836954
7.289318
-5.354943
-0.441297
3.825482
2.486109
3.279115
-1.759839
-9.419605
-0.831312
3.333269
10.657583
5.671458
-6.806133
3.285759
-0.876277
-9.828766
4.333150
-11.342803
-2.686924
1.688278
-10.956345
-11.032889
-1.172264
5.029157
3.054718
-3.467334
-4.209549
15.260651
4.249600
4.303874
0.061423
0.603789
7.368569
2.895226
1.280055
-17.233102
10.277914
-2.725953
3.052627
-4.224138
-0.887004
0.117767
-7.636266
-3.843251
7.017909
1.622470
-7.077833
-1.270105
-0.302216
7.806445
3.914965
8.032458
1.049428
11.486643
-6.734964
1.532093
3.868114
-4.706592
-3.520700
0.437355
0.651781
5.487417
3.626806
6.099049
-2.905129
7.645957
1.274302
-3.189498
0.232699
0.077233
-0.790181
3.000715
4.420468
1.709517
5.473066
-7.767581
-7.954865
-23.487911
-17.253031
-0.479185
-1.516805
4.849735
-6.067478
4.510607
5.910188
-3.386282
-2.621556
-7.848374
1.833975
8.407746
-3.249572
6.932372
-5.153615
3.734989
0.708280
-9.012111
5.463467
-6.537399
-1.425227
-20.128837
5.009596
10.232143
-2.509537
7.227866
-7.676318
-3.994481
-7.343741
4.962306
-11.070561
6.782552
-15.801958
-7.349904
3.448967
4.961327
2.059152
2.719271
-4.294069
1.688211
3.452324
5.175625
-5.656517
9.681268
-4.338243
3.577410
-4.943947
-6.617925
9.197996
1.313770
6.593932
-14.405178
1.759485
-8.344995
-1.659887
-4.614653
-4.401364
-8.860527
-2.334995
-3.782134
1.905396
2.268120
-2.426152
-1.896323
-0.040269
1.805737
-1.395380
7.533697
-1.235857
3.320704
-4.501142
3.402509
-2.867208
-16.446034
18.053696
7.569285
-7.462340
-0.651811
4.583115
-5.801591
-7.143623
4.456082
-3.998807
-7.217583
10.785485
8.040835
7.769714
-6.268095
4.922202
-14.004162
7.757219
-0.405415
10.764616
1.816239
2.960184
4.973160
2.798816
-9.557355
4.795712
14.589250
-9.868348
4.559191
-0.840354
-6.057730
-1.385556
5.511881
5.109625
7.793929
-8.950033
9.838697
4.667689
-6.972973
-3.392587
4.122855
-6.842390
-3.477144
6.423145
4.944771
-4.832425
5.207068
2.804123
1.444774
8.585941
-5.280695
2.242673
-2.386138
-1.667216
6.451465
18.065741
4.269365
3.662469
2.609564
6.428760
7.458427
-4.703950
3.690362
-3.931754
-0.394719
4.387336
1.856911
4.407517
0.261345
-1.176604
-2.913512
-1.085245
-4.963024
-0.349740
-6.508040
4.513704
-2.121717
8.996000
-5.244943
4.930784
-5.973163
1.686340
0.336857
-6.401653
-1.223747
-8.275135
-14.770078
8.462549
4.733586
2.278128
3.980756
8.165662
3.183762
9.061399
0.430840
3.045008
-3.210704
4.657487
-3.300473
2.216095
2.409792
0.261985
7.630477
0.050014
-3.873967
7.007450
1.064193
6.485678
8.003485
-1.431314
3.301023
3.754235
-4.532768
0.246643
-4.422955
3.996286
6.501272
1.219347
0.415739
1.182334
0.663247
1.083833
-5.187291
2.791097
-11.052743
2.754961
-5.271829
-12.469628
9.789941
-8.586032
3.061041
3.199788
-9.595572
0.581369
3.598406
-4.087690
0.144614
-35.074068
-7.023726
6.450835
8.481002
9.357098
0.716283
5.649746
-9.380364
1.163724
9.185408
-0.952340
-13.462317
-0.065243
2.535379
2.256190
0.354861
6.420755
-0.572390
-2.039166
-8.473252
6.358469
3.171204
-2.365662
-4.421803
-2.490892
-1.153035
4.735157
-6.929512
7.107186
5.990775
-2.274625
-3.218945
-4.557043
5.462797
0.048702
9.132355
-0.526083
-2.005937
-5.470104
8.441215
6.791320
-3.776161
4.022102
-7.611384
5.050510
9.491891
3.561659
2.735717
0.059453
6.200773
21.679736
-0.225182
6.029704
-3.372627
-2.903536
5.439535
5.137456
3.364040
-4.958080
-0.064314
-5.625250
-6.455128
-5.596038
16.962259
-9.660680
7.232833
-0.130000
-8.864266
0.955599
6.762123
6.905530
-7.550023
-10.084588
9.203574
-5.791756
-0.046700
2.129508
-12.940087
4.621317
-7.625369
5.207021
3.431788
-3.026539
14.003750
2.464090
-0.053139
10.648221
3.999533
5.105012
1.752162
8.254212
-10.742241
6.421190
7.695413
7.267394
-1.377635
-4.447953
9.658074
2.521718
-0.381769
-2.802258
1.155413
3.585342
-1.397266
2.955208
3.508629
-7.586656
-4.091427
-1.515129
-2.597030
-2.249148
-10.301878
3.469852
8.628296
3.448792
3.734467
1.250821
5.156370
-9.120144
-5.225665
16.079741
-3.176292
8.368978
9.634249
1.838748
-3.274005
1.450830
4.414487
-3.257947
-10.000935
-3.683690
17.143126
11.737985
7.436304
-4.065813
-0.490189
-9.631303
-0.907709
9.810924
-4.527187
9.138880
-5.860936
-11.549318
7.459164
-2.117565
8.297141
4.237444
-1.766916
1.455880
-8.579135
1.297860
-0.368264
6.408043
-0.518316
-6.308408
-5.395986
2.949304
9.535771
2.548594
-1.510960
1.544631
9.486627
-10.457680
-3.162719
-7.235561
0.799319
-6.740765
9.030940
-3.984280
-0.609538
5.724381
-0.308866
-0.060405
9.147551
4.482794
-3.954476
1.634323
0.188645
1.718654
9.900526
-4.700122
5.450548
-6.645139
-3.166535
0.714594
-3.365102
-5.088446
3.483991
6.331196
0.228655
3.928198
1.196148
-5.142110
4.984398
-6.105583
1.601277
1.183939
-10.706329
8.636429
-3.279249
-0.198869
-3.468280
1.776426
5.463482
11.245629
6.737069
0.811218
-3.152671
-5.120466
0.805778
3.341242
-3.094434
1.107651
1.385779
-2.014858
-6.603648
1.623498
-7.488126
-0.278673
-0.084858
10.162863
2.445648
2.287070
-3.076347
1.432306
-10.253588
0.824527
4.490840
11.283058
5.831959
3.178561
-9.028865
-11.388576
-2.431747
0.889264
-7.505712
-4.092991
-1.045035
-0.879986
-1.997125
5.123407
0.427361
-6.193985
8.745176
3.944862
-0.196750
-3.635339
2.000475
-3.481657
6.771406
-5.586692
2.998149
14.208315
-1.775866
1.269716
9.096170
2.898259
-7.078404
-4.196471
-15.802601
-2.988584
9.876425
-9.022324
12.802952
-11.558132
0.722064
4.307797
-7.507144
7.348658
1.355577
6.550547
5.116975
-6.722639
6.142714
-6.544416
-6.771841
-2.131793
-7.980707
-1.914257
0.511594
0.244433
-2.038976
-2.134722
6.327306
-1.339355
-12.169303
-2.534399
7.994051
-3.338485
-8.175920
12.510901
-11.483872
0.842061
-1.443898
-2.553630
-6.704694
1.529095
-5.568648
-0.721417
-4.060242
-2.199831
-15.217211
4.553519
0.377364
5.836755
1.536292
1.317493
3.537273
-4.631155
-0.192238
-1.529211
-0.957525
-4.833884
-4.768204
-6.647214
-7.038412
8.105602
-4.303885
-9.772637
3.140399
-5.208662
1.900937
-4.522692
5.649277
-4.292185
-2.766209
0.892357
-4.880198
-4.278707
3.733931
0.401134
-3.404406
3.768175
-12.781076
-6.502794
0.025986
-0.648539
-3.368726
5.798260
-1.758264
3.370783
-2.709891
2.777832
15.675146
-3.559513
4.650587
-6.230207
2.537188
-1.525596
-0.971278
-1.800978
-6.691270
-0.509646
6.583340
1.724399
-1.442523
1.504730
3.923454
2.714831
6.741607
3.369385
-6.466666
-6.240411
2.756404
5.475474
-0.688453
-7.496623
1.565937
-2.262867
0.256772
-1.517516
0.546608
-1.680435
-9.033563
-1.228005
8.907764
1.944903
-1.948183
-11.826638
-2.438300
-4.243975
-4.890499
7.457364
-8.635851
-9.958548
-9.370232
-6.676738
2.518543
-12.960399
7.459057
2.725083
-1.442442
-8.160875
0.262360
5.576670
1.155138
-4.621476
14.036676
4.423538
9.193064
8.097287
1.976405
10.540928
6.678401
4.751446
0.294134
8.730885
-5.225045
-11.126538
4.715011
-2.337204
-0.705460
-2.781043
4.488895
-0.000445
5.069580
13.602871
-6.426088
-7.033547
1.424368
-3.088947
-2.562617
-9.633036
3.262810
1.723377
3.474278
7.339929
0.026154
3.326305
-13.779802
-4.242958
-7.821864
3.149695
-10.324199
-4.634547
2.212468
0.745109
-5.354795
11.801513
0.719281
-69.540724
-2.261307
-9.152770
3.056372
-2.356677
2.572191
-1.661351
6.895836
3.502064
1.751539
-0.901193
-2.268646
0.217270
-8.892684
-0.073769
5.450434
1.927820
5.448399
-4.618731
8.798490
3.820658
-1.615021
5.622798
6.514669
4.584310
-2.291531
-6.137415
9.713959
6.614009
-0.634011
3.500145
12.793932
0.372622
-9.532745
-2.789901
-7.364424
-7.200597
4.135096
6.441870
10.686114
2.064201
8.153535
-6.236951
6.213042
-9.863706
-2.158175
0.344659
-3.681411
6.807367
3.136713
1.853935
-9.483080
2.234590
0.151650
2.053917
-5.445336
-10.006933
0.338412
-3.074407
-1.741299
-6.051697
5.626116
-7.108244
6.852839
-5.883557
7.642583
-5.579430
8.919376
-3.046757
6.967742
-8.709841
-6.347331
4.585703
9.937647
4.890467
-0.135549
-12.174917
6.942363
-10.854995
-7.264763
8.145511
7.731702
-7.457747
-1.756730
8.472525
5.818649
-4.477158
4.272384
5.282548
-3.000849
-1.285405
-4.586526
13.142571
-7.941913
0.085276
1.915983
-0.132694
-4.729247
1.788148
-0.504721
12.039844
3.181842
1.988081
3.512868
-6.181546
0.288175
1.228451
11.406063
-3.894974
-0.590646
-0.463096
4.555343
-5.044858
-4.577174
-8.278611
2.583180
-8.733291
3.506641
7.068226
10.177236
9.314692
-5.143578
8.290211
-1.496503
1.845837
-6.014009
9.260475
9.628118
0.424420
1.566401
7.080564
-2.188530
-3.779393
9.445619
-1.613935
-6.347014
-0.075818
-3.107713
6.563485
2.419293
-6.575140
-3.559039
-3.307241
2.250698
2.152650
-3.710100
7.109694
9.262464
-1.922231
3.577615
2.899597
4.123019
-11.489235
-6.759464
-6.199833
-1.039063
1.191621
1.206302
-1.492645
6.649581
-1.053918
-1.517332
-11.384325
-0.336027
5.976390
5.410182
-4.167043
-2.064346
9.517076
-8.870447
-1.857890
2.120792
6.934796
-1.387954
-8.110375
-1.590814
-8.130243
-1.512138
-6.716426
-2.065864
-6.600387
0.671254
33.084106
7.519531
8.945110
14.265148
4.034742
6.210894
-8.274850
7.750103
-7.262953
-0.086593
-5.829404
1.056745
5.744767
6.068889
2.446181
5.056313
6.361546
-2.735794
0.495511
-1.801264
-0.195441
-3.443237
11.086428
-3.529415
3.009138
-0.441304
10.298303
6.897906
-1.233101
-6.289894
-9.771434
-6.435779
7.118464
10.696708
-8.743290
1.304278
-2.418820
-5.457922
-5.908835
-0.176281
-2.820935
3.837780
8.480920
-4.375696
15.752340
-2.139317
0.805332
3.532358
1.462138
3.498307
-3.155005
5.089636
-3.744091
5.181495
9.433291
5.423256
-5.148649
-9.998503
-3.354403
0.968699
5.919974
8.517137
-5.661312
3.450621
7.700508
4.965771
4.746256
-4.022838
9.259834
-5.503289
-5.674177
2.168822
-4.426729
10.578378
-0.824132
6.675127
-3.650622
-2.551278
0.496711
-4.176985
-11.189919
1.361680
5.896381
2.220835
-5.951552
-2.993621
3.391271
-7.158414
-1.471719
-1.931548
-4.387415
-3.279518
-3.639651
-3.232948
-7.137417
11.538384
10.374769
4.244966
4.942181
4.147539
-4.370669
-5.250700
3.996583
-1.313900
5.551762
-1.307330
2.083189
-3.268982
-1.143738
3.835693
-6.359166
2.519671
-1.717607
-2.319775
-3.183164
3.268558
-1.077986
2.062479
-6.037134
-8.206237
9.485093
0.697800
-9.756150
-6.793107
13.099856
1.892335
-1.344920
-4.577151
-2.407225
8.282952
5.178002
-1.097961
-13.173954
1.116714
-2.966734
5.461864
0.812594
-7.654770
5.677263
1.004646
5.298419
-0.223837
-2.171585
-11.020684
-1.987741
-0.362948
2.158563
-6.660224
-1.597803
5.324175
-8.259083
-6.712600
-2.118865
-3.480698
-5.051751
-1.836847
7.935849
10.030948
-2.082496
-9.876095
-9.296276
10.387014
9.048028
-6.407204
7.307269
-2.496968
-6.581716
7.268525
-1.320802
-3.383446
-8.434544
2.623300
-2.942902
-6.375154
-3.020120
-3.103909
-2.868770
9.672300
-2.942366
-6.842797
3.758296
-3.790322
3.127323
-5.203716
-2.728110
4.043346
-6.184289
-8.040558
14.010217
8.150451
2.238047
0.302829
7.106118
-3.280749
-0.269618
-10.460521
-2.600197
8.849167
1.424315
-2.086660
5.403618
6.000472
5.274924
4.516123
-3.740557
1.874601
-0.019369
-1.135861
0.312824
4.849438
-7.710801
-2.952540
1.226770
-5.035830
2.431516
0.875252
-6.474085
5.393437
3.756583
-5.579991
-2.246252
-2.702447
-7.196052
-6.863775
3.758992
-4.229526
-2.694305
-2.665247
-5.213463
5.585327
6.368073
-2.350441
3.521349
4.832874
-4.752606
3.569283
-7.381876
-1.847946
-7.662307
-1.342318
13.100551
4.225601
0.177011
-10.770568
6.805806
-9.008136
-2.927769
-4.397699
-6.068158
10.472005
7.762304
3.920535
-4.412693
1.496871
10.412642
9.205933
8.551297
14.199317
-1.258524
-0.886654
3.747232
0.474391
-2.891117
-6.163131
4.024381
-7.715305
0.325374
-1.461642
-5.413944
2.987770
-3.672025
3.301107
-0.450461
2.640376
-1.234138
1.189119
-6.882256
-9.241264
9.372872
-2.670162
1.947849
1.950721
6.833126
5.556262
-5.050059
0.191853
5.432635
4.632758
-3.995194
1.993604
-8.717982
-1.760130
4.101849
-12.973042
4.154662
-2.103389
9.996206
-8.569215
6.021002
-6.756939
-1.720455
9.192592
6.689002
-3.373938
6.307325
-3.520868
5.731004
9.283699
-0.944286
0.870298
-0.745200
0.946783
-0.912406
0.731656
0.105698
0.545614
0.789257
-0.252800
-0.420631
-0.558436
0.130762
-0.151159
-0.249629
0.577114
0.923728
0.405228
0.798014
0.555120
0.890589
-0.188686
0.940315
-0.244625
-0.482606
0.502685
0.156080
0.615000
0.116135
0.658224
0.949967
0.767238
0.174273
0.728092
0.481927
-0.429021
-0.377033
0.160555
-0.094509
-0.634164
-0.624474
0.212605
0.800851
-0.187387
0.617074
-0.332135
-0.426085
-0.041715
-0.674503
0.207415
-0.601325
-0.112866
-0.988917
-0.793921
-0.915754
-0.406384
-0.489559
0.908039
0.025728
-0.474264
0.858574
-0.720499
-0.350077
0.256543
0.118171
-0.111081
0.699155
-0.566914
-0.739142
-0.418203
-0.103809
-0.187555
-0.332040
-0.834946
-0.665910
-0.844520
-0.197130
0.071557
-0.301321
-0.505623
-0.949448
-0.618412
-0.657706
-0.357731
-0.387680
0.928169
-0.015746
-0.004411
0.432090
-0.448246
0.505767
0.892623
-0.752005
-0.742298
-0.853295
0.701525
-0.544433
0.740183
0.678685
-0.230072
-0.966136
0.184061
0.671532
0.255166
-0.957672
-0.922874
-0.266426
-0.890873
0.581957
-0.187292
0.434151
0.310822
-0.821430
0.439377
0.108988
0.030231
0.104315
-0.507242
-0.365216
-0.564676
-0.765924
0.018835
0.682852
-0.275362
0.149234
0.364740
0.374980
0.892450
-0.945066
-0.397593
0.648582
0.161841
-0.923965
0.701305
0.091837
-0.518470
0.895751
0.082314
-0.631459
-0.017638
0.927963
0.341356
0.876216
0.266014
0.837386
0.611788
-0.248782
-0.336004
0.491786
-0.908716
0.983951
-0.907336
0.167819
-0.885764
-0.487923
0.460628
0.263820
0.784637
0.843113
0.356811
-0.315073
0.837668
0.675569
-0.528702
-0.802858
-0.794714
-0.422566
-0.222394
-0.423650
-0.439746
-0.235525
0.898518
0.473360
0.417388
0.389318
0.886369
-0.370501
-0.824195
-0.832357
-0.163491
0.327765
0.630573
0.892829
0.972136
-0.176350
0.591247
0.126774
-0.939075
0.949995
0.916177
-0.272714
0.103032
0.313163
-0.732683
-0.348181
0.155229
-0.933913
-0.616857
-0.330345
0.502129
0.733022
0.717468
-0.841957
0.295962
0.826732
0.409633
0.164601
0.975868
-0.201847
0.032288
0.260130
0.530284
0.700810
-0.906563
0.227948
-0.016727
0.275697
0.429362
0.364063
-0.775865
0.637419
-0.174074
0.380575
0.729201
0.103944
0.480084
0.890900
-0.838799
0.657741
0.427434
-0.308276
-0.560190
0.917697
-1.018226
-0.054117
0.245010
0.573908
-0.410545
0.999606
0.222810
0.052760
0.870653
-0.154687
-7.946745
0.075739
-0.220413
0.044794
-0.603413
-0.071254
0.637755
-0.004160
-0.965702
-0.345454
-0.248252
0.882292
-0.642232
-0.906298
-0.611071
0.654441
0.408200
-0.762896
0.771041
-0.938410
0.754319
0.218883
0.384266
0.557883
-0.142955
0.615443
-0.943021
0.599627
-0.662904
0.442803
0.931804
0.876564
0.801703
0.474544
0.943155
-0.019216
0.099320
-0.141160
0.262025
0.398417
-0.565029
0.317992
0.764472
-0.706858
0.379566
0.573919
-0.892015
0.467622
-0.231603
-0.345735
-0.146736
0.828238
0.103299
0.690414
0.105944
-0.365997
-0.598868
-0.328494
0.928320
0.359866
-0.363961
0.455685
0.950239
0.342482
-0.876873
-0.203490
-0.078389
0.508332
-0.241055
-0.039414
0.415518
0.431897
0.223657
0.227606
-0.025734
-0.277685
0.493595
0.856522
0.463821
-0.699372
-0.997301
0.596804
0.244647
-0.042361
-0.904933
-0.938257
-0.552160
-0.359086
0.066043
0.643120
-0.541514
0.033342
0.368929
-0.878050
-0.480272
-0.202352
-0.787310
-0.138848
-0.024681
-0.330455
-0.623321
-0.331147
0.516979
-0.733745
0.792248
-0.500468
0.888236
-0.468847
0.651727
0.104709
-0.525207
-0.122996
-0.057338
-0.329601
0.789182
0.369312
-0.266020
-0.508175
0.400182
0.178327
-0.773706
-0.527717
-0.620570
0.458765
0.854473
-0.560768
-0.442925
0.455593
-0.067276
0.072749
0.401542
-0.550028
-0.010251
0.351137
-0.371920
-0.814808
0.786582
0.185776
0.082592
-0.449028
-0.016752
-0.035775
0.545581
-0.046403
-0.595997
0.985672
-0.851331
0.757725
-0.627385
-0.077986
-0.720633
-0.827586
0.572042
0.734992
-0.941395
-0.582356
0.209860
0.992757
0.246335
0.943745
-0.191490
0.396226
-0.930814
-0.562251
-0.124266
-0.878598
0.204465
-0.539467
0.471176
-0.205279
0.028738
0.331663
-0.808314
0.952323
-0.766264
0.600092
0.283619
-0.692428
0.455831
0.540623
-0.940796
-0.381590
0.138297
-0.523882
-0.448402
0.020984
-0.080248
0.447525
-0.936745
-3.865847
0.948176
0.460331
-0.063070
0.390276
-0.271202
-0.289671
0.851046
-0.749304
-0.052638
0.682102
-0.590246
0.773862
-0.605312
-0.951680
-0.381485
-0.692222
0.499482
-0.112077
-0.328910
-0.373508
0.485293
0.614616
-0.564494
-0.406414
-0.222367
0.383166
0.830551
-0.453631
0.638608
0.894063
0.238303
-0.575949
0.774567
0.049319
-0.948793
0.531184
-0.910863
0.453040
0.325263
-0.765023
0.327654
0.060737
-0.927990
-0.138528
-0.302666
-0.887082
0.707195
0.375665
0.094043
0.913953
0.213724
0.717646
0.920498
-0.420316
0.462648
0.001102
-0.119751
-0.393545
-0.768273
0.799461
-0.784604
0.785329
-0.562205
-0.854405
-0.440022
0.077898
-0.984737
-0.472900
0.370347
0.589683
-0.548062
-0.851520
-0.504301
-0.937263
-0.278905
0.255684
0.887976
0.453724
0.278520
0.367726
0.791012
0.872147
0.619610
0.520587
0.188815
0.246890
-0.084264
-0.166692
-0.891693
0.191796
0.049900
-0.768014
-0.145297
-0.956697
0.809074
0.263900
0.370391
-0.107354
0.547858
-0.357268
-0.475148
-0.503232
0.127087
0.429161
0.287183
0.140634
-0.585683
0.407627
-0.192542
-0.032990
-0.943926
0.349129
-0.458647
-0.915572
-0.852802
-0.244733
-0.213109
-0.297702
-0.842153
0.130665
0.093251
-0.097981
-0.875159
-0.251893
-0.852770
0.128298
-0.650619
-0.595513
0.543195
-0.730426
-0.620868
-0.901245
-0.575069
0.090603
0.336445
0.462867
-0.801428
0.128606
-0.821633
-0.446290
-0.989497
0.307817
0.119005
-0.974887
0.852142
-0.920335
0.034058
-0.133700
-0.596176
0.012838
-0.595934
-0.272404
0.176340
0.497008
-0.013481
0.460899
-0.778636
0.148726
-0.640434
0.478274
-0.096703
0.384835
0.097569
-0.529875
-0.409756
-0.947984
-0.513230
0.947234
-0.330767
-0.311625
-0.510033
-0.902156
0.795276
0.025712
-0.288569
1.153058
-0.193894
0.231513
-0.020536
0.987291
-0.771156
-0.442254
0.643439
-0.530883
0.422766
0.481607
0.205944
-0.909618
-0.190538
0.718081
-0.304065
0.538960
0.580752
0.954436
0.678214
-0.070367
-0.115506
-0.342863
-0.298925
-0.082640
0.868505
-0.248975
-0.912072
-0.578629
0.952364
-0.420624
-0.037381
-0.304286
0.292815
0.929469
-0.255181
0.691055
-0.343591
0.326044
-0.802675
-0.805667
0.556212
0.197137
-0.628678
0.059458
0.840057
0.448483
0.606428
0.484691
0.304032
0.512097
-8.342712
0.861292
-0.459931
0.935105
0.701128
-8.952688
0.228223
-0.716377
0.965284
0.432456
-0.890794
0.682662
-0.988434
-0.468313
0.579394
-0.674161
-0.845111
-0.906926
0.722333
0.211787
0.386269
0.605910
0.669730
-0.298486
-0.600061
0.243590
0.855206
-0.002082
0.855904
-0.371054
0.794924
-0.273679
0.549732
0.059603
-0.127305
0.793831
-0.296530
0.694600
0.308392
-0.733539
0.997492
0.386158
0.719246
-0.661869
-0.329862
-0.359255
0.455373
-0.032888
0.300367
-0.946939
-0.900503
0.536958
-0.283049
-0.941421
-0.656664
0.987573
0.618686
-0.647242
0.170531
-0.597119
0.598380
-0.583638
0.331617
0.116206
-0.609909
-0.370515
-0.644996
-0.814341
0.497474
0.903308
0.789231
0.463418
0.908391
0.871410
0.634274
-0.291409
0.501759
-0.225680
0.328682
0.453757
-0.115196
0.289341
-0.367275
0.126320
0.442988
0.221940
0.409604
-0.217822
-0.888334
-0.149232
-0.686753
0.082319
0.918094
-0.519141
0.406376
0.557792
-0.575740
-0.756773
0.288232
0.229678
-0.004564
-0.289244
0.652150
-1.465257
0.294769
0.416523
-0.029915
0.403033
-0.695646
-0.194525
0.178382
-0.290252
-0.960203
-0.286336
-0.986002
-0.585030
0.413090
0.384399
-0.344977
0.037465
0.764709
0.411709
0.247823
0.570666
0.743621
-0.381985
-0.316942
-0.683174
0.329018
-0.631038
-0.525849
0.937560
-0.958229
0.054058
-0.225864
-0.692843
0.677261
-0.521830
-0.140866
0.524847
0.957477
0.902220
0.060818
-0.454124
0.987809
-0.753954
-0.735651
0.504369
0.941041
0.147188
-0.172934
0.775913
0.137726
-0.021602
-0.938090
-0.873270
0.367191
-0.907906
0.191965
-0.056389
0.260101
-0.028759
-0.480280
-0.028680
-0.809319
0.447749
0.008895
-0.869662
0.994145
0.868855
-0.270866
-0.557267
-0.057944
0.885889
0.171867
-2.646930
0.953605
0.402554
-0.471808
-0.637622
0.155185
0.042310
0.476880
0.789557
0.325479
0.712428
0.037574
-0.768838
-0.384798
0.867938
-0.160357
-0.901843
-0.209210
0.837902
-0.585217
-0.773188
-0.425975
0.030468
0.106440
0.509888
0.891862
0.802517
0.527015
0.849842
0.103177
-0.605018
-0.567155
-0.786290
0.018309
0.366933
-0.948568
0.059138
0.826637
-0.030713
0.181829
-0.757369
0.082681
0.539490
0.496757
-0.429773
0.533892
-0.219578
0.252846
-0.498140
0.077609
0.556603
0.975143
-0.120993
-0.741062
0.489072
0.168485
-0.263563
-0.767208
-0.869672
0.202760
-0.857181
0.013033
-0.610605
-0.420583
-0.058097
0.079271
-0.835832
0.610462
0.975217
-0.056025
0.716306
0.083415
0.242037
0.126292
-0.090820
-0.335477
-0.440198
-0.553481
0.318938
0.048738
0.207309
0.697902
-0.502446
-0.576241
-0.305546
0.514069
0.893028
-0.952299
-0.740048
0.080303
0.762968
0.353260
0.476986
0.536074
-0.234816
-0.275753
0.821557
0.660799
0.118995
0.285085
-0.771856
0.568544
0.688586
-0.750131
0.212007
0.353796
0.797434
-0.599997
-0.756799
0.271896
-0.000163
0.590762
0.434867
0.909300
-0.542344
-0.500683
0.170397
-0.114191
-0.381609
-0.851251
-0.047416
0.667584
-0.549696
-0.381293
-0.262320
0.765298
0.476509
-0.688671
-0.113538
-0.080743
0.211041
0.275516
0.076437
-0.282532
0.216284
-0.852906
-0.246376
0.913244
-0.706287
-0.835012
0.243205
-0.851588
0.419010
-0.732088
0.192798
-0.931254
0.240526
-0.085986
-0.695903
0.014982
0.894420
-0.665796
0.874187
-0.103639
-0.069036
0.267800
-0.609876
-0.541517
-0.500693
0.038261
-0.257856
-0.148248
0.850825
-0.528331
-0.252363
-0.382558
-0.137419
-0.337174
0.868172
0.888184
-0.373458
-0.093444
-0.484434
-0.784763
-0.387844
0.019940
0.275658
-0.881628
0.095633
-0.949013
0.574505
-0.156812
0.519044
0.567692
0.285734
-0.646656
-0.612497
0.310937
-0.782167
0.937018
-0.079761
0.548478
-0.125115
-0.695071
0.138025
0.150585
-0.745233
0.164370
0.754195
0.077228
0.692568
0.803722
-0.037173
-0.407249
-0.447869
-0.671851
0.105356
-0.984481
-0.890982
0.551101
-0.639195
0.397177
0.682865
0.101249
0.113996
0.784127
0.892394
0.806417
0.550459
-0.675446
-0.072420
0.187282
-0.044849
-0.002155
-0.149007
0.155033
0.641227
-0.114193
-0.537496
0.898240
-0.213712
0.139343
0.739049
0.371173
-0.642628
-0.541695
-0.144059
0.179338
-0.742489
0.643474
-0.161569
-0.671315
-0.788796
0.596356
0.086729
-0.424758
0.059689
0.008049
0.658759
0.261757
0.460562
-0.577194
-0.043951
0.305839
0.793149
0.134750
0.680850
0.056546
-0.861097
0.670641
0.138022
-0.544395
0.094575
-0.508645
0.884472
0.032886
0.396492
0.261320
-0.802996
-0.230760
-0.638126
0.913043
0.395053
0.081673
4.056996
-0.838967
-0.500361
0.434558
-0.810535
-0.127395
0.237403
0.942347
-0.313893
-0.617737
-0.774757
-0.724488
-0.018937
-0.034468
-0.139903
-0.896182
-0.090747
0.535282
0.904687
0.395548
0.130035
0.052061
0.319138
0.154600
0.104326
0.398353
-0.147354
0.271172
0.013477
0.726574
0.054249
-0.017664
-0.956439
0.514474
-0.194531
0.556961
0.413614
0.207255
-0.417969
-0.830857
0.235973
0.862061
-0.352460
-0.484472
-0.841085
0.921310
0.780916
0.861739
0.228358
-0.949168
-0.417642
0.689914
-0.894719
-0.964827
-0.440134
0.008905
0.971043
-0.668036
0.901343
0.615857
0.793756
-0.251556
-0.706853
-0.605534
-0.636701
-0.423035
0.167532
-0.703985
0.991692
-0.074704
-0.254935
0.900067
0.435861
0.249175
-0.058055
-0.735237
0.682798
0.188093
-0.055933
-0.263966
0.240750
0.781916
0.903213
-0.895789
0.054922
-0.811414
-0.818270
0.289826
0.563837
0.959775
-0.287517
-0.939550
0.863992
0.278229
0.008531
0.349571
-0.289051
-0.199695
0.809036
-0.852859
0.686311
-0.117437
0.261459
0.150822
0.825508
-0.544864
0.843675
0.666913
-0.921519
-0.197319
0.191655
0.113898
-0.175100
-0.121825
-0.604027
-0.915358
0.793842
0.439005
0.776816
0.052853
0.699804
0.325636
-0.687320
0.906601
-0.382749
-0.019140
0.723163
0.272047
-0.065202
-0.506232
-0.072723
0.593213
-0.813844
-0.080857
0.320424
-0.750961
0.899621
0.867560
0.876993
-0.683288
0.271930
0.060773
0.886651
0.483845
0.856151
-0.923961
-0.049270
-0.246248
0.738738
0.354247
-0.643608
0.798880
-0.829812
0.826552
-0.779908
0.993152
0.593151
0.175671
0.700468
0.511889
0.014585
-0.741293
-0.028467
0.194819
-0.368312
0.571980
0.341056
0.276631
-0.998692
-0.514659
0.879820
0.095295
0.397672
-0.662539
0.596206
-0.643035
0.386978
0.221569
0.627840
0.497785
0.793246
0.019448
-0.791101
-0.367403
-0.041689
0.481858
-0.919728
-0.402449
0.279925
-0.922084
0.855400
-0.181415
0.176418
-0.885869
-0.830487
-0.376512
-0.849214
-0.274870
-0.847198
-0.447901
-0.466130
0.039010
0.699125
-0.729237
-0.935027
-0.914252
0.779710
-0.114754
-0.736993
-0.994393
0.976199
0.919030
-0.107355
0.476728
0.904949
-0.271079
-0.818591
0.296927
-0.870513
0.074031
-0.596308
0.479908
0.830744
0.190412
0.791643
-0.951570
-0.230387
0.912539
0.527604
0.747296
-0.106642
-0.366709
0.458972
0.372108
-0.901770
-0.831893
-0.556428
0.388689
-0.538796
0.953780
-0.724687
0.976392
-0.921152
-1.028476
-0.092899
0.813607
-0.004742
0.332503
-0.495637
0.754152
0.388843
-0.406765
0.899892
0.818012
0.083751
-0.834728
0.582367
0.704573
0.000951
0.466855
-0.197239
-0.261883
-0.690340
0.571904
-0.580629
-0.768632
0.852678
0.011388
-0.098808
0.991860
0.676146
-0.072568
-0.377743
-0.251357
0.475491
0.087840
1.435384
0.728921
0.302015
-0.216128
0.764277
-0.369534
0.191532
-0.018985
-0.179800
0.740646
0.665298
0.876878
-0.757618
-0.105480
0.167434
0.737161
0.569305
-0.401368
-0.376771
-0.176002
-0.152105
0.404457
0.596164
0.206600
0.343848
0.358787
0.377785
0.073300
-0.127472
0.224950
0.218208
0.671330
-0.975576
0.704873
-0.325972
-0.528248
0.007171
-0.311549
-0.109221
0.841558
-0.081539
0.852519
0.139734
-0.889773
0.785579
0.462381
-0.299539
-0.471867
-0.257279
0.311373
0.511258
-0.128253
0.537005
-0.299792
-0.568678
-0.727047
-0.897309
-0.283791
-0.276538
0.335188
0.448462
-0.455839
0.448094
-0.646334
0.726461
0.752385
-0.668860
0.807875
-0.339725
0.643378
0.591010
0.764557
0.108721
-0.359889
0.838053
-0.013864
-0.053347
-0.881815
0.478879
0.330600
0.360402
0.139897
-0.171950
-0.976866
0.245913
-0.384760
-0.722812
-0.337033
0.614224
-0.248667
-0.152676
-0.770888
0.761461
-0.375939
-0.844761
-0.478258
-0.745046
0.674177
0.057813
0.471408
-0.882061
0.248168
-0.748673
0.501775
-0.852203
-0.241322
0.296150
-0.211760
-0.087957
-0.004556
0.684396
0.395776
0.400154
0.275846
-0.638513
0.430450
0.485796
-0.902151
-0.995958
-0.413607
-0.849226
-0.766308
0.691946
-0.531465
-0.294109
-0.795522
-0.369327
-0.682821
-0.473335
-0.929451
-0.448951
-0.585601
-0.141146
-0.623877
0.651995
0.655403
0.580462
0.580782
0.768178
-0.557800
0.539932
-0.795976
-0.581662
0.466702
0.887896
-0.926791
-0.925013
-0.093636
0.060420
0.851132
-0.272064
-0.895960
-0.842091
-0.531273
0.535851
-0.880056
-0.339533
0.231312
0.459258
0.916566
-0.243307
0.770700
0.690957
0.075561
0.598414
0.759397
0.460964
0.744059
0.538836
-0.634479
0.933107
0.656758
-0.840728
8.168229
0.717517
-0.540815
-0.746041
0.196585
0.337671
0.409468
0.688434
-0.807409
-0.811080
0.300898
-0.209030
0.847930
-0.619500
0.396905
0.434752
-0.151359
-0.310896
0.314322
0.118486
0.694802
-0.867069
0.554980
-0.217540
0.599643
-0.519976
-0.704668
-0.768321
0.385153
0.623979
0.813484
0.940423
0.067307
0.827721
-0.280369
-0.396093
-1.141521
0.701546
-0.816147
-0.747723
-0.662705
0.313406
-0.380101
0.429652
-0.546403
0.226506
0.949902
-0.034620
0.573364
0.727983
-0.267248
0.279099
-0.126304
-0.025703
-0.241268
0.579147
0.663501
0.814200
-0.771505
0.122971
0.420246
0.707995
0.942495
-0.350147
-0.052437
0.431437
-0.647742
0.705143
0.862075
-0.050551
0.216303
0.857826
0.150919
-0.256298
0.959610
-0.339603
0.469112
-0.427456
0.082384
-0.394516
0.656654
-0.119969
0.729204
0.444131
0.068334
-0.546057
-0.662825
-0.396747
-0.015139
0.241177
-0.089205
0.759234
0.641827
0.726245
0.960459
0.014962
-0.552527
-0.200858
0.079467
-0.603147
-0.034503
0.643695
-0.899137
-0.402534
-0.227402
-0.376012
0.524213
0.555848
0.306859
-0.513311
-0.043051
0.139148
-0.167280
0.586481
-0.298961
0.367852
-0.139685
0.073077
0.324442
-0.479799
0.452792
0.145479
-0.846040
-0.876964
0.299607
0.542813
-0.024827
-0.043973
0.608202
-0.380863
-0.968603
-0.965033
-0.792084
0.588258
-0.120679
0.883633
0.254309
0.428682
-0.663937
-0.262753
5.337255
0.466315
-0.124125
0.683768
0.779088
-0.028945
0.426231
0.585809
0.396265
0.350941
-0.219301
0.463584
-0.614514
-0.306442
-0.338315
-0.847514
-0.520238
0.768353
-0.131245
-0.284020
-0.778322
-0.390501
-0.772860
0.934507
-0.588139
0.845511
-0.973836
0.644306
0.608643
0.949087
-0.456786
-0.668421
-0.579483
-0.244433
-0.586804
0.267064
-0.896576
0.810421
-0.164850
-0.453605
-0.084415
0.561442
-0.631282
0.719269
-0.305389
0.141646
-0.729091
0.817516
0.332525
0.216115
-0.410145
0.562579
0.320493
-0.572144
0.363825
-0.762163
-0.165050
0.131254
-0.270495
0.621345
-0.440470
0.902645
0.397387
-0.816592
-0.567128
0.516620
0.305586
-0.618631
-0.420436
-0.397227
-0.847285
0.404778
-0.163661
0.129454
0.841913
-0.982581
-0.994733
0.755924
0.688173
0.140162
0.457953
-0.713324
-0.410215
0.156872
0.737074
3.425935
-0.615972
-0.183236
0.411409
-0.798796
-0.969703
0.086576
-0.966679
0.769489
0.112359
0.154403
0.945988
0.615618
-0.886324
0.051646
-0.693946
0.793816
0.436618
-0.985629
0.860930
-0.816480
-0.365848
0.613819
0.206674
-0.698955
-0.444813
0.248699
-0.348272
-0.398549
-0.424357
0.604774
-0.321574
-0.474410
0.130554
-0.821355
-0.219766
-0.567667
0.099567
-4.200251
-0.792897
-0.048004
-0.180710
-0.348237
0.653726
0.720596
0.648476
0.222212
0.870232
0.791161
0.249646
0.102169
0.932267
-0.535656
0.784222
-0.114677
-0.892698
0.086134
0.876184
0.602897
0.117769
0.192513
0.763308
-0.641796
-0.798444
-0.743244
0.646081
-0.656888
0.674034
-0.489254
0.910067
-0.490354
-0.466904
0.536115
-0.136825
-0.115275
0.681641
0.184418
0.372126
0.619015
0.040499
-0.974334
0.198402
0.175962
-0.589184
-0.444487
0.944781
-0.937150
-0.205202
-0.452321
0.098482
0.553343
-0.217921
0.888509
0.197018
-0.157885
-0.456503
0.326723
0.787321
0.600491
-0.356028
-0.336400
0.611301
-0.376941
-0.770047
-0.949084
-0.035333
-0.748771
0.296907
0.013221
0.032914
-0.634466
0.900513
-0.550061
0.028853
0.585573
0.996552
-0.192095
-0.552411
0.061809
-0.202687
-0.005127
0.828762
-0.679934
0.073797
0.792755
0.388033
-0.105409
-0.636357
-0.935634
0.285909
0.331741
-0.452198
-0.156237
0.755702
-0.385387
-0.774595
0.024060
-1.149233
0.632035
0.222696
-0.962520
0.823072
-0.232629
0.304214
0.400374
0.084915
-0.104326
-0.130843
0.560720
0.750717
0.379397
0.309798
0.150788
0.229822
0.323831
0.570717
0.780808
0.327274
-0.426115
-0.753659
0.263547
-0.000424
-1.369016
0.665484
-0.601444
0.788564
-0.784951
-0.282075
-0.580314
-0.984359
-0.510436
0.952441
0.087942
0.364166
-0.651101
0.745363
-0.343925
-0.924368
0.242485
-0.633614
0.782591
-0.975304
0.764007
-0.109893
-0.161256
0.426954
0.009891
-0.445710
-0.783422
-0.884037
0.002995
0.415821
0.837706
0.277577
-0.197062
-0.034787
0.764015
0.534505
0.970813
-0.914462
-0.423700
-0.852268
0.449054
0.888794
-0.653881
-0.859771
-0.362210
-0.935727
-0.778000
0.700911
0.634226
-0.491996
-0.270937
-0.779848
-0.917491
0.838532
0.849735
-0.705044
-0.024918
-0.659817
-0.451937
0.167353
-0.644341
-0.907971
0.795684
0.989595
0.105369
-0.545854
0.103291
0.746990
-0.532039
0.078875
-0.408877
0.209768
0.727614
-0.552127
0.253725
-0.781756
0.439501
0.905292
-0.464934
-0.075127
-0.140897
-0.099914
-0.205330
0.406450
0.243462
0.317319
-0.886258
-0.592171
-0.832065
-0.391045
0.908283
0.702244
-0.612846
0.304970
-0.054510
0.312319
-0.194420
0.706516
0.179553
0.596750
-0.133009
-0.313121
-0.070826
-0.362330
-0.702825
-0.676124
-0.944045
0.418993
0.877367
-0.705176
-0.560012
0.805234
-0.123864
-0.574597
0.726035
0.020955
0.422613
-0.114533
-5.683503
0.444423
-0.337041
0.154533
0.928937
-0.630077
-0.189118
0.379522
-0.655461
0.393727
-0.568468
-0.986288
-0.240671
0.477910
0.522701
0.513968
0.383849
-0.216850
0.566215
-0.152709
-0.499023
0.909941
-0.074992
0.376767
1.083261
-0.338184
-0.457206
0.069293
0.455778
-0.111179
-0.253206
-0.851545
0.706144
0.607594
-0.003927
-0.942724
-0.916784
-0.058908
0.156891
-0.138538
-0.293018
0.179624
-0.068783
0.527958
-0.405253
0.015650
-1.761442
0.044397
-0.410528
0.845972
0.180869
-0.830987
0.604959
0.037925
0.781759
0.021473
0.956847
0.312969
1.034377
0.559984
0.188665
0.651690
0.083109
0.593491
-0.344270
0.360382
0.333610
0.451095
-0.349620
0.427272
0.475249
0.637090
0.047509
-0.718893
-0.944172
-0.883226
0.763844
0.094049
-0.056121
-0.469794
-0.750106
0.755978
-0.303870
0.655708
-0.549326
-0.438225
0.105570
0.171593
0.182527
-0.861936
0.283914
-0.987510
-0.547823
0.914795
0.243991
-0.001134
0.979632
0.469843
0.967236
0.852508
0.562731
-0.869097
0.805491
-0.985052
0.838616
-0.435286
-0.601468
-0.591032
0.107784
0.612113
0.114226
0.421530
-0.948011
-0.465840
-0.170230
-0.473256
-0.518017
0.120541
-0.884586
-0.475938
-0.036946
-0.085891
0.076412
-0.977646
-0.989974
0.060450
0.265586
0.357027
-0.734550
-4.205094
-0.908700
0.598087
0.007448
-0.249357
0.986949
0.730249
0.727661
-0.684680
0.272407
-0.167260
-0.486194
0.099897
-0.472898
-0.316769
0.696615
-0.670822
-0.316012
0.947531
-0.091927
0.505745
-0.690157
0.209564
-0.216022
-0.406731
-0.250380
0.615495
0.667086
0.026869
0.876838
0.370477
-0.900008
0.359205
-0.978754
0.320635
0.333424
0.076962
0.511516
0.249068
-0.368085
-0.994116
0.005162
0.288349
-0.758916
0.379080
0.863478
0.913669
-0.957957
8.494285
-0.962896
0.055327
0.395137
0.751485
0.575233
-0.477366
-0.608115
0.990617
-1.069197
-0.580629
-0.707590
0.627609
0.728018
0.841090
-0.588344
0.566681
0.369143
-0.199983
-0.306256
0.344734
0.221362
-0.995355
-0.097061
0.349197
0.604288
-0.620736
0.697210
-0.663977
-0.491784
0.778120
-0.934919
-0.111506
-0.117814
0.559842
-0.598255
0.541236
-0.084603
0.302548
-0.389138
0.891559
0.375221
0.765764
0.209457
-0.934799
0.548221
0.643543
-0.853475
-0.079536
0.478326
-0.758399
0.510973
-0.589891
-0.684371
0.561885
-0.529507
0.456457
0.382976
0.020612
-0.438596
0.757809
-0.346970
0.571664
0.491515
-0.213651
-0.693406
0.308694
-0.327092
-0.159896
0.629921
0.691256
0.583367
0.796163
-0.715141
0.306805
-0.790097
-0.817884
-0.050494
0.826967
-0.797064
0.003914
0.084156
0.647559
-0.775071
0.023325
-0.552174
0.760779
0.181518
0.001805
-0.949003
0.765143
0.326052
-0.290307
0.444252
0.946692
0.832897
-0.310843
-0.940665
0.254470
-0.991702
-0.031486
0.331556
0.301592
-0.648006
0.522570
0.856862
-0.866375
0.368177
0.145946
0.438137
-0.670953
0.388779
0.486884
-0.851749
0.829240
-0.744889
0.324438
-0.330997
0.257200
0.973191
-0.386932
0.754458
-0.229617
-0.893562
-0.291134
-0.925238
0.339827
0.576822
-0.053426
0.677301
-0.051132
-0.604703
0.425233
-0.262440
0.241057
0.031351
1.013696
-0.241017
-0.738662
0.119047
-0.597723
-0.491039
0.068114
-0.584428
0.808845
-0.845181
-0.470082
0.196979
-0.375115
-0.288429
-0.685148
0.033585
-0.132932
0.073576
0.733909
-0.674889
-0.858256
0.923823
0.662935
-0.486981
-0.003898
0.833800
0.561081
0.396544
-0.899735
-0.004080
-0.403857
0.973267
0.474442
-0.473282
0.651870
0.150829
0.852830
-0.765417
0.883332
0.465131
0.938658
-0.200656
0.805527
0.396038
-0.416528
-0.910566
-0.060951
-0.949774
-0.306937
0.979582
-0.686350
0.073879
-0.201366
0.496767
0.264532
-0.001594
-0.507659
-0.124392
-0.644149
0.878617
0.576233
0.138353
0.630472
-0.181451
-0.718984
-0.548721
0.317343
0.541076
-0.774790
-0.916908
-0.581713
-0.664512
0.471964
0.998085
-0.325461
-0.475262
-0.295435
-0.069264
-0.591668
-0.941037
0.827389
-0.222229
0.668580
-0.591520
-0.158201
-0.486858
-0.101308
-0.775384
0.872552
0.007371
0.300258
-0.782271
0.015094
-0.834193
-0.240136
-0.912726
0.449721
-0.817977
-0.487814
0.682045
0.641329
0.926265
0.283366
0.970661
0.013835
-0.624429
0.266474
0.958983
0.422943
0.969007
0.953282
0.181296
0.003071
-0.159506
-0.986775
-0.582879
-0.730020
0.187529
0.645886
0.419836
0.094541
-0.705704
-0.474892
-0.400289
-0.407990
0.392896
-0.769388
-0.673117
-0.090062
0.845995
0.279446
0.112406
-0.059921
0.757968
-0.362501
-0.344792
-0.122523
-0.465808
-0.470448
-0.068682
0.290563
-0.017034
-0.307794
0.444664
0.092856
0.254412
0.031249
0.280613
0.199725
-0.903160
-0.644982
0.696848
-0.824945
-0.352641
0.528617
0.757496
-0.467653
-0.449430
-0.667869
-0.981325
0.771234
-0.473202
0.839738
0.600706
0.671650
-0.885786
0.162260
-0.472885
-0.057453
-0.282306
-0.996082
-0.204332
-0.533278
-0.396357
0.602130
-0.877750
0.026123
-0.119297
0.555491
0.056002
0.338971
0.007169
-0.529549
0.558090
-0.163062
0.100975
-0.926474
-0.805478
0.237347
-0.599652
0.264540
-0.331253
0.526907
0.585265
0.336912
0.292765
-0.633193
0.575497
0.074141
0.842735
-0.782221
-0.665694
-0.190963
-0.812259
0.719253
0.125832
-0.645961
-0.095747
-0.059803
0.417734
0.564560
-0.487034
-0.603869
0.712716
-0.748422
-0.892760
0.635214
0.565371
0.170255
-0.389474
0.665711
-0.883527
0.515859
0.517308
0.872788
0.502850
-0.871910
0.595852
-0.350031
-0.683464
-0.892994
0.318702
0.835097
0.150047
-0.641904
-0.198617
0.098876
-9.214143
0.794259
0.135020
0.514692
-0.168815
-0.872975
0.459711
-0.223977
-0.449561
-0.251620
-0.314997
0.152687
-0.311808
-0.688211
0.648975
-0.490560
-0.469887
-0.212564
-0.175408
0.284495
0.502281
-0.503234
-0.685956
0.942384
0.958329
-0.450742
-0.593029
-0.483738
0.366941
0.253353
-0.707174
-0.594510
0.349607
0.499456
0.522822
-0.557433
-0.544813
0.088922
-0.321681
0.140191
-0.151564
-0.941026
0.148666
0.978482
0.280858
-0.899463
-0.816858
0.127304
-0.288344
-0.500416
0.328816
-0.684647
0.813595
0.577359
0.908627
-0.495629
-0.211427
-0.020024
-0.647507
0.592419
0.852232
-0.822062
0.569432
0.991735
0.215602
0.034714
-0.426780
1.115174
-0.640516
-0.953777
0.058420
-0.315784
3.623624
0.652113
-0.624576
-0.030638
0.285158
-0.327034
0.145856
0.806938
0.670426
0.844094
-0.451339
0.171344
-0.129359
-0.260928
0.203338
0.787233
-0.121758
-0.690542
0.077905
0.697804
-0.132768
0.701998
-0.377601
-0.460759
-0.915473
-0.353825
-0.114647
0.748116
-2.462673
0.727268
-0.249150
0.768624
0.786905
0.285474
0.252675
-0.623807
0.067823
-0.336015
-0.856821
0.026414
0.126460
-0.111767
-0.116566
0.209120
-0.914806
-0.335165
0.380684
-0.996169
0.014949
0.561300
-0.540530
0.504846
0.376533
0.627820
-0.252632
-0.584105
0.445979
0.219664
-0.101366
0.757375
0.635343
-0.039974
-0.230526
0.938944
-0.627750
-0.817916
0.471951
0.152681
-0.030267
0.845677
0.211102
0.839260
0.306799
0.322335
0.011689
0.519371
0.914404
-0.990440
0.255826
-0.365765
0.801952
-0.156086
0.356944
-0.661295
-0.764915
0.667368
-0.408712
0.337733
-0.878243
9.498400
0.277601
-0.376129
0.695940
0.719053
-0.452418
-0.060457
0.661603
-0.040013
-0.532541
0.276077
-0.965184
0.926095
0.105695
-0.353263
-0.949540
1.012867
0.470835
-0.194914
-0.761894
-0.608650
-0.476373
-0.927214
0.838884
-0.562200
-0.609350
0.681980
0.057837
-0.458467
-0.095022
0.992296
0.022985
0.752048
0.602748
0.150798
0.619942
-0.638550
-0.783288
0.171890
-0.364180
0.033696
-0.802285
-0.484375
0.033909
-0.396255
-0.649139
0.776941
0.638179
0.556479
0.493760
-0.302191
-0.824694
-0.985672
-0.662554
0.978589
-0.550892
-0.370378
-0.944007
0.201511
0.105661
-0.514826
0.001891
-0.925032
0.363956
-0.768271
0.110624
0.457489
0.604285
-0.210587
0.357206
0.504973
-0.860529
0.239951
-0.390848
0.539618
-0.250097
-0.019782
-0.945227
-0.688859
0.613894
-0.128615
-0.782825
-0.936284
-0.026906
-0.800688
0.404998
0.843227
-0.560309
0.251017
0.422219
0.214200
0.772859
0.469522
0.007082
0.836714
-0.615954
-0.388729
-0.963937
-0.207031
0.468646
0.079549
-0.465055
-0.834115
-0.087607
-0.897592
0.384302
-0.352545
-0.533717
-0.814982
-0.667676
0.198535
-0.212618
-0.748982
-0.040598
0.575744
-0.649051
0.336501
-0.147130
-0.222149
0.463575
-0.544002
0.560420
0.633698
0.976679
-0.891588
0.223233
-0.845950
0.490241
0.660319
-0.539986
0.322590
0.039534
0.902732
0.062433
-0.509613
-0.636754
-0.400096
0.163974
0.384606
-0.437663
0.417111
0.203138
-0.087210
0.205723
-0.379857
0.539800
-0.887729
0.765829
-0.899626
0.970212
-0.201130
-0.701068
-0.658560
0.646364
0.782060
0.552953
-0.945913
-0.158968
-0.740244
-0.382189
0.285943
-0.726739
-0.331633
0.869011
0.950561
-0.449266
-0.248629
-0.721755
-0.720074
0.213754
0.071325
-0.925131
0.586564
0.309821
-0.604677
-0.512780
-0.631673
-0.738900
-0.189991
0.245659
-0.082694
0.949591
-0.870036
0.977156
-0.109073
-0.861508
0.897707
-0.019598
-7.372168
-0.547613
0.068214
-0.526812
0.833947
-0.500909
-0.508391
-1.425394
0.259631
0.536628
-0.569304
-0.054184
-0.756493
0.059629
-0.436286
-0.536732
-0.325124
-0.358751
0.928335
0.952592
-0.829006
0.377996
-0.829458
-0.281368
0.433416
0.675414
-0.083703
0.415519
-0.687917
-0.373896
0.204038
0.500151
0.923776
-0.555406
0.588606
0.926029
-0.196305
0.289006
-0.037088
-0.409599
-0.910631
0.402627
0.899716
-0.081812
0.678726
-0.842469
-0.431103
0.414885
0.923267
-0.392453
-0.250069
0.544903
0.215166
-0.861417
0.778220
-0.412236
0.215714
-0.965449
0.781795
0.735570
0.960822
0.178043
0.844573
-0.645319
-0.982573
-0.366120
0.834289
-0.201404
0.398619
0.670242
0.874319
-0.421984
0.892200
0.077076
-0.106306
0.590394
0.968179
0.034754
-0.956278
-0.245647
-0.268908
0.059366
-0.914731
0.516490
0.721285
-0.757151
0.758733
-0.346502
0.796183
0.760981
0.244223
0.558202
0.029522
-0.717189
0.335996
0.979158
0.508481
0.676408
-0.303414
-0.621596
-0.858766
-0.525085
-0.676605
0.365987
-0.158487
-0.259784
-0.401279
0.500846
-0.323470
0.494137
0.196849
0.986732
0.505780
0.981972
-0.302344
-0.840115
0.183116
0.474366
0.024135
0.857057
-0.807629
-0.977847
-0.998752
-0.091959
-0.703778
0.227734
-0.707889
-0.349219
-0.164534
0.536262
0.318582
0.970875
0.032658
-0.546257
-0.584798
-0.014986
-0.916759
0.065151
0.811202
0.073873
0.708125
-0.964131
-0.688663
0.010742
0.632694
-0.038976
0.199845
-0.580299
-0.461524
-0.477853
-0.026180
-0.591958
-0.289367
-0.560339
-0.303057
0.513940
0.242187
0.824061
-0.861726
-0.717248
-0.358433
0.854336
-0.621626
0.022099
-0.795433
0.121270
0.663582
-0.060870
0.631315
-0.013235
-0.316775
-0.187699
-0.234718
0.799890
-0.313341
0.526141
7.019506
0.883384
0.028293
-0.087422
-0.120479
-0.184423
-0.199580
0.781518
0.028611
0.671834
0.686745
0.525760
-0.509658
0.583791
-0.342461
0.385416
-0.154182
0.347509
0.061424
-0.656187
0.092523
0.042854
-0.086000
-0.059678
-0.948125
0.982321
-0.462449
0.449795
-0.346345
0.411649
0.282942
-0.093708
0.851701
0.916233
-0.262688
-0.017741
-0.509745
0.314835
0.133501
0.730874
0.516446
0.279779
0.760466
-0.982944
0.822766
-0.516627
-0.518725
0.445265
-0.186276
0.317153
-0.914837
0.498185
0.587186
-0.656709
-0.899408
0.449203
1.043302
-0.162789
-0.689174
-0.504842
-0.784626
0.655109
0.734605
0.261343
-0.344399
0.962116
0.792771
0.037120
-0.690066
0.775305
0.698964
-0.764915
-0.931432
-0.400436
-0.405461
-0.599223
0.610406
0.806981
0.795302
0.278505
-0.634845
0.244323
-0.841246
0.087589
-0.112529
0.103654
0.638921
0.292786
0.153835
-0.149135
0.895450
-0.919223
0.327652
0.934021
-0.588308
-0.488559
0.000247
-0.035529
0.722530
-0.228232
0.064690
0.532499
0.657711
-0.170080
0.759009
0.316116
-0.604469
0.814738
0.017201
0.043629
-0.238081
-0.052706
0.203186
-0.525258
0.102076
0.303470
0.082558
-0.853759
0.490022
-0.831021
0.199276
0.306384
-0.036820
-0.211672
-0.472810
-0.404456
0.885294
-0.536000
0.444766
0.109250
-0.252379
0.626386
0.746850
0.705953
-0.028511
0.415846
0.967063
0.700738
0.107247
0.062722
-0.791792
0.007561
-0.785780
0.329273
-0.915700
0.770622
-0.848097
-0.107113
0.206149
-0.093546
0.727431
-0.793478
0.962415
0.346006
0.979975
0.700603
0.517497
0.905326
-0.112454
0.674302
-0.262742
0.241093
-0.380157
0.246722
-0.564433
-0.638698
0.611920
0.368269
0.161199
0.016773
-0.145646
-0.510429
-0.381847
-0.068190
-0.995042
-0.760083
0.149967
-0.218368
-0.815625
0.515346
-0.072484
0.672855
-0.625930
-0.726784
-0.259837
-0.129529
0.249214
0.361897
-0.573350
-0.923107
-0.266035
-0.720330
0.534191
0.946837
-0.710264
-0.275882
0.858089
0.200870
0.929791
0.581236
-0.392389
-0.682097
-0.479592
0.599031
-0.478154
-0.603199
-0.173994
-0.567958
-0.555460
0.106798
-0.886494
-0.870036
0.897227
-9.603457
-0.667273
0.097854
0.480927
-0.967381
0.611121
-0.905043
0.426026
0.731217
-0.830064
0.682566
-0.379337
-0.239260
-0.762108
0.943804
0.968313
0.494858
0.546867
0.631185
0.033017
0.463364
0.787711
0.815567
-0.002287
-0.884683
-0.276701
0.777276
-0.179972
0.515322
-0.385362
-0.449821
-0.301902
-0.841868
-0.274805
0.827222
0.766315
-0.501900
-0.313059
-0.235673
0.066395
0.689524
0.794334
-0.539753
0.519874
-0.409116
0.469569
-0.516830
-0.932584
-0.694975
-0.506237
-0.015828
-0.153315
-0.369125
-0.238341
-0.444430
-0.554391
0.854648
0.741149
-0.520708
-0.050323
-0.799697
0.499606
0.176608
-0.423929
-0.259500
-0.930594
-0.032375
0.555082
0.034130
0.536055
0.479635
-0.642454
0.001196
0.184151
0.591485
-0.246845
-0.002701
6.586205
-0.002661
-0.576671
0.537097
-0.447363
-0.818598
0.129903
0.190879
0.423962
0.320117
-0.162319
0.847245
-0.221577
0.550801
-0.449350
0.315763
0.526199
0.050801
0.497571
0.814314
-0.344271
-0.355785
0.995981
0.317390
-0.937302
0.679872
0.864376
0.865577
-0.219869
-0.854409
-0.311071
-0.963736
-0.614385
0.157870
0.619199
-0.086250
0.143728
-0.441638
-0.179535
-0.864877
-3.921537
0.947118
-0.979003
0.510862
-0.805561
0.798944
0.326997
0.351710
-6.258869
0.733888
0.919093
0.566499
0.244253
0.561364
-0.573868
-0.023962
-0.029161
-0.874263
0.098423
0.465490
-0.034575
0.608142
0.441205
0.918996
0.443510
0.616589
-0.655159
-9.567953
-0.733317
-0.198481
0.748958
-0.007575
0.137602
-0.878821
-0.139269
0.743091
-0.707814
-0.584747
0.225690
0.222252
4.298190
0.081972
-0.044650
0.166429
0.944699
0.829499
-0.196918
0.027597
-0.361742
-0.698548
-0.430386
-0.219674
-0.602933
-0.743696
-0.832228
-0.665914
-0.386902
-0.270262
0.628082
0.890898
-0.675450
0.158017
-0.382343
-0.545929
0.407466
0.760675
-0.918262
-0.595703
0.239068
0.304380
0.023286
0.905165
-0.238621
0.573830
-0.757342
0.748271
0.347545
-0.532303
0.018318
0.562828
0.920359
-0.626855
0.909568
0.625055
-0.362651
0.539102
-0.242309
0.349581
-0.343172
0.487551
0.248087
-0.884068
7.232359
0.667086
-0.149804
-0.246021
-0.365819
0.142234
-0.135683
-0.315186
-0.882607
-0.643931
-0.948262
-0.656454
-0.121107
0.345720
0.263414
0.961102
-0.673671
-0.592520
0.072089
0.316762
-0.142669
0.175858
0.356857
0.174835
0.492009
-0.967477
-0.105480
6.221381
0.099007
0.444763
0.162467
-0.508092
-0.822864
0.338212
-0.064425
-0.409986
0.356318
-0.401363
0.102790
0.410267
0.638106
0.350642
-0.452009
0.361982
0.484015
-0.558885
0.987833
-0.611281
0.651386
-0.029534
0.439093
-0.756531
-0.314540
0.516885
-0.077519
-0.163541
0.020457
0.487939
0.264109
1.176611
-0.461963
0.988659
-0.395485
-0.183175
0.253141
0.549970
-0.695650
-0.977318
0.039947
-0.309129
0.260516
-0.350491
-0.594926
-0.277209
-0.499993
-0.961093
-0.859290
-0.297137
0.604501
0.272060
-0.702486
0.103865
-0.055307
-0.915269
0.679582
0.982052
0.192416
0.717111
-0.348827
0.904286
0.706531
-0.576162
0.076728
-0.898141
-0.696960
0.248655
0.740104
0.311659
0.655543
-0.836986
-0.387971
-0.260542
0.305664
0.831210
-0.161679
-1.077393
-0.050634
-0.450836
0.151817
-0.142480
0.897182
-0.269921
-0.000344
-0.474827
0.924798
-0.557989
0.874508
0.429532
-0.926839
-0.130965
0.812664
-0.337200
0.247132
-0.021099
0.983639
0.314503
0.380673
-0.769788
0.074843
-0.300186
-0.519102
-0.876338
0.796767
0.494317
0.610511
-0.114929
0.318403
-0.865387
-0.621267
0.850875
0.660340
-0.850580
0.945826
0.261704
0.938906
-0.839520
0.071433
-0.402917
-0.682756
0.794692
0.735523
-0.245779
0.129547
-0.437033
-0.846397
0.183575
0.401364
0.443135
-0.643232
0.505186
0.201958
-0.190716
0.453734
0.921784
-0.182617
-0.194893
-0.864545
0.034214
0.422465
0.847749
0.312331
-0.394838
0.247178
-0.920580
-0.063086
0.176531
0.246138
0.131448
-0.598822
0.554410
-0.805181
0.326056
-0.708043
-0.398951
0.428971
-0.417818
-0.547400
-0.017940
0.076787
-0.180563
0.734486
0.941084
0.343406
-0.354343
0.341130
-0.433329
0.238239
-0.982245
-0.785776
0.147755
-0.994322
0.980639
-0.814422
-0.631135
0.819800
-0.896890
0.195857
0.700071
0.909704
-0.694440
0.094769
-0.887362
0.382144
-0.094363
-0.937601
-0.328684
0.164193
-0.421777
-0.685084
0.296552
-0.438718
0.515193
-0.367646
-0.404591
-0.198894
-0.604902
0.078395
-0.594599
-0.192800
0.621792
-0.590235
-0.985481
-0.242116
0.849499
-0.796869
0.084282
0.831494
-0.763981
-0.891131
0.073474
0.692574
0.384566
-0.081682
0.664069
-0.762141
-0.374830
0.875343
-0.437355
0.116221
-0.584638
-0.929450
-0.455350
0.468612
0.899633
-0.311843
-0.770951
0.745877
0.631685
0.400325
0.808268
0.058870
-0.121494
-0.246501
0.807347
0.052060
0.584041
0.834613
0.337680
-0.041599
-0.261714
-0.519917
0.120065
-0.197073
0.365059
0.778528
0.474042
0.814272
0.895668
0.580580
0.464541
0.488369
-0.651425
0.289263
-0.801576
0.345401
0.908109
-0.963886
0.493169
-0.140071
0.152952
-0.348230
-0.267355
-0.534464
0.193028
0.779269
0.417105
0.178396
0.188701
0.219819
-0.005400
-0.931901
-0.871480
-0.679382
0.397131
0.498465
0.881954
-0.336510
0.818906
-0.443244
-0.425297
0.912091
0.159423
0.411121
-0.474731
-0.380137
0.901953
0.734969
-0.798417
0.150533
-0.794896
-0.226506
-0.175789
-0.759494
-0.158856
0.528315
0.332717
0.602604
0.446766
0.365617
-0.259015
0.109410
-0.999494
0.239985
0.409114
-0.087596
-0.884378
-0.321268
-0.461720
0.056737
0.620521
-0.378714
0.967048
-0.925784
0.741269
-0.133626
0.895813
0.776277
0.125657
-0.252383
-0.307613
-0.262956
0.056278
-0.591174
-0.414311
-0.319719
-0.061297
-0.223193
-0.052397
0.310714
0.898750
-0.080091
0.267469
0.045117
0.437168
0.131601
0.529452
-0.515838
0.838572
-0.029259
-0.934871
-0.158917
-0.631342
-0.335580
0.871392
-0.186531
0.418039
-0.461008
-0.063772
0.146976
0.221058
-0.437279
-0.523433
-0.653814
-0.602485
0.791772
-0.868403
-0.795670
0.593416
0.452816
0.248220
0.253895
-0.721453
0.346052
-0.225888
0.976636
0.676034
-0.027204
-0.196877
0.216564
0.323983
-0.351714
-0.449927
0.058802
-0.778817
-0.159034
0.962198
-0.121764
0.546877
-0.296835
-0.195268
0.992488
-0.672089
-0.182514
-0.985166
-0.070838
-0.639611
-0.050373
0.189087
-0.553843
0.470609
0.513152
0.756971
-0.597144
0.562971
-0.924169
0.049725
0.691614
0.592239
0.015960
0.182208
-0.542654
-0.175551
-0.686835
-0.010054
0.772242
-0.618052
0.788222
-0.842541
-0.471115
-0.958665
-0.675427
-0.676941
0.327111
-0.759166
-0.993587
0.716272
0.614681
-0.518370
0.855250
8.430713
-0.158166
-0.100278
0.152425
0.885619
0.725351
0.710528
0.954168
0.399142
-0.080496
0.098888
0.977563
0.906931
-0.493908
0.340578
-0.934353
-0.431781
0.491460
0.449709
-0.495148
0.682593
-0.293601
-0.041367
-0.851354
-0.049554
0.015551
-0.929736
0.744938
-0.048717
0.780584
0.592930
0.409452
-0.557023
0.412584
-0.182120
0.345543
-0.462710
-0.124103
-0.607802
0.964129
-0.028535
-0.064887
0.351810
-0.169341
0.046368
-0.485748
-0.283895
0.077334
-0.672081
0.829963
-0.286918
-0.151016
0.480668
0.442622
-0.971911
0.652350
-0.412660
-0.249068
0.439658
-0.731034
-0.304370
-0.531726
0.815037
0.266381
-0.920221
-0.909030
-0.889925
0.929588
0.054283
-0.606161
0.227907
-0.175966
7.431530
-0.474242
0.775751
-0.706235
-0.829168
-0.846309
-0.968618
0.110693
0.995680
-0.891495
-0.864651
-0.750918
0.677773
-0.087701
-0.775449
0.333936
-0.561535
0.897167
0.540933
0.499273
-0.873290
0.519857
7.701722
-0.457326
-0.777145
0.449860
-0.514765
0.669359
-0.370494
0.549124
0.056125
0.158495
0.470220
0.223943
-0.655244
0.185026
-0.501092
0.298881
-0.573107
-0.395625
0.344705
-0.716612
-0.086600
-0.477151
0.521130
0.133018
0.645683
-0.069110
-0.048242
-0.706300
0.670120
0.719648
0.363280
0.876568
0.678679
0.753367
-0.616474
-0.889195
-0.166795
-0.797657
0.071300
0.883933
0.059177
-0.874674
-0.098036
0.242513
-0.359617
0.655967
-0.125093
0.169108
-0.371978
-0.802115
-0.641745
-0.366602
-0.610129
0.630454
0.514312
-0.414688
-0.421451
0.910589
0.416342
0.411722
0.594519
0.434090
-0.464006
-0.536876
-0.280503
-0.006673
0.216018
-0.963608
-0.357027
0.674180
-0.672902
-0.007057
0.398618
-0.873260
-0.911482
-0.339485
0.362650
-0.352733
0.031234
0.599233
0.894428
-0.440227
-0.233661
0.189760
0.038732
0.375294
-0.821418
-0.568542
-0.946533
0.308921
0.001196
-0.660946
0.738938
0.217115
-0.972386
-0.183192
-0.911253
0.222083
0.868826
-0.655631
0.284590
-0.728060
-0.141434
0.352402
0.564709
0.653596
-0.695863
0.498079
0.648658
-0.525513
-0.455367
-0.906457
0.024559
0.654715
-0.959863
0.369231
-0.769947
-0.582006
0.671993
-0.073347
-0.198977
0.432345
-0.639412
-0.758826
-0.013710
0.614513
0.307489
0.934562
-0.275099
0.155465
0.198374
0.193473
0.042436
-0.435478
-0.709783
-0.736776
0.044028
-0.127389
0.842524
-0.479893
-0.243270
0.325695
0.105021
-0.493093
-0.092421
0.872209
-0.621275
-0.014667
-0.143475
-0.074868
0.402368
0.693849
0.332977
0.910015
0.177596
-0.929020
0.296022
0.308152
0.318506
-0.411122
0.049676
0.396154
-0.498439
-0.467261
-0.449051
-0.286816
0.603319
-0.753928
-0.849374
-0.420540
0.231505
-0.329485
0.737407
-0.619118
0.254073
0.586074
0.089396
-0.580444
0.784777
0.127856
0.908048
-0.873962
-0.310238
-0.390861
0.481249
0.933136
-0.832756
0.392343
0.703873
-0.288621
-0.525538
0.801711
-0.335402
0.658752
-0.494514
0.118472
-0.377028
-0.517649
0.387035
0.523067
-0.098562
0.927730
-0.191235
-0.211569
0.312086
-0.251011
-0.705445
0.182744
0.149245
0.393369
0.061112
0.942921
0.325979
0.835117
-0.909058
0.608022
-0.762872
-0.058963
0.855745
-0.499272
-0.268561
0.359882
-0.801939
-0.704932
0.458692
-0.639407
0.672831
0.653435
0.782682
-0.696812
0.965376
-0.016526
0.423057
0.865570
0.832701
-0.340287
0.864464
-0.687158
-0.008509
0.649389
-0.035402
-0.287663
0.341882
0.312037
-0.262589
0.225995
-0.419846
-0.003317
0.340867
0.207632
-0.976600
0.716312
-0.105006
0.456604
-0.162521
-0.998019
-0.107168
-0.253303
0.210794
0.368456
0.308614
0.414478
-0.828677
0.483451
-0.695028
0.950368
0.081111
-0.036456
-0.436760
0.831194
0.191677
0.089385
-0.472393
0.040405
-0.673424
0.966606
0.173318
-0.114099
-0.607551
0.780664
-0.028057
0.098216
-0.294819
0.858167
0.200222
0.375016
-0.239346
-0.524743
0.584600
-0.390912
-0.358773
0.545149
-0.239742
0.280557
0.114218
-0.683812
0.973307
1.192762
0.379128
0.309561
-0.893278
0.301767
0.836893
0.543773
-0.290607
0.424035
0.191186
-0.948832
0.172633
0.479550
-0.592701
-0.595191
0.385416
-0.681899
-0.203284
0.451509
-0.772260
0.001322
0.469002
0.763946
-0.963087
0.548735
0.249840
-0.019798
-0.117247
-0.995066
0.511250
0.831727
0.741085
0.282324
0.099142
-0.764803
0.386741
-0.062350
-0.886238
0.054174
-0.483959
0.644424
0.025228
0.283003
-0.504081
-0.666686
-0.241816
-0.341459
-0.335588
0.677459
0.386114
-0.263271
0.702673
0.019220
0.478758
0.565040
-0.243762
-0.046182
-0.891901
-0.137749
-0.922343
-0.959129
-0.384754
-0.955364
-0.875116
-0.993185
-0.176012
-0.757875
0.415904
-0.106483
-0.787895
-0.202377
0.294503
-0.006695
-0.926168
0.483306
0.773876
-0.197509
0.275157
-0.246583
0.124824
0.363084
0.959879
0.769508
0.429544
0.931303
0.920632
0.276064
0.907673
-0.391089
0.636441
-0.542378
0.102570
0.535054
-0.387992
0.935669
0.559871
-0.903181
0.254991
-0.086167
-0.991330
-0.279823
-0.275129
-0.865554
-0.894426
0.100901
-0.714069
0.648108
0.496417
-0.710711
0.779787
0.343400
0.290993
-0.526016
0.828642
0.228033
-0.050475
0.045558
0.982389
0.592117
0.257611
-0.964800
0.748519
0.176158
-0.129666
-0.551198
-0.229744
-0.375251
-0.025096
-0.523313
0.321127
-0.891740
-0.175665
0.679754
0.282568
-0.071653
-0.789658
-0.342505
0.991978
0.906691
0.434592
-0.903438
0.592176
-0.854596
0.502135
0.986146
0.004392
0.437531
-0.701989
0.572702
0.095472
-0.550444
-0.657170
-0.081711
0.385517
0.506247
0.374184
0.262015
0.060475
-0.308372
0.242824
0.043598
0.220510
0.291313
0.902288
0.554770
0.303514
0.048881
0.295146
0.245838
0.297925
0.318050
0.982204
0.810283
0.804184
0.982309
0.552823
-0.371853
0.558033
-0.294124
0.679901
-0.515041
-0.122941
-0.373622
-0.257413
-0.669976
-0.263195
0.353866
-0.294755
0.428849
-0.324575
0.972695
-0.648102
-0.725999
0.160560
0.942571
0.224103
-0.845574
-0.609814
0.943866
-0.558160
-0.051830
0.002914
0.707486
0.724206
0.986353
0.460271
-0.420736
0.642365
0.044298
0.419001
-0.894720
-0.738483
-0.774433
0.543330
0.958586
0.814601
-0.620098
0.322419
0.783409
0.866216
0.848999
0.413266
0.906709
-0.623832
-0.165256
-0.592822
-0.734945
0.632147
0.299743
-0.037875
-0.291651
-0.083974
0.689996
0.966356
-0.082431
-0.868111
-0.882254
-0.398630
-0.164923
-0.134413
-0.569909
-0.035504
0.071977
0.501656
0.032634
0.432617
-0.651742
-0.125627
-0.198119
0.709113
0.698862
0.724581
-0.707969
-0.885918
0.842232
-0.167064
0.311665
0.283607
0.214054
-0.044282
0.552746
-0.986871
-0.555373
-0.355200
-0.325449
-0.144359
0.282194
0.095307
-0.319396
0.499666
-0.227520
-0.659844
-0.038883
-0.486388
-0.911365
-0.658836
0.679512
-0.191931
0.663982
0.701401
-0.283899
-0.726696
0.642185
-0.714682
0.629250
0.070458
-0.258977
-0.226230
-0.405688
-0.107078
0.727173
0.425384
0.725504
-0.961704
0.744354
4.841131
-0.073902
0.244322
0.146319
0.875975
-0.188966
0.598509
-0.087250
0.773136
-0.994798
-0.064948
-0.597427
0.382633
-0.594216
0.660753
0.695068
-0.500402
-4.818022
-0.484643
-0.277746
-0.057247
-0.960947
-0.322646
-0.204544
0.710334
0.601878
0.449243
0.678880
0.411791
0.855332
-0.142129
0.543039
-0.214033
0.213414
-0.219145
-0.071581
-0.601416
-0.264047
-0.440527
0.259527
-0.625868
-0.268247
-0.977008
-0.228896
-0.949470
0.837499
-0.029079
0.661710
0.131073
0.860314
-0.664677
0.784539
0.298767
0.187259
-0.149824
0.413096
-0.783000
0.552403
-0.581509
0.754702
-0.674132
-0.130494
0.101837
-0.371274
-0.362778
0.263961
-0.376700
-0.504813
-0.046702
-0.225857
-0.491165
0.593701
-0.330290
0.169333
-0.830538
-0.037283
-0.124591
-0.922826
0.058123
0.461126
-0.602758
-0.296216
0.686695
0.636676
0.447001
0.052906
-0.395008
0.568048
-0.899099
-0.958510
0.425368
-0.072117
-0.632320
0.344460
-0.888924
0.603138
-0.086077
-0.242347
-0.010041
0.556806
0.111548
0.507034
-0.129340
-0.698118
-0.185955
-0.143598
0.530854
-0.743670
0.665433
0.708397
-0.238619
-0.415466
-0.234313
0.307640
0.505952
-0.385247
0.977575
-0.432858
-0.701161
-0.431029
-0.046345
4.479033
0.180211
0.925399
-0.838382
-0.012090
-0.813600
-0.192162
0.470345
0.611319
0.204491
-0.076623
0.199473
0.166764
-0.479742
0.756067
0.390578
0.729296
-0.259695
-0.510071
-5.124614
-0.452256
-0.507602
0.377658
-0.119910
-0.386257
0.778153
0.818821
0.530323
0.610978
0.902961
0.477123
0.999529
0.219635
0.127494
-0.293661
0.848092
0.916484
-0.340997
-0.775953
-0.879043
-0.070473
0.768293
0.469660
0.273051
-0.270601
0.663732
0.854710
-0.782802
-0.868062
-0.674444
0.443222
-0.844103
0.058278
-0.192039
-0.447540
-0.797003
0.551996
0.885830
-0.172044
0.770527
0.316065
0.511545
-0.961162
0.166622
0.920659
-0.595467
0.114410
-0.243054
-0.554578
-0.182186
0.806508
-0.954399
0.445728
0.471975
-0.125477
0.974330
-0.713809
0.220564
-0.722702
-0.653180
0.340033
-0.509499
-0.706664
0.006509
-0.423157
-0.501069
-0.875163
-0.360866
0.297300
-0.828242
0.393984
-0.866852
-0.200125
0.223948
0.595850
-0.619634
0.195548
-0.889899
-0.221205
0.187029
-0.470745
0.949169
0.425649
-0.137645
0.520249
-0.495776
0.096294
-0.088650
0.780453
-0.453695
-0.002673
0.765102
-0.438312
-0.287990
0.011490
-0.954126
0.039572
0.362203
0.341117
0.479179
-0.553812
-0.066078
-0.414486
-0.385836
-0.204790
0.588736
-0.104117
-0.667069
-0.326662
0.294018
0.794869
0.200792
0.643580
-0.473548
-0.010104
-0.482873
0.751164
0.135041
-0.874773
-0.063171
0.706226
-0.672341
0.078785
0.628878
-0.875927
-0.319539
-0.008362
-0.578431
-0.431681
0.463386
0.761436
-0.169495
0.010899
-0.310820
0.352175
0.760480
0.217446
-0.327483
-1.134911
0.851954
-0.179007
0.290546
0.070923
0.697217
-0.783840
0.375264
-0.138341
-0.816448
0.499317
0.365296
0.804190
0.322130
-0.282785
-0.256171
0.952572
-0.740437
0.007785
-0.093491
-0.987434
-0.256971
0.976390
-0.040115
0.150291
-0.724626
0.125150
-0.255831
0.375932
0.365176
0.115868
0.409000
0.028387
0.451537
-0.854977
-0.097417
0.658841
0.514216
-0.923568
-0.968998
0.274443
-0.499484
-0.348324
-0.186752
-0.202319
0.681623
0.065425
0.683216
-0.643825
-0.955554
0.850130
-0.269198
-0.331466
1.000381
0.274726
-0.691064
0.401097
-0.070373
0.591717
-0.286152
-0.160966
-0.741503
0.992247
0.889191
-0.205642
-0.727645
0.269467
0.123668
-0.402267
-0.644881
0.535647
-0.352714
-0.589992
-0.979880
-0.878753
0.285079
-0.571216
0.285915
0.197859
-0.694186
-0.606453
-0.625341
-0.461422
-0.186334
0.321799
0.584646
-0.966138
-0.425820
-0.974739
0.921505
-0.544213
-0.470737
0.277246
0.494321
-0.362241
-0.299187
1.034527
-0.755306
0.516136
0.919167
-0.269896
0.177375
-0.831271
-0.383452
0.355978
0.156519
-0.219913
-0.163075
-0.411906
0.888205
-1.142671
-0.302005
-0.195070
0.216896
-0.948219
0.360219
0.802427
0.367158
-0.608055
0.887934
-0.051632
0.019748
-0.003918
0.781772
-0.663388
-0.318485
0.217630
0.394037
-0.628723
0.835887
0.200083
-0.163392
0.988008
0.438609
0.213237
0.449989
0.774738
0.475904
0.533507
-0.743681
-0.895820
-0.937311
-0.770091
-0.296305
-0.389073
0.604589
-0.950679
-0.400541
-0.247359
-0.508424
0.105782
-0.688756
0.876852
0.118483
-0.207379
0.186926
0.742508
0.054717
-0.502174
0.008977
-0.622974
-0.166368
-0.054527
0.984839
0.185244
4.424510
-0.599959
0.486487
-0.497884
0.223000
-0.178091
-0.042093
-0.147562
0.182485
0.724110
-0.793802
-0.971124
-0.588266
-0.193453
0.666150
0.633940
-0.352517
0.373948
-0.863512
0.691410
-0.674242
-0.683824
-0.620363
0.696981
-0.149376
-0.675302
0.750863
0.488426
0.581746
-0.290992
0.253461
0.529373
0.191295
-0.132806
0.027559
-0.497876
-0.850934
0.986636
0.392050
0.162665
0.640743
0.417301
-0.789804
-0.947719
-0.860036
-0.673042
-0.460002
-0.876320
0.313854
0.939270
-0.685936
-0.324022
-0.234129
0.068623
-0.044923
-0.236989
0.704321
-0.484752
0.179346
-0.268129
-0.694217
0.225939
0.485702
0.289926
-0.283202
0.701035
-0.850498
0.136009
-0.797207
0.418040
0.424034
-0.818456
0.617865
0.748490
0.014188
0.581261
0.946118
-0.380025
-0.907333
0.002599
-0.060061
-0.873202
-0.263909
-0.084205
-0.410733
-0.292236
0.405238
0.070792
0.462083
0.226098
-0.185219
0.382249
0.307746
0.875472
-0.340098
-0.589475
0.795841
-0.922358
0.201114
-0.611144
-0.984262
0.323978
0.698665
0.176836
-0.778072
-0.492776
0.809021
0.160240
0.621299
0.605609
-0.550600
-0.305208
0.078387
-0.449987
-0.623229
-0.156301
0.622590
-0.758597
-0.950794
0.319452
0.856765
0.778649
-0.209882
0.126433
-0.844436
0.430885
0.926811
-0.218252
-0.630749
0.828226
-0.935021
0.948334
-0.700951
-0.166706
-0.399181
0.379539
-0.201736
-0.758619
0.868179
-0.741835
0.145073
-0.412601
0.656246
0.471481
0.749439
-0.374451
-0.329478
-0.012979
0.291006
-0.459411
-0.682807
0.731544
0.716425
-0.098575
0.373710
0.713241
-0.152246
-0.136179
0.754016
-0.463245
-0.312665
-0.211112
-0.202094
-0.206299
-0.959691
0.302903
0.931928
0.155168
0.940554
0.697925
0.054729
-0.233284
-0.010052
-0.271301
-0.179770
-0.837511
-0.978173
0.326859
0.429386
0.890831
0.502473
-0.684872
0.814621
-0.471930
-0.731684
-0.833325
-0.009419
-0.322125
0.435733
-0.988744
0.334503
-0.932516
0.342024
0.579801
-0.576725
0.898453
-0.753272
0.922935
0.589629
0.834730
0.373864
0.196902
0.603783
-0.644381
0.096062
-0.264469
-0.770883
0.847344
-0.894744
-0.024944
-0.541921
-0.241121
-0.216090
0.578900
0.289320
-0.369897
-0.923801
0.843329
0.566217
0.082424
0.923866
-0.466575
0.415022
0.356084
0.402504
0.399711
-0.281152
0.987584
0.754893
-0.146639
0.253603
-0.028564
0.703513
-0.762496
0.810494
0.246165
-0.298780
0.939417
-0.767846
0.394913
-0.239782
0.376153
0.861328
-0.439279
0.616547
-0.608637
-0.175004
0.807227
0.533097
0.689395
0.193220
0.055272
-0.120509
-0.104158
-0.116980
0.980704
-0.115456
-0.112308
0.592908
0.536727
0.694667
0.829090
0.367692
-0.310956
0.913690
0.740990
0.467790
0.750476
0.604268
-0.460679
0.892599
0.277204
0.555725
0.971054
-0.240805
0.855297
0.692709
-0.019338
-0.503365
0.433668
0.639573
0.609687
0.579558
0.585503
-0.993093
-0.903217
0.883172
0.247716
-0.548575
0.929148
-0.337137
0.923115
0.103872
-0.713609
-0.961811
0.128798
-0.746798
-0.616470
0.405980
0.119001
0.852203
0.541860
0.094516
0.360042
-0.851022
-0.511818
-0.112241
0.998505
0.648367
-0.888930
-0.898627
0.027863
-0.954689
0.967284
0.692071
0.754183
0.463077
-0.595185
-0.167677
0.380946
-0.817885
-0.259555
-0.976942
0.170301
0.427858
0.249404
0.098699
0.135937
0.782437
-0.485017
0.691821
0.198333
0.018964
0.279626
0.719527
-0.042167
-0.214063
-0.044786
0.448254
-0.764242
0.120329
0.475385
-0.360629
0.122341
-0.071626
0.504968
-0.513656
-5.505392
0.449748
0.256654
-0.419437
-0.081768
0.577762
0.733622
0.967894
0.786958
0.116629
0.989707
-0.199033
0.502737
0.204899
-0.550604
0.611795
0.055749
-0.583576
0.778795
0.304111
0.221465
0.516012
-0.850228
-0.532292
0.874437
-0.854328
0.706930
0.605477
0.365083
-0.307663
-0.952871
-0.868755
-0.141387
-0.008555
-0.218224
0.363815
-0.182254
0.152440
-0.829236
-0.620161
-0.929321
-0.723338
-0.793082
0.547922
-0.742144
-0.688632
0.883463
-0.915561
-0.802062
0.334220
-0.125433
0.551466
-0.203650
-0.937122
0.437819
-0.681342
-0.030187
5.056119
0.106537
-0.689329
0.006874
-0.297518
0.995563
0.780410
-0.374828
-0.620224
-0.851665
0.766824
-0.935970
0.992633
0.065716
0.224374
-0.384127
0.498314
0.543571
0.313157
-0.497590
-0.160893
-0.082643
0.477032
-0.848634
-0.415373
-0.271737
0.700763
0.611724
0.613632
-0.598187
0.751632
-0.374562
-0.749492
0.682530
-0.140764
0.664313
0.095462
-0.389294
0.512792
0.217211
-0.720575
1.140798
-0.827954
0.224911
0.167125
-0.370619
-0.725008
-0.441576
0.027619
0.430450
0.615865
0.855571
-0.399540
0.125621
0.743022
-0.828041
0.498777
0.052818
-0.328553
-0.080237
0.110964
-0.858587
-0.899288
-0.096622
-0.429662
0.764270
0.759642
0.512084
-0.087309
-0.074720
-0.622743
0.031747
0.376185
-0.346902
0.914789
0.816862
0.974408
-0.488304
0.503671
0.894875
0.595089
-0.178482
0.634979
-0.563000
0.517679
0.590974
0.736978
0.408678
-0.748687
-0.465399
0.930022
-0.101198
0.850270
0.808816
-0.006861
-0.919561
-0.336034
0.572639
0.872150
0.485481
0.310199
0.177899
-0.365256
-0.006808
0.871938
-0.228021
-0.371693
-0.009638
-0.347176
-0.760712
0.413631
-0.264990
0.973406
-0.304302
0.148120
0.901616
-0.179532
0.838895
-0.372906
-0.924259
-0.681962
-0.221915
0.905794
-0.591967
-0.908872
-0.154328
-0.475762
0.548371
-0.997026
0.055303
-0.585032
-0.760194
-0.439001
0.902153
-0.081572
0.223680
0.045821
0.609796
-0.968146
-0.438629
-0.262685
-0.241549
-0.893858
-0.334993
-0.009994
0.875688
0.350709
0.791085
0.054648
-0.360717
0.447449
-0.801824
0.306700
0.045220
0.803189
-0.252075
-0.118830
0.483288
-0.085039
-0.440549
0.016805
-0.435048
0.230705
0.112175
-0.757105
0.470083
0.433752
-0.437439
0.613836
-0.962540
-0.457911
-0.865525
0.172983
0.847220
0.192685
-0.250191
0.826156
-0.609931
0.364786
0.412942
-0.154202
0.802493
0.443123
-0.221920
0.109496
-0.942127
-0.432297
-0.557584
-0.832857
0.706383
-0.889465
-0.065633
0.683849
-0.107444
-0.608710
0.469334
-0.613297
-0.310133
0.205902
0.580628
-0.590621
0.571024
-0.015665
0.117891
0.964769
-0.501621
0.251205
-0.779555
0.335726
-0.332062
0.148421
0.779766
-0.246179
0.903339
-0.022205
-0.960857
0.810670
0.436240
-0.693157
0.482486
-0.705539
0.582821
-0.200002
-0.398178
-0.114898
0.161325
0.454880
0.717609
-0.895162
-0.947238
0.401485
-0.043250
0.806783
-0.081620
-0.779476
-0.517199
0.223159
0.326042
-0.987888
0.596429
0.761180
-0.178014
0.051777
0.595217
-0.138805
0.870557
0.414579
0.810283
-0.863226
0.323895
-0.271989
0.262825
-0.924503
-0.197428
0.576880
0.660839
0.667724
-0.770607
-0.223486
0.260191
-0.236143
-0.037338
-0.043519
-0.117136
-0.971370
0.954883
0.638500
0.855710
0.149311
-0.937284
-0.928528
-0.496078
-0.466464
-0.327948
0.613895
-0.576162
-0.511539
0.685558
-0.919830
-0.713078
0.192442
0.688547
-0.923799
-0.276557
-0.978503
0.548437
-0.600618
0.264819
-0.226134
0.272851
-0.465428
0.329548
0.486505
-0.444689
-0.936944
0.939068
0.610319
0.547277
-0.097421
-0.088310
0.721990
0.296855
-0.258271
-0.860273
-0.368184
-0.350308
0.964568
0.315960
0.791562
0.953541
-0.978694
-0.432595
0.885926
-0.292110
0.800760
0.656743
-0.259108
0.197949
-0.470963
-0.386028
0.370125
0.983892
-0.636278
0.110396
0.858399
-0.175899
0.482493
-0.211133
-0.504302
0.435557
0.233831
0.206090
-0.452521
-0.945874
0.861209
0.579999
0.325496
-0.382465
0.839997
-0.146074
0.998939
-0.230280
-0.611187
-0.442726
0.951965
-0.875569
-0.507063
0.533873
-0.458500
-0.166721
-0.398688
-0.436599
-0.687281
0.342434
-0.308172
-0.662092
0.329127
0.049029
0.366444
0.851495
-0.612402
0.157563
-0.703152
0.582347
-0.938786
0.632107
-0.096477
0.402820
-0.873386
0.113581
-0.972161
-0.027484
0.808952
0.206587
-0.041275
0.608945
0.629390
-0.184628
-0.528379
-0.238876
-0.459992
0.946487
-0.489490
-0.838406
-0.387276
-0.681772
-0.806544
0.458044
-0.296993
-0.723801
-0.250503
0.348869
-0.470010
-0.167907
0.161119
0.800290
1.037297
0.131679
0.943158
-0.954628
-0.203116
-0.918392
0.759926
-0.309294
-0.476503
-0.874285
0.253706
-0.597517
5.998164
0.842870
0.865418
-0.013831
-0.032408
-0.421056
0.185940
0.905759
-0.763944
0.997515
-0.331031
-0.252620
0.123397
-0.157153
0.164681
0.288571
0.326326
-0.895602
-8.600734
0.006909
0.770154
0.107432
0.371147
0.261200
-0.961382
0.177056
0.072919
0.464795
-0.172999
-0.136692
-0.667972
-0.658563
0.365037
-0.788126
0.793460
0.044635
0.506537
-0.869910
0.161408
0.340464
-0.433450
0.980704
0.386089
-0.790421
-0.285942
0.336932
0.508136
0.191605
0.872390
-0.131229
-0.556383
-0.913677
-0.836207
-0.540792
-0.888328
0.771849
0.034143
0.810236
0.123080
-0.878271
0.574719
0.403647
-0.580612
0.049423
-0.511942
0.444049
-0.140135
-0.024012
1.034477
-0.233498
0.706937
-0.850464
0.390470
0.805588
-0.074455
-0.460560
0.007133
-0.396387
0.082329
0.773861
0.131261
0.254625
-0.405796
-0.242050
0.885348
0.159551
-0.908662
-0.643385
-0.508115
0.195017
0.276104
0.522588
-0.415290
-0.135229
0.792291
-0.948429
0.673189
-0.309810
-0.967947
-0.029334
0.063815
-0.420743
-0.522981
0.230428
0.955029
-0.639627
-0.107369
0.974114
0.808166
-0.810070
0.287846
-0.881269
-0.144067
0.784235
0.095818
0.054737
-0.595760
0.638659
0.065090
-0.816425
0.694716
0.943287
-0.885022
0.152018
0.283143
0.717392
-0.207479
-0.264958
0.454613
0.639945
-0.162300
0.203990
0.896071
-0.949633
0.307427
0.216616
-0.735232
0.318054
-0.246078
0.152158
-1.170589
0.413017
-0.332285
0.143167
0.129274
0.923134
-0.516799
0.789849
0.194636
0.367494
0.894854
-0.058766
-0.404757
-0.525975
-0.161722
-0.326173
0.994032
-0.178122
0.350324
-0.485480
0.237893
0.416134
-0.961135
-0.258055
0.526218
-0.652604
0.634930
0.428158
-0.032348
0.390506
-0.630767
-0.381074
-0.738608
0.662308
0.171173
0.763929
0.634013
0.069268
0.206849
-0.949211
0.512971
-0.440761
-0.650936
-0.302407
0.845883
-0.468795
-0.997838
0.225210
-0.390163
0.882531
-0.705080
0.572638
-0.365927
-0.578659
0.790314
0.367464
0.214802
-0.403318
-0.597111
-0.683954
0.173102
0.209884
-0.996075
-0.823745
0.366547
0.574538
0.545260
0.508757
0.651484
0.704820
-0.606161
0.523345
0.749563
5.533896
-0.726070
-0.823770
0.778182
0.718806
-0.712747
-0.831132
0.827146
-0.283669
0.077167
-0.841982
-0.308632
0.132508
0.138347
0.465942
-0.985023
-0.031314
1.109192
-0.372663
-0.463386
0.664431
-0.984985
-0.037079
0.427796
0.204711
0.416480
-0.590005
0.881244
-0.720810
-0.421895
-0.174853
0.866110
0.118187
-0.253088
-0.354639
-0.238001
0.021415
-0.589628
-0.237252
0.059595
-0.796957
-0.237056
-0.632897
0.420696
-0.631327
0.115910
0.332388
-0.228296
0.717676
-0.368141
0.863979
-0.324307
0.868930
0.140050
0.596059
-0.236874
-0.327435
-0.554596
0.265209
-0.250622
0.738124
0.859895
-0.186681
-0.273147
0.163798
-0.871053
0.677525
-0.360770
-0.118510
0.645264
-0.629458
-0.757473
0.301343
0.722989
0.347126
0.715416
-0.084252
-0.302084
0.542934
-0.582516
0.176592
-0.874820
-0.630619
-0.864947
0.930324
-0.293904
0.068733
0.630163
-0.772799
-0.472384
0.150798
-0.140315
0.740236
-0.450873
0.234351
0.684831
-0.006205
0.486702
-0.141404
-0.616336
-0.376142
-0.135243
0.711495
0.752294
-0.738966
-0.585166
-0.474133
0.446232
0.588491
0.571341
0.056083
0.386600
-0.525660
0.582955
0.425403
0.781133
-0.667866
0.795383
-0.374813
0.399190
-0.293593
-0.832990
0.508436
-0.349256
-0.530120
0.954811
-0.973093
-0.315010
-0.425421
-0.766177
0.113482
0.175002
0.111960
0.995949
0.036703
0.864284
-0.200917
0.386525
0.989305
0.404848
-0.924520
-0.404251
0.393622
-0.761189
-0.189864
0.735341
-0.949744
0.355490
-0.683419
-0.543008
-0.201555
-0.738835
-0.654772
0.679571
0.555033
-0.339631
0.385657
-0.912517
-0.187052
-0.807487
-0.505383
-0.173727
-0.632687
-0.963765
-0.730083
-0.926293
0.619010
-0.932439
0.626787
0.287531
0.579931
0.084993
-0.177481
0.818368
0.625254
0.354360
-0.566998
0.334599
-0.479316
0.287737
-0.292281
-0.284213
0.339844
-0.723558
0.786222
-0.278318
0.265939
-0.179421
-0.387590
0.653438
0.102814
-0.798317
-0.968279
0.101506
-0.019634
-0.464830
-0.022132
-0.478512
0.596203
-0.168654
-0.996809
0.041833
0.471027
0.844754
0.598588
0.584637
-0.161980
0.716475
-0.247033
0.611223
0.509637
-0.126009
-0.437604
-0.735404
0.817192
0.867800
0.002972
-0.395412
0.497742
-0.582325
-0.892077
0.571221
-0.986369
0.620379
-0.544818
-0.714533
-0.459605
0.044528
-0.364248
0.748451
0.738011
0.514398
0.181775
0.600946
-0.768891
0.630575
0.726595
0.462850
-0.025182
-0.427129
0.054515
-0.226083
-0.840509
-0.984764
-0.922826
0.884998
-0.115300
0.237223
0.741002
-0.836509
0.526242
-0.513781
0.374907
0.361520
-0.795976
0.346289
0.906473
-0.884974
0.153270
-0.183474
0.398167
0.580640
-0.166884
0.525363
-0.257519
0.442059
-0.930261
-0.874895
0.906136
0.766183
-0.964009
0.988241
0.608700
-0.898097
-0.206682
-0.739221
-0.808774
-0.993635
-0.794550
-0.462824
-0.231564
0.373277
-0.477943
-0.187221
-0.243734
-0.033852
0.219859
-0.839813
0.868786
0.674531
0.490003
0.050590
0.525097
-0.622147
-0.239689
-0.810018
-0.236209
0.004360
0.343781
0.468260
9.627211
0.347851
-0.573754
-0.670436
0.593209
-0.506677
0.432917
-0.629130
-0.021004
0.232794
-0.378561
0.154089
-0.488915
0.012888
0.997527
-0.702907
0.908252
-0.626591
-0.132308
0.142759
0.627049
0.169701
-0.017701
-0.193904
0.013708
0.791780
0.200178
0.413062
0.623955
-0.493156
0.563523
0.192951
0.740295
-0.875606
0.797667
-0.050009
0.858360
-0.602354
-0.366967
0.375412
-0.147493
-0.177427
0.506299
0.339029
0.194794
0.423448
0.496286
-0.349209
0.605263
0.950463
-0.467888
0.678270
-0.724990
-0.907631
0.353943
0.586932
-0.770100
0.709289
0.913062
0.760271
-0.255026
-0.812054
0.312848
-0.749969
-0.143638
-0.035481
0.425774
0.645451
-0.617007
0.548838
0.263125
0.722845
-0.205259
0.161773
0.137042
0.333795
-0.980344
-0.611596
0.125915
-0.287811
-0.943747
-0.033384
-0.735799
0.479867
0.928460
-0.282642
-0.952521
0.247037
-0.243363
0.662479
0.497661
0.985343
0.033210
-0.010273
0.398207
-0.842214
-0.830826
0.231176
0.243413
0.699498
-0.004981
0.765279
0.680849
0.878221
0.776421
-0.146293
0.522213
0.905574
0.847033
-0.813547
-0.594918
0.791533
0.974274
0.767325
0.189564
0.339577
0.255504
-0.040542
0.391835
0.414142
-0.540632
-0.265544
-0.057430
0.840022
-4.151955
-0.807086
-0.936828
-0.827100
-0.407756
0.061512
0.755824
-0.353657
0.290478
0.264704
0.615980
0.045428
-0.620653
-0.468439
0.600207
0.321810
0.037286
0.220246
0.076151
0.584673
-0.180598
0.907852
-0.616121
0.653369
0.304008
0.222778
-0.902190
-0.102619
-0.426157
0.693453
-0.781703
0.390832
0.077002
0.632022
-0.409306
0.396522
0.078884
0.968340
0.103726
0.153979
0.067093
-0.565793
0.902468
0.298192
-0.934591
0.681481
0.316782
-0.051195
0.621437
-0.211388
-0.568643
-0.958707
-0.013536
0.156957
0.429693
-0.439433
-0.114969
0.208178
-0.927855
-0.543612
-0.376241
0.952071
-0.535696
0.628030
0.343620
0.462059
-0.485002
0.704042
-0.356498
0.355756
-0.853097
-0.068304
-1.044408
-0.528651
-0.496054
-0.248082
-1.350220
1.047396
0.028843
-0.315334
0.433210
-0.642304
-0.545355
0.622189
-0.810138
-0.072543
0.476705
0.138892
0.812001
0.326088
0.794133
0.991666
0.637286
0.244275
0.079563
0.824970
0.874286
-0.016373
-0.584536
-0.107536
0.058568
0.330804
-0.299347
0.843910
0.073800
-0.762505
-0.489461
0.924375
0.693035
0.779610
0.867461
-0.422702
-0.153342
0.909013
0.398215
0.630823
0.633459
-0.721015
0.183564
-0.795983
-0.146891
0.331784
-0.815721
0.300736
0.154783
-0.125713
0.612062
-0.774021
-0.362662
0.719687
-0.954192
-0.332072
-0.386392
0.667365
-0.729223
-0.820090
-0.154744
0.136045
1.050830
-0.064592
0.055629
-0.367131
-0.972006
0.227672
0.852106
-0.602235
0.416614
0.582537
-0.941168
0.910913
-0.549306
0.403171
0.649248
-0.500395
-0.124536
0.184906
-0.344882
0.226045
0.615038
0.404093
0.129579
0.555809
0.452396
-0.983928
0.541588
-0.494952
0.153657
0.174024
-0.711551
-0.391318
-0.193079
0.026722
0.624577
0.662412
-0.330146
-0.176105
0.138774
0.972481
0.258445
-0.569531
0.993807
0.566291
-0.171952
-0.148963
0.089844
-0.423125
0.713165
0.062274
-0.290364
0.005748
0.215278
0.280176
-0.878092
0.584617
0.051850
0.050037
-0.655616
-0.518398
0.169542
0.332258
-0.020422
-0.454372
-0.887198
-0.886110
0.687836
-0.303751
-0.250625
-0.450096
-0.432467
-0.673505
0.376988
0.563556
0.342028
0.988785
-0.970842
-0.810403
0.793302
-0.766488
-0.622803
-0.441811
0.765278
-0.398987
0.344846
-0.017591
-0.202876
-0.332601
0.751256
-0.431517
0.579361
-0.340279
-0.362573
-0.070652
0.743370
0.927161
-0.569990
0.736873
-0.348987
-0.950433
-0.696484
-0.081341
-0.076496
-0.549332
0.439866
-0.157201
-0.536515
0.354742
0.301361
-0.673779
-0.681336
-0.082326
-0.850115
-0.463195
0.950665
0.750718
0.260227
-0.610127
0.847243
0.774369
0.261108
0.418262
0.094813
0.506365
-0.527999
0.871713
-0.001437
-0.775977
0.299777
-0.686423
0.899330
0.080566
-0.149893
0.434317
-0.388936
0.616835
-0.280484
0.257708
-0.993410
-0.780204
-0.905829
-0.056401
0.853595
0.691921
0.719615
-0.211074
0.280787
0.323225
0.495317
0.150585
-0.519695
-0.229550
-0.045565
-0.591660
-0.557159
0.433797
-0.456999
-0.383029
0.855139
-0.123239
-0.884285
-0.784738
-0.899134
-0.916135
0.545936
0.738198
-0.497143
0.810110
0.584137
-0.494476
-0.266157
0.191362
0.612859
-0.370560
-0.487004
-0.589770
0.433158
0.999091
-0.039653
0.123185
-0.140956
0.822562
-0.051751
0.426527
-0.408337
-0.749987
-0.574146
0.429977
0.473120
0.812501
-0.795370
-0.815284
0.201589
0.418272
-0.618851
-0.785742
0.228113
0.390306
0.438949
-0.564068
-0.074753
-6.700002
0.486035
0.266036
-0.846851
0.593546
0.800484
-0.334004
-0.304481
-0.831418
0.122166
-0.271755
0.538510
0.648243
0.870408
-0.607005
0.133465
0.976491
0.643893
-0.499019
0.284771
-0.260841
0.660727
-0.681251
0.984045
0.496141
0.726467
0.862022
-0.230741
-0.844182
0.834094
0.087264
-0.524926
-0.249069
0.340175
3.760584
0.798377
0.575877
-0.020667
0.986229
-0.008079
-0.280270
-0.517803
0.137237
-0.627500
0.507217
0.148043
0.418765
-0.659391
0.280872
0.364117
0.671703
0.350141
-0.625883
0.230567
-0.506480
-0.048981
0.334620
0.517525
-0.743694
-0.931400
-0.195818
-0.374774
-0.444002
-0.039633
-0.260772
0.861238
0.671948
0.837020
-0.428650
-0.727449
0.875540
-0.163364
0.626883
-0.530188
0.403787
-0.330767
0.697784
-0.824671
0.850212
-0.110340
-0.585067
-0.084526
-0.852363
0.731792
0.587239
0.801965
0.691657
0.598103
-0.498266
0.541658
0.938125
-0.603170
-0.918008
-0.055028
0.894227
0.548457
-0.762340
-0.586910
-0.298712
0.658155
0.503888
-0.246273
-0.749126
-0.297608
-0.707817
-0.176078
-0.685998
-0.265747
-0.960343
-0.293476
0.727957
0.058008
0.546783
0.154235
0.030342
-0.832725
-0.395342
-0.328552
0.354671
0.978374
0.729096
0.499814
-0.532197
-0.037864
0.887275
-0.472292
0.497212
0.614517
-0.472187
0.634056
-0.551568
-0.249523
0.233975
-0.189818
-0.917970
0.262271
0.735795
0.095102
-0.275682
-0.786856
-0.514029
0.590649
-0.684981
-0.342041
0.247412
0.560829
0.290273
-0.538386
0.547054
0.423655
-0.696366
0.844586
0.274882
0.875371
0.529461
-0.336125
0.151637
-0.193444
-0.122297
-0.033977
0.993791
0.866475
-0.342062
0.167747
0.937782
0.397758
-0.211257
0.327964
-0.866170
0.360993
-0.402598
-0.221931
0.318848
-0.317246
0.492125
-0.755694
0.050420
0.168115
-0.490232
-0.662367
0.470036
-0.257264
0.340110
-0.149170
-0.605291
0.542206
-0.791567
-0.451922
-0.557340
-0.837819
0.790406
0.740942
0.335172
0.203206
-0.876294
-0.627167
0.606440
-0.704563
-0.903490
-0.069033
0.223969
0.047505
0.884360
-0.249593
-0.821909
0.607872
0.912094
-0.695745
-0.695697
0.701997
0.351485
-0.875136
0.119293
-0.375292
0.193180
0.954220
-0.494132
0.116847
-0.094557
-0.461116
-0.488147
0.985480
-0.977646
0.065120
-0.929929
-0.678429
0.832166
-0.237891
0.918887
-0.947898
-0.626420
0.920350
0.889855
-0.878467
0.724031
-0.528742
0.447452
0.448632
0.090610
-0.950496
0.243273
0.949434
-0.373564
0.115464
-0.974935
-0.572287
-0.003819
0.079998
0.203115
-0.436238
-0.549794
0.029213
-0.207556
-0.306157
-0.719844
0.374068
-0.669341
-0.224028
-0.443591
-0.442730
-0.545287
-0.599538
0.393539
0.895108
-0.862569
0.691447
0.759926
0.515933
-0.406067
-0.009349
-0.634096
-0.433540
-0.359906
-0.668067
-0.391665
0.661743
0.078538
0.115858
-0.706606
-0.853098
-0.345651
-0.926748
0.623799
-0.050358
-0.266152
-0.905390
-0.591944
0.287253
0.384817
0.846527
0.627700
-0.413253
-0.050592
-0.472824
0.990320
-0.848858
0.014253
0.882766
0.736704
-0.423885
0.842096
-0.205941
0.598505
-0.981257
0.825028
0.063530
0.466954
-0.480853
-0.069877
0.011973
0.771894
-0.012891
0.083806
0.543266
0.811316
0.763049
0.698657
-0.211706
0.150359
0.907161
0.315415
-0.016690
-0.566213
-0.258435
0.671369
0.439155
-0.963384
-0.715476
0.033918
0.936332
0.055817
-0.399052
-0.723486
0.558752
-0.173337
-0.873272
-0.179805
0.154288
-0.578539
-0.855077
-0.642802
0.884203
0.903464
-0.170394
-0.019348
-0.110287
0.082232
0.681658
-0.841945
-0.654741
0.889896
-0.104713
-0.961627
-0.866902
0.475658
0.800636
-0.765928
0.931688
-0.884819
-0.010454
0.353419
-0.247254
-0.613919
0.708321
1.007286
-0.231899
-0.953737
0.607201
0.272504
-0.806446
0.325877
0.272323
0.436211
0.957113
-0.175486
-0.287864
-0.520191
-0.979778
-0.874760
0.317763
-0.806611
2.801472
0.354038
0.909013
-0.097155
-0.628176
0.460073
-0.711421
-0.487365
-0.073332
-0.617415
-0.473426
-0.228208
0.312579
0.959423
-0.272936
0.840160
-0.357601
0.046245
-0.071477
0.318864
0.014505
-0.096865
-0.315718
-0.191557
-0.721064
-0.654379
-0.356387
0.931137
0.940425
-0.896067
0.806131
0.640809
-0.959434
0.446124
0.092842
0.397684
0.838670
0.804605
0.619205
-0.763051
-0.745968
0.285912
0.219194
0.125862
-0.662453
0.667322
0.547570
0.018703
-0.094552
0.963265
-0.685679
0.992848
-0.587773
0.417410
0.142764
-0.129248
0.593116
0.009611
-0.389443
-0.825734
0.211589
0.901919
-0.278958
0.262085
-0.439319
-0.069116
0.632225
0.473840
0.938658
0.959482
-0.833740
0.347223
0.417493
0.554646
0.213896
-0.845965
0.854085
-0.532597
-0.775132
-0.896242
-0.553728
0.942626
-0.580603
-0.979204
0.196284
-0.452104
-0.245983
-0.830187
-0.950818
-0.788695
-0.455293
0.744899
-0.224936
-0.722247
-0.753480
0.524295
0.251534
0.415266
-0.377358
-0.423014
0.304255
-0.171571
-0.214399
-0.701076
-0.688517
-0.906161
0.065012
-0.685113
0.939553
-0.690675
0.438826
-0.612016
-0.919558
0.714044
0.763392
0.920048
0.786977
-0.992302
-0.512155
0.603728
-0.741171
-0.857550
-0.489392
-0.663808
0.350853
-0.300607
-0.034749
0.642631
-0.666006
0.721632
-0.560085
-0.703388
0.573340
0.855369
-0.879519
0.143217
0.072810
-0.548540
-0.915646
0.290535
-0.352738
0.168155
0.268002
0.820250
0.541870
-0.842898
-0.425237
-0.781214
0.247112
-0.073321
-6.961516
0.517016
0.160526
0.222956
-0.101936
-0.670480
-0.927722
-0.357580
-0.979505
-0.518814
0.999002
0.437568
-0.003979
-0.763124
0.141251
-0.893889
-0.939873
-0.932573
0.599129
-0.754110
-0.258352
0.708296
-0.830857
0.207434
0.790126
-0.765530
-0.919252
-0.895430
-0.501614
-0.410463
-0.914359
-0.783819
0.035870
-0.551118
-0.795767
0.459130
-0.544668
0.686185
0.776883
-0.477870
0.578312
0.097761
-0.155029
0.411962
-0.507183
0.728903
0.902265
0.960327
-0.808959
-0.429449
-0.636778
-0.788929
0.882860
0.277393
-0.834536
-0.794489
0.696063
-0.482838
-0.043709
0.935137
0.116842
0.635406
0.824127
0.842454
0.966566
0.295616
-0.895023
-0.929812
0.015625
-0.011782
-0.618605
-0.120634
0.685876
0.190416
0.348128
0.242220
0.981090
-0.057852
-0.114602
0.543327
0.904299
0.082780
0.539435
-0.861370
0.434670
-0.574745
-0.654343
-0.016727
0.928262
0.744944
0.688199
0.078577
0.236858
-0.928114
0.215213
-0.128836
0.648684
0.639673
-1.330132
-0.862635
0.791585
-0.994485
0.543141
0.298973
0.242875
0.959644
0.547971
-0.113945
-0.788075
0.941451
0.231990
-0.118091
0.266175
0.151840
0.213805
-0.307104
0.825479
0.788391
-0.606088
-4.235044
-0.256748
0.762654
0.063023
0.183007
0.577333
-0.787986
0.478005
-0.720550
0.234607
0.218127
0.396104
-0.169758
0.201056
-0.421228
-0.214144
-0.317278
-0.184850
0.358081
0.837671
0.111858
0.378848
-0.234559
-3.580656
0.502556
-0.924746
0.959608
-0.702538
-0.966448
0.167197
-0.775056
-0.312650
-0.899747
-0.486774
-0.562272
0.704107
0.956257
-0.772123
0.277664
0.328157
0.641129
-0.212511
-0.336942
0.423297
-0.049817
0.959386
-0.794517
0.993992
-0.541903
0.615889
-0.513146
-0.099229
0.016664
0.156061
0.449493
0.088864
-0.972000
-0.320140
0.053894
0.806661
-0.196717
-0.321904
-0.791468
0.931135
-0.924259
-0.561964
-0.799192
0.970827
0.088273
-0.624396
0.054494
0.385594
-0.392515
-0.665685
0.249159
-0.967890
0.770346
0.213068
-0.503057
-0.874509
-0.130990
-0.345340
-0.479047
-0.682498
-0.269624
-0.829470
0.121771
0.047351
0.334588
0.920950
-0.664852
-0.502927
0.727767
-0.632984
0.923850
0.731866
-0.351014
0.529380
-0.139595
-0.955398
-0.937221
-0.648684
0.701824
0.101121
-0.196515
-0.399375
0.619167
0.465332
0.284484
-1.009119
0.150329
-0.164424
-0.405253
-0.451212
0.403652
-0.237309
0.109549
0.215374
0.369400
-0.357407
-0.399853
0.947159
0.840069
0.356747
-0.601555
-0.928199
-0.074093
0.609329
-0.346038
-0.056589
0.369570
0.512643
0.995559
0.340927
0.077394
0.258242
0.796470
-0.120356
0.316015
-0.675750
-0.276768
-0.512923
0.515215
-0.130374
0.017217
0.562103
0.138738
-0.819382
0.274830
-0.517800
-0.162519
0.780381
0.063201
0.232013
0.665825
-0.672885
0.140779
0.383012
0.165153
-0.572283
0.018587
-0.275556
0.232255
0.202402
0.680828
0.485484
-0.904411
-0.800512
-0.826298
9.434146
0.256308
0.461429
-0.040658
0.036182
-0.429574
-3.614455
-0.307191
0.588559
-0.244590
-0.673528
-0.237238
0.138816
0.060446
0.806498
0.608958
-0.657268
0.645029
-0.435096
0.917038
0.754792
-0.378548
-0.025379
-0.930137
0.795636
0.885175
0.040512
0.944936
-0.679777
0.063911
0.484110
0.262171
0.333380
0.608453
-0.301180
0.906064
0.433422
0.019783
-0.121166
0.914374
-0.334971
0.346400
-0.566966
-3.724349
0.984971
0.157720
0.078293
-0.862008
-0.806695
0.166811
0.017411
0.596003
0.670378
-0.962092
-0.333036
-0.615247
-0.838473
0.691032
0.974969
0.794192
0.438416
-0.619103
-0.903316
-0.166429
-0.771390
-0.292957
0.423397
-0.556743
0.308971
0.969262
0.694197
0.885811
-0.713672
-0.454850
-0.410654
-0.779031
0.294633
-0.645616
-0.013504
-0.651916
0.354618
-1.186516
0.444479
-0.207482
0.760897
0.113073
0.666523
-0.331877
-0.710362
0.695390
0.669901
0.639863
0.430879
0.652521
0.224612
-0.885430
0.716676
-0.264429
0.605884
0.123615
-0.723652
-0.803132
-0.806998
-0.340300
0.970184
-0.229996
6.826964
0.420098
-0.484054
-0.589768
0.277774
0.018238
0.279275
0.797467
-0.628222
-0.592171
-0.601013
0.332325
0.088158
0.830157
-0.884806
0.785589
0.733236
-0.412949
0.740620
0.849102
0.749144
0.398544
1.007118
0.087133
-0.243618
0.281395
0.729611
0.919308
0.378182
-0.836098
0.394041
-0.057382
0.145519
-0.176740
0.973125
0.855704
0.280500
0.443975
0.105502
-0.858811
0.420841
0.192878
0.288682
0.215002
0.199840
0.598055
-0.095045
-0.005828
0.978637
-0.777960
-0.379542
-0.165457
-0.753182
-0.694775
-0.979256
-0.735492
0.020396
0.445599
-0.236341
0.987089
-0.482524
0.243185
-0.680010
0.863382
0.619548
-0.852560
0.717801
-0.877584
0.392222
-0.012146
0.429715
-0.253969
-0.784259
-0.893571
-0.140491
-0.459749
-0.363276
0.085879
0.224355
0.510748
0.093494
-0.423707
-0.299258
-0.811933
-0.501198
0.795708
0.500994
-0.437198
-0.433113
-0.328299
-0.241086
-0.557708
0.498185
0.255548
0.859587
0.396162
0.549822
-6.552252
-0.026981
0.606668
-0.377026
-0.949472
0.602773
0.544256
0.586762
-0.404128
0.256952
0.920021
-0.402550
0.072377
-0.278795
0.372960
-0.149167
0.208307
-0.642708
0.742824
-0.277145
-0.589834
-0.928946
0.554419
0.843793
0.971768
-0.843135
-0.890746
0.899124
0.963183
-0.528607
-0.930099
0.546168
0.727492
0.488318
0.804379
0.602635
0.782315
-0.516048
-0.900324
0.592592
-0.471228
-0.783595
0.220712
0.998056
-0.065245
0.510237
-0.083115
-0.816556
-0.335035
0.068114
0.500789
-0.396965
-0.682705
0.826113
-0.058933
0.768969
0.067640
0.543434
0.892909
-0.959448
0.276087
0.025893
-0.994135
-0.710104
0.918190
0.883945
-0.094572
0.976735
-0.675826
-0.683192
-0.333889
-0.139565
-0.673627
0.010869
-0.797487
-0.523650
0.964102
-0.759136
-0.647477
0.184813
0.246126
-0.667348
-0.381200
0.798591
0.310800
0.339680
-0.037319
0.102214
0.055735
0.907050
-0.570591
-0.631097
-0.947758
0.774564
0.811264
-0.284397
-0.535309
0.878768
-0.264138
-0.475846
0.261655
0.979073
-0.431877
-0.373080
-0.183201
-0.254889
-0.292679
-0.040400
0.340135
-0.988781
0.217215
-0.087195
-0.031366
-0.482329
0.048329
0.585396
-0.491497
-0.072675
-0.183438
0.525584
0.851183
-0.185808
0.329635
0.477347
-0.111827
-0.298494
-0.997632
-0.107938
0.880792
0.640404
-0.516761
6.013781
0.514742
-0.591368
-0.804437
0.963443
-0.290639
0.544222
0.097176
-0.946298
0.597814
0.598216
0.390961
-0.962689
0.312860
0.190716
-0.692798
0.983023
-0.697946
-0.019294
0.639398
-0.297837
0.408178
0.473348
0.378569
-0.433821
-0.889447
0.573768
0.233155
0.369837
-0.270464
-0.333201
-0.366801
0.076076
-0.835888
-0.815747
0.036514
-0.051385
-0.543521
-0.733574
-0.119680
-0.872722
0.518008
