0.812048
0.715035
0.803612
0.139722
0.867079
0.800489
0.538902
-0.546546
0.112371
-0.776360
-0.080652
-0.314816
0.662341
-0.767050
-0.974074
0.259654
0.807849
0.795644
-0.494790
-0.459712
-0.480038
-0.544147
0.269939
-0.699677
-0.389857
0.714649
-0.854029
0.563837
-0.122656
-0.555214
0.611975
0.096482
0.765678
0.173254
-0.751285
0.428711
0.477924
0.859602
-0.022712
-0.405386
-0.493816
-0.896009
-0.791034
-0.701130
-0.730416
-0.501763
-0.738915
-0.312819
0.321439
0.751084
-0.409729
2.049895
-0.628289
0.666076
0.204534
0.658498
-0.664624
-0.285080
-0.656470
0.531185
-0.419632
-0.147003
-0.499409
0.870440
0.709263
-0.747422
-0.565637
0.031412
-0.951928
-0.140861
0.403855
-0.074875
-0.569806
-0.322043
-0.112833
0.550275
0.246221
-0.795028
0.713775
0.389016
-0.810187
-0.123959
0.129738
-0.815399
0.016284
0.919397
-0.571423
0.730321
-0.792180
0.042570
0.459854
0.968120
0.288081
-0.903498
0.977693
-0.421275
0.020431
0.893857
-0.745679
0.281713
-0.605640
0.153980
-0.032930
0.807156
0.069455
0.494878
0.010843
0.338758
-0.130764
0.014764
-0.376425
0.470540
0.268768
-0.668140
0.371798
0.384312
0.862868
-0.580465
0.097799
0.658180
-0.728400
-0.061715
0.899151
0.346804
0.051169
-0.278129
0.472449
-0.259178
-0.169193
-0.570493
0.869577
-0.913787
-0.584143
0.950468
0.077609
-0.917742
0.942108
-0.282784
-0.766363
-0.928438
-0.252241
0.795812
-0.261039
-0.497519
-0.753923
0.490139
0.434614
0.078933
0.025803
0.718497
0.732118
-0.007432
-0.722777
-0.820874
-0.496376
0.682250
-0.615322
0.029960
-0.418260
-0.976652
-0.617490
0.647396
-0.495878
0.063688
-0.709309
0.583968
-0.645335
0.294616
-0.802519
0.657103
-0.258567
-0.578958
0.977373
-0.472900
-0.625545
-0.924868
-0.855806
0.084679
-0.871210
0.233307
-0.083913
-0.379697
0.502016
-0.324267
-0.171190
0.321824
0.846904
-0.802341
0.566957
-0.271376
-0.888664
-0.562235
0.642847
-0.578633
0.489049
-0.925195
0.476140
-0.426687
0.501571
-0.945800
0.056402
0.198397
-0.236777
0.699158
0.687543
0.553393
-0.716248
-0.422355
-0.874135
2.654460
-0.966559
-0.569145
-0.460551
0.110984
-0.173798
0.654685
0.411429
0.960465
0.970266
0.221271
0.714966
0.784631
0.764096
0.552513
-0.754445
-0.462799
-0.530614
0.937957
0.440853
-0.210299
-0.682579
-0.666541
-0.308608
-0.578386
-0.633611
-0.816155
-0.888937
-0.762416
0.098627
-0.833896
-0.536850
-0.665845
-0.459639
-0.336101
-0.727459
-0.013195
-0.948866
-0.160272
0.079642
-0.472620
0.182172
-0.502514
0.874708
0.157822
-0.266451
-0.392853
-0.244904
-0.041049
0.263858
-0.282029
-0.155091
-0.844597
-0.373388
-1.150283
0.920955
0.810959
-0.892194
-0.143668
0.369158
0.688107
0.061341
-0.177067
0.564232
0.203843
-0.515141
0.641691
-0.062256
-0.924838
0.554581
0.247481
-0.597391
0.703455
-0.926476
0.449957
0.441699
0.411764
-0.230865
-0.584583
-0.849276
0.457611
-0.504164
0.753776
0.745649
0.535655
6.778771
0.241963
-0.540328
-0.152918
-0.350515
0.281610
-0.500013
-0.808737
-0.865333
0.672882
0.139220
-0.802439
0.875080
-0.858671
0.835822
0.706690
0.615533
-0.198134
0.045604
-0.726307
0.743066
-0.962826
0.129466
0.451133
-0.774761
-0.786274
-0.633492
0.955344
0.502258
0.846278
-0.466036
-0.625784
0.546106
-0.265459
-0.470344
-0.117834
-0.057759
-0.976481
0.602679
0.357034
0.101009
-0.561787
0.956125
0.130388
-0.179633
0.495273
-0.130265
-0.318520
-0.240961
-0.052352
-0.267200
-0.560391
-0.273389
-0.452274
-0.135341
0.050594
0.855713
-0.254399
-0.955363
0.220311
0.262075
-0.702255
-0.967098
-0.879171
0.550033
-0.083651
0.875429
0.320875
0.912956
-0.033729
-0.626876
0.538658
0.956070
0.825284
-0.441219
-0.238303
-0.884881
-0.002357
-0.509437
-0.247857
-0.019691
0.151580
3.835659
4.233699
-0.166760
-0.879986
-0.522896
0.811759
0.732959
0.366367
-0.178822
-0.945290
-0.650018
0.580237
0.027393
-0.992464
-0.291003
0.937538
-0.311199
-0.645812
0.118619
-0.277889
0.719739
0.506742
-0.180338
-0.754637
-0.293225
0.469869
-0.239708
-0.169269
0.704684
0.782844
-0.959455
-0.185636
-0.962180
0.733269
-0.882250
-0.968682
-0.406063
-0.213458
0.758223
-0.649908
-0.463540
0.686725
-0.312328
0.749162
0.760096
-0.020325
0.033241
-0.181739
-0.572908
-0.616290
0.340020
0.173504
-0.395735
0.690428
-0.548997
0.538672
-0.248165
0.073301
-0.400097
-0.807315
-0.926860
0.614051
0.262023
0.563145
-0.778889
0.139656
0.495415
0.253381
-0.121781
0.244470
-0.994118
0.711908
-0.906070
-0.764151
-0.124140
-0.144555
-0.214450
0.383966
0.130332
0.405752
0.895838
0.461877
0.196522
0.015563
-0.228678
0.579684
0.928306
0.227136
-0.607124
0.204510
0.921643
-0.336729
-0.520569
-0.293015
-0.359495
-0.499904
0.772787
0.682879
0.158830
0.878929
-0.266636
-0.977806
0.102996
-0.918691
0.307372
0.308052
-5.994871
0.595032
-0.967887
3.668445
0.241523
0.481234
0.828470
0.358125
0.748861
-0.028679
-0.803013
-0.484305
0.428860
-0.724050
-0.011300
-0.088936
0.453957
0.737724
-0.144318
0.679106
-0.505013
0.251169
0.319874
-0.798805
0.036934
0.311334
-0.261191
0.056881
0.554901
0.996972
0.190265
0.701480
-0.317055
-0.983419
-0.598833
-0.474737
0.176468
0.450083
0.729260
-0.767569
0.931444
-0.257212
-0.960832
0.873169
0.732191
0.516809
0.315765
-0.713316
-0.615316
-0.185691
0.911362
-0.003882
-0.002457
-0.076800
0.286933
0.041440
0.367472
0.718863
0.516775
0.175286
-0.097571
0.112281
-0.669952
-0.775153
0.920035
0.476304
0.271720
0.080321
-0.065547
-0.362165
-0.495354
-0.804267
0.982791
0.220804
0.743702
-0.587168
-0.570230
-0.871162
0.687276
-0.658790
0.836479
-0.969798
0.572512
0.024860
-0.240386
-0.903798
0.144087
-0.883608
-0.308639
0.434675
-0.052473
0.930423
0.690985
0.117525
0.212601
-0.024922
0.375037
-0.538710
0.120128
0.912773
0.101689
-0.567676
-0.665740
-0.745278
7.693032
-0.546449
-0.876736
0.939742
0.472108
0.158851
-0.050392
-0.995420
0.828636
-0.617513
-0.904874
-0.030308
-0.708481
-0.136586
-0.521973
0.432522
0.497841
0.730979
0.698941
0.038773
0.786795
-0.050034
-0.563973
0.903046
0.074471
0.697544
0.048058
0.338081
-0.624927
0.292253
-0.583490
0.322839
-0.591509
0.538023
-0.735020
-0.377138
-0.950037
-0.135490
-0.592731
-0.794929
0.587425
0.299090
-0.096329
0.285794
0.173276
0.068423
0.416101
-0.297537
0.921971
-0.487874
-0.548646
0.131551
-0.370609
-0.783165
0.433830
0.162443
0.780798
-0.321009
-0.004658
0.422023
-0.458548
-0.349486
0.028187
0.032301
-0.854039
0.054826
-0.173823
0.745858
0.881450
0.955802
-0.866264
0.666903
0.888031
0.617679
0.003188
-0.343441
0.716322
0.491482
0.209715
0.663148
-0.234454
-0.410541
-0.018303
-0.410161
-0.540688
-0.465637
-0.978573
0.209009
0.747034
0.793464
-0.376547
0.084807
0.610656
0.410436
-0.487899
0.111944
-0.393314
0.411347
-0.195378
0.687245
0.150248
-0.820291
0.388587
-0.787404
0.472192
-0.578891
-0.233377
-0.390397
0.353518
-0.708294
0.480167
-0.161446
-0.355104
-0.429467
-0.251373
0.975408
-0.748045
-0.644718
0.716179
-0.800744
0.454277
-0.837282
-0.710958
-0.477807
-0.637516
0.893045
0.073978
-0.319232
0.493470
-0.839350
-0.051032
-0.997123
0.306632
-0.918380
-4.243767
0.969779
0.699622
0.489796
0.957397
-0.735920
-0.561523
-0.157932
0.118330
0.294504
-0.429979
0.070249
0.433209
-0.854273
0.411122
-0.067374
0.886999
-0.289763
-0.781493
-0.734231
-0.862698
-0.390396
-0.346887
0.736063
0.849911
0.349531
-0.745291
-0.630992
0.586503
0.344865
-0.794298
-0.782092
-0.257676
-0.607432
-0.285371
0.238010
-0.036206
-0.355838
0.705178
0.246375
-0.992686
0.334779
0.783348
0.125688
0.155650
0.871588
-0.078384
0.299685
-0.920800
-0.559523
0.843462
0.107379
-0.711655
-0.642710
0.392485
-0.910101
0.121089
0.491359
-0.370764
-0.789829
-0.066208
-0.220427
0.715052
0.249264
0.208874
-0.748676
0.823590
-0.347594
0.490105
0.547951
-0.851723
-0.785330
-0.688942
0.070360
-0.562239
-0.554688
0.389831
0.971905
-0.558468
1.244194
-7.502601
-3.416617
12.132993
7.374331
6.473579
7.171216
-2.889654
-2.231057
-4.504321
-4.110181
5.009657
0.686302
-5.030292
6.002159
-4.051218
6.693157
-5.422707
5.362898
-13.695006
8.551057
5.648627
7.662418
-8.829237
-0.575126
-9.583290
2.570342
-2.093227
-1.398529
6.580403
-1.889088
-4.686422
4.119744
6.493767
1.574867
1.699829
4.761661
2.619226
-1.364798
0.860351
-3.320414
-1.346689
0.236526
0.102817
-0.220291
-1.393821
1.947362
4.325807
-2.702873
-2.015511
-1.507906
-0.246042
5.582647
1.117283
-2.748691
1.613904
6.507830
-6.331711
-0.324381
4.201853
-3.904320
8.650699
-3.415419
3.494307
3.071385
-2.431799
7.225474
-8.661795
1.434485
-0.697056
-0.231489
-3.976184
-0.927223
6.838114
5.361268
2.919897
-2.218239
6.596292
-8.146499
1.383895
-1.328516
-3.270040
-12.786384
7.195106
-5.162157
3.239895
-4.818685
-2.864690
-3.866007
2.053188
0.236947
-0.634894
-4.998792
-6.439131
5.938758
-7.240844
7.114163
6.867786
-8.580618
-0.401292
8.179645
8.620333
-5.800126
-3.057910
7.152992
-5.366024
7.460837
-10.069949
-1.090810
6.077492
-9.318342
-16.837966
1.347202
7.562208
5.758067
-2.256269
-5.195057
3.136306
8.619480
3.685679
2.488057
5.502651
6.279919
-7.563046
5.704634
-0.847014
1.095061
4.734554
7.215001
-4.576353
5.392972
2.313081
9.630569
3.082553
-4.018792
7.917042
3.882798
-2.346864
2.534019
-7.448825
-6.307501
6.907760
-1.401171
0.327131
5.700406
8.348793
-6.997017
1.558105
21.781278
-3.500581
0.180896
-0.558857
-0.777260
-0.215957
-3.153027
6.882085
2.435529
2.857389
-7.903310
-4.441901
-4.884951
10.246508
-5.397523
-2.712164
-2.011840
3.494767
-0.508062
5.195521
6.693796
7.506862
-8.092551
-0.948147
0.928825
1.173561
3.026080
-0.110960
16.472409
0.270933
-5.714258
-0.039124
0.352268
-0.414052
-3.319094
-0.880449
-0.342152
-9.362091
-1.265836
-5.629309
3.958231
5.036044
7.746990
8.135252
3.619176
-3.198885
-1.598008
21.475671
-3.301314
-7.881371
-5.891852
-6.230414
2.325619
-7.912938
1.644585
5.613274
-2.006857
11.092909
0.144878
12.764272
-8.362164
8.562014
-0.732852
1.152188
6.743048
1.881383
-2.474394
-34.313496
-1.537497
1.906219
-8.145860
2.376834
14.610620
-5.735199
-7.323657
2.701034
-3.405640
3.354287
-3.741525
-6.876566
-15.598160
-2.749541
-9.665440
-8.305693
3.158326
5.288132
1.991630
-0.132258
1.588730
9.502639
-4.856724
7.730134
-9.290636
5.889661
7.181874
2.535989
0.530071
2.111348
-2.983559
9.799374
1.045951
-5.744978
1.048389
-5.948091
1.777918
8.618857
1.320297
-6.853261
-8.715674
-3.451149
4.367559
4.402548
-0.296627
1.287158
12.360457
13.117585
2.533050
4.283296
6.088798
1.038139
-0.314061
-5.950368
-6.449792
-8.578165
-3.786058
6.420960
6.813345
-5.406978
-3.811031
6.784835
-6.844808
-6.679644
-3.434984
1.034454
0.816262
-3.846552
5.565998
10.626773
5.168476
-1.267218
-14.539148
0.881032
7.498721
5.016602
6.289296
8.446503
-6.221255
0.128920
-8.343922
0.058899
5.173405
-3.703958
-8.818825
2.028100
7.848533
2.973830
3.474372
11.575300
8.095864
-8.201383
6.208338
5.700003
-11.169733
-6.924207
14.282764
-1.276714
2.109915
1.892343
3.811222
-9.431742
1.537679
0.028259
-3.696342
-5.471255
-3.737918
-5.789875
1.110405
-9.352084
-6.345489
-3.365491
9.084900
-0.939068
2.958526
6.235072
7.636170
5.869329
9.025302
8.221686
2.599846
14.019622
6.043941
3.440361
17.931173
1.035715
-3.209825
-1.741972
-7.206887
10.502553
-7.362644
-1.834164
-6.331231
-4.327405
0.555872
-2.778404
2.804445
-1.079582
-1.690871
-0.708910
-1.081974
-0.069232
-6.005546
-1.114616
0.164732
2.726267
5.339350
-1.141405
-0.846979
-2.963576
2.447487
0.425755
4.260925
-4.488639
1.071354
6.088431
9.330735
4.539236
-2.009288
9.995908
2.483733
-2.524786
-8.386505
-1.180442
5.921546
-3.041187
-8.147751
-4.436913
6.264581
-6.791827
-5.589913
0.669243
-1.966363
-6.109687
1.351285
-0.637326
2.555572
7.103385
-1.684990
1.746346
-9.662224
-24.826474
-3.856013
6.312893
-3.927005
-2.912835
-1.655732
-2.713905
-9.733534
-2.132768
-7.768079
-3.280417
-7.812275
5.025772
6.505954
-0.094136
7.277218
-5.995252
1.137909
-1.648223
-1.083621
-2.629557
-1.325156
-0.783829
2.989586
6.880727
-0.623070
-3.831171
-2.336361
1.394558
-4.960647
0.567377
-1.878632
-11.419443
-8.354844
4.773241
-2.650696
-3.796026
-0.437785
6.576203
8.981817
-0.084495
4.792499
-5.336886
-8.838723
-4.615638
-6.216775
6.735407
-1.325046
2.217082
-6.673770
-4.323757
-2.004284
-3.473003
7.563116
-0.431812
3.884055
5.172625
2.077844
5.618906
2.006592
-3.639446
6.353208
-5.847295
-11.311867
-6.850221
4.952849
-1.559999
-3.706586
-7.042582
-6.845961
-0.550408
-6.347988
1.532633
-1.544515
-2.590530
3.348605
-8.642378
1.322397
-2.090928
-5.102497
3.661398
0.294287
0.488185
-5.236570
6.357814
-8.177287
8.956554
-5.489188
-0.728607
-6.236906
4.721800
6.120735
-3.881569
6.939935
-11.308607
5.169519
5.466200
1.526916
11.781514
-9.206764
-6.273556
12.002482
-7.612282
0.332501
-6.900250
3.744550
5.939923
-13.194299
4.513183
-5.988169
9.349205
-4.867291
6.645831
-11.680840
-11.419051
-10.768267
1.119304
3.723127
5.439982
-2.809178
-10.412458
-4.883012
-2.296770
-7.691106
-5.343057
-7.178116
-0.049006
0.352236
8.335478
15.341401
4.938999
8.699745
-1.553128
-3.478399
-6.779024
-5.516532
12.073137
-1.658275
2.319181
0.682572
2.773296
-0.681609
2.258628
-6.205065
14.818300
-3.283961
3.653153
-6.189296
4.132107
-10.302127
15.549947
-6.303605
-1.324649
-0.603734
13.883050
4.101242
3.680257
6.100202
1.222799
5.956364
4.339899
-3.253690
2.201412
-2.231064
-6.509320
5.509903
7.991299
0.234421
3.629502
-4.449050
8.742364
7.493288
-9.474399
-0.405145
-6.914289
7.941392
6.557569
3.007717
7.591198
0.743731
-2.432743
9.146367
10.467217
1.626253
0.138295
-1.107473
6.709851
5.607175
3.525820
1.757507
-1.610898
-6.422925
6.892384
-11.867416
0.156221
1.818687
5.892237
-0.046607
1.365941
7.141558
-1.036097
1.655323
2.616911
8.616839
3.462748
-8.302781
1.796755
-7.212576
-2.500379
-1.315597
-0.220936
-0.561518
3.048259
-0.650483
-5.299256
-7.581537
5.293292
-8.046601
-2.455108
-0.603155
-7.521125
2.558969
-3.285552
-0.496209
7.996566
7.647805
-2.860693
0.887920
4.304090
7.483022
2.044023
-5.639860
-9.417789
0.404796
13.337450
5.866556
3.528188
3.529818
0.573201
-0.617956
1.195720
-0.188135
3.352624
5.735498
-2.361036
0.760574
-1.148393
4.471404
3.785391
-5.303403
-6.532114
-1.073542
-1.560258
8.045366
0.608966
-4.674486
3.511992
-4.655802
-5.067384
-5.490608
-2.854664
-2.174619
-4.305852
-5.625632
-0.401535
7.685630
-3.387557
0.777444
4.907143
-0.967601
-2.552736
-6.232560
-4.201337
0.484025
-10.122769
7.167455
-9.917995
2.474642
3.461021
-0.325920
0.498286
-1.881625
-7.786176
-3.291162
2.661865
8.244270
-24.934540
1.071356
-7.202864
4.544317
4.678166
2.355253
-0.688973
9.344506
-0.240266
2.725445
-1.809066
-1.742966
5.246317
-7.689841
6.121311
4.512137
3.048734
7.388559
-2.016525
2.790082
-4.890222
3.166680
4.004899
7.888026
0.408998
-6.535797
3.350771
7.382012
-8.134299
-4.798289
-9.635153
-2.282680
6.919123
-8.535289
5.887437
3.579350
-5.922150
-6.488198
9.359811
-5.247432
0.952700
-4.137901
3.467348
0.274552
-8.752677
22.126943
4.209952
4.253672
9.299841
0.298568
-5.250539
7.503411
-1.435466
11.440704
-1.662244
2.641160
6.295906
6.872941
-6.818144
-3.955824
0.665080
8.543043
-2.728105
-0.037819
2.455483
3.657096
5.125052
-5.968425
11.068470
3.436983
-9.186372
10.351233
4.555118
0.568212
-2.083128
3.121210
-9.491183
-5.560569
-0.805563
-7.989084
-0.824941
-6.580232
-5.619998
-0.360010
6.461245
-8.834080
-3.408803
-2.980788
-5.735867
4.187165
-2.541228
-1.463210
-7.044364
-5.281611
-7.225148
-6.113690
13.285647
0.686212
-9.409220
3.558782
-4.383065
0.134146
13.558124
4.511938
11.995238
-9.594015
8.019730
-5.585197
6.702519
-0.837193
-4.716621
-4.884835
-6.687952
5.208501
4.097241
-3.681354
1.782180
-9.525438
1.009098
9.640323
4.514903
-2.065385
5.966176
9.146314
-9.938160
-0.966392
-5.282150
6.276387
-4.775219
-4.699539
-5.289087
6.220211
7.502306
-6.144150
-3.285808
6.028211
1.078308
4.651965
3.987463
-2.118054
-7.597248
-1.795425
-4.967166
1.037200
-6.178021
9.722197
-6.452233
-10.021449
-1.838481
-6.077887
20.243749
-10.947293
7.638350
2.897605
-0.489749
-4.511140
9.033469
-4.138292
-7.416550
0.958014
3.868060
-11.248564
-5.372298
-0.953423
-3.623865
-0.013128
-6.340081
-3.961896
-0.619815
-3.796468
3.899493
2.712549
1.324699
4.843188
-2.677493
4.813569
-3.495359
-3.256771
5.888223
1.831013
-4.583501
3.876217
-4.186410
1.511486
-9.972977
-4.677930
2.883188
-4.043241
-8.609475
12.350307
2.243699
6.178704
-3.403314
-9.629265
7.981606
5.422273
-3.157013
0.828427
-5.606362
2.087661
12.928856
1.252578
1.030249
9.871825
4.754828
2.183930
4.007965
1.146603
4.309295
8.037364
6.951607
-7.382342
-3.113891
-3.395717
2.101471
1.128905
10.154259
-5.671172
5.734346
-6.150891
-5.873237
4.581043
-0.388301
-4.639197
1.659479
0.840634
1.610824
8.375618
8.973341
0.504744
-0.982741
0.655234
5.439350
-2.039208
-1.690671
-6.878526
-0.353409
-10.677577
-3.085370
15.065891
-9.505944
5.854713
1.030554
-9.395787
21.007884
4.759622
-8.467303
-10.658292
5.883302
1.280116
0.040413
0.598379
-4.810557
7.736582
3.691093
7.890119
7.032121
2.993823
1.492193
-2.423396
3.241686
1.296786
-1.955374
5.502762
3.516572
1.797376
-4.570993
2.801156
-8.469753
4.870959
-0.724729
-11.383310
-5.766965
-6.472035
-3.104605
5.604981
-15.249436
-1.059052
7.992885
-4.955073
-7.996019
6.943305
-2.032850
-7.252972
-4.981766
2.813717
1.519481
-5.338441
-3.095884
-7.405886
-1.339014
0.415415
8.776336
10.222892
2.693192
2.968104
7.014855
-9.763645
6.815883
-0.764532
3.836902
4.397358
6.037561
-2.661792
6.851687
9.493933
0.684506
-8.371963
-2.842183
5.045713
-11.875318
-3.710029
-4.185226
0.480680
1.212243
3.022129
-3.501738
5.891639
3.617082
7.832823
-5.630211
-8.036624
5.343362
-2.928864
2.375401
-7.184495
5.343028
-7.425163
-7.329236
3.726285
-5.630136
-7.038089
3.103833
5.184119
-0.832670
5.740465
-3.918788
4.380619
0.491502
11.798228
7.883891
5.434723
3.471512
2.658353
2.292728
-7.001819
2.585014
1.706222
-3.842448
-9.350420
2.571554
-0.866374
-17.136689
-5.090284
3.150024
-2.996244
-9.829828
1.318248
12.705518
-7.090377
-1.919801
4.256356
-8.089416
-5.593312
-10.188745
-6.139201
-1.182035
4.151998
6.314391
-6.794478
4.278894
2.114986
-1.345732
-9.840421
1.443333
-4.711216
-4.362503
-1.184787
-2.621599
3.063277
-3.696003
-4.784402
2.503963
-12.190696
-0.779716
-14.675155
3.666902
2.823901
5.196901
-5.293918
11.516984
-0.034440
-3.610983
-0.879157
-6.154361
5.302455
-2.280058
8.665664
-2.248667
3.359429
-2.451861
3.344539
1.645566
10.977416
-3.241762
-2.337235
4.841760
-8.966355
-5.587514
-5.964478
-6.506977
5.053416
-6.296983
3.207623
0.075981
-5.810466
-7.021008
-4.402097
2.262517
-4.528470
-1.708571
4.507909
-4.736896
6.467701
1.740064
-9.036354
9.018290
5.740350
-66.728227
-5.430725
8.083495
-1.387486
5.191193
-1.007161
7.986964
6.638287
7.003616
-7.880332
0.227088
1.469693
0.619869
-1.655918
-5.852171
10.791572
2.677110
0.488464
1.593319
-6.611638
-0.511831
2.269052
1.345902
6.208170
2.308603
10.398475
-5.308155
-0.979903
8.141762
7.178459
6.254511
-0.102237
11.473574
-1.599183
2.893635
2.208055
3.284593
3.978169
-2.231785
-9.146118
2.019344
-5.782547
2.780159
3.321593
1.711836
3.877638
-1.795668
-4.412401
8.842744
-5.038711
-3.380530
3.068978
5.333004
0.079863
-2.499740
1.155507
5.456515
-3.177720
-9.016741
-1.929841
-2.363023
1.700703
6.727763
-1.751002
-10.720231
-7.443832
-0.658612
-6.602863
-1.566268
-6.492235
7.329673
7.334196
-5.052891
10.032719
-2.286460
-0.283737
10.954486
-3.593684
-1.742208
-5.822421
-4.246311
-8.856977
8.079868
-8.443763
7.328006
-3.175708
-4.856952
-0.764498
-4.710355
-3.088593
0.989316
-5.143598
8.832132
-7.982904
3.016746
6.083162
3.343285
-6.984414
-3.635854
-0.925904
5.996517
-14.018624
-12.302014
3.722043
9.242293
-11.995473
6.965106
11.673546
-11.164705
-0.714779
-2.306124
-5.011113
-2.061418
-10.118351
-6.733532
8.354510
-1.535912
4.186322
4.648039
13.500329
4.199720
-5.677717
-8.118325
4.832185
1.551238
0.080390
2.021696
7.584119
0.993963
-9.391956
-0.219588
-1.584746
4.946236
2.912196
-4.554798
3.879654
11.324790
2.405805
-9.931822
5.290314
-5.781796
-1.870058
-7.628048
-3.676210
-9.781001
7.988491
-4.989542
-5.799159
3.537503
0.981201
-3.474259
-2.111802
7.510948
-7.479642
-7.155694
3.789039
2.237247
-1.191504
16.656688
2.139057
-2.075608
-7.612715
1.874687
7.134168
-0.918030
2.551173
2.835275
3.959625
-5.086978
-7.502236
-4.976893
-5.383067
-8.974406
-4.459625
1.425288
8.506685
-13.759961
-3.309565
-4.529162
0.220830
-1.707394
-4.646406
2.475518
3.584518
0.415478
-3.409807
-0.468433
6.559571
3.946227
-5.331009
3.914771
-6.281532
5.778582
-2.360878
-7.555623
-5.080694
-2.501799
0.013636
19.027169
-3.783432
7.705240
-2.161099
-0.481206
-2.405256
0.054403
-1.887920
3.850380
3.405778
9.525058
6.383563
-2.642246
-10.024119
2.053377
-11.622392
3.200385
7.362629
5.168637
-0.103850
-4.168422
5.831694
10.416447
-7.513895
-3.593078
4.028503
3.850502
-3.196795
0.937722
-7.066095
6.916108
-12.642122
-3.353160
3.853906
-9.265503
-2.937066
-5.499776
8.010068
-13.525894
3.670526
-4.663594
-5.817689
6.071898
1.441441
4.940864
0.813494
-12.695844
0.719935
4.729346
17.878829
-3.347558
4.606759
6.645349
1.416812
-6.225648
1.325087
-6.783693
1.338630
2.216907
3.800270
-5.595791
0.277663
2.045905
-25.433537
4.044306
7.509273
-6.936112
-9.790976
2.746697
-1.223823
-1.556281
-2.686095
-2.332099
12.316603
2.547102
2.096728
-8.490547
12.162794
-3.197092
1.872045
-11.353484
2.439301
1.834242
2.244345
0.035224
-5.597926
-7.141516
-1.019888
-3.064898
7.547889
-1.749551
-12.099467
5.919513
-1.904544
-2.257190
0.731345
-2.895577
2.095174
1.582348
3.223721
-2.372722
5.147064
-1.126533
2.396585
-0.014842
14.966618
-3.636183
-1.254060
6.769443
-9.014529
-1.643494
2.387678
-4.982963
1.322496
-7.209370
4.025078
8.112660
5.015824
-6.986117
8.346396
2.186033
1.342900
3.599797
3.973500
-4.575847
3.026731
-5.920270
-5.931751
3.324760
9.572116
6.283322
-2.860851
-6.281054
-1.637579
-6.641769
-5.696827
5.673431
1.841535
-8.796599
8.355001
8.225328
5.474493
7.589743
-1.597575
9.369605
9.079316
-0.648768
-0.436703
9.909957
-2.452891
-12.781255
9.728848
-2.890267
-4.179930
-4.226763
-0.490201
7.758806
-5.990375
6.621078
-6.953332
8.003664
-3.921452
-8.418759
-5.537323
4.180129
0.272205
-14.191632
-3.682719
11.226175
0.519480
3.075854
-6.732013
3.255188
-5.695118
-4.621027
3.072985
8.230790
1.497564
-0.472524
1.932304
-9.080901
-9.672071
2.301092
-2.707418
-3.282819
9.543623
-4.105653
-5.509805
8.971144
5.199063
2.418564
2.424833
6.765356
-10.675812
-4.329307
5.745115
-10.264116
-1.377466
2.698709
0.765465
-4.456497
-4.076696
2.018083
10.669115
2.826185
-4.396737
2.964639
-4.516417
-4.672474
4.421334
-1.003554
5.415224
0.608561
0.624196
-2.243855
4.853980
-0.557840
0.782079
4.532747
-3.752122
-4.137039
-9.425575
8.130922
-1.309994
-4.076213
-6.690864
4.698217
7.212547
4.647821
7.040041
-2.263381
7.618791
0.816064
-3.705658
5.469789
1.681232
2.895918
-1.306367
-6.004992
-6.860797
7.040428
14.097708
6.408004
3.752446
6.973684
-2.444540
5.153779
-9.919399
-3.238238
2.700051
-0.321555
-2.396040
3.261387
-2.216512
2.591666
-7.600272
-0.745850
-3.198566
-0.837660
7.269335
21.774994
6.934077
3.790312
7.321310
7.416209
3.580190
8.812682
-3.279789
-11.348666
6.615157
8.516913
-9.810466
-7.989988
4.040592
-1.610289
-0.806094
0.689847
-7.511101
7.675515
-1.965594
-12.520185
-8.591365
-4.707462
-6.556341
-7.189312
-7.981964
4.468151
-6.420038
-6.220888
-5.409242
6.497783
-2.259217
0.645362
0.978944
-0.355633
-0.030689
-0.775072
-0.469099
-0.977099
0.853742
0.881285
-0.746711
0.889968
-0.573591
0.465091
0.810738
-0.728336
-0.838239
-0.351775
-0.663474
0.783049
0.702038
0.689110
0.607766
-0.108480
-0.343045
0.697776
-0.702019
0.698759
0.421919
0.984876
0.960788
-0.109798
0.780307
0.002118
-0.487308
0.474076
-0.911357
0.847490
0.337832
-0.062467
-0.128467
-0.004847
0.103669
0.987171
0.423000
-0.590347
0.916855
-0.871651
-0.033958
-0.763885
-0.741818
-0.261844
-0.717918
0.406305
-0.963942
0.335963
0.065291
-0.941948
0.705359
-0.673966
0.464250
0.734323
0.964214
-0.559328
0.478838
0.643116
-0.932291
0.471977
0.547132
-0.236922
0.725048
0.956713
-0.356622
-0.748492
-0.784946
0.309779
0.883758
-0.063987
-0.753348
-0.770083
-0.869419
0.339770
-0.846426
-0.742976
-0.920805
-0.228550
-0.435500
0.043810
0.736838
0.923462
-0.243508
0.239647
-0.927520
0.660969
0.789331
0.111626
0.554246
0.186991
-8.715138
-0.586434
0.209746
-0.274636
-0.263281
-0.449467
0.375510
0.346966
0.003929
-0.568819
-0.607674
-0.656135
-0.192815
0.077638
0.877148
-0.910537
-0.135890
-0.197345
-0.378642
0.571865
0.152349
-0.919817
0.216140
0.940370
-0.364887
-0.055467
-0.800835
0.870992
-0.098880
-0.807109
0.256339
-0.108275
0.287365
0.764511
-0.929123
-0.285825
0.890302
-0.279623
0.699225
-0.306447
-0.231794
-0.755931
0.759904
0.324929
0.315952
0.430779
0.822857
-0.582843
-0.250522
0.836149
-0.891719
-0.220366
0.575779
0.988076
-0.963418
0.692208
0.062106
-0.029279
-0.531923
-0.389414
-0.794080
-0.342439
0.120173
-0.556912
-0.886385
-0.378463
0.229670
0.713493
-0.886293
-0.968094
0.602462
6.251462
0.282591
-0.916695
0.117336
-0.242440
0.547823
0.248586
-0.367202
-0.017395
0.368045
-0.149746
0.584308
-0.454976
0.502384
-0.116575
-0.941835
0.695586
0.204494
-0.835982
0.181495
-0.269981
0.711762
0.546001
0.002696
-0.356409
-0.595726
-5.133480
0.781233
0.619118
-0.937822
0.397728
-0.012716
-0.638833
-0.301995
-0.992706
0.420450
-0.568000
0.648399
-0.434469
0.777866
0.060311
-0.297447
0.837954
0.760351
-0.626097
-0.867014
0.394088
0.383641
-0.981662
-0.008329
0.007147
0.759814
0.845298
-0.964498
0.802044
0.848141
0.428528
0.414725
0.238137
-0.604869
-0.890114
-0.364770
0.883045
-0.717106
0.928400
0.878504
0.694140
-0.166637
0.903076
-0.830583
-0.777152
0.420679
-0.497606
-0.964021
-0.985047
0.591706
-0.990306
-0.450279
-0.215447
-0.217366
0.175182
0.186909
0.886951
-0.765159
-0.121239
0.293954
0.911464
0.311740
0.531899
0.123198
0.944986
-0.528135
-0.969122
-0.411589
0.907779
0.319841
0.420144
0.519617
-0.063288
-0.919714
-0.082691
-0.629014
0.880598
-0.982329
0.220920
-0.995339
-0.280526
0.061480
-0.597411
0.937522
-0.373812
0.614058
0.462084
-0.696707
0.711610
0.956621
0.220935
-0.363603
-0.868429
-0.910733
0.441396
-0.778225
-0.346032
0.929546
-0.342806
0.486626
0.073680
-0.914999
0.135567
0.759162
0.867657
-0.961360
-0.975292
-0.480109
0.454499
0.769903
-0.707204
0.647678
0.894395
0.001697
-0.061427
0.358647
-0.146122
-0.174262
-0.082832
-0.267362
0.827910
-0.439106
0.660042
0.068329
-0.200620
0.477614
-0.594344
-0.472415
0.289163
-0.775066
0.438855
0.393395
-0.953259
0.509179
0.686319
0.707540
-0.319429
-0.062876
-0.537483
-0.354229
0.413373
-0.937357
-0.740412
-0.908355
-0.530944
0.776432
-0.937186
0.541960
0.449813
0.027442
-0.340659
0.333019
0.536249
-0.263022
-0.935922
0.901510
-0.419500
0.336706
-0.449219
0.439845
-0.212368
0.150271
0.271657
-0.313321
-0.733532
-0.857816
-0.316343
0.075746
0.991808
-0.907940
0.105742
-0.328084
0.902800
-0.483593
0.477664
-0.683112
-0.358730
0.385759
0.071532
0.762494
0.912761
-0.609571
0.121986
0.043736
-0.331690
-0.852430
0.383252
0.897672
-0.500280
-0.493180
-0.078059
0.535859
-0.437023
0.457760
0.130923
-0.326434
-0.501095
-0.045073
0.305372
0.856362
0.086356
-0.707833
-0.053891
0.466146
-0.534801
0.230469
-0.704345
-0.614336
-0.198813
-0.149753
-0.617719
-0.387113
-0.450239
0.309935
-0.691395
-0.309307
-0.239062
0.831942
0.660279
-0.987201
0.669146
0.246591
-0.123687
-0.950135
0.862322
0.065398
-0.448511
0.194604
-4.947095
-0.993220
-0.202833
-0.699871
0.951515
0.725545
0.092722
-0.884842
0.630345
-0.897426
0.590066
-0.818197
0.586596
0.126734
0.556100
0.292708
-0.413916
-0.140278
0.215672
0.540495
0.990244
0.076634
-0.727690
-0.202410
-0.678954
0.556049
0.348783
-0.972754
0.526296
-0.549933
0.836156
-0.240399
0.294305
0.136495
-0.337597
-0.131486
-0.193467
0.847133
0.148478
-0.913134
0.829310
-0.550373
0.281533
0.017803
-0.629294
-0.879436
-0.801024
0.755344
-0.655525
0.372152
-0.424442
-0.783198
0.150128
0.906928
0.435461
-0.099604
0.647219
-0.753033
-0.050674
0.458239
-0.503200
-0.042368
-0.156864
0.234232
-0.961232
0.267701
0.352501
-0.179186
-0.655676
-0.192702
0.256542
-0.108038
-0.407489
-0.140709
0.350882
-0.701551
-0.788898
-0.945020
-0.979926
0.038766
-0.189477
0.668672
0.076385
-0.442108
0.532639
0.056526
-0.751554
-0.412104
-0.332033
4.732994
-0.698957
0.129233
-0.573427
-0.140761
0.441383
0.490765
-0.933470
-0.419995
0.069466
0.806933
-0.242033
-0.853996
-0.727788
-0.310948
-0.343888
0.096090
0.881937
-0.175693
0.573825
0.964237
-0.951233
0.949456
0.799793
0.310565
-0.892561
-0.738085
0.851058
0.883454
0.638295
0.776044
-0.725241
0.634025
-0.073115
-0.005208
0.965158
0.028044
-0.745588
0.506215
0.062309
0.969020
-0.728297
0.097516
0.252995
0.232473
-0.410188
-0.315096
-0.150177
-0.941723
-0.582987
0.001259
0.850790
0.781973
-0.217361
0.040875
-0.037175
0.577585
0.022160
-0.360811
-0.229007
0.564648
0.110111
0.062806
0.039944
-0.289387
-0.312795
-0.933684
0.883508
0.299135
0.454326
0.302536
0.226511
0.692287
-0.992940
-0.628028
-0.186543
-0.911223
-0.449817
0.617829
0.278576
-0.237926
-0.313707
-0.855842
0.950202
0.472378
0.473053
0.452249
-0.683765
-0.172823
0.739004
0.459690
0.948101
-0.928237
0.228545
-0.486398
-0.359328
0.860435
-0.080382
-0.305770
0.122006
0.558764
0.191675
-0.958627
-0.688353
-0.603103
0.760513
0.968342
0.583104
0.917283
0.876875
0.528284
-0.036834
-0.029640
-0.087947
-0.520040
0.410257
-0.755393
-0.342236
0.122816
-0.791636
-0.371470
0.849780
0.773642
0.000812
-0.708372
0.440257
-0.255438
0.563354
-0.581605
0.456469
0.403065
-0.984866
0.623981
-0.722185
0.215651
-0.741961
-0.007481
-0.377116
0.960502
0.558811
0.679297
0.974405
0.183908
-0.823797
-0.864053
-0.588659
0.607578
0.587232
-0.862959
-0.880833
-0.733669
-0.250982
-0.980714
-0.896451
0.836474
-0.969613
-0.601747
-0.895199
0.022170
0.357320
0.215107
-0.016727
0.137764
0.025369
0.059946
0.909868
0.665399
-0.902640
0.937933
-0.630939
-0.277926
1.164074
-0.456863
-0.716449
-0.810783
-0.110854
-0.234359
-1.142783
-0.624985
0.956117
0.969817
-0.690905
-0.106806
0.321391
0.369214
-0.898573
0.995402
0.175960
-0.849292
0.671695
0.783875
0.318738
-0.580376
0.054093
-0.383255
0.147490
-0.864669
-0.641173
-0.994107
-0.231017
0.268683
0.759405
0.646980
0.266893
0.050710
-0.585423
0.881305
-0.645265
-0.440653
-0.386144
0.959527
-0.527970
-0.537783
-0.715966
0.790602
-0.722033
0.288284
0.111654
-0.665509
-0.708975
-0.584940
-0.256684
0.338213
0.234226
0.541869
-0.974145
0.793138
7.485037
-0.300054
-0.267819
-0.393404
0.884130
0.638475
0.401637
-0.275617
-0.050810
0.882107
-0.571630
-0.861517
-0.242885
0.125397
-0.968836
0.081728
-0.439688
0.303971
-0.162524
0.597604
0.886368
0.851763
-0.559704
0.882530
0.033835
-0.867041
-0.815895
0.828119
0.934731
0.439224
-0.540789
0.729326
0.003387
-0.350739
0.121749
0.176118
0.887544
0.968337
-0.128392
-0.257958
-0.997856
0.091595
0.670930
-0.370427
-0.974733
-0.903884
-0.241711
0.684876
-0.475696
0.532683
0.762045
0.966886
0.971763
0.269887
0.128221
-0.766961
-0.895821
0.475350
0.524201
-0.654644
0.858520
0.511270
0.369707
-0.357991
-0.593728
-0.185538
0.493901
0.953921
-0.495338
-0.280225
0.711053
0.575934
0.538454
-0.952063
0.603055
-0.996643
0.365904
-0.212434
0.971501
1.019713
-0.832301
0.592279
0.327162
0.404301
0.612350
-0.658276
-0.060524
-0.580783
0.590439
0.450617
0.963672
-0.696503
0.283270
-0.043373
0.897212
-0.492529
-0.120016
0.368080
-0.529636
-0.791717
0.652260
-0.530149
-0.399164
-0.109998
0.422589
0.771855
-0.269716
-0.519978
-0.444823
-0.729273
-0.137166
0.852604
-0.385590
0.661962
-0.761635
0.033172
0.395546
-0.393571
-0.020450
-0.803579
0.891829
0.286353
-0.225062
0.410807
0.143947
-0.726252
0.245402
0.999787
0.425899
-0.723974
0.894309
0.292529
-0.367615
0.651606
-0.849525
0.083304
-0.175482
0.045533
0.482472
0.283697
-0.495855
-0.640034
0.423878
-0.702590
-0.371294
-0.007043
-0.901296
-0.964349
-0.919780
-0.581695
0.398369
0.665777
-0.499295
-0.263173
0.102745
-0.281886
-0.859644
-0.201216
-0.402291
0.297036
0.087337
-0.373117
-0.425702
0.577398
-0.132943
-0.533544
-0.081325
-0.314201
-0.284402
0.272931
0.446450
0.338397
-0.442876
0.749075
0.990745
0.829610
0.265517
-0.709595
-0.134282
-0.376802
-0.649327
-0.339633
0.099412
0.967662
0.938774
-0.939424
0.376923
-0.255800
0.117211
-0.634157
0.841197
0.122971
0.498128
0.955089
-0.118075
0.995446
-0.791837
0.004038
-0.806151
-0.274227
-0.093541
0.778291
0.920649
0.860636
-0.345405
0.165103
0.503090
-0.143654
-0.030951
-0.802451
0.714501
0.990317
0.647391
0.720743
-0.395112
-0.233428
0.253785
-0.618936
0.353356
0.833980
0.461575
-0.474389
-0.468033
0.277261
0.799054
-0.572833
-0.559963
0.521288
0.458859
0.821845
0.275706
0.702076
0.713182
-0.018690
0.907105
0.041097
-0.723034
0.642631
0.427259
-0.688869
-0.361882
0.078523
0.929101
-0.901720
-0.901576
0.281711
-0.016697
-0.323858
-0.967808
-0.999964
-0.475047
0.843713
-0.546245
-0.342332
0.061188
-0.951788
0.748276
0.664738
0.283777
0.946462
-0.968710
0.253910
-0.240221
-0.727983
0.975267
0.235172
0.610800
-0.000961
0.411412
0.343987
0.288907
-0.454245
-0.458870
0.616057
-0.322732
0.017710
-0.713964
0.818548
-0.761991
0.375499
0.671350
0.670810
-0.901678
-0.826113
0.468348
-0.036598
0.863501
0.453114
-0.676839
-0.734794
-0.442967
0.118675
0.519580
0.713118
-0.357948
0.967100
-0.427894
0.549775
-0.417411
0.849226
-1.023013
-0.564635
-0.810619
0.398112
-0.614233
-0.325940
0.441404
0.322213
0.322345
-0.542969
-0.789853
-0.051978
-0.765315
0.142221
-0.919968
-0.131052
-0.282841
-0.032267
0.685106
0.589792
0.500975
0.560451
-0.154569
-0.152330
0.190449
-0.212832
0.088899
0.654383
-0.209128
-0.714684
-7.289452
-0.146853
0.837042
-0.835056
0.578737
-0.560205
-0.212974
0.133581
-0.618783
0.760784
0.373421
0.864556
0.939328
-0.829187
-0.321325
-0.217142
0.273961
0.421863
0.179234
0.812498
0.099877
-0.682246
-0.601431
-0.722122
0.772096
-0.158764
0.332588
-0.758433
-0.806550
-0.147395
0.837750
-0.603759
0.496710
0.824293
0.790839
-0.637713
0.335615
-0.828345
0.098989
0.288396
-0.486142
-0.861537
-0.819698
-0.281657
-0.819115
0.055065
0.436435
0.399709
0.833764
0.858534
0.798465
-0.251036
0.867748
0.652065
-0.677446
-0.032826
-0.345597
0.174228
0.523392
0.071772
0.879429
-4.997910
0.197488
-0.352991
0.305106
-0.770728
0.294784
-0.205617
-0.228162
-0.779802
-0.633021
0.003759
0.206273
0.816481
-0.934682
0.348893
-0.966633
0.817260
-0.953042
0.434448
0.279699
-0.197446
0.461600
0.977305
-0.307929
-0.503862
-0.664743
-0.378606
0.212249
0.540048
-0.884078
0.645253
6.612544
0.923240
0.447686
-0.639667
-0.865031
0.716724
-0.694679
0.371927
0.535553
0.571774
0.793432
-0.473954
0.977440
-0.890521
0.190151
0.164996
0.290577
0.087445
-0.149321
0.692565
0.273949
0.500002
-0.788129
-5.964464
0.141220
-0.850978
0.930725
0.067203
0.753656
0.425650
-0.677058
0.617016
0.613769
0.472903
0.964620
0.414520
-0.934678
-0.103780
0.335646
0.935320
-0.157409
-0.029337
-0.934386
-0.831776
-0.213542
0.954054
0.272930
0.190989
-0.770473
0.745209
0.849542
-0.277904
0.436604
-0.662573
-1.080694
-0.611773
0.616131
0.241303
0.630855
-0.608160
0.655866
-0.579638
-0.825097
-0.904963
-8.648143
-0.034811
0.186613
0.052975
-0.841887
-0.122838
0.857006
0.723485
0.939810
0.781572
-0.154007
-0.808478
-0.041782
0.034006
0.079349
-0.227072
0.730638
-0.090956
0.637980
-0.931327
0.446455
0.080325
0.544431
-0.911926
-0.378536
0.197603
-0.342540
0.047847
0.594541
-0.635903
0.571412
0.988612
0.503579
-0.754102
0.855400
-0.449516
-0.075043
0.938347
-0.533600
0.496384
-0.807300
0.314157
-0.260671
-0.721813
0.594196
-0.039023
0.907967
0.340507
0.571698
-0.815661
0.978151
0.586845
-0.333913
0.976858
0.213177
0.390264
-0.859263
0.010254
-0.338653
-0.959403
0.910074
0.683206
0.276274
-0.615156
-0.194792
0.322304
0.133737
-0.990413
-0.147508
0.222246
-0.148780
0.265765
-0.207651
-0.228282
0.696355
0.874914
0.613335
-0.456512
-0.399839
-0.871173
-0.440340
-0.276700
-0.216269
0.137326
0.226944
-0.386988
-0.539506
-0.850697
-0.505934
0.743696
-0.652537
0.582690
-0.637951
-0.454060
-0.254189
-0.833229
-0.596298
0.772582
0.239612
-0.642214
-0.495616
-0.532041
-0.354206
0.137779
-0.615681
0.161019
0.959709
0.791247
0.409024
0.035391
0.365954
0.177139
0.984406
-0.330733
-0.150717
-0.967840
-0.108820
0.834935
0.355465
0.139885
0.465635
0.008973
-0.982820
-0.746372
-0.818865
0.146564
0.009170
0.097609
-0.402313
0.256851
0.807784
0.909042
-0.371248
-0.341664
0.721987
-0.861143
-0.607693
0.741397
-0.692119
-0.453071
-0.738347
-0.143373
-0.407168
0.551857
0.016587
0.663777
0.581929
0.219860
-0.734268
-0.415736
0.988396
-0.453900
-0.411325
-0.897940
0.101880
-0.483532
0.955368
-0.818333
-0.146961
-0.302782
0.510502
-0.749680
0.118320
0.104094
-0.415478
0.082855
0.090821
-0.943415
-0.700959
-0.347110
0.656318
0.971514
-0.630309
-0.864355
0.075976
0.590319
0.060375
-0.203768
0.422299
-0.853711
0.375627
-0.340898
-0.434455
-0.216636
0.835879
0.661422
-0.331170
0.951912
0.251373
0.440897
0.735393
0.972824
-0.137266
-1.048761
0.341842
0.713116
5.792759
0.979738
0.482148
-0.300589
-0.529074
-0.907776
-0.891651
0.017552
-0.862610
-0.671089
-0.623543
-0.318060
-0.392974
0.112977
0.712529
0.875619
0.541704
-0.599699
-0.296826
-0.698270
-0.844785
0.239698
-0.411771
0.182593
0.114871
0.553464
-0.379824
-0.939339
-0.413864
0.023442
-0.777407
0.674778
-0.947140
-0.277902
-0.389231
-0.472618
1.083043
-0.234358
-0.186314
0.163408
-0.241723
-0.422767
-0.603114
-0.941743
0.336790
0.336747
-0.602784
-0.278975
-0.901593
0.646891
-0.422116
0.074957
0.925928
0.671044
-0.957089
0.044590
-0.568372
0.627659
0.913859
-0.125764
0.869761
-0.524569
-0.746081
-0.383297
0.944486
-0.166330
0.209495
0.382698
-0.109780
-0.866398
-0.031500
-0.573111
-0.682250
-0.294483
-0.379623
-0.032580
0.114734
-0.063017
-0.422926
0.485316
0.678934
-0.455831
0.523137
0.053401
0.733578
0.686215
-0.758170
-0.470681
-0.477677
0.286219
-0.166251
-0.980444
0.686340
-0.823247
-0.958960
-0.011307
-0.189838
-0.748297
-0.520842
-0.398854
0.821967
0.166234
0.613889
-0.678506
0.530883
-0.540596
0.088207
0.086182
-0.500079
0.330890
-0.938840
-0.838826
-0.102257
-0.652665
0.046825
0.234286
0.282819
-0.165639
-0.001226
-0.412526
-0.923700
-0.668485
-0.749358
-0.038279
0.818861
0.265902
0.981763
-0.801833
0.359854
-0.781486
-0.355848
-0.667763
0.229114
0.598288
0.908129
-0.347642
-0.378828
-0.271839
0.249203
-0.443348
0.544953
-0.550708
0.671348
0.863068
0.138189
0.388373
-0.122786
0.043967
-0.396454
0.572025
0.267658
2.065316
-0.425534
-0.490623
-0.852302
-0.356836
-0.306712
0.628325
0.975820
0.796587
0.580037
-0.939459
0.924683
0.335662
0.356249
0.306096
0.165387
3.862358
-0.456736
-0.056114
-0.806913
-0.655009
0.816734
-0.093784
-0.789006
-0.711068
0.725518
0.002959
-0.797175
-0.085219
0.968177
0.205955
-0.686362
-0.123191
0.751460
-0.300911
-0.462198
-0.058992
-0.472969
-0.185037
0.456476
-0.113473
0.641875
3.443793
0.251816
0.606502
0.605776
-0.782269
-0.657505
-0.000280
-0.964875
0.794284
0.389838
-0.836715
-0.226249
-0.399099
-0.063068
-0.193049
0.363341
-0.633773
-0.681468
0.482495
0.036020
-0.745247
-0.867629
0.251025
0.371729
0.524908
0.147995
0.480006
0.363936
0.192359
0.260179
0.289628
0.670150
-0.843446
0.774473
0.427898
-0.971257
0.727727
0.545104
-0.892920
0.554709
0.689064
-0.734671
-0.310082
0.926746
-0.522051
0.363140
-0.691866
-0.090739
0.688236
0.296740
0.460287
0.564628
0.354426
-0.561387
0.197679
0.933241
-0.002478
-0.375854
0.250440
0.245298
-0.945799
0.567280
0.773171
-0.700867
-0.084113
0.679211
-0.530046
0.701653
-0.981973
-0.337656
0.219645
0.780842
0.597366
-0.515340
0.830784
-0.225125
-0.859437
0.729485
-0.577086
-0.550214
0.282853
-0.355857
0.087522
-0.030752
-0.114872
0.550506
0.359191
0.463051
-0.956189
0.525969
0.250556
-0.657239
0.915104
-0.573755
0.165725
0.492331
0.889322
0.606007
0.646549
-0.219575
0.838364
-0.609663
0.516151
-0.956214
-0.097912
0.684547
0.373357
0.686466
-0.710888
0.134352
-0.863388
-0.872669
-0.401981
-0.946044
0.468513
-0.888727
-0.866477
-0.484811
-0.394529
0.877054
-0.956892
0.047430
-0.700977
0.835597
-0.649532
0.754263
0.832967
-0.193077
-0.294519
0.147874
0.073994
-0.041841
-0.041089
-3.942079
-0.143035
-0.667155
0.053704
0.099729
0.351156
0.722320
-0.448243
0.716575
0.876095
-0.077011
-0.678080
-0.320136
0.577965
-0.579729
-0.821073
-0.768814
-0.080166
0.277389
0.318776
0.870875
0.862349
0.369759
0.737814
0.775213
0.369616
0.899495
0.003087
-0.719433
-0.568590
0.562026
0.196976
0.597909
0.338787
0.616214
0.849171
0.077448
-0.014611
-0.063694
-0.871804
-0.949063
-0.223847
-0.909710
0.947058
0.852633
-0.461813
0.746116
-0.495159
0.165187
0.728780
0.338555
0.262742
-0.396614
0.820873
0.704204
0.676909
-0.760469
-0.635875
-0.040572
0.164743
0.721575
-0.755161
0.263714
0.468760
-0.638894
-0.327715
-0.961202
0.490859
-0.517067
-0.890959
-0.649792
-0.514866
0.614276
-0.928373
-0.971983
0.825391
-0.007649
0.960476
-0.872800
-0.553243
-0.323966
-0.021495
0.764717
0.005360
0.350725
-0.609462
0.027819
-0.692030
0.000956
0.660587
0.134872
-0.222030
0.000889
-0.924307
-0.223061
-0.371776
0.389373
0.367425
0.864844
0.344144
0.136169
0.797886
0.853689
-0.446862
-0.264161
0.844754
-0.527885
-0.466926
-0.606947
0.486696
0.146929
-0.099333
-0.673640
0.704997
-0.732342
9.067844
0.054019
-0.392782
-0.573359
-0.608404
-0.516435
-0.528542
-0.335413
0.142953
0.568384
0.895560
0.634857
-0.979694
-0.534192
0.150770
-0.533708
-0.389891
0.831203
0.417623
0.640952
-0.691449
0.326619
0.645095
-0.394802
0.494302
0.374647
0.256356
0.400630
-0.640127
0.164423
-0.093048
0.957332
-0.426978
-0.099167
-0.045184
0.505835
-0.315265
0.904526
-1.042925
-0.231238
-0.977294
-0.876632
-0.707360
0.526551
0.639404
0.355157
0.267983
0.319882
-0.573748
0.802555
0.705557
0.629006
0.824510
-0.384804
-0.787430
-0.353437
-0.808446
0.351475
0.690631
-0.967681
0.854366
-0.912156
-0.041795
0.136131
-0.700564
-0.732071
-0.639958
0.810360
0.182431
0.743773
-0.343265
0.569981
-0.722841
-0.861341
9.961577
-0.485137
-0.316792
0.047763
-0.268624
0.828254
0.745865
0.415399
0.203534
-0.211327
-0.524165
0.791912
0.289640
-0.912041
0.139873
0.768521
-0.625620
-0.651603
0.316555
0.680562
0.789505
-0.992913
0.112818
0.567453
0.659306
-0.797140
-0.093400
-0.027982
0.804682
0.465490
0.319657
0.044354
0.669523
-0.332211
-0.846509
-0.584152
0.025749
-0.728946
0.374031
0.042592
-0.581861
0.782628
0.260217
0.405986
0.988439
0.556950
-0.919326
-0.343877
-0.204554
-0.976871
-1.190104
0.706739
0.945958
-0.915163
-0.927899
0.362689
-0.076679
-0.978862
-0.334474
0.776053
-0.781522
-0.536922
-0.242639
0.415291
0.159097
-0.110896
-0.228572
0.606200
-0.124450
-0.057771
-0.066871
0.235099
0.205619
-0.082538
-0.504926
0.087287
0.352671
-0.461933
0.963557
0.090229
0.651485
-0.878455
-0.860223
-0.747070
-0.283661
-0.425396
-0.842131
0.762011
0.719345
0.209394
0.367169
0.067475
-0.130492
0.165500
-0.925860
0.436127
0.335115
0.807794
0.867980
0.365681
0.116521
0.223215
0.641483
-0.405646
0.287144
-0.144611
-0.650779
-0.697458
0.809657
0.572252
0.743447
-0.747337
-0.430657
0.599286
0.185258
0.306063
0.242538
-0.032955
-0.636673
-1.319051
0.248448
-0.730002
-0.390907
-0.874509
-0.203319
0.414246
-0.943236
-0.209150
-0.567156
-0.040966
0.985332
-0.600621
0.671068
-0.847214
-0.166607
0.181440
-0.104579
-0.713773
0.541311
0.389060
0.857560
-0.558062
-0.158342
-0.158651
-0.448510
-0.265117
0.820149
0.191828
0.193601
-0.433932
0.531159
-0.843816
-0.174424
-0.540285
0.706323
-0.136645
0.290056
0.299806
-0.243126
-0.912387
-0.477425
-0.662150
-0.528535
0.025246
-0.321849
0.592515
0.547411
-0.102946
0.054557
-0.861469
0.512822
-0.941968
-0.618873
0.417204
-0.726836
0.198525
-0.248061
-0.639253
0.278025
0.356264
0.999849
0.026217
-0.262561
-0.356319
0.750540
0.730565
0.906082
-0.528047
0.330296
0.855943
-0.473033
-0.002364
-0.328632
-0.827022
-0.381489
0.858937
0.721007
0.340835
-0.751856
0.574147
0.576584
0.574189
0.595818
-0.642080
0.240360
0.206948
0.677320
0.598220
0.914000
0.470914
-0.448014
-0.955029
-0.611871
-0.092026
-0.199122
0.631506
0.815658
-0.656684
-0.422028
-0.880308
-0.328859
0.566281
0.482019
0.219300
0.805096
0.563363
-0.121907
0.273879
-0.976219
0.416210
-0.033325
-0.522207
-0.930693
0.605831
0.824703
-0.019463
0.025672
0.544772
0.984802
0.298031
0.926528
0.666365
0.595468
-0.839312
-0.597504
0.999496
0.250378
0.552855
0.675028
0.850779
-0.424665
-0.566632
-0.033507
-0.896310
0.117091
0.028136
0.898818
0.269123
-0.049767
-0.174483
0.329197
0.246879
0.232788
0.891751
-0.456205
-0.380785
-0.153375
0.937577
-0.296914
0.175216
0.571954
-0.653591
0.921724
0.817826
-0.047796
-0.342433
0.256376
-0.220575
-0.328961
-0.352815
-0.383309
0.965038
0.669514
-0.984663
0.464956
0.230016
-0.296677
-0.153147
0.783686
-0.898024
-0.499374
-0.751964
-0.025298
-0.890579
-0.843705
0.936960
0.134154
-0.422113
-0.077777
0.797829
-0.433891
0.552235
-0.605054
-0.871780
0.703566
-0.031189
-0.924018
0.947562
0.698275
-0.837081
0.351883
0.432976
0.758572
-0.714329
0.174538
-0.583120
0.783336
0.479531
0.712803
-0.577710
-0.796105
-0.858772
-0.601995
0.973213
0.850705
0.478270
-0.015172
0.662387
0.144227
-0.434260
-0.562488
0.654993
0.094332
-0.008050
0.449766
-0.314914
-0.938446
0.844134
0.576444
-0.939612
0.135103
0.778031
-0.708484
0.625592
0.494993
-0.512003
-0.564988
-0.353135
0.578607
-0.495696
0.930936
-0.980343
-0.156861
0.351932
0.540442
-0.973408
-0.290410
-0.908774
-0.179618
-0.935063
0.677167
-0.863667
-0.249115
-0.579019
-0.373227
0.949474
-0.557935
0.546032
-0.505987
0.479011
-0.087664
-0.419908
0.378994
0.265920
0.066248
-0.582278
-0.515183
-0.802496
0.970192
-0.946801
-0.823653
-0.439297
-0.844929
-0.276544
0.247492
-0.121255
-0.995764
0.093999
-0.814615
0.546049
0.703260
-0.024117
0.534820
-0.173297
0.724358
0.163984
-0.224578
-0.356808
-0.011736
-0.874015
0.103610
-0.848467
-0.245039
0.754470
0.838332
0.305972
-0.142877
0.665843
-0.987331
0.916114
0.083850
0.830442
-0.397305
0.589891
0.358545
0.766737
-0.727769
-0.198389
-0.176942
-0.360922
-0.680659
0.696574
0.870778
0.602240
0.284536
-0.622589
0.859765
-0.953902
-0.834245
-0.965076
-0.423305
0.222865
0.306286
-0.900392
-0.040794
-0.754097
0.708759
0.242889
0.012714
0.893529
0.712638
0.131987
0.052441
0.312399
-0.444477
0.709217
0.551157
-0.418045
0.176734
0.179034
0.054854
0.408941
0.486618
-0.775300
-0.091852
0.978010
0.606693
-0.311915
0.365851
0.010591
0.241833
0.976044
-0.133245
0.340299
0.549324
0.529894
-0.134229
0.769027
0.215537
0.592963
-0.062461
0.417543
0.159442
0.839640
0.488965
-0.933512
0.018246
-0.200980
0.112052
0.256850
0.644146
0.111912
0.297672
-0.295092
-0.061795
0.840583
-0.918941
0.650673
0.500448
-0.827556
-0.698960
0.338571
0.019972
-0.894892
-0.818656
-0.720564
-0.375492
0.795579
0.736684
-0.008645
0.578204
0.931983
0.302260
-0.762281
0.575360
0.382653
0.118344
-0.406220
0.871469
-0.420217
0.227454
-0.394809
-0.325965
0.195770
-0.080224
0.713928
-0.088266
0.371401
-0.908835
-0.806775
-0.815538
-0.222815
0.415395
0.522664
0.554773
0.488409
-0.593156
-0.613138
-0.860421
-0.564104
0.430811
0.866807
0.462117
0.911904
0.910721
0.486024
0.334543
0.772412
-0.389875
0.267800
-0.452094
0.204384
0.120702
0.068375
-0.297454
0.538626
0.285871
0.100161
-0.977228
-0.336552
0.957733
0.067624
-0.288020
-0.278712
-0.294473
-0.129018
-0.070657
-0.994432
-0.943578
-0.397757
0.280568
0.054746
0.642821
0.313291
-0.241008
-0.949579
-0.678170
-0.201273
-0.305464
-0.669354
0.915078
-0.989212
0.934648
-0.596790
0.497354
0.148777
-0.609597
0.526068
0.880137
0.495131
0.743710
0.098948
0.676648
0.747299
-0.197552
0.536763
-0.762854
-0.718497
-0.668214
0.031085
-0.907432
0.798925
0.172794
0.801919
-0.732707
0.294660
0.742412
0.714998
0.691171
-0.780472
-0.210344
0.913808
-0.191643
-0.387390
0.083184
-0.249496
0.559253
0.749254
-0.723441
-0.354153
0.225497
-0.431854
0.660705
0.448512
0.162138
0.305990
0.117326
-0.288756
-0.278034
0.961054
0.921623
-0.094954
-0.115503
0.034233
-0.123489
0.882966
-0.351247
0.397047
0.749132
-0.130891
-0.703906
0.406087
-0.533884
-0.105755
-0.146569
0.908658
-0.554798
-0.028621
-0.002970
0.835727
0.951000
-0.246845
0.957558
0.794222
0.341882
-0.287449
-0.104019
-0.513468
-0.120303
0.729832
-0.437873
-0.964334
0.473988
1.171306
-0.008124
-0.753767
-0.990297
0.607376
-0.077661
0.902292
0.296476
0.988143
-0.061680
0.121351
-0.617286
0.392148
-0.798314
-0.260433
-0.030310
0.901320
0.216190
0.372765
-0.584214
-0.154361
0.496687
0.972433
0.931018
-0.496535
-0.484139
-0.846339
0.043853
0.895207
-0.195950
-0.355661
0.584209
0.330535
0.172351
0.117087
-0.582553
-0.741453
0.260254
0.466745
-0.076743
0.817677
-0.701755
0.813213
0.300976
0.112907
-0.644474
0.357567
-0.235894
-0.145562
0.595120
0.709352
0.779512
-0.951820
-0.518378
0.842833
0.859598
-0.579262
-0.987915
-0.026816
-0.324103
-0.119983
-0.141106
-0.044532
-0.971025
-0.257983
-0.319803
0.087934
-0.097954
-0.165117
0.631740
0.194761
-0.844074
0.223066
0.447394
0.630319
-0.531140
0.951103
-0.752322
0.991814
-0.350918
0.806301
0.742761
0.285982
6.625207
-0.089556
0.600627
0.231322
0.460747
-0.153337
0.971614
0.420816
0.845972
-0.822420
-0.096356
0.058630
0.866795
0.592605
0.958019
0.982524
-0.786404
0.217477
-0.749273
-0.195477
-0.839896
0.553334
-0.933701
-0.851095
-0.054849
-0.374196
-0.195523
0.395263
-0.671036
-0.840322
0.746096
0.283687
-0.849106
-0.094142
-0.377912
-0.917058
0.526004
-0.361662
0.417279
0.367578
0.763255
0.999782
0.716633
0.749651
0.959214
-0.021729
0.648440
0.457403
-0.054984
0.528496
0.597494
0.623675
-0.316905
-0.112812
0.969124
-0.450004
-0.526025
0.264034
0.597749
0.726219
0.459116
0.923656
-0.161224
0.997299
0.953765
-0.324779
-0.884387
-0.657283
-0.619313
-0.797906
-0.470062
0.271098
-0.063326
0.069276
0.643832
-0.825727
-0.389704
0.513743
-0.809345
-0.525743
0.707033
0.177769
0.689780
0.215992
-0.333208
0.524402
0.884569
0.594199
-0.915942
-0.526756
-0.002826
-0.657452
0.987370
0.598083
-0.613327
0.280752
0.394883
-0.764528
-0.268127
-0.702335
0.764490
-0.116282
-0.022820
0.019734
-0.877750
-0.301804
0.487173
-0.377623
0.047677
0.495950
0.323654
-0.160596
0.058554
0.558831
0.451581
-0.315870
-0.589891
-0.649333
0.586843
-0.907719
-0.364872
-0.235373
-0.142927
-0.605630
-0.600763
0.161030
0.963321
-0.770452
0.788447
0.422268
0.196221
-0.113308
0.479650
-0.404292
0.158566
-0.673638
-0.435536
-0.554164
-0.601402
0.961444
0.493166
0.771726
-0.205092
0.832666
-0.759426
0.662100
-0.426181
-0.865922
0.606952
0.867934
0.381863
-0.433471
-0.379050
0.948396
-0.919177
-0.260735
0.921622
-0.606150
-0.690367
-0.433354
-0.974459
-0.921383
-0.354373
-0.409575
-0.048532
-0.237261
-0.918223
0.023436
0.953515
0.894803
-0.570311
-0.314393
0.721882
-0.717501
0.334631
-0.185814
-0.030193
0.485061
-0.918046
-0.383701
-0.538791
-0.232256
-0.050349
0.606081
-0.376612
-0.519525
-2.250597
0.279538
0.238875
0.398757
0.318534
-0.845122
0.952799
-0.881357
-0.726178
0.473177
0.130234
0.332625
-0.868966
0.773505
0.720329
-0.499279
-1.009394
-0.483648
-0.310402
-0.233283
0.468034
-0.942475
0.254392
0.575187
0.660597
0.175164
0.973141
0.260082
0.653007
-0.001621
0.017197
-0.421340
0.195960
-0.737591
-0.131847
-0.677482
0.911400
0.192479
0.582797
-0.380369
-0.686453
-0.791051
-0.330169
0.803118
-0.470305
0.704903
-0.564541
0.672676
0.627841
0.259420
0.903956
-0.248329
0.256841
0.058288
0.966807
-0.363678
0.602946
-0.988149
-0.400780
-0.070897
0.822728
0.216472
-0.768353
0.042532
-0.433192
-0.197055
-0.022520
0.141933
0.874478
0.610451
0.978399
-0.330689
-0.680925
-0.341491
-0.463857
-0.239428
0.872473
-0.088381
-0.897022
0.001560
-0.161677
0.777311
-0.467638
0.529584
0.751087
-0.865068
-0.314526
0.957534
-0.279370
0.433627
-0.127407
0.397430
-0.203291
-0.797985
-0.470902
0.300583
0.049122
0.780628
0.830676
0.628077
-0.394037
-0.621197
-0.470805
-0.541818
0.458608
1.025481
0.466806
-0.696939
-0.549212
0.801758
-0.543567
0.846919
0.215599
0.639651
-0.457967
-0.630485
-0.758743
-0.466066
0.068759
-0.728324
0.081936
-7.128327
0.912534
0.030062
0.667577
-0.884825
0.552902
-0.388768
0.611755
-0.256478
-0.294166
0.510644
-0.144876
0.518957
-0.514490
-0.488980
-0.699070
0.849349
0.006629
-0.152039
-0.553361
-0.360585
-0.699376
-0.623958
0.699465
-0.017616
-0.864964
0.866757
0.782091
0.627803
-0.774943
0.980556
0.463055
-0.949168
1.105404
0.879369
0.810722
-0.497156
-0.653171
-0.316832
-0.768098
0.586547
-0.736968
0.420785
-0.778594
0.800509
-0.664150
-0.682088
-0.246986
0.620024
0.839390
-0.011261
0.035237
-0.118555
0.302181
-0.129600
0.978796
-0.202251
0.977884
-0.235958
0.999240
0.023972
0.361445
-0.773464
-0.329480
0.580686
0.337018
-0.654793
-0.291998
0.917632
-0.234957
0.141007
-0.866066
0.993884
0.482592
0.544616
0.819244
-0.266172
0.584678
-0.471626
-0.199740
-0.156287
-0.150923
-0.979899
-0.550138
0.965016
0.992428
-0.001715
-0.969165
0.300967
0.977090
0.170655
-0.632850
-0.421806
-0.379490
-0.853771
-0.662191
0.111636
0.024159
0.088585
-0.651201
0.837879
-0.222154
-0.472697
-0.048216
0.354065
0.321116
-0.721289
-0.368695
-0.148855
0.065806
0.294791
0.109997
-0.793995
0.595221
0.414510
0.734706
-0.496148
-0.593106
0.889608
0.220731
-0.688340
-0.487707
0.946844
-0.910573
-0.723386
0.618578
0.267257
-0.753250
0.374050
0.377775
0.352359
-0.846134
-0.196118
-0.747968
-0.390898
-0.280125
-0.527412
0.633501
-0.352169
-0.086344
0.705239
-0.933480
0.889498
0.678443
0.315999
-0.480965
0.166650
0.769377
0.931185
0.538551
0.639970
-0.550609
0.796724
0.207628
-0.040989
-0.894917
-0.945556
0.253078
0.738624
-0.924632
0.474037
0.967432
-0.241593
-0.256407
0.954613
-0.150199
0.480663
0.690552
-0.221192
-0.816187
-0.492476
-0.351210
-0.795265
0.174447
0.423119
0.611490
-0.994238
-0.232432
0.488999
-0.506422
-0.067955
0.212274
0.532663
-0.355010
-0.922841
0.375934
-0.551030
0.687575
0.843975
-0.193985
-0.234057
0.430768
-0.720810
0.016683
-0.488501
-0.918967
-0.533416
0.152325
0.564060
-0.105200
0.563796
0.313459
-0.817589
0.366278
0.578153
-0.047932
-0.905803
-0.479022
0.834186
-0.295138
-0.271192
0.487115
-0.154345
0.283415
0.167845
-0.122998
-0.991751
0.926975
-0.332131
0.771315
0.090550
0.106085
-0.869307
-0.176369
0.486699
0.022148
-0.775739
0.985690
-0.117832
0.061162
0.942401
-0.819930
-0.055452
0.126143
-0.005852
-0.488152
-0.382031
-0.376376
0.337905
-0.293310
-0.999986
-0.080441
0.150050
0.233880
-0.717935
-0.601357
-0.379464
0.953113
-0.104135
-0.222618
0.924579
0.106354
-0.122337
-0.357716
-0.625798
0.592864
-0.365989
0.560487
-0.762797
-0.289688
0.035286
-0.253899
0.031927
-0.987030
0.003588
0.827825
-0.531155
-0.823163
-0.201389
0.661352
-0.052218
0.290295
0.617049
0.421351
0.225497
0.090014
0.326234
-0.868669
0.648789
0.480809
0.536161
-0.277175
0.762299
0.586651
-0.322550
0.752827
0.005487
-0.721234
0.963784
0.527597
-0.186428
0.862506
0.582266
0.722825
9.421458
-0.074597
0.697879
-0.433400
0.310068
0.456204
0.383005
-0.734605
0.356888
0.246877
0.638893
-1.037331
0.642755
-0.930567
-0.974432
0.297463
0.556109
-0.916780
-0.610676
0.212466
0.767068
-0.905652
0.554487
-0.433182
0.552602
0.436861
-0.414074
0.125708
0.116178
-0.102382
-0.635819
-0.353567
-0.317651
-0.480034
-0.843570
-0.761192
-0.278347
-0.375138
-0.391801
0.796756
0.126100
-0.763502
-0.354067
-0.678190
-0.758361
0.266427
0.711245
-0.292796
0.901124
0.448457
0.022991
0.614052
0.511820
0.632131
-0.152220
0.231746
-0.216500
-0.843975
0.043065
-0.276557
0.967003
-0.974368
-0.077932
-0.522382
0.333564
-0.525280
-0.299998
0.952664
-0.120410
-0.907188
-0.657874
-0.720380
-0.320800
0.104022
0.064674
0.036013
0.680120
-0.115814
0.090526
0.988490
-0.264996
-0.367391
0.581790
-0.822479
-0.090188
-0.968764
0.650908
-0.222874
-0.476948
0.508320
0.187443
0.362020
-0.534130
0.648722
0.586479
-0.064055
0.119915
-0.968806
-0.637638
0.534219
0.154021
0.443837
-0.537757
-0.708491
0.105841
0.066889
-0.799127
-0.711499
-0.691925
-0.779394
-0.402744
-0.574959
-0.368690
-0.366110
-0.981620
-0.296019
0.264880
-0.912598
-0.391259
-0.488392
0.208034
0.126039
-0.444622
-0.086268
0.900299
0.428740
-0.239838
0.690046
0.606762
-0.009534
0.994490
-0.285803
-0.343985
-0.596945
-0.111470
-0.920688
0.946949
0.126084
0.061777
-0.117426
-0.919627
-0.902901
-0.680956
0.539250
-0.117718
-0.626337
-0.014022
0.347169
-0.316150
0.236471
-0.303242
0.506536
0.668372
0.811228
-0.051028
0.922051
-0.033092
0.933972
0.423886
-0.572896
-0.418561
-0.240129
0.442170
-0.670806
-0.106729
0.759749
-0.346767
-0.567450
0.841766
-0.697403
-0.153979
0.836897
0.568090
-0.925558
-0.481885
-0.909437
-0.555048
-0.353374
0.317256
-0.921865
-0.551845
-0.643555
-0.260902
-0.176138
-0.551236
-0.553074
-0.948921
-0.105970
-0.331216
-0.599134
-0.656713
-0.843059
-0.482267
0.489704
-0.209328
0.620142
0.766910
-0.140330
0.183718
-0.396710
0.192241
1.006037
0.350605
0.481746
0.164155
0.752880
-0.744854
0.583964
-0.901644
-0.962291
0.102737
-0.722885
0.783416
-0.649818
0.557065
-0.983289
-0.263598
0.117954
-0.756823
0.038193
0.752210
0.842680
-0.014536
-0.819228
0.181358
0.130918
-0.887467
0.930999
0.489801
-0.262764
0.665053
0.483245
0.650164
0.319848
0.115102
0.849301
-0.361755
0.828108
-0.506476
-0.399546
0.744389
-0.595567
-0.282715
0.289126
0.952709
-0.580676
0.743961
0.481567
-0.043235
-0.941765
-0.398623
-0.939725
0.401724
0.188368
-0.756695
-0.691297
-0.750824
-0.635007
-0.031207
-0.722251
-0.489032
0.593591
-0.105703
-0.996074
-0.949925
-0.224410
-0.133881
-0.867763
0.789262
-0.556918
-0.201596
-0.648218
-0.409840
0.963073
-1.020557
0.247405
0.671860
-0.678947
0.329073
-0.913494
-0.026900
-0.598335
0.366936
0.455363
0.516504
0.154071
0.098520
-0.223490
-0.123063
0.373660
0.935332
-0.599453
-0.751633
0.795358
-0.011066
0.623368
-0.288422
0.318716
0.876756
0.219658
0.931482
0.335674
0.987139
0.192795
0.710237
0.427621
0.416458
-0.970973
-0.317535
-0.378149
0.574284
0.436057
-0.434452
0.838675
0.633945
-0.377798
-0.096683
-0.367646
-0.930820
0.959042
0.078920
-0.997048
-0.688107
0.144693
0.451558
0.317456
0.319880
-0.470028
0.220514
-0.755601
-0.850945
0.514548
-0.349836
0.960566
0.754739
0.959787
-0.740476
0.405890
-0.009915
0.117287
0.357228
-0.152573
-0.137725
-0.001390
0.210666
-0.239515
0.507918
-0.030159
-0.783086
-0.794430
-0.183588
-0.938957
-0.706436
0.531565
0.961195
-0.481440
-0.578105
0.464814
0.221808
-0.840822
0.872861
-0.319431
-0.177336
-0.103014
-0.753668
-0.461192
-7.605640
0.159526
0.283951
-0.862225
-0.745695
-0.140719
0.342391
-0.958959
0.934330
-0.918614
-0.618735
0.786454
-0.929239
0.334354
-0.994956
0.042333
0.614068
-0.085620
-0.847299
-0.104263
2.907776
0.679797
0.762285
-0.153990
-0.675667
0.080278
-0.794587
-0.028074
0.405455
-0.673001
0.016590
0.568196
0.671777
-0.507113
0.940524
-0.137071
-0.794907
0.421271
-0.152297
0.917449
-0.426356
0.650426
-0.459212
0.208579
-0.132700
0.483172
0.178573
0.253717
-0.235611
-0.612875
-0.772774
-0.912626
0.480188
-0.332527
-0.175257
0.233783
0.083382
0.384915
-0.086512
-0.621904
0.738183
-0.059997
0.136513
-0.223585
-0.104981
-0.101301
-0.605107
-0.821553
0.537807
-0.188006
-0.977599
-0.033299
-0.813496
0.795734
-0.044329
0.701695
-0.777002
0.351084
0.876113
0.907939
7.251298
0.532763
0.405739
-0.077433
-0.494727
-0.731245
-0.069968
-0.767977
0.323708
-0.137458
0.189674
0.501779
0.198335
-0.441936
-0.335134
0.496120
-0.484781
0.037726
0.815301
0.584381
0.820243
0.068472
-0.709242
0.241616
0.255147
0.264646
0.793951
-0.234189
0.761514
0.065039
0.580402
0.279526
-0.986739
0.447031
-0.107643
0.904229
0.700837
0.357290
-0.980170
0.529963
0.583436
-0.594417
-0.103317
0.710415
-0.167640
0.882733
0.996594
0.080558
0.081492
0.123398
-0.572100
-0.305087
0.357636
-0.107545
-0.460106
0.754732
-0.971873
-0.024854
0.729140
-0.667299
0.846140
0.423847
-0.506942
0.962591
0.075260
0.420701
-0.004627
0.354457
0.863363
-0.341664
-0.339443
-0.759846
0.612871
-0.709492
-0.529932
-0.138495
0.528213
-0.836891
-0.656064
-0.764771
-0.786932
0.500302
-0.452468
-0.419185
0.024577
0.058137
-0.340731
0.926197
0.191965
0.519123
-0.292402
-0.106135
0.405665
0.499024
0.236467
0.727847
0.390870
-0.187703
-0.480391
-0.788502
0.593747
0.434676
-0.336083
-0.101499
-0.230327
0.857870
-0.686700
-0.767145
-0.332614
0.664327
0.701996
0.951735
0.504554
0.810748
-0.077886
0.971349
0.111041
0.601530
-0.424720
-0.008874
-0.977834
0.042766
-0.686866
0.960914
1.040618
0.776278
-0.159678
-0.641199
-0.087245
-0.345934
0.673379
0.267624
0.866906
0.342734
-0.247584
-0.608173
-0.408259
-0.938743
0.091724
0.237706
0.977662
0.373781
0.938718
-0.572714
-0.312457
-0.940579
0.842209
-0.215066
0.975704
-0.332555
-0.192355
-0.630501
-0.999904
0.324487
-0.904912
0.424526
-0.965738
-0.321853
-0.120819
-0.571779
-0.577556
0.674254
0.187983
-0.285176
0.990928
-0.044642
0.274421
0.941001
-0.612533
-0.645482
-0.927843
0.293373
-0.591907
0.093372
-0.878922
-0.019714
-0.756144
0.106092
0.053263
0.588373
0.036218
-0.407480
0.525990
0.628062
-0.550396
-0.831945
-0.184820
-0.703218
0.164498
-0.017653
-0.378427
0.982824
0.102900
0.906823
0.743269
-0.114213
0.066084
0.186369
-0.678689
-0.331827
-0.030349
0.343526
-0.308098
0.229686
-0.616949
0.858281
-0.920785
-0.725823
0.578765
-0.363733
-0.359068
0.783568
0.944296
0.348188
0.595053
0.234809
0.326380
0.729553
0.675881
0.222131
-0.361071
0.943080
0.356824
0.976725
0.112867
0.522964
0.463326
0.287919
-0.776856
-0.603405
0.173399
0.026266
-0.156687
0.946405
0.037207
0.234122
0.560315
0.252120
-0.977606
0.582275
-0.358449
0.449963
0.059912
0.902882
-0.219531
0.651974
-0.560476
0.217755
-0.418002
0.255505
0.082434
-0.748982
-0.238334
-9.788819
0.638464
0.079492
-0.948989
0.590042
0.286790
0.949452
0.749447
0.305711
-0.607494
-0.329756
-0.937272
-0.954670
0.286978
0.699601
0.392225
0.032885
0.574956
-0.562899
0.238013
-0.176946
-0.539861
0.924063
-0.536876
0.967513
-0.432530
0.679884
-0.380182
0.117395
0.324395
-0.907144
-0.475771
-0.473843
-0.148445
-0.021190
0.769071
-0.140517
-0.255095
-0.549506
0.389553
-0.332377
0.750352
-0.339193
-0.975456
-0.111266
0.352476
-0.517644
0.904098
-0.225539
-0.675271
0.378321
0.542327
-0.251759
0.208052
0.025602
-0.288233
-0.114324
0.170740
-0.875766
-0.923580
0.236379
0.484183
-0.268647
-0.334864
0.776421
-0.338415
0.449489
0.808253
0.846593
0.606950
0.238470
-0.708837
0.037268
0.070091
-0.467573
0.537231
0.406779
-0.049422
0.421869
-0.637091
0.080518
0.691180
-0.885821
-0.432478
1.104569
-0.017606
0.492880
-5.611963
0.664637
0.300771
-0.440066
-0.613650
-0.488961
0.076522
-0.787442
-0.324912
-0.751172
0.557935
-0.568691
-0.929767
-0.794300
0.694493
-0.198495
0.260605
-0.060754
0.027247
0.318348
-0.085347
-0.459338
-0.614540
0.879020
4.477803
-0.919938
-3.152231
-0.269644
-0.826085
0.081742
-0.151844
-0.676924
0.019399
-0.078961
0.918855
-0.703514
-0.863007
0.608340
-0.200440
0.032949
-0.143534
-0.477713
-0.757952
0.111519
0.551244
0.188107
0.679175
0.929560
-0.447744
-0.483991
0.351658
0.461907
0.267112
0.028800
0.820288
-0.918737
-0.464656
0.137021
0.597982
0.625217
0.579732
0.941005
0.940207
0.192278
-0.379486
-0.315106
-0.523206
-0.158548
0.864370
-0.577320
0.375517
0.540886
-0.565842
0.503408
0.275408
-0.686127
-0.028259
0.894082
0.713637
0.471875
-0.902528
0.740030
-0.454440
0.848889
-0.025432
-0.860845
-0.405501
0.945939
-0.755284
0.353986
-0.225786
-0.648642
-0.212936
-0.457502
0.394692
-0.116651
0.847356
0.729370
-0.326120
0.148338
-0.762101
0.125749
0.096207
-0.840766
-0.960194
-0.202336
-0.214803
-0.481744
-0.158921
0.894140
-0.527722
0.536491
0.463583
0.743442
-0.288263
0.657463
0.728041
-0.822094
-0.399713
-0.724751
-0.379901
0.011043
-0.649495
0.095150
-0.939791
0.396795
0.630470
0.800195
0.040870
-0.645749
0.507926
0.956186
-0.484822
-0.341937
0.891276
-0.128860
-0.141324
0.453116
-0.370415
0.522477
-0.528443
0.155996
-0.916161
-0.380447
-0.956242
-0.922602
-0.509661
-0.327240
-0.583319
-0.210117
-0.235836
-0.137339
0.478354
-0.419191
0.763526
-0.083065
0.960457
0.643812
-0.969739
-0.229918
-0.662519
0.682972
0.065544
-0.282538
0.949118
-0.765154
0.653355
-0.058779
-0.729811
-0.670743
0.473600
0.486896
-0.069258
0.049419
0.360252
-0.136909
-0.434422
-0.176654
-0.661476
0.692360
0.653646
-0.101305
0.749613
0.377280
0.429264
0.368869
-0.774740
-0.389104
-0.222448
0.823337
-0.999932
0.385373
-8.695636
0.877413
-0.247419
-0.778725
-0.900111
-0.826772
-0.706466
0.324821
-0.169218
-0.567219
-0.408454
-0.599282
-0.468414
-0.654180
-0.715133
0.878929
0.286050
-1.031175
-0.659830
-0.765455
0.981051
-0.105580
-0.016771
0.131341
-0.444049
0.837203
-0.160011
0.497987
0.017073
-0.392087
0.839829
-0.074065
-0.409571
-0.528057
-0.507504
0.600362
0.638503
-0.998049
-0.283931
9.196836
0.521158
-0.143486
0.782588
-0.870720
-0.705468
0.800618
-0.220221
-0.370891
0.700669
-0.619715
0.569953
-0.041535
0.126993
-0.595882
-0.969636
0.646698
-0.120831
0.628482
0.910684
-0.295441
6.902720
-0.875114
0.423979
0.176662
0.423450
-0.783898
-0.488924
0.791775
-0.050528
3.558808
-0.583271
-0.871009
-0.936252
0.104116
0.977388
-0.637091
-0.419150
0.633346
-0.421568
-0.950211
-0.750906
0.146750
0.442074
-0.356550
0.784990
-0.341647
-0.397715
-0.011502
-0.507575
0.840948
0.031355
0.298837
-0.981998
-0.576886
-0.967055
0.234635
-0.983678
-0.430472
0.924820
0.771689
0.637572
-0.606496
0.266969
0.423573
0.874313
-0.937324
0.305058
0.978977
0.241943
0.100904
0.079587
0.715707
0.853018
-0.112572
0.183354
0.519209
-0.357626
0.423969
-0.199165
0.100809
0.216563
-0.576947
0.143451
1.773773
0.684019
-0.119892
0.583315
-0.474877
-0.139867
-0.637740
0.896310
-0.927775
-0.571518
0.278059
-0.271029
0.514472
-0.967462
-0.256700
0.382892
-0.659934
-0.439525
0.731483
0.573272
0.879106
0.255241
-0.326697
-0.341038
0.199130
-0.581018
-0.607318
-0.270986
-0.138340
0.564490
-0.329206
-0.293182
0.416069
-0.837110
-0.187810
-0.166330
-0.888640
-0.139836
-0.078229
-0.247765
-0.721682
-0.726921
0.707396
0.386770
-0.867422
0.493346
0.006037
-0.861780
-0.066781
-0.516520
0.971802
0.469721
-0.774614
0.950215
0.565320
-0.208879
0.301495
0.087391
-0.249145
-0.769705
-0.090511
-0.566302
0.391327
0.823677
0.995205
-0.046677
0.423664
0.147109
-0.042048
-0.528960
0.243186
-0.779388
0.994272
0.398192
0.694142
-0.238080
0.326030
-0.706297
-0.223629
0.527176
0.465225
0.288418
0.100680
0.825524
0.711719
0.001785
-0.765904
-0.726849
-0.265885
0.066690
-0.070443
-0.619228
0.307521
0.033705
-0.049643
-0.911702
-0.438075
-0.248003
0.986197
0.984519
0.412622
-0.179074
0.497340
-0.211493
0.046795
-5.164855
0.327607
0.917390
0.527771
0.398292
0.948818
0.068625
-0.390134
-0.660608
-0.187151
0.809355
-0.223752
0.769067
0.067285
0.633451
-0.069398
0.620976
-0.957273
0.231166
0.696050
0.190730
-0.275016
-0.826370
-0.217000
0.479983
-0.437930
0.497055
0.377719
-0.980519
0.300956
0.904215
-0.071447
0.447875
0.198539
0.960974
0.360243
0.772169
0.575236
-0.920688
0.374218
-0.249215
-0.747895
0.221304
-0.283080
-0.614687
-0.049907
0.833535
-0.145893
-0.679183
-0.642266
0.678970
0.550897
-0.364147
-0.153586
-0.345141
0.836895
0.380202
0.163011
-0.331979
-0.487791
1.190041
-0.725854
-0.821356
0.868163
0.393567
0.978060
-0.060500
-0.588601
0.682075
0.052326
0.878606
0.375846
0.309966
-0.254107
0.115464
0.720985
-0.526541
0.938485
-0.570933
0.671922
0.422245
-0.032448
0.503972
-0.016139
0.638953
0.424487
0.370785
-0.565205
0.497684
0.212592
0.254039
-0.879791
0.276417
-0.786371
0.080047
0.256284
-0.547320
0.869656
-0.423401
-0.107922
-0.562274
0.330196
0.809075
-0.741858
-0.952568
-0.006325
0.837192
-0.489135
0.400063
-0.824282
-0.608483
-0.472366
-0.427859
0.628503
-0.148369
-0.943926
-0.056251
-0.558395
-0.585178
0.901881
-0.738466
-0.870589
-0.901292
-0.392509
-0.876514
0.441375
-0.032935
-0.878260
-0.211672
-0.422379
-0.506255
0.400846
-0.545763
-0.730285
-0.763762
0.456595
0.755189
-0.349891
0.346634
0.274598
-0.384877
-0.774379
0.210497
0.495051
-0.602981
-0.933396
0.587339
0.791940
0.126810
-0.536891
0.914358
0.219908
0.810044
0.506050
-0.661133
0.140764
0.032373
-0.628478
-0.660835
0.872644
0.704721
-0.533587
-0.164426
0.312841
-0.748509
-0.544302
0.388034
-0.308154
-0.686090
-0.664107
9.137424
0.444966
-0.377001
0.681578
0.731779
-0.051425
0.545422
-0.186192
0.034455
0.427855
0.796619
-0.642687
-0.508926
0.623841
-0.222057
-0.907551
0.092686
-0.174652
0.945797
-0.405971
-0.867008
0.614385
0.061556
-0.703259
-0.392944
-0.044107
0.069395
-0.761892
0.409851
-0.454173
-0.019418
-0.691778
0.895233
-0.473141
-0.704221
-0.974984
0.950789
0.748166
-0.339176
-0.105657
-0.063168
0.175757
0.325259
2.640224
-0.125315
0.972402
0.990862
-0.429256
-0.266686
0.917225
-0.900149
0.968096
0.019409
-0.718867
0.617087
-0.817012
0.554450
-0.308953
0.956483
0.831106
-0.601030
-0.747143
0.816460
-0.709309
-0.044158
0.568339
0.187988
-0.677180
-0.174721
-0.732143
0.467613
-0.522465
0.261057
0.625871
0.409868
-0.030384
-0.884706
-0.642093
0.388928
0.014590
-0.856553
-0.387286
-5.170199
-0.505062
-0.948908
0.300454
-0.291370
-0.345942
-0.596943
0.379577
-0.989279
-0.491400
0.591583
-0.635687
-0.548553
-0.227896
-0.098474
0.187104
-0.206458
-0.741024
0.959406
0.719765
-0.217025
0.532176
-0.626982
-0.346693
-0.293020
0.086033
-0.733091
0.376702
-0.228990
-0.114515
-0.733307
-0.982548
-0.594996
-0.200622
0.949615
0.087324
-0.029597
0.283032
-0.884215
-0.240425
0.103841
-0.176444
0.285918
-0.152254
0.470718
-0.786297
0.809184
0.032852
0.434576
0.473482
0.767328
0.806307
0.517146
-0.885023
-0.412127
-0.841221
-0.528351
-0.369157
0.317656
0.574301
-0.955756
0.513383
-0.232458
-0.885640
-0.429838
-0.529211
0.498082
-0.805489
-0.284219
-0.417062
-0.789654
-0.466526
-0.690551
-0.919292
0.097087
0.931085
0.251997
-0.671433
-0.931969
0.166752
-0.011659
-0.247013
-0.802926
-0.601875
0.737962
0.560796
-0.301852
-0.725960
0.244859
0.059810
-0.155568
-0.589998
0.585844
-0.059012
-0.897021
0.994827
0.703393
0.662699
0.751934
-0.205852
0.248003
0.072285
-0.747327
0.792604
-0.777699
-0.306824
-0.450330
0.682214
0.770237
0.465314
-0.051347
0.769185
0.851351
-0.370461
0.210075
-0.638521
-0.075390
0.457078
-0.788600
0.207905
-0.682995
-0.036794
-0.946800
0.414389
-0.611935
0.570799
-0.700706
-0.948498
0.821563
0.982409
0.696845
-0.923518
-0.564431
0.594129
0.503918
-0.304793
0.356444
0.019661
0.954115
-1.915944
-0.164062
0.152208
0.072415
-0.805898
-0.118538
-0.531850
0.378655
-0.540775
-0.849522
0.295979
-0.862732
0.583626
0.958625
0.192760
-0.882819
-0.406812
0.819443
-0.863292
0.482777
0.292866
0.364224
-0.264385
-0.223270
0.809000
-0.614039
-0.446681
0.320980
0.342745
0.408187
0.530321
-0.084085
-0.545697
-0.301694
-0.251138
-0.029172
-0.116455
0.443382
-0.898904
-0.051948
8.996842
-0.483398
0.697378
-0.722518
0.102332
0.680909
0.707991
-0.089981
-0.800920
-0.298341
-0.425981
0.487905
0.204000
0.095867
-0.430201
0.459219
-0.630279
-0.014426
-0.186028
-0.486922
0.590128
-0.689642
-0.334883
-0.010351
0.163666
-0.446370
-0.501379
-0.414789
0.621048
0.087348
0.783355
-0.824380
0.937783
0.739811
-0.588170
-0.749170
-0.916641
0.104073
-0.717617
-0.226421
0.720561
-0.519683
-0.203738
-0.711250
-0.019710
-0.963366
-0.766990
-0.098222
0.961659
0.947364
-0.835431
0.611204
-0.649698
0.145350
0.711645
0.477379
-0.502477
-3.531641
0.609772
-0.454681
-0.198492
0.309746
-0.858693
0.875189
-0.435019
-0.282969
-0.533472
-0.739611
0.469194
-0.871014
0.270075
-0.250462
0.324124
0.644618
0.689208
-0.596584
0.470723
0.279529
0.766994
0.647004
-0.561934
-0.662046
0.561142
0.215633
0.900379
0.848891
0.383329
-0.144915
0.412624
-0.954160
-0.811217
-0.743439
-0.833759
0.311990
0.764410
0.265110
0.762628
-0.046991
0.511594
0.665072
0.257408
-0.981670
0.924573
-0.852202
0.166100
0.177686
-0.938322
-0.714907
-0.841153
-0.410037
-0.548184
0.050057
-0.226172
-0.303234
0.328320
-0.187359
-0.523891
-0.096445
0.005405
-0.545932
-0.819769
0.956692
0.505584
-0.627752
-0.151412
0.824054
0.269775
-0.677266
0.777488
-0.802580
0.353227
0.279091
-0.589023
-0.302691
0.321100
0.418510
0.674521
-0.704082
-0.826654
0.487998
-0.646330
-0.785413
-0.863475
-1.113488
0.988670
-0.285619
0.794511
0.510804
0.162619
0.797364
0.594354
-0.470416
0.046704
0.840319
-0.653481
0.551910
0.675537
0.493601
0.878545
-0.920458
-0.344711
-0.594328
-0.060513
-0.038239
-0.137614
-0.571613
0.086824
-0.424133
0.505150
-0.054074
0.128239
-0.037578
-0.647005
0.797177
0.844844
-0.102473
0.576966
-0.449823
-0.642557
-0.529850
-0.162508
-0.761035
0.021356
0.735570
-0.500811
0.482072
0.739244
-0.187812
0.571895
-0.886837
-0.753148
0.537448
-0.484651
0.821565
-0.935265
-0.211635
0.988429
-0.987357
-0.317489
-0.569066
0.548695
-0.874505
-0.417011
-0.459617
0.882876
-0.569231
0.650981
0.694902
-0.319845
0.370537
0.385802
0.997770
0.900586
0.615001
-0.756787
-0.946226
-0.476947
0.713783
0.613268
-0.719811
0.433082
-0.988481
-0.838788
0.029755
0.489691
-0.917859
-0.175945
0.121517
-0.428726
-0.556684
0.659882
0.815948
-0.222513
-0.470557
0.092213
-0.062488
0.422702
-0.401774
-0.574134
0.864694
0.912262
0.475027
-0.989124
0.967256
-0.454416
-0.636600
-0.697773
0.587055
0.735923
0.605436
0.880457
0.315044
0.157223
0.778470
0.629793
-0.227001
0.299659
0.779283
0.117671
0.531388
0.908917
0.240293
0.876833
-0.683623
0.879849
0.513348
0.771108
0.733995
-0.889505
-0.573734
-0.750547
0.129089
0.423535
-0.369261
0.097496
0.761533
-0.545843
0.998543
-0.631770
0.041537
-0.517368
-0.689977
0.947546
-0.925505
0.787465
-0.643451
0.744984
-0.378215
-0.306299
0.734056
-0.694309
0.252543
-0.267778
-0.086342
0.517511
-0.691557
-0.848235
-0.656410
0.975814
0.530607
0.980632
-0.963611
0.589271
0.294643
0.301169
0.304730
-0.705025
0.064091
0.948068
0.964614
-0.441436
0.191905
-0.046998
-0.116664
0.521882
-0.818615
0.937309
0.217295
-0.896512
-0.168141
-0.259366
0.746170
-0.061177
-0.416027
0.241465
0.816960
0.758057
0.698780
0.292421
-0.690865
0.989731
0.872386
-0.894110
-0.895657
0.170431
0.240107
0.523251
0.157600
0.195486
-0.012603
-0.065534
-0.004218
0.489128
0.268896
0.839971
-0.725746
0.018444
-0.137589
-0.314157
0.585662
-0.701044
0.221940
-0.309944
-0.530890
0.612820
0.264174
0.670372
0.818423
0.733140
0.202624
0.644669
0.802546
-0.660954
0.572757
-0.537869
0.143087
0.181995
-0.753100
0.956838
0.122815
-0.796123
-0.144665
0.062610
0.628190
0.745566
-0.553662
-0.751233
0.239129
0.762743
-0.963545
0.166251
0.401812
0.053055
0.272322
0.476626
-0.358933
0.239519
0.214844
-0.565363
-0.361698
-0.685471
-0.108418
-0.056751
-0.333211
0.222831
0.350110
-0.567413
-0.024441
0.802133
0.471699
-0.543337
0.232375
-0.505594
0.179866
-0.832299
-0.410306
0.239946
0.491531
-0.003707
0.204515
0.574285
0.669935
-0.994742
-0.225075
-0.171448
-0.881435
0.943961
0.906637
-0.610107
0.244479
-0.818895
-0.341651
-0.630373
0.138685
-0.602360
0.104169
-0.205105
-0.200339
0.505554
-0.180831
-0.559163
-0.841157
0.656011
0.014900
0.240382
-0.634168
0.798300
0.003591
-0.566371
0.007137
0.943476
-0.746414
0.634641
-0.510582
0.077283
0.494609
0.681604
-0.024990
-0.857978
-0.814122
0.119477
0.502399
0.562201
-0.215469
-0.896240
0.010522
0.588888
-7.488752
-0.263273
-0.553827
0.161028
0.230428
-0.445962
0.642266
0.000746
-0.762037
0.356265
0.474365
-0.000752
-0.271798
-0.799068
0.810849
0.087405
0.160880
-0.755095
0.590272
-0.873598
0.770647
-0.863707
-0.091805
-0.409743
-0.764849
0.930428
0.966478
0.221946
-0.084804
0.681264
-0.575792
0.239988
-0.113380
-0.898268
-0.824299
-0.457542
-0.657644
0.977011
0.832636
-0.431152
0.746120
0.149771
-0.158939
0.666033
0.332948
0.499871
0.291581
-0.164502
-0.195440
-0.689085
-0.539507
-0.639899
0.159796
0.578116
-0.141742
0.152218
-0.328062
-0.086881
0.516775
0.908174
-0.787460
0.594913
-0.805320
-0.642936
0.834863
-0.572610
0.147710
-0.490161
-0.632973
-0.391001
0.313437
-0.023877
0.754543
0.621420
-1.001476
-0.692193
-0.517079
0.465999
-4.107272
0.923212
0.466512
-0.121676
-0.015613
0.912826
-0.733209
0.358926
0.334504
-0.568251
-0.066011
-0.381455
0.600494
-0.187330
-0.924490
-0.240908
-0.183591
-0.119147
0.364647
-0.939853
0.457509
0.337824
0.120205
0.036079
-0.156367
0.042659
-0.737071
0.599459
-0.086262
-0.079490
0.424826
0.737469
-0.950051
0.417489
0.758721
0.069577
-0.320583
0.451895
0.576948
-0.240603
0.389531
-0.914811
-0.802462
0.047722
-0.197227
-0.582795
0.471387
0.033256
-0.400232
0.693201
-0.946034
-0.896123
-0.895692
0.629180
-0.165266
0.963202
-0.683462
-0.169886
-0.003454
0.505213
-0.455878
-0.599936
-0.649493
0.270014
-0.383704
-0.694792
0.814791
0.797862
-0.838878
-0.330921
0.774715
0.213173
-0.184507
0.628718
-0.683693
-0.339549
-0.573053
0.129415
0.965011
-0.403770
0.655830
-0.569579
0.871275
-0.155354
-0.034585
0.517985
-0.351993
-0.630854
-0.762709
0.716492
-0.690663
-0.513879
-0.548935
-0.624525
-0.425723
0.958313
-0.761919
0.721210
0.194259
0.401371
0.126762
-0.130799
-0.385487
0.517421
0.516150
-0.586659
-0.400507
0.425513
0.287466
0.169848
0.530050
-0.341458
-0.963639
0.144043
-0.902440
0.413197
0.645751
0.089408
-0.770632
0.974770
-9.306089
-0.012817
0.717662
0.217363
0.536058
0.811720
-0.875010
-0.283058
0.941098
0.114914
0.505470
0.416022
-0.262879
0.860784
0.092238
0.558864
0.821611
0.170953
-0.219206
-0.222065
-0.551392
-0.658286
-0.213998
-0.929487
-0.303849
0.215401
0.811080
-0.422412
-0.102280
-0.793533
-0.476874
-0.593013
0.596162
-0.599452
-0.256593
0.285346
-0.440417
-0.794283
0.601990
-0.838641
-0.426995
0.442196
0.913385
0.510344
-0.593229
0.895922
0.218852
-0.975375
-0.349390
0.409961
0.816553
0.936049
-0.651790
0.545648
-0.327333
-0.020317
0.702973
-0.265985
-0.025234
0.282896
-0.391865
0.956632
0.683754
-0.034354
0.591095
0.845143
0.459314
0.313187
0.227834
0.280202
0.277302
-6.884294
0.969321
-0.399853
0.039500
-0.752438
-0.643025
0.172671
-0.925442
0.736200
0.655170
0.998046
0.881413
0.278190
-0.120739
-0.980731
0.705970
-0.728122
-0.850811
0.136646
-0.276135
0.028390
0.932506
-0.157777
0.324028
0.409840
0.973174
0.963527
-0.907994
0.354863
-0.062783
-0.755412
0.192484
-0.704696
-0.602241
-0.649180
0.889477
-0.196031
0.184322
0.436000
-0.373680
-0.665023
0.379182
0.428970
-0.659810
0.854074
-0.878336
-0.400377
0.249915
0.275443
0.454451
0.074858
-0.055541
0.659807
-0.524017
0.973184
-0.962786
-0.369360
0.756017
0.257946
0.341566
-0.433478
-0.904362
0.523022
0.196153
0.005382
-0.150253
-0.064519
-6.722701
0.014517
-0.165818
0.630208
0.559852
-0.510926
-0.947967
0.236996
0.415219
-0.390277
-0.273742
0.153644
-1.039873
0.786698
-0.680247
-0.902087
-0.855226
-0.040093
-0.052978
0.035283
0.793626
-0.249660
0.567074
0.024851
-0.934354
-0.941360
-0.007163
0.160903
0.500332
-0.642376
0.966837
0.019639
-0.814352
0.894139
-0.180915
0.561593
-1.037909
0.999287
0.158163
-0.595141
0.870664
-0.018733
0.287453
0.326092
-0.128010
-0.462569
0.209055
0.562718
0.245927
-0.562167
0.704643
-0.113505
0.846642
0.273369
0.987750
0.798370
0.199920
0.547190
0.772565
-0.800028
0.703822
0.369216
-0.217912
-0.979720
-0.141215
0.274240
-0.183451
-0.644547
-0.777898
-0.684687
-0.409294
0.371974
0.716609
-0.749885
0.487993
0.611563
0.523702
0.507096
0.225874
-0.157456
0.412019
-0.909792
-0.257866
0.044512
-0.156326
-0.933473
-0.723691
-0.033078
0.637603
0.129922
-0.873205
0.711896
-0.742281
-0.300859
-0.562257
-0.241822
0.615168
-0.580944
-0.847415
-6.262009
-0.184995
-0.066215
0.231396
0.470863
-0.977415
0.592467
-0.341000
-0.607335
-0.502222
0.338052
0.549418
0.712523
-0.557111
-0.110237
-4.845104
-0.431884
-0.752477
0.033398
0.816786
0.545823
-0.370063
0.610919
0.798012
-0.550954
-0.582696
-0.162774
-0.852472
0.693301
-0.302629
-0.893644
-0.279013
-0.799857
-0.170896
0.477425
-0.471748
0.915278
-0.227554
0.571744
-0.606149
0.452692
-0.367660
0.749796
0.610969
0.190435
0.024361
0.676348
-0.769467
-0.431317
0.639280
-0.919562
0.576034
0.244832
-0.359382
0.784889
0.894475
0.122546
0.379762
0.624441
-0.113089
-0.791014
-0.482305
0.781036
0.857221
0.056809
0.228287
0.030579
0.197753
-0.977551
0.060858
-0.767762
0.577471
0.295189
0.947060
-0.960152
0.269952
-0.604553
0.120728
0.069099
0.581136
0.255396
-0.863715
0.524031
-0.202577
-0.946449
0.621148
-0.531814
-0.844665
-0.213713
0.539025
-0.327544
0.519256
-0.972921
-0.964098
0.180165
0.550127
-0.685134
-0.798863
-0.611794
0.812955
-0.224226
0.679493
0.361630
-0.635857
0.842953
0.213705
-0.831441
-0.519186
0.190560
0.500895
0.158694
-0.236264
-0.390994
-0.209982
-0.636904
-0.963121
-0.899706
-0.208317
0.629173
0.625753
-0.315020
-0.217337
0.544683
-0.362931
-0.908615
-0.830153
0.621015
0.845322
0.479360
-0.401651
-0.922331
-0.515427
0.024439
-0.410879
-0.339618
-0.259493
-0.811917
0.952247
-0.397148
-0.703595
-0.302652
-0.366131
0.110589
-0.461343
-0.968191
0.982734
-0.611158
-0.310517
0.426832
0.115354
0.539086
0.512366
-0.586319
-0.898125
-0.314956
0.433884
-0.837714
-0.988869
0.989967
0.952008
-0.866509
-0.611107
-0.296955
0.917107
-0.055085
-0.399141
0.154657
0.972493
0.426782
-0.490632
-0.988962
-0.337773
0.307737
0.681918
0.961470
-0.004848
-0.366672
-0.585923
0.684362
0.780130
0.151428
0.214194
0.835438
-0.274114
0.199699
0.858378
-0.591553
-0.982184
0.113256
-0.738728
5.539438
0.780941
-0.585029
0.554379
-0.530028
-0.736987
0.699291
-0.859584
-0.646054
-0.174616
0.834968
-0.530660
-0.429494
-0.027897
0.570017
-0.712519
-0.508372
-0.534553
-0.553983
0.349816
-0.379551
-0.674596
-0.220341
0.021723
0.656274
0.155207
0.838697
0.639158
-0.334821
-0.131219
0.459843
-0.586966
0.136620
0.665344
0.512568
0.160766
0.612380
0.550021
-0.529581
0.101557
0.117093
0.578235
0.970190
0.619180
-0.071236
-0.757624
-0.025038
-0.716571
-0.421304
-0.621157
-0.446988
-0.893895
-0.099148
-0.122681
0.409152
-0.895041
-0.550551
-0.096301
-0.033266
-0.640033
0.875398
-0.501797
0.238631
0.140118
0.208605
0.316972
0.464750
-0.905467
-0.303164
0.804565
-0.453110
0.453633
-0.721116
0.843761
-0.854376
0.138049
0.404233
0.770223
0.918229
0.550520
-0.868503
-0.315283
0.575891
-0.631392
0.159538
0.332802
0.481401
0.586066
-0.056725
0.234908
0.934342
-0.227803
0.412847
-0.045575
0.777644
0.201045
0.619169
-0.862373
0.685275
-0.617371
8.692588
0.392680
0.415694
-0.832990
-0.212376
0.835326
-0.832035
-0.609414
-0.613542
-0.327130
-0.511137
-0.483847
0.338745
-0.566748
-0.555664
0.350957
0.656434
-0.130138
-0.440656
-0.250585
0.610251
-0.015867
0.963023
0.095207
0.717716
0.638106
0.022564
0.770974
0.416489
0.215796
-0.511441
-0.886838
0.983567
-0.945975
-0.718840
-0.241009
0.464196
0.642795
-0.490636
0.710402
-0.890252
0.439893
0.379117
0.024060
0.779690
-0.347377
-0.640503
0.051107
0.254984
-0.381330
0.922124
0.833199
-0.717050
0.456959
-0.226708
-0.533944
0.242539
-0.532404
0.811863
-0.222637
-0.656884
0.138407
-0.255720
-0.384060
0.494842
0.898439
0.191766
0.878851
9.641060
0.979592
0.221471
-0.410537
-0.740693
-0.124875
0.641995
0.301074
0.049830
-0.278707
0.765052
0.881785
-0.805048
-0.803788
-0.803058
-0.673784
0.044132
-0.304797
0.741577
-0.695166
-0.664792
-0.596169
-0.023264
-0.157269
-0.642051
0.235225
0.319195
-0.144235
-0.125382
-0.822628
-0.992228
-0.617444
0.602734
-0.084434
-0.325680
0.369693
-0.946304
-0.549786
-0.462355
0.366597
0.525243
0.436321
0.234317
0.038670
0.656604
0.591207
0.869228
-0.668554
-0.679048
-0.850314
0.517753
0.200325
0.676996
-0.377332
-0.451675
0.471200
0.837006
0.024528
0.376022
-0.739694
0.454130
-0.173963
-0.834359
-0.945206
0.014899
-0.407052
0.000736
-0.628122
-0.165620
-0.547928
0.249861
-0.193830
0.497940
-0.988750
0.376213
-0.482459
0.747055
-0.561717
0.105205
0.607087
-0.829824
0.740733
-0.654921
-0.854175
-0.119014
-0.637345
0.747591
0.376263
-0.192616
0.235054
0.023804
-0.839114
-0.613332
-0.293120
0.454113
0.113501
0.562030
-0.882318
-0.711116
-0.318814
0.538785
-0.124579
0.285341
-0.259172
0.647666
0.836861
0.713369
0.025520
0.663340
0.031561
0.688289
-0.019764
0.433090
-0.297998
0.353235
0.959170
0.584239
7.859182
0.972933
-0.090821
-0.300404
0.010095
0.634261
-0.778883
-0.129839
0.504721
-0.031117
0.704440
0.616946
0.819171
-0.244298
-0.372685
0.254983
0.556687
0.135738
-0.170051
-0.875995
0.106834
-0.839232
0.197141
0.616652
-0.307739
0.804842
0.346513
0.770390
0.365773
-0.275621
-0.068914
0.243542
0.280947
-0.795443
-0.104913
0.136263
0.372277
0.575728
-0.191650
0.844382
0.757260
-0.103605
3.985104
-0.144612
0.630397
0.482306
-0.185696
0.967125
-0.541743
-0.147834
-0.679305
-0.381212
-0.396251
-0.681471
-0.232184
0.071111
0.341001
0.154337
0.474911
0.556018
-0.053355
-0.744820
0.490359
0.264071
0.967079
0.671452
0.904305
0.677199
-0.935479
-0.217942
-0.212689
0.633376
-0.609407
-0.640186
-0.877461
0.062990
-0.969400
0.196229
0.225599
0.635377
0.711702
-0.808369
0.056308
-0.142956
0.543372
0.116816
-0.458988
-0.182881
0.776433
-0.518507
-0.095023
-0.740089
0.470728
-0.753314
0.482089
0.458112
0.258143
0.636801
-0.736249
0.250887
-0.940457
0.348051
-0.607363
-0.334984
0.396455
-0.528316
0.095003
0.647755
0.805466
0.825252
0.002331
-0.515539
0.043583
0.613584
-0.631861
0.465288
-0.209489
-0.378251
0.868787
0.661288
-0.682851
-0.556384
0.132583
-0.800825
0.334555
-0.721816
0.126695
-0.455852
0.051880
-0.190170
0.149669
-0.277529
-0.212058
-0.686358
0.581654
0.838492
-0.149118
-0.887006
-0.166878
-0.088142
0.841769
0.124936
0.246463
0.522744
-0.717499
0.843109
-0.324430
-0.929561
0.197313
0.309756
-0.709619
0.210430
0.832632
0.608237
-0.989954
-0.931750
-0.973604
0.254919
-0.318343
-0.461730
-0.937846
-0.725546
0.004011
-0.003410
0.468105
-0.018851
-0.855801
-0.097017
-0.420023
-0.224444
0.879349
0.594694
0.645784
0.805400
-0.258370
-0.467748
-0.614757
0.031309
0.708122
-0.151189
0.890798
-0.521629
-0.393237
-0.953601
0.257132
-0.810178
0.541222
0.788646
0.423243
0.852480
-0.116030
-0.837710
0.674862
-0.967041
0.758307
-0.843325
0.620543
0.349111
-0.056882
-0.251950
-0.409358
-0.477956
-0.411435
0.050246
0.366379
0.671345
-0.326778
-0.123336
0.019079
0.720266
0.160209
0.892088
-0.969791
0.176369
-0.473156
0.262779
-0.567089
-0.632739
0.006697
-0.595116
0.400812
-0.335038
-0.007217
-0.860537
0.407704
0.446810
0.077747
-0.660069
0.206090
0.724868
-0.257129
0.560871
-0.523632
0.277367
0.614256
0.141845
-0.491003
-0.890087
-0.023579
-0.921173
0.248998
0.402408
0.923359
-0.979475
-0.524055
0.960250
-0.220588
-0.549656
0.502981
-0.621126
0.552447
0.834841
0.037608
0.096372
0.754019
-0.383817
-0.704872
0.307518
-0.778928
0.292159
0.700533
0.338458
0.040861
0.785602
0.882812
-0.565385
0.233504
-0.959023
0.002961
-0.727797
-0.135499
-0.824029
0.861538
0.724249
-0.544907
7.045013
-0.024840
-0.625489
-0.688130
0.774293
-0.534318
-0.843081
-0.762943
0.081914
0.341471
-0.063242
-0.209461
0.627286
0.566985
0.779769
-0.330745
-0.672472
0.174228
0.620246
0.252680
0.020484
0.753558
-0.853950
-0.919173
-0.658163
0.013942
-0.021789
0.501023
-0.313919
0.156024
-0.617517
-0.116544
-0.514180
0.114157
-0.453886
-0.728464
-0.115589
-0.323732
-0.309589
0.865402
-0.828769
0.360695
0.178182
0.250549
-0.365518
-0.507426
0.563671
0.577919
0.597677
-0.671546
0.215541
0.136904
0.620804
0.624521
0.999421
-0.496345
0.000544
-0.069089
-0.083065
-0.989057
-0.498723
-0.733545
-0.172419
-0.025185
-0.496504
0.470620
-0.191881
0.759754
0.606050
-0.161160
0.278999
0.356502
-0.455450
0.610007
0.881079
-0.582916
-0.718182
-0.673921
0.031596
0.301350
0.728850
-0.478705
0.304042
-0.691692
-0.859077
-0.466882
0.053328
0.271865
0.429870
-0.897343
0.942007
-0.936849
0.388437
-0.336870
-0.661931
-0.291321
0.768878
-0.047582
-0.113543
-0.298815
-0.652787
-0.847823
0.266736
-0.473593
0.110205
0.787433
0.145665
-0.822012
-0.067108
0.734944
-0.040745
-0.587911
0.914299
0.488374
-0.576263
-0.084755
0.491214
0.003061
-0.201103
0.028634
-0.978919
0.487840
0.508366
-0.047611
0.447030
0.826005
0.727098
0.784318
-1.205320
-0.376839
-0.628034
-0.776075
0.703004
0.013257
-0.645279
-0.671726
0.723376
0.471451
0.600798
0.209964
0.332791
-0.363151
0.694650
-0.366420
0.254402
0.441494
0.598396
-0.182841
0.439533
0.709795
-0.175370
0.745796
-0.223427
-0.977228
0.185636
-0.227340
-0.034541
0.612162
-0.364742
-0.011122
-0.012377
-0.595497
0.791581
-0.103962
0.777622
-0.376017
0.479365
0.651042
-0.147399
0.051551
0.024448
0.465510
0.173886
-0.973496
-0.506477
-0.406597
-0.684099
0.411861
0.715097
0.856610
-0.649712
-0.121333
0.691351
0.017820
0.519529
-0.071450
-0.152553
-0.753171
-0.599264
-0.701075
0.632451
-0.016509
0.476415
0.364557
0.669506
-0.704065
-0.614580
0.150822
-0.248437
-0.495032
0.375992
0.254645
-0.545693
-0.992966
-0.530626
0.929270
0.558383
0.062916
-0.016072
-0.531320
-0.467929
0.928669
0.603018
-3.414675
-0.243688
-0.428435
0.697115
0.841866
-0.505914
0.959193
0.905071
0.467422
-0.372670
0.950768
0.413030
-0.187945
0.613349
0.965095
-0.565837
-0.422765
0.928344
0.418812
-0.898894
0.839348
-0.981442
-0.083344
-0.769206
0.222601
-0.308014
-0.443016
0.321281
-0.053235
-0.355785
-0.134685
-0.366924
-0.903289
-0.237199
-0.857649
-0.675499
0.876551
-0.319742
0.675137
-0.467632
0.214303
0.307747
-0.055140
0.331412
0.495998
-0.087557
0.402346
0.790304
-0.091777
0.731755
0.203599
-0.653873
0.271611
-0.302870
-0.583882
0.502387
0.254339
0.915447
-0.686349
0.328096
-0.686141
0.781326
0.349640
0.711228
-0.850868
0.672590
0.633623
0.317349
-0.373128
0.966779
0.940679
0.404733
0.752533
-0.365531
-0.661687
0.726857
0.841612
-0.104254
0.671060
-0.175817
0.657026
0.649289
0.829836
0.768566
-0.172610
-0.845236
0.887034
-0.853556
0.551841
0.428295
-0.084672
0.362994
0.641232
-0.123416
0.512603
0.145186
0.748793
-0.528023
0.086592
0.731721
-0.928172
-0.399663
-0.421522
-0.201920
0.269775
0.333097
0.068963
0.706043
0.892385
-0.931131
0.296519
0.608540
-0.550256
-0.135296
0.005026
0.018231
0.666984
0.968641
-0.039182
0.835148
0.561065
0.200101
0.922260
0.982580
-0.758669
0.293746
-0.645716
0.696427
0.118589
0.414827
0.889657
0.181650
0.804347
0.665538
-0.038968
-0.688295
0.339590
0.661336
-0.596446
0.426991
0.113221
0.476139
0.783049
-0.786633
-0.481794
0.256584
-0.158320
0.396553
-0.601485
0.619307
0.351680
-0.716635
0.340066
7.201878
-0.080846
0.296350
0.496423
-0.881409
0.761457
0.437977
0.203253
0.844998
0.887112
0.533134
-0.461062
-0.284694
-0.099216
-0.639314
-0.459519
0.765897
-0.414491
-0.717119
0.691205
-0.490711
-0.145973
0.477005
-0.473328
0.045821
0.075478
-0.471634
0.350840
-0.857972
-0.780088
0.874853
0.589965
0.223057
-0.652534
-0.948949
-0.450022
-0.147286
0.594758
-0.155614
0.045679
0.579630
-0.005872
-0.884793
-0.200359
0.434264
0.664221
-0.962520
0.297055
-0.504484
-0.933105
0.575730
0.501489
0.260172
0.613990
0.265532
-0.153622
-0.002627
-0.608880
-0.880843
-0.367457
0.049292
-0.713610
0.903022
0.973893
0.261087
0.606810
0.690562
-0.412371
0.639197
-0.801351
-0.693502
-0.239890
-0.829713
-0.569154
-0.858336
0.021658
0.283646
0.782982
-0.854039
-0.332619
0.033460
0.388774
0.772872
0.610408
-0.622488
0.553525
-0.778284
0.018750
-0.607733
-0.750816
-0.709950
-0.302951
0.210230
-0.535913
0.251924
0.454141
-0.551143
-3.331913
-0.047743
0.784407
-0.600763
0.109349
-0.167328
-0.987298
0.665660
-0.910606
-0.645961
-0.603765
-0.682444
-0.040937
0.144542
-0.968612
-0.961590
-0.608908
-0.525735
-0.499647
-0.423093
-0.912174
-0.522970
-0.222572
-0.701452
0.121514
7.392734
-0.635362
0.406411
0.649195
0.480876
0.127540
0.184743
0.713497
-0.956749
-0.578243
-0.869920
0.242952
-0.235886
0.800066
0.438669
0.498764
-0.155130
0.454817
0.422505
0.848570
0.509349
-0.780170
0.251905
0.282953
0.197759
-0.142296
-0.106802
0.493900
-0.231003
0.230766
0.276083
-0.687531
0.906843
0.131071
0.695906
-0.018118
-0.193220
0.725368
-0.260272
-0.369017
0.589862
-0.099225
0.618982
0.196219
0.058794
-0.582123
-0.408701
-0.801922
0.168924
-0.874520
-0.211945
0.592208
-0.368702
-0.423175
-0.025723
-0.231194
0.489182
-0.678743
-0.381745
-0.154429
0.301557
0.821162
0.247515
-0.041671
0.618165
-0.578582
0.317160
-6.933253
-0.893071
0.069873
0.453119
0.832637
0.106713
-0.334594
-0.551048
-0.660181
0.796133
0.591672
0.087641
0.982134
0.045910
-0.293841
-0.469123
-0.083777
0.292370
0.121592
-0.951274
0.094786
-0.088406
0.297179
0.633073
0.260194
-0.266372
0.651224
0.079507
-0.500916
-0.100650
0.973763
0.027987
0.266987
0.948951
0.919426
-0.173140
0.930673
-0.884101
0.768126
0.117539
-0.292707
-0.976620
-0.985871
-0.877477
-0.865047
0.132781
0.773433
-0.441560
0.943549
0.074880
-0.615819
0.570963
-0.393594
-0.827945
0.411737
0.257298
-0.085570
0.398356
0.522704
-0.992935
0.997135
-0.226159
0.434370
0.077856
0.930812
-0.434615
0.633952
-0.708273
0.012834
-0.731102
-0.906693
-0.163022
-0.826270
0.663825
-0.360640
-0.749174
-0.131347
-0.449113
0.774197
-0.246557
-0.404420
-0.777104
-0.114035
-0.776403
0.592890
-0.048950
0.715087
0.788881
0.040077
-0.156577
-0.735299
0.506930
0.509879
-0.986300
0.487087
0.504727
-0.575869
-0.126714
-0.378537
0.720731
0.087857
-0.900055
-0.748980
-0.166283
-0.226250
0.126607
-0.954223
-0.329818
-0.745563
-0.506788
-0.128092
-0.016416
-0.061740
0.174836
-0.155584
-0.438591
-0.029758
-0.196452
0.031496
0.525669
0.995047
0.123134
-0.014096
-0.907442
-0.395460
0.778943
0.128103
-0.433140
-0.705743
-0.871796
-0.728446
-0.266629
-0.949295
0.869587
-0.017513
-0.441475
0.592976
-0.854965
0.895357
0.656876
-0.806734
0.416571
0.548899
-0.526527
-0.463063
-0.334758
-0.446452
-0.468277
0.063626
-0.483506
0.431168
-0.883426
-0.799261
-0.400513
0.193029
-0.695755
0.641755
0.584506
0.843265
0.485703
0.081927
0.205460
-0.954299
0.259349
-0.965429
-0.140885
0.471181
0.579931
-0.541566
0.491669
0.229546
0.780556
-0.708010
0.743239
-0.993411
0.168459
-0.154718
0.202822
0.404434
0.423606
-0.473370
0.336767
0.514926
-0.406339
-0.573676
-0.675024
0.421139
-0.136744
0.087712
0.456689
0.782986
-0.257917
0.051983
0.671663
-0.575166
0.098940
-0.979415
-0.816188
-0.375870
-1.031791
0.079446
-0.918157
-0.840890
0.076584
-0.718503
0.458759
0.945569
0.473533
-0.057950
-0.213519
-0.486584
0.836175
-0.711036
-0.349050
-0.099508
-0.752637
0.111752
0.864148
0.831879
-0.810968
-0.607293
-0.851426
0.745359
-0.955880
0.425806
-0.879709
-0.912495
-0.678483
-0.823044
0.022053
0.623512
0.392902
-0.375138
-0.542414
0.324443
-0.456895
0.063878
0.372017
0.174180
-0.317495
0.268941
0.494593
0.291307
-0.098206
-0.939467
0.821424
5.861354
0.982115
-0.498070
-0.498183
0.824168
-0.042287
0.230676
0.435843
-0.292200
0.746387
0.983889
-0.677096
-0.458038
0.329335
0.991352
-0.137345
-0.160603
0.672783
-0.436134
-0.773971
-0.316241
0.033453
0.782508
-0.384585
-0.785432
0.844996
0.917044
0.483384
-0.471103
0.528284
-0.865719
-0.119438
0.435750
-0.304625
-0.523505
-0.862780
-0.336358
-0.827886
-0.281160
-0.467138
-0.423576
0.200046
0.776934
-0.754023
0.569280
0.002723
0.219786
-0.166715
0.371641
-0.888786
0.831191
-0.663518
0.756310
0.366793
0.434492
0.861108
-0.562802
-0.814500
0.081715
0.629469
-0.082319
0.510178
0.599306
0.249315
0.612887
-0.960805
0.506226
0.177686
-0.023630
0.358250
0.004806
0.980738
-0.985989
-0.428032
0.637628
-0.074893
0.330043
-0.732502
0.417951
0.235948
0.013965
-0.182591
-0.011774
-0.984454
0.405533
0.894620
-0.460291
0.699122
0.766030
-0.065179
0.638344
0.100785
0.650702
-0.135688
0.163144
-0.002574
0.936839
-0.581475
0.413070
0.986828
-0.283230
-0.199084
0.642874
0.119138
-0.255633
0.019970
0.071081
0.054440
-0.919472
0.349669
-0.394874
0.581354
0.885318
0.047414
0.096377
0.901072
0.607518
0.240058
0.612249
0.277098
0.000611
-0.981797
-0.017710
0.730003
0.226245
-0.455067
0.103167
-0.144439
0.621261
0.226650
-0.884601
0.011637
-0.624748
-0.130208
0.445004
0.016031
-0.850751
0.542417
-0.456237
-0.451309
0.737149
0.337475
-0.023975
0.088610
0.595661
-0.031124
-0.626203
-0.627218
0.254792
0.078367
-0.109778
-1.061088
0.461246
0.709096
0.782516
-0.136305
-0.291744
0.248518
-0.255665
-0.737175
0.450813
0.948638
0.134768
0.526427
-0.466137
-0.030584
0.186118
-0.359710
0.130350
-0.293586
0.896085
0.252214
0.312619
-0.127573
-0.933079
0.055180
-0.899485
0.773179
-0.166189
-0.091214
0.876016
-0.800259
0.319463
-5.265044
0.333488
0.986543
0.644301
-0.355269
-0.742779
-0.042598
-0.567762
-0.640928
-0.988857
0.077660
-0.583576
-0.603369
0.406489
0.695031
-0.134798
0.055128
-0.000050
0.967009
-0.731597
0.427397
-0.723912
-0.324048
0.870949
-0.129889
0.641557
-0.397188
0.558717
-0.526133
-0.524071
0.548890
0.223555
-0.970675
0.052962
0.952804
0.897292
-0.526473
-0.227880
-0.546546
0.889439
-0.918999
5.542576
0.797388
-0.831569
-0.579207
-0.283506
-0.852696
-0.764516
-0.717093
-0.391474
0.587183
-0.823172
0.553601
-0.697047
0.564385
-0.680998
0.178617
-0.711487
0.122174
-0.991719
-0.840133
-0.993661
-0.640052
0.091343
-0.074174
0.231969
-0.327626
0.554216
-0.262143
0.666238
0.041976
-0.533369
0.715301
0.994617
-0.867312
0.776469
0.061864
-0.825137
-0.581810
0.445212
0.929815
0.290813
0.615788
0.305677
0.667456
0.460239
0.856680
0.503052
0.687357
-0.883808
-0.193550
0.204417
-0.335941
-0.427954
0.284022
0.847661
-0.421846
0.582290
-0.769197
-0.089807
-0.921856
0.622113
-0.653055
0.584689
0.338056
0.756348
0.489663
0.202271
-0.629395
0.510194
0.645105
0.639559
0.891689
0.601973
0.013107
-0.223555
-0.484150
-0.375694
0.963938
-0.522946
-0.623604
-0.721230
0.546805
-0.646273
-0.739918
0.206169
-0.086313
0.172894
-0.633936
-0.553714
-0.828605
-0.535675
0.297067
0.470089
0.127712
-0.289908
0.424055
-0.676717
-0.578931
0.057077
-0.146495
-0.312593
-0.317275
0.305812
-0.924112
-0.154798
0.024840
-0.708509
-0.607278
0.272983
-0.213301
-1.001341
-0.466099
-0.198363
0.580717
0.961663
0.208778
-0.872873
-0.490702
0.259210
0.043436
0.241861
-0.860699
0.460296
0.493540
-0.223600
-0.237131
-0.252520
-0.036325
-0.001604
-0.448793
-0.404784
-0.139553
0.319018
-0.243225
0.504166
-0.267366
-0.653139
-0.832364
-0.217163
-0.610657
0.992687
-0.349674
-0.227386
-0.977346
-0.735802
-0.351170
0.953634
-0.671807
-0.887444
-0.547988
0.441122
0.607194
0.987325
0.245866
0.201582
-0.955522
-0.677486
-0.883201
-0.753492
0.201669
-0.484031
0.646147
0.408411
0.909340
-0.488318
-0.675770
-0.491381
-0.415609
0.352919
-0.079098
0.907805
0.639233
0.315989
-0.741076
0.352690
0.466577
0.565000
-0.928742
0.160821
0.101368
-0.308970
-0.799096
-0.874188
-0.680619
-0.212276
0.778150
0.611703
0.355687
0.630845
-0.833888
-0.903850
0.104358
-0.174345
0.558805
0.695471
-0.873809
-0.423921
-0.267273
0.472553
0.764592
-0.182835
0.781103
-0.054292
-0.889504
0.109138
-0.068346
0.336048
0.356561
-0.069866
-0.295760
-0.026779
0.351415
-0.223294
0.646557
0.872144
-0.053900
-0.225996
-0.697553
-0.530665
-0.177268
0.054927
-0.073422
0.737805
-0.558018
-0.847082
0.303279
0.141114
-0.119826
0.810978
-0.372883
0.155555
-0.249497
0.583387
0.180063
-0.368781
-0.926247
0.407639
0.268556
0.185128
0.896331
0.066540
-0.900198
0.952521
0.296538
-0.481679
0.588509
0.626327
0.351099
-0.770227
0.377473
0.819352
0.101292
-0.132662
0.651320
-0.333337
-0.276508
0.538775
-0.433342
0.184541
-0.430502
-0.357143
0.106364
0.156315
-0.173235
0.506619
0.593314
0.492788
0.852230
0.197877
-0.591525
0.119758
0.318486
-0.373914
0.415218
-0.164785
0.983132
-0.397142
-0.727457
0.977471
0.145241
-3.924747
0.258698
-0.452573
0.099616
0.800482
-0.561346
-0.387982
-0.046150
0.199705
-0.345153
-0.998579
0.201812
0.283624
-0.301219
-0.605279
0.864452
0.763600
0.721598
-0.928899
0.461668
-0.653915
-0.152501
0.389078
-0.742350
0.574756
0.459188
-0.459893
-0.303958
-0.875835
0.905082
0.259359
0.297478
-0.051280
0.364141
-0.072189
0.247211
-0.394669
-0.403668
0.151886
0.073369
0.482692
-0.028939
-0.552293
-0.915503
0.474505
-0.784867
-0.589413
0.903521
0.783010
-0.036085
-0.080438
0.476636
-0.673838
0.881231
-0.445786
-0.602324
0.983297
-0.330887
-0.084177
0.035231
0.105823
0.390403
0.188433
-0.645758
-0.777834
-0.270175
0.958404
-0.268466
-0.615817
0.371026
-0.155798
-0.619368
-0.065679
0.291809
-0.888636
-0.951432
0.050709
-0.347946
0.256655
-0.040459
-0.920604
-0.370665
0.576043
-0.735948
0.821954
0.772731
-0.387096
0.086283
-0.353608
0.581337
-0.942600
-0.447544
0.575264
-0.038564
-0.204532
-0.498482
0.489660
0.209571
0.933944
-0.419530
0.035760
-5.495063
0.241589
-0.852357
0.561671
-0.638951
-0.586510
-0.342230
0.282722
0.636733
-0.831491
0.710141
-0.595490
0.021399
0.702846
0.877822
0.425305
-0.003118
0.926917
0.918025
-0.106001
0.647591
0.120082
0.971191
-0.228723
0.674286
0.459807
-0.586049
0.570389
-0.079680
-0.468370
-0.311247
0.970003
-0.784900
-0.248057
-0.692266
0.013751
0.422092
0.906808
-0.433301
-0.253240
-0.309229
0.209293
-0.115733
-0.019509
-0.226476
0.303058
-0.188379
0.586080
-0.252404
0.813277
-0.458781
-0.411840
-0.250200
-0.280862
-0.615468
0.829746
-0.582657
0.107058
0.577696
0.195877
-0.948771
0.685642
0.704964
-0.105813
-0.092907
-0.121382
0.655141
-0.102365
-0.656662
0.848226
-0.395974
-0.268062
0.411824
0.171973
-0.683152
0.379301
0.901978
-0.349241
-0.351409
-0.866908
0.846153
-0.682437
-0.075848
0.568826
0.358561
-5.344535
-0.845193
-0.543316
0.218506
-0.018867
0.085421
0.689749
0.095624
-0.028076
0.290005
0.671092
0.900327
-0.687851
0.160780
-0.294254
-0.085293
0.802973
-0.462652
0.370833
-0.134849
0.488483
0.902836
-0.511412
-0.382228
-0.617622
0.672574
0.650772
-0.498375
-0.998604
0.046730
0.134648
0.775297
-0.973903
0.787923
-0.296533
0.467048
-0.498970
-0.237543
0.338831
0.866170
0.539381
0.955874
0.003026
0.199202
0.239113
0.054674
0.767775
-0.825260
-0.904313
-0.010007
0.382473
0.932664
0.984993
0.389244
-0.621777
0.367213
0.894041
0.509447
-0.337979
-0.744020
0.543556
-0.399988
-0.929996
0.560839
-0.150401
0.323950
-0.661693
-0.642899
0.642094
