-0.321648
0.338880
0.134092
-0.999442
-0.758122
0.899951
-0.301545
-0.951476
-0.791227
-0.827762
-0.699907
-0.244737
0.443977
-0.417712
0.602820
-0.933122
-0.637010
-0.462931
0.681157
0.294919
0.391593
0.115262
0.978865
0.598338
0.873041
0.609278
0.838707
-0.954764
-0.479964
0.793079
-0.408759
-0.293001
-0.313013
-0.784712
0.671033
0.382980
-0.259236
0.564665
-0.940780
0.721057
-0.331413
-0.098257
0.137450
0.293887
-3.816052
0.644099
-0.706205
0.054846
-0.310699
0.550667
0.923174
-0.007130
0.342480
-0.411238
0.827914
0.756306
-0.016235
-0.806675
-0.775452
0.384641
1.037335
0.872347
0.977031
-0.452629
-0.620701
-0.760278
-0.252385
-0.921336
0.280331
0.188545
0.608127
0.775799
0.997433
-0.128955
-0.754736
-0.432780
0.652168
-0.395873
-0.847387
-0.161646
0.936715
-0.507471
-0.383241
-0.442719
-0.226840
0.020168
0.944523
0.941424
-0.854292
-0.355742
0.355703
0.152783
-0.658450
-0.536523
-0.272686
-0.163267
-0.659247
-0.367912
0.361546
-0.756913
0.180342
-0.984528
0.555647
-0.534510
0.483872
-0.009589
-0.122941
0.193320
-0.905829
-0.286414
-0.376261
-0.539781
-0.100618
-0.980193
-0.059136
-0.602006
0.574256
0.579190
0.041278
-0.082043
0.553393
-0.827475
0.875272
0.402137
-0.483789
-0.747898
0.209792
0.917218
0.492161
0.999348
-0.009100
0.450238
-0.927484
0.028021
0.090585
0.569476
0.803084
-0.939407
-0.037402
-0.805266
-0.262332
0.281419
0.729389
0.960502
1.146756
0.472780
-0.191221
0.327694
-0.529448
0.582487
-0.417940
0.360395
-0.313878
0.442628
0.766597
0.622883
0.843325
0.242257
-0.152332
-0.824495
-0.687853
-0.629009
0.670027
0.338111
0.396657
0.583716
-0.205174
-0.035341
-0.603753
-0.639698
0.470593
0.881786
-0.718373
0.147061
0.789201
0.945822
-0.374485
0.173731
0.947789
0.522043
-0.759661
0.279958
-0.236815
-0.768321
0.334284
-0.469839
0.871884
-0.898388
-0.830503
-0.144588
0.179033
0.697576
0.956536
-0.508609
0.047049
0.436559
-0.958562
0.215269
0.554124
0.717630
0.878896
0.523922
0.994993
0.942044
0.655885
-0.085249
0.604297
-0.379734
0.712292
0.359313
-0.295315
0.066346
-0.829111
0.055630
0.530372
0.636561
0.135136
0.608721
-0.899660
0.807177
0.341541
0.411212
-0.775321
0.836660
0.876256
-0.220573
0.198044
-0.096228
0.952591
-0.725917
0.744720
-0.683653
0.439662
5.019509
-0.276401
-0.259300
0.650723
-0.760555
0.891247
0.511874
-0.302146
-0.387743
-0.952385
-0.916649
0.091469
-0.135526
-0.464367
0.407857
0.571089
0.805544
-0.512032
-0.775529
0.739832
-0.460721
0.121476
0.017018
0.331810
0.715738
0.784190
0.102238
0.511992
-0.013893
0.993502
0.156221
-0.909609
-0.581675
-0.843664
-0.703280
-0.780515
0.078799
-0.866444
0.208529
0.113632
0.316385
-0.121353
0.653592
0.445591
0.071008
-0.623266
0.286780
0.290260
-0.105528
-0.921057
0.517647
0.924013
0.356149
-0.948860
-0.784924
0.632658
0.086081
0.781312
0.515719
-0.533138
0.456000
0.072792
0.219610
0.382088
-0.431050
-0.110917
0.303930
0.771538
0.590024
0.025103
-0.171291
0.727360
-0.816790
-0.972173
0.736987
-0.925261
0.337219
-0.128597
0.718152
0.655889
-0.203469
0.001663
0.833615
-0.122719
0.674781
-0.036135
-0.956698
0.476232
0.395025
0.974043
-0.673639
0.404088
0.532036
-0.473103
-0.712377
0.084422
0.692872
0.407306
-0.227101
-0.712825
0.813028
-0.848331
0.145848
-0.995380
-0.174193
-0.792481
0.580267
0.631593
-0.616676
-0.449456
-0.875192
0.244788
-0.635880
-0.531508
-0.211346
0.559621
-0.285638
0.479580
-0.089515
-0.665612
0.980367
-0.260773
0.897459
0.947442
0.077866
-0.758099
0.128021
-0.213345
-0.238701
0.083418
0.611599
0.358151
0.355251
0.270376
0.907073
0.920552
-0.225159
-0.539064
-0.777626
-0.937142
0.922601
0.287962
0.303220
0.992620
-0.068627
0.655850
0.045857
-0.141968
0.707356
0.472461
0.533688
0.708481
0.535905
0.346566
-0.245017
0.077101
0.333556
0.564983
-0.727992
-0.769745
-0.355769
0.765666
0.668115
0.347197
0.481041
1.001794
0.984461
-0.834667
0.744837
0.860762
0.847904
-0.350403
-0.189662
-0.224620
1.126944
0.330112
-0.181084
-0.054472
0.873123
-0.017645
-3.202008
-0.149218
-0.475141
-0.319548
0.527804
0.365148
-0.843403
0.457473
-0.791494
0.830785
-0.207749
-0.584615
0.268695
-0.403632
-0.940056
-0.113411
-0.641156
-0.704040
0.253306
-0.405045
1.140353
-0.926848
-0.426679
-0.675488
-0.184410
-0.310570
0.802734
-0.272516
0.560136
0.905479
-0.057209
0.090093
-0.409352
0.050463
-0.917778
0.704773
-0.805033
0.095714
0.491455
0.400588
0.254601
-0.615159
0.213065
0.512290
0.461042
0.470103
0.162512
0.181825
-0.008723
-0.031339
0.558510
0.595611
-0.193708
-0.730092
0.185789
0.908961
-0.787049
-0.170424
-0.826988
0.631825
-0.648545
0.506875
0.412758
-0.584004
0.405106
-0.266548
-0.165633
0.941364
-0.780895
0.385810
0.534355
0.809622
-0.477602
0.411599
0.012220
0.526358
-0.599105
0.537276
9.738051
0.187719
-0.721524
-0.298851
0.062826
-0.799567
0.914916
0.699118
0.875796
0.916774
-0.396116
0.421386
-0.895938
-0.765928
-0.109756
-0.525167
0.649158
0.879446
0.793506
-2.814773
0.676162
-0.673518
0.255094
-0.976547
0.833956
-0.921037
0.475199
-0.387624
-0.108948
-0.343565
0.681008
-0.576267
0.813483
0.549039
0.839098
0.063272
-0.632058
0.134225
-0.768433
0.815940
-0.648337
-0.324533
-0.232299
-0.170530
-0.936560
0.956536
0.178079
0.321393
-0.043870
0.418707
-0.833659
-0.574173
-0.880565
-0.886991
0.259498
-0.657337
0.891671
0.668338
0.009316
0.801196
0.141308
0.188443
-0.896267
0.297512
-0.698640
-0.534543
0.929457
0.891619
-0.507504
-0.291931
0.713966
-0.083992
-0.018916
-0.516953
-0.193344
0.233181
-0.956569
-0.047342
-0.182006
-0.115294
0.136606
0.577357
-0.422766
-0.170712
-0.382298
0.524542
-0.912133
0.643178
0.797463
0.511168
0.864752
-0.049507
0.139326
-0.354465
-0.205550
-0.427173
0.826629
0.150234
-0.374690
-0.406989
0.454895
0.888672
0.456827
-0.424471
0.540890
0.278944
0.058792
-0.241572
-0.002680
0.006152
-0.034304
-0.683644
-0.022181
0.375425
0.100064
-0.364194
0.283827
0.913894
0.605587
0.715161
-0.219873
0.749189
-0.554310
0.563227
-0.453505
0.367942
-0.574537
0.586134
0.563400
0.895829
0.102007
0.336081
-0.637631
-0.668299
0.084926
0.263323
-0.697824
0.503291
0.910046
0.149213
0.821915
0.903242
0.513318
-0.738405
-0.274216
0.109889
0.630381
0.996631
-0.828191
0.591520
0.631345
-0.079368
-0.306904
-0.002962
-0.377133
0.738720
0.788199
-0.073256
-0.443367
-0.804297
0.711743
-0.664503
-0.875276
0.421516
0.169109
-0.997910
0.370145
0.072512
0.248931
0.756857
0.312645
0.769405
-0.666917
-0.269753
0.397660
0.469361
0.469087
-0.306080
-0.863851
0.557306
-0.975334
-0.709021
0.458544
0.338589
-0.808257
0.184164
0.437139
-0.505958
0.120897
0.786927
0.395982
-0.671317
-0.955039
0.170403
0.851110
-0.006787
-0.663577
0.141886
0.255685
0.807822
0.840343
0.826448
0.876363
-0.875598
0.164944
0.630066
0.827216
0.092331
0.254630
-0.752135
-0.056414
0.553641
-0.666435
-0.005077
0.143261
-0.275441
0.054627
-0.963954
-0.068374
0.540671
0.398289
0.553839
-0.061129
0.945104
0.732754
-0.417160
-0.671022
-0.201859
0.893822
-0.050175
-0.520681
-0.702164
-0.166495
0.358723
-0.380465
0.845871
-0.261074
-0.311363
-0.415163
0.796605
0.755286
-0.188356
-0.415009
0.076554
0.851162
-0.650435
-0.157826
0.496051
0.031663
0.160408
-0.395339
-0.800414
0.348563
-0.396224
0.385620
0.014091
0.037976
-0.060808
2.592362
-0.960239
0.634144
0.829486
0.046070
-0.456381
-0.802691
-0.549993
-0.182515
-0.163050
0.083747
-0.914398
-0.776670
0.948063
0.618103
-0.466122
0.885865
-0.757951
-0.014785
-0.720012
-0.196899
0.754555
-0.743557
0.106470
0.357568
0.290747
-0.836568
0.463630
-0.501599
0.149261
0.535786
-0.771753
-0.509230
-0.527803
4.369706
-0.206920
-0.223615
-0.609922
-0.340286
0.495217
-0.278642
0.823400
0.469304
-0.343985
-0.055120
-0.166527
-0.004884
-0.271126
-0.739061
-0.428619
0.181867
-4.848688
2.762693
-3.315106
4.707991
-1.149681
-0.813160
-4.869114
-8.002159
-11.772649
2.985634
1.819181
5.033658
-9.167320
-10.560161
-6.065941
-5.613074
-1.330430
6.442366
1.882114
6.187991
-4.085775
8.484248
1.589508
4.267094
-11.311055
7.542006
3.696467
6.565309
-3.185560
-9.270298
-14.461638
1.191599
1.966446
2.871918
9.279961
0.625176
1.005718
-3.020921
-10.668657
-0.392915
-3.523396
0.066636
-1.911006
4.301391
-7.803460
1.824915
4.992741
7.718286
0.877111
7.596827
-5.059718
3.736680
1.035903
-1.130003
2.718445
0.864757
6.369364
1.514491
-5.643676
0.835947
-0.381825
-3.046577
2.943571
4.010985
0.798372
9.279866
-2.312215
-7.756956
-0.482597
-9.566855
-1.560429
-0.525921
4.449857
4.694754
1.799347
-10.080188
-3.593051
-0.652146
-3.163194
-3.386666
-3.304015
-2.663001
-1.188825
-1.497123
8.805227
0.015322
-3.072041
-8.717360
-9.047813
1.786043
-6.058657
-1.987352
-3.642684
-0.766094
-0.766555
0.336444
2.690408
2.859760
3.875165
-4.991511
8.340151
-2.833918
-0.421168
-8.910111
5.856779
2.216977
2.898887
-5.985008
8.095401
-12.803739
6.189835
4.115414
6.843065
-5.750367
6.110141
-0.179114
-2.237081
4.337268
-0.168520
2.733803
3.721947
4.403444
9.369330
4.067015
-3.595227
2.881491
-0.005229
-8.272139
-5.146224
17.403154
3.376744
4.634332
4.737023
5.564219
8.615071
7.968229
-2.395218
-4.832389
5.126797
-2.161386
1.379673
-0.710872
-5.784163
5.204458
-2.840091
-11.511526
8.097222
5.628993
-5.722636
-1.684174
6.676880
3.929820
-7.715718
3.250061
5.886878
4.845504
9.698565
11.658905
-6.924915
9.396577
-4.321709
8.394307
-3.174137
-9.076256
3.474553
-1.312465
0.965466
-14.632543
9.846162
4.089576
4.278950
5.469544
-2.214551
-5.651620
8.643364
-6.549089
-5.695214
-0.040350
-5.019818
-8.617213
-8.275735
-3.659166
6.630044
-0.195228
-4.342259
-3.159231
-10.282882
0.933970
-4.323897
-4.766110
-1.781852
4.034883
-10.717024
-1.707590
9.358299
-0.255102
3.710264
5.176293
2.038578
-5.119904
-2.352820
2.879574
6.523252
0.071802
4.889226
-6.539987
1.389707
4.805349
0.649154
-7.527960
6.502289
6.292135
-3.909757
-1.468078
7.796577
-20.763757
0.338734
-6.750033
-6.102027
0.849080
3.200394
-4.953297
8.924287
5.630315
7.538348
-3.607773
1.460311
-7.695470
-6.998762
-8.688922
-19.693436
0.976702
1.634491
-9.417952
8.348359
9.694466
0.083965
-4.796935
3.746033
-5.741645
2.428386
1.894840
-9.313208
-3.902854
-8.906868
-5.819601
2.760377
7.500987
7.873438
4.055856
-8.592910
-0.458515
-2.134998
2.292010
-6.662002
9.579997
-7.470420
-6.798584
-6.087035
7.887386
9.947552
18.653000
-9.865697
2.866859
6.220444
4.156711
-3.874550
0.746714
0.636099
4.107141
-5.070371
2.095333
-0.325041
8.965700
-4.579977
18.199363
-6.166480
2.965362
-7.673870
1.192399
1.754951
2.874606
-5.928035
11.134815
-1.191241
4.158344
0.785468
-1.660323
9.974549
6.143237
-9.750713
-5.134870
15.021609
7.623641
-2.381321
6.777297
2.198053
-2.646028
-12.390942
6.530521
-6.263768
8.973465
2.323046
-5.093958
7.012644
9.585882
11.150606
8.188233
-6.735604
-0.077557
-1.398661
-0.361344
3.547646
-4.577010
6.762393
-0.931145
-3.469772
-5.286299
7.211423
2.036164
1.623136
4.465630
-0.962634
-1.099596
2.085431
-2.061884
6.055621
6.178949
-0.448100
2.111728
11.685816
4.593473
-5.327998
-3.806510
-9.691222
12.072533
-4.277417
3.956782
-9.231497
7.047882
3.133457
-5.023564
-3.333014
8.357832
-3.937318
4.474301
-3.397590
8.596633
4.802115
-0.355370
3.417442
4.355283
3.572586
-5.442575
-0.411043
-3.141002
-8.576743
1.618539
1.028367
6.382908
0.568946
3.184977
-7.636878
2.535397
-2.784860
6.602207
-1.119346
6.912366
2.791411
3.082891
-4.194357
3.598015
-7.643336
-6.813371
9.283289
-6.429487
-6.623097
-4.262047
9.148413
6.060005
3.757664
5.810128
7.289318
-5.354943
-0.441297
3.825482
2.486109
3.279115
-1.759839
-9.419605
-0.701175
3.333269
10.657583
-0.963609
-6.806133
3.285759
-0.876277
-9.828766
4.333150
-11.342803
-3.303422
1.688278
-10.956345
-11.032889
-1.172264
5.029157
3.054718
-3.467334
-4.209549
15.260651
4.249600
4.303874
0.061423
0.603789
7.368569
2.895226
1.280055
-17.233102
10.277914
-2.725953
3.052627
-4.036230
-0.887004
0.117767
-7.636266
-3.843251
7.017909
1.622470
-7.077833
-1.497737
-0.302216
7.806445
3.914965
8.032458
1.049428
11.486643
-6.734964
1.532093
3.868114
-4.706592
-3.520700
0.437355
0.651781
5.487417
3.850729
6.099049
-2.905129
7.645957
1.274302
-3.189498
0.232699
0.077233
-0.790181
3.000715
4.420468
1.709517
5.473066
-7.767581
-7.954865
-23.487911
-17.253031
-0.479185
-1.516805
4.849735
-6.067478
4.510607
5.910188
-3.386282
-2.621556
-7.848374
1.833975
8.407746
-3.249572
6.932372
-5.153615
3.734989
0.708280
-9.012111
5.463467
-6.537399
-1.425227
-20.128837
5.009596
10.232143
-3.139102
7.227866
-7.676318
-3.994481
-7.343741
4.962306
-11.070561
6.782552
-15.801958
-7.059984
3.448967
4.961327
2.059152
2.719271
-4.294069
1.688211
3.452324
5.175625
-5.656517
9.681268
-4.338243
3.577410
-4.943947
-6.617925
9.197996
1.313770
6.593932
-14.405178
1.759485
-8.344995
-1.659887
-4.614653
-4.401364
-8.860527
-2.334995
-3.782134
1.998110
2.268120
-2.426152
-1.896323
-0.040269
1.805737
-1.395380
7.533697
-1.281339
3.320704
-4.382489
3.402509
-2.867208
-16.446034
18.053696
7.569285
-5.972845
-0.651811
4.583115
-5.801591
-5.789300
4.456082
-3.998807
-7.217583
10.785485
8.040835
7.769714
-6.268095
4.922202
-14.004162
8.889155
-0.405415
10.764616
1.816239
2.960184
4.973160
2.798816
-9.557355
4.795712
14.589250
-9.868348
4.559191
-0.840354
-6.057730
-1.385556
5.511881
5.109625
7.793929
-2.050164
9.838697
-2.204341
-6.972973
-3.392587
3.721905
-6.842390
-3.477144
6.423145
4.944771
-4.832425
5.207068
2.804123
1.444774
6.898013
-5.280695
2.242673
-2.981450
-1.667216
8.108255
18.065741
4.269365
3.662469
2.609564
6.428760
7.458427
-4.703950
3.690362
-3.931754
-0.394719
4.387336
1.856911
4.407517
0.261345
-1.164207
-2.913512
-1.085245
-4.963024
-0.349740
-6.508040
4.513704
-2.121717
8.996000
-5.244943
4.930784
-5.973163
1.686340
0.336857
-6.401653
-1.223747
-8.275135
-14.770078
8.462549
4.733586
2.278128
3.980756
8.165662
3.183762
9.061399
0.430840
3.045008
-2.570863
4.657487
-3.300473
2.216095
2.409792
0.307638
7.630477
0.050014
-3.873967
7.007450
1.064193
6.485678
8.003485
-1.431314
3.301023
3.754235
-4.532768
0.246643
-4.422955
3.996286
6.501272
1.219347
0.415739
1.182334
0.663247
1.083833
-5.187291
2.791097
-11.052743
2.754961
-5.271829
-12.469628
9.789941
-7.537723
3.061041
3.199788
-9.834465
0.581369
3.598406
-4.087690
0.144614
-35.074068
-7.023726
6.450835
8.481002
9.357098
0.716283
5.649746
-9.380364
1.163724
9.185408
-0.928580
-13.462317
-0.065243
2.535379
2.256190
0.354861
6.420755
-0.572390
-2.039166
-8.473252
6.358469
3.171204
-2.365662
-4.421803
-2.490892
-1.153035
4.735157
-6.929512
7.107186
5.990775
-2.274625
-3.218945
-4.557043
5.462797
0.048702
9.132355
-0.526083
-2.005937
9.745364
8.441215
8.809130
-3.776161
4.022102
-9.302666
5.050510
9.491891
3.561659
2.735717
0.059453
6.200773
21.679736
-0.225182
6.029704
-3.372627
-2.903536
5.439535
5.137456
4.476750
-4.958080
-0.064314
-5.625250
-6.455128
-5.596038
16.962259
-9.660680
7.232833
-0.130000
-10.405864
0.955599
6.762123
6.905530
-7.550023
-10.084588
9.203574
-5.791756
-0.046700
2.129508
-12.940087
4.621317
-7.625369
5.207021
3.431788
-3.026539
14.003750
2.464090
-0.066550
9.050844
3.999533
5.105012
1.752162
8.254212
-10.742241
6.421190
7.695413
7.267394
-1.377635
-4.447953
9.658074
2.521718
-0.381769
-2.802258
1.155413
3.585342
-1.397266
2.955208
3.508629
-7.586656
-4.091427
1.692979
-2.597030
-2.249148
-10.301878
4.467323
8.628296
2.897333
3.734467
1.250821
5.156370
-10.779819
-5.225665
16.079741
-3.176292
8.368978
9.634249
1.838748
-3.274005
1.450830
4.414487
-3.257947
-10.000935
-3.683690
17.143126
11.737985
8.789253
-4.065813
-0.490189
-9.631303
-0.907709
9.810924
-4.527187
9.138880
-5.860936
-9.263216
7.459164
-2.117565
8.297141
4.237444
-1.766916
1.455880
-8.579135
1.297860
-0.368264
6.408043
-0.518316
-6.308408
-5.395986
2.949304
9.535771
2.548594
-1.510960
1.544631
8.445596
-10.457680
-3.162719
-7.235561
0.799319
-6.740765
9.030940
-3.984280
-0.609538
5.724381
-0.308866
-0.060405
9.147551
5.181576
-3.954476
1.634323
0.188645
1.718654
9.900526
-4.700122
5.450548
-6.645139
-3.166535
0.714594
-3.365102
-5.088446
3.483991
6.331196
0.228655
3.928198
1.196148
-5.142110
4.984398
-6.105583
1.601277
1.183939
-10.706329
8.636429
-3.279249
-0.198869
-3.468280
1.776426
5.463482
11.245629
6.737069
0.811218
-3.152671
-5.120466
0.805778
3.341242
-3.094434
1.107651
1.192299
-2.014858
-6.603648
1.623498
-7.488126
-0.278673
-0.084858
10.162863
2.445648
2.558272
-3.076347
1.432306
-10.253588
0.824527
4.490840
11.283058
5.831959
3.178561
-9.028865
-11.388576
-2.431747
0.889264
-7.505712
0.965225
-1.045035
-0.962030
-1.997125
5.123407
0.427361
-6.193985
8.745176
3.944862
-0.196750
-3.635339
2.000475
-3.481657
6.771406
-5.586692
2.998149
14.208315
-1.775866
1.269716
9.096170
2.898259
-7.078404
-4.196471
-15.802601
-2.988584
9.031199
-9.022324
12.802952
-11.558132
0.722064
4.307797
-7.507144
7.348658
1.355577
6.550547
5.116975
-6.722639
6.142714
-6.544416
-6.771841
-2.131793
-7.980707
-1.702073
0.511594
0.244433
-2.038976
-2.134722
6.327306
-1.339355
-12.169303
-2.534399
7.994051
-3.338485
-8.175920
12.510901
-9.801248
0.886909
-1.443898
-2.553630
-6.704694
1.529095
-5.568648
-0.721417
-4.060242
-2.417267
-15.217211
4.553519
0.309275
5.836755
1.536292
1.317493
3.537273
-4.631155
-0.192238
-1.529211
-0.957525
-4.833884
-4.768204
-6.647214
-7.038412
8.105602
-4.303885
-9.772637
3.140399
-5.208662
1.900937
-4.522692
5.649277
-4.292185
-2.766209
0.892357
-4.880198
-4.278707
3.733931
0.401134
-3.404406
3.768175
-12.781076
-6.502794
0.025986
-0.648539
-3.368726
5.798260
-1.758264
3.370783
-2.709891
2.777832
15.675146
-3.559513
4.650587
-6.230207
2.537188
-1.525596
-0.971278
-1.800978
-6.691270
-0.412226
6.583340
1.724399
-1.442523
1.504730
3.923454
2.714831
6.741607
3.369385
-6.466666
-6.240411
2.756404
5.475474
-0.688453
-7.496623
1.565937
-1.979500
0.239040
-1.517516
0.546608
-1.680435
-9.033563
-1.228005
8.907764
1.944903
-1.948183
-11.826638
-2.438300
-4.243975
-4.890499
7.457364
-8.635851
-9.958548
-9.370232
-6.676738
2.518543
-12.960399
6.877759
2.725083
-1.442442
-8.160875
0.262360
5.576670
1.155138
-4.621476
14.036676
4.423538
9.193064
8.097287
1.976405
10.540928
6.678401
4.751446
0.294134
8.730885
-5.225045
-11.126538
4.715011
-2.337204
-0.705460
-2.781043
4.488895
-0.000445
5.069580
13.762792
-6.426088
-7.033547
1.198405
-3.088947
-2.562617
-9.633036
3.262810
1.723377
3.474278
7.339929
0.026154
3.326305
-13.779802
-4.242958
-7.821864
3.149695
-10.324199
-4.634547
2.212468
0.745109
9.033046
11.801513
0.719281
-69.540724
-2.261307
-9.152770
3.056372
-2.356677
2.572191
-1.661351
6.895836
3.502064
1.751539
-0.901193
-2.268646
0.217270
-8.892684
-0.073769
5.450434
1.927820
5.448399
-6.041460
8.798490
3.820658
-1.615021
5.622798
6.514669
4.584310
-2.291531
-6.137415
9.713959
6.614009
-0.634011
3.500145
12.793932
0.372622
-9.532745
-2.789901
-7.364424
-7.200597
4.135096
-2.785522
10.686114
2.064201
8.153535
-6.236951
6.213042
-9.863706
-2.158175
0.344659
-3.681411
6.807367
3.136713
1.853935
-9.483080
2.040514
0.151650
2.053917
-5.445336
-10.006933
0.271213
-3.074407
-1.741299
-6.051697
5.626116
-7.108244
6.852839
-5.883557
7.642583
-6.165508
8.919376
-3.046757
6.967742
-8.709841
-6.347331
4.585703
9.937647
5.552302
-0.135549
-10.367728
6.942363
-11.738123
-7.264763
8.145511
7.731702
15.241811
-1.756730
8.472525
5.818649
-4.477158
4.272384
5.282548
-3.000849
-1.285405
-4.586526
13.142571
-7.941913
0.085276
1.915983
-0.132694
-4.729247
1.788148
-0.504721
12.039844
3.181842
1.988081
3.512868
-6.181546
0.288175
1.094378
11.406063
-3.894974
-0.590646
-0.463096
4.555343
-6.185683
-4.577174
-8.278611
2.583180
-8.733291
3.506641
7.068226
10.177236
9.314692
-5.143578
8.290211
-1.496503
1.845837
-6.014009
9.260475
9.628118
0.424420
2.048928
7.080564
-2.188530
-3.779393
9.627477
-1.613935
-6.347014
-0.075818
-3.107713
6.563485
2.419293
-6.575140
-3.559039
-3.307241
2.250698
2.152650
-3.710100
7.109694
7.553571
-1.922231
3.577615
2.899597
4.123019
-11.489235
-6.759464
-6.199833
-1.039063
1.191621
1.206302
-1.492645
6.649581
-1.053918
-1.420926
-13.025820
-0.336027
5.976390
5.410182
-4.167043
-1.838074
9.517076
-8.870447
-1.857890
11.074253
6.934796
-1.387954
-8.110375
-1.590814
-7.368452
-1.512138
-6.716426
-2.065864
-6.600387
0.671254
33.084106
8.564319
8.945110
14.265148
4.034742
6.210894
-8.274850
7.750103
-7.262953
-0.086593
-5.829404
1.056745
5.744767
6.068889
2.446181
5.056313
6.361546
-2.224873
0.495511
-1.801264
-0.195441
-3.443237
11.086428
-2.876094
3.009138
-0.441304
10.298303
6.897906
-1.233101
-6.289894
-9.771434
-6.435779
7.118464
10.696708
-8.743290
1.304278
-2.418820
-5.457922
-5.908835
-0.176281
-2.820935
3.837780
8.480920
-4.375696
15.752340
-2.139317
0.805332
3.532358
1.462138
3.498307
-3.155005
5.089636
-3.744091
5.181495
8.137615
5.423256
-5.148649
-9.998503
-3.354403
0.968699
5.919974
8.517137
-21.352495
3.450621
7.700508
4.965771
4.746256
-4.022838
9.259834
-5.503289
-5.674177
2.168822
-4.426729
10.578378
-0.824132
6.675127
-3.650622
-2.551278
0.496711
-4.176985
-11.189919
1.361680
5.896381
2.747187
-5.951552
-2.993621
3.391271
-7.158414
-1.471719
-1.931548
-4.387415
-3.279518
-3.639651
-3.232948
-7.137417
12.135268
10.374769
4.244966
4.942181
4.147539
-4.370669
-5.250700
3.996583
-1.313900
5.551762
-1.307330
2.083189
-3.268982
-1.143738
3.835693
-6.359166
2.519671
-1.717607
-2.319775
-3.183164
3.268558
-1.077986
2.062479
-6.037134
-8.206237
9.485093
0.697800
-9.756150
-6.793107
13.099856
1.892335
-1.344920
-4.577151
-2.407225
8.282952
5.178002
-1.097961
-13.173954
1.116714
-2.966734
5.461864
0.812594
-7.654770
5.677263
1.004646
5.298419
-0.223837
-2.171585
-11.020684
-2.447965
-0.362948
2.158563
-6.660224
-1.597803
5.324175
-8.259083
-6.712600
-2.118865
-3.480698
-5.051751
-1.836847
7.935849
10.030948
-2.082496
-9.876095
-9.296276
10.387014
9.048028
-6.407204
7.307269
-2.496968
-6.581716
7.268525
-1.320802
-3.383446
-8.434544
2.623300
-2.942902
-6.375154
-3.020120
-3.103909
-2.868770
9.672300
-2.942366
-6.842797
3.192281
-3.790322
3.127323
-5.203716
-2.728110
4.043346
-6.184289
-8.040558
14.010217
8.150451
2.238047
0.302638
7.106118
-3.280749
-0.269618
-10.460521
-2.600197
8.849167
1.424315
-2.086660
5.403618
6.000472
5.274924
4.516123
-3.740557
1.874601
-0.019369
-1.135861
0.312824
4.849438
-7.710801
-2.952540
1.226770
-5.035830
2.431516
0.875252
-6.474085
5.393437
3.756583
-5.579991
-2.246252
-2.702447
-7.196052
-6.863775
3.758992
-4.229526
-2.694305
-2.665247
-5.213463
5.585327
6.368073
-2.350441
3.521349
4.832874
-4.752606
3.569283
-7.381876
-1.847946
-7.662307
-1.342318
13.100551
4.225601
0.177011
-10.770568
6.805806
-9.008136
-2.927769
-4.397699
-6.068158
10.472005
7.762304
3.920535
-4.412693
1.496871
10.412642
9.205933
8.551297
14.199317
-1.258524
-0.886654
3.747232
0.474391
-2.891117
-6.163131
4.024381
-7.715305
0.325374
-1.461642
-6.431317
2.987770
-3.672025
3.301107
-0.450461
2.640376
-1.234138
1.189119
-6.882256
-9.241264
9.372872
-2.670162
2.190358
2.115270
6.833126
5.556262
-5.050059
0.191853
4.672289
4.632758
-3.995194
1.993604
-8.717982
-1.760130
4.101849
-12.973042
4.154662
-2.103389
9.996206
-8.569215
-4.788564
-6.756939
-1.720455
9.192592
6.689002
-3.373938
6.307325
-3.520868
5.731004
9.283699
-0.454729
0.728257
-0.123561
-0.573864
0.314971
0.748055
-0.419425
-0.696417
-0.434614
-0.023550
0.849514
-0.413212
0.504826
-0.209170
0.923978
0.124218
-0.224044
0.075511
0.855231
0.812429
0.797681
-0.621792
0.537611
0.475105
0.552883
-0.861847
0.425595
-0.994422
0.052843
-0.454522
-0.352213
-0.900002
0.150580
0.019677
-0.721465
0.542712
-0.570183
0.773354
0.585671
0.252021
-0.109800
-0.665227
-0.207004
-0.434809
-0.667058
0.926427
-0.490539
-0.599726
0.800387
0.697115
-0.751247
-0.180286
0.028190
-0.437278
0.006947
0.647349
0.276977
0.020646
-0.248689
-0.693957
0.112753
-0.098866
-0.275211
0.899633
0.833212
-0.221634
-0.568612
0.090932
-0.160103
-0.052899
-0.336025
0.797526
0.518864
0.637316
-0.157351
-0.067772
-0.363885
-0.381833
-0.965668
0.907055
0.557474
-0.729660
-0.854129
0.388983
-0.701553
-0.340463
0.277868
-0.941800
0.191241
-0.547605
0.624762
0.669584
0.654701
-0.495142
0.991905
-0.912627
-0.680472
-0.463813
0.103790
-0.890498
-0.600387
0.233557
-0.406390
-0.339649
0.701360
-0.469288
-0.008130
-0.589126
0.909740
0.393453
0.406571
0.546601
-0.339890
-0.787207
-0.125617
0.099795
-0.643458
-0.843556
-0.051445
0.656239
0.633932
0.127088
-0.985375
0.629182
0.648625
-0.194815
0.222030
0.352357
-0.399750
-0.845270
0.452675
-0.281386
0.472924
0.343015
-0.568438
0.833581
-0.812930
0.071176
0.833151
-0.072249
0.940217
0.919544
0.813815
0.493754
-0.039653
0.876936
0.724599
-0.502354
0.221014
0.087989
0.946556
0.461392
0.724487
0.220356
0.445165
-0.853064
0.186405
0.422561
-0.531419
-0.550999
-0.024180
-0.180794
6.205426
0.497993
-0.095142
0.029956
-0.455048
-0.960995
-0.305682
-0.943273
-0.247201
0.118246
-0.432111
-0.006743
-0.325086
-0.137472
-0.841535
-0.588238
-0.504494
-0.132080
-0.414737
-0.914629
-0.106051
-0.333994
-0.632619
0.031854
-0.449679
0.302838
0.310567
0.801121
-0.801920
-0.038444
-0.165136
0.256065
0.768571
0.477464
-0.480828
-0.532928
0.375921
-0.324211
-0.405902
0.406693
0.639472
0.317727
-0.729820
-0.571843
-0.293548
-0.359153
-0.797841
0.451115
-0.087538
-0.515936
0.966243
7.658355
0.095401
-0.877823
0.329927
0.367420
0.947579
0.275061
-1.025929
-0.043838
-0.080359
-0.155870
0.015158
0.744771
0.047213
0.386387
-0.000655
3.775041
0.894351
-0.049697
-0.187935
0.874990
-0.753682
0.036315
-0.729362
-0.256374
0.788411
-0.204569
-8.666354
0.136912
0.280136
-0.195680
-0.633410
-0.673244
0.631044
0.171123
0.373637
-0.341925
0.085413
-0.549998
0.091857
0.111071
0.964111
0.746359
0.162867
-0.084137
-0.159277
-0.246042
0.595154
-0.640978
-0.046883
-0.374493
0.633221
0.373548
0.442659
-0.790730
-0.205278
0.917881
0.894335
1.573892
0.895418
0.841104
0.373097
-0.892098
-0.621082
-0.487487
0.521461
0.474324
-0.805619
-0.088289
0.091585
0.168721
0.312600
0.548812
-0.959239
0.008177
0.252170
0.704218
-0.542959
-0.377008
-0.546297
0.259398
0.450545
0.139472
-0.061724
0.717632
0.926621
0.968281
-0.056660
0.905145
0.037982
-0.941019
-0.705751
0.017488
-0.782124
-0.272083
0.905868
-0.730895
0.455135
0.606279
-0.143544
0.642660
-0.632112
-0.486532
0.936677
0.062294
0.804910
-0.930650
0.213130
-0.708899
-0.646921
0.508232
0.174152
0.403453
-0.282344
0.445139
-0.382016
0.150984
-0.209663
-0.652094
-0.634806
-0.684876
0.569000
-0.542977
0.182836
-0.723151
-0.940685
-0.863022
-0.802605
-0.981547
-0.705823
0.135449
-0.682616
0.239013
-0.809921
0.341145
-0.222235
0.963113
0.219018
0.194094
0.631739
-0.289651
0.891112
-0.767509
-0.672257
-0.431049
-0.100554
-0.816092
0.159826
-0.079150
0.051755
0.075677
0.151970
-0.495400
-0.593562
-0.835961
0.426272
0.119514
-0.287152
-0.406768
-0.991857
0.810994
-0.894193
0.655671
-0.190606
-0.332508
0.809108
-0.777770
0.039892
-0.587590
0.055474
0.139861
0.070395
-0.939207
-0.328937
-0.354855
-0.715604
0.462241
-0.713868
0.922324
0.673297
-0.417813
-0.996986
-0.027223
0.120005
-0.468619
-0.145683
-0.597324
-0.398102
-0.957626
-0.049919
-0.214118
-0.034807
0.348412
-0.406568
0.466309
0.619237
-0.374046
-0.073291
-0.066561
-0.272368
0.297300
-0.253069
0.130821
0.090944
-0.213777
0.599737
-0.810317
-0.834128
0.630898
-0.093394
0.578028
0.549842
-0.568227
-0.368877
0.223396
-0.299956
0.936589
-0.950957
-0.308163
-0.366882
-0.608667
-0.842615
-0.678249
0.520800
-0.414448
-0.366756
-0.624669
0.424942
0.982295
0.829418
0.173970
0.130944
-0.132668
-0.735011
0.076788
0.681309
0.071568
0.182950
0.944058
0.530891
0.162638
-0.293878
0.800960
-0.788518
-0.499306
0.012700
0.628755
-0.240137
-0.652900
-0.558641
0.059969
0.467799
-0.050655
-0.503806
0.710475
0.160011
0.893321
0.568049
-0.582544
0.031203
0.903656
0.481868
-0.903003
0.375668
-0.701649
-0.164986
-0.034980
-0.126749
-0.800041
-0.104126
-0.672295
-0.331365
-0.181136
0.201339
0.216666
-0.219185
0.790392
0.570343
0.474726
0.413859
-0.632774
0.726648
-0.175090
-0.506987
-0.748962
0.762759
-0.025749
0.164990
-0.585416
-0.849014
-0.597831
0.240670
-0.529159
0.590635
0.013125
0.069953
0.285886
-0.617052
-0.912429
-0.064788
0.172648
-0.881771
0.329372
-0.480480
0.708634
0.353508
0.282834
-0.151632
0.623124
0.566550
-0.442413
-0.157777
-0.386333
-0.873442
-0.022902
-0.270210
-0.037643
-0.354863
0.571459
0.221868
0.499623
-0.433406
0.726847
-0.310011
-0.573221
-0.489047
0.795174
-0.596956
0.741040
0.036835
-0.791577
0.935076
-0.428963
0.875656
-0.158213
0.718617
-0.200601
0.605052
-0.637875
0.136551
0.938785
0.170974
0.986729
-0.951504
-0.379540
0.327233
0.409371
0.193236
0.612281
-0.397706
0.725697
-0.668670
0.935460
0.100865
0.190166
-0.096434
-0.536175
0.682085
0.327507
-0.718654
0.123041
0.607593
0.932460
-0.255111
0.072242
-0.276692
-0.577968
0.899154
-0.973727
-0.668402
-0.209708
0.219399
0.482755
0.833875
-0.808476
-0.848857
0.280855
0.169123
-0.970792
-0.662477
5.478308
0.078391
0.017206
0.179030
-0.472163
0.403389
0.559775
0.457269
0.824200
-0.795963
0.806293
-0.345685
0.646081
-0.260115
-0.301729
-0.717942
-0.517378
-0.735259
0.339354
0.495194
-0.994242
-0.037415
-0.811223
-0.429070
-0.154249
0.939260
0.908301
0.589172
0.053088
0.323124
-0.737215
-0.175057
-0.756519
-1.069495
0.449777
0.788176
0.858062
-0.652407
-0.694607
-0.016498
0.308186
0.048992
0.854627
-0.308032
0.478385
-0.006578
0.114945
-0.735313
-0.636181
-0.320922
0.547992
-0.188629
-0.474195
-0.737844
-0.764536
0.423921
-0.271427
-0.943006
-0.041441
-0.591438
0.412406
0.173608
-0.078633
0.350215
0.355551
0.158021
0.969818
0.242701
0.383091
-0.596475
-0.595001
-0.381421
0.670852
0.972569
-0.157769
-0.782923
0.863284
0.888356
0.079316
0.995593
-0.217700
0.863547
-0.149278
0.462231
0.355349
0.642752
0.863169
-6.830579
-0.573837
0.437516
-0.829860
0.751158
-0.787089
-0.452648
-0.282928
-0.525738
0.229660
-0.903676
-0.426174
-0.249943
0.234548
-0.849109
0.891461
-0.735366
-0.186055
-0.202418
0.033758
0.199756
0.952375
-0.618082
-0.699680
-0.454968
0.580560
-0.444459
-0.257920
-0.183139
-0.999122
0.226392
-0.106448
0.142119
-0.405118
0.199992
-4.343906
0.170421
-0.142698
-0.635477
0.395836
-0.138306
0.009667
-0.055909
0.678621
0.752349
-0.311924
-0.528662
0.036108
0.509764
-0.561943
0.682973
0.312637
-0.455003
-0.083133
-0.534188
-0.779387
0.766345
0.883374
-0.075848
0.823922
-0.671253
0.319218
0.191755
-0.036772
-0.556941
0.372752
-0.237495
0.502026
-0.807718
0.078148
-0.413260
0.199169
0.583193
0.822111
0.956704
0.828622
2.697282
0.079740
-0.558671
0.294519
0.603034
-0.556465
0.669974
0.588202
0.976903
-0.050297
0.480377
0.379394
0.868239
0.288735
-0.729182
-0.847790
0.990187
0.663093
-0.047797
0.731161
0.906095
-0.394449
0.060483
-0.063779
-0.109889
0.252622
0.557968
-0.845295
0.273732
-0.113944
-0.051302
0.351601
0.032298
-0.300150
-0.631408
-0.442715
0.562783
-0.174213
0.665433
0.559959
0.351804
0.615118
-0.398762
-0.371963
0.972982
0.823997
-0.099414
-0.689387
-0.034240
0.973971
-0.863163
0.720481
-1.080467
0.864924
0.643353
-0.073477
-0.895574
0.809680
0.606992
9.503742
-0.386182
-0.334234
0.430872
0.293323
-0.378550
0.052145
0.412026
0.707654
0.389966
0.351234
0.444587
0.779625
-0.835146
0.707713
-0.720058
-0.625280
0.987171
-0.466256
0.948766
-0.894546
-0.897510
0.083958
0.311081
0.524813
-0.467717
-0.706378
-0.376203
-0.693414
-0.788294
0.704531
0.777052
0.367331
0.343626
0.337681
0.564861
-0.636259
-0.140625
-0.257105
0.232451
-0.013538
0.094181
-0.998917
0.147052
0.538208
-0.635636
0.078141
-0.307689
-0.065199
0.471525
0.661185
0.299614
-0.787874
0.223523
-0.366789
0.179933
0.392894
0.049730
0.388764
0.467343
-0.885780
0.826562
0.300461
0.868061
-0.633882
0.015314
-0.405624
-0.408060
-0.027368
0.645569
0.882145
-0.419548
-0.450808
-0.142353
-0.637277
-0.774189
0.771895
-0.055075
-0.727718
0.443788
-0.307619
0.640023
-0.726372
-0.306395
-0.960847
0.564182
0.232650
-0.681805
-0.466979
0.288899
-0.707991
-0.171242
0.427992
0.508376
-0.095197
-0.365933
-0.615278
-0.518551
0.634569
0.738440
0.466948
-0.530679
0.658131
0.660513
0.147428
-0.692756
0.018003
-0.985330
0.329056
0.178753
-0.640541
-0.646029
0.569540
0.721854
0.750337
-0.349638
0.784841
-0.742174
-0.387291
-0.794230
0.389179
-0.046799
0.475793
-0.307590
-0.598241
-0.485672
0.935281
-0.765388
-0.891922
0.630396
-0.576680
0.993055
0.727986
0.161415
0.377056
0.670307
0.667028
-0.380251
-0.742603
0.675878
-0.561649
0.744253
0.702672
0.548298
-0.742746
-0.322819
0.336691
0.313201
0.928501
0.421702
0.174538
-0.542162
0.551990
-0.386196
0.213351
0.286568
0.918354
0.086032
-0.522049
-0.625381
0.864797
0.346773
0.108529
-0.780616
-0.137713
-0.320242
0.255852
0.393008
-0.669219
0.662644
0.025670
-0.885731
-0.978503
0.267537
0.497466
-0.971730
0.690342
0.160127
-0.873849
0.232014
0.095155
0.936895
0.898047
0.270073
0.606688
0.668681
-0.800127
-0.291348
-0.918835
-0.238196
0.916479
-0.377890
-0.845341
-0.819624
0.126110
0.028689
0.192633
-0.386712
0.784401
0.817452
0.819318
-0.431718
-0.529198
0.625382
-0.182438
-0.802011
0.385312
-0.965014
0.025366
-0.646663
0.118253
0.648095
0.606215
0.122154
-0.250319
-0.421272
-0.887740
9.186522
0.559470
-0.074649
0.906807
0.041808
0.721083
0.208126
0.326145
0.322385
0.432776
-0.324573
0.475304
-0.515455
-0.495383
0.748724
-0.937862
-0.885442
-0.362761
-0.348849
-0.786375
0.350820
0.876915
-0.362115
0.073726
0.607692
0.524286
-0.367248
-0.246788
0.503680
-0.695106
0.410775
0.822290
0.010669
0.154300
-0.975491
-0.574838
-0.443051
-0.842091
-0.280267
0.967373
-0.293491
-0.280063
-0.102495
0.336766
-0.567106
0.510606
0.973619
0.678695
0.559073
0.820497
-0.802629
-0.961742
0.249228
-0.142725
-0.684976
-0.298240
0.327751
0.113564
0.488252
-0.925993
-0.653020
-0.341241
0.500110
0.098328
0.421818
0.677496
-0.455873
-0.934635
-0.557155
-0.336306
-0.665003
-0.688801
-0.332194
0.836113
0.965256
-0.340825
0.780811
0.657891
0.456914
-0.042642
-0.654216
-0.557398
0.603842
-0.594530
0.345638
-0.794617
-0.051317
0.892924
0.722740
-0.747592
-0.729884
0.780510
0.421578
0.057727
-0.996452
0.772870
-0.547923
0.202896
-0.094771
-0.478018
0.058276
-0.505468
0.234955
-0.403629
0.601880
-0.479132
-0.428971
0.947488
-0.220756
0.871631
0.423182
-0.738453
-0.015587
-0.769967
-0.695356
0.677911
-0.154316
-0.363879
-0.459333
-0.031639
-0.999815
0.217184
0.948298
-0.140470
-0.079518
0.204459
0.049483
-0.111874
0.640921
-0.877027
-0.273507
-0.737035
-0.380731
-0.826489
0.090418
0.623567
-0.178609
0.667155
0.146862
-0.790708
0.966807
0.705640
-0.711601
0.584752
0.950318
0.128060
0.914740
0.677959
0.732486
0.783831
-0.553478
0.593033
0.403670
-0.043227
-0.211237
-0.282964
-0.771367
0.358327
0.937295
-0.657312
0.270522
-0.683852
-0.823501
-0.809293
-0.789738
-0.208723
-0.647312
-0.874321
0.510539
0.975202
0.071394
0.494927
-0.194572
0.094133
0.179286
0.650755
-0.380948
-0.490351
-0.430751
-0.275353
-0.940527
-0.305370
0.182902
-0.185051
0.904006
0.543551
-0.731075
0.189583
0.588854
-0.050315
0.153846
-0.742539
-0.343829
0.259588
-0.685481
0.552980
0.188191
-0.865726
0.313768
0.934225
0.173410
0.895565
0.669701
-0.799220
0.953680
-0.972887
-0.841952
-0.254675
-0.531947
0.197404
0.113418
-0.574007
-0.329367
-0.725069
0.533591
0.866629
-0.672582
-0.297697
-0.328834
0.875836
0.857347
0.617147
-0.056457
0.691007
0.937458
-0.956907
-0.183270
-0.598666
-0.201717
-0.486140
-0.486538
0.902622
-0.645532
-0.943428
0.236140
-0.113060
0.080381
0.483379
-0.852391
-0.829978
0.911519
0.382954
-0.018967
-0.928118
-0.293229
0.602918
-0.621479
0.202684
0.347443
-0.299143
0.416417
0.977935
-0.750285
0.682812
0.540733
-0.196500
-0.082745
-0.122568
-0.111239
-0.633623
-0.699228
-0.545647
0.724923
-0.394397
-0.667272
-0.689260
-0.313836
-0.497797
-0.987026
-0.375295
-0.442822
-0.057488
-0.371055
-0.958379
0.182050
0.374057
0.350822
0.698530
-0.571948
0.045107
-0.023798
-0.221225
0.561834
-0.860786
0.183576
0.921167
0.797729
0.169014
0.962580
0.761338
-0.010007
-0.362750
0.063009
-0.634620
0.265474
0.839971
0.810500
0.763348
-0.244576
-0.989140
0.298411
-0.476769
-0.311746
-0.689734
-0.662884
-0.851162
-0.982952
-0.392290
-0.057800
0.702029
-0.923620
-0.516241
0.741508
-0.106267
0.108748
0.891174
-0.940747
0.670362
0.500419
-0.021384
-0.525492
0.322386
0.783431
0.065988
-0.148130
0.796259
0.837094
-0.900444
0.526426
0.709220
0.678518
-0.005321
0.618527
-0.950422
-0.268557
-0.401781
0.922397
-0.686363
0.224821
0.042762
0.083753
-0.844174
0.712164
0.807122
-0.947644
1.079865
-0.224743
-0.501773
-0.719980
-0.829020
-0.909473
-0.306502
0.103888
-0.736421
-0.571188
0.217230
-0.853526
-0.756683
0.627676
0.412524
-0.670280
0.318745
0.550863
-0.429677
0.041140
0.707022
0.193607
-0.792058
0.292132
0.508297
0.902916
0.892626
0.330299
0.024996
0.606317
0.369887
-0.864068
0.787357
-0.129034
-0.255285
-0.881015
0.611450
-0.515594
0.469757
0.564489
-0.515340
-0.080855
0.377473
0.712432
-0.300506
-0.406189
0.702692
0.091038
0.580789
-0.652671
0.661939
0.653838
0.186388
0.160275
1.144038
0.366843
-0.308497
-0.145056
0.620858
0.508114
-0.141638
0.525237
-0.285045
-0.562431
-0.189829
-0.991393
-0.218238
-0.843998
-0.027888
0.316730
-0.652903
0.813084
0.519917
-0.090651
-0.605857
0.278037
-0.323719
-0.135702
-0.088969
-0.868721
0.730967
-0.498210
0.407817
-0.064300
0.167456
-0.268680
-0.834536
-0.042084
0.182235
-0.254126
-0.590082
-0.392106
-0.025397
-0.916945
-0.699969
-0.768557
0.876959
-0.627203
-0.926875
-0.740066
-0.580143
-0.248938
-0.501404
-0.954924
0.930291
0.642994
0.845582
0.476113
-0.188548
0.587797
-0.661689
-0.772649
-0.269551
-0.649496
-0.037499
0.884652
0.718461
-0.186519
-0.946558
0.367305
0.095134
0.109048
-0.930036
0.466872
0.646031
-0.383542
0.362828
-0.023029
-0.420390
-0.502567
0.296921
0.179278
0.073821
0.056406
-0.791619
-0.094213
-0.969807
-0.167457
0.495131
-0.379396
-0.343059
-0.072522
-0.388667
-0.868647
-0.574843
0.123404
-0.469425
0.347923
0.686391
0.000817
0.289513
-0.477766
-0.560442
-0.489450
0.265593
-0.910150
0.672950
-0.679087
0.913175
-0.640289
0.052847
-0.975564
0.864489
-0.010947
-0.735481
0.283645
-0.678095
-0.952421
-0.446906
-0.005571
-0.947843
0.036433
-0.742474
-0.065905
-0.296458
0.817346
0.754041
0.072516
0.239291
-0.614698
0.727924
0.948592
-0.247678
-0.350286
0.631283
-0.403008
-0.650599
0.505394
0.284660
0.195843
-0.827641
0.672011
0.528776
0.356605
0.564318
0.222301
-0.103477
0.652558
0.078549
0.883363
0.794695
0.032356
0.596416
-0.083281
0.506912
-0.755017
0.544828
0.090705
0.540670
0.591512
-0.934768
0.482561
-0.441823
0.478468
0.150712
-1.203727
-0.178862
-0.616334
0.652860
0.225963
-0.207902
0.891470
0.659812
0.154527
-0.446636
0.265104
0.113756
-0.942720
-0.933830
-0.811753
-0.655289
0.697408
0.910237
0.335019
-0.391486
0.446575
-0.835713
0.729018
0.842535
0.813049
-0.812688
-0.702650
0.062054
0.026569
0.481651
-0.247318
-0.634492
0.944651
0.645243
0.617015
-0.085269
-0.177787
0.396931
0.512316
0.619439
-0.087111
-0.767001
-0.503529
-0.481884
0.220673
0.663681
0.405849
0.359942
-0.445913
-0.702733
-0.767726
-0.998980
0.041532
-0.097064
-0.184470
-0.907244
-0.976056
7.983565
0.290070
-0.170405
0.471523
-0.519496
-0.812483
0.523442
0.424600
0.711573
0.023413
-0.916805
0.275089
-0.801099
-0.241335
0.900215
0.930827
0.345468
0.288836
0.632253
0.220916
0.079873
0.750426
0.939743
0.205857
-0.080040
-0.412068
-0.124989
-0.811708
0.733158
0.531553
0.758390
0.193447
0.193501
0.899643
0.285554
0.248363
-0.298654
-0.583582
-0.697114
0.904931
-0.164560
0.343168
0.665708
0.589808
0.164372
-0.355327
-0.678833
-0.966119
-0.243978
0.310649
-0.915925
-0.125745
-0.603074
-0.989977
0.048017
-0.926311
0.671076
-0.478123
0.504553
-0.503188
-0.413111
0.851180
0.041440
-0.436316
-0.836011
0.467294
0.405626
0.700074
-0.943270
-0.661590
0.635333
0.285311
0.970757
0.212694
-0.780735
-0.398058
0.230701
-0.653795
0.875070
-0.333858
-0.050598
0.039114
-0.889889
-0.586934
-0.314366
0.169299
-0.109423
0.960715
0.943198
-0.599703
-0.629422
0.474095
-0.332547
-0.239789
0.910581
-0.811618
0.069471
0.578242
0.325857
-2.370881
-0.256091
-0.819831
0.652979
-0.571435
-0.475631
-0.021005
0.745663
-0.802638
0.343603
0.961243
0.573569
0.249192
0.746378
-0.712367
-0.125733
0.441506
-0.434954
0.758461
0.849553
0.995910
0.445498
0.400755
0.589595
0.675678
-0.254274
-0.718450
-0.955930
-0.666190
-0.387233
-0.677861
0.256436
0.920052
-0.332462
0.269116
-0.542052
0.264946
-0.929625
0.659911
-0.349665
-0.060331
-0.639447
0.160531
0.867212
-0.269951
0.820302
-0.474357
-0.064203
0.259261
-0.577463
0.078986
-0.005287
0.481503
0.758535
0.689702
0.786482
-0.770059
0.760081
0.911717
0.304675
0.689227
-0.040121
-0.075937
0.826404
0.061314
0.787068
0.044553
0.633116
-0.378047
0.937085
0.227437
0.129450
-0.360676
0.623311
0.180243
-0.509232
0.984570
-0.217158
-0.069519
-0.891697
0.343734
-0.461088
0.331010
-0.111785
-0.545147
-0.876615
0.085823
-0.201710
-0.850073
-0.690513
-0.508897
0.911640
0.702475
-0.114848
0.533903
0.487734
-0.524090
0.555879
0.245709
0.955324
-0.530139
0.367402
-0.215356
0.175742
0.207551
-0.600514
0.075065
-0.625285
0.696741
-0.241331
-0.373155
0.587735
-0.296555
0.951045
0.664970
0.914638
-0.954455
0.793795
0.683933
0.501362
-9.788968
0.687104
0.553093
-0.157148
0.658602
0.320134
-0.532405
-0.284434
0.990586
0.624929
0.333922
-0.349570
-0.311038
-0.696849
0.816146
-0.902593
-0.761597
0.932373
0.540962
-0.479017
-0.453641
-0.165983
-0.068905
0.926444
0.242154
-0.873559
0.785503
-0.519414
0.967352
0.801128
-0.299298
-0.738987
0.845664
0.584424
-0.275063
-0.986990
0.424316
-0.813751
-0.897840
-0.684900
-0.886066
0.094743
0.304691
0.119235
-0.398535
-0.258615
-0.987349
0.578761
0.689429
0.539632
-0.090611
-0.438590
0.417378
0.827971
-0.782232
-0.628807
0.397253
0.057147
0.379631
-0.737648
-0.385086
-0.471436
0.963797
0.706579
0.541565
-0.833200
2.617431
-0.618445
0.325917
-0.084341
-0.933051
-0.671387
0.019534
0.436962
-0.197383
0.968900
0.398353
0.535855
-0.960840
-1.091958
-0.342259
0.832003
-0.097665
-0.733362
0.948114
-0.622938
0.583700
-0.719748
-0.224490
0.111858
-0.806313
-0.274921
0.779352
-0.562752
0.506559
0.867161
-0.538910
-0.567811
-0.378303
-0.164834
-0.806796
0.768078
-0.851210
0.857522
-0.025092
-0.601269
0.280494
0.172564
0.879376
-0.397042
-0.336104
-0.171731
-0.403643
-0.917306
-0.213250
0.298171
-0.172942
-0.149560
-0.114533
0.037286
0.551258
-0.234373
0.915538
0.082940
0.294018
0.668612
-0.492164
0.147033
0.030877
-0.579431
0.151487
0.394556
-0.982928
0.231394
0.589682
-0.955496
0.680419
0.276114
0.681686
-0.624785
0.031541
0.093493
-0.730202
0.966778
0.273793
0.291474
-0.545557
-0.198318
-0.135553
-0.877366
-0.804298
-0.988761
-0.353924
0.115483
0.536142
-0.156931
0.022195
0.851903
-0.149490
-0.054123
0.060248
-0.639247
-0.492888
-0.671599
-0.665170
-0.046478
0.364223
-0.879825
0.238453
-0.163636
0.708518
0.077483
0.315867
-0.833253
-0.629169
-0.726125
0.837566
0.220532
-0.099831
-0.962998
-0.926606
-1.571927
-0.734919
0.740028
-0.044983
0.499539
0.544040
0.310039
0.717641
-0.428798
-0.647317
0.731795
0.102830
-0.346088
-0.872623
-0.060701
3.079870
-0.388000
0.226771
-0.610215
-0.657011
-0.127781
-0.964357
0.598468
-0.549808
-0.458468
0.988582
-0.073055
-0.736000
-0.009849
-0.540362
0.578176
0.053494
-0.803342
0.068717
-0.726476
0.559396
-0.372108
0.420587
0.064822
0.442172
0.956549
-0.801688
0.447998
-0.378678
-0.905154
0.487374
-0.706750
-0.966357
0.503875
0.687945
-0.673614
-0.965783
0.115269
-0.618735
-0.784668
-0.123585
0.771232
-0.113802
-0.941457
-0.957817
0.636069
0.383919
0.146212
-0.279053
-0.144189
0.765461
-0.618288
0.829248
-0.670775
-0.555748
-0.606536
0.731160
-0.440031
0.911580
0.987564
-0.418150
0.131452
-0.257150
0.915562
-0.910841
0.195264
0.010083
0.445896
0.303054
0.119891
0.423139
0.328079
-0.647222
0.478397
-0.870799
-0.044334
-0.834409
-0.058313
0.100389
0.121686
-0.753100
0.259006
0.209221
0.853976
-0.143876
-0.063009
0.334511
-0.914927
0.646701
0.221131
0.750116
-0.787309
-0.691913
-0.246217
-0.241404
0.625121
-0.531018
0.121292
-0.470651
0.043606
-0.769464
-0.397957
-0.131149
-0.975190
-0.519909
-0.680109
-0.892118
-0.900364
-0.065989
-0.094865
0.195464
-0.628282
-0.217890
-0.073272
-0.928916
-0.026143
-0.854159
0.946517
-0.447165
0.835670
-0.815137
-0.443650
-0.480881
0.020657
0.394543
0.446655
0.409541
-0.913542
-0.183249
-0.203658
-0.912293
0.897730
-0.865215
-0.713447
-0.847716
0.340514
0.263464
0.230639
0.278984
0.854704
0.090060
-0.877558
0.152914
-0.612076
-0.008017
-0.747365
-0.907565
0.612320
0.365807
-0.440238
0.054283
-0.418970
-0.102933
-0.028162
0.867696
0.070199
-0.463574
0.905122
-0.674706
-0.737485
0.112410
0.137239
-0.919360
0.576665
0.109363
0.071830
-0.630248
-0.561201
-0.943215
-0.316689
-0.024537
0.795634
-0.329142
0.779449
-0.140385
0.647286
3.305213
0.162359
-0.250547
0.181181
0.056330
0.638594
-0.372842
0.040063
0.041762
0.758282
0.804135
-0.021699
-0.892909
0.711876
0.025833
-0.169085
-0.305373
-0.443478
0.677635
-0.806203
0.003615
0.723530
0.871031
0.821625
0.649749
-0.975242
0.669654
-0.226599
0.081789
0.636982
-0.670264
0.454048
-0.758481
-0.447246
0.200786
-0.760057
-0.298902
-0.445838
0.406324
-0.317539
0.700868
0.147297
-0.478104
-0.861397
-0.345833
-0.000126
-0.771667
-0.019969
-0.805034
-0.623450
0.033270
0.225329
-0.396696
0.048102
-0.076607
-0.341322
0.609145
0.798104
-0.070474
-0.511634
0.371308
-0.891524
0.497439
0.797155
-0.438167
-0.032875
0.561525
0.335354
0.132402
-0.965818
0.671685
0.198742
0.081963
0.704617
-0.454123
0.258200
-0.261074
-0.531870
-0.850006
-0.906785
-0.502419
0.656357
-0.164164
0.945365
-0.869815
0.444360
-0.279074
-0.599303
-0.518413
-0.854022
0.091665
-0.324685
0.642490
-0.012524
-0.345965
-0.344512
0.464655
-0.613602
0.851561
-0.839848
-0.394482
-0.866166
0.370251
-0.813033
-0.807918
-0.721203
0.914745
0.797286
-0.532297
0.965063
0.545014
-0.980454
-0.788377
0.157583
-0.725956
-0.674283
0.381884
-0.217341
-0.391238
0.048692
0.854712
-0.807230
0.673702
0.781713
0.966767
0.285652
-0.776963
0.583033
-0.810237
-0.581061
-0.019374
0.407166
-0.876976
-0.146153
-0.869306
0.447980
0.340776
0.023412
-0.906095
0.419320
-0.808712
-0.115522
0.689137
-0.796940
-0.454225
-0.039509
0.670867
-0.139852
-0.319467
0.394525
0.005866
0.826048
0.876463
0.740892
-0.715443
0.287335
0.001348
-0.119007
-0.465936
-0.590058
0.583141
0.961634
-0.303406
0.920321
0.154833
-0.958482
0.984367
-0.312717
-0.165861
-0.828881
-0.948859
0.471809
-0.796063
0.370747
-0.247223
-0.990210
0.738840
-0.341067
0.929456
-0.987068
-0.035090
-0.880328
-0.317233
0.118529
-0.235398
-0.285872
0.593029
-0.901230
-0.760044
0.256898
-0.386102
0.159949
-0.890873
-0.421909
0.727024
0.935949
-0.488185
-0.300833
-0.111540
0.299197
-0.414992
-0.999197
-0.949780
-0.273314
0.901205
0.462829
-4.566072
-0.568799
0.582528
0.499614
-0.353869
0.579656
0.336246
0.417907
0.518086
0.480718
0.807088
-0.296064
0.740989
-0.496815
-0.692086
0.198289
0.481115
-0.627148
-0.882334
0.860729
-0.641749
-0.582862
-0.467527
0.344755
0.056073
-0.476099
-0.939606
0.031037
0.776746
0.111409
0.616303
-0.209795
-0.703254
-0.263798
0.628123
-0.978125
0.999999
-0.774137
-0.379265
0.090720
-0.494381
-0.786719
-0.106544
0.141781
-0.789641
0.882158
0.730420
-0.248309
0.699730
-0.772669
-0.192670
0.368331
-0.362929
-0.273823
-0.688994
0.358604
0.854151
-0.351420
-0.958095
-0.636610
0.925442
-0.796988
-0.909478
-0.119899
0.772447
0.634352
0.152166
-0.404043
0.388632
-0.335540
0.564915
-0.391205
0.419305
0.395096
0.449240
0.462293
0.895553
-0.976830
-0.294161
0.168625
-0.173646
-0.171903
0.026195
-0.460228
0.712325
-0.718417
0.123313
-0.782045
0.653294
-0.761297
0.530310
0.108581
-0.690077
-0.381151
-0.538218
0.028690
0.344534
-0.235603
-0.749715
0.137237
-0.552042
0.657120
0.743140
-0.245410
0.997811
-0.606263
0.516494
-0.498827
0.000020
-0.286665
0.315259
-0.077252
0.236914
0.188271
0.261769
-0.479939
-0.341243
0.853043
0.663569
0.455408
-0.886133
0.143849
0.495869
-0.762436
-0.386056
-0.752035
0.290817
-0.370770
0.888478
-0.849774
-0.558084
-0.446234
-0.926592
-0.363652
-0.352454
0.437708
0.623586
-0.893356
-0.116515
0.554496
0.210856
0.340748
-0.201025
0.402304
-0.533692
-0.234245
0.797254
0.566672
0.925051
0.188299
-0.645661
0.722298
-0.255416
-0.473675
-0.126612
-0.665665
-0.525503
-0.234256
0.648019
-0.440337
0.261490
-0.698309
-0.110924
-0.156122
0.013674
-0.205416
-0.460445
-0.121583
-0.830689
0.839402
-0.132500
0.558611
-0.837809
0.591706
0.069030
-0.773652
0.333071
0.190236
-0.370874
0.465624
-0.429680
-0.115249
-0.837012
-0.859642
-0.181330
0.312193
0.621457
-0.001918
-0.068044
-0.173984
0.153125
-0.476515
0.251192
-0.149282
-0.871936
0.229733
-0.951069
-0.520665
-0.718561
-0.177474
-0.389247
0.872544
-0.020355
0.454707
0.028456
0.052715
-0.843534
0.215871
0.198916
-0.308596
-0.834259
-0.045804
0.034679
0.948772
-0.202283
0.469180
-0.666298
-0.246272
-0.020533
0.509373
0.126551
0.576532
-0.365317
0.974823
0.874107
0.362635
0.884013
0.344068
-0.957228
0.942471
-0.280013
-0.048400
-0.592289
0.034720
0.020156
0.672005
0.994458
-0.132944
0.537162
-0.747798
-0.884624
-0.068926
-0.417698
0.660591
-0.139425
-0.272881
0.668844
-0.930722
0.439990
0.092149
0.711038
0.198321
0.012353
0.289359
-0.031419
-0.473660
-0.061423
-0.457304
-0.177101
-0.626619
0.056515
-0.077080
0.170406
0.154116
0.567489
-0.718927
0.122161
0.928287
0.487837
0.893370
-0.633110
0.085904
-0.986580
-0.632916
-0.690640
-0.547856
-0.140329
-0.430662
0.829518
0.199524
-0.013826
-0.787015
0.071155
-0.205206
-8.385809
-0.344905
-0.939782
-0.586954
-0.454015
-0.505992
0.011468
-0.410565
-0.083911
-0.828041
0.451840
0.116149
-0.726661
0.188509
0.212002
0.191210
-0.560756
0.532710
-0.598715
-0.579845
0.481265
-0.536137
-0.766241
-0.795127
0.172697
-0.041055
0.510356
0.041424
0.702282
0.512815
0.398798
-0.038722
0.619375
-0.516672
0.046241
-0.410241
0.798952
-0.762798
0.905131
0.916192
-0.161154
-0.626900
-0.077010
-0.922646
-0.005546
0.830716
0.036759
-0.199505
0.167384
0.715717
-0.692571
-0.161723
0.476763
-0.335954
-4.544495
0.204753
0.653676
-0.281917
0.685184
0.348245
-0.006911
0.384640
-0.245762
0.594284
0.248720
0.875865
0.658583
0.018381
0.069546
-0.726194
0.061384
0.731503
0.987294
-0.147710
0.007727
-0.050639
-0.850409
0.283283
0.070795
-0.808527
0.108253
-0.511830
0.134769
-0.199424
-0.593428
0.836142
0.948199
-0.883672
-0.841868
0.055016
-0.347398
0.352394
-0.988297
0.165841
-0.084547
0.542270
0.017942
-0.187187
0.504647
-0.868021
-0.533891
0.644708
-0.876614
-0.333035
-0.465838
0.891542
-0.250764
-0.920394
-0.408879
-0.226496
-0.239738
0.760426
-0.647866
0.346115
-0.852867
-0.268243
0.138452
0.025878
0.572023
-0.100732
-0.708945
0.485462
-0.779796
-0.039063
0.969614
-0.144410
0.648403
-0.477522
0.173879
0.545412
0.159553
0.189523
-0.515115
0.538576
0.544822
0.695183
-0.506609
-0.140896
0.302091
-0.228052
0.049861
0.853302
0.441917
-0.272560
-0.108116
-0.581363
-0.237837
-0.221570
0.300035
-0.545090
0.015402
0.348554
-0.492964
-0.179245
0.274293
0.721455
0.894129
-0.562715
0.943703
0.479458
-0.231382
0.159463
0.294249
-0.420073
-0.312766
-0.604636
-0.098709
0.453336
0.769497
0.260868
0.854511
0.306083
-0.497125
-0.661061
0.228989
0.057289
0.465203
-0.361482
-0.003890
-0.166838
-0.837103
0.962816
0.702322
0.680398
-0.754928
0.769213
0.771709
0.359370
-0.579597
0.391926
-0.625710
-0.526107
0.418819
0.298166
-0.199595
0.859224
-0.681486
0.466654
-0.401476
-0.393419
0.468361
-0.202910
-0.945652
0.552685
-0.253182
-0.627212
0.173474
0.174636
0.332778
-0.761510
0.672994
-0.828005
0.723846
-0.000495
0.527591
0.325980
0.129869
-0.320474
0.715984
0.783852
-0.095381
-0.131287
-0.891331
0.218748
0.953225
0.563088
-0.009275
0.600123
-0.937776
-0.688341
-0.727959
-0.742465
-0.168158
-0.584148
0.582913
0.215892
0.370831
-0.735327
0.184311
0.005178
-0.156481
-0.611116
-0.732395
-0.021615
-0.697562
0.228803
-0.872725
0.111912
-0.011244
0.266709
-0.561375
0.575386
0.421033
0.131666
0.996607
0.684169
0.166678
0.110605
-0.311602
0.216528
0.664956
5.591691
0.693540
-1.092388
0.393229
-0.986604
0.743215
-0.028650
-0.393958
0.380853
-0.067727
-0.437392
0.812078
0.814858
0.173227
0.419317
-0.116031
0.956285
-0.990036
-0.067419
0.219622
0.649413
-0.261390
0.214758
-0.563889
0.010331
0.731828
0.413075
0.251334
0.224599
-0.092112
0.191051
0.787266
-0.537428
-0.034684
-0.511328
-0.457258
0.783982
0.717956
0.406799
-0.281413
-0.714468
-0.139374
-0.072765
-0.317818
0.431380
-0.230305
0.613975
-0.078906
0.501116
-0.806373
-0.943401
-0.564592
0.579726
0.309980
0.531630
-0.382060
-0.980522
-0.868245
0.147926
-0.750453
-0.192205
0.073297
-0.097428
-0.459159
0.442373
-0.859403
-0.916266
0.632620
0.556611
-0.374988
0.934035
-0.399194
-0.842095
0.017184
0.891363
0.093815
0.902674
0.568394
0.318361
-0.528962
0.098691
-0.298048
-0.217568
-0.474186
-0.314901
0.509642
0.227225
-0.175560
-0.370636
-0.057938
-0.506344
0.678265
-0.758587
0.436174
-0.449579
0.936293
0.521623
-0.176183
-0.805565
0.638188
-0.687642
0.148739
0.963421
0.419313
-0.342634
-0.785391
-0.779463
0.281777
-0.138731
0.203424
-0.465165
0.529354
-0.323360
-0.171020
0.329852
-0.902626
0.995041
0.679631
0.344356
-0.150839
-0.009458
0.017139
0.812276
0.378443
-0.980518
0.508750
-0.578950
0.288548
-0.176313
-0.943214
0.318344
0.718622
0.242413
-0.144031
-0.533687
-0.131477
0.067824
0.842355
0.457620
0.631524
-0.568669
0.241792
0.325419
0.385700
-0.688604
-0.501133
0.571891
-0.713769
-0.216578
0.470430
0.409960
-0.864059
0.484911
-0.720029
0.278140
-0.090878
0.185800
-0.644331
0.084836
-0.314933
0.751710
-0.524470
-0.595030
-0.219155
-0.555989
-0.996506
-0.264024
0.663438
-0.890820
-0.008840
-0.705603
0.494837
-0.660143
-0.875387
0.779800
0.936988
-0.141703
0.143479
0.457734
-0.468950
-0.924531
0.474672
0.998013
0.317096
-0.202367
-0.648007
-0.276503
-0.395120
0.429135
0.224987
0.702268
0.254622
0.722184
-0.052842
-0.191561
0.939361
-0.764652
-0.307438
0.256905
0.066311
-0.234227
-0.211755
0.439176
0.406890
-0.936405
-0.450476
-0.145350
0.954447
-0.360809
0.937048
-0.337081
-0.269931
-0.855195
-0.075722
0.310687
0.556862
-0.976781
-0.989287
0.896114
-0.486899
-0.997198
0.354833
-0.479044
-0.960165
0.610887
-0.922709
0.499375
-0.103354
-0.125690
0.922302
0.251868
-0.676599
0.012851
0.915467
0.158130
-0.106393
-0.934726
0.227006
-0.978794
-0.763429
0.377029
-0.553153
0.496391
0.465407
0.248151
0.171477
0.107840
-0.172716
0.224778
0.629683
-0.168883
-0.656934
-0.958481
0.106384
0.504573
0.780978
0.396672
-0.974988
0.105820
0.397738
-0.172908
-0.705233
0.546378
-0.309453
0.982430
-0.021909
0.255397
0.443383
8.946140
-0.429837
0.214435
0.993886
-0.526320
0.463943
0.876585
0.276463
0.915339
-0.194207
0.256088
0.478897
0.438580
0.941604
0.344703
0.358549
-0.653084
-0.308992
0.581364
0.645407
0.012350
-0.286735
0.622461
0.133743
0.900287
-0.747515
0.109892
-0.396501
0.445555
-0.514187
0.823002
0.607388
0.278364
-0.209538
0.772553
0.036089
-0.485906
-0.972628
0.180507
0.630399
-0.984769
-0.895381
-0.306422
-0.219753
0.877702
-0.365686
0.860609
0.559953
-0.187361
-0.903473
0.292964
0.554976
0.230536
0.489293
-0.383589
-0.708230
-0.418244
0.961394
-0.666577
0.861890
0.300561
0.054684
0.718117
-0.626153
0.094816
0.848257
0.362947
-0.053012
0.771977
-0.956606
-0.306524
0.344326
0.092013
-0.851360
-0.135757
-0.350200
0.617864
-0.933530
-0.329662
0.920834
-0.813183
-0.130946
-0.743777
0.134067
-5.651027
0.990045
-0.610042
-0.785717
-0.580095
-0.865786
-0.937114
-0.768383
-0.314530
-0.847321
-0.270775
-0.827578
-0.003004
-0.071161
-0.608492
-0.292723
0.681229
-0.581857
-0.796870
-0.140555
-0.566698
0.365022
-0.997631
0.345415
0.431966
0.318115
-0.282182
-0.365942
-0.268236
-0.461520
0.025907
0.186509
0.853394
-0.340982
0.691446
0.108513
-0.568242
-0.592057
-0.551429
0.349591
0.848222
0.199150
0.494786
0.574459
-0.943637
-0.243920
0.009406
0.420716
0.286808
0.923099
-0.642277
0.192503
0.373754
-0.644470
-0.538038
0.751971
0.169782
0.311315
0.550725
0.992733
0.719791
-0.305410
-0.642594
0.529376
0.095219
-0.453134
0.640401
-0.548794
-0.382153
0.955874
-0.661702
0.436514
-0.913294
-0.626487
-0.506696
-0.379684
-0.840018
-0.675131
-0.709755
-6.868849
-0.258613
0.768750
-0.423777
0.743928
0.553426
4.393873
-0.081721
-0.032584
0.198675
-0.842304
-0.632618
-0.562914
0.057358
-0.923651
0.441482
-0.472330
0.445434
0.278739
-0.960592
0.533505
0.487107
0.925051
-0.484606
0.141451
0.473950
0.378167
0.284286
0.779465
0.166201
0.797449
-0.054658
0.617301
0.543656
0.866969
-0.158832
-0.868926
-0.092328
-0.100726
0.820596
0.458525
0.214788
-0.664322
-0.911607
0.234028
-0.391669
0.012533
-0.530339
-0.418304
0.596231
0.984870
0.899931
-0.513973
0.926595
0.021381
-0.517418
-0.495281
-0.505465
5.094843
-0.155623
0.979559
0.477455
-0.159723
-0.458583
0.598099
-0.542233
0.812033
-0.588210
0.532312
0.275605
0.863163
-0.989717
0.724698
0.961834
0.091333
0.342602
0.954313
-0.529894
-0.267557
0.516903
0.984489
-0.632322
-0.859206
0.293264
-0.272191
-0.276538
0.720541
-0.780910
0.752248
0.480964
0.687022
0.461791
0.967932
0.703961
-0.678277
0.876173
0.903016
-0.074926
0.728610
0.075915
-0.754727
-0.629892
0.718488
0.076627
-0.961902
-0.930206
-0.731413
-0.887959
-0.923467
-0.203485
0.994196
0.680357
-0.461787
0.927087
0.171369
-0.359363
-0.239404
0.595224
-0.727096
0.306046
0.595637
0.477736
0.209671
0.558518
0.729549
-0.176100
-0.511457
0.207098
-0.242605
-0.783849
-0.219938
0.814307
-0.841656
-0.956445
0.567062
0.696032
0.517666
-0.507003
-0.386512
0.577733
0.814409
-0.311987
0.473714
0.009009
-0.634288
0.792165
-0.311917
-0.569158
-0.732322
-0.959103
-0.698901
-0.879649
0.931453
-0.590309
0.491894
-0.810019
0.030141
-0.357911
-0.134899
0.440254
0.339336
-0.937409
0.140838
-0.469486
-0.002370
-0.283190
0.429750
-0.343144
0.988798
0.613960
-0.405730
-0.974139
0.230683
0.809320
0.421942
0.284345
-0.589860
0.022751
0.660696
0.042942
-0.185998
-0.153769
0.280811
0.666243
0.932240
-0.492682
-0.115705
0.091555
-0.557641
0.465174
-0.524598
0.577434
0.777318
0.447321
-0.985062
0.206423
-0.305620
0.713788
-0.705848
0.053262
-0.481623
0.805235
0.735202
0.650761
0.777637
-0.137205
-0.768764
0.401261
-0.444270
0.531335
0.995380
0.390481
-0.737400
0.122150
-0.430684
-0.226434
0.723392
0.680843
0.490492
-0.113966
0.207524
-0.544486
0.131016
0.444407
0.794241
0.341645
0.572148
-0.591268
0.403072
0.860365
-0.236330
0.943519
0.575147
-0.027294
0.686636
0.365629
0.523501
0.131677
-0.363583
-0.434208
-0.624649
0.138353
-0.247256
-0.364505
0.054474
-0.162963
-0.050198
0.560814
0.951928
0.864207
0.496368
0.447526
-0.297991
0.261076
-0.718220
0.092358
0.194447
-0.326357
0.323706
-0.112466
0.998510
0.302003
0.032329
0.020596
0.118017
-0.579379
-0.528795
0.191921
-0.741616
0.025710
0.968769
0.389151
-0.472283
-0.214013
-0.589899
0.759233
-0.982028
-0.849162
-0.654357
0.336002
0.009622
0.935920
0.219815
-0.098858
-0.893826
-0.518786
-0.227792
0.372052
0.698167
-0.666449
0.608264
0.989584
0.276974
-0.042728
0.266659
0.609713
-0.368842
0.151389
-0.398152
0.126424
-0.312593
-0.501387
0.428004
0.441674
-0.668587
0.292444
0.474937
0.233371
-0.918909
-0.310856
-0.472614
-0.633820
-0.859856
-0.732919
-0.286191
0.619660
0.296209
-0.633511
-0.100969
0.517888
0.515259
-0.689602
-0.567716
-0.516189
0.177974
-0.024606
-0.096018
0.788348
0.552171
0.533163
-0.569868
-0.281340
0.194886
0.032575
-0.010352
0.686984
-0.335486
0.391041
0.986660
0.568690
0.530922
-0.646444
0.998426
-0.554313
0.577474
0.576642
0.839952
-0.163727
-0.762251
0.225987
-0.689505
-0.632663
0.528975
-0.952864
-0.407690
-0.268016
0.858084
0.712141
0.227300
-0.140019
-0.414586
0.129768
0.781835
0.184316
0.462928
-0.840340
-0.053228
0.197680
0.140527
0.962602
-0.468869
-0.501926
0.993099
0.036794
-0.989558
0.988330
0.833529
0.659385
-0.657178
0.959295
-0.499723
-1.030429
0.363479
0.734062
-0.491842
-0.500483
-0.673814
-0.467335
0.733528
0.570879
0.468980
-0.181486
0.646622
-0.683412
0.382236
0.405269
-0.374534
-0.092408
-0.976831
-0.669322
-0.279895
0.335105
0.181148
0.554449
-0.028384
0.828103
-0.508193
0.390992
-0.173905
0.536915
0.504860
0.042996
0.751953
0.786559
-0.223022
0.541370
-0.495535
-0.326766
0.272520
-0.421271
-0.959856
-0.114562
0.722556
0.230042
0.115935
-0.500785
0.708204
-0.447761
0.520038
0.765945
0.982993
0.832556
-0.355947
-0.638446
-0.733396
0.886490
-0.460857
0.010389
-0.721740
-0.925151
-0.192393
-0.204842
-0.421672
0.604880
0.880132
0.066893
0.855172
-0.637611
0.802206
0.359840
-0.605106
0.572645
0.510669
0.521746
0.338259
0.861472
0.916235
0.640741
-0.764873
-0.067780
0.349239
0.625302
-0.943705
-0.126487
0.964833
0.078766
0.994839
-0.043874
-0.320860
0.705735
0.435648
-0.350237
-0.966724
-0.422788
-0.785922
0.891233
0.712027
0.019438
0.633592
-0.669249
-0.353045
0.736792
0.069962
0.974975
-0.144903
0.207216
-0.819458
-0.091267
0.147002
0.397019
0.784864
-0.749054
0.363993
-0.548619
0.253582
-0.357710
-0.755259
0.522442
0.324799
0.893690
-0.203285
0.597735
0.886157
0.780808
-0.564587
0.690024
-0.593378
-0.641387
0.587352
-0.356448
0.657545
0.740188
-0.124902
0.124095
-0.487047
0.873095
0.481052
0.444541
-0.787377
0.994889
0.192107
0.786217
0.975800
-0.081129
-0.322934
0.484149
0.833228
-0.876271
0.922658
0.382939
0.671558
-0.495010
-0.209491
-0.687051
-0.946115
0.441639
-0.470366
0.474368
-0.471572
0.162153
0.188048
-0.481513
-0.419881
-0.244971
-0.963239
0.671240
0.396993
0.949430
-0.855306
-0.773386
-0.248354
0.841591
-0.319184
-0.613621
-0.173145
0.261779
-0.916360
-0.897186
-0.018375
0.763696
-0.846322
0.497988
0.825700
-0.792943
-0.848683
0.871989
-0.878791
0.762946
0.178926
-0.008083
0.440817
0.266147
-0.281710
-0.574279
0.009597
0.671641
-0.069252
0.692452
-0.512119
-0.547372
0.335313
0.628683
0.408978
-0.610793
-0.571259
0.761209
-0.257437
0.573336
-0.983623
-0.415499
-0.268096
-0.339507
-0.480886
0.515942
0.128980
-0.561352
0.690311
-0.457798
-0.401840
0.444444
-0.969952
0.326035
0.108814
-0.950224
0.339406
-0.003669
-0.568272
-0.311778
0.908401
0.619658
0.715630
0.315723
-0.508754
-0.868006
0.322540
0.695073
-0.144899
-0.298234
-0.998366
-0.922098
0.272042
-0.364328
-0.367085
0.943625
0.763006
-0.748880
-0.063178
0.658694
0.620187
-0.884090
-1.887115
-0.407990
-0.299027
-0.870770
-0.482775
-0.055214
0.988434
0.719985
-0.575340
-0.564017
-0.733478
-0.654148
0.759861
-0.220734
0.628746
-0.568725
-0.610120
0.002016
-0.195257
0.127699
0.644366
-0.187459
0.607795
-0.260812
-0.782764
0.410065
0.281517
-0.654178
0.869293
-0.647999
0.031598
-0.727696
0.690209
-0.768315
-0.107994
0.208718
0.974221
-0.183159
0.785204
0.573323
0.739160
-0.148480
0.528143
-0.999367
-0.155489
0.058300
-0.163764
-0.477898
-0.124500
-0.009323
-0.278377
-0.425567
0.343623
0.604743
0.596139
-0.337192
0.023134
0.504001
-0.840933
-0.942118
-0.504219
-0.292079
0.533145
0.217797
-0.525216
0.595424
0.715966
-0.958517
0.983630
0.073270
0.790388
0.114512
0.794617
-0.998638
-9.689420
-0.950476
-0.409751
0.128461
-0.591163
0.265922
-0.552420
-0.480479
-0.974820
0.547642
0.202684
0.043325
0.786889
-0.595250
0.080355
0.365617
-0.157397
0.441830
-0.138255
0.233134
0.503391
0.333955
0.047998
-0.869495
0.124490
-0.630754
-0.962329
-0.154834
-0.745269
0.564380
-0.825328
0.912104
-0.975494
0.872657
-0.928939
0.414795
-0.470889
-0.366506
0.168287
-0.329074
0.774464
0.854811
-4.720282
-0.786225
-0.851773
-0.211976
-0.592886
-0.872242
0.768622
-0.722311
0.635642
0.056986
0.292449
0.638533
-0.814448
-0.136123
0.864979
0.382303
-0.174337
-0.805512
0.152525
0.462169
-0.518612
-0.855495
0.753766
-0.308432
-0.633365
0.320204
-0.799139
0.715723
0.140420
-0.936304
-0.628096
-0.511997
-0.382035
-0.366729
-0.416879
-0.467261
0.783703
-0.378763
0.783160
0.326400
0.259030
-0.469230
-0.328079
-0.131817
-0.312137
0.585521
0.609223
0.704490
-0.153502
-0.977526
-0.457189
0.901686
-0.972374
0.436494
0.421811
-0.786936
0.279146
-0.152966
-0.262048
-0.971671
0.385288
-0.240402
-0.189829
0.153353
0.771712
0.984444
-0.526099
-0.470491
-0.460244
0.791278
0.698536
0.592130
0.037580
-0.485402
-4.611069
0.068615
0.330238
0.289131
0.963207
-9.664742
-0.786366
-0.714747
-0.372493
0.920893
0.280735
0.626442
-0.283939
0.276291
0.530177
-0.752465
0.582020
0.994670
0.825833
-0.884752
-0.503869
0.615209
0.226566
-0.545962
-0.424799
-0.939656
0.994531
-0.102270
0.977106
-0.788479
0.386092
0.454578
-0.741472
-0.655794
0.948230
-0.846758
0.392226
-0.541331
-0.910299
0.789164
-0.430004
0.809395
0.159680
0.943327
-0.408762
0.095262
-0.225290
-0.994504
0.093324
-0.418781
-0.487309
1.217963
0.842436
0.650891
-0.485535
-0.912534
-0.541996
-0.642032
0.718136
0.152972
-0.854489
0.539462
-0.598497
-0.437479
-0.764772
0.951307
-0.370347
-0.683079
0.772633
0.610712
0.366387
0.049842
0.227113
0.839193
0.931497
-0.876277
-0.317335
0.613688
0.299549
-0.854752
-0.764419
-0.434227
0.967659
-0.756391
-0.195147
0.038650
0.162115
-0.620869
0.455022
-0.236462
0.448403
-0.792608
0.629004
0.879576
-0.158186
0.245111
-0.869362
-0.277199
-0.682062
-0.437559
0.671444
-0.810496
0.177036
0.186347
0.851633
0.228223
-0.977336
-0.185631
0.035314
-0.174842
0.919988
0.132301
-0.839059
0.788716
0.387963
0.628872
0.950418
0.679417
-0.562059
0.791197
0.710677
0.166741
-0.573057
0.806591
-0.916587
9.127719
0.258909
0.354352
-0.323848
-0.556647
-0.978003
-0.387730
-0.590397
0.849624
0.329410
-0.674578
-0.423495
-0.683851
-0.446329
-0.015465
0.251282
-0.275418
-0.141300
0.379903
-0.163902
0.370123
0.725518
0.655064
0.822685
-0.610787
0.005707
0.698740
0.305807
-0.371510
-0.577503
0.353849
0.506280
-0.102669
-0.347715
-0.009495
0.204815
0.707345
0.531354
0.621743
0.233625
-0.289889
0.602335
0.683378
0.647378
0.840683
-0.703926
0.280306
0.934646
-0.579779
0.358894
0.509906
-0.428692
0.360589
0.349039
0.832435
-0.995076
-0.497586
-0.761004
-0.337806
0.362842
-0.485821
0.407276
0.300616
-0.155235
-0.944907
-0.825342
-0.371202
-0.901272
-0.924334
-0.075963
0.176186
-0.848371
-0.789255
0.298582
-0.745820
-0.254106
0.977185
0.312630
0.452217
-0.051623
-0.844604
0.898120
-0.025560
-0.906694
0.368848
0.813024
0.861376
0.163110
-0.272021
-0.567377
0.693125
0.914916
-0.001225
-0.401235
-0.647397
-0.974433
-0.870098
-0.015760
0.304553
0.149671
-0.402188
1.598171
-0.926830
0.166520
-0.712213
0.331855
0.155087
-0.161880
-0.000479
-0.881479
-0.560060
-0.455728
0.397190
-0.562708
0.362419
0.307552
-0.831941
-0.199553
0.225987
-0.431578
-0.685999
-0.539754
-0.556251
0.736017
0.644698
-0.533811
0.217444
-0.504925
0.723276
-0.075818
-0.275673
0.164455
0.368596
-0.534453
0.819316
-0.584150
0.495922
0.390021
-0.680118
-0.421063
-0.123645
0.608872
0.640171
0.961221
0.818218
0.461234
-0.891246
-0.409665
-0.253777
-0.291869
0.513819
-0.636323
-0.508404
0.617640
-0.228221
0.025424
-0.901003
-0.455337
0.167351
0.161248
0.699303
0.031308
0.069351
0.054075
-0.747591
0.479333
0.005188
0.574204
0.069316
-0.385044
0.932186
0.361226
-0.777383
-0.642945
0.068296
-0.804311
0.288379
0.172534
-0.312593
0.150955
-0.021901
-0.670043
-0.483310
0.925527
0.004473
-0.201857
0.724351
-0.508632
0.788132
-0.691293
0.220993
-0.515623
0.816137
-0.514621
-0.100634
0.684152
0.096915
-0.559354
0.874875
-0.767322
-0.627649
0.570386
0.931563
0.076911
-0.787101
-0.910985
-0.342449
0.191090
0.139795
-0.023260
-0.967889
0.070438
0.805618
-0.843829
-0.262332
-1.070538
0.772200
0.069403
0.700178
-0.310476
-0.885206
0.603134
0.748853
-0.811623
0.935255
-0.290581
0.028431
-0.426962
-0.252607
0.227812
0.388530
-0.616334
0.812991
0.230194
0.128947
-0.322824
-0.797442
-0.876444
1.020147
0.541417
0.472043
0.824813
-0.351912
-0.867389
-0.291868
0.450431
-0.931750
-0.401267
-0.879770
-0.244114
-0.342967
0.966781
0.236105
0.465711
0.135024
0.001727
-0.211302
0.246941
-0.698836
0.915575
0.012354
-0.769453
0.583377
-0.550788
-0.032374
0.541221
0.020007
0.763512
0.022426
0.288499
-0.732547
-0.882204
0.216799
-0.872719
0.415191
9.533854
0.999818
-0.772146
0.576967
0.803452
0.209218
0.016311
-0.178466
0.250623
0.898058
-0.603963
-1.087820
-0.526382
-0.079307
0.313589
-0.254300
0.410580
-0.165654
-0.128989
-0.671369
-0.275233
-0.643916
-0.514552
-0.093141
-0.845971
-0.584881
-0.907589
-0.396269
0.088703
0.117437
-0.515805
-0.581116
0.680753
0.188651
0.311080
-0.605312
-0.828274
0.038950
0.077271
0.479459
0.255893
0.931477
0.178620
0.756553
0.586879
0.636837
0.815464
0.786036
0.099444
-0.511067
-0.385203
-0.920644
-0.258498
-0.141117
-0.499340
0.254580
0.172517
0.285430
-0.185731
-0.100597
0.440491
-0.100422
0.131349
0.230559
-0.664270
-0.624826
-0.171274
-0.023673
0.161661
-0.327029
0.382972
-0.829268
-0.219522
-0.588487
-0.275752
0.914469
-0.371520
-0.523026
-0.123295
0.849820
0.449872
0.840091
0.895982
-0.150932
0.968315
0.997258
-0.052595
-0.992178
-0.554429
0.781665
0.479434
-0.277125
0.330809
-0.680565
-0.758934
-0.781223
-0.944281
-7.395119
-0.196954
-0.676235
-0.369189
-0.962478
-0.264769
-0.533318
-0.656607
0.851655
-0.329337
0.929237
-0.375839
-0.218106
-0.390742
-0.550943
-0.581956
-0.399785
0.176507
0.014896
-0.589203
0.064797
0.749175
1.505607
0.551697
0.342998
0.837087
0.485902
0.462990
-0.899284
0.955854
-0.158013
0.514095
0.591382
0.578384
-0.641644
0.676789
-0.188360
0.471103
0.810670
-0.218441
0.178331
0.687070
-0.136784
0.521013
6.460736
-0.067684
0.818293
-0.757107
0.620556
0.815267
-0.120693
0.690076
-0.083456
0.235274
-0.704762
-0.238769
-0.404864
-0.439625
0.168725
-0.151521
-0.428668
-0.090496
0.173163
-0.657288
-0.183409
-0.370141
0.106051
-0.140309
0.035911
0.136298
-0.166775
-0.471322
0.742636
0.377608
0.162320
0.419514
-0.442436
0.422339
-0.230825
-0.217686
-0.899067
0.199837
0.687109
-0.170212
0.342951
-0.149294
0.240416
0.011187
0.655770
-0.547084
0.607019
0.684887
-0.229168
0.493936
-0.713893
0.441255
0.345609
0.832319
-0.648418
-0.672609
0.872448
0.085015
0.785475
-0.051757
-0.307277
-0.055001
-0.366771
0.575275
0.628046
0.252463
-0.181742
0.639821
0.452505
-0.144014
0.709606
-8.925252
-0.650900
0.554812
0.648405
0.109502
0.769801
-0.756046
-0.732035
0.832118
-0.190572
0.885485
0.511656
-0.272339
-0.430628
-1.056045
0.722859
-0.708164
0.636965
0.948725
0.501018
-0.597655
-0.763316
-0.789267
0.609727
-0.200973
-0.713544
0.481627
0.257486
-0.182232
-0.200644
0.944144
0.984493
0.020099
0.498523
0.660668
0.828129
-4.046712
-0.188760
-0.551520
0.082657
0.148770
-0.013019
-0.720933
0.428427
-0.035884
-0.751137
0.881322
0.562060
0.028047
-0.812265
0.803881
-0.759309
0.951039
0.777635
0.208580
0.460279
-0.334739
-0.696307
0.552889
0.708625
9.477153
0.416842
0.877030
-0.308208
-0.115197
-0.071447
0.509432
0.903629
0.298635
-0.033302
-0.792267
-0.709830
0.695058
0.379780
-0.595641
0.574300
0.996701
-0.879586
-0.542707
-0.738852
-0.143951
0.903460
-0.244369
0.445477
-0.832221
0.064449
0.039941
-0.897164
0.868568
0.397745
0.351003
-0.213482
-0.490335
0.889645
0.338442
-0.684989
0.291072
-0.457912
-0.975998
0.308795
0.220253
0.412397
0.388113
-0.031465
-0.748973
0.911345
0.436771
0.423059
0.491631
-0.113406
0.722557
-0.559066
0.803128
0.386060
-0.469523
-0.142838
-0.718271
-0.623021
-0.652688
0.691519
-0.951676
0.531018
0.055380
-0.788542
0.612148
0.365988
0.056423
0.762276
-0.138278
-0.778691
0.005421
0.371813
0.245230
0.571251
0.232278
0.869557
0.461784
0.196129
0.805447
0.251210
-0.739740
-0.007805
0.431700
-0.882436
-0.090125
0.029108
-0.022474
0.548164
0.070854
0.397295
-0.203902
-9.514383
0.291884
-0.740322
-0.578073
0.230883
-0.072787
-0.442490
-0.326974
-0.804123
-0.885325
-0.789594
-0.038262
-0.042806
-0.934385
-0.563891
0.907606
0.739174
-0.219826
0.443588
0.557032
-0.550849
-0.080058
0.240962
0.676916
-0.212806
-0.014653
-0.298358
0.452402
0.831232
0.677852
-0.175118
0.936813
8.220127
0.052225
-0.914843
0.479693
0.313402
0.176444
-0.759391
0.715219
-0.178777
-0.208147
-0.239032
-0.982235
0.777905
1.195327
0.232945
0.097437
0.431306
0.651874
0.399087
0.820716
0.291879
0.371695
0.334056
0.599299
-0.686935
-0.457559
-0.981418
0.414495
0.464040
-0.027442
0.499989
-0.281369
-0.307944
0.366861
0.505184
0.555825
0.707817
0.560323
0.649196
-0.318035
-0.230262
0.067373
-0.327655
-0.837924
0.859057
-0.961167
0.611718
0.936450
-0.204773
-0.087792
0.489823
-0.665876
0.139099
0.382157
0.888944
-0.722586
0.168807
0.592448
-0.204736
0.658919
0.119225
-0.647878
-0.154397
-0.692942
-0.801235
0.197790
0.518433
0.676312
0.784353
0.642735
0.216904
-0.027714
-0.232539
0.830529
-0.788916
0.646531
0.121936
0.645518
0.341212
0.085900
-0.178487
-0.369050
-0.516401
-0.743877
-0.551639
0.587290
0.139654
-0.379598
0.084153
0.176441
-0.397488
0.391053
-0.207228
-0.145431
-0.236450
-0.747668
-0.329583
0.780582
0.051192
-0.378129
0.142997
0.463406
-0.937774
0.200796
0.918056
-0.995257
0.234716
0.457827
0.555700
0.780181
0.505042
-0.613768
0.465838
-0.478802
-0.950253
-0.263640
0.442396
0.956192
-0.282253
-0.821266
-0.783206
0.774297
0.739136
0.584416
-0.885762
-0.020980
0.457793
-0.662551
-0.559736
-0.754382
0.948216
0.846147
-0.439613
0.949005
0.748242
-0.852375
-0.089945
-0.227483
0.803862
-0.772177
-0.554069
-0.895561
0.651268
0.261804
-0.691643
0.807176
-0.019311
-0.399226
-0.930841
0.245852
0.464220
-0.327178
0.514383
-0.486154
-0.442345
-0.332465
-0.629088
-0.665411
0.153420
-0.164211
0.266003
-0.047052
-0.056320
0.130447
0.794426
-1.107789
-0.784774
0.982148
0.337528
0.029205
0.150133
-0.288958
0.017114
0.316000
-0.409102
0.962465
0.317589
-0.224724
0.867801
0.249153
0.383599
0.893918
-0.799768
0.573334
0.849180
0.704746
0.355395
-0.160672
0.550385
-0.794612
-0.088733
0.092190
-0.594357
0.056919
0.794487
8.490643
0.029172
0.674339
0.181569
-0.401009
-0.936717
0.014370
-0.122440
0.981991
0.211265
0.288821
0.758731
0.157418
0.919657
-0.640832
0.673877
-0.517363
-0.994077
-0.632038
0.419188
0.963836
-0.332359
-0.782830
-0.394657
0.461900
-0.466845
0.076505
0.790059
-0.618054
0.818181
0.671540
0.262026
0.734076
0.265826
0.317898
-0.884600
0.606232
-0.095247
0.787811
0.351756
0.838101
0.582635
0.316864
0.747103
-0.574462
-0.636473
0.826492
0.702216
-0.012475
-0.097195
0.458914
0.589061
-0.766632
-0.448575
-0.274499
0.581086
0.902833
0.262828
0.745657
-0.186175
0.240256
0.992707
-0.531317
-4.922283
-0.157195
-0.773468
-0.629356
0.653911
0.999092
-0.003858
0.071612
-0.438327
-0.657838
-0.601697
-0.629642
-0.628518
0.177260
0.907842
0.291557
-0.645601
0.495186
0.551253
-0.586307
-0.139239
-0.317032
-0.641652
-0.382691
-0.055095
-0.863103
-0.804057
-0.369488
0.700731
-0.228041
0.778028
0.194718
0.471553
0.994871
0.074248
0.739927
0.275622
-0.704390
-0.069885
-0.569815
0.002510
-0.134620
0.618827
0.643989
0.207949
-0.688609
0.546929
0.798927
0.793684
0.579621
-4.510022
0.849339
0.567580
0.415409
0.204740
-0.413902
-0.823825
-0.524239
0.640092
0.998514
-0.384609
-0.709305
-0.746776
0.787949
-0.320086
-0.483473
0.721418
-0.483803
-0.034844
-0.270064
-0.395966
0.878595
0.810940
0.157197
-0.892680
-0.307783
-0.354012
-0.491331
-0.380616
0.338979
-0.834158
-0.376373
0.711477
0.621743
0.520204
0.564648
0.683624
0.766922
0.655359
-0.654605
0.675569
0.115311
0.792345
0.467191
-5.518671
-0.512188
0.754615
0.272198
-0.966614
-0.374870
0.094933
0.803152
0.195906
-0.579941
0.617400
-0.488015
0.622235
-0.216556
-0.409974
-0.735634
-0.373773
0.196889
0.467890
0.286360
0.679607
0.440876
0.040099
-0.387269
-0.090554
0.429811
0.659154
0.037440
-0.384692
0.340333
0.620247
-0.514047
0.526148
-0.879222
0.369540
-0.989094
0.547483
-0.605071
-0.306364
-0.928766
0.633619
0.129810
0.303749
0.722694
0.930216
0.187451
-0.181539
-0.013669
-0.670624
0.009375
0.317400
-0.117930
-0.759843
-0.015018
-0.249308
-0.456278
-0.245467
0.496801
4.652166
0.183359
0.065202
0.219519
-0.771948
-0.762279
0.959034
0.628622
-0.520854
0.254506
0.119299
0.844591
0.494061
-0.765842
0.199019
-0.515027
0.202474
0.387683
0.338507
0.263265
-0.136704
0.272365
-0.596031
0.113431
-0.254653
-0.486838
-0.648665
-0.731877
0.158497
-0.802176
0.250015
0.771208
0.425175
-0.452402
0.202494
-0.269345
-0.487927
0.445182
0.269574
0.127630
0.760523
-0.107378
0.324939
-0.940394
0.677904
0.561859
0.802282
0.157091
-0.511611
0.862940
0.378009
-0.507598
0.618665
-0.678847
0.888957
-0.179861
0.877945
0.651802
0.113977
-0.209775
0.347401
-0.430204
-0.341480
-0.890244
-0.073802
0.143508
-0.484461
0.739033
0.137810
-0.063190
-0.105866
0.898578
-0.586910
0.583133
0.636456
-0.333170
0.628947
4.953121
-0.339445
0.447379
-0.829601
-0.002498
0.548216
-0.498280
0.265385
0.694181
-0.561519
0.544024
-0.817398
-0.103796
0.813355
0.586177
-0.089537
-0.315347
-0.675797
0.837584
0.987997
0.451529
-0.509046
0.017471
-0.183924
0.845813
0.989327
-0.546491
-0.562680
0.054284
0.580053
0.083587
0.930286
-0.734932
0.995175
-0.965065
-0.957941
-0.561203
-0.536013
-0.849788
0.820359
0.793061
-0.453201
0.454296
-0.043109
0.100705
0.055778
0.083725
0.500515
-0.645954
0.984561
0.626645
0.451853
-2.611566
0.356779
0.940659
-0.339604
0.725897
0.703061
0.900639
0.403821
0.132468
-0.768439
0.925444
-0.029146
9.173642
-0.921968
-0.079784
-0.041621
-0.254587
0.806658
-0.932537
0.278648
0.340788
-0.030621
0.706963
0.735368
0.924601
-0.777857
0.154643
-0.910277
0.273055
-0.657667
0.083480
0.134464
-0.508363
0.950000
-0.017065
-0.360302
-0.867184
0.823210
0.550787
0.640079
0.911536
0.977955
0.059684
-0.573023
0.268683
0.655778
0.674459
-0.834000
-0.580062
-0.564947
0.434985
0.918866
0.811424
-0.185463
-0.336613
0.235899
0.480397
-0.837267
-0.660953
-0.250331
-0.386196
-0.823036
-0.132090
-0.619655
-0.628203
0.127543
0.230907
0.443506
0.924538
0.017196
-0.349255
0.972275
0.412404
-0.897025
0.005843
-0.173146
-0.093311
0.472703
-0.024985
0.696604
-0.567134
0.321623
-0.131561
0.979431
0.688650
0.825445
0.704994
0.137728
0.962524
0.127544
0.460216
-0.048969
0.107482
-0.197511
0.840633
-0.847962
-0.228317
0.977869
0.644874
0.649930
-0.080523
-0.688375
0.756515
-0.330848
0.145517
-0.186923
0.219773
-0.346737
-0.900746
0.632525
-0.508851
0.150307
0.059276
9.639468
-0.947409
0.581064
-0.583532
-0.403403
0.634307
-0.474621
-0.232592
0.621180
0.200584
-0.612885
-0.189922
-0.237522
0.136757
0.444995
-0.076463
0.530272
-0.838723
0.919974
-0.018981
0.265869
-0.215081
-0.183510
-0.231201
0.227199
0.222602
-0.977853
-0.538264
-0.012927
0.750740
-0.870816
0.702281
-0.939234
0.019985
0.825622
0.398623
-0.827336
-0.986539
-0.764815
0.798496
-0.123847
-0.337865
0.052486
-0.607873
0.832042
-0.862819
0.479554
0.850159
-0.977639
-0.335196
0.786965
0.873486
0.019587
-0.972066
-0.427679
0.156429
0.546311
0.559936
-0.962389
-0.519245
-0.543896
-0.135155
0.906855
-0.273960
-0.430917
-0.692624
3.078420
-0.053121
-0.490919
0.574315
0.655545
0.443748
-0.540916
-0.714148
-0.200410
0.442861
-0.816563
-0.340414
0.024347
0.527123
-0.533733
-0.655706
0.271764
0.655755
0.830424
0.178134
0.229532
0.401498
-0.613137
0.963217
-0.090870
0.249001
0.253568
0.212396
-0.174080
0.276298
-0.722558
-0.236617
-0.565348
0.487484
-0.959278
-0.354404
0.611714
-0.042797
0.332571
-0.030290
-0.288823
0.294788
0.333087
-0.466574
-0.921077
0.266626
-0.444806
-0.210768
-0.932637
0.069137
0.639769
0.891494
-0.144309
-0.212600
-0.760953
0.716202
-0.260551
0.282736
-0.719233
0.242563
-0.031629
-0.390254
-0.061331
0.877711
0.268431
0.176605
0.430994
0.132364
0.234164
-0.202242
0.674876
-0.094816
0.230410
0.766679
-0.509145
0.780710
0.174443
-0.971254
0.593317
-0.702497
0.718433
0.417930
-0.084342
0.226539
-0.901396
0.021472
0.401355
0.800159
-0.032561
0.964585
0.671956
-0.726654
-0.189900
0.884409
0.152073
-0.798008
-0.917360
0.418701
0.443192
0.256038
-0.909175
-0.258690
0.837568
0.114410
-0.753138
-0.939940
0.303344
-0.497558
-0.632842
-0.188470
0.415545
-0.568875
-0.268349
-0.419664
-0.261328
0.415837
0.623749
-0.460278
0.787148
-0.195481
0.300562
0.206219
-0.731628
-0.040217
-0.357664
-0.348863
0.594834
-0.802338
0.164565
-0.239216
0.636274
-0.567766
0.231055
0.491741
-0.638432
-0.124828
0.548881
-0.662338
-0.180169
0.751841
0.626171
-0.786008
0.367528
-0.824379
-0.548621
-0.211745
-0.926349
-0.580291
0.580644
-0.787964
0.111003
0.705389
-0.094378
0.705199
0.533908
-0.371308
0.488650
0.940628
0.832344
0.572177
-0.371372
0.841594
-0.769046
0.610875
-0.939840
-0.946057
-0.013956
0.980723
0.716311
-0.338734
-0.106572
0.060920
-0.496961
0.607406
0.112716
-0.166548
-0.580431
-0.438076
0.438720
-0.915597
0.064880
-0.686676
0.037328
0.023616
-0.641923
0.145157
-0.800242
-0.354126
-0.787543
-0.425839
-0.858634
-0.621842
-0.264129
0.514404
-0.111167
-0.779575
0.985503
-0.678643
0.555501
0.623185
-0.518484
-0.287947
0.339004
-0.868394
0.835790
-0.978652
-0.057734
0.062457
0.341920
-0.791897
-0.175723
0.846238
-0.936156
0.982424
-0.405311
0.790008
-0.532985
0.656723
0.762914
-0.422424
-0.145529
-0.999468
0.800592
0.750894
0.019858
-0.535736
0.453387
-0.014103
-0.019885
-0.230969
0.031230
0.193771
-0.145023
0.796761
0.685823
-0.744872
-0.189763
-0.722088
-0.558562
0.605904
-0.269870
-0.317256
0.103518
0.536319
-0.827883
-0.563515
-0.477935
0.836963
0.994797
0.539159
0.041235
-0.891426
-0.400178
-0.267118
0.953505
0.840317
-0.023617
0.275795
-0.089363
0.110721
0.632741
-0.530053
-0.224361
0.541537
0.281349
0.706993
-0.042560
0.668928
-0.669738
-0.067529
-0.994419
-0.571182
-0.553243
-0.334411
-0.658632
-0.943581
-0.021238
0.212684
-0.222199
0.488322
0.299250
-0.153894
-0.248004
0.953582
-0.941805
0.245409
-0.208620
-0.399952
-0.272834
-0.519220
-0.832486
0.032190
0.730863
-0.060896
0.399599
0.249976
-0.339020
-0.033227
0.593003
0.704477
-0.597580
-0.391584
-0.257023
0.197902
0.699238
0.407708
0.166778
0.906944
0.258219
0.341177
-0.282539
0.250720
-0.573623
0.344311
-0.345431
0.604289
0.281457
0.704706
-0.002887
-0.579142
0.215122
-0.495975
-0.954648
0.781292
-0.856824
-0.148165
0.280871
0.472473
-0.917452
0.629465
0.925592
-0.755906
-0.908319
-0.445159
-0.203679
-0.499893
-0.159924
-0.470265
-0.124664
0.589436
0.640848
-0.215392
-0.339216
0.411000
0.925832
0.581795
0.135819
-0.724049
-0.225744
0.828818
0.043783
-0.405809
0.174392
0.526633
0.622053
0.498444
-0.138186
-0.128306
-0.072918
-0.854880
-0.620637
0.610188
-0.734352
0.207451
0.933815
-0.302727
-0.552142
-0.445373
-0.968838
0.987699
-0.692033
-0.607019
0.269748
-0.099603
0.798679
-0.482141
0.700730
-0.706662
-0.707247
0.062525
0.281600
0.873615
-0.705368
-0.400553
-0.623040
0.690726
0.287868
0.264622
0.635749
0.648135
-0.178451
0.098475
0.100192
0.913558
0.545127
-0.841876
0.967389
0.063538
-0.026262
-0.845593
-0.858801
0.080212
0.076739
-0.618453
-0.323432
0.262757
-0.118458
-0.033169
-0.664788
-0.007362
0.192904
-0.702632
0.542643
0.318240
0.880198
-0.788579
-0.976919
-0.394087
0.461360
0.779500
0.999399
0.091745
-0.621712
-0.754924
0.242244
0.473980
0.087618
0.026855
-0.072597
-0.039089
-0.616687
-0.727602
0.339087
-0.075211
-0.437061
-0.007484
-0.559601
-0.408872
0.245797
0.074378
-0.831375
0.206946
0.173177
-0.070600
0.556507
-0.672879
-0.961567
-0.956479
0.606665
-0.933651
-0.941357
0.793691
-0.074087
0.516257
0.044114
-0.754051
-0.332435
-0.138720
0.309586
0.323626
-0.151930
0.587520
-0.197615
-0.053768
-0.148728
0.069519
-0.407197
-0.398954
-0.210167
-0.044370
0.930914
-0.967942
0.583165
0.697184
0.305673
-0.794900
-0.873488
0.887616
-0.415694
-0.106836
0.205784
0.693407
0.099388
-0.084748
0.053450
0.394756
0.299125
-0.405449
-0.862148
-0.379763
-0.285855
0.604128
-0.245476
-0.788832
0.954335
-0.155849
-0.836013
-0.282154
-0.961104
0.480196
0.442161
-0.138455
-0.082553
-0.944291
-0.419371
-0.012985
0.460887
-0.038885
0.034288
-0.287637
0.168460
-0.296462
0.905059
-0.337206
-0.145556
0.493016
-0.340268
0.895413
-0.499934
-0.860986
-0.178534
-0.131653
0.420440
-0.937052
0.461440
0.545765
-0.423667
0.686033
0.661709
-0.837449
0.139390
0.992495
-0.098565
-0.846153
0.670021
-0.265012
0.331813
0.106799
-0.927303
0.163481
0.995024
-0.290637
0.689476
0.411610
0.790611
0.670839
0.480968
0.284808
0.733223
0.469301
-0.766616
0.714702
0.340911
0.924642
0.001226
0.766616
-0.006716
0.426535
-0.645540
-0.802097
0.062773
0.598616
0.658570
0.164547
0.809930
0.655208
0.020399
0.438416
-0.743296
-0.378015
-0.859460
-0.474827
0.233041
-0.270265
-0.271317
0.652617
-0.082683
0.662579
0.098749
0.845521
0.048809
-0.397788
-0.420024
0.452501
-0.079452
-0.532739
0.360357
0.080515
0.952982
-0.855840
0.474057
-0.486505
-0.328645
0.059677
0.811036
-0.746753
0.716645
-0.317691
-0.637304
0.934670
-0.072769
-0.819218
-0.202219
-0.055909
0.771232
-0.359023
-0.119847
-0.473327
0.227383
0.657051
0.141969
-0.713571
-0.925475
0.720169
0.366899
-0.842787
-0.169120
-0.913338
-0.132243
-0.871767
0.803012
0.116541
-0.665736
0.604527
0.391105
-0.198000
0.729583
-0.519962
0.499144
-0.147870
-0.528359
0.299887
0.025537
-0.909349
0.452533
-0.480364
-0.775214
0.332043
0.828034
0.826406
-0.839352
0.084267
-0.098959
0.590518
-0.557223
-0.481127
0.548276
-0.428114
-0.173494
0.295834
0.763461
-0.578888
-0.993206
2.467512
0.547853
-0.032228
0.529535
-0.616286
-0.367908
0.820508
0.001820
-0.182235
0.703637
0.931308
-0.214918
0.901548
-0.617887
-0.083240
0.527692
-0.526716
-0.763428
0.069684
-0.092760
0.786469
0.014880
0.357439
-0.030046
0.032957
-0.391100
0.811145
0.701974
-0.561207
-0.181350
0.863566
0.522770
0.475667
0.847073
-0.606033
-0.168517
0.459053
0.918939
0.989062
-0.114655
0.257499
-0.989239
0.922173
-0.854460
0.548542
-0.512744
-0.272715
0.481732
0.985111
0.776478
-0.510207
0.614306
0.893408
0.765303
-0.778058
0.601808
0.198184
0.677798
0.490301
0.705359
-0.760646
0.419917
0.524115
-0.175382
0.070110
0.141564
-0.742332
0.248190
-0.933379
-0.389054
-0.120922
0.584066
0.249487
4.952474
0.196115
0.126815
-0.686713
0.838668
-0.954060
-0.324130
-0.487661
0.116553
-1.140431
0.685558
0.287706
-0.376238
0.306746
0.516530
0.873606
-0.840346
0.404037
-0.767321
-0.419638
-0.604972
-0.788078
0.695407
0.995579
-0.172021
0.129539
0.385019
-0.751789
0.271973
0.138088
-0.609293
0.904708
-0.472051
-0.751469
-0.650002
0.880357
0.346098
0.466067
0.528161
-0.498706
-0.742862
-0.757630
-0.387242
0.104431
-0.991697
-0.050639
-0.838383
0.455687
-0.421341
0.948271
-0.872211
-0.614069
-0.288833
0.287076
0.384364
0.290505
0.576189
-0.058970
0.469809
0.351704
0.532204
-0.172185
0.893534
-0.893776
-0.322824
-1.129890
0.372000
0.756549
-0.724740
-0.514731
0.349348
-0.995060
-0.340853
0.493574
-0.443820
0.879030
0.595686
0.022941
0.115053
0.166457
-0.292791
0.717710
-0.785447
0.291532
-0.550662
0.532997
0.133697
-0.510627
-0.033796
0.448721
0.392712
-0.215891
0.708486
0.063059
0.646436
-0.120933
-0.019733
0.206657
-0.107766
-0.667297
0.695759
-0.033696
0.949518
-0.887355
0.424378
0.475289
0.518738
0.597151
0.090851
-0.616215
-0.614493
-0.539705
0.700012
-0.972167
0.923747
-0.368255
-0.772887
0.186756
0.081693
-0.063472
-0.005515
0.762801
-0.645304
0.336511
-0.840531
-0.515885
0.948894
0.270200
-0.761558
-0.016289
-0.097697
-0.208521
0.469207
0.496703
0.549923
-1.131723
0.858605
-0.730409
-0.414389
-0.273334
0.907682
-0.743005
0.602518
-0.554256
0.697195
0.186814
-1.237343
-0.184228
-0.495221
0.926839
0.592332
-0.498054
-0.676655
0.406155
-0.121054
-0.219100
0.844819
-0.323283
-0.615778
0.756960
0.228592
-0.555642
-0.683561
-0.045113
0.439295
-0.841261
0.898657
0.245633
-0.058042
0.394891
-0.188876
-0.398904
0.935928
8.961082
-0.178725
0.591326
-0.663818
-0.550161
0.102724
-0.189597
-0.112623
-0.507188
0.950076
-0.873598
0.166944
0.874506
0.597520
0.123200
-0.111512
0.895556
0.763332
-0.356679
0.860571
-0.588240
-0.702653
-0.272448
-0.235054
-0.209169
0.883471
0.801943
-0.465450
0.734603
0.916796
0.238384
0.656656
0.196283
-0.673061
-0.063898
-0.085464
0.710590
-0.331792
-0.770862
0.349284
-0.381629
0.624869
-0.667148
0.335289
-0.965606
0.465880
0.733690
0.482183
0.946418
0.394822
0.564795
-0.533059
0.325440
0.524396
0.710637
-0.130165
-0.903281
0.755284
-0.200226
-0.389705
-0.229834
-0.946723
0.452718
-0.482951
-0.744032
0.249552
-0.363107
0.958284
-0.686579
0.844666
0.999561
0.488784
-0.053717
-0.468311
-0.837963
-0.082778
0.636332
-0.426451
-0.192034
0.201947
-0.209245
0.249895
-0.699080
0.018777
-1.088207
-0.281688
-0.514748
0.675640
0.487299
-0.177092
-0.666972
0.281252
0.830177
-0.298673
-0.981690
-0.892666
0.595547
-0.683229
-0.030620
-0.962237
-0.360047
0.200658
-0.188854
0.298534
0.202028
-0.595778
0.990128
-0.217806
-0.748782
0.265782
-0.012951
0.266045
-0.643451
0.085087
-0.973197
-0.660517
-2.469356
-0.519198
0.578681
9.700156
-0.591841
-0.300509
-0.667162
0.380997
0.273571
-0.774667
0.829299
-0.444117
-0.572630
0.248463
-0.113424
-0.160253
0.132412
-0.563754
-0.747420
0.419750
0.696872
-0.136841
0.498986
-0.711917
-0.323407
0.993426
-0.516094
0.830804
0.731175
-0.560412
0.687841
-0.868062
0.424731
0.113500
-0.559945
0.004005
0.038158
0.518515
1.017936
0.900814
0.926096
-0.608112
-0.001754
0.449615
0.859679
-0.732481
-0.388556
-0.781743
0.371239
-0.076524
-0.055689
-0.756319
0.522420
-0.723471
0.731109
0.854984
-0.759010
-0.981219
0.024997
-0.949366
0.678895
-0.247830
-0.693296
-0.658488
-0.127157
0.678013
-0.768700
-0.020832
0.514920
0.002134
-0.284397
-0.763460
0.609504
-0.596101
-0.062573
-0.883889
-0.884422
0.987011
-0.583104
0.123698
0.948055
-0.490665
0.180449
0.392019
-0.720543
-0.279580
0.626620
0.580220
0.886827
0.695445
-0.225940
0.720217
0.194250
-0.493893
-0.958845
0.118181
-0.984247
0.408308
0.859451
-0.694452
0.471982
-0.189229
-0.258695
-0.617733
-0.762020
0.076665
0.648804
0.257761
0.556126
0.385407
0.631569
-0.921302
0.165281
0.677367
-0.070028
-0.578249
-0.862355
-0.729700
0.370542
0.461697
0.389457
-0.835912
0.964451
0.364861
0.037486
0.591742
-0.231578
0.885104
-0.388949
0.890008
-0.213334
0.810389
-0.149027
0.852704
0.511045
0.462066
-0.905244
8.268104
0.399921
0.874844
-0.743142
-0.140560
-0.745791
-0.133542
-0.748051
-0.530210
0.509772
-0.672084
0.506556
0.128908
-0.751202
-0.112380
-0.340365
-0.013899
-0.206658
-0.746468
-0.403187
0.677103
0.528474
1.627748
-0.008696
-0.993653
-0.207270
-0.675807
-0.652454
-0.739406
0.683455
-0.062059
-0.869096
-0.328509
0.439377
-0.518070
-0.497810
-0.818047
-0.061524
0.493185
-6.909107
-0.322859
0.960261
0.987128
0.109925
0.843657
-0.218634
0.721575
-0.248181
-0.306198
-0.176136
0.552154
-0.560163
0.188463
0.706751
-0.295101
0.437856
-0.389379
-0.878533
0.902968
-0.852709
-0.455580
-0.069266
0.738840
0.289063
0.214285
0.246539
0.675120
-0.430026
0.063656
-0.105487
0.422696
-0.001143
0.668330
-0.024824
0.789771
-0.999665
0.652025
-0.156437
-0.099357
0.486781
0.311539
-0.147400
0.624145
-0.776441
-0.252120
0.328355
0.901998
0.146582
-0.476458
-0.819632
0.618113
0.471382
0.992815
-0.349698
0.150334
0.643852
-0.133552
-0.058869
0.234548
-0.218716
0.565209
-0.127835
0.770542
0.953298
0.420827
-0.052171
-0.929341
-0.781920
0.880996
0.135937
-0.210327
0.041928
-0.863984
-0.509082
0.499257
-0.478180
0.010210
-0.099247
0.603855
-0.192297
-0.517156
-0.215115
-0.525481
0.854504
0.011499
0.909636
-0.438686
-0.343043
-0.902949
0.465516
-0.111789
0.483238
0.798869
-0.971126
-0.535575
-0.965404
-0.072130
0.436672
0.664314
-0.329195
-0.288646
-0.479299
0.346975
0.390220
0.046741
-0.808728
-0.189654
-0.960208
0.308445
-0.607692
0.530364
0.542325
-0.250494
-0.080082
-0.515363
-0.696867
-0.093501
0.758763
0.010576
0.298854
0.000558
-0.655586
0.104441
0.781250
0.758281
-0.318359
-0.456012
0.543308
0.143115
-0.663669
0.304860
0.342454
0.692275
-0.796625
-0.282986
-0.123922
-0.302089
-0.443097
0.082548
0.978876
-0.687036
-0.210710
0.754952
-0.802668
0.101561
-0.463493
-0.631253
0.553433
0.912908
0.110434
-0.286239
-0.008075
0.348786
0.255340
0.834394
0.888064
-0.472430
-0.452177
-0.064115
0.244197
0.798049
0.051673
-0.411191
0.417926
0.984356
0.934268
-0.831458
0.143704
-0.370659
-0.751081
-0.976431
0.774737
-0.455082
-0.973486
-0.265435
0.974511
0.726724
0.435533
0.633327
0.673899
-0.001115
0.226176
-0.958096
-0.573845
-0.964326
0.135075
-0.177595
-0.419561
0.392073
-0.622512
0.891987
0.343634
0.826369
-0.985873
0.381294
0.361751
-0.063276
-0.060141
-0.380492
0.063016
-0.706042
0.669738
0.666266
-0.510927
-0.890324
0.677749
-0.056978
-0.737199
0.299539
-0.862953
0.066071
-0.281149
0.653613
-0.933769
-0.393377
0.216502
-0.334490
-0.155841
-0.807158
-0.775719
0.989804
-0.457517
0.132143
-0.655033
-0.364354
-0.266030
-0.948484
-0.670639
-0.556601
-0.919048
-0.079425
0.246089
-0.837300
0.890771
-0.001772
0.261709
-0.552903
0.112927
-0.960720
0.534538
-0.644230
-0.223068
0.702443
-0.371257
-0.444136
0.179718
-0.978446
0.696647
0.122096
0.887123
0.585765
0.694731
-0.497897
0.320552
-0.673656
0.970551
-0.721316
-0.103915
0.118167
-0.585017
0.635757
0.177878
-0.687113
-0.893349
0.316968
-0.479071
-0.935561
-0.122398
-0.699790
-0.133469
0.449980
-0.202268
-0.795584
-0.344967
-0.113533
0.711799
-0.662458
0.856646
-0.196764
0.325574
0.833543
0.259582
-0.610509
-0.655586
-0.415870
0.005394
0.369881
0.950536
-0.011058
0.103636
-0.514971
-0.419704
-0.428070
0.889765
-0.164476
0.266616
-0.228340
0.879274
0.600684
0.991810
-0.710281
0.082385
0.744691
-0.321125
0.527891
0.745528
-0.652940
0.396029
0.463992
0.711975
-0.993027
-0.110294
0.802385
0.955828
-0.463020
0.505191
-0.894504
0.837282
-0.667505
-0.900033
0.793273
-0.192773
0.146908
-0.997155
-0.115213
-0.548740
0.275761
0.750607
-0.685679
1.036203
-0.034116
-0.903637
-0.109147
0.600566
-0.589465
-0.235664
0.814633
-0.638376
0.555332
-0.511830
0.248430
0.015432
0.035058
-0.472183
0.239713
-0.567603
-0.738854
-0.237753
0.262028
-0.534724
0.480743
-0.749286
0.573964
-0.152923
0.203245
-0.111319
-0.458530
0.228366
-0.632150
0.311128
0.244517
0.835127
0.266668
-0.748225
-0.065823
0.709313
0.263198
0.601986
0.784311
0.583554
-0.302734
-0.725820
0.347664
-0.921825
0.667701
0.173190
-0.227649
-0.014440
-0.024384
0.672380
-0.947104
0.102082
-0.740454
0.540482
-0.250505
-0.760704
-0.733781
0.555493
-0.648811
-0.631994
-0.076840
0.089457
0.598456
-0.007492
0.253849
-0.932078
-0.121016
0.391174
0.958988
-0.884854
0.490244
0.497012
0.404138
0.390305
0.616605
0.030593
-0.608917
0.577021
0.596111
0.793470
-0.458981
0.686754
0.232042
-0.855560
-0.544719
-0.844500
0.814465
-0.638974
-0.640390
-0.076041
0.739181
-0.238647
-0.498744
0.072759
-0.980952
-0.878661
0.245867
-0.230819
-0.663326
0.808651
-0.089392
-0.931617
-0.643645
-0.273210
-0.565325
0.522564
0.718658
-0.812949
0.423272
0.966088
-0.978655
-0.809894
-0.686497
0.299913
0.803262
-0.070059
0.791212
0.784747
-0.100920
-0.563196
0.412462
0.525253
0.228187
0.165277
-0.360006
0.294907
0.912897
0.895219
-0.373439
-0.398636
0.076311
-0.902614
0.860383
-0.826612
0.379778
-0.152765
-0.626109
0.030303
0.688385
-0.690148
-0.569518
0.791957
0.487736
-0.256723
-0.184468
0.289142
0.149283
0.916286
0.698801
-0.648920
-0.047180
0.027314
-0.026668
-0.142957
0.205786
0.173895
0.890955
0.776875
-0.184558
0.419997
0.678718
0.116446
-0.830874
-0.692324
-0.364258
-0.419685
0.721400
0.652612
0.668923
-0.145919
0.684327
0.292895
-0.401653
-0.635931
-0.217013
-0.695377
-0.574705
-0.401766
-0.915458
0.863155
0.377608
0.849949
0.214179
0.596876
0.478885
0.318270
0.574702
0.155280
-0.269176
-0.964904
0.046567
0.401777
0.506856
0.626337
-0.915855
0.505042
-0.260404
-0.786833
-0.995534
-0.546399
0.405821
0.909076
0.147032
-0.235509
-0.776692
0.918734
0.757038
-0.074924
0.202053
-0.226579
-0.465369
0.701518
0.819055
-0.644547
-0.931958
-0.147501
0.468496
0.703611
0.316880
-0.578237
-0.296411
0.783449
0.877595
0.775898
-0.280242
-0.945954
-0.866211
0.775034
-0.304801
0.208975
0.160806
-0.496268
0.580337
-0.247429
0.554159
0.986253
0.450534
0.944479
-0.457936
0.227431
-0.474416
-0.257779
-0.598122
0.005674
-0.434390
0.817407
-0.785758
-0.665321
-0.914434
0.712210
0.283769
-0.386078
0.850175
0.949637
-0.376699
0.310104
-0.123962
0.025410
-1.027154
0.316747
-0.345565
0.870038
0.003655
-0.851126
-0.050617
-0.988857
0.533640
0.535891
0.811672
0.369878
-0.883242
-0.625414
-0.158547
-0.168940
0.577245
0.420325
0.013375
-0.248680
0.065484
-0.256910
0.538974
-0.480357
0.286769
0.428782
-0.736434
-0.566142
0.763400
0.032800
0.845495
-0.585585
-0.591667
0.673658
-0.749140
0.837823
-0.806674
0.135790
0.810252
0.987174
0.875912
-0.703199
-0.513673
-0.919516
-0.328358
-0.164821
0.161802
0.511587
0.897370
-0.421050
-0.293609
0.219764
-0.645431
-0.362947
-0.366092
0.630740
0.026158
0.745156
0.473836
-0.265039
-0.179355
-0.897692
-0.000037
-0.603777
-0.889805
-0.898302
-0.702843
0.810378
0.362006
0.022954
-0.831808
-0.084514
0.930769
0.239698
-0.309951
0.100127
1.122145
-0.723020
-0.964458
-0.317148
0.377358
-0.918398
0.000067
-0.007554
1.081413
-0.569331
0.033726
-0.222587
0.726854
0.585719
-0.343734
0.104554
-0.584042
-0.421776
-0.836380
-0.966386
-0.097401
0.302341
-0.796219
0.131472
-0.597049
-0.321619
0.787481
-0.615431
0.313943
0.783633
0.603809
0.255016
-0.202223
0.241644
0.585036
-0.359193
-0.722124
-0.288189
-0.830330
-0.195491
0.968841
0.845588
0.321203
-0.261288
-0.516206
0.262535
0.851379
-0.891856
0.369839
-0.978443
0.249555
0.901689
-0.491970
-0.477427
0.393893
-0.977885
-0.572577
0.665379
0.154083
-0.959138
-0.052750
0.890699
-0.160189
-0.244513
0.891691
-0.375829
0.489444
0.644198
0.681692
-0.278651
0.227444
0.133743
-0.895374
-0.501428
0.360035
0.670426
0.939548
0.841599
-0.184149
-0.726239
0.806185
0.634399
0.244625
-0.996212
-0.161836
-0.143832
2.314656
-0.318051
0.420483
0.040726
0.844650
-0.819482
-0.856556
0.649805
-0.762247
-0.180123
0.414103
0.674259
-0.951730
-0.267057
0.643641
0.251939
0.768310
-0.018326
0.236958
-0.774944
-0.225693
-0.076482
0.255993
0.662626
0.514381
0.377941
0.010438
0.875450
-0.374241
-0.258946
0.464332
0.080363
-0.664370
-0.216787
0.748028
-0.904055
-0.859324
-0.639952
-0.457704
-0.204577
-0.533231
-0.935146
0.650855
-0.060211
-0.948648
-0.319153
0.665556
0.970136
-0.535023
-0.941390
0.302788
0.877339
-0.371191
0.633424
-0.373627
-0.879037
0.269266
0.826267
0.025599
0.541150
-0.331097
-0.486441
0.578999
-0.735186
0.857947
-0.798101
-0.544711
0.816346
0.015326
-0.736271
-0.161209
0.283421
-0.926336
0.825321
-0.882210
-0.456097
0.036499
-0.745035
0.577380
-0.742125
-0.420711
-0.266503
0.802850
0.654415
-0.751030
-0.639921
0.634951
0.391549
-0.114792
-0.423920
-0.489890
-0.300578
0.130096
-0.113226
0.880290
-0.547109
-0.052906
0.848570
0.455901
0.563109
-0.083088
-0.547491
0.123733
-0.396698
-0.219027
0.918592
-0.043381
-0.386926
0.651746
0.870092
-0.834131
-0.945785
0.517671
-0.564043
0.863686
-0.889484
-0.049153
0.847417
0.914338
-0.786178
-0.760081
0.680564
0.175862
0.275890
0.271925
0.133838
-0.989684
-0.552260
0.846005
-0.988144
-0.535228
0.349442
0.973828
-0.291763
-0.430699
-0.702731
-0.617022
-0.332964
0.874425
0.855434
-0.732819
0.277333
-0.229417
0.494004
0.157410
0.873169
0.758296
0.824048
-0.075794
0.774642
0.795493
0.105625
0.547557
-0.878657
-0.655132
0.487383
-0.220349
-0.623452
-0.620540
0.772439
-0.351496
-0.604936
-0.949129
0.864154
-0.607411
-0.937510
-0.382627
-0.925767
-0.468297
-0.276955
-0.322506
-0.182772
-0.651182
0.504445
0.285292
0.416669
-0.948579
-0.293894
-0.738237
-0.848682
-0.098376
0.511259
0.404700
0.215722
0.770875
-0.518228
0.469648
-0.855339
-0.405367
0.936524
-0.382862
0.306382
-0.169662
-0.625130
0.011380
0.068852
-0.261105
-0.424485
0.238257
-0.262056
0.842803
-0.101766
-0.894289
0.936967
0.794401
0.333157
0.642139
-0.577413
-0.759188
0.137869
-0.725047
-0.426766
0.785978
-0.073410
-0.430964
-0.114814
0.556135
0.007969
0.652856
0.804577
0.743362
0.325690
-0.381025
-0.312599
0.567088
-8.169906
0.202404
0.900443
-0.781474
0.929265
0.636367
0.378792
-0.045946
-0.217423
0.950365
0.727350
-0.952687
-0.175743
-0.287613
-0.595741
0.112950
-0.518367
0.453793
-0.874812
0.683288
-0.390961
-0.257862
0.262775
-0.192158
0.129704
-0.024414
0.997390
0.598759
-0.669712
0.203717
0.979491
0.783276
-0.557141
0.365024
-3.895985
-0.009838
0.288294
-0.687685
0.126971
-0.730186
-0.516501
0.253785
0.867220
0.999185
-0.938763
0.058123
-0.070671
-0.318811
0.854510
0.656006
-0.644924
-0.019370
-0.276026
-0.036130
-0.413017
-0.536596
0.185820
-0.245466
0.782833
-0.385934
0.451957
-0.543660
0.838249
0.212385
-0.228292
-0.532148
-0.674010
-0.740224
-0.278143
0.034867
0.262012
0.631942
-0.048956
0.493817
-0.226643
0.836602
0.305469
-0.287192
-0.183576
0.873306
0.040119
-0.329002
-0.076827
0.676626
-0.483234
-0.919182
0.918263
-0.077797
-0.666707
0.002857
-0.166651
0.885656
-0.970498
-0.590316
-0.682975
-0.180433
0.504729
-0.559874
0.525818
0.570250
0.434380
-0.449908
0.218797
-0.400531
0.610951
0.501722
-0.746261
0.426560
0.799857
-0.099910
0.220894
-0.455610
-0.840321
-0.101269
0.156572
0.171502
-0.597800
0.603515
0.317090
-0.647128
0.521093
0.072659
-0.688784
0.381232
0.998074
-0.114241
0.209499
-0.110604
0.898365
0.153261
0.374942
-0.592598
0.621257
-0.748023
0.092999
-0.840887
-0.317019
0.509802
0.055779
-0.665452
0.626702
0.495029
0.945053
0.922923
-0.656693
0.703683
0.012176
-0.027584
-0.009495
0.989607
0.619894
-0.136854
-0.260582
0.286122
-0.912382
-0.478245
-0.722033
-0.102444
-0.445633
0.407500
0.622423
0.612606
0.997507
-0.157113
0.430068
-0.623435
0.103865
-0.387484
-0.106479
-0.045650
-0.825075
-0.669897
-0.061759
0.122645
-0.701896
-0.897090
0.207862
0.257676
-0.276637
-0.611779
-0.906769
-0.082440
0.400358
-0.540424
0.804411
0.290525
0.653398
-0.536485
0.880555
-0.763331
0.336331
-0.810069
0.895573
-0.139625
-0.795247
-0.904770
