-0.684335
-0.161224
0.581941
-0.277197
-0.469449
-0.922070
0.021788
0.734769
-0.438136
0.326960
-8.737881
-0.386734
-0.985219
0.386578
0.159368
-0.078600
0.235841
-0.649586
0.358789
-0.049262
-0.294798
0.141202
-0.009638
-0.775291
-0.586293
-0.931521
-0.391657
-0.210954
-0.577739
0.265422
0.730009
-0.027232
-0.681244
-0.051480
0.695630
0.640907
-0.307321
-0.285349
0.542448
-0.823600
0.998646
-0.680549
-0.846771
0.925312
0.930568
-0.921210
0.105883
0.410551
-0.198520
-0.818929
0.313130
-0.429191
-0.101331
0.865689
-0.514289
0.721204
0.834613
-0.376923
-0.721152
-0.138420
0.278246
-0.294799
-0.221915
0.707021
0.701572
0.473338
0.524652
0.952781
-0.881020
-0.801593
0.469641
0.946816
0.523479
0.435595
-0.920806
-0.856438
0.613050
0.572164
-0.332841
0.895555
0.560505
-0.926854
0.886107
-0.770006
0.015991
-0.166825
0.427302
-0.030970
0.330439
0.134360
0.280534
0.365730
0.646856
-0.901322
0.503763
0.642014
0.125115
0.637853
-0.265528
-0.436518
-0.490774
-0.424036
-0.819279
0.366722
-0.401015
0.000963
0.013019
0.052724
-0.138297
-0.131518
-0.014707
0.397141
-0.638190
0.247616
-0.027855
-0.722322
0.126919
0.641372
-0.250807
0.801065
-0.447656
0.264651
-0.506060
0.502689
-0.589275
0.829870
0.249988
-0.536854
-0.981387
0.632610
0.784982
0.758161
0.921214
0.670221
0.328244
0.469485
0.413695
0.477174
0.642408
-0.998701
-0.869787
-0.853172
-0.733354
-0.004441
-0.332570
-0.231203
0.306787
0.562287
-0.453711
0.908199
-0.761366
0.660794
0.703587
-0.198339
-0.715037
0.021399
0.595171
0.353259
-0.049598
0.120750
-0.103435
-0.090432
-0.813464
-0.375690
0.655021
-0.358735
-0.634673
0.512567
0.580787
-0.912899
0.378636
-0.374793
0.353936
-0.613529
0.379839
0.076298
-0.901477
-0.807919
0.486197
-0.087541
-0.235750
-0.346464
0.999350
-0.477450
-0.436828
0.686319
-0.977007
-0.595931
0.562757
0.305262
0.422486
0.083402
0.400308
-0.812916
0.126321
-0.450703
-0.553161
-0.327459
-0.674010
-0.303827
-0.182946
-1.084384
-0.358139
-0.514866
-0.865392
-0.742295
0.993908
0.502306
-0.776532
0.143078
0.822289
0.228787
0.537052
-0.808878
0.437934
0.013707
-0.642651
-0.206019
0.082998
-0.277459
0.750366
0.026415
-0.448311
0.439237
-0.287168
-1.103922
0.816695
0.479790
-0.206872
-0.321829
-0.114298
-0.322195
-0.591434
-0.523099
-0.115236
0.500542
-0.314260
0.593714
0.762708
-0.021200
-0.518108
-0.786020
0.035100
-0.511273
0.381185
-0.113042
0.683316
0.916979
-0.791598
0.353381
0.607959
0.756383
-0.512049
0.960412
0.466717
-0.304899
9.660329
0.635966
-0.827268
-0.497471
0.309531
0.573592
0.806806
0.114984
0.378720
0.823003
-0.173870
0.234165
0.213191
-0.519695
0.965420
-0.485839
-0.512939
0.242450
-0.442214
0.818525
0.495783
0.134912
-0.269414
0.870858
0.866646
0.934364
-0.477255
-0.198298
-0.655949
-0.754342
-0.765432
0.676954
0.923484
0.386161
-0.913306
-0.713104
0.214264
-0.028881
-0.733603
-0.294028
0.670690
0.185080
0.769730
-0.499795
-0.794734
-0.016632
-0.759115
0.725205
-0.478104
-0.157171
-0.955103
7.911784
-0.431223
0.648246
-0.946574
0.412795
0.213539
0.443227
-0.822991
0.769755
-0.742502
-0.010925
-0.271058
0.005550
-0.167962
-0.414309
-0.336904
-0.562775
0.093084
0.289279
0.104489
0.980712
-0.935978
-0.325957
-0.422537
-0.718625
-0.321065
0.604084
0.456040
-0.729741
0.083945
0.915545
-0.306592
0.399468
0.514070
-0.034839
-0.402887
0.384171
0.929214
-0.378890
-0.759443
-0.625381
-0.060236
0.893390
-0.240204
0.764028
-0.723218
0.564908
-0.963148
0.703281
0.218038
-0.791685
-0.724472
0.937398
-0.799714
-0.656077
0.092040
-0.891916
-0.879018
-0.423506
0.049858
0.491520
0.631973
-0.550833
0.113619
-0.747688
-0.505161
0.314861
-0.070989
-0.577092
-0.433580
0.936435
-0.527461
-0.682116
0.440054
0.309361
-0.108922
0.379943
0.728264
-0.851958
-0.711255
0.997708
0.760407
0.753644
-0.128266
0.508223
-0.513923
0.969572
-0.380558
-0.441709
-0.368779
-0.675616
-0.562126
-0.915088
-0.354819
-0.657283
-0.826267
0.593936
0.437148
0.042754
2.994610
0.723562
-0.801661
0.531817
-0.441361
0.741264
0.203338
-0.677919
0.710582
0.558601
-0.952302
0.652661
0.606305
0.070367
-0.338533
-0.637286
0.744567
-0.373841
0.250541
-0.648299
-0.977855
0.776288
-0.743744
-0.160169
-0.487072
-0.465910
0.721945
0.322006
0.612784
0.987297
0.749726
0.123906
-0.637158
-0.771935
0.286631
-0.476699
0.657302
0.748922
-0.726109
-0.418865
0.732300
-0.894652
0.921459
-0.721783
-0.856741
0.363335
0.870803
-0.140270
0.637081
0.631870
-0.389259
0.919323
-0.555004
0.573717
0.280297
-0.038754
0.164973
-0.464803
0.197748
-0.620295
-0.183196
0.721584
-0.209930
-0.232237
-0.354606
-0.969841
0.865286
0.746764
-0.662819
-0.058167
-0.574735
0.202126
0.086381
-0.477031
-0.059197
-0.322496
0.022475
-0.689046
0.375057
0.707328
0.002021
-0.531291
0.958493
-0.503240
0.635314
-0.880712
0.096645
0.928337
-0.055785
0.835207
-0.229348
0.730995
0.695732
0.674765
-0.628475
-0.374469
-0.157511
0.083776
0.069262
-0.356015
0.787615
-0.978459
-0.548975
-0.267462
0.763755
0.764255
0.869440
-0.989293
-0.647794
0.361441
-0.986555
0.447995
-0.033500
-0.737779
-0.474665
-0.687629
0.279490
-0.984018
0.433691
0.475494
0.572111
-0.971135
0.339411
0.578387
0.308730
-0.474198
-0.154553
0.310396
-0.488395
-0.192468
0.536618
-0.254389
0.251090
0.545850
0.060194
0.788220
-0.570537
0.274769
-0.472202
-0.317413
0.960363
-0.972033
-0.131230
0.663337
-0.191753
-0.348935
0.060102
-0.301740
0.248067
-0.571240
0.038779
0.846077
0.166627
-0.926304
-0.680905
3.832223
-0.948844
-0.163075
0.243158
0.106393
0.051582
0.548458
-0.233129
0.424285
-0.014893
-0.340971
-0.128566
-0.188746
-0.200156
0.309897
0.882894
-0.587636
-0.141655
-0.277541
-0.415211
0.224313
-0.014294
-0.037972
-0.182053
0.510450
-0.792242
0.968991
0.072911
-0.896737
0.307207
0.390586
0.026001
0.774697
-0.775891
0.218321
0.186541
-0.642326
-0.594705
-0.498066
-0.645398
0.333419
-0.185741
-0.898339
0.564572
-0.353459
0.000977
-0.388714
0.386962
0.428592
0.808454
0.146382
-0.743992
0.300268
0.157054
-0.982348
-0.574908
-0.541480
0.365231
0.352189
0.392891
0.981500
0.951780
-0.633831
0.536121
-0.691389
-0.305720
0.014420
-0.866454
0.995666
-0.888319
0.833933
-0.938315
0.769744
-0.321057
-0.976896
-0.247114
-0.432443
-0.633490
-0.900427
-1.346534
-0.454236
-0.448278
-0.384170
-0.824374
-0.548275
-0.668710
0.801793
0.077490
-0.911721
-0.528994
0.845560
-0.014183
0.410683
0.862917
0.659778
-0.832065
-0.587758
-0.003701
0.936080
0.692563
0.371702
-0.020427
0.084732
-0.331813
-0.635663
0.133897
-0.199569
-0.590605
0.566722
0.965745
0.058803
0.292299
0.558172
0.859147
0.993408
0.406161
-0.278023
0.163238
0.685572
-0.399447
-0.846155
-0.087830
0.649746
-0.579889
0.142271
-0.601754
0.946777
-0.832443
0.183020
-0.373831
-0.790689
0.968654
0.814637
0.983885
0.823037
-0.995798
0.413725
-0.411729
0.374743
4.042590
-0.332382
0.885866
0.823190
0.052605
3.703651
-0.672107
-0.363406
-0.465929
-0.899901
0.243594
-0.022418
0.745952
0.997436
0.202499
-0.629843
0.067171
-0.753087
0.361802
-0.106863
-0.446288
0.953708
-0.576288
-0.307319
-0.661930
-0.711850
-0.269342
0.043415
0.640736
0.055857
0.713599
0.982110
0.252986
-0.785745
-0.690325
-0.522283
-1.096692
-0.022161
-0.543572
-0.113584
0.301541
0.978243
-0.983040
-0.734293
-0.239759
-0.071169
-0.221741
-0.480984
-0.516770
-0.501660
0.882259
0.836279
0.356650
-4.096170
-0.910405
0.241695
0.282170
-0.476688
0.289242
-0.944476
0.254228
-0.084449
-0.575166
-0.670695
-0.693364
0.161365
-0.224743
-0.608276
0.758842
-0.129910
0.923748
0.936442
-0.279077
0.468481
-0.873051
-0.955598
-0.024751
0.790628
-0.729750
0.570499
0.708746
0.279142
0.582658
0.534416
0.209382
0.835106
0.481553
0.930646
-0.066529
0.249179
0.359237
0.278469
-0.153938
-0.310008
0.485597
-0.831437
-0.866678
0.112662
0.401947
-0.772984
-5.602410
2.320657
-3.046091
3.456341
-1.149681
-0.697848
-4.230980
-8.002159
-11.772649
2.985634
1.845339
5.033658
-9.167320
-10.560161
-6.065941
-5.613074
-1.330430
6.442366
1.882114
6.187991
-4.085775
7.879710
1.589508
4.267094
-4.672227
7.542006
2.795055
6.565309
-2.543510
-9.270298
-12.499355
1.142305
1.966446
2.871918
9.279961
0.422720
1.005718
-2.387523
-10.668657
-0.392915
-3.242491
0.085876
-1.911006
4.301391
-5.584087
1.824915
5.921902
-8.825851
0.877111
7.596827
-5.059718
3.736680
1.035903
-1.130003
2.641749
0.864757
6.369364
2.114428
-4.125147
0.835947
1.373388
-3.046577
2.943571
4.440464
0.798372
10.535691
-2.312215
-6.425751
-0.482597
-9.566855
-1.202336
-0.508455
4.449857
4.694754
1.614711
4.254743
-3.017864
-0.652146
-3.163194
-3.386666
-3.941740
-2.663001
-1.188825
-1.497123
7.400377
0.015322
-3.553535
-8.717360
-9.047813
1.786043
-7.384657
-2.136433
-3.642684
-0.766094
-0.752264
0.336444
2.690408
3.551110
3.258073
-4.991511
10.375983
-2.833918
-0.421168
-8.910111
5.856779
2.216977
-5.293351
-5.985008
8.095401
-11.212519
6.189835
4.115414
6.843065
-5.750367
6.110141
-0.179114
-2.237081
4.337268
-0.196838
2.781030
3.721947
4.403444
9.369330
4.067015
-2.994307
3.078106
-0.005229
-8.272139
9.363133
17.403154
3.636889
4.634332
4.737023
5.564219
8.615071
8.585263
-8.024914
-4.832389
6.132076
-2.161386
1.385243
-0.837000
-5.784163
5.478804
-2.262176
-11.511526
9.900653
5.628993
-5.722636
-1.684174
5.634249
3.929820
-7.701718
2.522159
6.053093
-0.988174
9.698565
9.587702
-6.924915
9.396577
-4.321709
7.209612
-3.174137
-7.912663
3.474553
-1.355919
1.083922
-16.843026
9.846162
4.089576
4.329056
5.469544
-2.403923
-5.651620
8.643364
-7.932383
-5.695214
-0.040350
-4.768000
-8.265473
-7.698382
-3.533259
8.074928
-0.156672
-4.342259
-3.774279
-10.089379
0.933970
-2.559937
-4.766110
-1.781852
4.034883
-10.717024
-1.707590
10.381710
-0.216601
2.497097
5.176293
2.038578
-5.119904
-2.352820
2.605781
7.429547
0.071802
4.889226
-6.578389
1.165973
4.805349
0.723894
-8.368598
6.256585
6.292135
-3.835186
5.660880
1.596432
-20.030645
0.338734
-6.021896
-6.102027
0.849080
3.523902
-4.953297
8.924287
5.630315
7.538348
-3.607773
1.460311
-7.695470
-6.998762
-8.688922
-20.719938
0.976702
1.634491
-9.417952
9.308335
10.617557
0.090802
-4.796935
3.746033
-5.741645
2.421805
2.345263
-9.720119
-4.450794
-8.906868
-5.819601
2.628864
9.317078
8.791809
4.055856
-7.962785
-0.427821
-2.134998
2.292010
-6.375869
9.579997
-7.470420
-6.798584
-6.087035
6.146489
9.947552
15.162574
4.659489
2.866859
4.865615
4.156711
-3.026741
0.746714
0.636099
4.107141
-5.070371
2.095333
-0.325041
8.965700
-3.573649
18.199363
-3.889101
2.965362
-7.673870
1.192399
1.743175
2.874606
-5.389565
12.235155
-1.191241
4.158344
0.707511
-1.785933
10.003114
6.143237
-9.625088
-4.633458
11.615660
7.297678
-2.381321
6.777297
-1.266389
-2.931124
-12.390942
7.211014
-6.263768
8.973465
2.323046
-5.093958
8.064992
9.585882
10.310496
8.188233
-7.394465
-0.455175
-1.398661
-0.361344
3.547646
-1.414201
7.189418
-0.931145
-3.084619
-5.286299
8.744858
1.947827
1.623136
4.555790
-0.962634
-1.099596
1.797919
-1.918364
6.055621
6.178949
-0.448100
2.127712
11.685816
4.593473
-5.327998
-3.029230
-9.691222
12.072533
-2.685234
3.956782
-9.231497
-4.763914
3.133457
-5.023564
-3.333014
8.357832
-3.937318
4.474301
-3.624912
8.596633
4.802115
-0.355370
3.789391
4.264244
3.572586
-5.442575
-5.913934
-3.141002
-9.830858
1.953077
1.028367
6.382908
0.500198
3.044087
-7.202254
2.535397
-2.784860
5.109926
-1.396260
6.912366
4.040167
3.844260
-4.026781
3.387792
-7.727088
-6.813371
8.433263
-6.429487
-6.623097
-3.306407
8.981906
6.060005
4.322719
4.568731
7.289318
-5.354943
-0.441297
1.416053
2.322346
3.279115
-1.658397
-8.617623
-0.831312
3.946798
10.657583
5.671458
-7.789807
3.285759
-0.876277
-9.547366
6.853691
-11.342803
-2.686924
1.688278
-10.956345
-11.032889
-1.294666
3.619456
2.974156
-3.467334
-4.209549
15.260651
4.249600
4.303874
0.061423
7.907473
8.814818
2.895226
1.280055
-17.233102
10.863449
-2.725953
2.409527
-4.224138
-1.025582
0.146133
-7.636266
-3.843251
7.017909
1.622470
-5.908248
-1.270105
-0.302216
7.806445
3.914965
8.032458
1.049428
11.486643
-7.845333
1.836125
3.868114
-4.706592
-3.520700
9.267674
0.680477
6.513361
3.626806
6.099049
-2.905129
8.221657
1.483877
-2.563582
0.232699
0.077233
-0.790181
3.075834
4.420468
1.709517
5.473066
0.332705
-7.954865
-23.487911
-17.522842
-0.479185
-1.516805
4.849735
-9.982081
4.510607
5.910188
-3.386282
-3.186585
-7.848374
1.833975
8.407746
-3.249572
5.007255
-4.464658
2.873074
0.708280
-7.341712
5.463467
-6.301670
-1.425227
-20.128837
5.009596
10.232143
8.255756
6.591812
-7.676318
-3.994481
-7.343741
4.492454
-11.070561
6.782552
-15.801958
-7.349904
2.714621
4.961327
1.978156
2.719271
-4.294069
1.688211
2.597478
5.175625
-5.656517
7.792993
6.366421
3.577410
-4.943947
-6.617925
9.197996
1.313770
6.593932
-14.405178
1.759485
-8.344995
-1.790637
-4.614653
-5.406222
-8.860527
-2.334995
-3.782134
1.905396
3.395076
-2.426152
-1.896323
-0.040269
1.805737
-1.492774
1.739845
-1.235857
3.320704
-4.501142
3.402509
-2.867208
-16.286268
18.053696
7.569285
-7.462340
-0.651811
4.583115
-7.087786
-7.143623
4.456082
-3.998807
-7.217583
10.785485
8.040835
7.769714
-6.268095
6.104403
-14.004162
7.757219
-0.393741
-2.559284
1.816239
2.960184
4.973160
2.798816
-9.557355
3.936811
14.589250
-9.868348
5.410461
-0.840354
-6.057730
-1.822336
5.511881
5.109625
7.793929
-7.686289
9.838697
4.667689
-6.772236
-3.392587
3.597765
-6.842390
-4.174808
7.902753
4.944771
-4.832425
5.207068
4.099882
1.664382
7.529272
-5.280695
2.242673
-2.701340
-1.667216
-7.843609
13.764158
4.269365
3.911361
2.171943
6.026176
7.458427
-4.703950
-6.736392
-4.766759
-0.394719
4.387336
1.817692
4.407517
0.261345
-1.176604
-2.913512
-1.085245
-4.227117
-0.390815
-6.508040
4.513704
-2.121717
7.373200
-5.244943
4.930784
-0.290213
1.686340
0.336857
-5.592593
-1.223747
-8.275135
-14.770078
9.823258
4.733586
1.847192
3.980756
8.165662
3.183762
9.061399
0.430840
3.045008
-3.210704
3.995607
-3.300473
2.216095
2.409792
0.261985
6.928377
0.050014
-3.873967
7.007450
-5.510756
6.485678
8.003485
-1.431314
3.301023
3.754235
-4.532768
0.257980
-4.106854
-7.038656
6.501272
0.978817
0.415739
1.085700
0.663247
1.083833
-5.187291
2.791097
-10.744738
2.754961
-5.141716
-12.469628
9.789941
-7.572060
3.061041
3.199788
-9.595572
0.681593
3.358153
-4.087690
0.154485
-35.074068
-5.948240
6.450835
7.251778
8.565350
0.716283
5.860298
-9.380364
1.163724
9.185408
-0.952340
-8.929168
-0.071533
2.535379
2.256190
0.354861
6.022523
-0.530446
-2.308081
-8.473252
6.358469
3.171204
-2.365662
-3.769847
-2.490892
-1.325197
5.059947
-6.929512
2.926215
5.990775
-2.274625
-3.966736
-3.596022
6.676411
0.048702
12.096810
-0.614368
-2.005937
-5.470104
8.441215
4.806272
-3.776161
4.022102
-7.611384
5.050510
9.491891
3.561659
2.735717
0.059453
7.189831
21.679736
-0.218344
5.630606
-2.967557
-2.903536
-6.179327
4.362909
3.364040
-4.958080
-0.064314
-5.625250
-6.455128
-5.596038
16.347122
-10.469203
7.232833
-0.130000
-8.864266
0.731892
6.762123
6.905530
-9.221330
-10.084588
9.203574
-5.791756
-0.046700
2.129508
-12.940087
5.775974
-7.625369
5.207021
3.431788
-3.026539
12.929571
2.464090
8.529847
8.942773
3.999533
5.105012
1.752162
-2.270568
-10.742241
6.421190
6.540269
7.267394
-1.377635
-4.447953
9.658074
3.105066
-0.381769
-2.802258
1.402519
3.585342
-1.272255
2.955208
3.289517
-8.569866
-4.091427
-1.515129
-2.597030
-2.249148
-10.301878
7.287601
8.628296
3.448792
3.935005
2.172578
5.156370
-9.120144
-5.225665
15.195846
-3.176292
8.368978
9.634249
-2.577935
-3.274005
1.450830
4.414487
-3.257947
-10.000935
-3.683690
17.143126
11.737985
6.391924
-4.065813
-0.490189
-9.631303
-0.907709
9.810924
-3.909432
-0.349155
-5.860936
-12.559544
7.459164
-2.045445
8.297141
4.237444
-1.766916
1.458863
-8.579135
1.214514
-1.979673
6.408043
-0.473176
-5.032755
-5.395986
2.949304
6.255361
9.674776
-1.510960
1.883937
7.251031
-10.457680
-9.631990
-7.235561
0.799319
-7.706305
9.030940
-3.984280
-0.609538
5.724381
-0.308866
-0.052234
11.075269
4.482794
-4.242733
1.634323
0.188645
2.068110
7.552905
-4.700122
5.450548
-6.645139
-3.166535
0.714594
-3.365102
-5.088446
3.483991
6.331196
0.228655
2.959574
1.196148
-5.142110
5.816258
-6.105583
1.601277
1.183939
-11.859340
8.636429
-3.279249
-0.150019
-3.468280
1.776426
4.755636
11.245629
6.737069
0.811218
-3.152671
-5.120466
0.805778
3.341242
-3.094434
1.107651
1.800171
-3.951755
-6.603648
1.623498
9.477231
-0.324287
-0.092080
10.162863
2.699645
2.188930
-3.076347
1.432306
-10.253588
0.824527
4.490840
13.268146
5.831959
3.178561
-9.028865
-11.388576
-2.431747
0.889264
-7.505712
-4.092991
-1.045035
-0.903201
-1.997125
5.123407
0.427361
-6.193985
8.745176
3.944862
-0.190002
-3.693052
2.000475
-3.482153
6.771406
-4.381061
2.998149
14.208315
-1.775866
1.269716
9.096170
3.331341
-7.301751
-4.196471
-16.769206
-2.988584
10.111253
-9.022324
12.802952
-11.814673
0.722064
4.095570
-7.507144
9.055256
1.466373
6.550547
4.291181
-8.163016
7.398500
-6.544416
-6.771841
-2.131793
-7.980707
-1.914257
0.511594
0.244433
-2.038976
-1.469107
6.147562
-1.339355
-12.169303
-2.564085
7.994051
-3.338485
-8.175920
12.510901
-11.483872
0.842061
-1.443898
-2.553630
-7.636138
1.529095
-5.568648
-7.839902
-4.060242
-1.929256
-15.217211
4.553519
0.377364
6.057865
1.536292
1.317493
3.537273
-4.758736
-0.192238
-1.300408
-0.957525
-4.652021
-4.768204
-6.647214
-7.038412
8.105602
-4.303885
-7.743727
3.140399
5.601070
1.794491
-4.522692
5.649277
-4.292185
-2.522563
0.966210
-4.880198
-4.622431
3.733931
0.401134
-3.404406
3.768175
9.435452
-6.502794
0.025986
-0.648539
-4.070506
5.798260
-1.758264
2.599750
-2.709891
2.777832
15.675146
-3.861398
4.808797
-6.230207
2.537188
-1.525596
-0.971278
-2.175983
-7.176795
-0.509646
6.583340
1.724399
-1.693680
1.504730
4.691817
2.714831
6.741607
4.158829
-6.466666
-6.422877
2.756404
5.817100
-0.688453
-7.496623
1.565937
-2.262867
0.232653
-1.517516
0.546608
-1.680435
-8.594749
-0.949707
8.907764
1.849155
-1.790624
-14.467652
-2.438300
-4.243975
-4.890499
9.145105
-8.635851
-11.500361
-9.370232
-6.676738
2.937392
-12.960399
7.459057
2.378075
-1.442442
-8.160875
0.324029
5.576670
1.438974
-4.073997
12.918247
4.423538
9.193064
8.169993
1.976405
10.540928
1.828805
4.476677
0.296002
8.730885
7.243456
-13.784148
5.481092
-2.337204
-0.705460
-2.385342
3.802743
-0.000445
5.265685
13.602871
-5.531870
-7.033547
1.424368
-3.193748
-2.562617
-10.811443
3.262810
1.538583
3.474278
8.189618
0.026154
3.745024
-15.381171
-4.242958
-7.821864
3.149695
-10.324199
-4.634547
2.463185
0.745109
-4.445879
14.148608
0.719281
-69.540724
-0.672826
-9.152770
3.056372
-2.356677
2.572191
-1.661351
6.895836
3.502064
1.406225
-1.003122
-2.989086
0.242581
-8.892684
-0.073769
5.450434
1.927820
5.448399
-4.618731
-9.642623
3.820658
-1.660865
5.468019
5.553353
4.584310
-1.791180
-6.137415
9.713959
6.614009
-0.634011
4.206629
12.541277
0.372622
-9.723953
-2.673545
-7.364424
-5.854874
-0.965987
7.731973
10.686114
2.064201
7.939839
-6.236951
6.213042
-8.983026
-2.266053
0.344659
-4.442749
6.807367
3.136713
1.918811
-8.240432
2.234590
0.180264
1.797850
-5.445336
-9.251099
0.338412
-3.074407
-1.970575
-7.369280
6.150819
-6.645100
6.868671
-5.892476
7.642583
-5.304925
8.836502
-3.046757
6.967742
-8.575159
-6.105204
4.585703
9.937647
4.890467
-0.146982
-12.437291
6.942363
-10.854995
-7.109880
8.145511
-5.570797
-7.457747
-1.756730
8.472525
5.818649
-4.477158
4.272384
5.282548
-3.000849
-1.285405
-3.584743
13.505866
-5.832723
0.085276
1.915983
-0.132694
-4.110993
1.788148
-0.504721
12.039844
3.181842
1.988081
3.512868
-7.708616
0.346231
0.927266
10.824822
-3.894974
-0.590646
-0.463096
4.129244
-5.044858
-4.577174
-2.370049
2.583180
-8.733291
3.506641
7.068226
11.926753
-2.607885
-5.178226
8.602474
-1.496503
1.808419
-6.014009
7.479591
9.560100
0.324020
1.493712
7.080564
-2.188530
-3.779393
9.445619
-1.875924
-6.347014
-0.060670
-3.107713
5.085296
3.345138
-8.072207
-3.559039
-3.307241
2.250698
1.438427
-3.710100
7.109694
10.830400
-1.922231
3.577615
2.899597
4.123019
-11.489235
-8.050501
-6.199833
-1.039063
1.191621
-2.171644
-1.492645
6.649581
-1.053918
-1.517332
-11.384325
-0.336027
5.976390
5.239743
-4.167043
-2.064346
9.517076
-7.133725
-1.857890
2.641142
6.934796
-1.387954
-8.110375
-1.590814
-7.091643
0.514514
-6.716426
-2.065864
-6.600387
0.507351
33.084106
9.560455
8.945110
3.832324
3.730993
6.210894
-8.274850
7.750103
-7.262953
-0.102814
-5.829404
0.890024
5.744767
6.646857
2.446181
5.056313
6.361546
-2.249928
0.495511
-1.801264
-0.195441
-4.132890
11.086428
-3.529415
3.009138
-0.441304
10.298303
6.897906
-1.233101
-6.289894
-9.771434
-6.435779
7.118464
10.696708
-9.413581
1.304278
-2.418820
-5.457922
-5.908835
-0.176281
-3.380147
4.129035
8.480920
-5.171517
15.752340
-2.741485
0.727406
3.532358
1.385779
3.498307
-3.155005
5.089636
-3.744091
4.733038
9.433291
5.423256
-5.065774
-9.998503
-3.354403
0.993578
5.660581
10.023804
-5.661312
3.185339
9.232820
4.965771
4.746256
-3.774185
9.259834
-5.503289
-5.674177
2.168822
2.575750
11.306957
-0.743276
6.698918
-4.101501
-2.551278
0.618710
-3.837328
-11.189919
1.084741
5.781503
2.755587
-5.951552
-2.993621
3.391271
-5.437752
-1.471719
-2.219628
-4.494146
-3.279518
-3.272421
-3.456073
-7.137417
11.538384
10.374769
4.244966
4.942181
4.147539
9.461962
-6.017487
4.542445
-1.313900
5.551762
-1.307330
2.083189
-3.268982
-1.143738
3.475365
-6.359166
-8.894914
-1.717607
-2.319775
-3.183164
3.268558
-1.077986
2.062479
-6.498926
-6.645337
4.734319
0.697800
0.679356
-6.793107
10.595695
1.892335
-1.344920
-5.292871
-2.918855
3.207741
5.178002
-1.097961
-13.173954
1.116714
-2.966734
5.461864
0.812594
-7.604890
4.897647
1.004646
5.298419
-0.223837
-2.171585
-11.020684
-1.987741
-0.362948
2.158563
-6.660224
-1.597803
5.324175
-9.889362
-6.712600
-2.330066
-3.265513
-5.051751
-2.068735
7.935849
10.030948
-2.082496
-9.403662
-9.296276
10.926942
9.048028
-7.012654
7.307269
-2.496968
-6.581716
5.723242
-1.320802
-3.383446
-8.434544
2.851628
-2.942902
-7.351967
-3.020120
-3.103909
9.145286
9.069472
-2.942366
-6.842797
3.758296
-4.232684
3.877622
-6.047373
-2.728110
4.909915
-6.184289
-8.040558
14.010217
8.150451
2.764465
0.261360
7.106118
-2.964681
-0.269618
-10.460521
-2.947785
8.849167
1.424315
-2.002062
5.403618
6.000472
5.274924
4.516123
-3.740557
1.874601
-0.019369
-1.135861
0.312824
4.363753
-7.710801
-2.952540
1.226770
-5.035830
2.213899
0.875252
-7.021675
5.372322
3.629849
-5.579991
-2.246252
-2.702447
-8.652487
-6.863775
3.758992
-4.229526
-2.694305
-2.665247
-5.213463
4.677891
5.981752
-9.401281
3.478621
4.832874
-5.864667
3.139947
-7.381876
-2.210045
-7.662307
-1.342318
13.100551
4.225601
0.177011
-10.770568
7.462823
-9.008136
-2.927769
-4.397699
-6.068158
10.472005
7.762304
3.920535
-4.412693
1.496871
10.412642
9.205933
8.551297
14.199317
-1.258524
-1.083463
3.747232
0.461964
-2.891117
-6.163131
4.024381
-7.715305
9.924094
-1.461642
-5.413944
2.987770
-3.882437
3.301107
-0.450461
2.249900
-1.234138
1.189119
-6.882256
-9.241264
9.372872
-2.670162
1.947849
1.762672
6.833126
4.210892
-5.866104
0.191853
5.432635
4.632758
-3.995194
-3.210268
-8.717982
-1.760130
3.638060
-12.973042
4.154662
-1.479355
9.996206
-8.569215
5.128059
-6.756939
-1.720455
9.192592
6.689002
-3.373938
7.073855
-2.796354
5.731004
9.283699
0.569173
-0.493188
0.620173
0.046685
0.279388
-5.977905
0.395976
-0.641158
-0.781626
-0.906899
0.167775
0.304521
-0.824345
-0.919012
0.752896
0.080059
0.336804
-0.940622
-0.434109
0.747660
0.624543
0.285067
-0.985430
-0.210239
-0.927514
-0.470898
0.918831
0.801594
0.085109
-0.489545
-0.066273
-0.457377
0.925992
0.909254
0.509048
0.634486
-0.838192
-0.024460
0.450349
-0.579543
0.947819
-0.922419
-0.184731
-0.748265
-0.768213
7.597223
-0.068962
-0.120657
-0.063044
0.858569
0.383333
-0.760342
-0.100491
0.110059
-0.171894
-0.513855
0.846740
0.092369
-0.170097
0.667914
-0.488781
-0.360031
-0.397055
-0.353795
-0.772832
-0.345061
0.721437
-0.643926
-0.442529
-0.102162
-2.115620
-0.257866
1.057206
7.460219
-0.531454
-0.122419
0.711035
-0.376097
0.001271
0.478307
7.064034
0.516008
-0.405926
0.210954
-0.398647
0.758734
-0.490163
0.799962
0.665344
0.124712
-0.104771
0.375232
-0.622191
0.337842
-0.019567
-0.129866
-0.693408
0.268521
4.224981
0.628029
0.159316
-0.021068
-0.875864
-0.716927
0.595507
0.554000
-0.214123
0.205916
-0.859184
0.384084
-0.426148
-0.509701
-0.899703
0.236149
0.026309
0.451518
0.765914
0.938955
0.630404
-0.974224
-0.400357
-0.353255
0.947203
-0.295469
0.053245
-0.165310
0.986683
-0.132689
-0.245365
0.537071
-0.092107
-0.174257
0.192883
-0.670635
0.446899
-0.916281
-0.452577
0.241228
-0.109025
0.782692
-0.414746
-0.941366
0.691909
0.588710
0.156967
-0.649400
-0.337316
0.739274
-0.935125
0.489527
-0.076103
-0.651743
-0.891085
-0.780767
0.207970
0.269960
0.330755
-0.452384
0.541395
-0.020769
-0.913723
-0.201348
0.113375
-0.484299
-0.251658
-0.646169
0.629133
0.254335
-0.810980
-0.423992
0.117112
-0.177764
-0.797500
-0.264038
0.955873
-0.860186
0.332998
-0.299560
0.562076
0.505038
-0.324059
0.170229
-0.085608
0.305360
0.355946
-0.727352
0.384130
0.229272
-0.511332
-0.594215
0.256900
-0.118385
0.612795
-0.368057
0.615666
0.251863
0.227273
-0.803419
0.150512
-0.541305
-0.356903
-0.862630
0.194346
0.828610
0.305993
-0.385460
0.382790
-0.251440
0.890924
-0.978583
0.753329
-0.347930
2.023148
0.269594
0.441119
0.040581
-0.369434
-0.894892
-0.652907
-0.484538
0.870092
-0.048079
-0.387199
0.475572
0.397136
-0.269093
0.354872
-0.376992
0.146140
-0.551087
-0.958980
-0.009860
0.365453
0.840628
-0.338792
-0.783793
0.987355
-0.948060
-0.324295
0.870522
-0.592406
-0.104983
0.951627
-0.495385
0.470336
-0.471014
0.659812
0.506314
0.586316
-0.681592
-0.633504
-0.865164
0.470049
0.642120
-0.568805
0.561132
0.222935
0.720457
0.622446
0.079861
0.814805
-0.062236
0.233518
-0.338941
0.653414
-0.213324
-0.245210
0.809019
0.515377
-0.969902
-0.608123
-0.075351
-0.286635
0.570623
-0.130687
-0.504512
0.386825
-0.493142
-0.834550
-0.676984
0.159906
-0.736811
0.344412
-0.601694
0.859736
-0.204917
0.246932
-0.961684
0.722134
-0.013709
0.801911
0.826297
-0.464524
0.069390
0.052274
-0.120586
0.365731
0.409231
-0.234962
-0.154711
0.707123
-0.697758
0.253467
-0.009473
0.212090
-0.485924
0.687334
-0.830973
-0.091380
0.224016
0.909168
0.961383
0.929004
-0.425917
0.874659
0.382867
0.724395
-0.366666
-0.973680
-0.349307
-0.865627
-0.457639
0.875768
-0.594460
-0.162200
-0.569667
-0.530497
0.636130
0.643394
-0.982465
0.694912
0.299777
-0.864930
-0.082062
0.349272
-0.508358
-0.364228
-0.906585
-0.848792
0.402797
0.511249
0.798102
-0.313847
-0.377051
0.408720
0.758837
-0.311388
-0.529693
-0.653077
-0.440417
-0.119537
-0.775822
-0.560371
-0.550850
0.418917
0.966230
0.902527
-0.732102
0.977171
0.516448
0.701467
0.235015
-0.195127
0.589636
-0.903129
0.013503
0.169207
0.840274
-0.053104
-0.514422
-0.793597
-0.701453
0.994560
0.033389
0.263180
-0.016364
0.187837
-0.405881
0.755368
0.746251
0.984627
0.233092
-0.114300
-0.745892
-0.755357
0.719915
0.210840
0.935816
0.251402
0.717111
0.913055
-0.861914
0.365249
0.350897
0.823229
-0.043873
0.412205
0.466707
0.750846
-0.977320
-0.736916
0.276465
-0.312442
0.953050
0.742140
-0.471824
-0.268705
0.153729
0.043294
-0.122474
0.129835
0.655336
0.775405
-0.381997
0.532210
-0.796147
0.890140
-0.249125
-0.374357
0.279352
-0.523129
0.572890
-0.062045
-0.520799
-0.873630
-0.736079
0.388235
0.957298
-0.632862
-0.586673
-0.007152
-0.683527
0.353877
0.501241
-0.607006
0.641398
0.130434
-0.909054
-0.301202
0.274032
-0.932329
-0.288380
0.530245
0.827235
-0.110965
-0.548726
0.515693
-0.435791
0.630284
-0.107856
0.254567
-0.602102
0.749720
0.074577
0.344865
0.828572
-0.178743
-0.241637
0.959437
0.987799
-0.267326
-0.435225
0.072463
0.988136
-0.499027
-0.700555
0.212282
0.681637
-0.793585
0.209387
0.035641
-0.581542
-0.943704
-0.431968
-0.059014
-0.512027
-0.885891
0.958241
0.659589
-0.120877
0.221459
0.153907
0.389384
-0.042198
-0.462146
0.243955
0.545870
-0.200498
0.434573
0.573493
-0.469746
-0.572830
0.397309
0.414877
-0.868694
-0.479617
0.630311
-0.855955
0.599314
-1.067165
-0.077693
0.078157
0.908478
0.715804
-0.822521
-0.615055
-0.972476
0.089412
0.804490
0.539468
0.309228
-0.014260
-0.316522
-0.582874
-0.494274
0.381261
-0.003218
-0.117226
0.251404
-0.915912
-0.747610
-0.771185
0.115679
0.609063
0.609101
0.174027
0.566881
-0.047590
-0.358175
0.776767
0.374463
-0.520802
0.348728
-0.278093
-0.401715
-0.533642
-0.945945
0.924695
0.523441
-0.544964
-0.706364
-0.046830
-0.770103
-0.721932
-0.237413
0.424017
-0.148211
0.517216
-0.710675
-0.386556
-0.147491
0.754815
0.641818
-0.816786
-0.107225
0.113948
-0.693954
0.820266
0.893023
-0.968182
0.704394
-0.688679
0.173500
0.303085
0.753275
0.108658
0.663336
-0.518085
-0.878082
-0.293288
0.364228
0.285332
-0.732505
-0.736151
0.074930
-0.708864
0.779156
0.072719
-0.471146
0.094382
1.196539
0.042113
0.399236
-0.610028
0.284446
-0.585096
0.459432
0.885545
-0.742904
0.388521
0.488040
0.321379
0.708984
0.817358
-0.511778
0.359601
0.482317
0.028881
-0.953549
0.824916
0.770940
0.662976
0.124973
0.151541
-0.248969
-0.941279
0.808329
-0.848662
0.751154
0.622400
0.001969
-0.943149
-0.456636
-0.702750
-0.407482
0.817060
0.329730
-0.286831
0.459981
0.406524
-0.166403
-0.315871
-0.130938
0.379208
0.331911
0.669907
-0.314231
0.541708
0.235005
-0.049899
0.634627
-0.595061
-0.271296
0.844309
0.589891
0.510187
0.974091
0.317958
-0.717586
-0.997221
-0.209922
-0.867332
-0.959693
-0.858559
0.996007
0.469090
0.892528
0.949438
0.778719
-0.281312
0.477704
-0.390443
0.594688
-0.918059
-0.096051
-0.391250
0.036777
-0.291466
-0.429504
-0.055499
-0.790990
-0.521112
-0.412282
0.410478
0.964287
-0.433110
0.212450
-0.279145
0.708373
0.449725
0.983058
-0.535677
0.253305
0.980919
0.681110
0.032895
-0.559248
0.911474
0.856879
0.136281
0.119147
0.335924
0.637464
-0.819960
-0.326201
-0.217965
-0.632976
-0.661972
-6.872372
-0.922665
-0.468058
-0.163868
-2.415045
-0.963698
0.161749
-0.529641
0.389923
-0.458676
0.506104
-0.158733
-0.343275
0.424286
0.818444
0.749063
-0.770142
-0.776752
0.426157
0.322841
0.725530
0.559138
0.260661
-0.379697
7.602323
0.540194
-0.471407
0.111460
-0.556259
-0.440268
-0.198428
-0.082948
-0.535477
0.781798
0.135584
0.548143
-0.961490
-0.925099
0.577643
0.154324
-0.223758
0.558526
0.299255
-0.874081
-0.654922
-0.758832
0.018402
-0.042551
0.165477
0.646419
0.114943
-0.844568
-0.532823
-0.588337
-0.023446
0.108893
-0.175686
0.647034
-0.534694
-0.990083
0.417247
-0.926764
-0.936519
0.779945
-0.658393
0.096588
0.247954
0.167037
0.895153
-0.044796
0.896940
0.220741
-0.437734
0.654807
-0.624480
-0.127032
-0.724911
-0.444109
0.476137
0.555509
0.079982
-0.358529
-0.193479
-0.773115
0.369286
0.160462
-0.564340
0.686715
0.899402
-0.523469
0.467407
-0.185854
-0.583478
-0.675069
0.407574
0.326994
-0.993483
-0.538139
-0.485808
-0.089161
0.604300
-0.363398
-0.188957
-0.569092
-0.506381
-0.938396
-0.833795
0.574713
-0.211905
7.845910
-0.975234
0.718277
-0.969597
-0.081011
0.738229
0.301575
-0.406139
-0.790067
-0.246154
-8.613995
0.824501
0.251356
0.147700
-0.014331
-0.314596
-0.282261
0.252333
-0.084897
-0.033949
-0.711541
0.536709
-0.548330
-0.181900
-0.301112
-0.953762
0.594483
-0.007382
0.904914
-0.761243
0.476992
0.890471
-0.942415
-0.839001
-0.742639
-0.409187
0.914531
-0.288914
-0.127965
0.979424
-0.642128
-0.145535
-0.480201
0.369102
0.855535
-0.614849
-0.308269
-0.174821
0.686208
-0.033746
0.685577
0.063606
0.165699
-0.862046
-0.983397
-0.188224
-0.303755
-0.265780
-0.955456
-0.332877
0.364508
0.145107
-0.218504
-0.510809
-0.052612
0.449375
0.681712
0.723111
0.607452
-0.092071
-0.005418
0.275036
0.045945
-0.604530
-0.305061
0.184052
0.183616
0.687286
-0.146061
-0.529722
0.555174
0.242101
-0.714445
-0.520549
0.774283
0.937266
-0.865941
0.415837
0.184528
-0.792484
-0.481679
-0.060043
-0.018550
-0.184339
0.443463
-0.719984
0.771074
0.364967
0.007401
-0.815945
-0.462170
-0.260088
-0.491543
-0.847726
-0.226098
-0.729401
0.720714
-0.974929
0.680487
-0.388603
0.367125
0.149340
0.307118
0.783684
0.113519
-0.153412
-0.718049
0.874917
0.692517
-0.223964
5.857526
-0.669092
0.279524
-0.779230
0.726297
0.179523
-0.910323
-0.126025
0.916862
-0.261067
0.564194
0.424940
-0.757613
-0.501469
-0.470418
-0.957015
-0.034736
0.967778
0.455094
-0.365567
-0.310788
0.347422
0.849331
-0.538332
-0.910243
0.218223
0.962461
-0.639654
-0.974386
0.503710
0.968156
0.644850
-0.977446
0.717489
0.913435
-0.667327
0.058452
0.594762
-0.743476
-0.864093
0.617341
-0.322211
-0.553463
-0.050222
-0.037633
-0.093490
-0.617833
0.798239
0.674849
0.797065
0.897825
0.324190
-0.408375
0.704198
0.188256
0.390771
0.144828
-0.298132
0.249823
0.332307
-0.033448
-0.275481
-0.365543
-0.599080
0.788820
-0.441162
0.476587
-0.578084
-0.299765
0.470198
0.748402
0.214017
9.132854
0.539689
-0.865052
0.437601
-0.017846
0.145511
0.432133
-0.740352
0.685762
-0.626970
0.779817
0.122041
0.000706
-0.402405
0.303821
-0.758915
0.452523
0.315690
0.998320
0.132176
0.438809
0.551553
-0.450863
0.469386
0.920250
0.785844
-0.106905
-0.447938
-4.286801
-0.257644
0.704127
-0.163881
0.450752
0.827810
-0.321496
0.019860
0.845590
-0.333115
0.086577
0.268832
-0.706544
0.513187
0.144139
-0.253809
-0.939102
-9.452993
-0.410621
0.394998
-0.307062
0.315529
-0.831528
-0.657890
0.665134
0.593219
-0.269996
0.357242
-0.449109
-0.553678
0.055105
-0.649387
0.312980
-0.415784
0.220266
-0.007090
0.120904
0.848195
0.848336
-0.653838
0.753932
0.696633
-0.446087
0.860283
-0.517171
-0.572586
0.830684
0.161886
0.824860
0.458936
0.028818
-0.667364
-0.325732
-0.081335
-0.980418
0.636127
0.449729
-0.998870
-0.461267
-0.691817
0.351957
-0.118570
0.106775
0.548407
-0.718238
-0.537594
0.886533
-0.274912
-0.376857
0.343084
-0.346337
0.305778
-0.074631
0.214484
-0.255418
-0.771262
0.119455
-0.974474
-0.260582
0.877153
-0.497693
0.399035
-0.789492
-0.095128
0.225814
-0.054822
-0.042360
0.017027
-0.005669
-0.618453
0.106380
-0.976597
-0.421765
-0.767308
0.362081
-0.113292
-0.692744
-0.323744
-0.059326
-0.367934
-0.173775
-0.845896
0.712170
0.687974
-0.469345
-0.318579
0.538728
0.911679
0.557464
0.364035
-0.276335
0.312720
0.149817
-0.786984
-0.779738
-0.280612
-0.321700
-0.675403
0.937013
-0.193174
-0.703628
0.531410
-0.584368
-0.822910
0.254731
-0.286696
-0.686701
0.363653
-0.505256
0.523098
-0.377442
-0.963819
-0.478858
0.260531
-0.882928
0.263800
-0.320714
-0.548465
0.821616
-0.178114
-0.611461
0.778236
0.688987
-0.435025
-0.097783
-0.209753
-0.873995
-0.419543
-0.869724
-0.162057
0.433353
-0.076327
-0.299199
-0.652415
0.681582
-0.295009
0.995966
-0.585105
0.746269
0.609180
0.004873
0.935001
-0.222837
-0.107013
-0.088700
0.110635
-0.358960
0.678027
-0.004331
-0.791476
-0.385504
-0.466878
-0.362281
-0.402152
-0.421020
0.930863
-0.166769
0.404114
-0.049282
-0.824574
-0.709128
6.146759
0.906138
0.007881
0.347218
0.756060
0.042134
-0.822089
-0.974737
0.845247
-0.116138
-0.991982
0.128705
-0.463477
0.275928
-0.935841
-0.831838
-0.124803
-0.795288
-0.502040
0.281336
0.065860
0.818327
-0.905656
-0.465654
-0.463664
0.163446
-0.704639
0.036263
-0.544510
0.176276
-0.141182
-0.000566
0.585871
-0.083399
0.509512
-0.766536
0.928286
0.304920
-0.913565
-0.799704
-0.852830
0.021124
-0.585472
0.579101
0.583868
0.506556
-0.867697
-0.587462
-0.383445
-0.912453
-0.969269
-0.682844
0.362470
-0.346603
0.700484
0.011607
-0.978826
-0.422947
0.402925
0.202299
0.933346
-0.863123
0.652653
0.399688
-0.265118
-0.340158
0.454689
0.992632
0.972552
0.481439
0.832137
-0.328011
-0.589316
0.371132
-0.354416
0.757202
-0.249423
0.775982
-0.093000
0.037393
0.200028
-0.934715
0.664477
-0.166130
-0.612305
-0.321559
0.552682
-0.261589
-0.332108
0.197720
0.424570
0.984834
-0.571095
-0.106744
-0.924701
0.577092
0.161374
0.641286
0.792652
0.448442
-0.242173
-0.255780
-0.883542
0.405043
0.500599
-0.908740
-0.924142
-0.423709
0.945784
-0.021252
0.684046
0.011546
-0.652715
0.267461
0.514398
0.627483
-0.489365
0.199388
0.796438
-0.999761
-0.488157
0.284417
-0.673711
0.727296
0.611187
0.027047
0.965173
0.056035
-0.846573
-0.627642
0.146156
0.935484
-0.474781
-0.734906
-0.735751
0.504919
0.525866
-0.195178
-0.555259
-0.777979
0.704792
-0.326419
0.393243
-0.575542
-0.801155
-0.376472
-0.615912
0.293678
-0.833055
-0.303573
-0.465405
-0.066707
-0.757695
0.438317
-0.884707
-0.242405
-0.851811
0.438004
-0.028743
0.228559
-0.552685
-0.458598
-0.601642
-0.505662
-0.821381
-0.788779
0.710181
-0.069648
-0.346852
0.042774
0.257796
-0.943998
0.350347
-0.741055
0.836787
-0.985664
0.175957
1.439366
-0.655054
-0.487419
-0.344483
0.676505
-0.246749
0.244758
0.907936
-0.156967
0.734845
-0.853083
-0.196563
-0.677573
0.303382
-0.422812
0.916022
0.383478
-0.697080
0.538311
0.502769
0.826932
-0.993008
-0.290942
0.994202
-0.113369
0.586219
0.863237
0.522691
0.861373
4.194362
-0.602862
0.506972
0.639899
0.094744
0.024296
0.739415
-0.026694
0.554707
-0.518305
-0.265075
-0.764138
0.879121
0.480170
0.609977
0.882623
0.851198
-0.428282
0.736800
0.110792
0.773599
0.207214
-0.892034
0.414457
0.157917
-0.526932
0.519992
-0.171867
0.823141
0.503102
0.649264
-0.079506
0.575571
0.882451
-0.471622
0.710054
-0.759512
-0.768729
-0.085124
-0.488297
0.449745
-0.441522
0.955923
-0.248134
-0.244738
-0.091566
-0.365463
0.373473
0.070902
-0.363583
-0.327671
0.447531
-0.624605
-0.486195
0.515013
-0.932915
0.648744
0.617683
-0.358129
0.575410
0.360011
0.391647
-0.770020
0.140422
0.340268
0.789976
0.404164
-0.639813
0.419398
-0.331219
-0.712596
-0.180257
-0.497988
-0.966800
0.843486
0.114340
0.227062
0.543810
0.228571
-0.037252
0.869665
-0.193963
0.913546
0.951608
0.516636
-0.842046
0.148853
0.753641
-0.850941
-0.599700
-0.176206
-0.297591
0.445134
0.715195
0.088468
-0.173356
0.345231
0.822489
-0.381963
0.674988
0.912986
-0.502496
-0.550999
0.967007
0.664150
0.347006
-0.989345
-0.948201
0.767002
-0.491049
0.028334
0.095466
0.754980
0.250776
0.796789
0.264321
-0.751577
0.256841
0.585608
-0.969929
-0.585135
0.413637
0.271593
-0.495012
0.396016
-0.372721
-0.976685
0.610159
-0.805445
0.161563
-0.644322
-0.488884
-0.195366
-0.891774
0.392875
0.791005
-0.516867
0.015261
0.265246
-0.916857
0.534587
0.323343
0.519341
-0.738388
-0.534740
-0.756022
0.418142
0.646224
-0.166729
-0.298860
-0.155320
-0.395467
0.467093
-0.094478
0.233895
-0.121154
-0.707722
0.351110
-0.169165
-0.873104
-0.213303
0.740547
0.394579
-0.535428
0.016153
-0.911594
0.097324
-0.486330
-0.871254
-0.337574
-0.611272
0.067749
-0.430529
-0.520785
0.286216
-0.761182
0.538385
0.731214
0.032270
-0.699993
0.116605
0.899037
-0.447912
-0.746180
-0.348636
-0.339439
0.325774
0.146879
0.391559
-0.247521
-0.020871
0.822758
-0.282574
-0.061598
0.482253
-0.917313
0.440095
0.696654
0.533138
-0.719025
0.822419
0.616795
0.711599
0.800145
-0.863637
0.951401
-0.973320
-0.762309
0.056843
0.642642
0.144091
-0.120979
0.477809
0.550285
0.448164
-0.515748
0.710917
0.513897
-0.047510
0.834195
0.496272
-0.259348
-0.695970
0.136582
0.381230
-0.810367
-0.101315
0.612743
0.062853
-0.884641
-0.406087
0.576533
0.137654
-0.272842
0.419345
0.460614
-0.422476
0.070850
0.577162
0.993937
0.144965
0.249088
-0.265849
0.104878
0.408099
-0.423010
0.451223
0.642206
0.381743
-0.558070
0.309583
-0.352648
-0.112618
-0.130964
-0.171185
-0.546240
0.585438
-0.425314
-0.937372
-0.459311
-0.201322
-0.531984
-0.993447
0.496875
-0.854264
-0.699206
-0.896174
-0.469713
0.457043
0.518268
-0.619242
-0.426166
-0.557409
-0.136165
-0.937267
-0.777067
-0.872473
-0.468886
0.788401
-0.238937
-0.747435
0.711599
-0.969419
0.462367
-0.949454
0.943851
0.327051
0.119602
-0.181108
-0.618703
-0.528873
-0.115358
0.220507
-0.639445
-0.072187
-0.056767
-0.065462
-0.065764
0.653148
0.874553
0.067256
-0.202787
0.821131
0.464562
-0.702282
0.095546
0.981149
-0.772188
-0.664400
0.736565
-0.737652
0.105436
0.749534
-0.308141
-0.680697
-0.447399
0.192020
0.613015
-0.442679
0.694813
-0.642720
0.497026
-0.738295
0.401826
-0.600796
-0.540200
0.359937
0.304421
0.297643
-1.115736
-0.852185
-0.313058
0.347350
-0.329581
-0.402955
-0.070850
-0.881332
0.600383
-0.077693
0.646450
0.803090
-0.275706
0.618483
0.761749
-0.800188
-0.650094
-0.083341
0.134214
-0.136916
-0.411517
0.077722
-0.472776
0.144503
-0.288430
-0.880905
-0.996645
0.239928
-0.142020
-0.306649
-0.680441
0.223939
-0.359341
-0.220059
-0.287777
-0.451983
0.208245
-0.287436
0.422699
-0.387780
0.100765
-0.265708
-0.887225
0.122995
0.684627
-0.195350
-0.382354
-0.118547
-0.602157
1.078078
-0.571417
-0.557638
-0.477975
0.182560
-0.811961
-0.608713
0.575022
-0.362328
-0.053194
0.932554
-0.206410
0.805003
0.190795
0.935154
-0.440630
0.148787
0.311254
0.582235
-0.704273
-0.496056
0.891305
-0.154986
-0.740203
0.325527
-0.332731
-0.524534
-0.673832
0.042064
0.232287
0.938572
0.784797
0.880458
0.308883
0.102629
0.323958
-0.408089
-0.067836
0.667189
-0.115731
-0.297935
-0.316370
0.558407
0.987367
-0.351472
0.357939
0.380513
0.600004
0.874238
-0.785681
0.180136
0.493305
0.594793
0.436006
0.349117
-0.165647
-0.322158
0.793078
0.726597
0.158505
-0.681026
-0.924048
0.406752
0.346628
-0.995860
0.543816
0.656717
-0.889344
-0.464333
-0.319380
-0.933627
0.846742
0.089402
-0.330219
0.186809
-0.324498
0.839281
0.525105
-0.045308
-0.916762
-0.246987
-0.654409
-0.538224
-0.040665
-0.688342
-0.617622
0.320328
-0.262178
-0.089204
0.799988
-0.653207
-0.562400
-0.925537
0.452530
0.298517
-0.280894
0.174229
-0.472061
-0.315066
-0.440155
-0.919901
-0.537875
-0.010108
-0.540614
0.939641
-0.819297
-0.083938
-0.221456
-0.551798
-0.667182
-0.146755
-0.079225
-0.194749
-0.560826
0.051537
0.920580
0.013895
0.721261
0.878078
-0.109325
-0.575865
0.446440
0.364253
-0.299403
0.619260
-0.247939
-0.280417
-0.409142
-0.821726
0.926302
0.554348
0.794744
0.453625
0.972356
0.737999
0.473211
-0.470432
-0.622329
0.933762
-0.617683
-0.740334
-0.988384
-0.128814
-0.535940
0.094082
0.561878
-0.002065
0.846551
-0.070170
5.132087
0.665262
-0.328850
-0.053282
0.623571
0.530965
0.730402
-0.619710
-8.085525
-0.170046
0.339574
-0.366645
0.586337
0.805706
0.714573
-0.119203
0.124720
0.592173
-0.363116
0.783582
-0.891698
-0.783103
-0.918100
-0.673638
0.943697
-0.441253
0.656691
0.421990
-0.157826
-0.919803
0.680933
-0.159730
-0.823441
-0.901871
0.365210
0.238764
0.864733
0.993088
-0.274848
0.506178
0.039323
-0.164287
0.268142
0.426868
-0.713278
-0.804487
-0.662430
0.573966
-0.381720
-0.898349
6.293580
-0.288675
0.802855
-0.468794
0.711254
0.265847
0.200491
-0.183444
-0.848887
0.263882
0.305995
-0.012080
-0.920303
0.445199
-0.953802
0.273858
1.001386
-0.449326
-0.366562
0.623047
0.773864
0.787216
0.284253
0.105212
-0.764763
-0.559737
-0.165010
-0.632739
0.089010
0.147587
-0.995481
-0.480549
-0.377466
-0.147477
0.950135
0.017137
-0.314877
3.034529
-0.103137
-0.143513
0.738570
-0.753035
-0.247265
-0.762759
-0.640380
-0.945960
0.346178
0.043706
0.603817
-0.998756
0.640184
-0.025545
-0.640222
0.201028
0.642689
-0.118423
-0.804460
-0.952186
-0.093418
0.445064
0.172625
0.608411
-0.690080
-0.109415
0.376645
0.650324
0.601146
-0.224388
0.993609
0.176837
0.662633
0.169952
0.395499
0.426946
0.440118
-0.984967
-1.027395
-0.686436
0.251087
0.974352
-0.949033
-0.849751
0.264550
-0.445484
0.330190
-0.812537
-0.653206
-0.104040
-0.559263
-0.643409
0.255023
0.499290
0.795988
-0.200426
0.095696
0.724398
0.687085
-0.884010
0.736842
-0.131840
0.120659
-0.125908
-0.207885
-0.923238
0.137312
-0.832069
-0.435758
-0.728117
-0.748918
0.805137
0.287697
-0.724902
-0.758960
-0.377288
0.322404
0.639490
-0.043938
-0.232838
0.316147
0.002143
0.687010
-0.988582
0.878917
-0.396715
-0.495276
0.290105
-0.043896
-0.278524
-0.257277
-0.250125
0.434207
0.257911
-0.224330
0.799464
0.193907
0.379173
-0.152761
0.138116
-0.872534
-0.750946
0.605690
-0.416111
-0.080394
0.564861
-0.988497
0.600943
0.334010
0.803791
-0.343298
-0.797065
-0.720031
-0.973903
0.703423
-0.376845
-0.734757
0.662696
-0.508676
0.729616
0.653224
-0.263822
-0.927104
-0.850380
-0.521977
-0.786763
0.871901
-0.563598
0.325234
-0.034145
-0.157246
0.287718
-0.710840
0.896052
0.701648
0.217932
0.216391
-0.543420
0.364318
-0.401642
-0.479729
6.863966
-0.553066
-0.516122
-0.410400
-0.849595
-0.521120
0.338807
-0.870929
0.334236
-0.732767
-0.184836
-0.587112
0.810635
-0.860327
0.663104
-0.505352
0.266706
-0.190482
0.882877
0.058895
-0.047403
-0.961281
0.334873
-0.288000
0.647191
-0.399366
-0.476568
-0.855012
0.195161
0.151616
-0.790515
0.539933
-0.900183
0.724924
-0.176680
-0.008275
-0.385047
0.070527
-0.076822
0.783435
0.467603
0.440877
-0.156969
-0.237772
-0.692247
-0.577194
-0.757120
0.281865
0.940627
-0.776367
0.327040
0.958140
-0.161995
0.749129
-0.013499
-0.638799
0.159290
-0.132224
-0.026278
0.898482
0.895432
0.524989
0.627908
0.877673
-0.015010
-0.889250
0.818275
-0.732110
-0.043380
0.363796
0.650663
0.505122
-0.208453
-0.474195
-0.582495
0.695100
0.281860
0.469257
0.249052
-0.303985
0.867312
-0.641526
0.373099
-0.937465
-0.186338
0.364976
0.614624
-0.076160
-0.276905
-0.629483
-0.976976
0.870204
-0.627788
0.754139
-0.692627
0.837166
0.381658
-0.148823
0.661025
0.838705
0.127283
-0.723763
0.528417
0.774375
5.986428
-0.467739
0.549683
-0.035450
0.972810
-0.527843
0.146521
0.840514
-0.843988
0.658689
0.989522
-0.959299
0.295032
-0.630413
0.022230
-0.061336
0.094469
0.095894
0.532722
-0.450870
0.842720
-0.329239
-0.038292
-0.440624
-0.281899
0.688908
-0.089728
0.791835
0.572759
-0.422515
-0.758526
0.843108
-0.909570
-0.842646
0.753169
0.582840
-0.545608
-0.949407
0.589813
-0.776470
-0.998437
0.763662
0.004767
0.793725
0.294972
-0.293795
-0.700554
0.247793
-0.217518
-0.854426
0.389943
-0.470144
0.023679
0.107883
-0.178715
0.544739
-0.178481
0.639620
-0.146537
0.896879
0.996874
0.279209
-0.856662
-0.246693
0.799705
-0.933666
-0.205540
0.391868
-0.307143
0.074577
-0.621173
-0.704179
0.461792
0.646216
0.819661
0.266968
-0.235644
-0.108538
-0.178140
0.559886
-0.633803
0.882867
-0.587205
0.847294
-0.079067
6.989568
-0.759309
-0.028464
3.487416
0.195717
0.531685
0.712123
-0.484088
-0.757953
0.278117
-0.667992
0.505199
0.329308
0.524454
-0.201889
-0.192506
0.052224
0.923736
0.249378
0.097231
0.572118
0.339588
-0.630744
-0.595025
-0.500120
0.417768
0.496621
0.279487
0.428613
0.189584
0.771097
-0.071516
0.071430
0.280284
0.180581
0.848288
0.435627
0.912408
-0.516772
0.840582
-0.570049
0.045035
0.651467
0.111569
0.721430
-0.633309
-0.040799
-0.789678
0.484342
-0.430613
0.762850
0.511208
0.155027
0.048286
-0.305548
-0.977365
-0.657995
-0.913909
-0.764039
0.368474
-0.795290
0.516350
-0.755167
0.659102
-0.855933
-0.287895
0.019187
0.502890
0.865411
0.961936
0.234333
0.633408
0.677666
0.433532
0.948128
-0.670937
-0.663241
0.741228
-0.384577
0.471265
-0.944319
-0.453346
0.297808
-0.814301
-0.619004
-0.426631
-0.067679
-0.332847
-0.292826
-0.803888
0.936420
0.843435
0.695547
0.565549
0.432062
0.933413
-0.414691
0.785587
-0.362456
-0.593698
0.016816
-0.642767
-0.731924
-0.556619
0.667928
0.833892
0.397822
-0.162940
0.111485
-0.173585
-0.390907
0.506711
0.703418
-0.034580
-0.233733
0.454044
0.459493
0.458687
-0.536334
0.138895
0.279995
0.881551
0.351940
0.040248
-0.251634
0.663382
0.334264
-0.801114
0.771214
0.625660
-0.817568
0.477779
-0.164504
-0.775043
-0.811749
-0.011004
0.385912
-0.205328
-0.692244
-0.071796
-0.346168
0.082522
-0.280519
-0.720736
-0.488110
0.480479
0.751026
0.559003
-0.091617
-0.312863
0.592429
-0.760889
0.121183
0.317626
0.832928
0.893728
-0.566804
0.177952
-0.736434
-0.880304
-0.011907
0.184986
-0.630507
0.536345
0.299420
-0.169217
0.606205
-0.682639
0.775992
0.424818
-0.020638
0.837771
-0.619624
0.336341
-0.982633
0.192452
0.136553
0.460152
0.378199
0.048690
-0.181853
-0.108466
-0.357769
-0.758923
-0.091990
-0.875201
0.842332
-0.825710
0.568275
0.735402
-0.517432
0.038051
-0.257074
-0.269945
0.579112
0.478359
0.118361
-0.308543
0.292926
0.061755
0.183007
-0.660432
-0.131557
-0.526647
0.438979
-0.335276
-0.371498
-0.169113
-0.648617
-0.515933
0.587937
8.357047
-0.620697
-0.393947
0.929288
-0.733077
0.702511
0.269779
-0.622620
0.650376
-0.569800
-0.410573
-0.058827
-0.685848
0.819278
-0.164394
-0.376109
0.135371
0.023411
0.504646
-0.118675
-0.200672
0.295852
-0.481197
0.129126
-0.621937
0.680791
-0.104491
-0.903864
-0.948767
-0.472183
3.934973
-0.267852
-0.898498
0.049596
0.179327
-0.651311
-0.399006
-0.926626
0.229423
-0.138214
-0.448424
-0.229515
0.078987
-0.706042
0.568487
0.681471
-0.924862
0.681405
-0.744539
0.450410
-0.718757
-0.684268
0.127259
-0.676412
0.049483
-0.308527
-0.676101
1.058949
0.579877
-0.703982
0.643437
0.227815
0.966184
0.093222
0.865314
0.372418
0.787708
0.978072
-0.869043
0.621316
-0.698816
0.212068
-0.550455
0.318738
-0.265076
-0.913681
-0.857970
0.619708
0.766526
-0.575275
0.344145
-0.150250
0.381109
0.648582
0.605724
-0.640466
0.470864
-0.730766
-0.275406
0.333833
0.928694
0.703022
0.603124
0.360824
0.533035
0.680276
0.956411
0.442676
-0.115493
0.459355
0.793146
0.295521
-0.532059
-0.560532
0.596023
-0.672036
0.922055
-0.989393
0.826930
-0.100597
-0.993730
-0.810617
-0.250424
-0.059644
0.221746
-0.532255
0.331189
0.910941
-0.948955
0.353522
-0.231465
-0.087334
0.551495
-0.636025
-0.140545
1.254425
0.161713
0.558165
-0.968725
-0.654476
-0.286332
9.633211
-0.688862
-0.421650
-0.788617
0.198529
-0.282317
-0.387038
0.420793
-0.165028
0.965259
-0.020572
0.322315
-0.652307
0.763560
-0.369819
-0.132795
0.254740
-0.103285
0.295485
-0.094372
0.514282
-0.124602
-0.195942
-0.397329
-0.062800
0.554638
-0.992771
0.050620
-0.551742
-0.962950
0.125177
0.918757
0.405595
-0.394968
0.711935
-0.539029
0.276367
0.783760
0.754372
-0.426341
0.012751
-0.791823
0.275530
-0.395591
-0.012514
-0.613473
0.204206
0.914009
0.666971
0.846460
0.106341
-0.394584
-0.302129
-0.369550
0.645868
0.445471
0.700075
-0.795742
0.627597
-0.728167
0.626052
0.483877
0.946673
-0.866480
-0.285084
0.829073
-0.764611
-0.699166
0.932352
0.159629
-0.053790
0.414419
0.324066
-0.718428
-0.829332
0.595514
0.650180
0.839959
-0.559108
0.821894
-0.639248
0.736076
-0.502110
-0.616599
0.684316
0.567992
0.696802
0.801572
0.817545
-0.191677
0.371223
-0.329124
-0.082183
0.509749
-0.631414
-0.981623
0.593186
0.018484
0.737465
0.098144
0.455528
8.949025
0.311082
-0.995779
0.202916
0.194339
-0.268109
-0.612727
-0.006541
0.983828
-0.015526
-0.038122
0.857213
0.130675
-0.976148
-0.275523
0.279084
0.540911
-0.077910
-0.801677
-0.254981
-0.120735
0.737142
0.810124
0.612904
-0.383917
-0.164197
0.921474
-0.942108
0.768110
0.521547
-0.052149
0.296815
-0.211574
-0.884399
0.605213
0.097197
0.973396
0.155641
-0.506707
-0.233161
0.117929
-0.897258
0.727124
0.601087
-0.846102
0.069208
0.124542
-0.929991
0.340422
-0.837511
-0.698908
0.290667
-0.982760
0.897695
0.204418
0.284512
-0.312931
-0.078957
5.138520
-0.831571
-0.968229
0.503376
-0.227545
-0.583727
-0.980580
-0.844795
0.249260
0.158566
0.385172
-0.255904
-0.812606
-0.039595
-0.365452
-0.022732
-0.321513
-0.764988
0.727114
0.844399
-0.727985
-0.766384
-0.106936
0.537959
0.749016
-0.364345
0.991090
-0.550874
0.003685
0.002789
-0.611072
-0.438734
-0.380307
0.760258
-0.667478
0.153072
0.012179
-0.420133
-0.615544
0.685467
-0.289415
0.309989
-0.757351
0.261074
-0.277496
0.168132
-0.261329
0.333279
0.872688
0.430643
0.798783
-0.198554
-0.918502
0.943477
0.611487
-0.337724
-0.860767
-0.693098
0.714918
-0.179037
0.547038
-0.654900
-0.655899
0.664379
-0.789156
-0.187226
0.432843
-0.213508
0.167463
0.568672
0.637234
0.169412
0.240284
0.949639
-0.863840
0.835523
0.126433
0.743540
0.810171
0.721749
-0.718712
0.989059
0.118036
-0.454316
0.361694
0.502456
0.021252
0.543926
-0.710419
0.628274
0.939210
-0.052048
0.580509
-0.201782
0.570064
0.276915
-0.630029
0.748379
-0.220134
0.074599
-0.140527
-0.922768
-0.294527
-0.827839
0.191822
0.166697
-0.608034
0.416202
0.525243
0.343283
-0.150529
0.277315
-0.243982
-0.668414
0.960820
0.183675
-0.786729
0.894229
-0.995603
-0.482701
0.560507
0.181959
0.660041
0.696403
0.303347
0.153211
-0.970163
0.772522
-0.211195
-0.794882
-0.145228
0.819973
-8.972519
-0.608665
-0.088025
-0.526429
0.939365
0.738514
0.539156
-0.691493
0.340570
-0.542021
0.774163
0.020413
0.793968
0.494698
0.800232
0.110634
-0.582800
0.118330
0.625507
-0.009885
-0.112919
-0.234749
-0.679830
0.101080
0.041519
-0.905481
0.640732
-0.358973
-0.924306
0.261403
0.000301
-0.261688
0.406892
0.699594
0.904142
0.588570
0.758161
0.897495
0.673088
0.748394
0.595917
0.480746
0.267020
-0.754450
0.669743
0.661895
0.339383
-0.600561
0.621972
-0.171152
0.530365
0.314972
-0.210952
0.566531
0.693155
0.499917
0.142955
0.626079
0.546747
0.891612
0.368046
-0.837037
0.576340
0.269147
0.024970
0.619195
-0.962111
0.217858
0.913203
0.623279
-0.250945
0.664646
-0.369060
-0.470216
-0.791954
-0.934246
0.143193
-0.416846
0.402622
0.668061
-0.021879
0.979333
-1.114879
0.160044
0.195802
-0.982044
-0.831436
0.785681
0.928129
-0.117476
0.081324
-0.249092
0.822246
-0.274801
0.180036
0.651461
0.535366
0.602485
-0.063507
0.630373
0.455849
-0.231257
-0.565023
0.783197
-0.762991
-0.595394
-0.763646
-0.228901
-0.834980
0.241980
0.137949
0.972795
0.784486
-0.085424
0.656492
-0.821472
0.669224
0.017965
0.375244
0.306914
-0.239993
0.295242
-0.755924
0.811848
-0.806479
-0.071734
0.818636
-0.556769
0.994502
-0.942681
0.972272
0.705497
-0.982726
0.301240
-0.577611
-0.671709
0.385314
0.202728
-0.127690
0.373477
-0.854803
0.480200
-0.540195
-0.355414
-0.187221
0.411470
-0.585369
0.743152
0.416683
0.351088
-0.442488
-0.323162
-0.513332
0.401632
-0.168575
-0.145751
0.679818
0.283161
-0.270767
-0.467291
-0.692067
0.067413
-0.088410
-0.464368
-0.565773
-0.254402
-0.617234
-0.750518
-0.678168
0.657797
-0.124137
-0.140618
0.317515
-0.507677
-0.717569
-0.917635
0.176649
0.445701
-0.842102
0.578478
-0.063116
-0.767305
0.891777
0.813708
-0.543658
0.885391
0.208490
-0.188934
0.238287
-0.273405
-0.129266
-0.730335
-0.459007
0.243654
-0.018212
1.072797
-0.953439
0.102908
0.952138
-0.079428
0.289689
0.647536
-0.685360
0.253947
0.830916
-0.071148
-0.688428
0.678207
-0.954981
0.593884
0.931748
-0.059854
-0.372697
0.403829
0.774543
0.290017
0.364973
-0.139570
0.612890
-0.748412
0.879151
0.945625
-0.156052
0.013634
-0.733967
0.497459
-0.149576
-0.735121
0.439300
-0.020394
-0.278666
-0.677221
0.056739
0.306805
-1.078471
-0.704841
0.315015
0.664702
0.682468
-0.825903
0.081686
0.420880
0.511692
-0.010395
0.320063
0.159121
-0.250648
-0.592438
0.824728
-0.322853
-0.272957
-0.802962
0.969911
0.022834
0.867527
-0.404006
-0.237908
0.642516
-0.262285
-0.336980
0.881821
-0.650942
0.074113
-0.542135
-0.021184
0.784663
0.281004
0.248908
0.221725
-0.676324
-0.768278
-0.175234
0.102534
0.560334
-0.130164
0.058403
0.340725
-0.185810
-0.899545
0.817847
-0.736620
0.764488
-0.883775
-0.810152
0.778538
0.798099
0.548555
-0.666718
0.532408
-0.896035
0.708954
-0.029957
0.520359
0.072532
-0.744774
-0.944008
0.465592
0.043143
0.615775
-0.661632
-0.504024
-0.455181
-0.248828
0.206724
-0.303155
-0.838242
-0.692270
0.027553
0.555971
0.587911
-0.079010
0.907685
-0.425378
-0.833400
-0.159125
0.660732
-0.624304
0.935693
-0.818156
0.139993
0.613237
-0.581132
0.743661
-0.406699
0.144833
-0.713850
0.389917
0.920496
0.682427
0.909886
-0.767592
0.757905
0.143645
0.627432
-0.180671
0.429919
0.613786
-0.365459
-0.521110
-1.544744
0.317654
-0.323215
-0.892723
0.690915
-0.393249
-0.747915
-0.660882
0.065540
0.761701
0.111421
0.014058
-0.991155
-0.551994
0.206385
0.934569
0.796779
-0.065734
0.193355
0.776007
0.925307
-0.375470
0.211897
0.622354
0.667750
0.078488
0.571210
0.114626
-0.811825
-0.969126
-0.053708
0.780851
-0.769644
0.297546
-0.040412
-0.874913
0.636388
0.852867
0.301990
-0.137297
0.053138
0.601242
0.867001
-0.382795
-0.254764
-0.903274
0.646152
0.791416
-0.397591
-0.923202
0.746366
0.479563
0.825960
0.978095
-0.216830
0.098059
-0.763093
0.734777
-0.139584
0.190952
0.032910
0.780031
0.991203
-0.794755
-0.856173
-0.946739
-0.073880
0.411473
0.189319
-0.642277
0.473160
0.019692
0.164282
0.646419
0.470732
-0.386316
0.636127
0.594356
-0.969617
0.123869
0.198705
-0.025106
0.033614
-0.552316
-0.703319
0.376297
0.994104
-0.027922
-0.868213
0.633045
-0.277677
0.426273
0.895462
-0.395100
-0.696010
-0.085781
0.311955
-0.772415
-0.227549
-0.742329
0.476718
0.201066
0.683238
-0.997139
-0.485334
0.349198
0.148469
-0.511407
-0.651374
-0.490536
0.060693
0.580855
-0.847799
-0.498441
-0.971996
-0.914955
-0.148941
0.596267
0.469583
0.809817
0.663747
0.017451
-0.866519
-0.317778
-0.121754
0.227055
0.260901
-0.864399
-0.927160
-2.024613
0.793462
-0.831483
0.589930
-0.327633
0.451003
-0.303306
0.208244
0.259585
-0.679273
-0.753648
-0.036017
0.569103
-0.263951
-0.834866
-0.816286
-0.825556
-0.368747
-0.680132
0.756723
-0.476134
-0.707276
0.223097
0.626812
0.840345
0.917342
-0.363151
0.828447
0.302198
-0.781594
0.528747
-0.552971
-0.700921
0.437577
0.825774
0.477155
-0.198960
0.938376
-0.749878
-0.752014
0.532563
0.463213
0.466560
0.094404
0.177379
-2.378167
0.208967
0.365546
-0.806211
0.774166
0.721794
0.406867
0.488948
-0.420458
0.366004
-0.052329
-0.573342
-0.993235
-0.600785
0.309411
-0.510756
0.991426
-0.944828
-0.234497
0.964958
-0.102073
-0.508659
-0.493137
0.780614
0.108081
-0.365428
0.133062
0.070745
-0.448836
0.547843
0.831531
-0.066714
0.395881
0.913151
-0.787602
0.732030
-0.598150
-0.411321
0.654234
-0.253231
0.437853
0.126442
0.906416
0.149906
0.012790
-0.356870
-0.518673
0.274691
-0.596707
-0.555216
0.591650
-0.533940
0.047992
0.384652
-0.758283
0.476882
-0.668438
-0.346026
0.969442
-0.420090
0.368314
-0.382178
-0.130898
0.217618
0.544960
0.701017
0.128682
-0.056167
0.747984
-0.323716
0.180704
-0.899721
0.561669
0.656123
0.140957
-0.632166
-0.815693
0.769659
-0.334237
0.821908
-0.411064
1.035650
-0.218181
-0.670546
-0.849188
0.558044
0.648313
-9.970048
0.685536
0.295510
0.033217
0.834706
-0.862867
0.533957
0.942671
0.789576
-0.071948
-0.446944
-0.228281
0.559009
-0.407816
-0.302135
0.637160
-0.971652
-0.139969
-0.363596
0.028441
0.987211
-0.188904
-0.561708
0.119702
0.851500
-0.390283
0.819103
0.886821
-0.514256
-0.212314
0.501043
0.698162
0.628555
0.175452
-0.059975
-0.266602
-0.231481
-0.409453
0.944396
0.701310
0.079918
-0.020629
0.861090
-0.096423
-0.258941
0.670679
-0.077825
-0.640831
0.309442
-0.159496
-0.493675
0.562068
0.774609
-0.374596
-0.147235
-0.923576
0.006259
-0.100706
0.510248
-0.165170
0.772679
-0.169565
0.333103
0.180399
-0.201979
-0.047298
-0.673528
0.915131
0.994110
0.823739
0.970694
0.633717
-0.844597
0.212159
-0.956354
0.033265
-0.068066
0.683567
-0.685306
0.149687
-0.915321
-0.735673
0.533354
0.510673
0.584216
-0.809047
0.578656
-0.199673
-0.903867
0.081080
-0.191898
0.060198
0.755092
-0.042686
-0.684396
-0.142391
-0.330233
-0.562923
0.970891
-0.061400
0.346295
-0.587803
0.177687
-0.620828
-0.498683
-0.236611
-0.957502
-0.602497
-0.408581
-0.581966
0.256783
0.766807
0.270626
-0.093648
0.128378
-0.502852
-0.746523
0.426582
-0.733601
0.252200
0.570278
0.070772
0.990434
0.218801
0.255702
0.813719
0.664007
-0.732021
0.768772
-0.236300
0.614382
-0.990724
0.175107
0.984034
-0.769202
0.352937
0.876151
0.820234
-0.266499
0.894113
-0.877401
-0.657084
0.490000
0.542343
0.359395
0.442532
-0.907504
-0.828753
0.732100
-0.016593
0.567339
-0.328047
-0.441606
0.021808
-0.812080
0.115209
-0.231982
0.676672
-0.380068
-0.442949
0.012711
-0.723160
-0.352659
0.319863
-0.892421
-0.355466
-0.416169
-0.914533
-0.596714
-0.591747
-0.706206
-0.680960
0.989662
0.627140
-0.886567
0.471137
-0.242393
0.965939
-0.103214
-0.020664
-0.490231
-0.607908
0.132813
0.392949
-0.928174
0.064005
-0.373836
0.641461
0.693633
-0.145922
-0.394925
-0.959504
-0.142959
0.898623
0.688674
0.072232
-0.954191
0.082261
0.275582
0.628108
-0.627419
-0.386730
-0.695069
0.051471
0.635907
-0.302462
0.060787
-0.327788
-0.283999
0.392537
-0.423386
-0.428903
-0.383059
-0.866173
0.956019
-0.739496
-0.941435
-0.394476
0.001956
0.210637
-0.154931
-0.213653
0.868935
0.856265
-0.467857
-0.375943
-0.695035
0.188961
0.568218
0.040388
-0.797862
0.189030
0.664360
-0.633250
0.846340
0.972673
0.957426
0.125525
0.677645
-0.517303
-0.236506
0.890032
-0.409116
-0.521424
0.786017
0.224604
-0.230148
-0.643378
-0.771808
-1.074372
-0.915089
-0.736651
0.897679
0.394655
-0.784729
0.241284
0.137193
0.652631
0.473829
0.919239
-0.902924
-0.266969
-0.497817
0.798617
0.749418
0.240585
-0.228067
-0.755472
0.240010
-0.523616
-0.541530
0.691295
-0.395359
0.736161
-0.242955
0.177128
0.154610
0.424730
0.194821
0.729818
0.399674
-0.206423
0.098290
0.003623
-0.051912
0.170720
0.862694
-0.085414
0.726546
-0.104277
-0.758769
0.953742
0.499477
0.545708
0.730500
-0.039196
-0.903773
0.630380
0.343072
-0.363524
-0.612039
-0.778945
-0.833283
0.849854
0.344431
0.146029
0.676150
-0.319739
-0.305996
-0.456639
0.516968
0.053396
-0.419942
0.259924
-0.364894
-0.765487
-0.869611
-0.001902
-0.900983
0.254521
-0.468981
0.787494
0.445105
-0.001183
-0.623282
-0.563094
0.686710
0.994726
0.367032
-0.786548
0.182622
0.725108
0.568791
0.830680
-0.209165
0.953787
-0.576097
0.779418
-0.079822
0.168540
-0.336259
0.495929
0.293627
-0.205289
-0.902555
0.293245
-0.464372
-0.503152
0.522840
0.670941
-0.202897
0.306282
0.346391
0.836412
0.745387
-0.269820
0.560889
0.380549
-0.486571
0.009968
0.982001
-0.868155
-0.127783
-0.353708
-0.021627
-0.855924
0.728865
0.852316
-0.860917
0.641573
-0.247793
0.952726
0.829521
-0.199014
-0.848440
-0.174649
-0.697451
-0.780133
-0.422586
0.309925
0.949979
0.865897
-0.401029
0.324041
0.237371
-0.554988
0.012092
0.710487
-0.434045
0.098745
0.317257
-0.866582
0.371319
0.358703
0.422231
0.050164
-0.731648
-0.899262
-0.111302
0.169183
0.558227
0.085748
-0.363912
-0.500976
0.405559
-0.992855
-0.537299
0.503214
0.292410
-0.324566
0.194223
-0.064226
0.642928
-0.870537
0.596496
0.262052
-0.895146
0.670407
-0.764038
0.195096
-0.523212
0.717078
-0.224507
-0.427021
0.725395
-0.548149
-0.293240
-0.922012
-0.884649
-0.226703
-0.146400
-0.431481
-0.506136
-0.424938
-0.372959
-0.752492
0.164485
0.231630
-0.330807
0.888921
0.181097
0.847647
-0.718935
-0.096457
0.847791
0.735784
0.480876
0.585615
-0.482468
-0.934479
-0.343721
0.514115
-0.615506
-0.308499
-0.028571
0.643748
0.769416
-0.780825
-0.743346
-0.578963
0.666829
0.481561
-0.466426
-0.094117
-0.362631
-0.602580
0.663612
0.854822
-6.255922
0.117729
-0.909467
-0.526059
0.330794
-0.055148
-0.125775
-0.366702
0.772974
0.567010
0.776692
-0.788527
0.207199
-0.416305
0.509539
-0.828008
-0.010004
-0.680394
-0.013645
-0.073328
0.503480
-0.396657
-0.622146
0.200494
0.388692
-0.420340
-0.194579
-0.814193
-0.847013
0.680461
0.616886
0.556867
0.634352
0.228039
0.796668
0.657349
-0.311262
-0.465108
-0.427515
8.574407
-0.705638
0.475168
0.221663
0.306123
-0.065730
0.416680
0.766389
-0.469877
-0.510382
0.013431
0.425693
0.064142
-0.600887
0.351796
-0.370317
-0.830242
-0.012916
-0.689024
8.185819
0.857819
-0.933781
-0.551061
0.491551
0.861232
-0.910284
0.857416
-0.276884
0.631007
0.518990
0.731286
-0.493878
0.622740
-0.311846
-0.441233
4.627353
0.723496
-0.833376
-0.204795
0.509915
-0.003109
0.952744
0.258483
-0.222151
0.796250
0.687098
-0.488462
0.974696
0.911669
0.745273
-0.150322
-0.451085
0.146924
-0.455805
0.508495
0.689168
-0.296299
-0.612117
0.784324
0.120768
-0.411480
-0.008364
0.135344
0.584962
-0.180090
0.280298
0.945920
0.733243
0.707901
0.687595
0.864047
-0.400622
-0.010111
0.419914
-0.625728
-0.713964
-0.814750
-0.094833
0.612076
0.185965
0.981813
-0.260764
0.972556
-0.799741
0.586187
0.817910
0.669922
-0.049479
-0.571777
0.992905
0.903345
0.391511
-0.882341
0.955684
-0.868882
-0.153290
-0.564092
-0.260672
0.225985
0.449946
2.443805
-0.820102
0.792772
-0.497578
0.890020
-0.123818
0.354582
-0.033633
-0.854495
-5.507931
-0.418272
0.533495
-0.277344
-0.068409
-0.140003
-0.826978
-0.549659
0.029226
-2.369155
0.440254
-0.801082
-0.588804
0.183383
0.334709
0.550360
0.949481
-0.209552
-0.399139
0.910325
-0.872551
-0.223470
0.569086
-0.745029
-0.512992
-0.151599
-0.328617
0.223184
0.860739
0.770264
-0.726354
-0.394598
-0.967846
0.868559
0.671841
-0.728545
-0.812499
0.785565
0.060946
0.853596
5.679613
-0.358317
0.857786
-0.100064
0.255196
0.687854
0.752633
0.814948
-0.911141
-0.841193
-0.063873
-0.883825
0.824211
-4.379944
0.492636
-0.927921
0.576678
0.774174
-0.763025
-0.874590
-0.561048
0.584345
0.264158
0.607573
-0.428190
-0.865166
0.586270
0.413267
0.706831
0.852429
0.799018
-0.079996
-0.466042
0.187337
-0.430678
0.659607
-0.099214
0.510194
0.975064
-0.451944
-0.218314
0.499801
0.589065
-0.397227
-0.989208
0.273797
0.441190
-0.026227
-0.207268
0.351381
-0.835474
0.696655
0.028401
-0.757378
-0.056205
0.925892
0.454407
0.260979
0.199222
-0.914221
0.077369
0.847722
-0.128130
0.358384
-0.485440
0.683059
-0.287328
-0.014732
0.289429
-0.482254
-0.644122
-0.407950
-0.445667
-0.143138
0.251526
-0.285813
-0.578869
-0.283365
-0.105504
-0.634914
0.460803
-0.394730
-0.621580
0.297362
-0.124789
0.392578
0.578636
0.902964
-0.945460
0.446890
0.556831
-0.068234
-0.472505
0.922432
0.336558
0.511669
0.969111
0.788574
-0.621413
0.695190
-0.722125
-0.862480
-0.035844
-0.521022
0.009229
0.877860
-0.795464
0.294165
-0.623051
0.045744
-0.218354
0.294677
0.344171
-0.957988
-0.000115
0.304589
0.253826
0.770564
-0.269733
-0.194058
0.360820
-0.586390
-0.530596
0.125422
-0.694471
-0.776892
-0.884720
0.317829
-0.584860
-0.678100
-0.682610
-0.637142
0.894196
-0.231181
-0.602070
-5.354662
0.411684
0.957108
-0.725851
-0.597353
0.815286
-0.311140
0.936358
0.192728
-0.149279
0.244274
-0.185334
0.178698
0.359807
-0.727378
-0.594987
0.349629
0.124979
-0.889211
-0.055556
-0.495540
-0.296425
0.297996
-0.407843
-0.086407
-0.427128
-0.151873
-0.014323
-0.957766
0.965317
0.066065
0.781616
0.754605
-0.443227
0.054030
-0.323440
-0.018060
0.941113
-0.316716
-0.907424
-0.191720
-0.540341
-0.794971
-0.938169
-0.392628
0.437310
-0.217080
0.384666
0.521844
-0.515419
-0.356066
0.932262
-0.219634
0.114087
-0.690590
-0.119327
-0.834338
0.686730
0.923384
0.974665
0.624035
-0.791519
0.060896
-0.367936
0.670266
0.344436
0.164002
0.285210
-0.469627
0.524761
0.043805
0.995261
-0.796182
-0.244478
0.390819
0.537665
0.676709
0.273527
0.595887
0.756652
0.331410
-0.747469
0.120758
0.170956
-0.613226
0.827939
-0.042639
-0.063591
0.987381
-0.601492
-0.867610
-0.739955
-0.048650
-0.353468
-0.005638
-0.309890
0.303938
1.107969
0.762074
-0.008859
0.427947
0.956038
0.909589
0.588734
-0.442044
-0.052202
0.184809
0.877077
-0.216419
0.383901
-0.775830
-0.587477
-0.827881
4.654755
0.510851
-0.539957
0.269439
-0.425015
-0.557832
-0.925235
-0.944128
6.405369
-0.940303
-0.160694
0.949234
-0.631121
0.220740
0.081260
0.286152
-0.315949
0.179969
-0.092667
-0.817246
-0.714791
0.965145
-0.822763
0.182467
0.610844
-0.882001
-0.691530
0.744250
0.338819
0.550980
-0.020225
-0.854133
0.852174
-0.494194
-0.283284
-0.552291
0.540714
-0.136597
0.097724
0.537756
0.021823
0.180947
0.356837
-0.384055
-0.112404
0.725095
-0.154868
0.766145
-0.664510
-0.801624
-0.297737
-0.454555
0.782654
-0.144725
-0.399764
-0.795814
-0.870559
0.257840
-0.498905
-0.720233
-0.427282
-0.221331
-0.932281
-0.369883
0.187970
0.484282
0.178116
0.312534
0.566090
0.004768
-0.751921
0.262404
-0.231979
0.813468
0.407196
-0.773097
0.255049
0.201356
0.603324
-0.231072
-0.996044
0.862568
-0.470488
0.828850
-0.554699
0.078933
-0.005205
0.747511
0.885696
-0.179254
-0.647639
-0.159942
-0.294057
-0.295254
-0.795794
-0.865597
0.635751
-0.252325
0.926450
0.302538
-0.264503
0.780435
4.944491
0.770778
-0.186857
-0.447758
0.576113
-0.123584
0.569456
-0.245144
-0.474233
-0.711996
0.683620
0.721940
-0.686233
-0.868123
0.438468
0.269381
-0.129795
-0.105923
0.070517
-0.576210
0.991043
-0.708243
-0.402566
0.640125
-0.999999
0.179077
0.025126
0.568250
-0.266031
0.130215
-0.873282
-0.180613
0.040323
-0.773664
0.970668
-0.442343
0.903039
0.346676
-0.749603
-0.668071
0.964031
0.622790
-0.912742
0.589048
0.040517
0.187561
0.106836
-0.167223
-0.693955
0.451804
-0.139249
-0.487622
-0.073761
0.026891
-0.823749
-0.143093
0.316519
0.194041
0.279900
0.216996
0.797241
-0.190322
-0.355225
-0.874635
-0.851629
0.534507
0.143526
0.637272
0.590249
0.629166
0.384178
-0.177495
0.898106
0.323049
-0.549198
-0.598637
-0.297931
-0.782496
-0.551767
-0.838237
-0.664446
0.923775
-0.895333
-0.035567
0.656623
0.676233
-0.470951
0.128973
-0.637818
-0.092046
-0.212549
-0.331988
0.014960
-0.315806
0.402392
0.135624
0.274560
0.213310
0.429772
0.008815
-0.675776
0.808587
-0.220445
0.296107
0.436208
-0.833751
-0.108631
0.458003
-0.836096
0.929399
0.245150
-0.514724
-0.257888
0.594124
-0.613393
-0.059910
-0.712877
-0.887563
-0.441898
0.344998
0.836154
0.471768
-0.724776
0.731854
-0.754073
-0.718923
0.935065
-0.056275
0.698499
0.171828
0.290722
0.053946
0.391062
-0.135209
0.584623
0.937234
-0.413380
-0.110900
-0.965698
-0.662107
-0.011296
-0.901492
0.050652
0.474284
0.582578
-0.841726
0.848507
-0.714906
0.648438
-0.080264
0.026190
0.411919
0.407852
-0.724381
0.143213
-0.611039
-0.445326
0.094749
-0.155861
-0.232893
0.428530
0.688298
-0.010957
-0.495080
0.754143
0.915152
0.188120
0.230672
-0.846983
0.385115
0.088538
0.280176
0.027984
-0.372976
0.020006
-0.815764
-0.133540
0.947707
0.018239
-0.601824
-0.233168
0.678742
0.706820
-0.153529
-0.758026
0.051595
-0.180350
0.628339
0.626867
0.747660
-0.113297
-0.696505
-0.631770
-0.066432
-0.457161
-0.903051
0.829840
0.926875
0.506992
0.813507
-0.987044
0.907815
-0.994368
-0.974861
-0.659517
0.961979
-0.765632
0.030297
-0.110673
0.903879
0.561612
-0.488920
0.751134
0.995698
0.660996
-8.337491
-0.334434
0.346311
0.849335
0.543995
-0.302701
0.131607
-0.273916
0.475997
-0.987787
-0.463669
0.643599
-0.940625
0.807293
-0.805778
-0.351521
0.996436
-0.304795
0.603082
-0.914490
-0.354518
0.993194
-0.197250
-0.698883
0.751072
0.535982
-0.193419
-0.540197
0.837606
-0.771380
-0.214688
-0.738776
-0.759049
-0.801815
0.086483
0.103813
0.890539
-0.057326
-0.975578
-0.359802
-0.812943
0.658759
-0.395341
0.721752
-0.119544
-0.727335
0.461183
0.020169
-0.835766
0.452873
-0.503724
0.916355
-0.993174
0.284469
0.742845
-0.219679
-0.066235
0.759126
-0.170778
-0.851425
0.530645
-0.810286
0.034497
-0.000565
-0.421325
0.266149
-0.559797
-0.952003
0.629465
0.918310
0.508997
-0.900597
-0.551572
-0.901293
0.436292
-0.698016
0.279151
0.955887
0.667083
0.370432
-0.783207
-0.452900
-0.695592
-0.651971
0.486985
0.247968
0.661561
0.106219
-0.827655
0.926704
0.697010
-0.124324
0.019884
-0.994208
0.359283
0.019658
0.007808
0.092457
0.127426
-0.511941
-0.318782
-0.988402
0.123024
-0.231311
-0.835183
0.064076
0.781387
0.041928
-0.043417
0.497221
-0.055748
-0.937677
-0.531119
0.899553
0.413463
-0.916145
-0.593931
-0.222906
0.403881
0.779147
0.373392
0.524041
-0.590831
0.018460
-0.855714
-0.621314
0.231451
0.227561
-0.441295
-0.436835
-0.903776
0.934525
-0.477590
-0.725517
0.012726
-0.879937
-0.275273
0.282667
-0.180984
-0.065557
-0.175254
0.628584
-0.267179
0.372466
-0.198730
0.145628
0.171813
0.647690
-0.371251
0.581632
-0.636379
0.373306
-0.190783
0.692164
0.050227
0.257418
-0.478158
0.043857
-0.343301
-0.225896
0.542724
0.839573
0.980950
0.004711
-0.524216
-0.577313
-0.537049
0.317084
0.336259
0.860997
-0.777875
0.251747
0.044470
-9.300086
0.766303
0.824713
1.466534
0.446860
0.874589
-0.034106
0.557653
0.706625
0.594915
0.170448
0.328527
0.954256
-0.802780
-0.024753
-0.245934
0.848875
0.659250
-0.436971
0.614706
4.539389
0.981466
-0.104561
0.330815
-0.629862
0.838155
-0.447672
-0.944205
0.601281
-0.542581
0.635420
0.230361
0.258258
0.434987
0.937308
-0.362410
-0.035014
0.445729
-0.242689
0.250533
0.277214
0.110201
-0.802602
0.484629
-0.431707
0.790124
-0.926243
0.345681
-0.262522
0.301367
0.365309
0.798593
-0.909465
0.658063
0.370015
-0.286740
0.340598
0.734188
0.192470
-0.679932
0.457212
0.665187
-0.668918
0.903902
0.847100
-0.651766
-0.555632
0.672957
0.636615
-0.080506
0.031996
0.331336
0.440166
-0.218695
-0.934658
0.859548
-0.540159
0.110051
-0.071950
0.338756
0.326180
0.123269
0.811207
0.046306
-0.459951
-0.281134
-0.173266
-0.431845
-0.260261
0.864552
-0.397743
-0.376322
0.773746
0.033417
0.620377
0.950132
-0.193742
0.489985
-0.933064
0.625734
0.248655
-0.386625
-2.524145
-0.528041
-0.136955
-0.328700
-0.334138
1.216286
0.767633
-0.684709
-0.953334
0.175624
-0.670424
-0.918238
-0.793181
-0.615693
0.507117
-0.859571
0.859436
0.078677
-0.118312
-0.121612
-0.003445
-0.290688
0.610989
0.937770
0.440726
-0.149972
-0.213576
0.492805
0.454579
-0.102911
0.862602
-0.652331
-0.599613
0.692517
0.094252
0.552129
-0.449677
-0.919398
-0.695873
-0.303465
-0.223180
0.068801
-0.990620
-0.793197
0.108651
-0.114279
0.433197
0.847518
1.076329
0.962860
-0.884229
0.862231
0.335830
0.562673
-0.100438
-0.849349
-0.286146
-0.722312
-0.504286
-0.896880
-0.094325
0.142108
0.979093
0.955710
0.920514
-0.200141
0.614755
0.972776
-0.964347
-0.195521
-0.248744
-0.472609
-0.538134
-0.599400
-0.124732
-0.755165
0.983911
0.624871
0.032508
-0.035792
0.792665
-0.671269
0.264101
0.115627
-0.978317
-0.603541
0.456956
-0.123308
-0.646251
0.377072
0.153105
0.183467
-0.374390
-0.130478
-0.446296
0.664383
0.745948
-0.567184
0.153745
-0.984134
-0.362537
-0.916219
0.379561
-0.374274
0.432089
-0.406119
-0.521676
-0.182749
-0.702754
0.134762
-0.601572
0.882350
0.117953
-0.185653
-0.643904
-0.438137
0.340901
0.379171
0.157009
0.691309
-0.286515
-0.895268
0.720315
-0.652060
0.762249
-0.840485
-0.211996
0.748023
0.678130
0.476839
-0.323372
-0.666669
-0.296468
0.873468
-0.621591
0.215377
-0.788072
0.056545
-0.840993
0.202003
0.218806
0.761564
0.846032
-0.862214
0.229707
-0.758896
-0.606795
-0.567065
-0.497183
-0.973210
0.657598
-0.005422
0.015316
0.142351
0.729114
-0.597749
0.962429
-0.749634
-2.990549
0.477993
0.074886
0.079575
0.202457
0.994804
-0.803319
-0.733686
0.525440
-0.498727
0.495120
-0.026980
-0.641570
0.749066
0.855941
-0.841507
0.991273
-0.697577
0.198582
-0.013011
-0.921834
-0.022524
0.088369
0.236511
-0.985553
-0.183907
0.187884
-0.978077
0.765665
0.017846
-0.083611
0.485122
0.085353
-0.660189
0.726998
-0.105072
0.364773
0.464093
0.767382
0.222342
-0.415232
-0.739111
0.631428
0.980346
0.106247
-0.972993
0.062880
0.323780
0.370821
-0.040523
-0.888593
0.891615
0.164739
0.132476
-0.327865
0.468398
-0.110985
-0.257322
0.571301
0.573980
-0.891948
0.962992
0.579882
0.834874
0.963978
0.725796
-0.608852
0.132286
-0.860377
-0.655565
0.035661
0.433686
0.495878
-0.775512
-0.069622
-0.330363
0.962384
0.901491
-0.418394
-0.361116
-0.587790
-0.901342
-0.744024
0.699871
0.111153
-0.241670
-0.013559
-0.673543
-0.486748
-0.827697
-0.697836
-0.970144
-0.087314
-0.225848
0.854909
0.877297
0.779920
-0.359109
0.273585
-0.312590
0.282835
-0.817920
0.065349
0.632858
-0.855125
0.897875
0.069915
-0.595974
-0.939017
0.394778
0.669029
0.053976
0.389021
-0.652053
-0.516656
-0.532453
0.783415
0.186538
-0.785919
-0.122940
0.535416
-0.324693
0.284946
0.502239
-0.419658
-0.248792
0.158983
0.587071
-0.383650
-0.644797
-0.532511
0.406480
0.618090
-0.835812
-0.236721
0.028888
-0.329131
0.689393
-0.663056
-0.444714
0.181435
0.173877
-0.907685
0.966499
0.955516
-0.331912
0.184333
0.046992
-0.182367
0.490264
0.314224
0.062595
-0.163579
-0.130213
-0.879381
0.246465
-0.191645
-0.367623
-0.334250
0.671689
-0.469900
-0.190864
0.079302
0.276399
-0.850160
0.847691
-0.458069
-0.629475
-0.621135
-0.283876
-0.228174
-0.644874
-0.589730
0.822110
0.707134
0.079704
0.825603
-0.398725
0.237322
0.525685
-0.012986
-0.109259
0.899463
-0.791745
0.810455
-0.518138
3.404196
0.217303
0.463213
0.540334
-0.147077
-0.036304
-0.740082
0.801014
0.759871
-0.442845
0.272534
-0.864651
0.944133
-0.961308
0.290808
-0.943232
-0.323599
0.824526
-0.967291
-0.784729
-0.818980
-0.538899
0.419137
-0.978995
-0.232602
0.154311
-0.118588
-0.788781
0.632626
0.647079
-0.602870
-0.761005
-0.762356
-0.947860
0.804145
8.707433
-0.405969
0.500649
-0.746859
0.980130
-0.908029
0.063859
-0.895278
0.989474
0.729956
-0.795878
-0.852461
-0.014288
0.099573
-0.174441
-0.534693
-0.059196
0.041715
0.175838
-0.549981
-0.538419
0.414473
0.405284
0.919757
0.609010
0.808395
0.003890
0.205184
-0.989098
0.469803
0.618977
-0.014651
0.478045
0.179893
-0.199612
-0.873235
0.345365
0.433676
-0.544390
-0.860335
0.755558
0.230660
-0.882068
0.372860
-0.463548
-0.814673
0.585266
0.260834
-0.231443
0.547219
-0.576982
-0.897795
-0.555755
0.019423
-0.265668
0.480464
-0.951086
-7.092129
-0.085853
0.283852
-0.082124
0.996662
0.747060
0.998353
0.197410
0.342439
0.751454
0.505565
0.212935
0.813125
-0.486425
-0.845795
0.523469
0.502070
-0.738762
0.891284
0.137326
0.278576
0.533188
-0.750849
-0.040951
-0.905696
-0.210834
-0.463069
0.277787
0.927636
0.201639
9.611445
0.902854
-0.526109
-0.559630
0.929001
0.594757
-0.071430
-0.179201
0.932675
0.667337
-0.587993
0.888434
0.480647
0.008118
0.081801
-0.783456
0.987024
0.502115
-0.084238
-0.824119
-0.965307
-0.997220
0.472021
0.946142
-0.623790
0.911899
0.885889
-0.141000
0.588552
-0.345254
-0.586372
-0.440374
0.413443
-0.645445
0.515126
-0.626955
-0.203684
-0.073212
0.625333
0.647791
0.987471
0.567199
0.106135
0.285227
0.689487
0.517334
-0.629304
-0.261058
0.326386
0.937462
0.874296
-0.257731
0.081595
-0.337426
0.273171
0.024678
0.492350
-0.310733
0.777995
0.855071
0.437628
0.211069
-0.074074
-0.540739
0.299137
-0.346153
0.037429
0.583689
0.738391
-0.549401
-0.635743
-0.805640
-0.540368
0.075899
-0.240349
-0.533481
0.394644
-0.061562
-0.274427
0.097254
0.070686
0.620269
0.763395
0.547182
-0.099124
0.891559
0.009641
-0.419949
0.652784
-0.026328
0.761194
0.927283
-0.969056
-0.963481
0.758302
0.342634
0.494795
-0.252742
-0.997342
0.700079
0.165546
0.672928
0.755095
-0.716236
0.138993
8.116393
0.025234
-0.767459
0.146612
0.597458
0.063722
-0.587056
-0.841548
-0.605195
0.941071
0.204323
0.693034
0.601894
-0.589772
0.295144
0.453655
-0.559576
-0.155197
-0.894648
0.666402
0.994911
-0.252935
-0.810219
-0.674898
-0.283894
0.206416
0.297157
-0.943062
-4.533345
-0.806931
0.748849
-0.761195
-0.985237
-0.462882
-0.697240
-0.214543
0.313470
0.404468
-0.540019
0.009461
0.406165
-0.072646
0.379020
0.271277
0.951183
-0.094404
-0.702298
0.819878
0.228356
-0.605642
-0.173344
-0.758786
0.473195
-0.296434
0.445468
-0.024634
-0.679154
0.200197
-0.053939
0.272037
-0.274090
-0.673564
0.257091
-0.243120
0.587905
0.999293
-0.365147
-0.332763
-0.227729
0.387568
0.860066
0.605702
0.093153
-0.602095
-0.827639
-0.005074
0.465795
-0.420531
-0.446473
0.880543
-0.410380
-0.514957
0.844764
0.033854
0.405942
-0.717496
0.267799
0.385961
-0.085245
0.162260
-0.780943
-0.477588
-0.750901
-0.550253
-0.020440
0.567563
0.831575
0.191837
0.463638
-0.426300
0.388508
-0.312549
-0.777030
0.283466
0.961088
-0.806551
0.627001
0.231308
0.551213
0.042263
0.641790
0.766173
-0.248289
-0.298809
-0.378051
-0.100139
0.888619
0.350059
-0.847681
-0.396048
0.221164
-0.553116
0.936370
0.632639
0.471598
-0.300683
-0.051700
-0.720767
0.376007
-0.658041
0.667221
0.698304
-0.617752
0.597247
-0.661219
0.472486
0.224407
0.536729
-0.368620
-0.811335
-0.692084
-0.729785
0.370463
0.312882
0.776011
-0.810246
0.443159
0.274027
-0.932955
-0.673400
0.798303
-0.540501
0.020221
0.633234
-0.886625
0.692788
-0.399830
0.696915
0.739730
0.389072
0.254575
-0.854336
-0.532318
0.359851
-0.789271
-0.171553
0.917380
-0.979739
0.932281
-0.091160
-0.996220
-0.082204
-0.219236
-0.864608
-0.322688
-0.931215
-0.590335
0.577907
0.675150
-0.225403
0.029218
0.042753
0.043847
-0.582840
-0.488082
0.707813
0.204368
-0.016333
-0.059169
-0.651555
-0.826495
0.882335
0.903601
0.947555
0.167586
0.482017
0.881821
0.730398
0.253702
0.225846
0.501507
-0.442329
0.629857
-0.476288
-0.346559
-0.392845
-0.082625
-0.751280
-0.815197
-0.022347
-0.905935
-0.400475
0.788227
-0.011580
0.556620
-0.657224
-0.187680
-0.859482
0.297982
0.928456
0.502936
-0.399951
-0.939189
-0.168279
-0.095168
-0.941415
0.954111
-0.255051
-0.118226
-0.761801
0.357198
0.200315
0.071846
0.253594
-0.405399
0.767540
0.241979
0.175616
-0.858713
-0.877613
-0.785118
-0.576501
0.942113
0.762478
-0.807917
-0.140622
-0.906184
0.464308
0.916872
0.499272
-0.607008
0.635155
0.410155
-0.066494
0.714825
0.575831
0.120070
-0.939695
0.542949
-0.743423
0.916466
0.678252
-0.108248
0.655776
-0.025414
-0.177759
-0.142007
0.209167
-0.129611
-0.466682
0.113991
-0.090605
0.353470
-0.565475
0.973799
-2.857353
0.448039
0.014522
0.212997
0.350928
-0.261602
0.507728
-0.208062
0.991225
0.258834
-0.002153
-0.594440
0.724271
-0.288614
0.522627
0.354959
0.694736
-0.123755
-0.265774
0.362975
0.843591
-0.996000
0.117668
-0.918192
0.303692
0.692740
-0.563373
-0.142216
0.005554
-0.467325
0.560218
-0.971521
0.397743
-0.384292
-0.508627
0.684019
0.677732
0.271830
0.817007
0.189420
0.526590
-0.107110
-0.729223
-0.058535
0.273739
-0.883150
-1.063723
0.871038
0.421765
0.689388
-0.635153
-0.605274
0.606452
0.662919
0.658566
-0.273871
-0.331858
-0.611855
0.454950
0.779689
0.996503
-0.407574
0.451613
-0.652194
0.542265
0.632860
-0.704423
-0.871757
-0.176385
-0.762748
0.888554
-0.361668
0.396000
-0.904126
-0.982622
0.360465
0.804794
0.854499
-0.415199
-0.995728
-0.409366
-0.350011
-0.498042
0.459544
0.458029
-0.079172
-0.039188
-0.000491
0.072672
0.639490
0.334104
0.056896
0.964519
0.126522
0.204556
0.407031
-0.906693
-0.658074
-0.502689
-0.035968
0.479632
0.334987
0.695608
0.306633
0.771117
0.478855
0.274644
0.382110
0.523418
-0.031426
0.606737
0.085930
-0.679270
-0.605409
0.950966
0.828851
-0.788944
-0.414462
0.694127
-0.225568
-0.305985
-0.512058
0.851587
0.087594
0.193576
0.735924
0.266471
-0.303115
0.379614
-0.329485
0.221495
0.703445
-0.424633
0.690999
-0.749225
-0.996322
0.519711
0.657671
0.226408
-0.637615
-0.133682
0.215386
-0.539158
0.194322
0.121733
0.677084
0.827260
-0.578414
-0.219672
0.628021
0.167710
0.581752
-0.453939
-0.607108
-0.656826
0.695707
-0.685875
-0.188877
-0.436989
-0.715188
0.259033
-0.214846
-0.744852
0.847800
-0.198010
-0.856216
-0.414357
0.588815
0.715908
-0.350132
0.828978
0.576218
0.697467
0.494848
-0.394078
-0.129689
-0.327828
-0.819997
0.824004
-0.295544
-0.008479
-0.258254
0.424968
-0.043933
0.578659
-0.763909
-0.255320
0.404495
0.469502
0.156055
-9.597712
0.842369
0.782753
0.366129
0.554194
-0.514928
0.268821
0.747383
-0.380067
0.185263
0.278588
0.784219
-0.812497
0.519937
-0.889650
0.650595
0.740064
0.400049
0.814111
-0.481225
-0.219911
0.463751
0.370701
-0.017583
0.776186
0.525796
0.812317
-0.526330
0.545184
0.535911
-0.704770
-0.371207
0.976984
-0.870612
-0.385806
-0.391188
-0.957855
-0.143917
-0.673655
0.162215
0.822333
0.091439
0.567101
0.066570
-0.946294
-0.539231
-0.232035
0.742485
-0.994841
-0.863732
0.474351
-0.975239
-0.692815
0.515525
0.067490
-0.637409
-0.501369
-0.592536
0.073116
0.332235
0.546866
-0.200592
0.176777
-0.926312
0.379576
-0.840432
-0.178499
-0.445390
0.752090
0.367910
0.517878
0.763745
0.305624
0.978099
-0.679620
-0.429745
0.083081
-0.520751
0.306965
-0.387888
0.350650
0.145156
-0.107613
-6.037301
0.014681
-0.394662
-0.918626
-0.469287
-0.426091
0.521025
-0.631673
-0.643053
-0.159994
-0.615414
0.519296
0.710336
-0.101386
-0.979108
-0.982005
0.193190
-0.753572
0.538842
-0.748670
0.614800
-0.044532
-0.823458
0.131928
0.097068
-0.919158
0.523189
0.758759
-0.864926
-0.644196
-0.658398
0.773522
0.097214
-0.554085
-0.472392
-0.788680
0.063512
0.715219
0.052386
-0.897204
-0.692451
0.128306
0.921922
-0.446691
-0.137497
0.665366
0.449458
0.435285
-0.602957
0.691392
0.724601
-0.595336
0.036142
0.295620
-0.145950
-0.214848
-0.801341
-0.959312
-0.228793
-0.981626
0.762699
0.580702
-0.075499
-0.247962
0.279476
-0.332356
0.811679
-0.152854
-0.883984
-0.623402
-0.288044
0.321006
0.377079
0.733021
0.829215
0.872253
-0.243419
-0.938484
-0.999590
-0.046011
0.761250
0.060719
0.923298
-0.097768
0.842768
-0.241089
-0.307915
0.207881
0.085818
0.678613
-0.268364
0.766003
0.003874
-0.282989
-0.865265
0.702137
-0.293026
0.942896
-0.096709
0.078020
0.666948
0.829072
-0.052208
0.550273
-0.646955
-0.102852
0.787685
0.565741
0.590278
-0.157187
0.016654
0.528477
0.921374
-0.034550
-0.679914
0.465850
-0.857831
0.976622
0.832597
0.968347
-0.728599
0.327925
-0.285225
-0.789783
-0.953088
0.094101
0.896711
0.225357
0.286590
-0.753442
0.616320
0.855462
0.026780
-0.111008
-0.956931
0.576661
-0.433696
-0.696856
0.201200
-0.636662
0.894222
-0.343562
0.092368
-0.447947
-0.786809
0.804185
0.346616
0.453318
0.438250
0.916231
-0.263727
-0.576403
0.569932
-0.179697
0.510588
0.451351
-0.327954
-0.756881
-0.061275
0.920520
0.430178
0.791725
0.937638
-0.410151
-0.604393
0.510091
-0.393425
0.045929
0.313227
-0.917418
-3.054414
0.020649
-0.406861
0.219510
0.620959
0.348925
-0.600957
0.521845
-0.699168
0.113799
0.030459
-0.503795
0.791228
-0.242014
0.082288
0.632925
-0.200970
0.325613
-0.246052
0.450313
0.415167
0.052935
-0.512732
0.540524
-0.512212
-0.428476
0.406734
-0.310831
0.184181
0.345339
0.831328
-0.305602
-0.805418
-0.053852
-0.687026
0.933916
0.666165
-0.869156
0.714110
-0.092834
0.075022
0.580823
-0.330691
-0.983093
0.745929
0.638558
0.029888
-0.750499
-0.448980
-0.658483
-0.418478
0.502414
0.724501
-0.790336
-0.864841
0.587234
-0.365232
0.390771
-0.199776
-0.763091
0.504452
0.735091
0.814931
-0.771989
0.100994
0.874591
-0.498589
-0.111490
0.318243
0.918821
-0.636849
0.154765
0.100988
0.635331
-0.176116
-1.049405
-0.804775
-0.472273
-0.000549
0.679269
0.846420
-0.748462
0.842452
0.916857
-0.739082
-0.873478
-0.238709
-0.414211
0.795115
0.837825
-0.587680
-0.509453
0.843720
0.049652
-0.313251
0.637500
-0.147970
0.257532
0.207438
-0.478888
-0.253688
-0.789683
-0.669998
-0.686807
0.019807
-0.565322
-0.476431
-0.619243
-0.102436
0.733893
0.816421
-0.984510
-0.611876
0.973714
-0.391274
-0.188233
-0.062451
0.538491
-0.362828
-0.035444
-0.555484
-0.881680
-0.882536
0.929765
0.267465
-0.469181
0.315866
-0.012380
-0.468329
0.333331
-0.693262
0.025609
0.456757
-0.560784
0.237887
0.626710
0.656405
-0.954037
0.730166
-0.199646
-0.527817
-0.848323
0.014038
0.844536
-0.587520
0.704633
-0.289147
-0.222280
-0.257264
-0.158044
0.832106
0.002387
0.194763
0.955732
-0.801042
0.248712
-0.712724
-0.437854
0.331056
0.575792
0.305715
-0.077871
0.604113
-0.881016
0.878400
0.413331
0.846949
-0.220794
0.496091
0.305896
0.524700
0.492413
0.650034
0.688153
-0.813902
0.158096
-0.310562
0.439048
0.617363
0.189496
-0.014861
-0.549833
0.931515
0.663273
0.760429
0.456315
0.101723
0.318248
0.300268
0.938824
-0.151269
0.777096
-0.986615
-0.166590
-0.121139
-0.904418
0.685437
0.902958
0.158028
-0.708590
0.203279
-0.860033
0.292504
0.303029
-0.240980
0.467581
-0.433244
-0.686898
-0.572289
0.263648
0.595458
-0.552171
-0.121323
-0.788766
0.442633
-0.817588
0.504445
-0.279592
-0.625035
-0.752788
0.741659
-0.872582
-0.532877
0.971417
-0.227962
0.654106
0.752336
-0.207661
-0.521206
-0.113503
0.110995
0.930444
-0.011632
-0.967861
0.801063
0.910957
-0.383990
0.646996
0.798387
0.913727
0.999528
0.962976
0.005398
-0.254179
-0.473931
-0.322705
0.697295
0.347638
0.359652
0.074750
0.177271
-0.778988
0.250459
0.650502
-0.340250
-0.738934
0.763440
-0.702017
0.577499
-0.664723
-0.012565
-0.581650
0.460413
0.222007
0.772639
-0.897865
0.387006
-0.929799
0.383888
0.482636
0.800524
0.638933
0.072262
-0.758426
-0.946110
0.352792
0.111235
-0.252731
-0.669845
-0.994445
0.822621
-0.416935
-0.544010
0.344942
0.963791
0.756888
-0.283475
-1.192275
0.743845
-0.148605
-0.394289
0.381169
0.155173
0.898618
0.029925
0.951603
-0.321181
-0.092966
-0.582627
-0.869434
0.414934
-0.999071
0.612929
-0.772593
-0.854465
-0.411605
0.901940
0.566410
0.729488
-0.852568
-0.282241
0.400932
0.138955
0.479724
0.203134
0.595881
-0.307638
0.253185
0.551096
0.489045
-0.543553
-0.968447
0.367970
0.992962
-0.928176
0.362569
0.389100
-0.392741
-0.290444
-0.303768
0.418163
0.079778
-0.623020
0.572086
0.061649
0.508964
0.402211
-0.911339
0.898196
0.555995
0.677501
-0.912535
0.780181
0.711664
-0.457333
0.386978
0.881048
0.098720
-0.154854
0.476685
0.706374
0.731871
0.686083
-0.529406
-0.950608
0.899207
0.780134
0.405149
0.004443
-0.267624
0.346904
-0.408333
0.570871
-0.468052
0.353294
-0.785373
-0.925781
0.785923
0.742614
-0.286514
0.739907
0.277173
0.555052
0.233718
0.981347
-0.562178
-0.925290
-0.321760
-0.200037
-0.449670
-0.393351
0.731128
-0.780421
-0.585665
0.577574
-0.365524
0.755628
0.285119
-0.208275
0.011051
0.932504
-0.097778
0.175781
-0.074522
-0.531347
-0.883148
0.362856
0.608733
-0.728019
0.164952
0.039539
0.452459
0.517679
-0.194178
0.154465
-0.932384
0.743614
0.888524
0.183512
0.972040
-0.431452
0.499039
0.087060
0.105641
0.521871
-0.418761
-0.947250
0.079131
0.770781
0.464202
-0.196820
-0.323483
-0.913056
0.023034
0.761465
0.057265
0.691463
0.512137
0.206001
-0.131156
0.310006
0.918796
0.393635
0.881767
0.452684
0.971991
-0.519661
0.692462
0.472300
0.765799
0.306418
0.972387
-0.117615
-0.493667
-0.895268
0.302757
-0.012668
0.183773
-0.732578
-0.549329
0.424423
0.850625
0.598232
0.192357
0.927960
0.487523
0.367109
3.674928
0.132672
0.288913
-0.217335
-0.862357
0.198143
0.455392
-0.320581
0.833792
0.935723
-0.421162
-0.442823
0.876708
-0.500199
0.817442
-0.242832
0.164865
-0.882572
-0.766407
0.383282
-0.354672
-0.729580
0.198804
0.152294
0.098956
-0.160873
0.530564
-0.988366
-0.179241
-0.528459
-0.100093
-0.559981
-0.690746
-0.918160
0.197807
-0.998053
-0.053604
-0.853224
-0.023097
-0.489667
-0.215257
0.988193
0.880610
0.129938
0.725972
0.516234
-0.424449
-0.880102
0.274032
-0.208742
-0.386037
0.915290
0.570926
-0.936150
0.050693
0.933852
1.137631
0.814316
0.763347
-0.079293
0.171195
0.774823
-0.797316
0.738528
-0.106529
-0.861267
-0.638913
-0.814738
0.458438
-8.376770
0.390230
0.136975
-0.844388
0.655485
-0.347316
-0.823608
-0.787657
-0.651553
-0.397083
0.806100
0.794439
0.184039
0.925974
-0.620259
0.217792
-0.123388
0.360197
-0.279074
-0.886924
-0.606233
-0.879681
-0.111845
0.684074
-0.309375
0.104771
0.546551
0.182738
-0.425447
-0.231197
0.160835
-0.489684
0.727915
1.012746
-0.627106
-0.658005
-0.936376
-0.271358
-0.033532
-0.974552
-0.929701
-0.346114
0.732414
-0.090182
-0.159009
0.880932
-0.955160
0.300306
-0.493114
0.176636
-0.652202
0.393231
-0.228017
0.445737
0.245952
-0.076735
0.968861
-0.096185
0.680594
-0.444809
-0.268337
0.812379
0.377263
0.277739
-0.337479
0.154622
8.640228
0.499855
-0.239604
0.751825
-0.442942
-0.821173
0.141984
0.589023
0.807107
-0.736579
0.582609
0.097411
-0.303152
0.988820
-0.478269
0.803305
-0.708372
-0.570830
0.966551
-0.583768
-0.954003
-0.289267
0.448174
-0.514897
0.199881
0.957851
-0.677628
0.207794
0.575749
-0.224068
0.844518
-0.897213
0.887513
-0.369531
0.927282
0.830476
-0.094438
-0.529064
-0.719556
4.203275
0.909012
-0.917547
0.547991
-0.904639
0.258336
0.133548
-0.558135
0.717390
-0.066028
0.263205
0.782391
-0.707111
-0.872539
0.387452
-0.883472
0.049320
-0.534844
-0.971657
-0.313946
0.568442
-0.061581
0.774868
-0.773594
0.174216
-0.905905
0.900326
0.334891
-0.432068
0.919668
-0.957840
0.997732
-0.003101
0.131510
-0.205344
-0.025752
-0.829210
0.531454
0.585987
-0.822903
0.483483
-0.349886
-0.677493
-0.014746
0.740240
-0.248458
-0.519236
0.771602
-0.794984
0.267320
-0.166850
-0.888766
-0.795955
-0.345628
0.342623
-0.454125
-0.350519
0.852196
-0.319014
0.241897
-0.427791
0.708458
-0.703176
-0.122756
0.367309
0.531000
-0.340052
-0.858424
0.420342
0.702160
0.613163
-0.717935
-0.106879
0.058081
-0.145513
0.843937
0.218700
-0.546676
-0.846502
-0.013106
-0.760226
0.482009
0.564522
-0.319919
0.583259
-0.192426
-0.418024
0.284204
0.852780
-0.556678
0.492597
0.897306
0.528068
0.205956
0.323997
-0.879980
-0.978311
-0.000316
-0.202230
0.017646
-0.236487
-0.704566
0.971103
0.286396
-0.036627
0.652850
0.421774
0.322082
0.754702
-0.802927
-0.237215
-0.740201
0.371708
-0.402419
-0.197805
0.079562
-0.428149
-0.446710
0.491656
0.902267
-0.208619
-0.610083
-0.220303
0.435485
-0.189895
-0.472053
-0.544972
-0.233958
0.427413
-0.225957
0.086543
0.401547
0.195335
-0.361695
0.002138
-0.120251
0.650517
-0.031016
0.849614
0.311087
0.220093
-0.774183
0.106911
-0.549751
0.609927
-0.584190
0.820286
-0.178524
0.336859
0.277533
-0.659373
0.020879
-0.021108
0.913189
-0.999242
0.305620
0.313896
0.679800
-0.676942
-0.556674
0.913878
0.707119
0.764653
0.277670
-0.453538
-0.599620
0.528883
-0.119736
0.340174
-0.024545
0.241003
0.321746
0.964770
0.367832
0.760796
0.109170
-0.227904
0.893183
-0.570708
-0.084750
0.306676
0.131179
-0.673180
0.601362
3.990969
-0.593152
-0.302343
0.206097
-0.722800
-0.988560
-0.677583
0.180684
-0.844448
0.114066
0.124488
-0.484937
0.300505
0.904330
-0.508801
-0.256831
-0.801755
-0.672735
0.561948
-0.286366
-0.208298
-0.511148
-0.737652
0.779576
-0.658340
0.615852
0.170850
-0.052186
-0.654619
0.271889
-0.160590
0.493470
0.789968
0.301739
-0.640298
-0.876042
-0.316354
-0.404376
-0.819398
0.078116
-0.490552
0.253789
-0.096005
-0.072143
-0.098949
0.188830
-0.756160
-0.600770
0.505364
-0.761208
0.050615
-0.600492
0.844438
-0.494072
-0.276758
0.599147
-0.509840
0.546389
-0.679265
0.158008
0.855084
0.060601
0.265222
-0.304421
0.253856
0.082609
0.231361
-0.692463
0.915068
0.005057
-0.438891
-0.662164
0.404436
0.172552
-0.162086
-0.377313
0.459810
-0.544188
-0.690818
-0.932574
0.950816
-0.116308
1.068272
-0.002421
-0.996272
0.813756
0.204530
0.099083
-0.527665
-0.113349
0.886152
-0.325259
-0.759910
0.778892
-0.361403
0.094872
0.854402
0.527204
-0.005752
-0.603564
0.475318
-0.382625
-0.564291
0.029198
-0.011519
0.244943
-0.793561
-0.897138
0.874725
-0.854562
0.593957
-0.607002
-0.263010
0.274456
-0.864949
-0.496322
-0.596392
0.221552
0.739354
0.253446
-0.124096
-0.601860
-0.845489
8.638029
-0.114232
-0.788420
0.459603
0.616818
-0.995868
-0.830923
-0.752469
0.390919
0.600513
0.663759
-0.462597
0.708019
-0.924903
-0.768311
-0.867293
-0.552241
-0.312382
-0.810432
0.717521
-0.634637
-0.925128
0.448656
-0.716885
-0.408737
0.056923
-0.490363
-0.738643
-0.751561
-0.083325
-0.047737
-0.710728
-0.279595
0.396090
0.650311
-0.236476
-0.300048
-0.646458
0.635806
0.456542
-0.684395
-0.160879
0.162767
0.725551
0.059577
-0.190243
0.441212
-0.782535
-0.579255
-0.441936
-0.647564
0.116783
-0.819246
0.600994
-0.801825
-0.810414
0.476659
0.629674
0.663068
0.171962
-0.485263
0.778824
0.585288
0.339715
0.155488
-0.292727
-0.933242
-0.042580
-0.108401
0.498026
-0.557729
0.034058
0.133148
-0.727818
-0.444979
-0.991204
-0.132315
0.930252
0.752592
-0.658941
-0.167792
-0.783666
0.691912
1.034862
-0.237195
0.424493
-0.525448
-0.935992
0.532518
-0.749975
-0.388039
0.174487
0.588983
0.125090
0.974090
0.674012
0.979058
-0.415754
-0.116291
-0.548925
-0.833678
-0.716391
-0.642791
-0.610378
-0.246544
0.615991
-0.930379
0.048005
0.544489
0.370675
-0.363314
0.051217
-0.528564
0.610954
-0.569114
0.968861
-0.345127
-0.157957
-0.555267
-0.175017
0.417050
0.865032
0.160432
0.188566
0.514488
0.519363
0.519941
-0.427599
0.472467
-0.961521
0.104310
0.747267
-0.499824
0.645390
-0.571748
-0.737054
0.836607
-0.522284
0.588291
-0.835148
0.113594
0.973643
0.805589
0.637100
-0.036467
0.435842
0.127904
0.917207
-0.855118
0.119418
0.025806
0.026824
0.217485
-0.269008
0.029761
0.929425
0.577422
0.619039
-0.677074
0.126394
0.416091
-0.394532
0.954185
0.833695
0.649463
0.162118
0.267288
-0.875036
-0.432363
-0.825095
0.372188
0.033447
0.978674
-0.082445
-0.201171
0.994840
-0.012023
0.065418
-0.454854
-0.238014
0.259743
-1.795613
0.087735
-0.566941
0.411954
-0.631609
-0.893753
-1.083057
-0.251845
0.388665
-0.048000
-0.038547
-0.748318
0.042213
-0.696940
-0.583191
-0.803985
-0.970250
0.719678
0.749628
0.264619
0.125063
0.508495
-0.540309
-0.516033
0.690844
-0.188880
0.562705
0.413229
0.734089
-0.728238
-0.175326
0.711058
-0.135331
-0.697350
0.205913
-0.715555
0.371825
-0.158225
0.474521
0.605975
0.495516
-0.331238
-0.423730
-0.435774
0.838961
-0.268029
-0.609597
0.205234
-0.480297
-0.977131
-0.300486
-0.663364
-0.575935
0.957361
-0.239072
0.665345
0.776017
-0.888041
-0.395444
-0.004402
0.320475
-0.541723
-0.704644
-0.369883
0.981167
0.137694
-0.439848
0.069231
-0.007248
-0.467778
0.069668
-0.859106
-0.013384
-0.955739
0.633105
0.219273
-0.644216
-0.560667
-0.839813
0.542629
-0.926454
-0.786585
-0.086967
-0.529809
-0.112993
-0.220430
0.521779
-0.543144
-0.615317
0.152464
-0.756702
0.133787
0.830506
-0.561055
0.652322
0.256986
-0.066163
0.706487
0.257413
-0.962841
-0.188426
-0.570688
0.331492
0.089156
-0.033667
-0.512685
0.745294
0.695398
-0.777905
0.713310
0.649530
0.316054
-0.028307
-0.508296
0.069081
0.496275
0.828099
0.068365
-0.200893
0.843006
-0.710216
1.255701
0.900566
-0.094383
0.827123
-0.792638
0.782701
0.594568
0.137095
-0.151088
-0.264468
0.002244
-0.770145
-0.283991
-0.883894
0.048594
-0.407668
-0.286653
0.603141
-0.245032
0.032833
0.733562
0.233026
0.484737
0.668719
-0.755420
-0.895623
-0.368529
0.672221
-0.478300
-0.909668
0.798662
-0.239971
0.299596
0.917079
0.090129
-0.302676
0.848234
-0.229802
0.726914
0.958351
0.866182
-0.840549
-0.671670
0.301337
0.802600
0.181081
0.604572
-0.662771
0.142555
-0.486724
0.128749
-0.127911
0.186057
-0.860544
0.937136
-0.886968
0.946083
0.851819
0.450472
0.012332
0.441284
-0.531144
-0.860759
0.862515
-0.875615
-0.223880
-0.048053
-0.370061
-0.458235
-0.290334
-0.519939
-0.851593
-0.746494
-0.344327
-0.660099
0.862986
-0.868492
-0.660571
-0.257975
-0.522529
0.866729
-0.707239
0.189702
0.029365
-0.590918
0.942582
-0.973901
-0.612548
0.059735
0.257993
0.261824
-0.726972
-0.083876
0.410287
0.352350
-0.682428
0.083179
0.534298
-0.597641
-0.134440
0.065282
-0.421632
-0.934138
0.944413
-0.701753
0.739044
-0.417352
7.146830
-0.800242
0.790404
-0.478205
0.483904
-0.271797
-0.570981
-0.620151
0.715465
0.208242
0.565792
-0.728708
-0.582392
-0.433390
0.756480
-0.588197
0.782015
0.068474
-0.597354
0.747646
0.634885
-0.054241
0.910003
-0.706923
-0.897238
-0.548336
0.206556
-0.400397
-0.878835
-0.358180
0.789714
0.364711
0.795359
0.087915
0.339290
-0.438840
0.913150
-0.574952
-0.135701
0.247789
0.636030
-0.117218
-0.232040
-0.888854
0.636874
0.082527
0.995435
-0.081265
0.780583
0.413267
0.464909
-0.712517
0.171923
-0.634603
-0.342261
0.686241
-0.942282
0.149325
0.993703
-0.210745
0.788512
-0.863663
0.424396
0.516667
0.853964
0.339702
-0.210187
-0.877413
0.615277
0.689205
-0.469452
-0.801200
0.653247
0.868568
0.808754
-0.215591
-0.575220
-0.210218
-0.732336
0.213746
-0.992349
-0.987438
0.445598
0.410409
0.921402
0.676406
0.779932
-0.984125
-0.643055
0.091240
0.419776
0.637517
-0.254348
0.923293
0.874168
0.625615
-0.898183
-0.390495
0.956142
-0.612806
0.893240
-0.599555
-0.195068
0.548904
-0.827983
0.649941
-0.980215
0.123939
-0.047160
-0.019351
0.314806
0.963053
0.168958
-0.324026
-0.566869
0.272223
-0.775103
0.125029
0.412531
-0.929266
-0.982314
0.250347
0.623435
0.637652
0.305643
0.794428
-0.755663
0.878994
-0.933482
0.242425
-0.145117
0.417960
-0.878069
-0.753537
-0.698899
-0.707254
-0.673144
-0.753418
-0.492986
-0.806661
-0.886004
-0.109123
0.935218
-0.982236
0.605361
0.706224
0.128622
0.247648
-0.611841
-0.230055
-0.095639
-0.511184
0.225402
-0.567231
0.579687
0.118163
0.479420
-0.473976
-0.255557
-0.945359
0.293520
0.805741
-0.587283
-0.904522
0.228445
-0.815026
-0.854141
-0.950426
-0.332580
0.276231
-0.630869
0.625162
-0.909693
-0.887148
-0.390512
0.125183
0.809353
0.761080
0.150803
0.188418
-0.927025
0.446175
-0.208138
-0.429570
0.856804
-0.280431
-0.839402
-0.845728
0.732611
0.133242
-0.569063
-0.545664
-0.455693
0.934613
0.897847
0.515482
0.337096
-0.111541
0.497933
-0.415114
0.105586
0.509980
0.221574
0.650220
0.333186
-0.695014
0.477604
0.014641
-0.981501
0.418746
-0.882907
0.303322
0.905741
-0.046406
0.192293
-0.421409
0.492212
-0.294665
-0.495157
0.918332
0.676249
-0.232809
0.132219
0.586701
-0.548519
0.745492
0.712331
0.865014
0.121539
-0.447286
-0.670315
-0.988893
0.024547
-0.527104
0.920275
-0.352304
-0.094353
-0.068066
0.888573
-0.400778
-0.334365
0.197728
0.942244
-0.606357
0.677426
-0.787811
0.850658
0.183803
-0.212993
0.159852
-0.542933
-0.297778
-0.374158
0.591872
0.099683
0.966276
-0.689657
0.003196
-0.278718
-0.889460
6.052916
0.162712
-0.358943
0.794881
-0.272854
0.519058
-0.899950
0.520931
0.230075
-0.008349
0.366262
-0.372708
-0.541531
-0.736477
0.834734
-0.779797
-0.647185
-0.038875
-0.946046
-0.548780
-0.509007
-0.884564
0.920392
-0.265836
0.216675
-0.861195
-0.521297
-0.931290
0.771320
0.537748
-0.336308
0.208381
0.872600
0.889176
0.560055
0.347215
0.315683
0.189643
0.531942
0.786909
-0.710128
-0.210689
0.203136
0.678240
-0.896806
0.633231
0.621244
-0.045427
0.133253
-0.803538
0.932145
0.434187
0.127473
-0.876064
0.101806
-0.280762
-0.403060
0.381492
-0.962307
0.895577
-0.689787
0.872233
0.114814
0.404203
0.633821
0.725214
0.621760
0.825900
-0.883311
-0.216503
0.544726
0.684111
0.403409
-0.778310
0.079017
-0.884893
-0.041660
-0.689327
0.831240
-0.792492
-4.463172
-0.857843
0.489723
0.866049
0.143207
0.879060
-0.746484
-0.220998
-0.598377
-0.237793
0.281700
-0.443208
-0.991414
0.939699
-0.857473
0.257531
-0.152979
-0.666910
-0.797978
-0.168498
0.887832
0.634585
0.018526
0.267406
-0.691687
-0.910453
-0.943887
0.217900
-0.693065
-0.414931
-0.110829
0.407216
-0.994515
-0.503894
0.037961
0.704605
0.640691
0.355314
0.134439
0.679753
-0.274020
0.665598
0.277822
0.750737
-0.067239
0.900633
0.340854
0.751623
0.741030
-0.960989
-0.995580
-0.399055
0.009164
-0.951203
-0.349038
0.799861
-0.576689
0.772645
-0.590765
-0.588725
-0.515216
0.086292
