-0.504828
0.020253
-0.230241
-0.467064
0.844756
-0.056156
0.885215
0.041109
-0.443782
-0.958427
-0.780359
0.936410
-0.035769
-0.651148
0.644761
0.133393
0.657537
0.501990
-0.861979
0.663083
-0.675923
0.572068
0.998172
-0.139354
-0.121376
0.156476
0.373347
-0.291344
-0.077181
0.014099
-0.492568
-0.165930
0.325368
-0.616024
-5.826343
-0.516566
-0.069825
-0.717476
0.457133
0.600627
0.081369
-0.112250
-0.565499
-0.726025
0.270719
-0.567313
0.728394
0.189598
0.682300
-0.594844
-0.340124
0.837887
-0.916278
0.419358
0.666707
-0.236749
0.829947
0.917914
0.306194
0.248678
0.862214
0.025379
0.557125
-0.918188
-0.780855
0.716818
0.378784
-0.636236
-0.770124
0.452996
0.410246
0.340810
0.170764
0.396316
0.008685
-0.261854
0.437665
-0.328269
-0.922296
-0.145644
0.595586
0.462537
0.431928
-0.762990
-0.783426
-0.030258
0.684536
0.265125
0.469016
-0.111039
-0.198315
0.015818
0.713365
-0.495623
-0.167841
0.801959
0.763736
-0.549652
-0.061348
-0.912683
0.519148
0.882580
0.052963
0.182561
-0.846938
0.031594
0.097407
0.672606
0.949864
-0.149178
-0.353705
-0.155262
0.491148
0.466677
0.821687
-0.406128
0.305184
0.136519
0.847867
0.892962
0.980864
-0.508902
-0.197192
-0.789841
0.125469
0.007854
-0.413180
0.520080
-0.810644
-0.486975
-0.105912
-0.773151
0.120981
-0.360600
-0.712240
-0.124537
0.864232
-0.442308
-0.275763
0.493243
-0.898882
0.758237
0.326085
-0.840618
-0.680072
0.659652
0.745023
0.175556
0.927360
0.450146
0.229000
0.892368
-0.306113
0.688790
0.067616
0.944253
-0.347311
0.450200
0.160938
0.579825
0.743036
0.720166
0.400268
0.819040
0.261479
0.053730
-0.826286
0.565458
-0.920143
0.582256
0.321574
-0.105125
0.097581
-0.166755
-0.850199
0.661277
0.126561
-0.642219
-0.264458
-0.003380
-0.241153
-0.025375
0.040636
0.009453
0.640962
0.808572
-0.784026
0.259287
0.715293
-0.532076
0.222537
0.357429
0.128322
-0.186984
0.636485
-0.787657
-0.388840
-0.118188
-0.101911
-0.864694
0.221010
-0.796634
0.914495
0.627333
-0.811220
-0.116764
0.048563
-0.800607
0.133917
-0.265503
-0.353026
-0.425055
-0.778887
0.955818
-0.428780
0.923259
-0.771540
0.036838
-0.532097
0.038434
0.990835
0.073291
-0.625550
-0.800836
-0.220037
-0.308296
-0.361952
-0.028528
0.112629
-0.079167
0.295772
-0.197149
0.179391
-0.303122
0.597572
-0.356209
-0.497007
-0.849053
-0.768876
-0.783469
0.628035
-0.982650
-0.707337
-0.754940
-0.534177
0.168948
-0.250249
-0.764204
0.104430
0.451434
-0.499661
-0.513999
-0.177584
-0.449413
-0.378693
0.873795
0.115705
0.740918
0.436273
-0.590774
-0.897065
-0.766178
0.629224
-0.120989
-0.299171
0.142351
0.383254
0.114183
0.597591
-0.225423
0.073676
0.502376
-0.600627
0.156008
-0.204160
-0.296635
-0.730577
0.814282
-0.680883
-0.413835
-0.571518
-0.810416
-0.002481
0.717206
0.443915
-0.273780
-0.468728
-0.601600
-0.726096
-0.596390
0.575446
-0.896519
0.520011
-0.992644
0.826201
-0.397217
-0.085757
-0.995267
0.568631
0.081800
-0.301185
0.063881
0.377957
-0.208664
-0.446848
-0.862453
-0.273973
-0.276422
-0.129861
-0.816424
2.981583
0.673515
-0.818276
0.755403
-0.033095
-0.711724
-0.756442
-0.611057
0.120261
0.196420
0.790556
-0.602867
0.203885
-0.407515
-0.653278
-0.556902
0.977004
-0.423107
0.786957
0.840961
-0.536842
-0.462092
-0.088020
0.294017
-0.601445
0.072442
0.258705
-0.976130
-0.332900
0.113150
0.821820
-0.525288
-0.372703
0.362108
0.984616
0.892403
0.826431
0.008125
0.420283
-0.338824
-0.253362
0.925124
-0.567912
0.564175
0.357981
-0.103124
-0.888573
-0.798548
-0.088346
0.325247
0.084264
-0.093684
-0.216594
0.425946
-0.378143
0.623409
0.780197
0.318773
-0.382815
0.867140
-0.495338
0.202202
-0.248281
-0.414827
0.984531
-0.694080
-6.657929
0.306412
0.988424
0.746197
-0.886604
-0.632085
-0.783860
-0.855103
-0.722315
-0.600802
-0.088843
0.952575
0.418494
0.493557
0.043938
0.469564
0.680418
0.589438
0.643798
0.213774
-0.362363
-0.403479
0.177488
-0.764124
-0.192125
-0.675833
0.597084
0.813708
0.994867
0.610554
-0.989632
0.733650
-0.140555
-0.465914
0.002943
-0.053643
-0.739629
-0.807843
-0.293435
0.624072
0.835447
-0.383844
-0.349142
0.435092
0.318157
0.554522
-0.399353
0.605859
0.014332
0.671287
0.734460
0.409898
0.433052
-0.491466
0.338578
0.535265
-0.462475
0.021509
0.921999
0.147121
-0.402640
-0.306549
-0.985650
0.974254
0.568589
0.371708
-0.843158
-0.888286
0.121913
0.307043
-0.905676
-0.252216
-0.833405
-0.190148
0.013992
0.153207
0.943855
-0.401623
-0.421059
-0.526212
-0.878324
-0.414248
0.482686
0.450579
-0.405652
-0.140400
-0.709029
0.386775
-0.645345
-0.026625
-0.105147
-0.466148
-0.472018
-0.013512
-0.033386
0.840925
0.894040
0.348815
0.763634
0.352565
-0.594105
0.896764
-0.118558
0.980161
0.095212
-0.997839
-0.591177
-0.528168
0.271835
-0.616280
-0.136058
0.953405
-0.069436
0.878747
0.857103
-0.017473
-0.317427
-0.460817
0.906760
0.246656
0.258539
0.044175
-0.710630
-0.404893
-0.866009
-0.228858
-0.024673
0.016423
0.102576
0.909588
-0.736581
-0.924728
0.489949
0.257368
-0.995772
-0.826363
0.019115
-0.082055
-0.823602
0.578634
0.770732
-0.471875
0.482652
0.278099
0.328303
0.699507
0.145916
0.922664
-0.404905
0.247374
-0.523824
-0.515266
-0.776719
0.318141
0.977025
0.703093
-0.175998
0.481917
0.942484
0.362164
0.072281
0.639523
0.499380
-0.374851
-0.134307
-0.435680
-0.440513
-0.055212
-0.003937
0.360911
-0.301323
0.675902
-0.887009
0.736626
-0.286418
-0.301665
-0.854406
-0.923631
0.187992
-0.736862
-0.388990
-0.123244
-0.414921
-0.288810
-0.135471
0.005560
-0.690121
0.148529
-5.986881
0.231728
0.032849
-0.019740
0.621530
0.114591
-0.767064
-4.814214
0.785112
0.484063
-0.086637
0.980587
-0.076463
0.142755
0.254465
0.630900
-0.278713
-0.682459
-0.136970
0.626095
-0.973856
0.813217
0.725435
0.897917
-0.744814
0.023686
-0.996468
0.149499
-0.370411
-0.721000
0.360314
-0.178343
0.882225
-0.378655
-0.597641
-0.284133
0.502723
0.916219
0.261675
-0.535164
0.309082
0.991381
-0.100731
0.143111
0.358139
0.695314
-0.509813
0.687123
0.364968
-0.407637
-0.487418
-0.890041
-0.397086
-0.343901
-0.650036
-0.463525
-0.315304
-0.452283
0.816271
0.171746
0.003588
0.022690
0.855765
0.340397
0.617785
-0.374286
-0.312307
0.025988
-0.366464
0.327482
0.729545
0.687802
0.158677
-0.062663
-0.705265
-0.227339
-0.291046
-0.251953
0.392731
0.155640
-0.049299
-0.595364
-0.277287
0.800592
-0.371978
0.968251
-0.415950
-0.003821
0.892833
-0.057913
-0.314104
0.940115
0.446087
-0.381617
0.515777
-0.997735
-0.494230
-0.305197
0.841513
-0.064954
0.584568
0.212882
0.864348
-0.610564
0.891004
-0.599715
-0.792348
-0.313911
0.562649
0.149034
-0.931756
0.900466
0.499364
-0.921404
0.835701
-0.767116
-0.950025
-0.097710
-1.106311
-0.669934
0.257388
-0.622116
0.542088
-0.819657
0.007879
0.244647
-0.778135
-0.420021
-0.466847
0.619310
-0.169373
0.853965
0.196825
-0.038095
0.520937
-0.902119
0.608192
-0.321068
-0.396789
0.107134
0.275135
0.040058
-0.284520
0.908265
0.124279
-0.105279
-0.007933
0.779768
0.257845
0.583360
0.874141
-0.220841
0.923917
0.505519
0.529634
-0.930504
0.119483
0.345187
0.897368
0.879846
0.795097
-0.336771
-0.106937
0.269622
-0.541224
0.710856
0.361607
0.390399
-0.968121
-0.005094
0.911350
-0.187362
-0.381282
0.297701
-0.078567
0.578469
0.660036
0.266535
0.520769
-0.757966
0.718175
-0.795987
0.259421
-0.277952
-0.917502
-0.610681
-0.383574
-0.818605
0.788230
0.607396
-0.741608
0.244800
0.336753
-0.648800
0.236589
0.119089
0.613895
0.401447
-0.548805
0.507841
-0.504737
0.794489
0.878798
0.670538
0.785018
0.184133
0.910953
-0.995953
-0.506805
-0.621326
-0.329260
-0.621876
-0.190561
-0.766378
-0.560410
-0.064914
0.455443
-0.272449
0.100884
0.836607
-0.439344
-0.599335
0.020464
-0.676505
-0.965579
0.666592
-0.112870
6.643113
0.480645
0.043068
-0.388474
-0.143599
0.225772
0.590383
0.760329
-0.676745
3.352359
-3.056600
-5.505667
3.945774
5.233870
3.356977
3.343567
12.996595
13.720265
-6.946580
4.799105
3.572205
9.951248
0.780241
-2.363312
-0.776187
-3.534668
2.843065
-9.838518
0.461190
-8.200768
-2.301344
-6.114715
-4.179221
4.103206
-4.671401
-6.942822
-5.612887
-4.736122
-3.134190
-8.207087
-4.360108
0.763429
5.380536
3.762092
1.339706
3.935109
-5.489561
4.043131
14.083347
2.895696
-2.015567
0.253247
-4.639395
7.687010
-7.479313
7.025583
2.553664
-6.844149
-8.050380
3.286582
-0.721402
0.926371
1.844058
-3.613477
-0.123610
-7.229443
-1.061807
-2.024427
0.462898
-3.211792
2.683230
-1.688146
1.099219
2.654914
-0.919398
0.661372
-5.217037
3.195943
-5.460712
3.848518
7.295403
-5.115604
-2.740246
-5.724950
-3.294974
9.248405
0.997831
-10.218873
0.473560
-7.865265
4.088800
8.008515
3.947672
6.230931
-7.809580
8.400095
1.555847
8.316022
-6.077427
5.349210
4.710036
-3.098384
3.037303
4.764822
1.490342
-5.993084
-3.404058
0.627305
8.918784
6.666995
0.024142
-2.537648
-10.897896
6.784346
5.441323
-5.781351
3.802243
-9.808943
1.504583
0.888934
6.483215
-3.916907
-12.272323
-4.329307
0.731691
-6.036012
5.750960
-9.600652
-5.079716
-14.631295
6.306399
11.755093
-2.917124
3.254371
1.707812
-8.398300
8.998415
4.001497
-1.276731
-10.348357
-0.150571
4.976409
-6.600427
9.225988
7.246377
-4.265902
0.394948
6.377925
4.036001
8.756664
-0.851478
0.451303
1.534341
2.389998
7.272848
-17.854044
2.216647
4.314853
-2.791448
10.091646
5.652456
6.797777
-3.658170
-4.203321
-3.100487
-1.113723
4.068140
5.557226
-2.939336
1.864536
1.186297
6.773236
-3.046309
-2.533458
9.379050
2.042537
-5.504480
3.049085
7.691712
-1.360862
0.157986
2.355296
-2.813246
2.572386
2.115239
1.520372
-1.574596
1.264791
0.178727
-5.909226
1.837549
-0.851277
-2.694171
-8.232371
20.549877
-1.912192
-4.616502
-2.191651
2.295312
-4.959429
3.440349
0.650608
3.163475
-3.429228
-8.859429
-5.917204
1.514578
-4.160241
-10.429090
-5.097574
9.854474
-0.858501
2.044462
4.555468
-7.930896
3.002103
6.343219
-6.386967
-3.239896
-8.638864
3.676387
2.124691
3.971638
-7.314587
-4.534275
-6.837200
7.894997
-0.642144
2.398477
-1.916326
1.732346
8.885765
-6.678933
6.272688
0.425896
-1.102965
-3.486465
7.482499
-1.089001
0.713297
0.884514
-4.383774
2.602820
0.649392
-3.798721
5.395494
-0.305347
-0.496310
-0.752183
-5.991425
-7.231014
-0.395514
8.240368
-11.488097
-1.298910
-2.712074
-8.031949
6.499816
9.901112
-3.155936
9.061901
0.112055
1.586562
7.398015
4.549412
5.544577
5.494988
3.462837
-1.225760
0.865875
-3.615878
3.832320
-0.624971
1.841485
-3.609533
2.198847
3.648649
7.587513
-0.427596
6.274155
8.036320
-4.722099
10.675050
3.075338
3.449442
-1.224611
9.639185
6.379018
9.841786
1.751040
-2.514186
1.531497
-11.951569
-0.091384
5.676070
1.737495
9.547252
2.245331
-11.849936
-1.270801
20.191886
3.626517
8.148343
-2.426370
-7.992447
1.859318
-2.415252
-1.287027
-26.871963
-3.006063
3.172832
-7.476644
1.050904
0.472682
0.131657
-6.302626
1.964310
-0.232778
-1.623393
5.883091
-1.817561
-7.128980
-3.181641
3.283053
-0.015497
0.420802
-0.648154
14.890372
1.387127
1.924651
4.456754
8.210956
-4.791294
-6.900833
8.671300
-6.913080
-3.317414
-4.243568
-2.804458
4.457026
0.200260
-7.460443
5.417872
13.572656
-8.949170
11.839411
0.583572
0.855893
2.203134
9.047199
-2.418809
-1.549429
1.497344
-6.557571
-11.803671
-4.658590
-3.118455
-7.506923
4.731893
-8.840893
-0.616335
6.069649
-1.882226
-1.642328
-5.976867
4.154321
7.584514
-1.389310
-2.720446
7.747397
8.026802
6.232426
3.237987
-6.823197
-7.889152
-2.567297
4.729932
5.395842
-5.121001
4.793996
-4.148994
3.045207
-2.445021
-3.153280
3.422442
11.966120
-0.026595
2.444881
-5.245508
-13.100494
1.859746
4.885065
9.276737
-3.229834
4.997304
-6.895464
-4.850518
6.384361
-3.144323
-0.897766
-4.649184
3.338318
-7.574722
7.594334
0.660722
1.200854
-6.691286
8.524376
-1.025837
5.440508
-4.629318
11.995891
-2.001818
2.623664
2.383528
-1.651612
-7.699719
6.854964
3.226453
7.744959
0.833620
4.848257
0.327070
7.758802
10.817451
3.954818
-2.547130
8.921576
-4.121528
9.935955
-2.323672
-3.644056
-5.098158
-1.032578
6.891824
4.656401
7.312041
6.604992
6.296756
-5.705845
12.314528
5.914858
-5.482292
5.548986
-9.044102
-7.949307
7.280206
-5.637078
-8.593006
-3.538024
3.740192
6.342921
-5.151356
4.902649
1.337482
-1.130370
-1.464989
2.682465
2.604187
-7.204627
7.771956
-3.371626
6.833351
0.390863
1.795184
-5.970877
6.120615
-0.694443
7.416763
11.933189
-9.646864
-7.554183
0.119707
2.209195
-1.502043
7.107164
0.893146
5.453395
-2.998657
-0.814113
3.239193
0.915525
2.765659
-6.566516
-2.985791
11.889002
0.868140
-0.365635
-4.325154
-2.430052
6.941632
9.101444
4.957509
0.925706
-3.966593
-8.295428
9.103973
-1.733796
-10.696895
20.256194
8.777564
-1.631993
-8.859404
8.353245
-7.197879
3.026423
5.057508
2.238377
8.180910
-5.533041
0.056965
2.668543
3.249539
-0.524583
-5.423390
-5.385686
-4.911352
-6.385315
8.148203
1.914970
-7.437704
8.386556
3.929400
2.173575
6.219928
-7.552696
-8.625263
2.897639
-6.482913
0.459615
6.194509
10.537207
-3.260677
0.144511
5.157482
0.425973
5.073007
7.797491
-10.587882
0.948284
9.387563
-8.487474
-2.033129
0.915607
-4.070479
-0.742334
7.481498
-2.594100
-4.202637
5.804098
-7.130060
-1.762823
5.019068
0.584543
4.051961
-0.363868
-0.166912
-6.463029
2.497974
-4.511785
5.362629
11.442233
-6.787627
7.532436
8.453266
-5.187040
-0.064689
-7.913643
-7.504304
-7.544272
6.339674
8.934793
7.663308
3.572916
8.100286
-8.964506
-9.264145
1.971236
-1.315783
-7.528137
4.972263
0.414524
2.016009
-2.855569
21.493427
-5.517268
5.439888
-5.657292
4.104973
6.785198
-9.153476
8.740489
-2.021535
-2.713630
-4.282183
4.569458
15.792153
-1.533369
-5.636844
-1.422081
-13.036117
5.381386
-2.003713
-2.746374
-3.919682
-5.409542
2.012986
-0.696561
-6.707228
-0.053825
6.584295
-4.261935
-6.778591
-3.175422
-1.370838
-1.324399
-2.279327
-4.830889
-3.019024
-16.215578
-4.081554
1.600674
5.187137
2.610004
-8.587637
-7.277408
5.999132
-4.991774
13.929520
-10.244334
3.145510
8.314678
-3.758988
5.395985
13.785445
12.443213
-0.188589
-0.554773
-4.970139
-3.395657
4.916600
-0.370246
-7.625472
-7.128586
-7.768041
2.271050
2.156852
-6.052825
-0.176063
8.043586
0.144728
6.552608
-5.032644
1.578288
-1.090279
0.886542
-2.533408
-5.901231
-6.176156
-5.496697
-0.172740
1.399663
-1.078208
5.322700
-5.310062
8.742968
8.944098
2.491453
-3.109404
-10.088029
-25.811141
0.397241
-3.299618
5.470966
-1.285604
4.561781
1.210414
2.403088
9.549337
1.742832
-7.247036
5.721599
3.678690
-2.455928
-3.769625
1.039316
2.961452
0.034400
-5.380184
-2.600906
5.562350
-4.185574
9.520898
0.927763
3.796460
5.941855
-3.358568
-0.894625
-7.755949
0.210242
0.722499
5.498147
9.815852
2.741479
-5.528402
-4.034441
3.781276
0.839887
-5.511525
-3.382905
6.288477
-4.217715
5.278416
-9.547846
1.334395
3.169651
3.117089
10.310019
-1.398970
3.114733
-2.072391
6.073437
2.479625
-5.574011
-5.970650
-7.540047
3.253383
7.194938
4.866712
2.407354
-1.723678
-4.172922
9.599760
-10.239797
-1.782533
-1.218117
12.183677
6.141965
-2.719822
1.972922
15.280255
3.714453
1.075875
-8.088490
2.023817
7.222936
-6.653589
5.983611
10.284702
-2.261919
3.987603
0.715108
-4.213651
3.630740
9.083578
-1.573076
-17.123472
-9.107530
-1.713304
4.743351
-3.350589
-4.962859
-2.615623
-16.727003
4.505044
7.965127
-1.768763
-3.836050
6.255791
-3.502577
-3.900748
3.095454
7.445314
-0.282403
-7.627273
7.877424
-0.996515
6.552537
-9.348553
4.302180
-1.853735
-2.399551
-0.130829
0.399842
3.544418
-3.043199
-2.366330
-0.222288
-1.091222
-5.520511
0.585859
6.113726
3.764005
1.053118
2.877482
-4.560788
14.121431
1.781621
-4.760231
5.121867
-2.152385
7.457736
-18.578773
4.912734
8.696841
-6.257907
-5.656983
-1.081022
-8.951483
0.474868
5.870496
-8.050181
1.515672
1.120439
4.189893
2.123417
-3.298825
3.627655
-1.842927
-8.802373
-6.154257
-2.185554
9.376122
-6.810260
-2.324836
-2.503015
-2.806714
1.330330
3.879777
-1.110640
0.508819
2.091832
6.800821
-1.984844
-0.529629
4.109900
7.161103
1.739937
-1.325534
-0.397334
0.527301
7.140612
-8.893190
4.884414
-0.529740
-1.391559
-2.789673
-0.279458
1.666855
8.790958
-4.448083
4.118115
-1.910803
6.893141
3.274583
5.271808
-3.301191
-2.682542
-7.341058
3.639179
1.725978
4.331423
-4.842668
4.379307
-2.247952
-4.019892
-3.012141
-6.107852
3.888698
-9.127257
6.726513
7.206942
2.591594
-11.439051
2.614311
6.261866
-2.338851
-7.166434
-7.243316
-8.858648
-5.054691
-0.963027
3.201483
1.729664
-2.555812
-3.657620
5.960514
0.886008
0.859913
-6.370128
2.867197
3.818354
0.501739
-4.759575
1.141459
-7.681216
-6.844018
1.386962
8.093494
3.156218
3.329801
-1.046337
0.244602
2.602316
6.797335
4.201748
-0.474734
1.372365
6.026324
3.372026
0.380191
-6.737263
-0.897306
-0.559124
-3.661430
-0.670148
-3.176473
-3.286844
9.702003
7.503295
0.392723
-6.656012
-5.764080
-2.155021
-1.487965
8.850391
-3.375970
5.307799
-1.313577
7.864743
0.521144
-6.578760
2.326191
-5.157755
2.070823
-8.477565
1.023059
-0.366904
-4.955353
0.235810
2.931915
-2.655146
-3.249642
5.095248
1.453955
-5.336023
1.097861
5.314306
3.245878
4.260681
5.214079
-4.966078
-5.348388
-4.552944
0.456473
-2.531225
2.134846
2.024901
16.086423
-4.925828
-0.879057
6.923433
3.351948
3.945274
0.502224
-8.102919
7.162571
5.079854
-4.277315
-2.594029
-5.863381
8.718214
-0.424959
-6.354625
-6.707687
-5.341800
-0.694889
-1.456666
-12.655026
-5.758511
6.189317
3.681996
-1.609142
5.338223
-3.216745
-6.324867
4.518982
11.530331
1.291958
-14.548353
6.926944
7.066890
-3.099031
-8.431192
-3.351607
-7.575928
13.358855
-0.926900
1.954179
-7.400515
-1.919279
-1.131509
1.077734
2.549312
-11.538090
0.910487
-9.257834
-1.266597
-4.731566
2.202486
-5.753773
9.295883
8.250044
0.055836
8.105319
-5.767115
11.133116
6.959849
0.075430
1.615906
17.106517
10.966154
-6.784414
2.553241
-4.206549
6.775647
7.705532
6.237611
3.465989
0.513705
-6.172347
-9.159084
1.761801
-7.449649
-2.882654
-1.236633
4.985221
2.364837
-6.661289
-2.546350
-1.671914
3.577333
3.880134
9.803240
7.709179
-6.046041
-5.187204
-1.150588
8.295487
7.873153
8.281846
8.042773
3.890445
0.697396
5.085965
10.558379
-1.105533
3.012177
-2.474844
-9.984707
3.009033
-6.697117
-3.345961
-4.081360
-10.641276
-1.020745
2.673667
-2.493014
6.423190
0.716284
3.774804
7.792063
-0.631912
6.819828
-9.542413
3.833576
6.842501
15.640370
-4.868430
-0.450254
7.204894
-4.262374
0.348231
8.644895
-3.618553
4.345746
5.730548
-5.738374
5.915359
0.779058
-1.744901
-3.900127
-5.452346
3.471348
19.392049
5.506500
9.428817
7.064890
9.578307
-11.751104
6.053450
2.424983
-10.162708
-5.036770
7.625325
1.330293
0.979348
-0.885496
-3.022821
1.774303
13.278267
-4.915010
-1.277953
8.141974
-0.362475
-0.731910
3.616765
6.140711
-3.829904
-6.124608
2.159438
-6.818345
8.472893
-7.316582
9.027192
4.071666
4.436379
3.733173
4.181489
11.276395
-10.662526
-6.045365
-21.665517
-7.994324
-5.634411
7.656890
-1.489488
2.788241
-3.713959
1.018552
-2.098972
-6.622710
6.423253
-5.391593
-7.087750
4.246458
-1.076331
4.579861
-6.711438
-3.158795
-11.058344
5.558524
-0.196462
-0.099861
-7.902310
-6.959123
12.371486
-8.646944
9.179173
-0.679122
1.634232
5.403475
5.071661
-6.256539
10.779398
2.866732
10.725423
-7.990213
-3.227643
10.228317
4.604528
-9.036793
-4.166088
-6.234392
0.936392
-1.330118
3.154866
-1.350120
-4.903053
11.428576
2.177324
3.456736
6.023998
8.021731
-4.106414
0.605363
-3.525333
10.506185
-1.494397
-3.327544
-5.153017
7.559367
12.193483
5.343075
-9.264113
-1.759077
-5.780689
2.671268
2.870088
2.949419
3.901423
2.351908
6.923727
-8.708467
6.586096
9.428103
1.613330
-1.714988
-1.433135
-11.782514
-6.169670
0.818034
9.240198
-3.700949
-9.736305
-3.437566
6.466181
-3.879561
2.863070
10.049988
-4.775323
0.144765
0.769421
-0.069383
8.790140
8.285150
-9.276371
-5.833503
-8.772104
2.948768
-7.953658
6.896171
9.745869
0.412537
5.018075
-4.853745
-1.098213
1.648342
8.668182
9.372102
2.689241
-1.787524
4.589235
-10.364671
-0.091590
1.335998
-1.798643
6.727436
-3.627817
-0.836064
-0.698922
4.940465
-2.861627
5.026325
7.017094
4.344168
-6.653584
7.858737
-3.557352
-14.659713
1.202206
11.924798
8.156079
6.129821
3.265809
-4.737255
-2.018300
-7.754777
6.360330
5.966650
-2.379534
10.351998
-9.497297
5.393581
2.870391
-2.739412
2.731740
-7.977147
-6.299743
-2.559522
15.758150
3.919005
9.408517
5.218853
4.289552
2.720457
8.493235
-0.483141
-4.158510
2.018157
-4.724234
10.066212
2.717594
0.408987
2.606051
5.921689
7.405689
-7.257522
-2.642848
-2.681147
2.639071
6.430585
1.947714
-2.393155
2.043035
5.855835
-1.949785
-7.011290
3.543423
6.431947
-4.652854
-10.488077
3.154586
4.987570
4.845603
9.391898
4.483372
-2.595317
0.095660
4.420109
-2.968761
-1.314949
-4.995009
-0.315686
-2.404191
-7.245906
4.919711
-9.733750
6.401667
4.953167
-2.710427
-1.518068
-3.347782
2.014534
-6.010297
10.153863
-13.644808
-4.830435
0.949592
-12.972442
-1.837205
4.455080
4.026838
-5.472749
-6.281670
1.117365
-3.651507
4.873915
-10.122386
2.805102
4.273160
-0.431434
2.821212
-1.148538
-7.140600
3.512664
3.054960
-4.926441
2.263958
-7.573191
-0.838291
3.528785
4.850224
8.908678
4.201260
-2.508789
2.677994
-7.479403
1.060543
-8.006454
13.294522
1.255237
-6.742203
-11.581296
1.557799
5.701218
-1.854991
-2.090606
-8.817111
-4.433950
-9.975546
2.985007
-1.642251
2.745815
5.370993
-6.624144
9.013682
-5.939980
-3.646787
5.881453
-5.761678
3.795045
7.011898
7.955933
-3.838715
5.340561
7.040647
1.529416
-11.572377
4.082774
7.052005
2.705239
7.985014
0.659080
6.032947
6.230554
-0.350555
-0.943209
-4.261658
-13.770911
-11.675619
-4.823048
3.548471
-7.531961
-5.810602
7.093434
-6.763145
-5.900940
-10.693842
0.157913
1.946772
9.012902
-4.298492
-14.236977
-2.630827
0.141215
4.232984
14.193777
2.983713
1.537871
7.646810
2.109658
-2.245512
0.439276
2.529889
8.599684
0.203759
2.194348
4.369021
-0.650002
3.858404
8.217827
-0.905220
-9.336210
2.640608
6.638269
-3.136490
5.170618
-12.530376
2.926513
-1.687193
3.724773
1.338706
-2.354284
-4.132682
-4.361930
-0.081352
4.094816
9.536912
3.805074
4.332856
9.509715
2.963781
0.940251
3.589936
1.798063
-1.270493
13.938186
-36.349541
-1.158993
-6.631910
4.002778
-3.879891
9.112689
-4.713174
5.800355
-3.798131
0.635394
-3.912922
-9.886712
5.422765
2.285702
5.909264
-1.728836
-0.569519
-27.780994
-3.851304
2.178112
2.701116
-2.434464
13.488224
0.009898
9.969889
6.544962
-2.556119
-6.454478
2.775312
0.994196
9.513401
2.652467
1.314113
-2.612023
-4.490953
-7.688427
2.732053
-3.607260
1.307134
-1.336755
-4.591772
6.251416
-11.928891
1.248391
1.715133
-1.774074
-6.571865
26.489553
4.388163
-1.676052
2.734104
3.494741
-7.137122
9.378752
2.867566
0.868994
6.398618
-13.334553
10.169139
-3.188688
-1.373968
2.607472
0.824114
1.987857
1.101418
7.405709
-7.424694
2.912929
9.915825
-5.694532
0.983775
-10.964817
7.220424
-1.746695
-15.929043
6.274415
-0.210324
4.847989
-2.544172
-4.516693
-10.949555
-0.556031
-0.561564
8.446209
-8.019071
-8.065649
-4.968110
0.412559
4.720963
-4.840842
-3.829016
4.171824
1.507031
-3.362239
1.078983
7.996961
9.260631
1.717290
9.885928
-0.970506
2.332780
5.072637
1.781637
5.347460
1.180401
1.675218
-5.981153
-8.999801
-8.120755
10.493248
-5.389031
5.939284
0.440031
-6.173682
7.061879
7.264341
-7.496801
7.888556
1.009368
9.622805
-7.555592
6.579568
8.573768
4.919502
8.595605
-0.572876
7.719804
2.812495
4.710253
-7.108950
2.610953
-6.138348
-3.394189
1.052559
6.813681
-0.857915
-7.150225
1.841642
-6.945490
-5.877986
-1.619317
0.174205
0.903439
0.417009
0.833087
-0.978840
0.893551
0.505632
-0.718201
0.369318
-0.040357
0.792166
8.011662
-0.874291
0.010354
0.964615
-0.727320
0.157828
-0.805651
0.397925
-0.726025
0.829152
-0.234557
-0.453511
-0.803939
0.856012
-0.592020
-0.451433
-0.080900
-0.462712
-0.164248
-0.716822
-0.893338
-0.012774
-0.235629
0.693974
0.410012
-0.466744
0.457171
0.934601
0.117354
0.707371
0.488142
0.665335
0.150010
-0.184675
-0.487988
-0.451953
0.055843
-0.540574
0.235715
-0.667053
-0.536925
0.057001
-0.439777
0.507034
-0.050507
0.170624
0.132999
0.283643
-0.984225
0.146768
0.331401
0.131457
-0.995239
-0.291237
0.046982
-0.506819
-0.561635
-0.437172
0.347315
0.510936
0.961591
-0.275314
-0.088291
0.198621
0.626447
0.530233
-0.673383
0.194292
-0.193860
-0.580273
0.379488
0.108046
0.546121
-0.382341
-0.901309
-0.776876
0.690212
0.446314
0.582282
-0.871674
0.493011
0.711077
0.301025
0.716461
-0.430571
0.288960
0.137087
-0.613240
-0.246889
0.578612
0.471625
-0.277610
-0.390038
0.471735
-0.374201
0.100631
-0.878038
-0.609079
0.882789
0.095438
0.337518
-0.359771
-0.139484
-0.220348
-0.781114
-0.398909
0.374167
-0.066923
-0.583387
0.828096
0.152710
0.727898
-0.765768
0.286091
-0.402798
0.565356
0.662006
0.253409
0.029673
-0.102684
0.629020
-0.831867
0.412044
0.603279
0.549869
0.368594
0.334428
-0.392863
-0.920832
-0.925059
-0.456799
-0.742518
-0.524572
0.798760
-0.776135
-0.522380
0.943832
-0.680625
-0.241610
0.150053
-0.052644
0.826107
0.432973
-0.047394
0.463453
-0.278763
0.771964
0.068506
-0.012699
-0.926100
0.397433
0.701320
0.137333
-0.408495
0.940318
-0.956573
0.587809
0.706570
0.896809
-0.960027
-0.524073
-0.269702
0.044778
-0.435439
0.538106
0.054574
0.721043
0.167693
-0.620345
0.862406
-0.680711
-0.814711
-0.005773
0.378583
-0.967384
-0.193019
-0.314801
-0.183704
-0.817876
0.497855
0.726335
0.340127
-0.038092
0.943347
-0.577007
0.076101
-0.514233
-0.413857
0.617230
-0.385751
-0.608906
-0.911603
-0.874223
0.082377
-0.988989
0.982766
-0.067045
-0.339532
-0.667694
0.276606
0.623574
-0.791431
0.603738
-0.339598
0.736405
-0.754669
-0.412318
0.028104
-0.888254
0.085006
0.923456
-0.631907
0.959759
0.586992
0.568056
0.029202
-0.666053
0.280030
0.545467
0.264799
0.528884
0.410429
-0.944039
0.117145
0.315861
-0.070054
-0.238838
0.972818
0.060238
-0.219457
0.091070
-0.552320
0.687643
0.685253
0.895218
0.584942
-0.903809
0.855867
0.304458
0.665726
-0.303626
-0.347758
0.504906
0.813103
0.733339
0.671924
-0.197169
0.251244
0.916910
0.256902
-0.986818
-0.729168
-0.785938
0.847333
0.567020
-0.067269
-9.172329
0.906581
0.040592
0.302938
-0.130219
-0.695577
0.496444
-0.341439
-0.060512
-0.601933
-0.266175
0.362548
-0.396595
-0.089023
0.108787
0.137577
-0.464948
-0.199741
0.490434
-0.921597
0.356958
0.623224
-0.648107
-0.292801
-0.213403
0.311463
-0.870749
0.930730
-0.390994
-0.877950
0.809650
-0.903062
-0.362815
-0.703255
0.017679
0.832878
-0.780654
0.554517
0.460107
-0.267014
-0.816291
0.127681
-0.759258
0.932593
-0.370966
-0.984316
0.018888
-0.863770
-0.769936
-0.834028
0.917788
-0.446934
-0.349528
0.200995
0.603799
-0.704996
-0.479002
0.258138
0.414701
0.651311
-0.328458
0.329719
0.301730
0.853682
-0.752985
0.834997
0.953292
0.149575
-0.093816
-0.212712
-0.368288
0.153636
0.143161
-0.977861
0.727207
-0.862143
-0.695855
0.486183
-0.840218
-0.427554
-0.145141
-0.635400
-0.111021
-0.392865
-0.931213
0.979127
-0.434310
-0.174988
-0.374192
0.598116
-0.682035
0.007561
0.497987
-0.008492
-0.000258
0.813913
-0.955943
0.056949
-0.851192
-0.361427
0.111829
0.349871
-0.063314
0.936085
-0.066272
-0.603967
0.546957
-0.729697
-0.425672
-0.756677
0.381863
-0.416812
0.906021
-0.356285
0.347640
-0.117478
-0.206771
-0.010716
0.463742
-0.063670
-0.949790
0.436595
-0.378999
0.618113
-0.600799
-0.824654
0.771205
0.277642
-0.915325
0.271392
-0.994969
-0.853092
-0.729304
-0.765549
0.324870
0.723054
0.510978
0.621680
-0.876796
0.670145
-0.354353
0.461057
-0.229389
0.567230
0.534124
-0.843259
0.092716
-0.778475
-0.503564
-0.034583
-0.496254
-0.087215
0.161480
0.073219
-0.541759
-0.142615
0.213850
0.071523
-0.103228
-0.237758
0.209900
0.571606
0.420557
0.257928
-0.503940
0.792137
0.917795
-0.713818
0.524130
0.232170
-0.238523
0.076250
0.350872
0.532949
0.252923
-0.224735
-0.724989
-0.647112
-0.503234
0.506337
-0.999927
-0.889218
0.158907
-0.537432
-0.602564
0.697206
-0.934186
-0.597047
-0.874131
-0.684120
0.704810
0.001822
-0.102207
0.176742
0.397705
-0.645411
0.872093
-0.759924
-0.636107
-0.095949
-0.798545
-9.420582
0.969651
0.236567
-0.020458
0.138690
-0.119192
-0.216866
0.902999
0.860900
-0.742724
0.225036
-0.978938
-0.986120
0.276704
-0.365296
-0.031846
-0.751676
-0.590461
-0.791682
0.036746
0.505579
-0.770544
0.670581
-0.082219
0.679119
-0.905145
-0.460937
0.016924
-0.825563
-0.388935
0.195444
0.419844
0.467166
-0.298687
0.955949
-0.311095
0.996688
-0.231476
0.108898
-0.388663
-0.528498
0.212417
0.137172
-0.877045
0.761663
-0.107360
-0.291349
-0.151222
0.333344
-0.168960
0.002280
-1.044249
0.424898
-0.970307
0.898293
0.418098
0.344370
0.947876
-0.102588
-0.424482
-0.645781
-0.017565
-0.714590
-0.576178
-0.109056
0.274813
0.497924
-0.646185
0.428873
0.142447
0.170449
0.757747
0.821596
0.201202
-0.782097
-0.733627
-0.493677
-0.985761
0.753161
0.455635
0.755368
0.281675
-0.018985
-0.398929
0.416040
-0.562625
-0.393387
0.337918
0.489397
-9.418824
0.796727
0.819673
0.550537
0.105563
-0.193048
-0.107256
-0.577479
-0.338397
-0.738087
-0.617777
0.140032
0.110353
0.381796
0.775571
-0.738966
0.002495
-0.081347
-0.150164
0.873091
-0.477055
-0.175192
0.399767
0.837745
-0.253041
0.909915
0.711699
0.261058
0.912267
-0.733073
0.150766
-0.016805
-0.514691
0.703489
0.597804
0.689710
-0.845644
0.016893
-0.039592
0.049183
-0.735086
0.160511
0.923048
-0.609796
0.184826
0.428796
-0.827817
0.520508
0.618885
-0.901421
0.271092
-0.145061
0.044942
-0.645911
0.960057
-0.043287
0.741533
-0.973836
-0.438934
0.251529
-0.806645
0.072728
-0.928922
-0.684268
-0.292477
-0.605265
-0.721777
-0.144159
0.535775
0.679547
-0.452384
-0.638349
-0.747101
-0.253153
0.523394
-0.772787
0.757537
0.674782
0.090222
0.047151
0.681270
-0.228223
-0.118496
-0.068217
-0.353555
0.558609
-0.029260
-0.149673
-0.937043
-0.027767
0.865365
0.569258
0.825017
0.788068
0.292726
-0.540577
0.911272
-0.328091
0.055084
-0.253005
-0.190651
-0.452272
0.174835
0.644735
0.888247
-0.217832
0.346313
-0.798092
-0.329221
-0.540629
-0.029298
-0.710832
0.153845
-0.545763
0.405475
0.350266
-0.474021
-0.423654
0.509253
0.919693
-0.302365
0.219696
0.316965
-0.782942
-0.406701
-0.490630
-0.676308
-0.102720
0.660958
-0.459825
-0.389244
0.248734
0.952864
0.002215
0.907303
-0.343813
-0.790781
0.627378
0.918211
0.335148
0.530849
0.980661
-0.538427
-0.065348
-0.503910
0.074769
-0.638390
-0.449703
-0.506733
-0.679248
-0.888921
-0.561536
0.934563
-0.916633
0.485278
0.284216
0.182486
-0.926137
-0.156082
0.321882
0.194647
0.490229
0.269121
0.079196
0.387380
0.403110
0.024954
0.774947
-0.395090
0.734648
0.961684
0.651049
-0.344346
-0.781936
0.815623
0.106140
0.950065
-0.001376
0.615214
-0.709990
-0.917645
-0.993981
-0.504641
0.097850
0.869261
0.531426
0.082821
0.029547
-0.965739
0.186464
0.551528
0.389077
0.524101
0.464410
0.541640
-0.335921
-0.796279
0.849139
0.131225
-0.922065
-0.806152
-0.749175
-0.416794
-0.881667
-0.746692
-0.054275
0.328743
-0.996422
-0.222283
0.541402
-0.035222
8.997410
-0.401819
0.939145
-0.415825
0.469576
-0.142874
-0.092028
-0.118532
-0.369555
0.231651
-0.314034
-0.069393
0.379178
0.297711
0.195129
-0.566595
3.878263
-0.310175
-0.096760
-0.685461
0.385239
-0.013697
-0.549838
0.693395
-0.655204
-0.475375
-0.873274
0.494653
0.372499
-0.529855
0.229432
0.028576
-0.816845
0.471951
0.996915
0.112205
-0.358818
0.049259
-0.561371
-0.570401
-0.461952
0.410263
-0.340769
0.907915
0.692050
0.925112
-0.683609
0.484502
-0.585683
-0.756929
0.853423
-0.054501
-0.093900
0.630980
-0.474994
0.575709
-0.113649
0.540437
0.610129
-0.540883
0.212853
-0.394657
0.492189
-0.196903
0.027840
-0.656742
-0.759481
-0.527331
0.864033
0.444968
0.636261
0.620928
0.909683
-0.958292
0.457466
-0.579186
0.337000
-0.189316
-0.688122
-0.761703
-0.003051
0.560926
0.403522
0.045366
-0.723526
-0.675081
-0.511284
-0.639065
-0.713311
-0.900757
-0.766826
0.273993
-0.383883
0.869774
-0.854876
-0.501952
-0.576457
0.295869
-0.972836
0.183932
-0.196850
0.888758
-0.571400
-0.523215
0.981937
-0.269648
0.477666
-0.096667
0.454636
0.250422
0.682138
0.473888
0.136323
-0.067788
-0.895115
0.022451
0.453280
0.395934
0.880066
0.667936
-0.484220
-0.984142
0.449150
0.279964
-0.244600
-0.273488
-0.059097
-0.320445
-0.505073
0.224682
0.602810
-0.236791
-0.723048
-1.087094
-0.448516
0.506287
-0.572323
-0.425251
-0.822178
-0.456553
0.541318
-0.772222
-0.772741
0.437143
-0.889686
0.759799
0.783265
0.889384
-0.970496
-0.930351
-0.455892
0.444566
-0.905730
0.567045
-0.620940
0.251345
-0.433382
-0.552197
0.297623
0.346652
-0.243076
0.956718
0.763522
-0.544938
-0.946505
0.429079
-0.710530
-0.580788
0.321302
-0.656230
-0.939344
0.475436
-0.535443
-0.578059
-0.543939
0.147079
-0.425368
-0.864871
0.679443
0.320157
-0.048150
-0.052720
-0.638670
0.400814
-0.553988
-0.643646
0.424911
0.782360
0.929284
-0.443526
-0.111021
-0.980824
-0.079744
-0.921211
0.145989
0.224753
0.566557
-0.906269
-0.318119
0.529331
-0.175553
-0.921347
-0.935344
-0.991378
-0.820088
0.884305
-0.051733
0.479631
-1.053559
-0.478552
0.767445
-8.452944
-0.114662
-0.592399
0.233808
0.490431
-0.103620
0.979444
-0.061064
-1.737749
0.592042
0.007538
-0.003021
0.369644
0.348970
0.256525
-0.385356
0.296036
-0.107237
-0.780179
-0.835112
-0.151599
-0.325425
-0.120182
0.436777
-0.465302
-0.222412
-0.668780
0.426200
0.261379
0.604416
-0.455205
-0.582204
0.625903
0.664685
0.524073
-0.990095
0.790364
-0.120596
-0.026028
-0.541612
0.999772
-0.251365
-0.404017
-0.150513
0.384709
-0.673013
-0.898783
0.112763
0.645280
0.169079
0.430027
0.121952
0.876328
-0.806166
0.240335
-0.002425
0.953943
-0.144549
-0.849486
-0.890069
-0.794872
-0.684690
0.032155
-0.282842
0.457452
-0.997100
-0.503640
0.261638
-0.819795
0.017508
0.473292
0.790120
-0.618622
0.003867
-0.217486
-0.591538
0.055586
0.646601
-0.208861
-0.328053
0.424780
-0.991065
-0.987473
-0.106095
0.346484
-0.615809
-0.933120
0.951489
-0.186022
-0.444200
0.167790
-0.868334
0.212076
0.194192
-0.284689
0.489020
-0.720273
0.523662
0.485464
-0.920314
-0.394611
-0.394731
0.812389
-0.012273
0.506693
-0.319346
-0.156151
0.974537
0.104517
0.172432
0.021690
-1.033464
0.297435
-0.066243
0.440867
0.049742
0.123912
0.451480
0.712838
-0.693974
0.458371
-0.197618
0.868502
0.613793
0.962418
0.569718
-0.218955
0.593601
0.481861
-0.832732
-0.870556
-0.552357
0.788013
0.128310
-0.773750
-0.096568
-0.742655
-0.977248
0.861126
-0.924351
0.813732
-0.868805
0.002768
-0.479027
0.367194
0.678272
0.906608
-0.957401
0.938219
-0.760563
0.337902
-0.200363
-0.454888
-0.970286
-0.326067
-0.513023
0.549986
0.215652
0.556104
-0.851165
-0.820630
-0.285872
-0.668218
0.464148
0.971960
0.246275
0.676740
0.401604
0.164704
0.986574
-0.406196
0.947898
0.068088
0.522163
-0.502816
0.118551
0.860468
-0.036002
-0.857251
-0.469079
0.078866
0.334897
-0.170122
0.123450
0.602239
-0.997215
-0.391661
-0.788000
-0.276409
0.027569
-0.044371
0.775156
-0.152513
-0.483717
0.618934
-0.434864
1.031132
-0.665199
-0.698291
-0.888376
0.249090
-0.314806
-0.454329
-0.901864
-0.471877
-0.916815
0.885304
-0.479376
0.477715
-0.813373
0.904115
0.555932
-0.309113
-0.243800
-0.223777
0.121472
0.981107
0.751443
-0.686550
0.961662
-0.269855
-0.224938
-0.375456
0.013715
-0.674210
0.767164
0.533512
-0.313273
-0.935898
0.576437
0.548882
0.979742
0.755186
-0.102913
-0.650345
0.526857
0.975284
0.145469
0.578617
-0.521051
-0.437795
0.002180
0.597037
-0.872112
-0.568494
0.524001
0.095217
-0.325730
-0.692206
0.289772
0.322862
0.549213
-3.298103
0.831288
0.449633
-0.168368
0.569508
-0.302706
-0.012251
0.240410
0.343627
0.387555
-0.098418
-0.938377
-0.199370
-0.894306
-0.441343
-0.151923
-0.530882
-0.094902
-0.848498
-0.812382
0.276303
-0.724632
0.393238
0.947667
0.855526
-0.964137
-0.166178
-0.181023
-0.700675
0.542755
0.137721
0.987626
-0.691739
-0.307809
6.317798
0.645802
-0.211376
0.647339
0.970329
-0.328692
-0.931204
-0.448757
-0.885113
-0.196916
0.419219
-0.267150
0.372718
-0.184509
0.323395
-0.263203
0.608366
-0.602729
-0.384261
-0.930591
0.507740
-0.508960
0.592473
0.863674
-0.980580
-0.887487
0.570206
-0.561467
-0.322798
0.345808
-0.336264
0.796547
-0.229939
0.872111
0.024025
0.524243
0.424609
-0.611441
-0.341794
0.570495
0.298166
0.833053
0.296680
-0.656841
0.227673
0.223026
-0.472168
0.986840
0.177078
-0.309344
-0.356480
-0.132620
-0.853986
0.055175
-0.866485
0.924458
0.113990
-0.193395
-0.612082
0.663893
-0.706680
-0.499946
0.912769
-0.633121
-0.771497
-0.346271
0.425955
0.286259
0.292433
0.213804
-0.059112
0.232798
-0.516333
-0.007874
-0.854818
0.601445
-0.060241
0.684883
0.188453
0.598693
-0.053207
-0.538950
0.964072
0.006678
0.805715
-0.249754
-0.085250
-0.857199
0.130495
0.013615
-0.353928
0.534657
0.060296
-0.036377
-0.430291
-0.105458
-0.061728
0.020265
0.854367
0.085445
0.721324
-0.714306
0.467107
-0.546313
-0.650151
-0.871099
-0.883062
-0.071695
0.237501
0.780069
0.624168
-0.329270
0.169863
0.102156
0.352830
-0.995263
0.032560
-0.926438
0.884584
-0.344424
0.781058
0.564638
-0.349537
0.600673
0.247508
-0.385423
0.590056
0.402570
0.315265
0.965817
0.076581
-0.556606
0.648276
-0.498166
0.298720
0.324731
-0.535308
-0.761893
-0.976001
0.678844
-0.393227
-0.833927
-0.869377
0.091856
0.785235
0.054402
-0.432689
0.978072
-0.633403
0.458054
0.720017
-0.706084
-0.482931
-0.462827
-0.309498
-0.256282
0.660840
-0.476294
0.479026
0.513417
-0.848673
-0.159626
-0.914032
0.767051
-0.962353
-0.207298
0.091480
0.808222
-0.531509
-0.537819
-0.954413
-0.593140
0.073183
-0.728798
8.309457
-0.384299
-0.424261
-0.047654
0.185828
0.606437
-0.691468
0.469111
-0.382748
-0.060346
-0.012229
0.008198
-0.707154
0.179820
-0.400926
-0.494995
-0.215126
-0.497504
-0.528627
-0.475169
-0.508890
0.616086
-0.627160
0.672555
0.369865
-0.872154
-0.791476
-0.887404
0.101342
-0.385670
-0.835268
0.377319
-0.270590
0.914492
-0.970538
-0.486461
-0.778795
-0.606670
-0.079662
0.116780
-0.193101
0.913071
-0.400179
-0.315559
-0.619436
-0.706426
0.551802
-0.545972
-0.167016
0.325365
-0.423366
-0.186323
0.645184
0.312921
0.179252
-0.362948
0.913278
-0.786162
0.650118
0.166463
0.855947
0.573605
-0.485233
-0.267196
0.568486
0.490710
0.398362
-0.516441
0.546186
0.595157
-0.535567
-0.550922
-0.441252
-0.954569
0.500731
0.897165
-0.525526
0.974043
-0.831996
0.747839
0.466508
-0.170635
0.857677
0.905169
-0.534122
-0.595084
0.041148
-0.256640
0.117969
0.491986
0.731457
0.235065
-0.001842
-0.012246
-0.886255
-0.521586
0.241868
-0.526783
0.833754
0.853366
0.373987
0.139504
-0.063837
-0.245857
0.268257
0.783782
0.969417
-0.656916
-0.646644
0.436699
0.384361
0.514247
-0.737971
-0.670554
0.272357
-0.895223
-0.179656
-0.086527
0.292253
0.473134
0.040582
-0.005314
0.357854
-0.799980
-0.975239
0.599822
-0.971155
0.810683
0.613957
0.931226
0.475732
-0.088838
-0.334095
0.158450
0.302194
-0.029395
-0.598893
0.203005
-0.408583
-0.367808
-0.958283
-0.555254
0.762749
-0.556504
-0.770063
-0.168796
0.387467
-0.552196
-0.252225
0.335749
-0.674925
0.745625
-0.442125
-0.359370
0.014934
-0.504385
-0.603072
0.035859
-0.211070
0.191714
-0.424345
-0.233699
0.747058
-0.338674
-0.318345
-0.694888
0.267192
-0.809751
0.806599
0.395777
0.614517
0.074491
0.732496
-0.490976
0.008151
0.912310
0.293818
0.374913
-0.137412
4.170490
0.456555
-5.745604
0.209850
-0.978022
0.474863
-0.297201
0.584560
0.387302
-0.289384
-0.771333
-0.192811
-0.286613
0.332644
-0.059420
0.444842
-0.787450
0.625056
0.136601
0.746063
-0.968567
0.272037
-0.261704
-0.601778
-0.258915
0.893282
0.475043
0.615036
-0.802666
-0.040808
0.712420
0.653515
0.407868
-0.301146
-0.905405
0.040602
0.978052
-0.089334
-0.561214
0.443762
-0.886487
0.781019
0.568156
-0.435260
-0.922699
-0.436705
0.475963
-0.175682
0.698158
-0.317400
0.180557
-0.456147
-0.007100
0.179121
-0.334509
-0.341113
-0.373544
-0.825287
-0.764681
0.300989
0.699220
0.499735
0.841106
0.787929
0.432543
0.150281
-0.172685
-0.850673
-0.651429
0.423406
-0.733216
0.706128
-0.985444
-0.249945
0.335402
0.316589
-0.117075
0.483690
-0.524545
0.425321
0.007296
-0.416320
0.967366
-0.194307
-0.950825
0.490201
0.575915
0.132743
0.968125
-0.517720
-0.370268
0.857355
0.050969
0.663677
0.256614
-0.496965
0.733011
-0.953891
0.609271
0.274593
0.457446
-0.054185
-0.034834
0.968718
0.131337
0.476730
-0.028034
0.134486
-0.738552
-0.700343
-0.604227
0.347337
-0.540210
-0.317661
0.437312
-0.041669
-0.333857
0.983898
0.415543
0.365760
-0.778473
-0.370349
-4.113329
0.904608
0.074378
0.457088
0.900653
-0.643098
-0.803232
0.809176
0.924100
-0.588945
-0.091817
-0.931442
0.637627
-0.708390
0.977637
0.582654
0.622207
-0.840779
-0.008433
-0.213921
0.818405
-0.133327
-0.576085
-0.120487
-0.566115
0.849857
0.601529
0.347119
-0.691236
-0.760469
0.741077
0.825908
-0.390986
0.334086
-0.152612
0.670404
0.455092
0.972783
0.875494
0.000625
0.690239
0.370609
-0.644791
0.002608
-0.178577
-0.744848
-0.993578
0.381871
-0.117528
0.353332
-0.416060
-0.389184
0.313978
0.063174
0.481950
-0.063344
0.403957
-0.430656
-0.767448
0.587948
-0.247884
-0.755473
0.007308
-0.840270
0.471642
0.612237
-0.587024
-4.302865
0.518456
-0.726893
-0.166833
0.988154
0.284172
-0.357069
0.851670
0.807600
-0.069075
0.209377
0.207189
-0.239753
0.398314
-0.776411
-0.923858
0.054713
0.245969
0.627628
-0.200861
0.741553
0.225676
-0.334824
-0.398828
0.990868
-0.764837
0.818595
0.304362
-0.867133
-0.191568
0.429449
0.826235
0.606458
0.070848
-0.754727
-0.159953
-0.920144
-0.416914
-0.490133
-0.115550
-0.431853
-0.782997
-0.716783
0.741285
0.592664
0.257471
0.147468
0.684198
-0.488096
0.159272
-0.031002
0.057026
-0.942359
0.599442
-0.053346
-0.801796
0.208216
-0.782819
-0.308050
-0.659974
-0.426457
-0.122800
-0.854333
0.855488
0.831498
0.225546
-0.756968
-0.255952
0.411106
0.756103
0.244186
-0.633417
-0.390230
-0.997766
-0.223396
-0.671483
-0.624849
0.901606
-0.972503
0.724899
0.609274
0.252164
0.462868
-0.671954
-0.690216
-0.236810
0.326909
-0.920108
0.355402
0.278393
0.682327
0.139997
0.129077
-0.658148
0.833663
-0.135670
0.132744
-0.674938
-0.092939
0.687193
-0.928698
-0.503130
0.548925
3.896350
-0.443126
0.757336
-0.800855
0.278269
0.092050
0.690978
0.447466
-0.401623
-0.509167
0.064666
0.594049
-0.228634
0.105539
-0.166871
-0.771677
0.165403
0.764653
0.890605
-0.981432
0.465898
0.408045
-0.814560
-0.558838
-0.209422
0.146940
0.903866
0.199406
-0.261485
0.027113
0.150083
2.642276
-0.082039
-0.252036
0.053372
-0.331401
-0.260826
-0.654584
-0.103819
-0.489958
0.255662
0.014683
0.084478
0.824948
-4.322578
0.038860
-0.845354
0.613942
0.374781
-0.027562
0.451870
-0.623636
-0.489218
0.933241
0.571484
-0.919307
0.642301
-0.324245
-0.543679
0.959645
0.716031
-0.565653
-0.511817
0.733980
0.828922
0.482751
-0.277582
0.523414
-0.393552
0.869332
-0.622184
-0.523779
-0.951754
0.969427
0.443645
0.619839
0.599294
0.829397
0.936552
-0.131059
0.138782
0.030582
-0.269942
0.608104
0.536174
0.005736
-0.259087
0.161489
-0.544988
0.782189
0.660769
-0.209836
-0.948873
-0.204149
-0.639297
-0.193917
-0.518874
-0.457021
-0.261561
-0.551026
0.597717
0.047984
0.313387
-0.190159
0.830590
-0.833393
-0.289369
-0.650323
-0.439533
0.597801
0.962092
0.504037
0.321891
0.997597
-0.065570
-0.788322
0.963945
-0.642228
0.909493
0.269877
-0.794494
0.327306
0.568427
0.382516
-0.977821
0.066572
0.487698
0.374706
0.132796
-0.099196
0.282872
-0.089947
-0.019550
0.643208
0.239385
0.138776
-0.682884
0.276055
0.419998
-0.020509
-0.309469
0.570531
-0.625242
-0.200136
0.518473
0.851571
0.747653
-0.643658
0.773139
-0.235987
-0.712889
-0.782770
-0.329973
-0.520199
0.068370
0.479464
-0.805471
0.834542
0.583936
-0.032890
-0.892506
0.908074
0.009822
0.253300
-0.956426
0.936243
0.937779
-0.163601
0.619638
0.646860
0.315833
-0.851205
0.662539
-0.353313
0.329954
0.323292
0.860701
-0.571455
0.958544
-0.391997
0.354568
-0.302528
0.088488
-0.848029
0.314116
0.470794
0.038483
-0.212770
0.713311
0.523053
0.681686
-0.819623
-0.023122
-0.369401
0.449980
-0.672036
0.586469
0.104978
-0.379116
-0.162280
0.511673
0.562025
-0.576381
-0.638594
0.947620
-0.759096
0.615807
0.869640
-0.177747
0.009863
-0.671962
0.374986
-0.975555
0.779094
-0.636675
-0.521110
-0.952305
-0.457950
2.442110
-0.788103
-0.395996
-0.707167
-0.055495
0.469038
0.346351
0.568830
0.307609
0.278365
-0.717082
-0.969285
0.732835
0.853249
-0.649257
-0.358729
0.733272
-0.640581
-0.814904
-0.660214
0.495552
-0.861576
0.051282
-0.444887
0.726074
-0.747972
0.516213
-0.040426
-0.876100
0.813199
-0.091154
0.762128
0.808248
0.580759
0.067652
-0.256630
-0.591625
0.082998
0.863592
-0.697235
0.383810
-0.892538
0.658984
-0.822190
0.525685
-0.867953
-0.581197
0.081770
0.239709
-0.627528
-0.241335
-0.964007
0.677997
-0.908837
0.801547
-0.598027
0.223824
0.225483
-0.259794
0.553065
-0.330782
-0.848690
-0.702496
-0.606437
0.368545
0.157625
0.618609
0.513202
-0.349789
0.050174
-0.459491
0.741890
0.471599
-0.458003
-0.557552
0.512302
-0.693307
-0.357092
0.964864
0.351519
0.289804
-0.047545
-0.939094
-0.875190
0.511468
-0.041016
0.982469
0.304694
0.698235
-0.312938
-0.101958
-0.560652
0.124218
-0.115228
-0.709295
-0.861675
0.885822
0.990828
0.589030
-0.644712
0.630102
0.383994
0.178823
-0.453653
0.848283
-0.924114
0.363266
0.270948
-0.423891
-0.335866
0.824361
0.973948
0.581293
0.487921
0.624963
0.483725
-0.875619
0.975696
0.572962
0.620562
0.192206
0.496472
-0.351228
-0.706122
-0.322751
0.602028
0.026536
-0.166602
0.815868
0.477802
0.956460
-0.402287
-0.585722
0.227560
0.418327
-0.759117
-0.736698
-0.815565
9.969376
0.691167
-0.379453
-0.189432
-0.581927
-0.023241
0.397933
0.384308
-0.696657
0.444986
-0.521675
-0.105386
-0.484179
0.487700
0.191599
0.606588
0.954637
-0.483990
-0.210530
-0.131579
0.513919
-0.849980
-0.444935
-0.723255
0.815213
-0.099663
-0.987220
-0.046149
0.389971
0.567965
-0.290840
-0.724847
0.420468
-0.940201
0.719344
0.662048
0.685044
-0.552223
-0.482074
0.470906
0.294999
0.590649
0.814311
0.441702
-0.794541
-0.130641
0.604167
0.369410
0.949866
0.637715
-0.831101
0.441340
0.393869
-0.775758
0.480302
0.686582
-0.711918
0.469675
-0.241261
-0.405823
-0.193070
-0.499856
0.547800
0.980250
-0.897617
-0.675796
0.920637
-0.867986
-0.724843
-0.761527
-0.333122
0.748492
-0.215013
0.737685
0.316929
-0.571263
0.817386
-0.885620
0.239394
0.588761
-0.056391
-0.097422
-0.617795
4.495442
0.857240
-0.889882
-0.622033
0.302062
-0.377410
0.638262
0.659843
0.195550
-0.601468
0.030529
-0.361148
-0.077866
0.392477
0.632813
-0.828137
0.681276
0.875815
0.200795
-0.319709
-0.906091
-0.763874
-0.921698
-0.362971
0.044969
-0.768832
-0.526054
-0.013969
0.094480
-0.686631
-0.869813
-0.884194
-0.404574
0.476683
-0.679562
0.521977
0.342708
0.690857
0.648545
0.604617
-0.855560
0.669341
0.604852
-0.873972
0.573700
-0.143875
0.725084
0.685338
0.997704
-0.628226
-0.067648
0.138294
0.526702
-0.292042
0.953762
-0.246919
0.597308
-0.999112
0.298433
-0.415502
-0.636444
0.408218
-0.640672
0.226613
0.248615
0.510949
-0.440600
-0.048438
0.120876
0.128697
-0.313264
0.259926
-0.858643
0.190597
0.114972
0.334853
-0.219722
0.570171
0.573399
0.534733
0.408430
0.719267
-0.341446
-0.993238
0.250029
-0.235448
0.329961
-0.631947
0.474671
0.019431
-0.368071
-0.481977
-0.525324
0.313668
-0.503905
-0.014309
0.101827
0.493981
0.399242
-0.123803
0.203899
0.767235
-1.310315
0.363248
-0.799663
0.491412
0.013011
-0.369183
-0.321471
0.157285
0.523407
-0.090243
0.923734
-0.835676
0.348515
0.775794
-0.390740
-0.906002
0.220853
0.689054
0.178487
0.361587
-0.871365
-0.758111
-0.269891
-0.323426
-0.797625
-0.910154
-0.516975
0.661931
-0.080428
0.050190
0.761885
-0.098887
-0.340325
0.449857
0.829582
-0.817499
-0.023934
0.403232
-0.613603
-0.272988
-0.049810
-0.420454
0.066149
-0.684427
-0.983532
0.399900
-0.895591
0.041415
0.247302
0.319581
-0.355319
-0.246991
0.215398
0.237388
-0.602419
0.619029
0.866025
0.754857
-0.305865
-0.774065
0.726815
-0.768784
-0.377573
-0.040902
0.583126
0.810190
0.102212
-0.990003
0.512325
0.431050
-0.849948
0.730404
0.176829
0.083688
-0.367790
-0.558190
-0.607476
-0.675053
-0.526419
-0.037450
0.688615
-0.294919
-0.202940
0.286204
-0.548366
0.251742
0.315150
0.352029
0.775063
-0.739217
1.993856
-0.263130
-0.606763
-0.089734
0.332216
0.206773
0.234695
-0.434794
0.142488
0.426937
0.278349
-0.182565
0.536659
0.092115
0.643463
0.863489
-0.292897
0.042260
0.460809
-0.559821
0.178590
-0.238722
-0.453477
0.976771
-0.215627
-0.526159
-0.751053
0.626210
0.162745
0.089405
-0.430798
-0.370113
0.995674
-0.109000
-0.550809
-0.730970
0.055427
0.434997
-0.931661
-0.752167
-0.579120
0.505985
0.850345
-0.198964
-0.056821
0.813723
-0.085476
0.925012
0.745391
0.853812
0.988893
-0.299939
0.243294
0.147202
0.046983
-0.481037
-0.458393
-0.918972
-0.828558
-0.774712
0.027345
-0.642721
0.252651
0.312799
-0.906676
0.335284
0.827480
0.046284
-0.890399
0.258907
0.860149
-0.249074
0.377920
-0.673023
-0.973965
-0.475058
-0.149618
0.002824
0.926981
0.460103
-6.223918
-0.235129
-0.439856
0.655111
-0.977056
0.726524
-0.509245
0.584414
0.800539
0.315468
-0.275852
-0.817822
-0.682369
0.302737
-0.526265
0.947143
0.582498
-0.634996
-0.911683
0.305261
-0.750397
-0.141555
0.043001
0.552973
-0.231074
0.247300
0.507098
-0.531137
0.063137
-0.028007
0.941871
-0.474795
0.407331
-0.869041
0.484586
0.162649
0.676987
0.568203
-0.774592
0.403195
0.589920
-0.716167
0.272896
0.194088
0.552054
-0.012070
-0.278579
-0.585945
-0.213579
0.737941
-0.411346
-0.122836
-0.397555
0.322663
0.142099
0.356736
0.119410
0.542586
-0.761093
-0.100142
0.427775
-0.326432
0.765785
-0.257758
-0.824788
0.446320
0.429681
0.095358
0.204712
-0.330372
-0.653602
0.876703
0.086118
0.552195
-0.132891
0.311675
0.372188
-0.795215
0.486317
0.598931
0.863442
0.832309
0.994041
0.285327
-0.007674
0.074543
0.391423
-0.767182
-0.419277
0.150546
-0.161114
-0.015499
0.894709
0.566542
-0.585186
-0.510437
-0.084945
0.893200
-7.274743
0.568657
0.877836
-0.953325
0.373871
-0.730211
-0.410776
0.712162
-0.121070
0.796577
-0.421156
-0.273797
0.618400
0.209828
0.896873
-0.692876
-0.728286
0.540993
-0.552573
-0.662673
0.111997
-0.862223
0.707997
0.894221
-0.588709
-0.919685
-0.574926
0.778452
0.594907
0.243477
-0.664530
-0.518789
-0.504138
-0.779691
-0.134129
0.463766
0.271973
-0.003752
-0.211278
0.523952
0.692049
0.293586
0.384360
-0.062067
0.098091
0.596933
0.101143
-0.142631
0.320862
-0.981402
-0.962520
0.513816
-0.860409
0.595770
0.235102
-0.710040
-0.478234
-0.292443
0.977403
-0.284858
0.419621
0.064220
0.656544
0.010863
0.073851
-0.659779
-0.797331
-0.901808
0.393472
-0.715254
0.009122
-0.114127
-0.774854
-0.542276
0.469027
0.510998
0.665137
-0.006604
0.117524
0.420287
-0.466543
0.933361
-0.627832
0.969367
-0.117130
-0.848645
-0.493224
-0.579381
-0.014970
0.275592
-0.033256
-0.339788
0.388878
0.095229
0.648757
0.787954
0.680367
-0.287800
0.210683
-0.085731
-0.756285
-0.792657
-0.940494
-0.832619
0.152990
0.638522
0.743442
0.516985
-0.612576
0.098471
-0.944713
0.186742
-0.612030
0.398199
-0.995449
-0.004681
-0.744862
0.288115
-0.944415
0.157755
-0.482300
0.839090
-0.085048
-0.811693
0.989636
-0.836044
0.973243
-0.380322
-0.158986
0.626986
0.149611
0.685964
-0.474814
0.545893
-0.965394
0.603510
0.523498
-0.320470
-0.434440
-0.775101
-0.227715
-0.407939
-0.186558
-0.061657
0.125102
-0.160248
0.932935
-0.809621
-0.514296
-0.039922
0.094165
-0.443349
-0.010003
0.568376
0.328376
-0.945304
-0.903932
-0.051110
0.616221
-0.904726
0.983225
0.591858
0.743189
0.563959
-0.695255
-0.217551
-0.304653
-0.765827
-0.432025
-0.412886
-0.315962
-0.633264
-0.671065
-0.590937
-0.084085
-0.803580
-0.844377
-0.334411
0.486494
0.543500
0.944531
0.154098
-0.423661
-0.496092
0.072594
-0.886257
-0.872057
0.821909
-0.751752
0.137576
-0.832307
0.976450
0.868896
0.251739
-0.265040
0.074036
-0.397668
-0.453165
-0.782290
0.799148
0.614280
-0.828659
0.705168
-0.419102
-0.279590
0.757786
0.411544
0.393715
-0.735398
0.081978
-0.376098
0.972267
-0.018403
0.394036
-0.887566
-0.965423
0.636697
-0.326361
-0.630581
-0.889283
0.136661
-0.343600
0.058950
0.938750
-0.059938
0.096392
0.665336
0.750268
-0.945144
-0.705325
0.091388
-0.640039
-0.387162
0.151532
-0.885389
0.823589
-0.818960
0.153551
0.530015
0.344053
-0.856091
-0.458880
-0.964017
0.676872
0.746004
-0.147616
-0.985900
0.967338
0.916072
0.763017
-0.315288
-0.807433
0.723225
0.893328
-0.254602
-0.356725
0.601443
-0.539589
0.012995
-0.115842
0.684635
0.204721
-0.487253
0.393242
-0.687094
-0.905637
-0.982940
-0.345370
-0.442654
-0.976142
-0.699719
-0.984768
-0.153007
-0.864126
0.359122
0.539235
-0.293306
0.798176
0.534525
-0.156270
-0.416227
-3.043354
0.621973
-0.339627
0.668002
-0.494916
0.151675
-5.052401
0.441972
-0.319345
0.556668
-0.085610
-1.229474
-0.846624
-1.739897
-0.224824
-0.595925
0.956907
-0.648128
-0.232120
-0.733292
0.518768
-0.860549
0.408803
1.131705
-0.132582
-0.045170
0.919520
0.668061
-0.596761
0.531508
-0.272334
0.280086
0.289188
-0.647549
0.091090
0.404114
0.442933
-0.609261
-0.700745
0.280862
-0.796090
0.887086
0.418496
0.751617
-0.859183
-0.111469
-0.023396
0.289284
-5.055243
0.667602
0.550059
0.708297
0.651571
-0.013066
-0.195219
-0.325672
0.355648
-0.208624
-0.351054
0.684832
-0.727750
0.549736
0.087581
0.225508
-0.368581
-0.197499
0.324176
-0.381553
-0.589767
0.281249
-0.696314
0.547748
-0.775640
0.546774
-0.162097
0.577113
0.926452
-0.141958
0.136703
-0.410289
0.963952
-0.167487
-0.571179
0.381650
-0.954966
0.945787
-0.564617
-0.560034
0.075252
0.730392
-0.869678
-0.941126
0.360454
-0.451729
-0.663807
0.051899
-0.914040
-0.665154
-0.316383
0.877584
-0.018363
0.822404
-0.900387
0.652085
-0.839099
-0.496912
0.595877
-0.705066
-0.931284
-0.969157
0.515224
0.998512
-0.654627
0.947884
-0.296853
0.898407
0.623607
0.948873
-0.962247
-0.662231
0.346785
0.457219
0.723214
-0.552232
-0.098087
-0.980414
0.957733
-0.317523
-0.334511
0.248764
-0.859093
0.343934
-0.431423
-0.232007
-0.883767
0.090378
-0.228764
-0.421542
0.723853
-0.067020
-1.037107
0.311103
-0.142120
-0.685442
-0.496617
0.956800
-0.077980
-0.618582
0.973084
-0.318054
-0.930967
0.748942
0.007962
-0.588506
-0.394414
-0.357627
-0.959904
0.647856
-0.244679
0.275892
-0.890162
0.133564
-0.790209
-0.264842
0.898689
0.861706
0.605272
-0.613664
-0.816188
0.496056
-0.508138
-0.864211
0.347811
0.037954
0.130799
-0.216758
0.148523
-0.582975
0.398193
0.254599
-0.417334
0.856683
-0.534601
-0.419818
0.801563
0.501448
-0.877834
-0.311110
0.896126
-0.458603
0.356409
-0.702496
-0.203996
-0.438016
0.016027
-0.900351
0.437970
0.703734
-0.959262
0.053461
0.700940
0.483454
0.423725
-0.452016
0.837086
-0.956159
-0.993860
0.025918
0.391882
-0.958743
-0.565227
0.549460
-0.813886
-0.169439
-0.514677
0.297278
0.465442
-0.487034
0.043696
0.528611
-0.207880
-0.478013
0.522201
0.756147
-0.703163
-0.863322
-0.829638
-0.503862
-0.413512
0.282801
0.619194
0.224095
-0.292438
-0.450956
0.857482
-0.487318
-0.710757
0.827915
-0.458115
-0.833162
0.889371
-0.832949
-0.633089
-0.515956
0.931421
0.736475
-0.743315
-0.634551
-0.949638
0.305591
0.368495
0.430858
-0.355754
0.527008
-0.600461
-0.579761
0.188477
-0.011300
-0.731325
-0.951196
-0.713051
0.070014
0.317085
-0.185577
-0.784096
0.846896
0.468093
0.634042
-0.557590
0.741365
-0.789565
-0.098608
-0.872175
-0.156745
-0.739116
-0.510073
0.003679
-0.732943
0.325214
-0.088964
0.922665
0.304263
-0.693686
0.160743
-0.446873
-0.772002
-0.550839
0.256917
0.339056
0.585692
0.757936
-0.583206
-0.955234
-0.901314
0.791235
-0.606562
-0.381447
-0.427684
0.909859
-0.206488
0.709879
-0.909346
-0.061802
0.622457
0.577092
0.067566
-0.119204
0.316039
-0.084220
0.904568
0.123522
0.562162
-0.191939
0.537086
0.648777
-0.222654
-0.401413
-0.430425
0.984121
0.765085
0.184960
-0.630854
-0.266742
-0.685968
0.821794
-0.432716
0.336390
-0.423203
0.235416
-0.022600
-0.026934
0.424483
0.781183
-0.648435
-0.004909
-0.144735
-0.862998
0.821025
-0.368486
0.593561
0.338458
0.736899
0.214199
0.016973
0.092726
-0.042214
-0.290241
0.552154
-0.543539
0.834839
0.279730
0.336689
0.186186
-0.064198
0.059168
-0.028475
-0.342404
0.870046
-0.552160
0.569679
-0.633748
0.712338
-0.484924
0.747317
-0.673538
0.207567
0.835495
0.879562
0.527045
0.232357
0.659810
-0.831626
0.838263
0.186805
-0.722898
-0.734419
-0.959394
-0.519855
0.839376
0.772943
0.765979
-0.828282
0.120015
0.309184
0.966133
-0.032070
-0.269790
0.042343
0.239148
-0.706809
-0.609257
-0.128794
-0.346363
0.176350
-0.855216
-0.069601
0.519762
0.206036
-0.603085
0.669650
0.115847
0.438884
-0.023892
-0.707656
-0.053291
-0.805938
-0.498035
0.469254
0.255031
0.421540
-0.318894
-0.293869
-0.688630
-0.825195
0.844796
0.868675
0.880903
-0.230789
0.738446
-0.242910
-0.286343
0.858883
-0.298088
-0.044571
0.201808
0.767203
-0.877633
0.998882
-0.280219
0.483345
0.495938
0.087696
-0.099084
0.883476
0.650998
0.980085
-0.463201
-0.492167
-0.289115
0.441527
0.566072
0.805279
-0.432974
-0.675692
-0.749929
-0.439892
-0.522258
-0.154785
-0.794012
-0.110622
-0.148392
-0.562592
-0.792613
0.133409
-0.964892
-0.662772
0.768053
0.489904
0.771475
-0.034582
-0.216563
-0.548643
0.618400
0.145909
0.388830
-0.811277
-0.552831
-0.339413
-0.710607
0.577462
0.591313
-0.788084
-0.699275
0.031966
0.265157
-0.824649
-0.612992
0.802523
-0.289448
0.244777
-0.815600
-0.329337
-0.946343
0.241883
0.281253
0.270550
-0.178804
0.668977
0.040093
0.960557
0.625579
-0.124187
-0.083152
-0.106990
0.753878
-0.778467
-0.309201
0.180008
-0.953779
0.895551
-0.682653
-0.437847
0.827158
0.114224
0.720001
0.160623
0.146359
-0.366996
0.311983
0.632878
0.958404
0.623844
0.823693
0.642012
0.693995
0.668826
-0.594691
0.007422
-0.197569
-0.421832
-0.175588
-0.235320
-0.560142
-0.611481
0.938254
0.444950
-0.504901
0.293930
-0.053832
0.625600
0.147602
-0.124097
0.393568
-0.476556
-0.231786
-0.149500
0.788839
0.431221
0.660487
0.577361
0.923926
0.409201
0.541268
0.222514
-0.749186
0.474003
-0.553733
-0.491152
-0.558100
-0.176552
0.303109
-0.497230
-0.522222
-0.218627
-0.369300
0.759584
0.817447
0.816463
0.428016
0.871347
0.755392
0.221681
0.575986
0.009088
0.547309
0.917854
-0.672878
0.544880
0.891854
-0.718929
0.625961
0.953085
0.822168
0.574891
-0.152717
-0.761032
-0.239493
0.248081
-0.558694
0.106548
-0.486583
0.453693
-0.869781
-1.006346
0.192756
-0.805770
0.762353
0.821626
-0.380840
-0.173273
-0.694191
-0.399756
0.286077
-2.734244
0.637245
0.830890
-0.583162
-0.852966
-0.373988
-0.680645
-0.308823
0.803823
-0.830968
-0.290631
-0.555657
0.467988
-0.610428
-0.453925
-0.484960
-0.123248
-0.505392
-0.032452
0.099936
0.544293
0.626876
-0.746887
-0.022970
-0.011897
-0.767709
0.726400
-0.292787
-0.205181
0.968578
0.161682
-0.943661
-0.506482
0.620842
0.905503
-0.076619
0.987426
-0.832630
-0.223439
0.226640
0.146238
-0.984380
-0.590766
-0.874430
0.627411
-0.300622
0.555645
-0.672389
-0.365811
-0.807108
-0.395911
0.866834
-0.595468
-0.014660
0.573658
0.846446
-0.159250
-0.588057
0.655294
0.859884
0.465307
0.847989
-0.580425
-0.657685
0.188319
-0.117466
-0.128028
-0.321875
0.111958
-0.292002
0.669663
-0.607432
0.344923
0.690111
0.829784
-0.815271
-0.518301
-0.326116
0.066972
-0.177704
0.992586
0.117479
-0.483009
-0.019115
-0.410035
-0.602678
0.290236
-0.643575
0.978590
-0.376635
0.303469
0.526795
0.095086
-0.051122
-0.810739
-0.792135
-0.891627
-0.510190
0.292637
-0.829091
0.452604
0.548906
-0.672193
-0.116340
0.898999
-0.820725
0.156278
1.089212
0.261587
-0.392684
-0.174527
0.432685
0.982404
0.616431
0.546867
0.116077
0.582663
0.348670
0.296926
0.119946
-0.773205
-0.154514
0.166765
0.762167
-0.329923
-0.133016
0.402339
-0.636424
-0.322643
-0.719932
0.258785
-0.442567
-0.078726
0.923228
-0.652470
-0.507480
0.443532
0.412041
0.256515
-0.925999
-0.059215
0.611526
0.876804
0.113723
0.505723
-0.160711
0.776209
0.642421
0.270174
-0.438051
0.032946
-0.600174
0.232800
-0.645853
-0.349262
-0.293070
-0.734035
0.683263
-0.815957
-0.760813
0.521556
-0.693324
-0.574776
-0.249858
0.491598
-0.621269
0.562372
0.628256
-0.990547
0.511624
-0.904894
-0.430802
0.235820
0.571899
0.912133
-0.878582
-0.502713
0.188962
0.765798
0.499109
0.849342
-0.579745
0.423911
-0.106043
-0.000295
-0.311413
-0.468898
0.180132
0.865895
-0.666018
0.163006
-0.236585
-0.733199
-0.427327
-0.378965
-0.239138
0.197219
-0.922390
8.857109
0.665201
0.452613
0.078521
0.882380
0.774476
-0.162748
-0.719982
0.518744
0.558313
0.163951
-0.263255
-0.686166
-0.218716
-0.732776
0.229616
-0.885975
-0.925162
0.375104
-0.598466
-0.626043
-0.401744
0.865932
-0.522589
0.206949
0.032381
0.377069
0.357297
0.882026
0.254571
-0.622111
-0.560004
0.358714
-0.329301
-0.299603
0.081148
-0.450463
0.720454
-0.478154
-0.164648
0.713854
0.343069
0.104309
0.778656
0.322024
0.802785
-0.031510
-0.282782
-0.244904
-0.344631
0.492456
0.641045
0.738937
0.394398
-0.142060
-0.572553
-0.772604
0.109419
-0.848018
0.145973
-0.767114
-0.414247
-0.125381
0.758517
-0.031834
-0.560674
0.726745
-0.843285
-0.288161
-0.463638
0.520080
-0.013027
-0.026594
0.080857
-0.195175
-0.471414
0.004269
0.259890
-0.675524
0.597081
-0.823018
-0.851813
0.800140
0.319957
-0.661253
-0.484284
-0.171303
0.870557
0.306671
0.366068
0.624657
1.170986
-0.375508
0.503060
0.935020
-0.978622
-0.037338
-0.996198
0.132647
0.032207
-0.406440
0.836095
0.320202
-0.544850
0.254989
0.313967
-0.848718
0.325467
-0.689506
0.081778
-0.685011
0.984563
0.985287
0.519410
-0.938378
-0.293349
-0.964587
-0.640617
-0.421260
0.322253
-0.062821
0.849745
-0.792960
0.368203
-0.232374
-0.033425
-0.492588
0.917102
0.982932
-0.537005
0.032108
0.761681
0.587013
0.943720
-0.591382
0.125474
-0.490751
-0.820562
-0.870883
-0.814352
-0.894696
-7.721148
-0.613617
0.442482
0.165808
0.264899
-0.554417
0.258514
-0.483992
0.364581
-0.042832
-0.541032
-0.629388
0.599014
0.081255
-0.445178
0.560973
-0.898249
0.570957
-0.902716
0.420054
-0.358494
0.693386
0.732861
0.779532
0.930107
0.996612
-0.961705
0.474598
0.086689
-0.713234
-0.090138
-0.585565
-0.962095
-0.663081
0.095879
-0.331095
-0.995345
-0.248721
0.318396
0.309399
0.156401
0.411707
0.695365
0.897946
0.606598
-0.735466
-0.288040
0.896516
-0.618339
0.263548
0.986984
0.117304
-0.884284
0.713350
0.350777
0.587214
0.000598
0.704666
-0.510947
-0.598542
0.773388
-0.512782
0.721475
-0.988067
0.884476
-0.475432
-0.537936
-0.224699
-0.442726
-0.367420
0.345119
0.037801
0.884936
-0.509570
0.617762
-0.359566
-0.072631
-0.268776
-1.116313
0.627721
-0.162899
0.072879
-0.662005
-0.223277
-0.797045
-0.058671
-0.399299
0.891045
-0.792570
-0.835745
0.011408
0.263365
0.999740
0.092668
-0.340965
-0.871825
-0.091090
0.232792
0.370016
0.941720
-0.693894
-0.424797
0.766787
0.475977
0.359946
-0.607660
0.384522
0.481797
-0.987479
0.250043
-0.855762
-0.782260
-0.324278
0.413357
-0.242755
0.327323
0.741017
0.147646
0.846581
0.497784
-0.158702
-0.656653
-7.552155
-0.637530
0.120171
-0.975694
0.375589
-0.622386
-0.169223
0.871562
-0.465115
0.789335
0.733670
-0.750860
-0.329114
0.565789
-0.075523
-0.725811
-0.848046
-0.315465
0.906010
0.326871
0.491341
0.762513
0.898322
-0.262756
0.992054
0.832099
0.233862
-0.882282
0.986108
0.389377
0.399520
0.558767
0.417411
0.889342
-0.303234
0.309087
-0.174047
0.824059
-0.304763
0.967461
0.016056
0.877704
0.237443
-0.784350
0.264796
-0.773758
0.872306
-0.337053
0.647791
0.499552
0.121941
-0.306396
0.244892
-0.660851
0.443675
-0.983147
-0.812361
0.229459
0.333489
0.022386
-0.951360
-1.357281
-0.178818
-0.217623
-5.215007
-1.213376
0.983174
0.490319
-5.842842
-0.888481
-0.086408
-0.508881
-0.241213
-0.929852
-0.879184
-0.461275
-0.675055
0.540431
0.249934
-0.668003
-0.710824
0.804134
0.551189
-0.825977
0.793611
-0.810852
0.339925
-0.197098
0.320208
0.149413
-0.602361
-0.952594
0.407179
-0.397704
0.161257
0.315339
-0.531533
-0.099224
-0.421130
0.638890
0.651110
0.632993
-0.597474
0.843799
-0.269660
-0.784580
0.316988
0.643500
-0.521157
0.952224
-0.857372
-0.770368
0.826086
0.255208
-0.618896
0.275009
0.057861
0.459959
0.929937
0.945725
0.263721
1.222394
0.550364
0.920382
-0.401041
0.948111
-0.329641
0.592397
-0.620213
-0.649932
0.532622
-0.416217
-0.544024
-0.729036
-0.322158
0.549933
-0.609992
0.199980
-0.509097
0.056504
0.790420
0.968271
0.088747
-0.555683
-0.261521
0.706450
0.780107
0.146534
-0.791318
-0.937987
-0.035519
0.580246
0.344308
-0.857549
-0.370423
-0.931522
0.392792
0.782891
-0.356205
-0.135900
0.958334
0.551263
0.474843
0.485326
-0.122526
0.771927
-0.104267
-0.298981
-0.203477
-0.041906
0.938501
-0.088269
0.045794
0.069083
0.016676
0.680942
-0.187441
0.309063
-0.164133
-0.351709
-0.508094
-0.369673
-0.540405
-0.060533
0.111867
0.206784
0.106616
-0.854513
-0.439305
-0.804977
0.536274
-0.675988
0.387012
0.791967
0.888253
0.033080
-0.788481
0.262474
-0.821500
-0.339260
-0.880850
-0.554603
0.978538
0.415276
-0.663335
-0.934880
0.067825
0.618785
0.868312
0.052564
-0.121439
-0.440803
-0.014412
-0.855146
0.102037
-0.657332
0.477234
-0.058913
-0.512360
-0.200960
0.260255
-0.278153
-0.078409
0.260534
0.011568
-0.694847
-0.270897
-0.646855
0.255964
0.235784
0.810224
-0.378790
-0.043507
-0.791853
0.726878
0.447642
-0.096829
0.067827
-0.220656
-0.456417
0.695326
0.040437
-0.790435
-0.844113
-0.523250
-0.554729
0.465778
0.525734
0.756163
-0.161604
0.987776
-0.438972
-0.817107
0.845158
-0.231410
-0.234404
0.238623
-0.328666
-0.253021
-0.208083
0.075086
0.774015
-0.495607
-0.769731
-0.446598
-0.796641
-0.412081
0.804738
-0.163589
0.874904
-0.560332
0.152843
-0.465317
-0.972218
-0.636020
-0.256111
0.795402
-0.855054
2.642869
-0.497259
0.127097
-0.426431
0.351416
-0.781284
0.826120
-0.721164
-0.197486
-0.408365
0.723643
0.066761
0.205939
-0.313672
0.128231
0.489793
-0.649605
-0.760810
0.502404
-0.939420
0.821668
-0.784194
-0.402952
0.907396
-0.336698
0.416075
0.249248
-0.396694
-0.456406
-0.974913
-0.815641
0.366949
0.370440
-0.431236
0.453012
0.076098
0.213845
0.121322
0.896398
0.344721
0.631113
0.699497
-0.130158
-0.266066
0.119707
-0.881623
0.616302
-0.102857
-0.290680
0.934898
0.217432
0.980217
-0.251660
0.314029
0.151824
0.167470
-0.558516
-0.000524
-0.942202
-0.455611
0.513915
-0.612214
-0.386399
0.515414
0.170334
-0.233521
-0.963562
0.915002
-0.267040
-0.263821
-0.417434
0.178283
0.247075
0.220571
0.000067
0.831406
0.129603
-0.461048
-0.357422
-0.888666
0.360925
0.604083
0.750500
-0.859259
-0.462202
-0.617968
-0.615359
-0.480067
-0.791329
0.982470
-0.078013
0.232129
0.738201
0.009689
0.076929
0.815090
0.636400
-0.474305
0.694322
-0.161724
-0.439690
0.150215
-0.428020
-0.081832
0.752285
0.524328
-0.687814
0.205684
-0.282223
0.559947
0.496547
0.209498
0.763337
-0.514664
-0.352933
-0.749925
0.899695
-0.749468
0.050913
-0.428380
-0.895496
0.264365
0.303850
-0.514361
-0.351362
0.916367
0.778076
0.340164
0.572226
0.129938
-0.427785
-0.976254
-0.559775
0.801820
-0.122009
-0.925946
-0.481430
0.432443
-0.964644
-0.891791
0.599168
-0.974373
0.009809
0.346098
-0.523773
-0.583372
0.465586
-0.513803
-0.754516
-0.646012
0.167528
-0.412731
-0.196220
-0.043822
5.622398
-0.273934
-0.644094
-0.451436
0.469738
-0.224528
-0.796124
-0.647941
-0.278458
-0.468262
-0.133485
-0.728903
-0.685505
-0.274015
-0.895475
-0.119136
0.465568
0.270990
0.740542
0.559050
0.341473
-0.766863
0.447566
0.276803
0.919258
-0.958139
0.108804
-0.044800
0.205377
0.468417
-0.857037
0.510800
-0.689308
-0.208342
-0.547648
0.497366
-0.929554
0.263720
-0.536426
0.531389
0.416770
0.093401
0.138012
-0.718457
0.491201
0.936613
-0.795918
-0.331382
0.155746
-0.353592
0.836936
0.980361
-0.457063
-0.628647
-0.396172
-0.316080
-0.542976
0.685099
-0.303058
0.748827
-0.220978
-0.928189
-0.743326
-0.643152
-0.218402
-0.679226
0.651907
-0.802731
0.966479
-0.220602
-0.506636
0.472504
0.752218
0.754983
0.668628
-0.887514
0.188884
0.057489
0.697202
0.485069
-0.856064
0.599748
0.239839
-0.153877
0.774185
-0.969739
-0.105210
0.327322
0.050901
-0.093321
0.597899
-0.094615
-0.015903
-0.966668
0.908567
0.942305
0.845624
-0.394300
-0.391187
-0.886287
0.477508
0.169317
0.652235
0.422408
0.670012
0.582113
-0.952044
0.873343
-0.497439
-0.904638
-0.627137
0.308581
0.691265
0.659249
-0.885777
-0.718409
0.048741
-0.282384
-0.628036
0.685236
0.283966
-0.672735
-0.328032
0.169773
-0.155428
-0.300134
0.026578
0.868490
-0.500454
0.341559
0.422093
-0.364298
0.797580
0.063132
-0.450178
0.108815
0.112796
-0.793999
-0.531471
-0.860148
0.935707
-0.365736
0.985091
0.433613
-0.082507
-0.744063
-0.071423
0.609534
0.816090
-0.297642
-0.528666
-0.479053
0.396843
0.651333
-2.168954
0.971301
-0.833451
0.569099
0.552709
0.948287
0.573688
-0.841301
-0.014801
0.794072
2.827167
0.091176
-0.154158
0.431218
-0.063864
-0.957418
0.827559
0.748273
-0.257260
-0.993602
-0.010136
-0.684212
0.290161
-0.453981
0.145093
0.514328
0.859075
0.627620
-0.114910
0.417595
0.490899
0.444932
0.423331
0.064898
-0.644559
-0.508016
0.248162
-0.549010
0.784225
-0.396136
-0.704045
-0.914964
0.512346
0.857268
-0.937826
0.768711
0.332723
-0.004085
0.906287
-0.496022
0.882208
0.497880
-0.397025
-0.247976
0.914699
-0.787055
0.190358
0.976123
-0.941672
0.674670
-0.416822
0.707878
-0.766891
-0.526123
0.616171
-0.228582
0.565132
-0.744490
-0.812570
-0.281854
0.904769
-0.583739
0.261740
0.753130
0.469908
0.527082
-0.144569
0.961888
0.023248
0.167719
-0.402601
0.938977
-0.481417
0.268789
0.340259
0.201053
0.411847
0.517585
-0.617934
-0.943462
-0.834222
-0.686440
0.206535
0.899822
-0.424453
0.577827
0.174491
0.217933
0.177083
-0.601080
0.031792
-0.727482
-0.306621
-0.215666
-0.249578
-0.688649
0.158213
0.474098
0.074319
0.004740
0.228981
0.235437
0.630668
-0.115156
-0.330518
0.086820
-0.278466
-0.108974
0.017799
0.849622
-0.005290
0.132335
-0.820489
0.775696
-0.375450
0.502238
0.128255
-0.391086
0.675060
-0.516945
0.544431
0.987454
-0.082429
-0.523141
0.572708
-0.599738
0.610366
0.080872
-0.787292
0.906218
0.164807
-0.386945
-0.274416
-0.648492
-0.828570
-0.768941
-0.478774
0.420269
-0.538490
0.150176
-0.578122
0.845827
-0.580631
-2.245525
0.694718
0.858967
0.532497
0.544727
-0.990261
0.172926
0.073973
-0.057096
0.289527
0.977694
0.674659
0.440823
-0.940394
0.811371
-0.116808
-0.720303
0.797820
-0.611832
0.306585
0.472770
-0.757576
0.835495
0.717436
-0.918899
1.007692
0.050921
0.325586
-0.168736
0.960595
-0.633475
0.085440
0.480403
0.511655
-0.497500
0.304475
-0.958779
-0.095470
-0.732961
-0.793679
0.550286
-0.561851
0.508450
0.676701
0.143822
-0.368206
-0.974398
0.524142
0.246246
-0.512863
0.819035
0.660452
-0.825841
0.303744
0.628509
-0.130953
-0.641971
0.308805
0.671088
-0.070945
-0.726952
0.090171
0.365871
0.538339
0.756936
-0.060958
-0.613806
0.536348
0.814523
0.823666
0.751172
0.512154
-0.884479
-0.176148
-1.167029
-0.600334
-0.350916
0.233504
-0.976299
0.806847
-0.736702
-0.852989
-0.340052
0.463501
0.497750
-0.619941
-0.540349
0.824268
-0.902121
0.214369
-0.778962
0.148603
0.079042
-0.401199
-0.383578
0.842746
0.403860
-0.530106
-0.778190
-0.338853
0.399038
-0.681287
0.968912
0.651024
-0.926944
0.675483
-0.460170
-0.503170
0.763181
-0.303754
-0.563830
0.366010
-0.434129
0.410592
0.754132
0.702448
0.444498
0.987978
-0.556720
0.032299
-0.956701
-0.691960
0.403598
-0.445059
-0.532068
0.165965
0.971305
-0.792500
0.559218
0.480641
0.661004
0.429613
-0.381052
-0.952402
-0.502932
-0.355649
-0.238403
-0.885905
0.292426
0.130811
0.699093
0.772893
-0.501726
-0.241906
-0.522080
0.729897
-0.278114
8.609562
-0.319152
0.076469
-0.430660
0.604274
0.881608
-0.038875
-0.355202
0.587706
0.461172
-0.159004
-0.256315
0.838720
0.644123
0.475186
-0.972953
-0.850244
-0.357081
3.675990
0.870679
0.974541
0.438306
-0.785395
-0.954959
-0.563951
0.679435
-0.355946
-0.552320
0.609855
0.961319
0.823499
-0.928946
0.985866
-0.514965
-0.928301
-0.289750
-0.366584
0.804550
0.234682
0.968706
-0.729516
-0.276405
-0.448311
-0.570158
-0.169852
0.796451
0.669453
-0.989334
0.878452
-0.451535
0.108419
0.955021
-0.612200
0.623291
0.468601
0.651930
-0.004226
0.565138
-0.257770
0.231282
-0.525734
-0.278404
-0.787624
-0.488229
-0.398299
0.507440
0.563703
0.587061
-0.401727
-0.137500
-0.386867
0.007071
-0.995949
-0.925773
-0.578639
0.944407
-0.988767
-0.576091
0.885207
-0.937713
0.092589
0.972688
-0.200301
-0.462215
0.918238
-0.575464
-0.278067
0.846732
0.645750
0.619945
0.301531
0.048763
-0.065293
-0.361227
0.191580
0.498357
0.014809
-0.034473
-0.944607
0.685383
-0.184251
-0.715129
0.285859
0.192314
-0.180964
0.057776
-0.147837
0.086021
0.947929
0.070214
-0.995924
-0.547311
-0.914017
-0.412583
0.351041
0.180888
0.049094
0.311492
0.889705
-0.624332
0.540011
-0.743312
0.918037
-0.564151
0.663916
-0.559818
0.864549
0.964262
-0.755816
-0.495870
-0.070179
-0.763637
-0.269797
0.503673
0.662628
-0.232713
-0.362783
-0.304402
0.219750
0.111435
0.657114
0.362478
0.632639
-0.021185
-0.266348
-0.423682
0.343888
0.180169
-0.238497
-0.842792
-0.520896
-0.471197
0.422384
0.465624
-0.913273
0.657537
-0.178149
0.882651
0.332324
-0.059433
-0.589694
0.388786
-0.923757
-0.586977
0.249555
-0.107447
-0.561112
0.914964
-0.531786
-0.260619
0.930995
-0.039946
0.697958
0.836194
0.293801
0.871026
-0.759580
-0.885780
-0.635370
0.110295
0.460675
-0.698375
-0.130204
-0.847613
-0.966132
-0.014560
0.787009
0.188101
-0.328436
-0.448666
-0.246631
-0.924982
0.581221
-0.085540
0.559673
0.431216
0.099853
-0.427489
0.530145
-0.280889
-0.223524
-0.385805
-0.775440
0.448864
-0.927197
0.389184
-0.003722
-0.151592
0.363971
-0.052681
-0.220797
-0.362508
0.936042
0.623468
-0.585486
-0.374313
-0.509434
-0.599555
0.233810
0.032698
0.825188
0.666198
0.078332
-0.310336
-0.213897
-0.197736
-0.909104
0.810026
-0.946079
-0.531567
0.174083
0.010040
0.286404
-0.846304
-0.451565
0.499766
0.608383
-0.005394
0.183663
-0.346738
-0.493589
-0.655053
-0.562751
-0.222646
0.235204
-0.111869
-0.761203
-0.935965
-0.283127
-0.012835
-0.656690
0.167652
0.014153
-0.397491
0.780070
-0.884002
-0.253364
-0.398410
0.293767
0.552075
0.851714
-0.728254
-0.278108
0.394747
-0.976119
-0.383250
0.423169
-0.631741
-0.643738
-0.726095
-0.772696
-0.356656
0.221422
0.944538
-0.790041
0.858833
-0.776682
0.521098
-0.906657
0.862094
-0.897716
-0.095424
-0.550740
0.224535
0.168569
-8.814344
-0.592701
0.665596
-0.957627
-0.409192
0.632397
0.064522
4.925751
0.283411
0.719957
-0.438421
-0.294127
0.336337
0.677710
0.279900
-0.769486
-0.214939
-0.484830
0.902962
0.858381
-0.088542
-0.669548
-0.247272
0.563506
0.543105
0.558477
0.418481
-0.986854
0.132932
-0.643847
-0.014185
0.268030
0.593584
-0.133408
0.332374
0.832800
0.256437
-0.959030
0.903357
-0.652234
0.428707
-0.052475
-0.755450
-0.138919
0.566504
0.241508
-0.180510
-0.012343
-0.621660
0.177577
0.852557
-0.005814
-0.106513
-0.520724
-0.424926
-0.112826
0.062825
-0.257207
0.322734
-0.603267
-0.176569
0.160155
-0.540661
-0.382807
0.431164
-0.913220
0.739089
-0.226767
-0.829014
-0.225491
0.396824
0.004906
-0.844686
0.242784
-0.015072
-0.169429
-0.208508
0.451549
-0.036449
-0.343846
0.173650
-0.930851
0.185106
0.821960
-0.054802
-0.524711
0.311943
-0.964950
-0.600457
-0.586149
0.912675
-0.395579
0.131510
0.463694
0.365610
0.677723
0.828945
-0.750978
-0.483028
0.785021
0.049741
0.855096
0.686856
-0.016168
-0.107571
-0.899656
0.262826
-0.817628
-0.243091
-0.512712
0.683279
-0.747827
0.815472
0.240315
-0.689847
-0.603453
-0.853848
0.251838
-0.615280
0.956251
0.939733
0.799396
0.809315
0.184691
0.075678
-0.516962
0.018658
0.665718
-0.675626
0.231447
-0.080240
-0.018575
0.843725
-0.316207
0.722799
-0.058822
-0.830787
0.194121
-0.574314
-0.261880
0.061325
-0.892035
0.486750
-0.823670
-0.100169
0.547657
-0.532397
0.639354
0.035695
-0.604039
0.429013
0.934022
0.575508
0.922770
0.261258
0.731265
-0.084154
0.568158
-0.134607
-0.864843
-0.415580
0.355289
-0.684723
0.417170
-0.643364
0.249145
0.639464
0.879136
0.671653
-0.362386
0.962348
-0.351665
-0.416826
-0.095865
0.791318
-0.558707
-0.653967
-0.833234
0.932637
-0.404037
-0.743072
0.974454
0.077308
-0.992063
0.448671
0.996427
0.603814
-0.901567
-0.035946
-0.860616
-0.718268
-0.145099
-0.061701
-0.211575
-0.961189
0.520749
-0.379754
0.396521
-0.664408
-0.599491
-0.411261
0.917640
-0.141425
0.425691
-0.013314
0.996369
0.971043
-0.410883
-0.717980
0.479147
0.760406
-0.340036
0.791407
0.201787
-0.478246
0.478988
-0.742536
-0.092103
-0.046599
0.377341
0.537977
-0.804013
-0.985115
0.301703
-0.199520
-0.623831
0.835919
0.207226
0.123503
-0.088623
0.631102
0.476487
-0.042478
-0.971002
-0.824657
0.480460
-0.998535
0.402598
0.947957
-0.729120
0.532409
0.563432
0.689658
-0.180250
0.104178
-0.330231
-0.312344
-0.429620
-0.873942
0.504320
-0.500380
0.754635
0.354814
0.610081
0.172192
-0.153989
-0.338217
0.776382
0.373581
0.426471
-0.879119
-0.044408
0.360288
0.661125
0.586738
0.625093
0.849440
0.954534
-0.207081
0.424521
-0.456366
-0.266061
-0.021306
-0.567716
8.686388
0.207383
0.417225
-1.172717
0.002127
0.926533
-0.456635
-0.603038
-0.703096
0.528082
-0.729020
0.417897
0.991685
-0.971486
-0.942358
0.530831
0.150088
-0.581582
0.179651
-0.870511
0.445537
0.838800
-1.026713
0.820996
-0.688675
-0.530693
0.047339
-0.320476
0.491649
-0.206030
0.372926
0.303291
0.416731
0.365133
0.534939
0.029398
-0.040228
-0.226322
0.654047
-0.199582
0.468261
0.446161
-0.716926
0.732334
-0.052055
-0.217196
-0.365652
-0.766347
-0.824778
0.478422
-0.277631
0.376588
-0.803355
0.715461
-0.909223
0.379400
-0.260257
0.264246
0.656757
0.642113
-0.616783
0.521334
-0.727382
-0.894947
0.770427
0.057288
-0.146358
-0.815771
0.467769
0.486156
-0.130022
0.915715
0.318482
0.864085
-0.335586
0.116299
-0.297031
-0.742597
0.704360
-0.227532
-0.332175
0.398284
-0.881918
0.047136
0.179546
-0.269118
0.692250
0.187174
0.633312
0.630410
0.832739
-0.906622
-0.566390
0.758035
-0.851934
-0.503459
-0.709831
0.243247
0.364313
-0.997913
0.922561
0.576004
0.112175
-0.697640
0.728541
0.478846
0.687476
0.143697
0.430382
0.968326
0.007076
-0.645922
-0.132658
0.767244
0.828526
-0.016721
-0.831403
0.387299
0.423153
-0.796454
0.484456
-0.425626
-0.932546
0.169658
-0.829977
0.065937
0.348854
-0.222551
-0.822092
-0.640153
-0.675671
-0.506091
-0.036887
-0.865467
0.703986
0.472683
-0.152682
0.957792
0.817923
-0.885035
0.249553
0.432934
-0.479469
0.506077
-0.566771
-0.742455
0.201463
0.467338
-0.950227
-0.225360
-0.352148
-0.097038
0.346358
0.782332
-0.623613
-0.097742
0.609200
-0.706255
0.990518
-0.529395
0.503574
0.506870
-0.775502
-0.291011
-0.168430
-0.654134
-0.732368
-0.838427
-0.369643
-0.545857
-0.356101
-0.426818
-0.823718
-0.670517
0.446024
0.204326
-0.213993
0.289880
-0.448665
-0.693936
0.490625
0.372682
0.561486
0.207072
0.007974
0.199500
-0.936000
0.730282
0.056612
-0.490205
0.409927
-0.130840
0.059939
0.953101
0.306238
0.723777
0.115714
-0.603156
-0.304576
-0.524858
-0.893091
-0.173327
-0.490964
0.611849
-0.211255
-0.235311
-0.670050
0.633563
0.916509
-0.046602
0.853609
-0.578048
-0.675979
-0.527433
-0.505791
-0.527553
-1.155564
-0.653842
0.464385
0.396895
-0.702976
0.489168
-0.927188
-0.711837
0.289655
-0.431984
0.692815
0.759727
0.881442
-0.703602
-0.494415
-0.280208
0.029432
-0.668323
-0.065589
0.041573
0.576586
-0.717080
0.225433
0.713546
0.378323
0.391848
0.455989
-0.707454
0.017527
-0.723594
-0.002950
0.750598
0.710453
0.229868
0.741266
0.003468
-0.908590
-0.374901
0.450151
-0.808390
-0.575896
-0.482523
0.635359
0.991026
-0.941392
0.905897
-0.061575
-0.322162
-0.561386
0.399984
0.439819
0.740074
0.212064
-0.979480
0.536048
0.903821
0.604314
-0.860141
-0.421932
-0.624612
0.371229
0.800210
0.854310
-0.773374
-0.891421
-0.055414
-0.841140
-0.418603
-0.910413
-0.048649
0.342250
0.175009
0.469301
-0.329427
0.471661
0.772475
0.456516
0.289259
0.983856
-0.441257
0.332183
0.365031
0.738684
0.359032
0.272585
0.389419
-0.842947
-0.682438
-0.959425
0.362275
-0.096028
-0.575032
-0.633343
-0.153120
0.549179
-0.006662
0.305494
0.280782
-0.057685
-0.492442
0.944838
-0.811563
-0.735471
0.094701
0.695236
0.467798
0.461809
-0.273482
-0.778658
-0.142606
0.766049
-0.084660
0.580584
0.349269
0.955974
0.332719
0.124290
0.585501
-0.262107
-0.641323
-0.913398
0.921646
0.379179
1.175217
-0.055527
-0.089286
-0.032027
-0.201931
0.241599
0.166601
0.643841
0.181506
0.293701
0.670413
-0.781306
0.505872
-0.351196
-0.879559
0.421312
-0.095570
-0.769313
0.950190
0.851127
-0.795254
-0.094014
0.674100
0.383395
0.210059
0.382975
-0.891548
0.230379
-0.130520
-0.370407
-0.222073
-0.766463
0.336955
-0.054563
0.653650
0.215519
-0.640012
0.554930
-0.955028
0.524727
0.926719
-0.146006
0.654387
-0.619702
0.725763
1.042661
-0.767798
-0.101438
0.473256
0.400077
0.329470
-0.415302
-0.108049
-0.369793
0.172909
-0.975431
-0.652272
0.935769
-0.044911
0.450606
0.991027
0.703837
-0.057499
-0.768003
0.459240
0.395017
-0.513212
-0.251423
-0.986977
-0.020220
-0.523833
0.409107
0.445609
-0.682675
0.753891
-0.972405
-1.278996
-0.991646
-0.950640
0.079819
-0.874271
-0.409440
-0.268541
-0.196457
-0.873572
0.152869
0.793248
0.214282
-0.077963
0.703382
0.752945
-0.522513
0.307506
0.201439
-0.266280
0.135768
-0.093500
0.620146
-0.818131
0.543510
0.811051
-0.452699
9.784676
0.043834
0.881503
-0.702198
0.222138
0.506081
-0.446957
0.320351
-0.355314
0.540576
0.880663
0.742349
-0.765767
-0.410125
-0.410273
0.755573
-0.623993
-0.750115
0.870575
0.292743
-0.401679
0.468915
-0.362931
0.747570
0.851241
-0.566144
-0.518233
0.351657
0.843209
-0.529752
-0.781537
-0.843537
-0.338410
0.661441
0.339581
-0.994141
0.062086
0.163014
-0.153216
-0.567974
-0.637531
-0.030142
-0.251038
0.801902
-0.051583
-0.055010
-0.553522
0.396380
-0.887074
0.661836
0.888934
-0.583186
-0.115013
-0.142085
0.231045
0.737840
0.145996
0.695108
-0.725794
0.347084
0.560837
-0.372322
-0.323167
-0.216963
-0.774072
0.081433
0.924228
-0.891179
0.479842
0.534246
-0.407815
-0.451150
0.157376
-0.130915
0.026502
-0.490786
-0.784503
0.317243
0.925175
-0.889703
-0.092679
0.546655
0.608219
-0.310296
0.321904
0.986266
0.857496
-0.171396
0.095258
-0.993293
-0.477788
0.965492
0.717769
-0.629808
0.781969
0.225095
0.333127
-0.733562
-0.514736
0.220571
-0.475027
0.004312
-0.399468
0.794369
-0.657905
0.107474
-0.649315
-0.799001
0.103291
-0.424527
-0.848996
-0.180564
0.269068
-0.038840
0.435502
1.152379
-0.988732
-0.876813
-0.962361
-0.463646
0.497499
0.593866
-0.523782
-0.488887
0.143843
-0.842180
0.364916
0.865846
-0.622161
-0.851326
0.690473
0.968551
0.423657
-0.217555
0.405498
-0.104527
-0.833928
0.426368
-0.754031
0.479258
-0.655746
0.339236
-0.148162
0.794373
-0.243024
0.896030
0.462954
0.599821
-0.008324
0.636181
-0.030160
-0.007434
0.611557
-0.066859
-0.533315
-0.167892
-0.264778
0.707184
0.301969
-0.661399
-0.015712
-0.541711
0.744181
-0.071398
-0.284701
-0.056709
0.432141
-0.230467
0.846763
-0.524525
-0.633243
-0.735236
0.369702
0.035727
-0.661479
-0.938537
-0.307783
-0.100137
-0.262092
0.434409
-0.068843
-0.473656
0.169677
0.959764
-0.364031
-0.761724
-0.558163
0.612962
0.548519
0.895120
-0.816149
0.075820
0.020321
0.024118
-0.698071
0.337416
0.507899
-0.819946
0.469897
0.218684
0.668322
-0.213079
-0.140300
0.829908
0.430532
-0.207422
0.217716
-0.350777
0.787163
0.030392
-0.458953
-0.350944
-0.291815
-0.831748
0.816408
-0.262022
0.246374
-0.599056
0.707560
0.030808
-0.442808
-0.272353
-0.877686
0.000596
-0.600894
0.215802
-0.016845
-0.763206
-0.534951
-0.960031
0.394564
0.160148
0.529078
-0.067612
-0.818229
-0.453629
0.508682
-0.487268
-0.256611
0.761193
0.962430
0.116888
-0.969946
-0.471583
-0.588881
-0.199959
-0.381276
0.878309
0.772374
-0.192533
-0.286226
-9.546995
-0.054773
0.791162
0.475892
0.789418
-0.821523
0.402057
-0.914552
-0.733050
0.281749
0.171811
0.573735
-0.166521
0.351170
-0.637745
0.050231
-0.622585
-0.125428
-0.348363
0.068427
-0.806436
-0.066545
0.620503
0.925247
-0.208323
0.821306
-0.927238
-0.730959
0.519975
-0.168284
-0.888754
-0.954007
0.297179
-0.749156
0.905548
0.335985
0.324109
0.502512
0.557699
-0.802432
0.407118
0.774439
-0.687004
0.421654
0.760852
0.120894
-0.117184
0.131994
0.953961
0.259504
1.129302
0.157004
0.682230
-0.568157
0.128490
-0.571062
-0.359246
-0.000984
0.854160
-0.365496
0.644306
0.700417
-0.028366
-0.293493
-0.287795
-0.928092
0.447248
-0.289602
-0.141799
-0.472608
-0.905610
-0.274712
0.167565
0.236481
0.511860
-0.407782
0.739456
0.799274
-0.121958
-0.045595
-0.669305
-0.766225
-0.778262
0.615334
0.804735
0.184859
-0.789726
-4.184987
-0.975079
0.832012
-0.408123
-0.474686
-0.345235
0.546230
0.293598
0.952525
0.148591
0.589644
0.625213
0.542761
0.352340
0.170518
0.407285
0.853281
0.125294
0.120822
0.075790
0.543774
0.555676
-0.094444
0.440441
0.436948
-0.970874
0.557372
0.860533
0.633636
-0.159076
-0.206442
0.193262
-0.951103
0.575398
0.890895
0.110877
0.963208
-0.121207
0.975868
0.356708
0.475906
-0.815352
-0.218878
0.782607
0.368697
-0.600581
0.226406
0.312178
-0.734008
0.155841
-0.802840
-0.350652
0.628398
0.354738
0.277648
-0.376345
0.682168
-0.222201
-0.164653
-0.205484
-0.238753
0.374650
0.653970
-0.373825
0.410155
-0.212920
-0.783536
0.881973
-0.310230
0.018648
0.857089
0.241836
-0.240321
-0.429137
-0.774094
-0.257921
0.400903
-0.948069
-0.786520
-0.889153
0.349461
-0.340501
-0.362069
-0.143110
0.341148
-0.964682
0.824902
0.611634
-0.189219
-0.599819
0.154524
-0.109800
-0.610972
-0.779966
0.639826
-0.535231
0.538912
-0.647396
-0.451777
-0.510709
-0.288663
-0.129540
-0.383295
0.522221
0.189651
-0.342983
-0.408963
0.242076
-0.283473
-0.781584
0.854773
-0.092394
0.530884
-0.011682
-0.681668
-0.079251
0.127275
-0.398874
0.896955
-0.920933
-0.312076
0.691772
-0.518730
0.858224
-0.438538
0.713580
-0.682020
-0.791056
0.160756
0.348248
0.689150
0.743168
0.296176
-0.084455
-0.054521
0.933520
0.693041
-0.310766
0.799671
0.365233
0.415136
0.250353
0.891297
0.920064
-0.662808
-0.123591
0.572042
-0.326262
-0.208851
0.378635
0.451294
-0.333369
0.786016
0.639223
-0.307996
0.407244
-0.883470
-0.414708
-0.025166
-0.234910
-0.609609
0.982600
-0.416448
-0.106685
0.374787
0.068277
0.397978
0.360252
-0.155009
0.221015
0.292563
-0.881465
-0.226055
-0.785648
-0.133300
0.914367
0.027817
0.911888
-0.335899
-0.251625
-0.365717
-0.410165
-0.060333
-0.989074
0.138788
0.100384
-0.505619
-0.726608
-0.251574
0.998314
0.490349
0.766294
0.453963
0.493985
-0.137281
0.909154
-0.479570
-0.722405
0.389198
-0.645885
-0.123426
0.866883
-0.495854
0.365890
0.669977
0.406609
0.467833
0.630284
0.295501
-0.715055
0.468482
-0.059237
-0.649078
-0.402019
-0.637159
-0.499641
-0.141003
-0.049336
0.201670
0.326444
0.661381
-0.038921
0.291212
0.661955
0.489700
-0.155068
-0.268028
-0.784139
0.275775
1.119332
0.043822
-0.600293
0.206435
-0.402280
0.587515
-0.054805
0.013471
-0.227627
0.640157
0.716172
0.236889
-0.657870
0.238893
-1.030370
0.551998
-0.559666
-0.681902
0.479605
0.665105
0.744301
-0.098056
-0.774656
0.003367
0.671807
0.690927
0.517135
-0.359109
0.117990
0.208435
0.646171
-0.077134
-0.135209
-0.399918
-0.427002
0.172869
0.985071
-0.107881
-0.377797
0.933135
0.365000
0.709702
-0.077653
-0.340715
-0.286515
-0.601913
0.856120
-0.898832
0.217751
-0.761425
0.849965
-0.598960
0.886547
-0.530338
-0.973441
-1.131172
0.401349
-0.451608
-0.573350
0.263180
-0.213705
0.357327
-0.676903
0.517554
-0.249531
-0.621540
-0.734830
0.960526
-0.005220
-0.604307
-0.884137
0.732821
0.346990
0.569074
-0.502690
-0.449547
-0.420195
-0.470789
-0.725832
0.327796
-0.138898
-0.756146
0.725421
-0.144852
0.829968
0.508569
-0.109491
-0.333836
-0.119383
0.220877
-0.455716
0.636654
0.662943
0.628521
-0.341694
-0.229599
-1.531293
0.443370
-0.667251
0.294775
0.467024
0.842292
0.118206
0.266018
-0.649441
0.249588
0.141394
-0.242464
-0.108359
0.930435
0.842713
-0.290896
0.474530
-0.891111
0.883328
0.646579
-0.277785
-0.679173
0.702235
-0.094625
-0.315961
0.547179
-0.816848
-2.882300
-0.827778
0.108632
0.322418
0.737475
-0.644666
0.926798
0.751019
-0.096511
-0.024930
0.013670
-0.170153
0.211650
0.667800
0.465228
-0.538008
-0.430999
-0.106172
0.089634
-0.019641
0.926923
0.762374
0.399971
0.660373
0.203543
0.312070
-0.990321
0.813963
0.888362
0.700020
0.648223
0.891714
0.607372
0.788585
0.612140
-0.218885
-2.416738
-0.256001
-0.378913
0.905598
0.100771
0.055840
-0.269668
0.309576
0.342218
-0.158461
-0.809421
-0.380514
-0.872385
-0.952384
0.136590
0.357501
-0.505993
0.034666
-0.119806
-0.606333
-0.032743
-0.739280
0.579429
-0.215490
-0.109726
-0.775965
0.876995
0.330990
0.262288
-0.742296
0.046661
-0.277930
-0.828471
-0.982147
-0.908350
-0.014693
-0.874703
0.741838
-1.296098
0.661276
0.065591
0.961071
0.843222
0.724071
0.094335
0.755941
0.916236
-0.591607
0.217407
0.914208
0.480466
0.881008
-0.700711
0.594599
0.031599
0.405130
-0.909507
-0.156205
-0.074897
-0.675944
0.609292
-0.695184
0.290337
0.001031
0.409273
-0.745302
0.129211
0.806348
-0.211953
-0.796117
0.082520
0.608135
0.316934
0.442912
0.642415
-0.290597
0.472651
0.009967
-0.487788
0.462427
-0.828123
-0.722568
-0.089354
-0.115214
-0.202792
0.516700
-0.393559
-0.823820
-0.355746
0.494300
-0.497068
-0.886053
0.896569
0.129371
0.940731
-0.922758
0.839789
0.193501
0.406367
0.870045
0.557506
-0.635128
-0.384470
0.972237
-0.251065
0.960699
-0.922425
0.534728
0.987117
-0.082585
0.723522
0.506749
-0.234231
0.501793
-0.639626
0.843349
0.073241
-0.131818
0.708876
-0.104496
0.172784
0.597891
-0.355008
-0.537727
-0.019207
0.990233
-0.112502
0.555549
-0.864243
0.411370
0.181242
0.666738
0.550225
-0.554214
-0.359948
0.245743
0.748242
-0.875544
0.340491
0.559391
0.988342
0.015161
0.624244
-0.117369
0.278907
-0.056786
-0.877298
-0.199099
-0.702780
0.173606
0.853529
0.268192
-0.711945
0.543558
-0.569975
0.791788
-0.389806
0.537244
-0.984714
0.359385
0.138125
0.502273
-0.372373
0.961157
-0.730632
0.447836
0.930034
-0.952389
-0.631609
-0.734595
-0.140399
-0.006532
-2.204962
0.710976
-0.856467
0.252156
0.492801
0.563258
1.546636
-0.166543
0.876587
0.865489
-0.230144
0.617520
-0.268782
0.590604
-0.353656
-0.355134
0.667647
-0.883457
0.891760
3.936316
-0.115419
-0.066665
-0.101440
1.162666
-0.765205
-0.074533
0.514243
-0.750004
-0.659942
0.850117
-0.180727
-0.352572
-0.643195
0.171932
0.207953
-0.266623
-0.356190
0.636803
-0.708995
0.172175
0.545427
0.187122
-0.862529
-0.547552
-0.647518
0.205480
-0.542650
-0.108566
-0.219717
-0.371169
0.078100
0.261219
0.969979
-0.602948
0.304840
-0.106372
-0.247425
-0.479063
-0.327884
0.696603
0.492508
-0.014049
-0.563131
-0.070212
-0.147876
-0.906634
0.255434
-0.187187
-0.373344
-0.736830
0.442299
-0.010421
0.497571
-0.671136
-0.806112
0.508404
0.806020
-0.688522
-0.444622
-0.210618
0.709027
0.651614
0.698060
0.860425
-0.115261
-0.231941
0.175283
0.358099
0.265065
0.035267
-0.525383
0.993048
-0.548509
-0.906552
0.197006
0.204135
0.643303
-0.361170
0.939644
-0.765179
-0.015621
0.589339
0.780209
0.617269
0.325970
-0.973773
-0.223935
0.701530
0.084992
0.195962
0.063212
0.694778
0.007618
0.617127
-0.443023
-0.559657
-0.038987
-9.334638
-0.051763
-0.317241
0.536596
-0.977710
-0.425990
-0.620078
0.852037
0.758194
0.066336
0.050156
0.777338
0.301404
0.022721
-0.036507
-0.455806
-0.329735
0.637948
0.072708
-0.919097
0.428578
0.929977
0.427481
-0.378131
0.167134
0.446258
-0.716396
-0.612364
-0.057856
0.802447
0.733624
-0.305801
0.542145
-0.711163
-0.573645
-0.832657
-0.793026
0.368011
-0.110266
0.838547
-0.575652
-0.951958
-0.460456
-0.209411
-0.751514
-0.631887
0.724620
0.216902
0.475590
-1.039535
-0.021823
-0.345082
0.960269
-0.560955
-0.983976
-0.173695
0.570299
0.236108
-0.565816
-0.310417
-0.702332
0.645778
-0.550690
0.261319
0.756965
-0.166039
0.523611
0.399647
0.123585
-0.907324
0.074050
0.140050
-0.101666
0.429015
0.548342
-0.611140
0.390945
0.108802
0.034438
-0.843620
0.689128
0.142784
-6.269975
0.408291
-0.228810
-0.022298
0.837150
0.250187
0.142918
-0.556112
0.165291
0.689998
-0.092333
-0.914748
0.557433
-0.502449
-0.607014
0.296441
-0.936371
-0.660292
-0.054866
0.941942
0.606636
-0.000307
-0.855770
0.243008
-0.896891
-0.513086
0.588033
-0.663163
-0.665846
-0.064630
0.719333
0.356911
-0.683127
-0.544403
0.903838
-0.769526
0.925107
0.525975
-0.969041
0.362931
0.266018
-0.913956
0.218197
-0.899877
0.071645
-0.973676
0.745301
-0.774466
-0.323377
0.108442
0.851829
0.928048
0.594098
0.001958
2.579333
0.129622
0.939140
0.330198
-0.571388
0.217753
0.851935
0.014578
0.373130
-0.256630
-0.380564
0.163860
0.994193
-0.457279
-0.954495
-0.634070
-0.427022
0.789726
0.727729
-0.747716
0.258003
-0.244956
0.148991
-0.738361
-0.647194
-0.041425
-0.634915
-0.125440
-0.596404
-0.602690
0.056409
-0.924509
0.467279
0.923506
-0.178687
-0.636312
-0.286603
0.388997
-0.703336
-0.679465
0.216809
-0.192091
-0.982846
-0.664008
0.557666
0.933622
0.428181
-0.567614
0.388994
-0.646098
0.072836
0.655309
0.594033
-0.314285
-0.639379
-0.228857
0.558508
0.703067
0.912629
-0.655646
0.198680
0.715584
-0.244127
0.096353
0.053269
-0.758817
0.527116
-0.576986
0.838717
0.566634
0.378954
0.853859
-0.020052
0.333112
2.086232
-0.013916
0.717682
-0.654960
0.111519
0.657655
0.187745
-0.047101
0.686307
-0.710643
0.516189
-0.568350
-0.441734
0.746949
0.529375
-0.835081
0.184940
-0.814146
0.433511
-0.795169
0.839479
0.098419
-0.447052
-0.700321
-0.311736
0.085376
-0.470744
-0.581324
-0.351733
0.270574
0.694604
0.248380
-0.463370
-0.553672
-0.914662
-0.614457
-0.247882
-0.534499
-0.699856
-0.599421
0.141740
0.588730
-0.663168
-0.371489
0.456840
0.671722
-0.455276
0.558468
-0.246114
0.088335
0.867273
-0.345449
0.141027
-0.505504
-0.301896
0.097551
0.667101
0.329764
0.544851
-0.875402
-0.555866
0.198453
0.176481
0.462949
0.254318
-0.829041
0.339619
0.544931
0.082569
-0.202126
0.165598
0.597561
0.505260
-0.571154
0.542526
-0.406264
0.185909
-0.489958
0.461460
-0.183958
-0.336956
0.659318
-0.608497
-0.611676
-0.803411
0.216332
-1.057310
-0.824144
0.423131
0.416816
0.971232
0.198043
0.121610
-0.483826
-0.242696
0.848723
0.051736
-0.301751
0.506202
0.649698
0.921118
0.807233
1.796963
-0.786370
0.398728
-0.627603
0.411475
-0.626659
0.817806
-0.819489
0.546881
0.570732
0.847887
-0.216973
0.150286
0.245671
0.681282
-0.197395
0.785169
-0.085169
0.166063
-0.999797
0.838632
0.243984
-0.189587
0.440654
-0.283462
0.598899
0.378503
0.522672
-0.248069
-0.413105
0.712024
-0.541124
0.758757
-0.506895
-0.390522
0.023270
0.093719
-0.695576
0.166036
0.283028
0.470976
0.565133
0.338744
0.881152
0.027605
-0.040057
0.527417
0.187688
1.121679
0.008913
0.843987
-0.750656
0.316868
0.370037
-0.991281
-0.201407
0.085770
-0.458870
-0.644464
-0.427485
-0.651364
-0.788872
-0.881412
-0.676201
-0.600502
-0.085417
-0.898649
-0.377834
-0.142722
0.090482
0.364848
0.309088
-0.115489
-0.138040
-0.104424
-0.367299
0.670063
-0.937269
0.052779
-0.308369
0.904666
-0.853295
-0.136632
0.121912
0.007938
-0.105013
0.190991
0.105477
-0.679011
0.755124
0.444986
0.466296
-0.879193
-0.933553
-0.406528
0.306550
-0.028765
-0.958683
0.166342
-0.818865
0.058319
-0.870158
0.107221
-0.787434
0.662022
0.682093
-5.224466
-0.927535
0.035351
-0.364679
0.032297
-0.581003
0.841436
-0.426116
-0.629615
-0.617203
-0.937114
-0.406020
-0.965124
0.681853
0.958879
-0.396030
0.183070
-0.904650
0.184375
-0.527456
-0.678752
0.712181
0.563304
-0.386968
0.067456
-0.456036
-0.191143
-0.332066
-0.343177
0.879647
-0.602876
-0.009822
-0.984869
0.646123
0.897995
0.542937
0.848619
-0.567794
-0.471347
0.727858
-0.287755
0.952451
-0.201862
0.786483
0.374459
0.191185
-0.304556
0.239063
-0.785591
0.379277
-0.690831
0.268420
-0.633786
0.432190
0.702082
-0.337673
0.578340
0.056648
0.680131
0.197358
-0.540618
-0.205551
0.054325
0.865087
-0.598205
0.665440
-0.769769
-0.249594
0.053909
0.577194
-0.500617
0.848958
0.592832
0.574190
-0.088859
0.730487
0.135367
0.465277
0.324742
-0.889189
0.129389
-0.914378
0.834578
-0.783353
0.523493
-0.549623
-0.205553
0.853757
0.436452
-0.164721
1.022785
0.181568
-0.393599
-0.671521
-0.688877
-0.815736
0.532759
-0.336365
-0.952257
0.308574
0.644911
-0.461968
-0.810328
-0.904284
-0.883259
-0.314896
-0.642237
-0.787440
-0.570153
-0.556425
0.567543
-0.960243
-0.846976
-0.152330
-0.208187
-0.970839
-0.288560
-0.491670
-0.040867
0.017923
0.782618
-0.466398
0.409380
0.934817
0.798700
-0.077012
-0.898671
0.792747
0.275983
0.799113
0.773342
-0.567989
-0.084758
0.962897
-0.128479
0.906413
-0.254216
-0.530489
-0.288080
-0.722134
-1.113086
0.599922
-0.596939
0.823813
-0.059987
-0.856131
0.308221
-0.803711
0.684370
0.991882
0.995193
0.007907
-0.472978
0.214085
-0.149398
-0.933839
-0.821369
-0.120762
-0.518691
-0.731484
0.519499
-0.129119
-0.207818
0.772488
-0.806516
-0.733584
0.137914
-0.856535
0.545874
-0.575533
0.544139
0.197154
0.173275
-0.250785
0.563245
0.626442
-0.627229
-0.188267
0.813646
-0.439393
-0.376383
-0.264646
0.140346
-0.275325
-0.316814
-0.671955
0.240744
0.811532
0.037281
-0.227890
0.043732
-0.459754
-0.511898
0.857857
0.627750
-0.004980
-0.523186
-0.033259
0.745444
-0.747617
0.748279
0.745699
-0.406527
-0.301767
-0.839998
-0.062948
0.096221
0.390795
-0.818790
0.736935
0.301779
0.308222
-0.306007
0.292484
0.459223
0.726173
0.916389
-0.187981
-0.380339
0.858829
0.459854
-0.752824
0.692543
0.552053
-0.348217
-0.661355
-0.060226
0.682095
-0.086718
-0.659797
0.287688
0.071583
0.420813
-0.690215
0.289413
-0.569592
0.617590
-0.261573
-0.804969
-0.960764
-0.243602
-0.201717
0.782775
-0.078028
0.615868
-0.112655
-0.332373
0.739486
-0.467332
-0.188601
0.212016
0.628522
0.728819
-0.876401
-0.131797
0.614389
0.146917
0.230054
0.632944
-0.968940
-0.612061
-0.915706
-0.339224
-0.180567
0.128459
0.674377
0.724989
0.511824
-0.907146
-0.803738
0.832652
-0.440685
-0.623144
-0.446244
2.719813
0.172067
-0.363413
0.593476
0.226232
0.920597
0.816796
-0.730601
0.941920
-0.994517
-0.105325
-0.033896
-0.949336
0.998758
0.991013
-0.079221
0.322159
-0.053535
0.452404
-0.722597
0.028079
-0.618141
0.682604
0.928401
-0.076217
0.225472
-0.730317
-0.592160
0.234466
-0.764718
0.760182
0.851982
-0.668134
0.613171
-0.949635
-0.220711
0.418114
0.200274
-0.488670
-0.015896
0.289675
-0.431097
0.311713
0.444200
0.076540
0.640998
0.561110
0.717859
-0.632704
0.210179
0.078298
-0.488966
0.856495
0.164303
-0.364150
0.998312
0.398140
-0.497680
0.243885
-0.544704
-0.237484
-0.569310
-0.833275
0.078296
-0.629934
-0.104171
-0.239248
0.346239
0.560901
-0.729980
-0.931020
-0.098737
0.224464
-0.923103
0.000512
-0.732780
0.599733
0.800986
-0.126858
0.436354
-0.553882
-0.332040
0.622311
0.351426
-0.856487
0.496419
-0.426585
0.215975
-0.422471
-0.101776
0.357556
-0.797427
-0.735151
-0.293687
0.637319
-0.058724
-0.928221
0.644970
-0.422565
0.502552
0.227685
-0.728800
0.451182
-0.057322
-0.406356
-0.797986
-0.690332
0.345584
0.527679
0.423240
-0.466218
-0.029933
3.259511
-0.854826
0.740972
0.497777
0.493202
-0.185351
-0.340509
-0.453591
-0.074295
0.439360
-0.162853
-0.735746
-0.502743
0.338396
-0.197861
0.324089
0.297286
-0.845970
-0.870304
0.483308
-0.865305
-0.309963
-0.565018
1.894272
0.928689
-0.432334
0.700323
0.774643
-0.616520
-0.335187
-0.795283
0.853355
-0.721950
0.669031
0.996263
0.971857
-0.101271
-0.181473
0.031824
0.008081
-0.504064
0.092456
0.555634
0.637568
-0.084757
0.179353
0.524088
-0.706599
-0.091155
-0.491509
-0.239567
-0.105488
0.602975
0.281813
-0.921714
0.887339
0.546337
0.255128
-0.792888
-0.754570
-0.397231
-0.981499
0.933518
0.050731
-0.410773
-0.981268
0.960188
-0.131964
0.705218
-0.062961
-0.380113
-0.068950
0.043318
-0.452265
0.697366
-0.143657
0.774453
0.899670
0.529993
0.676363
-0.684668
-0.204187
0.146246
-0.944722
0.604296
-0.207828
-6.448851
0.548637
-0.934348
0.486339
0.300448
0.490076
0.220678
-0.130805
0.917015
0.240293
0.736816
-0.652068
-0.003946
-0.936901
0.538858
-0.568831
-0.128571
0.118127
-0.108390
-0.262854
-0.411405
0.113037
0.876815
0.843070
0.185380
0.225070
-0.708346
-0.394756
-0.294443
0.351991
0.813646
0.414490
0.183421
-0.032641
0.017600
0.071704
0.050067
-0.714417
0.581154
-0.595917
0.439249
-0.101198
0.585917
0.056287
0.925470
9.082340
-0.725750
0.818113
0.960749
-0.076370
-0.182663
-0.914366
0.613501
-0.452637
-0.690149
-0.725856
0.532243
0.262544
0.617290
0.090926
0.661218
-0.508171
-0.497272
0.632398
-0.937964
-0.047145
0.363110
-0.472807
0.321790
0.660147
0.741449
-0.851240
-0.273592
-0.763737
-0.912935
0.212535
-0.069653
-0.333308
0.313711
0.929516
0.627180
0.374807
-0.591041
-0.417276
0.488382
-0.679649
-0.882895
0.068930
-0.230667
0.285085
0.707518
0.852856
0.452443
0.886655
-0.172548
-0.426960
-0.165972
-0.407394
0.652481
0.451450
-0.544519
-0.167134
0.165719
0.662090
0.761206
0.075560
-0.638772
0.059930
0.204943
0.605466
0.543447
0.502296
-0.966881
-0.634927
0.958923
-0.856576
0.211885
0.496456
-0.133731
0.797689
-0.498349
-0.243769
0.635169
0.683801
0.856109
-0.876864
0.366658
-0.279988
-0.593494
-0.370637
-0.813228
-0.323829
0.666769
0.797542
0.455009
-0.657538
0.615196
-0.032910
0.924405
-0.606626
-0.988076
0.900972
0.050101
0.914364
0.014251
-0.605910
0.871414
-0.698522
-2.731057
-0.897161
0.424039
0.007383
0.046273
-0.637537
0.510288
0.656115
0.484240
0.130627
0.697321
0.545163
0.502902
0.456070
0.247151
-0.888523
0.774690
0.907140
0.934162
-0.676065
-0.385291
0.649359
-0.003946
0.423618
0.904585
0.836274
0.556512
-0.913063
-0.905378
-0.202815
-0.978127
-0.420379
0.878209
-0.162821
0.611364
-0.750782
-0.921572
-0.826411
0.255856
-0.603064
0.592326
-0.502441
-0.132838
0.781089
0.188171
0.450339
0.918966
0.956681
-0.860231
-0.990407
0.516490
0.191322
-0.245083
0.429724
0.963944
0.267238
0.096664
0.100852
0.984149
0.649129
0.996097
-0.482324
-0.017622
0.679577
0.256313
-0.835098
-0.063832
0.680277
1.226469
-0.669650
0.801576
0.931861
0.148101
-0.773493
0.078994
-0.621529
-0.429629
0.824714
0.616087
-0.093679
0.981938
-0.151572
-0.123290
0.114715
-0.017338
0.948361
0.086235
-0.850352
-0.739104
0.064348
-0.179659
0.391504
-0.883618
-0.819667
-0.921755
-0.124762
-0.639102
1.021074
0.231985
-0.455514
-0.472598
0.243232
0.468356
-0.133909
-0.212550
-0.277485
-0.879677
-0.576623
-0.440542
-0.514342
-0.749832
0.234581
0.365810
-0.883745
0.683882
0.059239
0.436433
0.610039
-0.409086
0.414143
-0.367249
-0.068356
0.796290
