-0.104312
-0.447213
-0.734647
-0.945900
-0.267057
0.626689
-0.937521
0.531697
0.086221
-0.725447
-0.077079
-0.962816
-0.387545
0.840576
0.650945
0.086838
-0.996037
-0.388754
0.445969
0.315909
0.670801
-0.812212
0.819724
-0.646320
0.590552
-0.695993
-0.677627
0.259132
-0.379801
-0.373710
0.889658
-0.678343
-0.271909
-0.982489
0.328160
-0.116475
-0.929008
-0.508585
-0.611608
0.329428
0.762204
-0.266255
0.260508
0.633991
0.547932
0.488515
0.764406
-0.646374
-0.484949
0.716370
0.894460
0.600286
0.492222
0.803908
0.477982
-0.443172
0.282777
0.948004
0.698074
-0.370698
-0.786963
-0.936551
0.714260
-0.163892
0.925197
0.317068
-0.542929
0.889680
-0.295262
0.714411
-0.303079
0.047761
0.182188
0.313543
0.447649
-0.753725
0.899201
-0.566008
0.881661
0.521834
-0.473045
1.009774
0.625876
0.455315
-0.877020
0.851752
0.282563
0.752102
0.710209
-0.421314
-0.803845
-0.412966
-0.437357
-0.358051
0.458567
0.896728
0.326147
0.585478
0.195593
-0.410099
-0.885369
-0.015100
-0.297373
-0.020034
-0.355902
0.714684
7.749490
0.468968
-0.973429
-0.028652
0.312684
-0.960357
0.230850
0.315132
-0.893738
0.465009
0.899111
0.791702
-0.660280
0.868253
0.744499
-0.135019
0.928368
-0.281034
-0.227786
-0.087815
0.763545
0.155859
-0.705727
0.928892
-0.591773
0.542384
-0.505383
-0.455394
-0.886385
0.400702
-0.949251
0.628214
0.491780
-0.016672
0.431356
-0.811270
-0.314550
-0.143295
-0.172485
-0.877373
0.047453
-0.951092
-9.675740
0.243848
0.336139
-0.980211
-0.242790
-0.275282
-0.353385
0.151452
-0.778579
0.867551
0.229302
0.593766
0.421027
-0.542277
0.901291
-0.313987
-0.539185
0.899510
0.279285
-0.946286
-0.483612
0.525530
0.427035
-0.067158
-0.458408
0.167954
0.912627
0.416289
0.294440
-0.501772
-0.794317
-0.218171
0.299817
-0.639381
-0.916937
0.444628
-0.233617
-0.559961
-0.898472
-0.682732
-0.222349
0.667935
0.872518
0.621402
-0.001022
-0.968953
0.603132
-0.071647
-7.834792
0.146575
-0.642616
-0.626793
0.589710
0.469842
0.489955
0.146033
-0.023794
0.661329
-0.441774
0.240292
0.700649
0.033311
-0.899968
0.449481
0.332175
-0.101774
-0.646309
0.149316
-0.916114
-0.319161
-0.985128
0.939619
0.445264
-0.139346
0.277877
-0.551415
-0.622094
0.828715
0.161093
-0.453945
0.508575
-0.533302
-0.134201
0.978555
-0.941320
0.116088
0.394144
0.230452
-0.891487
-0.324222
-0.832361
0.649034
-0.039466
-0.370237
-0.498797
0.947048
-0.977419
0.270609
-0.731862
-0.969765
0.548409
0.283694
0.303972
0.113066
-0.021425
-0.592814
0.636316
-0.560288
0.367361
0.888765
0.787785
-0.545565
-0.153623
-0.485866
0.088151
0.606916
-0.169555
-0.582019
0.995040
0.655469
0.569251
0.978347
-0.679223
-0.710317
-0.701108
0.350452
0.377630
-0.584251
-0.169717
0.810116
-0.964062
-0.365370
0.295679
0.463551
-0.441739
0.880415
-0.221789
0.833638
0.668864
0.810131
0.067895
0.525428
-0.164161
-0.180767
-0.393918
-0.622192
0.764201
0.965764
0.471003
0.372640
0.648365
0.134207
-0.774922
-0.400015
0.290299
0.490621
0.649188
0.081197
-0.831614
0.606330
0.610024
0.426398
0.121045
-0.651647
-0.436396
0.804273
-0.145213
-0.249113
0.301419
0.730406
-0.886777
0.457223
0.743011
0.685518
0.007257
-0.399637
0.442796
0.923182
0.063700
0.821656
0.778941
0.106582
0.251639
0.515811
-0.881356
0.067326
-0.126543
0.961700
-0.014446
0.582139
-0.500934
0.252835
0.134287
0.622060
-0.286685
-0.132350
-0.452164
0.918774
0.554266
0.902836
0.576084
-0.870283
0.613868
0.844855
-0.841718
-0.451632
0.389997
0.230163
0.032878
0.826611
-0.036951
0.078864
0.355450
-0.830483
-0.037590
0.198482
-0.736677
0.144811
0.183717
-0.939226
0.945149
0.690501
-0.326446
0.238066
-0.313808
0.067071
-0.658024
-0.890350
-0.259940
0.559067
0.624192
0.913414
0.549180
-0.198004
0.709793
-0.502654
0.590404
0.896877
0.789410
1.896838
0.547059
0.789254
0.269108
0.044065
-0.771092
-0.482098
0.699124
-0.105862
0.130027
-0.312483
-0.951588
-0.649473
0.258772
-0.241980
0.965857
0.447657
0.755868
0.165576
-0.064046
0.030964
0.381350
0.924044
-0.013823
0.835499
-0.889286
-0.173648
-0.614580
-0.780657
0.698899
0.059739
0.208824
0.978679
-0.221290
-0.147740
-0.510080
-0.416261
0.983469
-0.488248
0.791680
-0.460370
-0.860937
0.310719
-0.734320
0.975998
0.457983
-0.217754
-0.862327
-0.515001
-0.485754
0.990173
0.071687
-1.119570
-0.670955
0.575299
0.424280
0.077928
0.411983
-0.891652
-0.163051
-0.011667
-0.604356
-0.902241
0.467913
-0.588619
-0.903047
-0.411327
-0.163952
-0.714514
-0.123119
-0.671620
0.106392
-0.154852
0.316360
-0.925940
0.681989
-0.903008
0.825756
-0.590175
0.287547
-0.445266
-0.075849
0.695886
-0.694736
-0.940302
-0.473231
0.494717
-0.889919
0.330826
-0.701169
0.213509
-0.886915
0.371506
-0.893881
-0.390584
-0.921457
0.554325
0.374839
0.827097
0.629005
-0.824160
-0.344483
0.206532
-0.162004
0.178866
0.508323
0.593144
-0.232007
-0.523481
-0.606467
0.767904
-0.928128
0.665716
-0.894712
-0.822628
0.767481
-0.197339
0.780104
-0.252189
5.056609
0.626224
0.393001
0.225702
-0.303666
-0.300054
0.021867
-0.976177
-0.821390
-0.210735
0.286464
-0.011904
0.379757
-0.636458
0.419947
0.952723
-0.598494
3.219825
0.555322
0.835799
-0.971328
-0.140345
0.004160
-0.986235
0.696641
-0.562112
-0.126598
-0.162261
-0.074179
0.234689
-0.738137
-0.936541
0.522298
-0.560006
-0.778233
-0.917805
0.429824
0.776218
0.700258
0.609074
-0.973581
0.885219
0.045292
-0.853143
-0.893487
0.124432
0.235805
0.045640
-0.545207
-0.437700
-0.275809
-0.452793
-0.862155
-0.249343
-0.766154
-0.788602
0.028574
-0.423183
-0.672762
0.155172
0.890888
-0.709389
-0.445091
0.636214
-0.218230
0.469391
-0.264475
-0.157982
-0.734158
0.048268
-0.557882
0.033922
-0.297412
-0.153520
0.446128
-0.210196
-0.679495
0.468830
-0.201903
-0.402288
-0.306157
0.650777
-0.710499
-0.061804
0.272354
-0.929350
0.184972
-0.911160
-0.607579
0.697855
-0.047507
-0.649178
-0.242891
0.732824
0.760998
0.838147
-0.345495
0.088803
-0.217070
-0.242630
0.507457
-0.581056
-0.518928
-0.511328
-0.373164
-0.637008
-0.432530
0.666751
-0.661993
0.365103
0.589130
0.823827
-0.810284
0.545902
0.294171
-0.634582
0.975022
0.183238
0.590766
-0.779933
-0.694087
0.668389
-0.948839
-0.845073
-0.331343
0.933809
-0.728725
-0.669656
-0.086302
0.082076
-0.551198
0.581068
0.826352
0.406811
-0.910396
0.272853
-0.800535
-0.156362
-0.087987
-0.232286
0.461707
0.598959
-0.375261
0.677961
-0.784377
0.131786
-0.103816
0.828567
0.065520
0.492528
0.867215
-0.687014
0.637633
0.816026
-0.439111
0.818972
-0.408901
-0.542692
0.187749
-0.864133
0.254780
-0.264078
-0.326077
-0.067753
0.883920
0.835077
-0.326968
0.916650
0.261855
-0.985296
-0.643680
0.033003
-0.843129
-0.868054
-0.694954
0.357000
0.047441
0.626808
-0.116225
-0.505654
-0.714195
-0.640859
-0.572028
-0.997872
0.438715
0.062045
-0.221402
0.150388
-0.774771
-0.248442
0.248928
0.714184
-0.484370
-0.179084
-0.622157
-0.930660
0.428961
-4.574957
0.220481
0.995409
-0.148935
0.629219
-0.678581
-0.304937
0.269146
-0.427640
-0.306128
0.493666
-0.257807
0.575446
-0.699826
-0.222808
-0.599909
0.560131
-0.583903
-0.939095
0.035174
-0.642247
-0.906655
-0.442992
0.774462
-0.327016
-0.163195
-0.811616
-0.044088
-0.793353
0.562047
-0.286409
0.570383
0.056337
0.367542
-0.435678
-0.374395
0.100675
-0.180589
0.851645
-0.058828
0.295833
0.005055
0.942733
-0.687441
0.951811
-0.384047
0.050462
0.608741
0.055833
0.913664
-0.846894
0.607510
0.894965
-0.133993
-0.558280
0.345753
-0.851927
0.211420
0.338266
0.364612
0.754741
-0.781453
0.318359
-0.162464
0.891256
-0.059567
-0.880136
0.288581
-1.109335
0.937171
-0.078387
-0.366770
-0.401686
-0.648821
-0.878114
0.128549
0.736060
0.705881
-0.320273
0.736974
0.131220
0.435833
0.320013
-0.757275
0.800942
0.504517
0.393834
-0.316894
0.989442
0.958632
-0.214537
-0.966837
0.952333
0.978428
0.365821
0.811334
-0.689786
1.743853
-1.883511
-0.403042
-8.812369
3.183396
-2.096992
3.113272
-4.939583
0.009713
-9.400895
-6.578180
-4.781044
5.285080
4.007307
-7.266733
0.104914
-1.556687
-3.684591
0.605733
-8.227856
3.512516
-0.576175
-5.119565
-4.129101
7.349405
-3.814346
-2.821502
-8.921828
3.024741
-5.570797
-1.249946
1.960480
-4.849921
-10.579988
3.179322
2.683382
5.897635
-9.695578
-4.483008
4.020213
1.991666
-2.757006
2.415735
-5.252906
2.018864
5.203393
-0.903152
0.140564
-5.728378
0.020706
-1.094613
-7.747582
2.172441
-14.441492
-0.407060
-2.653758
-5.192550
13.339180
4.248903
-1.159823
6.918075
-3.814123
0.889439
3.976364
6.977379
1.917331
-0.423067
5.831218
0.839905
-4.791714
-0.592749
-2.921551
-3.837621
-9.192138
-1.673996
-5.278244
-5.782308
0.528147
12.158256
9.276004
4.311055
2.588467
1.446178
1.056917
2.588883
10.498853
1.619242
2.851571
2.316683
-14.377150
-0.229190
0.801586
8.763047
12.589863
0.111161
-2.955111
-10.765238
8.173119
1.226826
-4.531633
10.961649
-6.949969
6.671650
-8.051240
-7.946159
-5.162784
6.957363
-4.588866
4.253435
-12.030820
-3.071635
0.256600
-3.218226
-1.714422
2.158201
4.488927
0.805000
8.731203
-2.931300
-3.916731
-15.210482
-2.853418
-7.085722
-6.538756
5.861376
3.226319
1.080550
-4.561293
0.105592
-15.437105
-1.354714
5.457985
-2.574180
0.359509
-0.846577
8.070214
-6.549186
2.415022
6.683583
0.965386
-2.414882
-3.556206
3.575720
1.378038
2.677345
3.582096
-7.273846
2.246947
-0.102543
2.001164
0.250798
6.172672
-4.303485
-3.848410
0.174660
-8.847759
3.921617
8.495269
-1.577909
0.333050
4.638214
-6.438553
-1.278802
10.584625
1.049211
6.663587
1.483325
8.060895
-2.812298
-2.683143
-1.316909
5.210977
7.671571
-1.810697
-1.788034
3.259883
13.187268
-2.411113
1.732177
0.787033
4.784442
2.589479
-11.727386
-6.006671
-0.704782
4.633996
-0.681923
4.629612
1.202466
-6.859016
-4.926631
-4.864834
-9.155083
3.637597
9.804954
-4.432260
-9.181641
11.213033
5.291852
5.058646
-4.631352
-7.939799
4.966667
4.365975
6.955105
-7.227417
0.213605
6.865159
-3.650083
-1.391526
-7.398597
-0.436586
-0.440099
-9.589305
-5.410723
4.165902
-7.830949
-10.292902
-0.316517
2.907055
-1.775702
3.313863
9.098299
-8.611577
-8.431998
-5.566894
-3.181447
-0.420118
-6.671598
3.133962
10.553227
-5.364432
-4.077360
3.262199
-4.333501
0.656393
-7.420005
0.120538
7.215066
-0.716390
10.263932
7.587272
-3.587320
-9.947221
-3.012307
-6.013044
-2.225987
4.732362
7.448083
6.678370
-6.891969
-10.922786
-7.255526
0.542500
3.195347
-3.620169
10.532242
0.558711
-5.456484
1.871822
2.678554
-6.268045
-4.239554
2.543584
0.162861
6.251165
-8.348183
-22.992253
-6.216102
6.104774
5.644521
-2.922193
5.878841
-2.671800
7.881091
7.775504
1.757041
4.151446
2.805344
8.002209
1.829126
-12.684799
-7.903019
7.400563
-0.247733
-0.400935
-3.470569
6.948114
2.948435
-4.605456
5.703489
-7.853877
-2.213161
-5.657144
1.530866
1.596752
3.185742
-3.475571
9.321066
-3.218872
-3.921184
2.701093
1.280035
4.735959
0.476201
0.401103
-4.226309
6.008011
-6.318409
-0.933766
0.438445
-6.627989
8.503190
5.075401
6.165668
1.183754
-5.711409
-4.967611
-7.398075
-3.074530
-7.370642
1.975236
-6.582627
7.287976
-8.750895
-6.932275
8.558444
4.737127
-2.096826
-3.272534
4.964157
6.945893
0.147035
-4.871374
15.934053
-7.136558
5.533819
-8.508584
8.130093
6.818273
3.882316
1.365323
1.555626
-3.192256
-5.733325
15.610142
0.010420
-4.026379
-8.570695
0.481962
2.782496
-5.628639
4.650217
-6.558299
-2.266352
-1.707866
-5.581103
1.750300
4.533665
-3.678875
8.736889
-4.761277
-4.503791
0.777836
-2.509882
4.528120
2.194584
-7.486552
6.731350
-5.496824
5.584630
7.939909
2.766577
6.953274
7.190008
-9.517779
5.781982
4.405702
-5.381595
-5.480601
-0.060738
-8.050450
-0.353016
5.474905
1.885278
-1.570180
5.342173
17.361128
12.788585
2.690844
2.985660
5.677421
-7.634089
-4.797871
5.145360
-9.023081
1.224024
-2.962322
3.682097
-2.739702
-1.225179
-8.397913
2.393792
2.419883
1.992245
-9.209192
-2.725384
2.032389
0.411320
6.663100
1.807695
2.177144
-3.938877
0.737046
3.996383
0.158644
0.094121
7.262151
1.047755
3.780449
-4.467743
-1.898106
7.080979
2.214308
0.092073
10.514482
-0.822525
7.185278
-6.970500
-12.005905
10.943997
-6.690827
6.050406
0.321123
-4.067036
-9.093795
3.619985
8.109698
1.813268
-5.578877
2.159988
12.935896
-1.728664
-9.160394
5.049627
-1.345648
-6.556883
-5.250571
-5.646299
-4.009517
-7.197777
8.623826
-3.423122
-8.354357
0.489139
3.831806
-1.960481
4.313681
0.092797
-6.018072
-3.716796
-9.743760
2.595376
4.125041
-6.453387
-0.618857
8.532074
2.888126
-9.720446
-4.073727
-0.234722
-7.100703
4.726892
0.221400
-8.603323
-1.126876
-1.555621
-9.068486
-5.014016
4.663280
3.982251
-3.925809
-7.628032
4.662212
-2.408236
0.208283
-7.192508
-9.267695
4.996789
-0.601632
5.440774
-5.744376
-5.567751
-0.138287
-6.795891
2.338718
-12.886989
-4.235712
0.613672
8.950200
1.231688
-3.842885
2.425925
0.902610
-0.724999
-5.600422
-7.164975
0.558005
-5.456699
5.295239
6.142454
13.970103
-8.338408
3.844398
0.462552
-14.697217
8.534607
-3.108550
-0.534305
-3.621065
-8.185291
10.012694
-2.235443
-5.004701
-1.333022
-2.533254
0.984806
-2.618596
5.097978
1.659138
-5.088610
8.974946
-3.169800
9.600342
0.043137
-8.587838
1.517015
-3.557209
3.147728
-0.326346
8.975075
2.268732
-6.125125
-9.643942
0.708373
-5.513320
-0.322273
5.000091
-11.120551
0.297569
-4.140385
3.812314
-1.822862
-5.822034
10.496891
-0.837454
4.075409
-4.428175
-1.329433
1.672610
-4.353833
9.123720
4.220236
0.205088
-0.096383
4.423917
5.386458
6.660041
4.167823
-3.419112
11.916031
-12.846495
-1.386212
8.182282
1.681249
0.797284
-2.054105
-1.966909
-7.426978
-12.211980
6.497532
1.283046
-4.219400
4.485115
-4.318526
-5.151071
-6.449368
1.532141
-0.840725
-7.761145
-10.089384
-11.156756
2.144117
-1.876779
5.577692
1.095508
-0.360547
2.945422
4.941893
1.790410
-8.319288
-5.229812
-5.395488
-9.585161
-9.162563
-1.436699
-1.768002
1.243021
-3.207849
6.391192
-1.095522
-4.105579
2.365475
8.047738
2.116558
7.341739
0.592078
-4.936231
-4.142366
2.549253
-10.827003
-11.811902
-3.881306
3.024746
-6.421167
-2.822368
0.973089
-3.125438
4.042740
-14.138531
5.393201
-5.313070
-0.408482
-5.558779
-3.093238
-6.251564
-0.071100
5.583730
-0.729560
7.000977
-3.793480
-3.436180
5.648034
7.788639
1.069803
-10.307984
0.622821
4.309818
-6.604159
6.912634
4.962819
-4.379005
3.930410
4.698152
5.055763
0.162314
-0.597055
-7.140953
0.345275
12.382348
1.949557
3.160655
6.578762
-3.910412
2.444113
-9.275104
2.454455
1.430184
0.843325
8.877537
5.113994
4.667640
-3.663322
-6.549708
2.218698
-2.854360
-1.493251
-7.346881
4.396373
6.643343
-9.297454
-9.446413
-3.170397
8.258958
-1.719919
-9.521007
-10.376639
-6.215464
2.263726
2.762121
3.799652
6.381612
-9.478598
4.668423
-5.926985
-7.824281
-2.948211
-6.342237
-2.747872
-5.009966
4.476812
-2.261800
14.298062
-6.586606
0.308020
3.828700
1.033201
-11.149150
-9.473198
3.304549
4.554213
-12.371337
-4.550166
-1.979671
3.479876
-1.231179
6.451006
2.639754
1.499984
3.967664
-0.909168
3.345250
3.925682
-8.557220
1.815789
-2.308094
4.360284
14.197082
3.151876
-2.748075
4.338075
1.709955
-3.146118
10.050066
-1.758981
-3.939586
-6.253961
-8.590042
-3.488440
7.302471
10.914199
2.065536
8.429818
-3.643446
5.054147
-10.819233
-0.355428
3.562625
5.578533
-2.603108
-3.343122
-4.103292
12.124732
3.967004
3.639299
1.075219
-10.593982
9.662450
-0.825874
7.317974
4.206137
-7.533014
1.911772
1.562970
-3.490972
5.133963
6.952893
-5.744309
5.887080
-2.260394
-1.307458
6.603584
0.344378
1.938984
2.354765
-7.268220
-2.679201
-2.032084
6.675945
2.615506
0.456159
0.320807
0.923970
6.893598
-2.140283
8.131168
3.147651
7.342257
-3.978327
-4.726635
-1.123900
-3.767271
-6.568050
-0.059891
-0.265147
3.104206
-7.962847
-6.498060
-5.115025
-11.890246
-1.243216
26.820191
4.217951
1.817679
-13.512274
3.576766
1.605307
-7.584901
-2.599180
-7.170808
-7.846254
1.320804
-7.728451
3.779625
-2.123883
5.516197
-0.638647
5.631690
-1.968952
1.014816
-7.561612
-5.107965
5.575905
-9.614797
-0.159977
12.428774
-4.691437
-7.699077
-2.654975
-3.365779
-4.727832
5.877802
6.972548
-5.711794
7.803000
-2.580746
0.500779
1.725016
-0.220076
-0.211952
2.661608
2.298381
0.036091
10.517001
-16.480985
4.416505
4.869061
-1.207328
8.145865
0.338916
-0.195469
2.556084
2.049244
0.052648
6.083422
-13.649046
-0.131486
-6.935229
-6.743811
-3.348416
-9.706764
-7.278608
-0.042192
1.903537
-6.347527
6.340986
-3.392349
10.964032
-4.810999
-0.434038
2.070379
-9.429681
4.423942
10.537289
4.217244
-3.067479
-4.354739
3.674469
-9.059990
0.891843
-0.807553
-4.030511
-9.445180
-7.201240
11.423927
9.185643
-1.402282
2.757208
10.399066
-6.997520
-3.128381
0.554682
2.936009
-3.153567
-4.829414
1.997950
1.091076
4.170664
-6.087922
1.413323
-5.356470
8.953086
0.810424
-3.705688
0.175797
3.611204
-3.310607
2.758155
6.805445
-20.946883
-0.925680
2.434010
4.172162
8.025034
-2.115755
-1.624077
4.269791
-4.619005
7.698305
-14.081430
2.946817
-7.645956
2.490621
-5.558874
9.606586
1.941426
-6.151330
1.020610
4.093242
2.844387
-0.370780
-0.772226
5.378911
-5.540734
4.247963
-13.611171
7.941285
7.754135
-1.805886
-9.077146
-0.590109
-7.407100
4.926629
-3.612649
-6.682465
2.532960
7.943280
8.599792
-1.543311
5.997198
3.151804
-3.407141
-5.340018
2.213910
-7.439092
-3.193262
0.430880
9.119893
6.571885
7.352534
-4.934027
0.816788
8.035658
9.534717
-5.008176
-3.837599
-1.635811
5.911645
0.594725
6.915347
-9.843375
6.858973
-0.823307
11.057856
-0.733790
-3.688232
14.994215
4.444866
-8.465199
2.628425
-10.692761
4.558353
7.639871
-5.535284
5.611593
11.408661
-0.320665
12.919143
5.636384
2.824858
-7.068712
-2.534061
-0.644114
-6.829423
1.972596
4.282975
7.631212
-0.300729
-3.940629
-3.464317
3.430458
5.599310
-0.158408
9.646110
-2.385958
-3.624504
-5.099475
8.369288
-6.876954
11.355873
4.668826
-5.605453
-1.999221
-6.539991
-3.954863
1.877803
6.118961
-2.568038
-6.495048
-0.893493
-1.828823
-2.311891
-7.653628
7.565484
-3.242063
7.899070
-0.887610
-15.408668
-6.862422
-4.797952
-2.548251
-7.351747
0.661080
6.387819
1.901714
-0.600835
-0.962203
-4.792412
-2.030819
5.572932
-6.689587
-4.671344
4.560208
3.351511
-2.255169
11.990439
-3.271576
-0.213674
-3.884414
-0.565241
-5.834831
-2.126757
3.046268
-5.684724
3.270567
-4.132093
-8.558333
0.638634
-7.836641
4.476489
-3.518221
-8.902089
-4.142231
0.764116
-7.755495
0.650726
3.392858
-2.089521
-6.167969
-9.602794
12.292925
5.417966
-6.840059
2.327689
-3.590398
-1.197334
1.013838
-2.914004
2.697187
-7.392141
1.332263
-3.033538
7.428149
-7.826643
4.613935
0.926479
-8.548374
9.683124
-4.806526
-4.239531
-9.300621
-2.826021
8.139526
-9.370272
2.427996
-5.945622
-5.689166
1.487297
-5.161003
17.527134
1.228349
9.823907
2.626608
-2.403469
-3.015486
-7.103011
-0.824690
-4.274065
-7.381886
-1.360362
-5.162718
8.911086
-4.253930
-2.474254
4.020932
-2.840348
-0.631595
3.923752
3.122071
-6.786672
10.815567
1.896644
-3.500381
-2.646604
-6.752709
6.177481
-3.392183
-1.652800
-6.740285
-1.927076
-11.899922
-3.616304
-8.372506
10.195265
1.220902
-5.042210
2.658305
-0.939868
-5.252623
-0.733673
1.676373
4.103705
-4.614378
-0.522529
-4.922787
-4.254919
5.666476
-1.565863
-4.724200
2.720098
-9.755747
2.806457
-3.896790
4.245495
-8.525957
-5.291847
2.144661
13.537255
1.130352
-6.480791
-6.098267
-7.498229
7.829708
-8.858662
-5.427970
-3.631702
2.498034
-10.216302
-3.193931
3.386688
2.565145
6.868537
-1.989838
3.433614
3.732755
-4.686311
-0.835907
-8.847043
1.622689
-4.978546
-2.260284
3.269961
0.074637
-0.418317
-9.439025
-1.066140
-0.126748
-5.764522
-2.780593
2.175113
6.067499
-6.436608
4.757129
5.287942
-5.260561
5.619231
-1.779031
-8.994996
-2.086200
6.271939
-15.965405
6.198332
-8.387898
-4.007160
-0.584131
-4.604606
-5.293059
-4.333453
-6.032066
5.698078
-4.070418
11.743501
4.732194
-1.779717
5.551578
-1.987621
-9.201975
2.927986
-1.625295
-2.671250
5.954979
0.323025
-2.675733
-5.788579
-3.525746
2.573708
-3.656276
9.733315
-2.213126
3.061529
4.591565
2.875103
8.816276
6.558488
-2.760842
-18.138753
-7.921975
0.141063
-6.628990
5.182986
1.271082
0.122050
5.193738
1.453478
0.869495
3.891929
2.153027
-3.458090
1.024343
-4.998970
-0.213545
-0.134803
0.197505
-3.375917
-7.092515
2.406198
-2.883550
-9.826592
9.209948
1.702270
4.445766
-8.278110
11.244762
-6.570796
0.281320
3.764809
10.300422
-11.206578
-0.929602
-11.492164
3.971043
8.930360
-7.456578
-6.304269
4.118413
-4.405669
-2.489115
-6.936337
9.797779
5.869899
0.264906
0.597819
-6.977080
-10.362503
-1.853507
8.785841
2.351263
-2.620639
-0.649620
14.308073
-6.396804
-16.382988
7.934701
-9.309468
9.073936
-3.493103
6.400511
-9.888099
9.131848
-2.039081
4.552918
5.986190
2.725766
3.525169
9.542949
-1.716144
0.555756
7.975272
-2.238599
-7.839358
8.635788
-6.209758
-3.224868
0.385731
-0.601228
-0.996222
-7.625788
1.414842
0.950309
3.900483
-1.232740
12.165333
2.489578
3.615684
9.484459
-6.797431
9.320332
1.096154
-0.348907
-4.873617
5.392908
6.238986
4.930255
3.246396
6.375242
-12.285271
-3.024340
9.583559
3.310593
-1.554755
-3.165578
-0.794532
-1.509108
-10.947072
1.537136
0.255630
6.092584
-1.321787
-0.025875
0.413004
-8.950711
5.540486
3.681974
8.927259
8.884829
-4.893703
-1.289383
-0.816371
6.019049
3.431316
-7.269472
-3.504382
2.712999
-4.938900
-9.906065
-2.256101
-0.513492
5.813532
7.366388
-1.824652
6.708612
-8.397455
-6.312499
-10.908747
-0.999086
6.243658
-0.381480
-7.650243
-1.795061
7.663186
7.651813
-9.332124
-3.189727
7.924475
-0.391600
4.738233
7.674235
-7.432225
-6.361661
-5.319881
4.375368
5.149651
4.589501
0.124021
-2.099550
8.560965
-8.884380
11.276979
0.823137
-7.493140
-4.847377
6.106579
-3.041202
6.301229
8.649305
6.432636
0.173456
-2.581262
-3.880163
-1.492646
0.498375
0.853519
-17.990069
14.861910
-9.806190
7.164994
8.220613
4.493651
6.362152
-3.109857
2.424938
5.297066
-9.071299
-3.320743
7.130694
4.921768
-6.766230
1.294536
-4.192354
3.472533
-0.801922
0.713447
4.159706
4.249366
-4.589734
-8.280426
9.122062
4.341091
8.568272
-4.156473
0.072513
-1.757596
-6.987400
1.839730
10.427003
0.018179
-6.961362
8.034700
5.216785
-6.396341
-9.601038
-0.206807
8.013638
3.058894
1.349465
-0.234489
-2.353412
-1.951330
9.963579
-11.919128
-5.474994
-9.161080
2.350766
6.213239
0.903916
0.693441
-6.194192
0.095551
2.240378
-1.095401
13.939114
-1.039132
4.883819
3.672307
6.757551
-10.402933
-9.303645
-3.335841
6.242904
-5.215283
4.010402
1.916555
8.773792
5.135771
8.771361
5.421576
9.161896
-0.395327
8.857380
2.892666
-0.766397
-0.442392
0.662727
-2.908781
8.085799
1.240591
-2.516808
-3.373205
4.541683
-1.536584
7.630197
-5.717915
3.226653
10.598065
3.802169
-2.962983
12.222248
-1.774992
-7.118302
0.902235
0.078643
-0.821174
-1.132987
5.451621
-9.936029
2.358997
0.834708
-1.233207
-9.181723
5.774099
-9.117884
5.926687
2.811384
-9.418637
10.580575
5.301667
5.111325
2.186817
-1.154307
-1.273889
-6.106350
-1.262069
-8.039987
1.571911
1.147388
-0.153786
15.984842
-8.433177
-13.508355
6.062551
7.070041
-1.535567
-6.244187
3.530904
-4.478224
-9.294211
-13.136781
6.705134
-5.925416
-5.909386
-9.664528
-11.868415
8.244321
3.264520
-5.623486
10.329827
-6.051340
7.140674
-1.162327
-3.823036
10.145776
-8.378865
0.701990
1.491492
-1.336499
0.350190
-4.848015
-8.904289
-1.561952
3.966985
5.940745
-5.332906
6.403469
-28.892833
2.538898
4.137321
-2.711862
-9.628237
-2.562991
4.603621
-5.764429
5.378690
-6.535544
0.837458
-6.112038
6.359536
4.009274
-4.123959
6.263851
-0.418197
-5.563991
-4.532206
-5.128901
3.554258
-1.827984
2.373810
1.149211
3.353587
-10.389820
-5.171376
4.013013
-0.549046
-0.978491
-0.928019
-0.813934
0.989131
0.689015
0.925143
0.397744
0.385171
0.807026
-0.463078
0.153747
0.758457
-0.650517
-0.128365
-0.638504
0.679329
0.417791
-0.378340
-0.571577
0.275827
-0.812465
-0.031443
0.656352
-0.134307
0.908430
0.601453
0.577088
-0.259872
-0.429265
0.590931
0.263117
0.327808
-0.972001
0.782774
0.122725
-0.422895
0.066145
0.227032
-0.121051
-0.385405
-0.356208
0.705576
0.454953
-0.609262
0.410709
0.941930
-0.614396
0.512681
-0.937436
0.345831
-0.986474
0.523198
0.236572
-0.822216
0.769953
0.176680
0.036871
0.756476
0.784014
-0.688948
-0.885373
0.871573
-0.846590
-0.444945
-0.373451
-0.110625
0.019429
0.253903
0.741237
-0.357040
0.717467
0.462162
-0.222248
-0.149164
0.060409
-0.723663
-0.583349
-0.547999
-0.150972
0.530148
0.255688
0.774223
0.308153
-0.015766
-0.701523
0.754954
0.577205
-0.643360
-0.765451
0.132022
0.050416
0.012922
0.768708
-0.033139
-0.039305
-0.152142
-0.578050
0.662201
0.206087
-0.713738
-0.313613
0.932259
0.567159
-0.945490
-0.218239
0.845057
-0.694165
-0.135501
0.040323
-0.981403
-0.926984
0.823363
0.585834
0.115082
-0.308352
-0.277452
-0.844560
-0.758571
-0.832083
-0.154010
-0.304887
0.563003
0.387300
-0.855159
-0.331694
0.602993
0.351060
0.332971
-0.593542
0.387893
0.914229
0.547173
0.945389
0.480380
-0.533062
0.697633
0.797843
0.320242
-0.977675
-0.831699
0.537150
-0.127514
-0.477762
-0.027622
-0.490031
-0.739113
0.196958
-0.551728
0.378969
0.745909
0.685907
-0.885589
0.507091
-0.401104
-0.272489
0.150035
0.175767
-0.233775
0.324760
0.423371
0.155879
-0.654165
-0.490794
0.179418
-0.758320
0.024609
0.681968
-0.656510
-0.100787
0.417110
-6.434198
-0.548207
-0.467322
0.726268
0.542020
-0.886677
0.558615
0.301846
-0.927856
-0.087978
0.513525
-0.846936
0.456330
-0.689236
0.784473
0.447914
-0.139232
0.577181
-0.326183
-0.545938
-0.301100
0.594894
0.835307
0.945291
-0.384364
0.911705
0.336663
-0.847289
1.081023
-0.072450
0.803114
-0.770905
-0.322513
-0.258350
0.613023
0.840849
0.726530
0.236096
-0.451710
-0.208282
-0.093789
-0.123604
0.701551
9.960975
0.058861
0.115709
-0.933384
0.200808
0.553200
0.816464
-0.913860
-0.946875
-0.891224
0.351349
0.828766
-0.237878
-0.021640
-0.893923
-0.115881
0.197075
-0.412791
-0.451098
0.928357
0.554530
0.965724
0.104120
0.820557
0.833036
-0.665284
0.110922
0.316667
-0.650851
-0.114879
0.055225
-0.424872
-0.171990
0.559629
-0.678056
0.504466
-0.176981
-0.523092
0.719432
0.740342
0.348362
0.854099
0.524642
-0.086612
-0.511428
-0.546046
0.873380
0.857429
-0.039936
0.033063
-0.748593
0.346424
0.099113
0.396213
-0.717637
-0.800105
-0.532129
-0.071074
0.848849
-0.724660
-0.521954
-0.673528
0.479755
0.161680
0.485184
0.801092
-0.908600
0.053787
-0.120588
0.889373
0.744871
0.270793
-0.534529
-3.515006
-0.289095
0.110167
0.892694
0.652582
0.968939
0.010406
-0.801133
0.381458
0.166985
0.351648
0.375475
-0.264759
0.721099
-0.677525
-0.056732
-0.519759
-0.166334
-0.071721
-0.731640
0.955672
-0.912758
-0.266439
-0.006626
0.030421
0.354563
-0.335699
-0.789253
0.680680
-0.639669
-0.085361
0.043000
0.070714
-0.501968
0.805762
-0.417472
0.504551
-0.277704
0.557577
-0.574528
0.673896
0.073489
0.824550
0.298425
-0.652932
0.283983
0.486305
-0.760749
-0.349579
0.834416
0.853544
0.873735
-0.097589
0.921078
-0.367844
-0.865378
-0.162257
0.289117
-0.902580
0.349163
0.934253
0.315630
-0.796125
0.508506
-0.024795
0.937619
-0.166434
-0.677841
0.886328
0.603197
0.350981
0.562123
-0.576749
0.620567
0.075992
0.489039
0.089348
0.072832
-0.770937
0.638521
0.924778
-0.322868
0.224280
-0.128772
0.231339
-0.504532
0.316304
-0.485992
-0.962664
0.232602
-0.271966
0.539333
-0.097022
0.117792
0.188777
0.959490
-0.912232
-0.599588
-0.380327
0.689200
-0.340749
-0.213571
-0.793837
0.173193
-0.293303
0.594697
0.822847
-0.303625
0.170130
0.535087
-0.282177
0.993107
0.450452
0.602045
0.006855
-0.207270
-0.732035
-0.831534
-0.669416
0.954136
0.875865
0.697778
0.197883
0.831074
-0.363466
0.808419
-0.228876
-0.851379
-0.036922
0.378008
-0.294912
-0.333510
-0.263374
-0.244074
0.008582
0.022573
0.028582
0.208766
-0.203880
-0.058743
-0.324010
0.117041
-0.188884
-0.640690
0.941398
-0.392602
-0.189151
-0.179763
0.989106
-0.949195
0.084432
0.418235
-0.539818
-0.635879
0.816670
0.822933
-0.873185
0.209282
-0.962861
0.630519
-0.195203
0.184821
-0.611009
0.438670
-0.209547
0.150004
-0.263776
0.910516
0.424375
0.233839
-0.634265
-0.276963
0.608632
-0.539614
-0.480530
0.692873
-0.933860
-0.548509
0.691625
-0.823629
-0.061751
0.480132
-0.795029
0.411116
-0.413028
-0.805293
0.769363
0.240268
-0.446303
0.673696
0.292793
-0.971301
-0.464241
-0.907325
0.181315
0.024212
-0.028163
0.789259
-0.953170
-0.798270
0.323086
-0.911618
-0.105794
-0.230532
0.083600
0.658949
0.064809
0.525818
-0.260165
0.116275
-0.521388
0.168078
0.256848
0.051801
-0.191816
-0.640353
-0.349810
-0.218749
0.606769
-0.642233
0.285384
-0.367347
0.675906
0.937576
-0.438131
0.110824
-0.304461
-2.779718
0.991810
-0.961717
-0.533243
-0.855941
-0.944257
-0.347832
0.775378
0.093590
-0.539293
0.407432
-0.782965
0.699450
-0.812562
-0.971160
-0.106406
-0.404928
-0.037884
0.463765
0.266460
0.090291
0.376995
-0.585723
0.095275
0.950253
0.118574
-0.344439
0.362359
0.685237
-0.715053
0.438591
-0.032253
0.623032
-0.286837
-0.002123
-0.169204
0.616026
-0.466404
0.230927
0.716267
-0.169790
-0.278211
0.348473
0.014362
-0.304857
0.649329
-0.776313
-0.835178
-0.090305
-0.488098
-0.328794
-0.208278
-0.747476
-0.182471
-0.838643
4.166064
-0.233290
-0.161664
-0.953363
8.858292
-0.867429
0.658601
0.889908
0.133356
0.969254
0.138821
0.700206
0.971789
-0.273182
0.255603
-0.297828
-0.252314
-0.985560
0.945212
0.449429
-0.344571
0.642539
-0.988359
0.625665
0.380046
-0.071164
-0.488966
-0.976464
-0.818277
0.708359
-0.188540
0.163936
0.665902
0.417729
-0.943788
-0.872103
-0.269047
-0.810444
0.080951
0.459061
-0.504135
0.642922
-0.272155
0.357812
0.834641
-0.996019
0.121214
0.600601
-0.343688
-0.625206
0.614524
-0.263748
0.629059
-0.723295
-0.868035
0.837978
-0.895966
-0.727720
0.330499
-0.350207
-0.207912
0.356683
-0.534667
0.222992
-0.764267
-0.438695
-0.408946
-0.827198
-0.615930
0.035304
0.980739
0.899822
0.085511
-0.142090
0.443636
-0.469862
0.470833
0.771576
0.429874
0.160590
0.659557
0.764070
-0.258117
-0.608978
-0.065418
-0.257101
-0.922749
-0.681604
0.919825
0.309707
-0.767804
-0.001352
-0.956131
-0.791947
-0.266723
0.045838
-0.619878
8.845362
-0.328431
-0.381873
0.817780
0.334910
0.098959
0.967586
-0.135438
-0.271758
-0.374595
-0.444066
-0.234777
0.637249
-0.632325
0.038132
-0.977710
0.924053
0.490022
-0.712490
-0.236908
-0.807467
0.450815
0.678516
-0.142161
0.586521
-0.365813
-0.312929
-0.684129
0.404697
0.255406
0.805584
-0.542347
0.807373
-0.070177
-0.769193
-0.336627
0.654633
0.991364
0.080006
0.076581
0.074824
0.510587
-0.322847
-0.292047
0.873158
0.647251
-0.423891
-0.610075
-0.043010
-0.146588
0.348248
0.039491
0.982548
-0.142001
-0.202453
-0.997634
0.642008
-0.593468
0.588125
0.508628
-0.520706
0.956762
-0.738244
0.320852
0.993163
-0.062378
0.442416
0.232154
0.037203
-0.765577
-0.215512
-0.006726
-0.776490
-0.922810
-0.784425
-0.388761
0.715345
0.732440
-0.430698
-0.969097
0.082267
0.919871
0.938799
-0.742796
-0.306172
0.772454
0.644006
0.990846
0.109249
-0.896983
-0.283702
0.784277
-0.930671
-0.127708
0.374762
0.516493
0.213545
-0.414529
0.152653
0.551851
0.353593
-0.787902
-0.662978
0.393758
0.248105
0.840651
0.522411
0.216337
-0.329106
-0.545966
0.858007
-0.947098
0.251260
0.236514
-0.601946
-0.392023
-0.452835
0.055355
-0.819794
-0.010722
0.230912
-0.601017
0.218059
0.835434
0.887128
-0.255760
-0.006218
0.816296
0.828071
0.557303
-0.528935
-0.997848
-0.286805
-0.675525
0.899063
-0.471360
-0.039506
-0.854906
-0.119449
-0.744786
-0.782934
-0.280396
0.635184
0.611837
-0.424895
0.580304
-0.933822
-0.776657
-0.508791
-0.306556
-0.070594
-0.671974
-0.022386
0.949935
-0.273201
-0.565340
-0.048483
0.354696
-0.030793
0.072482
0.059387
-0.098014
0.607787
0.026696
-0.363593
-0.579568
-0.194176
0.529380
0.129720
-0.072937
-1.430993
-0.372243
0.107432
-0.789740
0.217481
-0.131386
-0.820342
-0.539202
-0.946010
0.655494
-0.912640
0.764374
0.431358
0.626352
0.591995
-0.397972
0.355617
0.444558
0.200125
-0.384783
0.361764
-0.331267
0.181735
-0.723892
-0.454933
0.663201
0.800962
0.611533
-0.288045
0.051710
0.936752
-0.655280
-0.231389
0.879743
-0.909733
0.896893
-0.090282
0.054312
-0.200502
-0.771515
-0.734993
-0.551654
0.236540
0.161360
-0.774259
0.737489
-0.401182
-0.198751
0.007203
0.561047
-0.775502
-0.530031
-0.623669
-0.013279
-0.241698
0.092761
0.130071
-0.848960
-0.523685
0.788068
-0.194987
-0.872525
-0.017893
-0.311322
-0.956061
-0.015208
-1.036772
-0.301995
0.172381
0.019100
0.377341
-0.066326
0.901682
-0.609436
0.519745
0.548163
-0.086855
0.790434
-0.517736
0.576953
-0.414876
-0.210528
-0.054043
-0.545860
0.684824
-0.904813
-0.249107
0.873356
0.365512
-0.797225
-0.069647
-0.679443
0.926420
-0.512282
0.499916
-0.874712
0.862511
-0.278837
-0.759515
0.699241
0.792015
0.693361
0.318734
0.081101
0.146248
0.598185
-0.884824
0.585264
0.195582
0.444615
-0.524898
0.718923
0.656526
0.972073
0.598367
0.502456
0.352119
0.460004
0.204794
0.053571
-0.168744
0.330941
-0.501881
0.322260
0.349594
0.493471
0.293213
-0.750535
0.354583
0.561000
-0.776487
-0.161720
0.992720
0.554440
0.959783
0.351834
-0.583057
-0.617556
-0.733325
0.262943
0.219929
-0.764141
0.906299
-0.368055
-0.931639
-0.888961
-0.484796
-0.969197
-0.843624
-0.511231
0.203317
0.382837
0.934222
-0.326702
0.704186
0.212416
0.748743
-0.339656
-0.681313
0.466762
0.883449
-0.871223
-0.403723
0.222046
-0.215528
0.837067
-0.913032
0.909449
-0.319234
-0.389196
-0.261678
-0.488951
-0.640228
-0.643012
-0.289600
-0.762968
0.501945
0.964168
0.751896
0.021301
-0.571984
-0.878182
0.914940
-0.721198
0.547922
-0.151875
-0.717720
-0.686327
-0.701006
-0.891901
-0.130362
-0.433140
0.704574
0.976738
0.152695
-0.389595
0.521864
-0.665209
0.268574
-0.642186
-0.674466
-0.650518
-0.955648
-0.621563
-0.122776
-0.414267
0.201388
-0.792433
0.205075
0.552297
0.825821
0.935153
0.195776
-0.830969
0.213317
0.887484
0.995778
-0.607990
-0.091685
0.646369
0.371459
-0.178180
-0.165452
-0.903461
-0.206630
0.435984
-0.092245
0.107574
-0.092487
0.970647
-0.442777
-0.152522
0.208754
0.025327
-0.443846
0.661339
-0.722914
0.843741
-0.917739
0.236485
-0.722481
-0.553919
0.753954
-0.165870
-0.597559
0.177900
0.932921
0.429198
-0.708249
0.820527
0.309088
-0.423711
0.746928
-0.934904
-0.895868
-0.211886
0.542633
-0.924597
-0.373697
0.517803
0.873992
0.124503
-0.077776
-0.297719
0.493788
0.184320
-0.108361
0.526394
0.357674
-0.928564
0.736654
-0.351505
0.885366
-0.230636
0.063610
-0.689072
-0.194998
-0.786355
-0.078356
-0.974452
0.272362
-0.106573
-0.115858
-0.672339
-0.697073
0.913131
-0.414090
0.171252
-0.688271
0.816663
-0.294537
0.019002
0.061070
-0.577612
-0.924066
0.009602
-0.668704
0.647206
-0.007975
-0.128251
0.990259
0.614411
-0.881455
-0.426758
-0.518510
-0.110017
0.902634
0.397201
0.775985
0.858696
0.350478
0.044614
0.139398
0.952266
-0.419738
-0.827340
-0.683561
-0.118519
-0.170299
0.983197
-0.123708
0.707836
-0.832285
-0.723298
0.019158
0.053747
-0.011593
0.720488
0.545002
0.805587
0.059354
-0.943235
0.678552
0.528408
-0.251557
0.050919
-0.933802
-0.359983
0.142124
-0.739847
-0.871309
-0.048792
-0.977015
0.295802
-0.720170
-0.115326
-0.478758
-0.642309
-0.156222
0.023815
0.595686
0.293388
0.860098
-0.905667
0.300071
0.751782
0.886045
0.941683
-0.299928
0.225112
0.649462
0.537178
0.899183
-0.755934
-0.883351
0.779928
0.790309
-0.722037
-0.438758
0.559971
0.423707
0.623429
0.819137
0.380115
-0.093745
-0.860536
-0.580485
0.504429
0.926212
-0.152138
0.129593
-0.645854
0.609309
-0.785601
0.423324
0.185329
0.877555
-0.706237
0.914810
-0.920643
-0.949265
-0.211839
0.851001
0.230260
0.731093
-0.784036
0.062782
-0.023146
0.905631
0.527055
0.186054
-0.212250
0.339542
0.338316
-0.918766
0.241461
-0.687338
0.003227
0.935740
0.741100
0.375256
-0.946577
-0.247147
-0.210796
-0.204675
-1.224127
0.475694
-0.852982
-0.273633
-0.483649
0.549421
0.564252
-0.990413
-0.648863
-0.610114
0.129235
-0.291298
-0.809011
-8.213824
-0.239531
-0.738887
0.114826
-0.426328
0.771654
-0.340209
0.172896
-0.792051
-0.689576
0.040857
0.772608
-0.155843
-0.471043
-0.373466
0.404111
0.498952
-0.326532
-0.308435
-0.253078
0.457701
0.589402
-0.612993
-0.002575
0.599653
0.553023
-0.288015
0.590735
0.828129
0.200964
-0.033339
-0.823557
-0.827869
-0.887685
-0.632198
-0.634754
0.102840
-0.279849
0.918343
0.347465
-0.864954
0.616450
0.592316
-0.747363
-0.610434
0.814248
0.426519
0.046565
0.478467
-0.467732
0.756385
0.939230
0.677603
0.599717
0.238618
0.863931
-0.710759
-0.709322
0.813865
0.395549
-0.561157
-0.274727
-0.682095
0.010195
0.885700
0.198845
-0.067354
0.693679
0.594991
0.834772
0.379208
-0.721705
0.163359
-0.762776
-0.403066
-0.235410
0.092508
0.658629
0.496099
-0.332919
0.548439
-0.216399
0.477818
-0.602532
-0.951152
0.135449
-0.802645
0.760048
-0.113941
0.049137
-0.020306
0.192137
0.584015
0.011234
-0.670966
0.059695
-0.962572
-0.446781
-0.747034
0.107726
0.071743
0.158082
0.364775
-0.546460
0.770629
0.663164
-0.537452
-0.460756
-0.691052
-0.842376
-0.939134
-0.445434
-0.597330
-0.089146
0.545683
-0.021159
-0.035529
-0.185727
0.061178
-0.401861
0.976389
-0.051660
-0.957955
0.118363
-0.603231
0.148838
0.654447
0.120424
0.477249
-0.515681
-0.016142
-0.561213
-0.493879
0.463928
0.805215
-0.861437
-0.454802
-0.963656
0.567041
0.345323
0.911655
-0.891244
-0.015426
-0.202499
-0.354291
0.529803
-0.298159
-0.454839
-0.328587
0.041571
0.726516
0.164663
-0.061492
0.343205
-0.319734
0.714914
0.611670
-0.784424
-0.093175
-0.215704
-0.084605
0.320112
0.787368
0.731951
-0.961596
0.746597
-0.200001
-0.648311
0.442373
0.288813
-0.529835
0.494835
0.792482
-0.937245
0.814831
0.785558
0.963396
-0.923355
-0.902471
0.959383
0.165822
0.256403
-0.106862
-0.337009
0.467935
0.243523
0.742140
-0.843981
0.304385
0.262742
0.254506
-0.460731
0.186280
-0.612840
0.644737
-0.080722
0.678327
0.132954
0.126940
0.702501
0.274283
-0.600244
-0.226181
-0.382439
-0.178923
0.444573
0.925349
-0.320432
-0.291209
0.579886
-0.167868
0.922950
0.170465
0.260090
-0.990824
-0.149828
-0.665950
-0.246828
0.399676
-0.509591
-0.336518
0.218330
-0.976083
0.232708
-0.013679
-0.379519
-0.655000
-0.778275
-0.186910
0.358227
-0.516419
-0.425852
0.454793
0.362163
0.946128
-0.786324
-0.821924
-0.961950
-0.543222
-0.025174
-0.091278
5.853799
0.506865
0.835318
-0.307354
0.643312
0.086143
0.025202
-0.112362
-0.631753
-0.873731
-0.650236
0.657724
0.304873
-0.515143
0.967775
-0.092807
0.517065
-0.771243
-0.468388
-0.340288
0.176864
0.043722
0.926063
-0.089558
-0.170382
0.301929
0.745852
0.075971
0.971409
0.535467
-0.955299
-0.672307
-0.392015
-0.449428
-0.885695
-0.105295
0.642322
0.674415
-0.682646
0.743004
0.584137
-0.978268
0.790223
0.883895
-0.724982
-0.552221
0.822474
0.903733
0.156495
0.377016
-0.280278
-0.046219
-0.016919
-0.329484
0.016247
-0.384316
-0.518223
-0.862785
0.310933
-0.024791
-0.144434
0.141296
-0.336221
-0.459992
-0.673821
-0.953837
0.256940
0.264530
-0.029386
0.843963
0.701938
0.743141
-0.703732
0.159798
-0.051058
0.952921
0.675948
0.564520
0.294899
-0.478136
-0.155998
0.487335
0.817387
0.121944
0.089310
-0.766514
0.129587
-0.449752
-0.364723
0.073244
0.357602
0.692964
0.384676
0.775920
-0.980399
0.785562
-0.799068
-0.489600
-0.488760
0.279653
0.884958
-0.232981
0.410239
-0.254511
-0.859112
-0.844627
-0.210286
-0.795260
0.859295
-0.766381
-0.652336
0.592911
-0.650372
-0.418582
-0.007531
-0.511209
-0.645472
-0.004819
-0.784686
-0.681660
0.129801
0.462542
-0.440193
0.784613
-0.302175
-0.981161
-0.574824
0.540549
-4.542289
-0.529391
-0.527549
-0.847785
0.599148
0.204655
0.295289
-0.947822
-0.606876
0.158429
0.909263
0.970253
-0.057676
-0.123282
-0.607027
0.168688
-0.455175
0.617902
-0.562096
0.108078
-0.145290
-0.163485
-0.114634
0.950568
-0.207157
0.429977
-0.678775
0.511153
0.544942
-0.547799
0.265515
-0.708647
-0.668166
-0.550246
0.592504
0.622351
0.341587
0.010682
-0.779622
0.598285
0.771331
0.884078
-0.494355
0.621393
0.851875
-0.592764
0.487107
-0.243782
-0.817241
0.133768
0.958862
-0.882779
-0.326923
-0.539336
-0.075919
0.777984
-0.292301
0.501092
0.785316
0.287120
0.576525
0.141746
-0.468035
-0.007794
0.864586
0.589302
0.140328
-0.515375
-0.734763
-0.556590
-0.935574
0.097795
-0.777481
0.432705
0.337418
0.711297
-0.383359
-0.804379
-0.308649
-0.768643
0.497924
-0.847626
0.578182
0.651337
-0.676361
0.094213
0.623711
0.742713
-0.104977
0.734545
-0.509901
0.379262
0.636333
-0.872284
-0.517884
-0.227075
-0.146196
0.605195
0.937402
0.530863
0.383036
-0.372237
0.928325
-0.958130
-0.649422
-0.015017
0.956993
0.079821
0.669243
-0.746840
0.789553
-0.452436
0.737840
-0.613133
0.957129
-0.297451
0.484054
0.050648
0.183163
-0.911576
0.405355
-0.746208
0.484256
0.902770
-0.164875
-0.363970
0.412417
0.430759
-0.499336
-0.630017
0.574539
0.595942
-0.935073
0.382105
0.513497
0.187358
0.277783
-0.569988
-0.384056
0.604228
-0.464864
0.152732
0.522417
-0.818332
0.244784
-0.623321
0.461805
-0.884251
0.032287
-0.569682
-0.999363
0.393658
0.893799
-0.654554
-0.720364
-0.691421
0.868477
0.438978
-0.637405
1.105988
-0.927799
-0.511087
0.286787
0.584366
-0.189225
-0.067982
0.690361
-0.227997
-0.815295
0.784087
-0.326177
0.696292
-0.781677
0.697275
0.782107
-0.637371
-0.409249
0.318537
-0.018910
-0.762801
-0.497082
0.993691
-0.633334
-1.070039
-0.655606
0.884343
0.408278
0.589455
0.399591
-0.580368
-0.133397
-0.748299
-0.341446
-0.478985
-0.150534
0.194473
0.549399
-0.434146
-0.598315
-0.254226
0.367756
-0.577881
-0.755078
-0.866114
0.581082
-0.217530
0.274909
0.300181
0.307371
0.812168
0.490944
0.741065
-0.588201
-0.531515
-0.167013
-0.250339
-0.294462
0.220480
-0.955212
-0.620063
-0.400543
-0.742049
0.292874
0.962445
0.540844
-0.002423
-0.857021
-0.941522
0.385286
0.534025
0.889656
-0.597721
-0.361340
0.938800
-0.655010
0.245453
-0.508923
0.422891
0.307352
-0.338149
0.651226
-0.986996
-0.588140
-0.754352
-0.765264
-0.667711
-6.789471
-0.402951
-0.543780
0.328787
0.632648
-0.839632
0.975156
-0.426738
0.367608
-0.359165
-0.864292
-0.984121
0.878597
0.723383
-0.452133
-0.448972
0.473582
-0.698276
1.488577
0.428426
-0.335680
0.873404
-0.991057
-0.094639
-0.808952
0.178090
-0.288869
-0.763173
-0.221281
0.318617
-0.179948
-0.727683
0.943471
0.364089
-0.285079
-0.774271
0.794614
-0.022206
0.689487
-0.838201
-0.826363
0.803194
-0.365512
-0.901108
0.903977
-0.173300
0.064624
-0.141955
-0.559733
0.993675
0.920635
0.611551
-0.318153
-0.634902
0.686655
0.176706
-0.204675
-0.106903
-0.093925
-0.542404
0.353169
-0.483053
-0.834430
0.728452
-0.212204
-0.010944
0.528958
0.553481
0.105921
0.141019
-0.575128
-0.644840
0.487270
0.878016
0.110137
0.919311
0.671615
0.155074
0.303736
-0.032831
-0.191684
0.058694
-0.648820
-0.104856
0.235165
0.674068
0.437894
-0.841075
0.172532
-0.282362
0.446151
-0.812558
-0.557756
0.253324
0.711851
0.546317
-0.478923
-0.334250
-0.264252
-0.860218
0.258098
-0.157040
0.846152
0.358499
4.074796
-0.748239
0.636568
-0.034808
-0.692524
-0.996299
-0.249890
-0.081365
0.030685
0.850474
1.242871
-0.271446
0.461880
-0.685463
-0.881721
0.653584
0.688122
0.535520
-0.887902
-0.316929
-0.416184
0.485229
-0.485096
0.228811
-0.462395
-0.410222
-0.702953
0.140884
-0.042396
0.090227
-0.944085
0.618854
-0.872088
0.400097
-0.470409
-0.339969
-0.024776
0.640233
0.278585
-0.570446
-0.661778
-0.052244
-0.776459
0.580610
0.796518
0.003223
0.276963
0.172562
0.753051
0.351906
0.174661
0.639740
-0.384393
-0.306224
-0.058932
-0.219841
0.097392
0.244663
0.489449
0.068581
0.628300
-0.071087
-0.655161
0.685184
-0.130137
0.194955
0.153573
0.218606
0.698292
0.041172
0.646592
-0.291169
-0.038590
0.236252
-0.902496
0.375634
-0.287993
-0.195126
-0.304436
0.679429
0.740989
-0.099259
-0.121639
0.540135
0.286854
-0.928898
0.367526
0.052951
0.517293
-0.850617
-0.762517
0.729485
-0.929984
-0.808754
-0.832080
0.793483
-0.033930
0.503328
0.524639
0.066029
-0.913353
-0.067265
0.050157
-0.193197
0.660149
0.394693
-0.044769
-0.187485
-0.682265
0.901793
0.272934
-0.447141
-0.672843
0.044761
0.532881
-0.760683
0.911702
-0.507441
-0.959597
0.807826
0.536550
-0.902815
0.173947
-0.411173
-0.888035
0.279362
0.040144
0.522705
0.882994
0.792349
-0.947738
-0.241006
0.735290
-0.714139
-0.261549
-0.475141
0.053772
0.860139
-0.588829
-0.088866
-0.789934
0.377760
-0.873975
0.962630
0.767604
-0.050377
-0.045539
0.010990
-0.797109
0.726062
0.139312
0.076804
0.778917
0.078149
0.035498
0.386398
0.566866
0.748536
0.313413
-0.046454
0.380366
-0.545740
-0.185441
0.055449
-0.603426
-2.837393
-0.803396
0.189127
0.414580
-0.689352
-0.771263
0.812441
0.219414
-0.390133
-0.066826
-1.842257
0.203472
-0.420305
0.413874
-0.981008
8.121124
-0.047754
-0.260776
-0.005902
0.439071
-0.490514
-0.357007
0.218334
0.650943
0.284410
0.620623
0.146818
-0.146379
1.009487
-0.942399
-0.854196
-0.707195
-0.502772
-0.060584
-0.656821
0.923436
0.062979
0.736576
0.079092
0.737424
-0.492388
-0.999195
0.206691
0.058781
0.929106
0.577549
0.097044
-0.616462
-0.885358
0.095670
-0.277675
-0.903859
-0.084388
0.758908
0.755894
0.887938
-0.419528
-0.502176
-0.253701
-0.577529
-0.756985
-0.489779
-0.451319
-0.954144
0.487363
0.397117
-0.260641
-0.350816
0.342678
4.057301
0.392861
0.799219
-0.649965
0.485326
-0.653480
-0.280597
0.254844
-0.928889
0.148277
0.345186
-0.843234
-0.092173
-0.637425
-0.382034
2.181208
0.798415
0.997658
-0.456002
-0.130831
-0.165077
-0.538054
-0.093160
0.932136
-0.671959
-0.011124
-0.388914
-0.553263
0.583625
0.693606
0.788437
-0.220473
-0.767752
-0.007478
-0.012699
-0.119745
-0.243026
-0.717440
-0.430821
0.634116
0.336094
-0.379750
-0.631502
-0.586881
0.417063
0.596598
-0.164700
0.597019
1.136598
-0.572349
-0.713945
0.970262
0.432923
-0.947495
-0.436938
-0.117393
0.540096
-0.680361
0.116832
0.752780
-0.049545
-0.294821
-0.395017
0.003539
0.385623
-0.993820
0.513681
0.662451
0.268856
0.046027
-0.300564
-0.152540
-0.015944
-0.887815
0.163131
-0.144395
0.403562
-0.921801
-0.603129
-0.845600
0.769311
-0.902912
-0.946562
-0.940000
0.240623
0.410677
-0.353926
0.485649
-0.042401
-0.364074
-0.827103
0.268848
0.644302
0.654206
-0.473085
-0.667416
0.188182
0.197844
-0.183565
-0.143378
-0.979731
4.525051
0.347589
-0.875630
0.706147
0.108742
0.157415
-0.651671
-0.278738
-0.040756
-0.850082
-0.578854
-0.652059
-0.125729
-0.408328
0.487805
0.421348
0.471380
-0.495986
-0.593240
0.504366
0.234211
-0.895765
-0.388685
0.537280
-0.765733
0.406212
-0.862859
0.983125
-0.844825
-0.689728
-0.035613
-0.902584
0.462867
0.162245
-0.363607
-0.063107
-0.690511
-0.126763
-0.309834
0.257851
-0.734693
-0.278022
0.322032
0.722009
0.990736
0.715000
0.539269
-0.005049
0.056180
-0.584914
-0.065204
0.695445
-0.655208
0.870510
-0.026393
0.106861
-0.159268
0.727548
0.024578
0.622255
-0.534406
0.890453
-0.038253
-0.896907
-0.852786
0.461391
-0.725644
-0.346786
-0.039058
-0.659428
-0.712338
0.766139
-0.084608
0.500506
-0.224900
-0.793863
0.707634
-0.506393
0.589757
0.998746
0.015416
-0.785444
0.020929
-0.828597
0.263751
0.115882
-0.184362
-0.927352
0.835190
-0.889796
-0.458059
-0.977375
0.166434
-0.288379
0.526429
-0.083083
0.777795
-0.281356
0.373314
0.264600
0.976958
0.960635
0.283592
-0.715666
-0.181605
-0.843898
-0.862051
0.945317
-0.601883
0.455198
-0.918148
0.816299
-0.272155
-0.432056
0.575704
0.411518
0.902549
0.105295
0.746741
-0.618999
-0.993707
0.622456
0.330596
0.901487
0.374897
0.225304
-0.490962
-0.583015
-0.794791
-0.741064
-0.163226
0.631075
-0.836956
0.829579
0.910421
-0.171195
-0.484881
0.812382
0.080601
0.946848
-0.623781
-0.733205
0.498149
0.289939
0.858615
-0.422236
0.143239
0.492927
0.834630
0.753783
-0.173655
-0.620440
0.897147
-0.033705
-0.851394
-0.004590
-0.637088
0.792126
0.095380
-0.672974
-0.825322
-0.618334
0.117043
-0.859840
0.269615
-0.994047
0.378150
-0.333339
-0.444117
0.936418
-7.887579
-0.826574
0.898659
-0.431426
0.170348
0.269042
0.214816
-0.695196
-0.271268
0.650171
0.320768
0.578419
0.995911
0.522509
0.137548
0.178650
-0.136921
0.905315
0.741152
0.726854
-0.489066
-0.570107
0.963376
-0.201151
-0.169223
-0.795339
0.217615
-0.595453
0.275668
0.225120
0.042677
-0.380047
0.859430
0.854124
-0.988605
-0.687770
-0.475986
-0.247839
-0.329197
0.432786
-0.286963
-0.550515
0.607200
-0.690274
0.529565
-0.371162
-0.803520
-0.872371
0.000558
0.470197
-0.929716
-0.796557
0.107918
0.354221
-0.387655
-0.606789
0.880422
0.495177
0.473067
-0.192969
0.109694
0.153409
0.803690
-0.575511
0.158980
-0.449574
0.926486
0.408844
0.980498
-0.632682
-0.511377
-0.069543
-0.700325
-0.933202
-0.457249
-0.599458
-0.419245
0.617681
0.659864
0.207183
0.438367
0.739215
0.047466
0.236001
0.683124
0.832843
0.674942
-0.372530
-0.515774
0.627682
-0.131313
-0.081092
0.224634
-0.804081
-0.341558
-2.421298
0.301378
0.919332
-0.158044
0.823050
0.333928
0.176406
-0.276041
-0.236180
-0.421490
0.337882
0.830158
0.219840
0.253400
0.798376
-0.628085
-0.452639
-0.916676
0.642744
-0.924144
-0.831401
0.346243
0.187383
0.233536
-0.563508
-0.813226
0.838679
-1.297485
0.656019
0.218699
0.653479
0.929149
0.210715
-0.231181
0.091618
0.501385
-0.247505
0.366699
-0.221544
0.525105
0.834750
-0.072989
0.925632
-0.704062
-0.042953
0.517299
0.098608
0.400756
0.550644
-0.716441
-0.018345
0.859479
0.294847
-0.834900
-0.574985
0.519831
0.610428
0.691821
0.443974
0.162460
-0.239623
-0.773499
0.989862
-0.483441
0.727653
-0.448777
0.547404
0.789088
-0.216767
-0.621676
0.102671
0.425937
-0.600876
0.747678
-0.935170
-0.663102
-0.569827
0.040727
-0.082455
0.898785
0.953939
0.485474
-0.005961
0.144118
0.598689
-0.530817
0.725321
0.681107
-0.857074
0.583135
-0.541707
0.820451
0.446042
-0.183950
0.771978
0.852177
-0.154613
-0.957905
-0.534887
-0.398962
0.054524
0.536266
0.989004
0.524660
-0.213320
0.201942
0.894417
-0.095952
0.856659
-0.012313
0.990727
-0.419902
-0.905057
0.233209
-0.895713
0.084617
0.211870
-0.666992
0.948341
0.259057
0.087514
0.652517
0.848901
-0.609691
0.130700
-0.775117
0.862690
0.901085
-0.162809
0.523916
-0.489415
0.345277
-0.774940
0.182832
-0.921992
0.573623
0.147800
-0.373924
0.338712
0.316789
-0.389005
-0.142263
-0.950891
0.678929
-0.555920
-0.271879
0.948281
0.329122
-0.360592
0.224511
-0.133146
0.450088
0.857620
-0.121090
0.839761
0.166112
-0.683375
0.169107
-0.596531
0.871629
0.082263
0.423116
-0.317053
0.134743
0.511889
0.248963
-0.695661
0.360219
0.981327
-0.029101
0.480825
0.251137
0.591928
0.437980
-0.819163
-0.374147
-0.720265
0.543525
-0.127112
-0.400994
-0.016262
0.762728
0.345737
-0.641871
-0.811264
0.703171
-0.707490
9.710439
-5.209037
-0.957417
0.293462
-0.889238
-0.533483
-0.367750
0.497555
0.307339
-0.307143
-0.568264
-0.098794
-0.655444
-0.564475
0.501132
-0.947650
0.966509
0.202922
-0.139239
-0.020746
0.747356
-0.675915
-0.930743
0.416953
-0.370595
-0.216128
0.204811
0.839103
-0.905923
-0.591634
0.605461
-0.680904
-0.388182
0.829472
0.331985
-0.433570
-0.513869
0.249044
-0.036588
-0.634922
0.745836
-0.261399
0.478315
-0.932614
-0.904730
0.267758
-0.276826
-0.545475
-0.484841
-0.981575
-0.026729
-0.864675
0.459418
-0.394049
0.339457
0.142059
-0.932357
0.972039
0.048433
-0.602452
-0.984295
0.129048
0.709285
0.607686
0.870230
0.065589
0.847159
0.266002
0.172628
0.154997
-0.158250
0.509743
0.644244
-0.657918
0.258725
0.689377
0.926177
-0.414171
0.276643
-0.767354
-0.254398
-0.553216
-0.391102
0.321573
0.195756
0.449003
-0.212118
-0.662747
0.938756
0.437505
0.549917
0.977140
-0.562005
0.218003
0.364680
-0.592976
-0.899174
0.668050
-0.129979
-0.197745
0.677039
-0.337126
0.880891
-0.928727
-0.591729
-0.338054
0.350164
0.705082
-0.331525
0.319226
-0.232012
0.091555
0.037584
0.965298
0.661505
0.983125
0.011537
0.398051
0.392709
-0.725961
-0.561317
0.252304
-0.300667
0.752712
0.132328
0.635042
0.732335
-0.989907
0.320931
0.159414
-0.496605
-0.538667
0.459640
0.588596
0.636762
0.919041
-0.485178
-0.291225
0.724245
0.519131
0.498311
-0.409792
-0.151958
0.138834
0.299006
0.788801
7.293858
0.809491
-0.485908
-0.424649
-0.401308
0.406192
0.641494
-0.561362
-0.359048
-0.701841
0.098203
-0.166085
-0.619078
-0.994737
-5.457838
0.826554
0.122455
0.347065
-0.128865
0.005038
-0.482786
-0.315207
-0.587586
-0.147020
0.950676
0.766066
0.437218
0.210763
-0.241877
0.287971
-0.282304
0.117401
0.287151
0.389007
-0.902758
-0.265660
0.565524
-0.957979
0.282527
0.288040
-0.853804
0.571967
0.863620
0.845844
0.067358
-0.724152
-0.528128
-0.968647
0.456678
-0.539298
0.322216
0.829023
-0.793744
-0.746092
0.252374
-0.141896
-0.501167
0.049243
-0.213883
-0.132111
-0.686848
0.004528
0.082353
0.790920
-0.299925
-0.152959
-0.654793
0.676229
-0.023521
-0.666247
0.836728
-0.949558
0.256692
-0.641441
0.953948
0.324608
0.054894
-0.357575
-0.059981
-0.153597
-0.777117
0.702685
-0.198691
0.125922
0.480810
-0.655356
-0.087254
0.400208
-0.952233
0.046441
-0.032418
0.219922
-0.876836
0.449205
0.767702
0.257699
-0.579601
0.206259
-0.264691
0.196954
0.164412
-0.988761
-0.450527
0.449710
0.341242
0.845196
-0.291860
-0.797022
0.182277
0.972343
-0.778808
-0.357543
-0.600277
-0.837205
-0.849882
-0.281735
-0.460151
-0.328812
0.501562
-0.024924
-0.441581
0.446982
0.278896
0.991575
0.113938
0.879330
-0.857964
0.822545
0.548416
0.218720
-0.010264
0.367760
-0.250607
-0.252148
0.371853
-0.207051
-0.008966
-0.342326
-0.041835
0.298443
0.934570
0.512957
0.359504
0.087566
0.719942
-0.885798
-0.153728
-0.431286
0.252332
0.230278
-0.389844
-0.645025
-0.386459
-0.242196
-0.458705
0.284998
0.401677
-0.906979
0.863497
-0.756354
0.484150
0.622480
0.338498
0.375622
0.593629
-0.949759
0.616051
-0.390361
0.377838
-0.314099
-0.648729
0.063832
0.715498
0.021896
0.192277
-0.181859
-0.225031
-0.807065
-0.288237
-0.332580
0.487900
0.914327
0.094179
0.810259
-0.084048
0.729377
-1.017480
0.148038
0.166514
-0.967725
-0.519742
-0.302589
0.071957
-0.784774
-0.805777
0.603532
-0.329767
0.585068
-0.702010
0.486413
0.642163
-0.810640
-0.231780
-0.287912
0.707641
0.820708
-0.045034
-0.917873
-0.461432
0.323851
-0.424902
0.738339
0.494433
0.892760
0.095435
-0.082345
-0.222468
0.965929
0.659332
-0.435085
0.795727
-0.143189
-0.615278
-0.632875
0.212812
0.287631
-0.731363
-0.387327
0.778128
0.862958
0.856382
-0.492451
0.480400
-0.743565
0.095289
0.037195
2.085949
-0.762530
0.576303
-0.398035
0.267078
0.328508
-0.021847
0.315216
-0.612458
0.161233
-0.853043
-0.665329
-0.064396
-0.482075
-0.601085
-0.094690
0.081987
-0.153249
0.027258
0.983323
-0.552868
0.474213
0.148068
-0.162301
0.984966
-0.965494
0.736109
-0.940529
-0.052652
-0.137498
0.641957
-0.601757
-0.466836
-0.975451
-0.217062
-0.738839
0.705492
-0.852594
0.744978
-0.154334
-0.039304
-0.166668
-0.508276
0.804788
0.291339
0.918352
-0.266797
-0.188963
-0.938101
-0.886126
0.295518
-0.193384
-0.147989
0.412890
-0.877061
-0.360795
-0.115311
-0.441585
-0.398339
0.196572
0.363193
-0.600177
-0.408223
-0.423970
0.627544
1.080896
-0.936370
-0.423375
-0.924281
0.081580
0.005690
0.938599
0.649484
-0.867523
-0.414340
0.443980
0.993032
-0.823999
-0.492264
-0.289239
-0.314458
-0.324097
-0.297348
0.895722
0.937359
0.105861
-0.073840
0.664522
0.455057
0.206412
0.883238
-0.992136
-0.919046
-0.109949
0.548560
0.506791
-0.325907
-0.496520
-0.151525
0.119419
-0.206983
-0.851959
0.090289
0.168320
0.708485
-0.930417
0.722574
-7.977720
0.434114
0.182023
-0.633917
-0.688231
-0.581969
-0.781632
-0.914658
0.625934
0.718706
-0.595279
0.330889
-0.931947
0.206780
-0.036624
-0.035984
0.235203
-0.414183
-0.878391
-0.989536
-0.943364
-0.243408
-0.777815
-0.156759
-0.375353
-0.471993
-0.041777
0.492250
-0.535924
-0.147768
-0.533328
0.891335
0.388158
-0.689591
0.447030
0.767797
0.212738
0.992165
-0.239367
0.103000
0.696538
-0.642632
0.192718
-0.014155
-0.232769
-0.931393
-0.386800
-0.294510
-0.411704
-0.368535
-0.136028
0.173224
0.016417
0.305823
0.461297
-0.805002
-0.276755
0.013009
0.867623
0.007524
0.292551
0.555703
-0.160606
0.485889
0.314612
0.241645
0.107429
0.018084
-0.606066
-0.414035
0.289807
0.949770
0.641870
-0.221458
0.339133
0.190175
-0.533201
0.944058
0.369698
0.377312
-0.811342
0.895564
0.372348
0.573480
0.867680
-0.067530
0.000319
-0.167690
-0.050950
0.994746
0.147536
0.078755
-0.304597
-0.508968
-0.686164
-0.647489
-0.934768
-0.096416
-0.102190
-0.805799
0.739272
-0.934729
0.753920
-0.198400
0.280865
0.378363
0.285519
0.878944
-0.297377
-0.445513
0.667673
-0.274816
0.191911
0.665931
-0.706665
-2.358366
-0.822739
-0.069419
0.303896
-0.722882
0.323743
-0.823756
0.189278
-0.592109
0.393742
0.080283
-0.891623
0.417026
-0.887836
-0.508310
-0.654239
-0.145473
-8.095408
0.098314
-0.009527
0.733488
-0.218540
-0.036711
-0.338780
0.637955
-0.572063
-0.966602
-0.217928
0.554995
0.631888
-0.752831
-0.952800
0.737505
0.463697
0.352551
0.309939
0.776964
0.905911
-0.911190
0.626696
-0.638104
-0.217592
-0.492321
0.295819
-0.646620
0.172661
0.191079
-0.746444
-0.255828
0.024316
0.587623
0.802341
-0.096029
-0.521505
0.401763
0.089279
-0.250837
-0.444048
-0.028763
-0.059034
-0.622378
-0.114204
0.185850
0.975506
-0.227014
-0.062513
-0.820525
0.446199
-0.035644
0.880189
-0.355119
-0.721158
0.910404
-0.925767
0.677373
-0.913869
0.433934
-0.538479
0.881820
-0.234022
0.607035
-0.710557
-0.307256
0.483487
-0.076895
0.742460
0.592686
0.606219
0.347255
-0.358852
0.299695
-0.780483
0.474124
-0.370925
0.731847
-2.405365
0.954849
-0.981812
0.658280
-0.809546
0.798041
-0.473653
0.544128
0.125474
-0.695527
0.047106
-0.158036
0.677149
0.651356
0.774498
1.182931
-0.488987
0.747771
0.351473
0.560596
0.639176
0.198357
-0.489344
0.067136
0.934140
-0.353370
0.802224
-0.351342
0.607227
-0.258430
-0.570900
0.161460
-0.886200
-0.489189
-0.039241
0.234608
-0.372435
-0.797651
0.801732
-0.258308
-0.637831
-0.016936
0.348533
0.334448
0.224359
0.358310
0.920248
0.922544
-0.890763
0.840112
0.508102
0.120252
0.780381
0.606074
-0.720062
8.548277
0.607993
-0.250287
-0.531272
0.531364
0.641031
0.388609
-0.572675
-0.785898
0.841912
0.960462
-0.975238
0.475161
-0.430105
-0.040582
0.796028
0.847686
-0.605771
0.086343
0.273195
-0.510119
-0.980937
0.274689
0.843079
0.473666
0.162881
-0.361740
-0.303566
0.655625
-0.936666
-0.532667
-0.591269
0.739374
0.228982
0.669040
-0.621330
0.627715
0.917752
-0.760305
0.419425
-0.433711
-0.257744
-0.715359
-0.923193
0.552957
-0.454297
0.398656
-0.771121
-0.821104
0.678403
0.348231
-0.866868
0.650978
0.606830
0.299941
0.982297
-0.089704
-0.322262
0.537087
-0.359684
-0.148033
0.477620
0.332279
0.722748
-0.213217
0.913495
0.486730
-0.864093
0.139556
0.924438
0.779436
-0.598817
-0.581929
0.933085
0.070620
-0.997185
-0.563778
-0.941445
0.489397
0.205027
0.966263
0.307031
0.143966
-0.058895
-0.772486
-0.629635
-0.337385
-0.200164
0.382154
0.904383
-0.253868
0.928498
-0.817498
0.296764
-0.627782
-0.596218
0.332874
0.378606
-0.998979
-0.587316
-1.862584
0.452196
-0.529704
-0.482182
-0.097159
0.269138
0.360965
-0.421468
-0.477940
-0.633059
-0.960640
0.184104
-0.759658
-0.531004
-0.110608
-0.726754
0.049259
-0.116542
0.786516
0.142452
0.457958
-0.419053
-0.548714
0.187177
-0.465492
-0.176827
-0.942821
-0.998391
0.103096
0.729505
0.423391
-0.370214
-0.292220
0.068809
-0.906968
0.895379
0.805982
0.151160
0.128665
-0.479090
-0.953390
0.606754
0.481575
0.854556
-0.651379
0.130723
0.556584
0.551364
-0.147385
-0.509501
0.447893
0.318593
-9.663326
-0.104833
0.458157
-0.917314
-0.435863
0.879039
0.651193
0.986708
0.887433
-0.499393
0.809433
-0.531825
-0.495719
0.278562
-0.146947
-0.619241
0.951512
-0.889056
-0.456376
-0.716429
0.820149
0.295803
-0.396229
0.790800
-0.629782
0.950419
-0.007990
-0.666294
-0.305078
0.580321
-0.729470
0.659346
-0.003356
0.749592
-0.577876
-0.781903
0.888946
-0.385102
0.793691
0.118479
-0.000847
0.106647
0.514969
0.844934
-0.180810
0.515806
0.514174
-0.443532
-0.796295
-0.489431
0.734373
0.333685
-0.717765
-0.253674
0.008856
-0.194452
0.960252
-0.026176
0.790729
-0.183140
-0.346194
0.841198
0.623421
0.317654
0.902722
0.525584
0.907626
-0.240103
0.338035
-0.081619
0.614118
0.685472
-0.078140
0.674299
0.450477
0.490037
-0.172671
0.463768
-0.438210
-0.231596
0.446469
0.642091
0.196379
-0.579009
0.236389
-0.377902
-0.530927
-0.202851
-0.258565
-0.141697
-0.897857
-0.135632
0.765922
0.459815
0.128580
0.379620
-0.547192
0.281520
0.434439
0.674129
-0.477588
-0.464521
-0.506770
0.139318
0.023151
0.364713
0.833837
0.240018
0.672831
0.900484
0.857291
-0.432619
-0.459686
-0.044939
0.601637
-0.082794
-0.966904
-0.554983
0.336216
-0.825044
-0.101385
-0.304004
0.520745
-0.546520
0.658013
-0.930081
0.129728
0.445063
0.150605
0.135003
-0.556193
-0.843310
-0.936272
0.603511
0.266060
-0.804207
0.105939
0.028858
0.004887
-0.893880
0.905800
-0.150376
-0.053278
-0.603153
0.509790
-0.155364
0.901597
-0.637069
0.283495
0.255131
-0.351097
0.424965
-0.382153
-0.159875
0.884173
0.188965
-0.902361
-0.588589
-0.821387
0.594088
-0.387100
0.661095
0.508269
0.754927
0.221711
-0.616569
0.399312
-0.161928
0.067651
-0.655835
-0.301251
0.675788
-0.497138
0.135885
0.249952
-0.214429
0.633373
-7.953525
0.996811
-0.021145
0.500960
0.484087
0.818227
0.398839
-0.056111
0.851016
-0.040686
-0.726369
0.714105
0.020723
0.520262
-0.915213
0.235114
0.555802
0.411121
0.083862
0.071916
-0.060813
0.908033
0.997254
0.962769
0.473023
-0.984808
-0.796010
0.586966
0.093794
0.845593
-0.290882
-0.344109
-0.797192
0.076068
0.437047
-0.778167
-0.435486
-0.216649
-0.841236
-0.702085
0.924616
-0.550510
0.405325
0.894850
0.139062
-0.354782
0.718028
-0.065835
0.958953
0.424811
-0.772208
-0.349079
0.335545
0.677209
-0.373939
0.538624
-0.007493
0.866830
-0.096520
-0.023915
-0.999959
-0.873003
-0.621373
0.932308
0.320647
0.469059
0.418212
0.030078
-0.493410
0.374960
-0.590324
0.472812
0.975105
0.219278
-0.962307
-0.325249
-0.693195
-0.698196
0.693068
-0.872959
0.431016
-0.204593
-0.560134
0.187363
0.894851
0.089588
-0.209816
0.149224
-0.362750
0.615740
0.419788
-0.745957
0.471580
-0.138948
-0.540093
-0.056099
0.169680
-0.264004
-0.297956
-0.919012
-0.812361
0.203957
0.931250
-0.189225
-0.992829
0.375446
0.150595
-0.025608
-0.006002
-0.718132
0.448730
0.342302
0.975858
-0.738965
0.527293
0.547265
-0.664583
0.069814
-0.102504
0.704951
0.963456
0.419844
0.088699
0.541629
0.231426
-0.261837
-0.550894
-0.005434
-1.001469
-0.495131
0.062060
-0.852388
0.882319
-0.979953
-0.801716
0.325720
-0.560593
0.379133
-0.339337
-0.545050
0.173151
0.674858
-0.563971
0.681166
0.107992
0.088923
-0.158919
-0.839326
0.230212
0.329371
-0.105546
-0.060475
0.049270
0.963798
-0.283760
0.722739
0.881774
1.064564
0.215359
-0.842198
-0.043892
0.029036
0.393708
0.617237
0.722902
-0.127794
-0.732615
0.311572
0.755683
-0.182327
0.575762
-0.887640
0.964452
0.323302
-0.650971
-0.653587
0.889018
-0.061097
0.779879
0.193422
-0.358074
-0.388204
-0.181413
-0.983006
0.886266
0.600172
0.544490
0.180871
0.682483
-6.453131
0.404131
-0.243991
-0.738314
-0.823239
-0.219615
0.398185
-0.887550
-0.759734
0.805191
0.957580
-0.467581
-0.069239
0.204519
-0.122953
0.603940
-0.135559
-0.300817
-0.271133
-0.129362
0.877219
-0.147726
-0.949164
-0.115287
0.884567
-1.021388
0.106206
0.694081
-0.945442
-0.113357
0.503704
-0.715210
0.767381
0.721380
0.664058
-0.144700
0.074654
-0.721944
-0.230886
-0.951559
-1.190194
0.340148
-0.069172
-0.189539
-0.260868
-0.978826
0.210221
-0.378164
-0.830668
0.714340
-0.386638
-0.791419
0.889779
-0.226403
-0.548094
-0.045376
-0.170314
0.021521
0.605281
-0.617822
0.692747
0.941430
-0.029281
0.737374
-0.595017
-0.466346
-0.447874
-0.966477
-0.755867
0.948405
0.710610
-0.797117
0.605933
0.592028
0.066900
0.494843
-0.509945
-0.493909
0.982656
-0.195644
0.088669
0.919419
0.284536
-0.107334
-0.824913
0.641463
-0.613135
-0.018879
0.623831
0.942931
-0.454819
-0.143189
0.962253
-0.148671
-0.888465
0.615466
0.368216
-0.422535
0.423977
0.520332
0.694533
0.308194
-0.534555
-0.236518
0.732461
-0.982367
-0.897991
0.200960
0.062146
0.861745
0.089599
-0.050681
-0.408205
0.128396
0.918897
-0.059332
0.337116
-0.486619
0.430772
0.845768
-0.268561
0.505910
-0.629417
-0.182808
0.804204
-0.579995
-0.205541
-0.312915
-0.097553
-0.038361
0.162147
-0.859359
-0.769729
0.419033
-0.112717
0.739711
0.783726
-0.203745
-0.159079
-0.900745
-0.531704
0.672361
-3.474203
0.040353
-0.757325
0.725501
0.855331
0.965660
0.643237
-0.939372
0.388467
0.879197
-0.537045
0.055384
-0.670537
-0.009908
-0.395776
0.984272
-0.787353
-0.933638
0.585079
0.509493
-0.118806
0.024701
0.561753
0.078890
0.995755
0.845444
-0.202364
-0.810272
-0.614382
0.247866
-0.014289
0.258029
0.649950
-0.850857
-0.125308
0.637010
-0.186850
-0.503292
0.844482
-0.373038
0.718691
-0.614905
0.309530
-0.546322
0.299552
0.031131
0.908215
-0.070760
0.434415
0.296901
-0.222456
-0.457848
0.372897
0.565175
0.307334
-0.754837
-0.974608
-0.321870
0.146259
0.008720
0.279444
-0.898021
-0.809935
0.560699
0.450135
-0.188455
-0.510099
0.845489
-0.606480
0.503048
-0.005456
0.742734
0.783882
-0.606625
0.822714
-0.667492
0.083298
0.282441
0.327107
0.256193
-0.060745
-0.197467
-0.394438
-0.778267
-0.808353
0.920821
0.706094
0.593290
-0.632231
-0.200627
-0.016797
-0.532233
0.237595
-0.251138
-0.087015
-0.947055
0.205965
-0.538347
0.926120
-0.665982
0.567425
0.308181
0.903465
-0.558408
0.704681
-3.022901
0.772262
0.353722
0.999346
0.814870
0.796497
-0.843221
0.429778
-0.607360
-0.396644
0.452880
0.327907
0.602141
-0.325928
0.354909
0.985625
-0.312964
0.983946
-0.811604
0.417843
-0.958915
0.076719
0.889656
-0.805005
-0.188912
-0.883005
-0.101001
0.302191
-0.548174
-0.331575
-0.182752
-0.421448
-0.185770
0.240658
-0.364431
-0.748053
-0.828429
0.957332
-0.513672
0.418095
0.606159
0.333414
0.419249
0.382452
0.356937
0.360890
0.047841
0.309646
-0.567684
-0.109608
-0.734567
0.271936
0.731440
-0.904317
-0.632820
0.613851
0.631018
-0.159314
0.828334
-0.917850
0.475260
-0.065599
0.433546
-0.673987
0.040513
0.714367
0.540933
-0.399073
-0.037796
0.120637
-0.902885
-0.368668
-0.714083
0.414804
-0.016742
0.121514
-0.038519
0.579742
0.703318
-0.360243
-0.619542
0.089168
-0.286733
0.179320
0.711894
-0.934533
0.285175
0.680995
0.037914
-0.001371
-0.251862
-0.636503
0.708555
0.745430
0.528028
-0.587252
-0.003846
0.374923
-0.824921
0.258285
-0.179038
-0.436418
0.970409
0.196430
0.587194
-0.726960
-0.400712
-0.291398
0.604619
-0.608480
-0.734906
0.913697
0.800489
0.352220
0.278597
-0.318875
-0.307905
0.123694
0.501594
-0.293864
0.782039
-0.237978
-0.432486
0.419586
6.654479
-0.307456
0.455767
-0.252843
-0.018992
-0.397839
0.727535
0.588323
-0.669793
0.357177
0.662074
-0.219692
-0.121983
0.528838
-0.336463
0.328653
0.282324
-0.513098
0.225432
-0.290269
-0.036013
0.084685
-0.156768
0.455005
-1.118897
-0.767511
0.869126
0.367131
0.029455
0.494362
0.847052
-0.429741
0.589034
-0.726311
-0.015068
0.079198
-0.461807
0.100666
-0.889159
-0.685255
-0.764095
-0.751225
-0.588904
0.057832
-0.578951
0.856741
-0.526994
-0.718237
0.531391
0.368176
0.423122
-0.784826
0.769036
0.956042
-0.336701
-0.606505
0.589262
0.912523
0.464761
0.796745
0.127166
0.619286
-0.249927
0.522527
-0.232703
-0.416866
0.481512
0.641307
-0.566175
0.005735
-0.201955
-0.686712
-0.455010
-0.790074
0.348894
0.577014
-0.100243
0.039107
0.461796
0.580093
-0.472620
-0.893420
0.312110
0.830841
-0.786144
-0.376617
-0.118237
0.168649
-0.326998
-0.564498
0.448500
-0.212626
-0.476420
0.153336
0.228120
-0.512724
0.178991
0.389759
-0.941596
0.040889
-0.589342
-0.661787
0.550297
0.370568
-0.477137
0.008077
-0.419100
0.032922
-0.041675
0.976727
-0.725925
0.417625
0.758396
0.136068
-0.227197
-0.451466
0.251420
-0.566589
-0.645381
0.402447
-0.032015
0.884451
-0.510163
0.049130
0.696884
-0.017337
0.326259
0.196104
-0.039569
-0.457379
-0.753106
0.295410
0.093754
-0.402277
-0.470579
-0.276866
-0.755378
0.970015
0.871153
-0.055983
-0.425010
-0.984352
-0.910326
0.469031
-0.217763
0.689472
0.947776
0.245571
0.323727
-0.562860
0.457328
0.134502
0.412472
0.820586
-0.513896
0.318580
-0.647623
0.971625
0.169644
0.002051
0.210269
-0.647418
0.265416
0.836434
0.668997
0.788025
0.390765
-0.287788
-0.749563
-0.665554
0.627415
-0.959368
-0.633166
-0.172466
0.334072
0.055982
0.487781
0.732138
-0.071660
0.508446
-0.752680
0.696239
-0.475068
-0.816459
-0.478467
0.620697
5.232897
0.745265
1.075671
-0.054881
0.987013
-9.236442
-0.378405
-0.962022
-0.267583
0.716563
-0.776814
-0.950782
0.878453
0.060167
0.638555
-0.676889
-0.396255
0.407484
0.181002
0.409286
-0.940744
-0.931648
0.141348
0.225898
0.882498
0.360700
-0.746708
-0.318577
-0.802903
-0.824385
-0.949769
0.958097
-0.566313
0.694634
0.035909
-0.219778
-0.339914
0.534197
0.230853
-0.021281
0.151000
0.892248
-0.704727
-0.625450
0.812400
-0.869979
0.411018
0.041486
-0.941318
0.515631
0.552925
-0.189933
-0.525249
-0.896384
-0.351333
0.841756
0.264808
0.036987
0.982764
0.253089
-0.749073
0.761297
-0.081076
0.611490
0.006829
-0.766281
0.505443
-0.929593
0.438469
0.671228
0.028300
-0.313655
-0.003928
-0.567326
0.603152
-0.788230
-0.691961
-0.959050
-0.117884
-0.657113
-0.192364
0.094865
0.972780
0.484909
-0.462537
-0.935163
0.130501
0.641178
0.385402
0.904181
0.761874
0.733279
-0.974101
-0.520620
0.656326
0.023860
-0.425958
7.783060
-0.377202
-0.118322
-0.746218
-0.513261
0.341867
-0.165695
0.107382
-0.519733
0.846682
-0.392110
-0.245753
-0.660175
-0.848787
-0.914430
0.494341
0.965731
0.531456
-0.540297
-0.165258
-0.307246
0.250869
0.890792
0.262740
-0.483877
-0.297457
0.129540
-0.658103
0.909474
-0.844701
-0.919719
0.799573
0.210491
0.212346
-0.211028
0.469926
0.691846
0.512625
-0.971992
0.594345
-0.598047
-0.436571
0.832609
-0.224604
0.216960
-0.578974
0.816548
0.136795
0.673490
0.878918
0.139404
0.222186
0.768314
0.053381
-0.129835
-0.233746
-0.191037
-0.171971
-0.999644
0.429225
0.760930
0.436319
-0.826889
-0.777182
0.987681
0.571680
-0.675287
0.162577
-0.115870
-0.390227
0.780941
-0.066511
0.147646
0.693144
-0.071430
-0.210292
-0.411937
0.461839
0.551834
-0.800966
0.482341
0.612706
-0.045907
-0.836693
-0.243896
-0.410325
-0.182114
-0.423252
0.532279
-0.010933
-0.283861
-0.772368
0.579356
0.650112
-0.786237
0.029446
0.594660
-0.525839
0.502828
0.515176
0.011778
0.843930
-0.560057
0.859803
-0.418235
-0.532006
0.061846
0.608923
-0.258374
-0.458831
-0.662576
-0.252670
-0.253535
0.019856
-0.288556
0.803965
-0.611666
-0.090101
-0.671833
0.587332
-0.873004
-0.054944
-0.605930
-0.646194
-0.333186
-0.580304
-0.399956
0.573458
0.965960
0.557818
-0.245203
0.573745
0.557571
0.254899
-0.709914
-0.734765
-0.132557
0.843139
-0.536783
-0.395624
-0.189227
-0.585257
-0.615879
-0.974323
0.114807
0.153037
0.461358
0.924938
0.822273
-0.616042
0.290427
0.230214
-0.751373
0.503867
-0.213786
-0.507417
0.674420
0.805168
0.034641
0.348046
-0.584035
0.679430
-0.368383
-0.196482
0.035192
0.719847
-0.009410
-0.723321
0.395474
0.025557
0.886530
0.783164
0.272221
0.550122
-0.860710
0.718860
0.154401
-0.805293
0.683097
-0.394073
-0.894800
-0.167266
-0.383540
0.492036
0.310978
0.811923
0.007740
-0.186758
0.130406
-0.171758
-0.759999
-0.948640
-0.953974
0.676589
0.898438
-0.737242
0.161545
0.334910
-0.313808
0.343681
-0.904398
-0.881517
0.503748
-0.896385
-0.517306
0.079114
0.884292
0.884271
0.628635
0.619565
-0.090527
6.775243
-0.557729
-0.234256
0.272276
-0.285999
0.804222
-0.445012
0.840912
-0.572042
0.599605
-0.780575
0.092289
-0.332435
0.451286
0.670643
-0.786614
-0.661769
-0.165174
0.936026
0.571961
-0.302665
-0.358441
0.242140
0.438951
0.481047
-0.232074
0.358650
0.308723
-0.393401
0.445682
-0.386792
-0.787640
0.880490
-0.704723
0.519714
-0.594320
0.891763
-0.119074
0.260340
0.721728
-0.043595
0.702501
0.482541
-0.235745
0.229885
-1.071231
0.564266
-0.398583
-0.929254
-0.443880
-0.719232
0.430378
0.409977
-0.297677
0.188106
-0.826139
-0.776407
0.556717
-0.289111
-0.447237
-0.790246
-0.384262
0.240028
-0.466303
0.476130
-0.491296
-0.664842
-0.594547
0.489982
0.505827
-0.832867
0.962842
0.960179
0.100916
0.921421
0.286316
0.737600
0.461257
0.166774
0.493330
0.430062
-0.380573
0.196282
-0.328199
-0.181923
0.025835
0.174295
0.535508
0.932719
0.800040
-0.792029
0.715068
-0.310582
-0.194643
-0.605843
-0.022613
-0.259869
0.678779
0.918907
0.779330
0.689688
-0.536521
0.745107
-0.629099
0.803037
0.164032
0.387758
0.691044
-0.330226
0.528683
-0.892823
-0.347836
-0.918433
-0.842768
0.671220
-0.168977
0.204810
0.888348
-0.053073
0.390243
0.236116
0.775159
-0.720024
-0.060693
0.089180
-0.533418
0.449504
0.406981
0.814222
-0.717944
0.199342
-0.885780
0.678968
0.745690
0.746394
0.852897
-0.156382
-0.671828
0.209362
-0.817580
-0.489067
-0.073033
-0.344692
0.933801
0.872625
-0.396848
-0.855479
-0.616670
0.644770
-0.823086
-0.745316
0.551123
-0.866519
-0.343187
0.832535
0.726170
-0.578986
-0.831020
-0.968384
0.391057
0.053196
0.419913
0.134716
0.962269
-0.262976
0.870644
0.841222
0.091540
-0.413607
-0.712144
-0.813857
-0.901084
-0.547021
-0.113408
0.324795
-0.518523
0.263912
0.656921
-0.657182
0.080319
0.184777
-0.728377
0.637095
0.848532
-0.236375
0.545144
0.359309
-0.788562
-0.764629
0.431144
0.210344
-0.944591
0.476197
-0.549070
-0.818139
0.519098
-0.227655
6.495020
-0.379932
0.067511
-0.652910
0.744070
0.088450
-0.052461
0.903090
-0.423515
-0.403151
-0.488138
-6.117634
0.455301
-0.473852
0.218607
0.243247
-0.720233
0.351096
0.337138
0.864893
-0.831185
0.299812
0.467068
-0.510373
-0.857900
-0.605760
0.187221
-0.933884
-0.504653
-0.551123
0.360913
-0.019582
-0.932733
0.897967
-0.094382
-0.752980
0.357766
0.556314
0.942545
-0.659419
-0.165581
0.700239
0.937282
-0.007448
0.214646
-0.198847
-0.624660
0.164167
0.021703
-0.800958
0.655218
0.518734
0.065835
-0.752643
-0.938553
0.913111
-0.200133
0.292522
-0.664081
0.530864
0.282702
-0.321895
0.500262
0.155639
0.307438
0.288679
0.402504
-0.186704
-0.276166
-0.921807
-0.202400
0.761056
0.778797
-0.499240
0.697035
-0.099638
-0.772968
-0.510067
-0.846211
0.300286
-0.578889
0.723463
-0.169935
0.614913
0.663731
-0.421665
0.116555
0.051712
-0.109395
0.857655
-0.857205
-0.061843
-0.233872
-0.292139
-0.191555
-0.897464
0.030063
-0.157067
0.686159
-0.529947
0.779824
-0.849057
0.513313
0.973763
0.861155
-0.917956
0.577997
0.675725
-0.811811
-0.012627
-0.257367
0.729637
-0.233362
-0.018079
-0.140853
0.810907
0.457603
0.743882
-0.355107
0.313194
0.342271
-0.479179
-0.744573
-0.642166
-0.200549
0.275840
0.964405
0.743077
0.472706
-0.541327
0.091759
0.866732
0.617851
0.215268
0.919329
-0.145726
-0.028741
-0.141254
0.810234
-0.093023
-0.927763
0.044676
-0.117484
-0.120158
-0.720023
-0.845373
0.998723
-0.670893
-0.199814
0.009074
0.276249
0.771624
-0.358519
5.606978
0.435193
-0.882086
-0.008719
0.237809
-0.325883
-0.144879
0.462557
-0.567699
-0.393511
-0.942274
0.625476
-0.606505
-0.378148
-0.719047
0.539769
-0.956039
-0.220112
0.711637
-0.873947
-0.949558
0.625807
-0.189997
-0.269614
0.671119
-0.360429
-0.902889
-0.821026
0.703487
-0.772094
0.225881
-0.007300
0.120719
0.320395
-0.206771
-0.548229
-0.462888
-0.336784
0.520769
-0.184169
-0.642378
0.526073
0.540511
-0.689969
-0.596906
0.292034
-0.984410
-0.349577
-0.271872
0.331749
-0.566744
0.262789
0.131505
0.613644
-0.648618
-0.802178
-0.407124
0.268011
-0.132740
-0.002391
0.054169
-0.225847
-0.368781
0.119064
-0.814673
0.475103
-0.195560
-0.380282
0.638090
-0.233006
-0.747379
0.778972
0.411034
-0.780626
0.612224
-0.476841
-0.162629
-0.427961
0.720716
0.400543
-0.802099
0.343707
-0.899389
0.674011
0.041536
-0.670961
0.205089
-0.551530
0.633300
-0.909436
-1.812311
0.985889
-0.433311
-0.039950
-0.984459
0.781256
-0.329685
0.762180
0.393255
0.577260
-0.555229
0.711818
-0.797260
0.841622
0.611475
0.293494
-0.684877
-0.779406
-0.101879
-0.618055
0.778892
0.738779
0.983884
-0.597494
-0.216356
-0.507436
-0.912565
-0.276402
-0.504663
-0.483497
0.784447
0.440806
-0.209057
0.050657
-0.063866
-0.445915
-0.544246
-7.983574
0.475526
0.563366
8.311674
-0.738489
-0.137867
-0.965431
0.745079
-0.175825
0.612133
0.926964
0.275317
0.818338
-0.351458
0.893883
-0.306965
0.482599
0.471552
0.804879
-0.855678
-0.295878
0.419741
0.317485
0.892264
0.620322
-0.767804
0.156499
-0.258216
0.135759
0.800103
-0.820102
0.536096
-0.832803
-0.469855
0.728986
-0.773322
-0.792121
0.927452
0.968206
-0.445557
-0.281862
-0.831398
-0.414123
0.838229
-0.287921
0.342274
0.264533
-0.698641
-0.311236
0.949702
0.014065
-0.605779
-0.476149
0.094928
0.515700
0.602538
-0.080741
-0.516986
0.852512
-0.750254
0.326127
-1.103300
-0.117004
0.405984
0.522917
-0.164716
0.788223
-0.266202
-0.652973
-0.493851
-0.836766
-0.102465
-0.755809
-0.710025
0.616068
0.943038
-0.716290
-0.098760
-0.938365
-0.940189
0.066476
0.824704
-0.814529
0.176699
0.699811
0.563373
0.429964
-0.405433
0.052576
0.304903
0.969502
0.914702
-0.994431
-0.449202
0.013966
0.980521
-0.869244
0.780081
-0.375569
-0.071568
-0.388403
0.762147
-0.129833
-0.958804
-0.038188
-0.836308
-0.083360
-0.238716
-0.363483
-0.449634
0.113169
0.783471
0.813681
0.251238
-0.772228
0.346877
-0.449376
0.023427
0.829589
-0.728772
-0.737200
0.676949
-0.832368
-0.806815
0.222133
0.234459
-0.107636
0.719270
0.394658
-0.464369
-0.672077
-0.768575
0.596755
-0.735434
0.730477
-0.190194
-0.989256
-0.423158
-0.363778
-0.952108
0.595770
-0.239238
-0.062503
-0.473349
-0.107827
-0.782017
0.925516
-0.215836
0.348093
0.869142
-0.464899
-0.476604
-0.390445
0.647809
-0.870836
-0.950048
0.892423
0.947071
0.727721
-0.552259
-0.396872
0.403825
0.743611
0.219958
0.807788
0.547781
-0.119513
-0.320134
0.185910
-0.355927
-0.781508
0.376123
-0.999756
0.761598
0.838451
0.909435
-0.902312
-0.910347
0.823906
-0.897180
0.910252
0.805560
-0.155325
0.873077
0.432911
0.723571
-0.358958
-0.692764
-0.453457
0.524190
0.591809
-0.348258
-0.093164
-0.847939
-0.756556
-0.357362
-0.595023
0.310385
-0.510947
-0.618574
0.750810
0.761154
-0.680780
0.782571
-6.058129
-0.351670
0.730335
-0.914234
-0.514207
-0.822065
-0.598192
0.091770
0.593464
0.707422
-0.586025
0.788592
0.143982
0.572416
0.898631
-0.397341
0.187566
-0.710586
0.462893
0.403396
0.531751
-0.560438
0.712998
-0.041653
-0.797309
-0.204635
0.723506
-0.361025
0.305051
-0.424030
-0.385498
0.533058
0.698598
0.260130
-0.835230
-0.321502
-0.167729
0.137452
0.634096
0.642238
-0.658697
0.244386
0.021406
-0.494882
0.444739
-0.526284
-0.843675
-0.503160
-0.253576
-0.577793
0.651852
-0.133071
-0.793302
-0.517969
-0.311381
-0.489015
0.135667
-0.902729
0.976785
-0.998220
-0.394874
-0.784583
0.348812
0.675590
-0.910591
-0.653054
0.684374
0.112897
-0.293745
-0.663332
0.737275
-0.079021
0.346985
0.868802
-0.976064
-0.239001
-0.257774
0.483095
0.951282
0.676677
0.022563
0.171171
-0.195103
-0.295796
-0.933104
0.308882
0.123683
0.282356
0.164636
-0.584932
-0.723705
-0.036779
-0.016427
0.178204
0.094617
-0.473046
-0.064219
0.580567
-0.752825
0.430244
0.313558
0.608470
0.573905
-0.095694
0.976591
-0.012080
0.677321
0.477988
0.317767
0.636998
-0.467349
-0.259913
0.345548
0.449904
-0.458509
-0.882871
0.544635
-0.997502
-0.267808
-0.943981
0.639141
0.986353
-0.799364
-0.326177
0.615153
0.705056
-0.875963
-0.261790
0.706630
-0.771402
-0.639547
-0.623669
-0.066779
0.412702
-0.166810
0.051053
-0.395844
0.993286
-0.863957
-0.803513
0.374185
-0.233520
-0.306959
0.905631
0.437773
-0.350285
-0.558285
-0.162653
-0.116553
-0.063483
0.588724
-0.545545
0.810938
-0.516758
0.321935
0.315184
0.059611
0.894955
-0.486807
0.412117
0.254831
-0.707410
-0.853980
-0.720840
-0.294442
0.008789
-0.363151
0.557782
-0.593983
0.271669
0.923881
0.915651
-0.436926
-0.033363
-0.192831
-0.840432
0.556089
-0.650779
-0.979812
-0.449185
0.734289
0.253358
0.403711
0.542428
0.938053
-0.952228
0.222939
-0.517580
0.999755
0.027274
-0.429849
-6.766265
-0.743412
0.510787
-0.896450
-0.607837
0.750210
-0.175326
-0.911499
-0.542450
-0.857058
0.468389
-0.682418
-0.820364
0.970996
-0.132496
-0.654403
0.946993
-0.278424
-0.134351
0.007916
-0.607360
-0.498338
-0.206526
-0.721137
-0.046602
-0.000345
0.884524
0.713667
-0.879089
-0.876821
-0.673694
-0.332313
0.594095
0.467489
0.395777
0.911370
-0.935044
-0.713038
-0.708954
-0.743618
-0.473770
-0.980186
-0.066460
-0.692952
-0.559078
-0.602374
-0.166862
0.899429
0.604937
-0.098836
-0.134845
-0.712685
0.425961
0.880890
-0.972912
-0.185995
-0.250901
-0.786177
0.967887
0.509729
0.831872
0.085002
0.252867
-0.419499
-0.687432
0.739841
0.712003
0.850302
0.852051
-0.823063
0.913943
-0.917179
-0.600586
0.890812
-0.196486
-2.421364
-0.764978
-0.789328
0.179361
0.220956
-0.482582
0.144807
0.187706
0.014111
-0.873657
-0.483466
-0.063938
0.803665
0.109360
0.225308
-0.179688
0.200683
-0.468632
0.506866
0.383049
-0.581555
-0.152886
0.166172
0.419114
-0.414256
0.416038
-0.986936
7.177660
0.802875
0.035537
0.075871
-0.097543
0.867254
0.855157
0.663715
0.432181
-0.747878
-0.895129
-0.682136
0.166436
0.949085
-0.257144
0.223230
0.297724
-0.592026
0.608178
0.531103
-0.853205
-0.967079
0.828273
-0.588970
-0.971088
0.455387
-0.934332
0.377278
-0.521842
0.749205
0.378715
-0.779424
-0.520871
0.061533
0.834687
-0.138313
-0.809851
0.748903
-0.388082
-0.774367
-0.351402
0.656804
0.854424
-0.278110
-0.848141
0.193823
0.855186
0.354385
0.422784
-0.203441
0.853028
0.103802
-0.013845
0.410988
-0.269910
0.478884
-0.440004
-0.696898
-0.709165
-0.490068
-0.275539
0.581021
0.054742
-0.176673
0.118911
0.138636
-0.035075
0.819102
-0.123891
0.195671
-0.251877
-0.422968
-0.270789
-0.839165
-0.591805
-0.346451
0.074871
0.474492
0.669353
0.627971
0.471383
0.345037
-0.716091
-0.690663
-0.050536
-0.551373
0.669643
-0.175922
1.102418
-0.618097
-0.719092
-0.776613
-0.277454
-0.943188
0.720346
-0.820711
0.049895
0.356262
-0.656804
0.955077
0.126055
0.846442
0.991900
0.627234
-0.173360
0.957821
0.194251
0.393522
-0.364053
0.405164
-0.464658
-0.232553
0.544423
0.562804
0.770330
-0.674219
0.725302
-0.748485
-0.923034
-0.252725
-0.888963
-0.836057
-0.960533
-0.209988
0.023921
-0.255644
-0.812179
0.348685
-0.697632
-0.770143
-0.197673
0.836488
-0.660385
-0.028653
0.863553
0.835618
1.059447
-0.729298
0.255571
0.493491
0.744531
0.797166
0.281155
0.025630
-0.044867
-0.669319
-0.400909
0.280363
-0.104216
0.125357
0.842557
0.073523
0.114074
0.155397
-0.527168
-0.118009
0.723809
0.036069
0.963686
0.252380
0.636049
-0.527372
0.170795
-0.904892
0.714641
0.447526
0.850467
-0.709317
0.259155
0.435090
0.435535
0.122763
0.013206
0.904625
0.789878
0.286925
-0.653462
-0.165987
0.681840
0.588144
-0.777925
0.249104
0.121208
0.177029
-0.436974
-0.719208
0.305122
-0.419905
0.371825
0.029544
0.782426
-0.901619
-0.586222
-0.209497
-0.653098
0.186729
0.509008
-0.073546
0.735698
-0.720548
0.077457
-0.242301
0.202670
-0.100065
0.101197
-0.309993
-0.617773
-0.330651
-0.472268
-0.973645
-0.269281
0.292104
0.540167
-0.361620
-0.728589
0.823117
0.351525
-0.370268
0.892421
-0.652924
-0.101623
-0.456419
-0.446933
0.722823
-0.696282
-0.345759
0.484627
-0.884997
0.785008
-0.068843
0.036197
0.884372
0.246147
-0.527914
-0.375678
0.717661
0.021227
0.335283
0.137833
-0.495982
-0.070035
0.173925
0.171250
-0.738097
0.035254
-0.294119
0.642760
-0.990989
-0.159583
-0.007841
-0.007485
-0.878546
-0.094325
-0.306981
-0.362952
-0.119747
0.797752
0.114307
0.273992
0.626450
-0.064382
-0.522836
-0.901756
0.069694
0.165525
-0.884264
0.066422
0.988593
0.254038
-0.286826
7.077320
0.173581
-0.406574
-0.075505
0.266938
0.435119
-0.459816
0.672580
-0.649320
0.427577
0.840517
0.827453
0.748346
-0.239702
-8.850946
0.792332
0.408683
-0.577386
0.366825
-0.860625
-0.231432
-0.145965
0.113664
0.203434
0.011900
-0.843675
0.591945
-0.393902
0.934990
-0.329224
0.551178
-0.613161
0.619033
-0.829510
-0.781468
-0.582105
0.852111
0.141399
-0.771932
-0.391416
-0.174739
-0.010215
-0.949672
-0.030950
0.257770
-0.996092
-0.711001
0.593027
0.186391
-0.453185
0.501437
-0.873635
-0.436739
0.854422
0.714929
-0.670112
-0.408664
0.691622
-0.221550
-0.135857
0.258843
0.385177
-0.924122
-0.452856
-0.341327
0.709211
0.480774
0.543910
0.980535
0.476937
-0.893869
-0.001729
-0.758896
0.162694
0.312672
0.010992
-0.959260
0.525055
0.743893
0.162391
0.166115
0.225649
0.004760
0.008480
0.500950
-0.147888
-1.013334
-0.434826
0.222324
0.094704
0.582776
-0.612855
0.664501
-0.372011
-0.663251
-0.063717
-0.764833
0.566959
0.379868
0.539024
-0.346936
-0.726334
0.143824
-0.844781
-0.198496
1.033792
-0.959324
0.219686
-0.346379
0.851662
0.736119
-0.109870
-0.343346
-0.427868
-0.008149
0.453470
0.780263
-0.884575
0.823840
0.218345
-0.975631
-0.020051
0.177480
-0.695366
-0.282934
-0.020239
0.604823
-0.244091
0.153599
-0.732156
0.486355
-0.012903
-0.636111
0.089442
0.966503
-0.597868
-0.022426
-0.162925
-0.813743
0.829017
0.144885
0.410855
0.296276
-0.030400
-0.565074
-0.794671
0.536303
-0.944959
-0.270434
0.266259
0.111028
-0.843076
0.289000
-0.808261
-0.217878
-0.455496
-0.396308
0.935039
-0.135687
-0.000187
-0.333398
-0.022575
-0.864554
-0.415105
0.377066
0.186507
0.167061
-0.815288
0.686649
0.378140
-0.472428
-0.285922
0.630573
-0.702242
-0.455182
-0.393181
0.213657
-0.503469
0.149165
-0.248272
-0.855369
-0.856572
-0.662469
-0.337857
-0.129911
0.612275
0.052926
0.914837
0.935891
-0.722361
0.768514
-0.684537
0.079748
-0.925685
-0.785764
-0.327819
0.271362
-0.974002
-0.086976
0.838444
-0.504815
0.169811
-0.857357
0.632572
0.276887
-0.253394
-0.443474
0.068496
-0.655669
-0.235294
-0.418786
0.738849
-0.124942
-0.980215
-0.783374
0.630580
0.075239
-0.957664
-0.504043
-0.127118
-0.975608
-0.871780
0.915073
0.150137
-0.159928
0.537422
-0.106180
0.573308
0.445352
-0.461020
-0.446988
0.209051
-0.451856
0.827299
0.511314
0.511730
0.886133
0.061263
0.432625
-0.990669
-0.176249
-0.803895
-0.116898
-0.587894
-0.087796
0.525660
-0.019028
-0.594173
-0.633090
0.012167
-0.782756
0.278603
0.292453
0.746755
0.615622
0.071092
0.561400
-0.373131
0.153088
0.290474
-0.110889
0.975143
-0.122492
0.633033
-0.082998
0.183294
0.581625
0.521816
-0.848828
0.723955
-0.886455
0.774908
-2.984413
1.495528
-0.279342
0.116149
0.327571
-0.803847
0.900593
0.187757
0.010158
-0.937856
-0.526394
0.669353
0.235348
-0.064555
0.892835
0.707959
-0.316896
0.679301
-0.317368
-0.391118
-0.094549
0.326884
0.657172
0.156086
-0.143563
0.146653
0.755431
-0.572101
0.398171
-0.933421
-0.517556
0.882037
-0.362918
-0.552947
-0.676362
-0.338957
0.395387
-0.864651
0.597305
-0.736880
-0.915195
0.055649
-0.288814
-0.496090
-0.574746
0.590224
-0.722488
-0.190906
0.848529
-0.016497
0.186208
-0.653866
0.040890
-0.531488
-0.369352
0.031138
-0.959834
-0.740599
-0.907817
0.135287
0.620073
-0.340466
0.671090
-0.642825
-0.902189
0.284159
0.253136
0.775333
-0.716861
0.840924
-0.199308
-0.431611
0.873780
-0.443072
4.035350
0.188376
0.661049
-0.753849
-0.184237
-0.021572
0.265983
-0.367756
0.475845
-0.555522
-0.693284
0.758579
-0.939528
-0.203298
0.975880
-0.029343
0.025523
0.757046
-0.050809
0.437441
-0.471664
0.439558
-0.171424
-0.259293
-0.719461
-0.271768
-0.846816
0.410053
-0.520833
-0.326562
-0.446939
-0.728102
0.819515
0.620506
-0.352545
0.299376
-0.650542
-0.465027
0.188216
0.995508
0.747836
-0.123180
0.800366
-0.884588
0.498412
0.801137
0.095042
-0.057481
0.514106
-0.422525
-0.172950
0.415150
-0.163396
0.360088
-0.501626
0.218120
0.638581
0.623472
0.183129
0.657995
-0.570893
-0.057053
-0.090148
-1.302024
0.507378
-0.151089
0.365326
0.045704
-0.621108
-0.859542
0.408495
-0.101794
-0.776812
-0.200849
0.827652
0.555784
0.256748
-0.499822
-0.566222
-0.835485
-0.587059
0.071833
0.848110
-0.378495
-0.395878
-0.695328
-0.582622
0.556455
-0.526051
-0.828736
0.162064
-0.584952
0.122279
0.987615
0.103128
-0.668835
0.298511
-0.020830
-0.593072
-0.568409
0.537158
-0.773507
0.236949
0.530684
0.170096
-0.160663
0.601397
0.496531
-0.696802
0.820282
0.874327
0.632002
-0.941137
-0.499942
0.572605
0.295730
0.591097
0.165528
0.385281
0.655839
0.551086
0.266990
0.763991
0.151566
-0.947118
-0.840159
-0.234727
-0.886130
-0.018297
0.413404
0.440777
0.638735
-0.571144
0.928462
0.043001
0.750367
-0.900504
-0.251027
0.416339
0.504776
0.513913
-0.336416
0.310579
0.228986
-0.169010
0.543918
-0.643874
0.989841
0.624781
-0.254088
-0.752558
-0.126958
-0.338816
0.688022
-0.731448
-0.360820
-0.581564
-0.897155
0.326688
-0.431006
-0.074622
-0.133096
-0.998524
0.541533
-0.210888
0.736857
-0.982272
-0.361966
-0.179939
0.369863
0.922315
-0.833646
0.682088
-0.441621
-0.785688
0.692496
0.146923
-0.633069
-0.553710
0.688123
-0.221633
-0.026328
-0.932568
0.162536
-0.198848
-0.684863
-0.315754
0.530851
0.717432
-0.425473
0.489836
-0.148426
0.898131
-0.368348
-0.198494
0.912626
0.481092
0.966451
-0.169502
0.915897
0.787297
0.433006
0.151327
0.125510
0.343004
0.064504
-0.704242
0.334305
-0.435854
0.735077
0.901493
0.391483
0.524726
0.221694
0.367035
0.210428
0.023872
-0.553619
0.213445
0.124866
-0.420206
0.099591
-0.227343
-0.495097
-0.573572
0.408853
0.772336
0.333366
0.420731
0.293464
0.524583
0.991029
0.260763
0.979932
0.389020
0.593734
-0.983957
-0.117051
-0.010775
-0.392467
-0.481214
0.959455
-0.292118
-0.389946
0.117445
-0.932529
0.725065
-0.882689
-0.872966
-0.219117
0.548129
0.765971
0.175815
-0.974106
0.557610
-0.898209
-0.149460
-0.795532
0.823152
-0.680808
0.369501
0.636705
0.444068
0.415607
-0.582425
-0.391554
5.845536
0.317600
0.211445
-0.973693
0.388317
0.955111
-0.024642
0.964262
-0.441280
0.415271
0.438875
-0.392414
0.797560
-0.521742
0.878651
-0.012887
0.217391
0.404842
0.041579
-0.273210
-0.825013
-0.472896
0.910154
0.911974
0.431296
-0.706330
-0.458952
-0.136923
-0.972521
0.109741
-0.726859
-0.830280
0.855234
-0.570906
-0.566167
0.535207
-0.007305
0.521161
0.466630
-0.366481
0.779376
0.173586
-0.819686
-0.844197
-0.309554
0.352289
0.226553
0.073463
-0.132711
0.696462
-0.432117
0.001330
-0.925495
-0.586266
0.369983
-0.821534
-0.029289
-0.410619
-0.668038
-0.989355
-0.563645
0.961490
-0.169247
-0.761113
0.177399
0.837786
-0.396749
0.293333
0.135462
-0.609344
-0.175670
-0.583101
0.224698
0.269972
-0.970413
0.024978
-0.066708
0.004237
-0.255483
-0.163775
0.946895
-0.608911
0.714269
0.026338
0.097336
-0.344042
0.590212
-0.143507
-0.763854
0.527335
-0.711475
0.178657
-0.668457
0.403552
-0.802671
0.437997
0.935488
0.318195
-0.457827
0.761013
-0.625936
-0.165184
0.203752
-0.313302
-0.007471
-0.939739
0.378253
0.192851
0.348162
0.870216
-0.595645
-0.343298
-0.674635
0.603453
0.258182
-0.983960
0.082613
-0.943286
-0.994219
-0.896608
-0.152005
0.978018
0.172505
0.589238
0.298707
-0.312285
0.294511
0.499045
-0.006314
0.181033
-0.613094
0.343561
-0.856600
0.602603
-0.012782
-0.275010
0.814296
0.039338
0.303272
0.826245
0.211136
0.249497
-0.685789
0.098201
0.262842
0.477823
-0.540774
0.202735
-0.882069
-0.154664
0.367948
0.553867
0.549305
-0.912429
0.372648
-0.398864
0.014387
-0.636773
0.953004
-0.939841
-0.723154
0.579076
-0.243364
-0.233919
0.787705
0.136712
-0.770186
-0.992300
-0.051902
0.121236
0.641171
0.517027
0.531261
-4.606114
-0.808299
-0.123391
0.443966
-0.774581
0.356645
-0.995039
-0.104818
-0.871177
-0.002205
0.882187
-0.412097
-0.745520
-0.342905
0.549514
0.177748
-0.620638
0.690006
-0.406267
-0.663601
0.899269
0.960103
-0.873258
-0.175915
-0.697785
-0.416605
0.533784
-0.300275
0.690847
0.091779
-0.340582
0.284437
0.345061
0.400936
0.699878
-0.701434
-0.855144
0.271639
-0.751898
0.635957
0.450062
-0.350916
0.677971
0.853857
0.520542
0.409698
-0.600915
0.741648
-0.384660
0.004652
0.460344
-0.254463
-0.029082
-0.656098
-0.953277
0.751725
-0.407106
-0.850451
0.180657
0.849636
-0.530172
-0.817600
0.104612
0.132454
0.337760
-1.052573
0.034027
-0.295170
-0.269094
-0.931849
0.367908
0.288096
-0.857538
-0.031498
0.280898
0.883607
-0.243894
0.177464
-0.397569
-0.932218
-0.816427
-0.287859
0.501612
0.028604
-0.318871
-0.453042
-0.732451
0.981819
-0.168413
-0.501556
0.581418
0.401375
-0.452787
-0.731703
0.051802
0.156810
-0.698714
0.034651
-0.425055
-0.306503
-0.715324
-0.787077
0.386856
-0.337361
-0.141096
0.976506
0.881762
-0.687559
-0.607227
0.353509
-0.275152
-0.855205
0.622593
0.634744
0.152615
0.338721
0.059358
0.071453
0.261627
-0.031274
-0.792882
-0.645003
-0.326278
0.766244
0.944217
-0.709428
0.464296
-0.586562
0.739255
-0.376474
-0.684955
-0.019121
-0.847074
0.802987
-0.474958
-0.418106
0.423844
0.157662
0.738619
-0.581527
0.967377
-0.796138
0.325999
-0.449193
0.632574
0.151114
0.168904
0.969339
0.192467
-0.395156
0.143339
-0.553722
0.037441
0.282543
-0.414444
-0.940109
0.858466
-0.207141
0.275847
0.295187
0.708523
-0.044015
-0.371610
-0.246602
0.849368
-0.361043
-0.682464
0.808311
0.706732
0.352152
-0.490117
0.452666
-0.609707
0.223983
-0.198355
-0.724270
0.872790
0.670784
0.525825
0.309674
0.285381
0.599772
-0.218870
-0.634630
-0.860097
0.347334
-0.300533
0.028684
-0.269148
0.077873
-0.522413
0.355912
0.131282
-0.165117
-0.168034
0.732050
0.575074
-0.006487
-0.824605
0.074721
-0.864595
-0.883577
0.983405
-0.471086
0.602344
-0.755801
-0.283173
0.200865
0.011241
-0.688317
-0.162707
0.598785
-0.327432
-0.731503
-0.754988
-0.673631
-0.425877
-0.689443
-0.569393
0.496648
-0.641059
-0.549769
0.013708
0.736039
0.380582
-0.592934
-0.281048
-0.391000
0.927169
-0.960637
0.710655
0.150244
-0.521455
-0.567994
0.027462
-0.704976
0.816429
0.821484
-0.948186
-0.906864
0.941514
-0.800530
0.920313
0.327816
0.697524
-0.059333
-0.127833
0.664986
-0.665757
-0.173034
-0.221124
-0.475570
-0.372771
-0.277882
0.748103
-0.371604
-0.489216
-0.340158
-0.915564
0.981609
0.577929
0.570973
0.791155
-0.816999
0.414819
-0.301736
0.655830
0.883632
-0.114422
-0.247225
0.482988
-0.252167
0.146842
0.975035
-0.893377
-0.215477
-0.397211
-0.135866
0.157776
0.059068
0.861053
-0.781425
0.817111
0.793268
-0.772246
0.634504
0.527892
-0.332418
0.250648
0.090627
0.352563
0.995489
-0.774758
0.669607
0.821691
0.766532
0.572051
-0.135817
0.405725
0.386866
-0.058924
-0.625608
-0.661581
0.701076
0.076333
-0.554814
0.324042
0.813647
0.272976
-0.713103
0.450641
-0.632910
-0.312951
-0.318313
-0.774950
-0.764929
-0.407116
-0.135926
-0.665812
0.219051
0.666968
-0.068015
0.551122
0.148030
-0.188341
-0.257053
-0.132051
0.610626
0.207381
0.952788
0.810511
7.934808
-0.328797
-0.041371
0.059272
-0.941712
-0.162406
-0.797590
-0.631771
0.818345
-0.216395
0.460853
-0.402019
0.641188
0.766564
-0.556688
-0.131242
-0.079195
-0.485772
0.679944
-0.290631
0.355127
0.966582
0.808754
0.813909
-0.912353
-0.438749
0.854200
6.323999
-0.148988
-0.197184
-0.970353
0.885724
0.032372
0.827408
-0.927226
-0.433314
-0.506191
0.854555
-0.148987
0.691061
0.060305
0.108476
0.341040
0.662687
0.775985
-0.198869
-0.446306
0.439750
-0.413777
-0.120217
-0.722005
0.978945
-0.731939
-0.793001
0.448445
0.112827
-0.876140
-0.102034
0.475333
0.442802
0.693634
-1.108247
0.495254
-0.585469
0.947393
0.358226
0.773564
0.862560
0.639623
-0.205122
0.237873
-0.613790
-0.198087
-0.500953
0.677023
0.780263
-0.354590
-0.509972
-0.604390
-0.625043
0.246384
0.815921
0.211840
0.355289
0.390944
0.244467
0.936758
-0.052121
-0.928110
0.630165
-0.236681
-0.700237
0.478070
-0.367552
0.425919
0.427210
0.722032
-0.886407
0.572322
-0.759488
0.692377
-0.087954
0.167812
-0.868924
-0.223398
0.395013
-0.210962
-0.135301
-0.297801
0.603247
-0.451163
-0.424884
-0.682371
-0.018082
-0.155060
0.781665
-0.428340
-0.084956
-0.538287
0.543660
0.583678
-0.182180
0.785134
0.124454
0.341428
-0.405183
-0.783929
-0.899335
-0.068982
-0.294786
0.760249
0.680419
0.332810
-0.523887
0.566506
-0.714224
0.961798
0.549416
0.614114
0.180961
0.835324
0.634111
0.491737
-0.971602
0.317662
0.327932
-0.806108
0.946919
0.216420
0.928776
-0.836136
-0.051497
0.363412
7.274153
0.924517
0.087866
0.254198
-0.528208
0.250187
-0.638536
0.247127
0.090263
0.676297
0.684226
-0.814302
0.504798
-0.479349
-0.734647
-0.622675
9.557061
0.188800
0.941231
0.193070
-0.181456
-0.837995
-0.048458
0.742023
-0.184390
0.638975
-0.522409
-0.972624
0.059660
0.242819
0.973036
-0.704737
0.976148
0.685645
-0.098657
0.152039
-0.950723
-0.382271
0.258386
0.659774
0.256297
0.718022
-0.044686
0.623922
0.585027
0.470212
0.373235
0.722451
0.357902
-0.717597
0.551373
-0.850087
-0.329177
0.473387
-0.672050
0.655081
0.471105
0.660051
-0.138252
0.756421
0.793003
3.730319
-0.725216
-0.974528
-0.839639
-0.508501
0.451131
0.002672
0.263004
-0.125370
-0.860341
0.758348
-0.750719
0.962910
-0.902598
-0.567712
0.236236
0.938301
0.721510
0.859912
0.567136
-0.654946
-0.662349
0.489032
-0.941902
0.025381
-0.503334
-0.490927
-0.654556
0.696796
-0.865914
-0.938484
-0.504166
0.793047
0.956500
-0.323225
0.787024
-0.723521
-0.161608
0.412157
0.618155
0.560156
-0.613179
-0.286496
0.021435
-0.438368
0.609993
-0.062510
0.946597
0.665014
0.073364
-0.811707
0.010992
-0.244204
-0.002658
0.683057
0.800088
-0.423474
0.977446
-0.072203
-0.235343
0.516569
-0.113431
0.145664
0.708853
-0.970783
-0.116473
-0.556056
0.145979
0.982504
0.700667
-0.387240
0.221363
-0.545660
0.502061
-0.143780
0.808283
-0.767933
0.143241
-0.540390
0.121730
0.784407
0.666423
-0.499062
0.531793
0.652596
-0.337103
-0.457373
-0.560442
-0.492916
0.384893
0.257566
0.257393
-0.821189
0.166827
-0.169593
0.592630
0.657624
-0.494212
-0.987042
-0.252482
-0.506694
-0.293629
0.345910
0.855643
-0.782095
0.036394
-0.845081
0.905342
0.970341
0.745882
-0.295296
0.415168
-0.692596
0.847941
0.178435
-0.268149
0.447885
0.404672
0.405227
-0.144275
-0.768468
0.597084
-0.432726
0.799920
-0.431852
0.135131
0.274162
-0.941862
0.939445
0.762668
-0.879636
0.890446
0.533773
0.403023
0.992210
-0.263193
0.518239
-0.908305
-0.151588
1.050217
-0.900613
-0.392369
0.594712
0.036732
-0.625716
0.977411
-0.673579
-1.493068
0.129202
-0.475896
0.765334
-0.922020
0.199647
-0.914956
0.631531
-0.009908
0.931505
-0.811654
0.166698
0.484925
0.841944
-0.403850
0.718932
-0.757885
-0.740622
0.592076
-0.646441
-0.459577
-0.754437
-0.424488
0.331836
0.895406
-0.521380
-0.805175
0.353187
-0.179823
0.882206
0.794900
0.420526
-0.996779
0.541113
0.038926
0.735291
-0.000257
0.820319
0.035729
-0.623688
0.339668
-0.114685
0.313678
0.210550
-0.136476
0.497298
-4.987814
0.338231
0.687604
-0.710315
0.201031
0.807689
-0.905372
0.332515
-0.825135
-0.177959
0.972357
0.770451
0.863347
0.675498
-0.566023
-0.134707
-0.464627
0.966219
-0.631611
0.596096
0.572577
0.933278
-0.294502
-0.738345
0.894711
0.490093
-0.687268
0.596956
0.329353
-0.352102
0.381781
-0.575876
0.017100
0.901116
0.754009
-0.042915
-0.467743
-0.382426
0.947766
0.480606
-0.704148
0.830751
-0.223061
-0.127408
-0.901927
-0.398992
-0.352242
-0.824523
0.530304
-0.236101
0.602979
-0.016562
0.309855
-0.492755
-0.826943
0.196167
-0.636014
0.055419
-0.059191
-0.512849
0.082813
0.967551
0.109928
-0.521672
0.797032
-0.470674
-0.590091
0.430176
-0.617293
-0.775916
0.471416
0.444032
-0.859518
0.604602
-0.665958
0.516187
0.815585
-0.490580
-0.071442
-0.019211
-0.876795
-0.944173
0.723575
-0.394598
-0.832810
-0.291147
0.945240
0.980291
-0.594396
0.386410
0.804322
-0.059173
0.859161
0.186813
0.214050
-0.964449
-0.592029
-0.726334
0.462698
0.488060
-0.051994
-0.343330
-0.247405
0.621330
-0.397913
-0.198733
-0.948266
-0.203466
0.805021
-0.363269
-0.438346
-0.371016
0.714522
0.694089
0.584449
0.869028
-0.701235
-0.559559
-0.190693
0.592403
0.817556
-0.001407
-0.619864
-0.078974
0.428211
0.083717
-0.505951
0.556850
0.504757
-0.273413
-0.265745
0.585003
0.314850
0.581134
-0.372390
-0.903032
0.007564
-0.707867
0.899688
-0.339764
-0.061911
-0.213326
0.771366
0.370135
-0.064105
0.400358
0.721691
-0.585852
0.393372
-0.135143
0.226320
-0.149170
0.154923
0.956974
-0.048652
-0.825818
0.404763
0.853567
0.510102
-0.643842
-0.941609
-0.436668
0.623677
0.207970
0.270898
-0.335008
-0.583265
-0.084295
-0.532608
-0.261170
0.848662
0.158098
-0.094355
0.409564
0.969025
0.744802
-0.220397
-0.218445
-0.725658
0.498592
-0.283456
0.294849
5.867700
-0.269796
-0.944864
0.965451
-0.925721
-0.520501
0.078081
0.059977
-0.200369
-0.101492
-0.740902
-0.814066
0.863037
-0.716910
0.708972
-0.405057
0.423930
-0.826715
-0.747276
-0.469996
-0.785788
-2.632988
-0.107115
0.288761
-0.559355
-0.980278
-0.454187
-0.210306
0.545053
-0.584240
-0.464828
-0.966834
-0.635968
-0.003131
-0.278614
0.098663
-0.408844
0.190914
-0.121339
-0.068327
0.931658
0.414422
0.528375
-0.860817
-6.603755
0.917232
-0.317689
0.192017
0.667674
-0.598900
0.336606
0.007806
-0.771930
-0.943522
-0.881301
0.538068
0.779542
-0.864740
-0.216468
-0.092915
-0.395562
0.833730
-0.555165
-0.847903
-0.402258
-0.543590
-0.430696
-0.593181
0.457646
0.372097
0.045196
0.642357
-0.089790
0.057596
-0.983778
-0.335355
0.348332
0.155857
0.943265
-0.587454
-0.969888
0.200222
0.853542
-0.077681
0.987148
-0.144611
-0.948823
-0.402923
0.944812
-0.994781
0.310470
-0.033614
0.832246
0.330654
-0.336934
-0.254430
-0.800006
0.347120
-0.205751
-0.136174
-0.351285
0.447448
-0.089468
0.095093
0.722205
0.783200
0.963542
0.303284
-0.080805
0.045966
-0.518146
0.826076
0.225478
-0.552358
0.360394
-0.525501
0.697670
0.067503
0.722232
0.360430
0.196107
-0.142720
0.704527
0.729233
0.649952
0.007694
-0.676370
-0.647336
0.428529
-0.457600
0.089272
0.522847
0.979939
-0.459326
-0.493940
-0.507495
-0.515828
0.610179
-0.178684
-0.658095
0.399560
0.042237
0.488233
0.369045
0.148283
0.529517
0.873229
0.254843
-0.343304
0.384539
-0.294215
0.046558
0.840586
-0.233791
-0.043353
0.596806
-0.311646
0.494972
0.451351
-0.006876
4.308858
-0.389963
0.658752
-0.450184
-0.057043
-0.618371
0.368858
-0.157265
0.106032
-0.082481
0.925878
0.027035
-0.509291
0.923973
-0.544814
0.882024
-0.320409
-0.024368
0.076885
0.045185
1.043162
0.070016
0.977375
-0.415349
0.737445
0.920223
-0.566351
0.610802
0.606354
-0.256314
-0.420446
-0.836586
0.189476
-0.066230
-0.145030
0.165710
-0.201005
-0.052994
0.290427
0.047513
-0.549137
0.771375
0.386393
0.116999
-0.535280
6.908047
0.420371
0.446098
0.712023
-0.695335
-0.695347
-0.118239
0.675759
-0.921828
-0.452268
0.436621
-0.165282
0.691516
-0.755681
-0.994171
0.669202
-0.282295
0.698307
-0.182781
-0.418401
-0.307652
-0.507125
0.493974
-4.502491
-0.674196
0.315603
-0.682818
-0.738286
-0.404541
0.186883
-0.855356
-0.467669
-0.320768
-0.542864
0.427274
-0.732573
0.681118
0.182980
0.741637
-0.454800
0.599411
-0.127514
-0.552268
0.762958
-0.567226
-0.158033
0.273114
